solver_type L2R_L2LOSS_SVC
nr_class 2
label 1 0
nr_feature 79548
bias -1
w
0 
0 
0 
-0.19793048256489 
0 
0.19793048256489 
-0.2149384998189892 
-0.07375800597289582 
0 
0.2302157980162468 
0 
0 
0.2763919021045129 
0.5936848204170968 
-0.1566424096476579 
0 
0.1837758820613607 
-0.2569199237013711 
-0.2564093454236939 
0.297523069389267 
0.1807705149765936 
0 
0 
0.5044025118409136 
-0.1674035275599679 
0 
-0.00155616694015419 
0 
-0.3897647547802578 
0.0004156506044096683 
0 
-0.4850977746979366 
-0.02217242440639349 
-0.1370942671735284 
0.3299634635828337 
-0.007938514258996946 
0.1985820822892531 
0.1935404407459134 
-0.2492550419569726 
0.1880396651261595 
0 
-0.251267569495814 
0 
-0.1712450740853089 
0 
0.2179932560491869 
0.1146265105704933 
0 
-0.2288791631731277 
0 
0 
0 
0.0002221979160408966 
0.1195183111965183 
0.1491043495243908 
0 
0.001912355394488672 
0 
0 
0.1546036982161136 
-0.3384626753514913 
-0.51067556256544 
0.08634483976739649 
0 
0.0009881330324199224 
0 
0 
-0.1437385966503358 
0 
0 
-0.2268179175192046 
0.2002112050410521 
0 
0 
-0.07274508180288483 
-0.1103887566480569 
0 
0.01189490459267144 
0.1446750395996573 
0 
0 
0.2609562422065457 
0 
0.1530232992609619 
0.315349431596325 
0.2989857107886523 
0 
0 
0 
-0.1642911605683575 
0.2208011800546255 
0.2179885779212374 
0 
0.1099501573778984 
0 
0 
-0.5864547465116909 
-0.003483089111830166 
0 
0 
-0.09786239046844736 
0 
0 
-0.1715565463985384 
-0.0003998942362477059 
0.1112774005176596 
0 
-0.2660602026732615 
0 
0.04812574234659231 
0 
0.08586892040590266 
0 
0 
0 
0 
0 
0 
0 
0 
0.19793048256489 
0 
0.2753059713346699 
0.3969660439152508 
0 
0 
0 
0 
-0.2442480073770266 
-0.0008935107615234573 
0.001084027242235258 
0 
0.09947271914223159 
0 
0.19793048256489 
0 
0 
0 
0.0003413154633326493 
0 
0.5999558957741994 
0.1852036162799853 
0 
0 
0.1096381224516942 
0 
-0.07066058596435902 
0.2302552841617762 
0 
0 
0 
0 
0 
-0.2351472118047917 
0 
0 
0 
0 
-0.08871383107629875 
-0.0367343389244693 
0 
-0.1766529888687245 
-0.1222492992016597 
0 
-0.07984625914282469 
-0.2643178110640501 
0 
0 
0.08661895241864223 
0 
0.1633972180960824 
0 
0.01654573039636413 
-0.06241395616248954 
0 
0.7856814967648643 
0 
0.2325980115695749 
0 
-0.2902342530388669 
0 
0 
0.5100353698862269 
0.04229525685595082 
0.0521168284886834 
0 
0 
0 
-0.212218812491741 
0 
-0.2526437652672805 
-0.2947753501166822 
-0.000582566299664231 
0 
0.2805624734762879 
0 
-0.3322083661408192 
0 
-0.0996317936872988 
0.03901393457938249 
-0.271725556919967 
0 
0 
-0.2584971770424108 
-0.3289774518426659 
0 
0.2147656782820605 
0.2837116520757375 
0 
0 
0.1491770379860931 
0 
0 
0 
0.19793048256489 
0.03745445085329835 
0 
0.2327904481053692 
0.1490718499677951 
0 
-0.2976805016280954 
0 
-0.2996863131464602 
-0.1927052494501471 
-0.1217276736150554 
-0.4127766263485356 
0 
0 
0 
0.1276547427811679 
0.5169391982097916 
-0.1137430864489081 
0 
-0.104457997142249 
0 
0 
-0.1609586238412571 
0 
0 
0.2076698082621934 
0.4975608151699584 
0 
0 
0 
0 
0 
-0.1462406758005766 
0 
0 
0.1405355776605156 
0 
0 
-0.1406131138377854 
0 
0 
-0.1701282848994692 
0 
0 
0 
0 
0.4221725731338429 
-0.2293785210280101 
0 
0.1706039016412935 
0 
0 
0 
0 
0 
0 
-0.1985419005207759 
0 
0 
0 
0 
0 
0.1148891152553849 
0 
0 
0.0003727035675891009 
-0.6228561346917104 
0.04327558377875963 
-0.2592594594069376 
0 
0.1244027806820704 
0 
0 
0 
-0.09036610074949332 
0 
0.009480585215715893 
0 
0 
-0.1988742120561712 
0 
0.006010693586494091 
0 
0.1876711572087588 
-0.1301433005331099 
-0.04400776550082392 
0 
0 
0.000117296711308207 
0 
-0.0003566825654315377 
0 
0.3141072308254474 
0.4728673029992591 
-0.2138595014180685 
0 
-0.00110978907493401 
-0.694588874210338 
-0.6245040941050131 
-0.0436719084781378 
0.1138718550107517 
0 
-0.2807751325830689 
0.04865359403301124 
0.3112939187153192 
0 
0 
0 
0 
0 
0.19793048256489 
0 
0 
-0.3268552396808377 
-0.1582852561569421 
-0.2061750463377382 
0 
0 
0 
0 
0.03455823769528343 
-0.19793048256489 
0 
0 
0 
-0.1392767840168908 
0 
0 
0 
-0.3307226149298972 
0 
0.4673809376584486 
0 
0 
-0.01910971762132472 
0 
0.04594331681653206 
0 
-0.131057497518632 
-0.2417638250908816 
-0.1960132858451812 
0.3348070551199359 
-0.1641401180719672 
0 
0.1028887254171845 
0.6830625589326802 
0 
0 
0.07471330758375765 
0 
0 
0 
-0.2453831359545076 
0 
-0.7440506060381582 
0 
0 
0 
0.1666491051213174 
-0.1767330010471311 
-0.3483820416153899 
0 
0 
0 
0.3899618252660015 
-0.2590613902909005 
0.09548641273635208 
0 
0 
-0.07942605579039433 
0 
0.001211352098175507 
0.02746474677410481 
-0.1941626148788409 
0 
0 
0 
0 
0.1195487211242091 
-0.1821839324202821 
0 
0.2018781638898222 
-0.01092223191835358 
0.09889878456004303 
0 
0 
0 
0 
0 
0 
0.1283264528616787 
0 
-0.1321178867786494 
-0.3119827639967918 
0 
0 
0 
0 
-0.2305627763519638 
0 
-0.1500206697648215 
-0.07699145071288283 
0.004989373605896303 
0 
0.20489526803717 
0 
-0.05978893981098775 
0 
0 
0 
0.08849017770534508 
-0.1221500447728753 
0.1032322137420345 
0 
0 
0 
0 
-0.1903093778170799 
0 
0 
-0.1417827300120992 
0 
0 
0 
-0.1058597103160301 
0 
-0.08472155120741137 
-0.2155805205292025 
0 
0 
-0.1889300515782006 
0.2500744798390813 
0.2291654081291607 
0.2204305049182888 
0 
0 
0.07990895907206735 
-0.3655912758727038 
0 
0 
0.19793048256489 
0.2416195815232844 
0 
0 
0.19793048256489 
0 
0 
0 
0 
0.6272461032029144 
0.2741513145688631 
0 
0 
-0.300535897924941 
0 
0 
-0.05789769619276641 
0 
0 
5.44497021995517e-05 
0.09544257414869448 
0.1866236747856789 
0 
0 
0 
-0.06492021740455846 
0 
-0.1478721470129412 
0 
-0.4399132590388896 
0 
0.19793048256489 
0.181718043797619 
0.08534101205739764 
0 
0 
0 
0 
-0.1093390050953936 
0 
0 
0 
0 
-0.7314385566662611 
0.1994901608556961 
-0.06684727817689204 
-0.2503358811036253 
0 
0 
0.05435375684606825 
-0.04109778040609436 
-0.1037718697815702 
0 
-0.2017794383968995 
0 
0 
-0.07453205853070341 
0.07288265576002725 
-0.302796977615267 
-0.2172584113958034 
0 
-0.2379500529598333 
0 
0.19793048256489 
0 
0 
-0.03232826141235264 
-5.217009529813527e-05 
0 
0.2398331642524802 
0.207044990812233 
0.0775622232608017 
-0.1734883676703158 
0 
0 
0.1111408946254259 
0 
0 
0.178774855737595 
0.2364810513682783 
0 
-0.06432815055117554 
-0.1569129080762695 
0 
0 
-0.1102692710063826 
-0.02377855103463848 
-0.07217747320867686 
0.08944607337606617 
-0.1072146994705 
0.08387586288352625 
0.1503030209371358 
0 
0.1563610705927581 
0 
-0.106867245727866 
0 
0 
0.4004527192470775 
-0.1832725623607217 
0 
-0.587756965083772 
-0.3232650731581758 
0 
-0.007383001937141017 
0 
-0.0363183160341676 
0 
-0.2303176155991339 
0 
0 
0.134235734481357 
-0.0001671317340879083 
0.07377466301489609 
0 
-0.1792882831193439 
0 
-0.4102114523695506 
0 
0.01283783796197862 
0.01750287896354444 
-0.1941626148788409 
-0.246341058175904 
0 
-0.1089105082209184 
-0.1223622744997186 
-0.1855789694655592 
0 
0.0385234604200998 
0 
0 
0 
-0.2614055446050408 
0 
0.4231142280967907 
0 
0 
-0.1533442462199025 
0 
0 
0 
0 
0 
0 
-0.01428790657260543 
0 
0.2432520975117788 
0 
-0.0001556586233600433 
0.2184546157667633 
0 
0.4046764707549233 
0 
0 
0 
-0.2251776933372317 
-0.4648945464201406 
-0.007543632442683172 
0 
0.2172436932920948 
-0.2327729034420606 
0 
0 
0.2713154769366275 
0 
0 
0 
0 
0.0973575343453349 
0 
0 
-0.04919021882488892 
0 
0.19793048256489 
0 
0 
0 
1.551624064431484e-05 
0 
0.4250727338975162 
0.09278306629154906 
-0.2272622957271733 
0 
0 
-0.08438026686818682 
0.07670411115901919 
-0.1945105369654702 
0 
0 
0 
0.1143566989768782 
0 
0 
0.004062812205551927 
0 
-0.02643393673131243 
0.1788269758556867 
-0.292035942358383 
0.08239253269615844 
-0.1649359891831851 
0 
0 
0 
0 
0.0892815239154468 
0 
0 
-0.2427405772640413 
0.109943444658983 
0 
-0.1686645708426866 
-0.001250746207742262 
0 
0 
-0.5411034287371155 
0 
0 
0.2539820094980434 
0 
-0.4426082560499714 
0 
0 
0.3314613223893885 
-0.19793048256489 
0 
-0.0001750005119476834 
0 
-2.586353869872889e-05 
0 
0 
-0.1716014314848366 
-0.2386634918039302 
0 
0 
-0.1644093360643873 
-0.5416351524119728 
-0.1280396058445666 
0 
0 
0 
0 
0 
-0.2675609277531106 
0 
-0.1032285709775633 
-0.5922179766316366 
0.1586915199692615 
0.1342409396086612 
-0.1015901633682721 
-0.1333644967618567 
0.1027825271927184 
-0.5363285639555663 
0 
0 
0 
0.1152540213318689 
0 
-0.2048552056272464 
0 
0 
0 
-0.1407584403261438 
0 
0 
0.03775549864879865 
0 
0 
0 
0 
-0.2509863152045915 
0.06829196073025569 
0 
-0.3255534336953584 
0.0162293023072179 
0.2691859014349409 
0.1674035275599679 
-0.1941626148788409 
0.01449513768474315 
0 
0.0001419987449089182 
0 
0.006143922236405245 
0 
0 
0.1627344417594981 
0 
0.3348070551199359 
-0.03830004879287932 
0 
0 
0.0002320388957897446 
0 
0 
0 
0 
-0.009072975122211712 
0 
0 
0 
0 
0 
0.0003106342423315594 
0 
0.3433230593107234 
-0.2621149950372639 
0 
-0.4574083673382597 
0 
0 
-0.2764894334095372 
0.0585267585344148 
0 
-0.5940368132699462 
0 
0 
-0.2107035205457599 
0 
0.05759449575411378 
0.457594781154889 
0.4350098766227221 
0 
0.0004370332054745021 
0 
0.1462609103561945 
0 
0.0002040568758775767 
-0.04086592983583824 
0.5449880809226864 
0.02884443596983522 
0.2421372733152341 
0.1479984389100576 
0 
0 
-0.1202445991990026 
0 
0 
0.1401439073361155 
0.3133387420588782 
0 
0 
0.1704944565685109 
0 
-0.1032705666246351 
0.3014736763304975 
0 
0 
0 
-0.0813067495068867 
0 
0 
0 
-8.690417960843046e-05 
0 
0 
0.1577300843870518 
0 
0 
0 
0.7187073226938604 
-0.2300707828333885 
0.1510514509201379 
0 
0 
-0.0084565534466228 
0 
-0.1891214705670057 
-0.4395391496059599 
-0.2244544062456738 
0.4325546013702696 
-3.831130131312317e-05 
0 
-0.19793048256489 
0 
0 
0.1662284413456887 
0 
-0.19793048256489 
0 
-0.06903764344791359 
0 
0 
0.08956014724600767 
0 
0.2400457033153781 
0.1259469767586593 
0 
0 
0 
0 
-0.0001505685168741529 
-0.1846067836222197 
0.06172582169133729 
0 
0.233499697583287 
0 
0 
-0.04749507830090319 
0 
0 
-0.2274302411570026 
-0.0922444488839097 
0 
0 
0 
0.08407149396495858 
-0.542356128411687 
0 
-0.1954414387509042 
0 
0 
0 
0 
0 
0 
0 
0.5333531633347666 
0 
0 
0 
0 
2.734837904233393e-05 
0 
0 
0 
0.301401778392408 
0.3478436651907111 
0.2078608961455385 
0.005868143147662023 
-0.04978628992626546 
-0.1317862081636673 
0.0002071377157161764 
0.3039755558616652 
0 
0 
-0.1377188166674418 
0 
0.214377164458055 
0 
0 
-0.1452302465886113 
0.5597066575892957 
0.1800160386057298 
0 
0 
0 
0.09700560503678179 
0.03848191082829797 
0 
-0.05411593070483977 
0.156548275808188 
-0.5966195025191089 
0 
0 
0 
0.1793330978717222 
-0.182779053522682 
0 
0 
0 
0.08389580538376505 
0 
0 
0.2521640266801755 
0.1168794123858099 
0 
0 
0 
0 
-0.5082850041234126 
0 
0.5491911896843141 
0.2236041812206163 
0 
0 
0 
0 
-0.08159174211510126 
0.002327897316477359 
0.1418961680294789 
0 
0 
-0.8792698280397189 
0 
0.2365097051504221 
-0.04883732264309874 
-0.2031791776212427 
0 
-0.19793048256489 
-0.03074744566110843 
0.1120423591912313 
0.01812089584049791 
0 
-0.001710721657464143 
0 
-0.07206424545503325 
0 
0 
0 
0.5100834603719537 
0.5977450194254412 
0 
0.06847485570224354 
0.2922008532877314 
0.19793048256489 
0 
0 
0 
0.006613684134066207 
0 
0 
0.1190113215428393 
0.09850042334412176 
0 
0.08694034102847323 
-0.1694111539587459 
0.1056373480977193 
-0.004632613105879351 
-0.203226014009024 
-0.4271996245087562 
-0.4497428164278706 
0.01925376905221637 
0 
0 
0.1911650883563591 
0 
0.157396587534597 
-0.19793048256489 
0.1913701508561342 
-0.03053428405676643 
-0.2512966267092387 
0.02937155153062697 
0 
0 
0.007349777436541686 
0 
0.1116181883840718 
0 
0 
-0.1579317823947802 
0 
0 
0 
0 
0.2712807592755795 
0 
0 
0 
0 
-0.02803247586078309 
0 
0 
0.361321452267764 
0 
0.6752102262465702 
0.27294567634392 
0.3220394820572444 
0.1924041787384048 
-0.07597816601104319 
0.04124836493953713 
0.1470996457161689 
0 
-0.09710616542905648 
0 
0 
0 
0.183187623016822 
0 
-0.175332112657182 
0.0842138985481478 
0.05073283334486797 
0.1729180212876228 
0.2508411814510318 
0.3332377616099852 
0.1693256408023339 
0 
0 
0 
0 
0.0843019362881719 
-0.1435732977160448 
0 
0.0007134462601619407 
0 
-0.1899856962316714 
0 
-0.2093928461858973 
0 
0 
0.1721211997933234 
0.01942043347843872 
0.4449511478323033 
0.1014779255157585 
-0.000435649313294706 
0.1757428902328597 
-0.1747578927429536 
0.1871817007203502 
0.04834118561317642 
-0.458982848220773 
0 
-0.1806480788883333 
0.05729212593191681 
0 
0 
0 
0 
0 
0 
0 
0 
0.08287470578472719 
0 
-0.17586696242966 
0 
0 
0 
0.01018618424335844 
-0.0048135163156503 
-0.5409895709274178 
4.453041003278689e-05 
0 
0 
0 
0 
0 
0.1833368718640904 
0.0003845740406186356 
0 
0.2384132206502854 
0 
0.2336706084796269 
-0.1188768973848481 
0.4798076261887653 
0 
0 
0.02483353594015156 
-0.00670225760115077 
0 
0 
0.01237467761195016 
-0.2096026411808846 
0 
0.2447278811102884 
0.04079428934060682 
-0.1674035275599679 
0.3077061372995827 
-0.0001671015264644448 
0 
0.07059240886165039 
0 
0.08231769510873327 
0.1818209544260559 
0.6236939284297252 
0.1143789697548133 
-0.19793048256489 
0 
0 
0.1428473323973073 
-0.04780962960791416 
0.2972471975728903 
0 
0 
-0.06761566413257832 
0 
-0.191329625527767 
0 
0 
0 
0 
0.2735401124669729 
-0.415069665889523 
0 
-0.1814135597134344 
0 
0 
0.06216246723474911 
0.001170674998079246 
0 
-0.1925712869070762 
0 
0.1798126561535537 
0 
0.3276081392641305 
0 
0 
0 
0 
0.5001987927806698 
0.1564782482940122 
0 
0 
0 
0 
0 
-0.04883732264309874 
0 
0.2076177629460648 
0 
0 
0 
-0.6715922588121775 
0.19793048256489 
0 
0.1674035275599679 
0 
0 
0 
0 
0 
0.1250538715812635 
-0.1929883086211451 
0 
0 
-0.0626337614436234 
-0.4202066172731637 
0.2572617519162454 
0 
-0.1528499688437924 
-8.800997863683654e-05 
-0.07493877260795409 
0.0002380083078816677 
0 
0 
0 
-0.2382808882200933 
0 
0 
0.01881541127790438 
0 
0.0146201508600135 
-0.1224077299920013 
0.2930902027259675 
0.08772579419643178 
-0.06030053374010819 
-0.3232713489995657 
-7.348514787058311e-05 
-0.2655226071691714 
0 
-0.4232132338023002 
-0.1799820661793072 
0 
-0.5115168378393021 
0 
-0.0006292126794512907 
0 
0.1845896285039002 
0 
0 
0 
0 
-0.01947907501878953 
0 
0 
0 
-0.19793048256489 
0 
0.4332642562895291 
0 
0 
0 
0 
-0.1262719019748816 
-0.03862699452493126 
0.1194321677587648 
0.08250539242760678 
0.000252594244261326 
0 
0 
-0.01522794228602645 
0 
0 
0.3313998176246201 
0 
0.1984607029935394 
-0.09470053383971686 
-0.1349337181700601 
0.19793048256489 
-0.09924643771354552 
-0.3801130793069465 
0 
0.3295900389875354 
0 
0.0001458831768361503 
0 
0.7168270597383443 
-0.3483258180024127 
0.1896859187920418 
-0.2489803107739925 
0.2025854024881557 
-0.3302123989835524 
-0.3651598944116994 
-0.03351667817468163 
0 
-0.1115622285721445 
0.09690065719789447 
-0.1910359614302723 
-0.1852091640637251 
0 
-0.05171848336856495 
0 
0 
0.3635794750891927 
2.610280407893405e-06 
0 
0.103490425502404 
0 
-0.1590339616790234 
-0.13066067413268 
0 
-0.2992683321228145 
0 
0 
0 
-0.04556621440783253 
-0.1453676210162574 
0 
0 
0 
0 
0 
0.2313218756160305 
0 
0.1549277111941013 
0 
0 
0 
-0.1781894787987622 
0.1838889040533504 
0 
-0.07558970866299253 
-0.1596935612833501 
0 
0 
0.3388733340616009 
0.1258888013545663 
-0.2364597203835671 
-0.3339183161225696 
-0.06875657797042671 
0 
0 
0 
0 
0 
0.000955463561608895 
0.1161674921330057 
-0.1449149066056079 
0 
0.02814809051250307 
0 
0.1346101308639771 
-0.04588781742516288 
0 
0 
0 
0 
0 
0.3246632086831882 
0 
0 
0 
-0.5853494535310227 
0 
0 
0 
0 
0 
0.3597825392790164 
-0.08482248730094946 
0 
0 
0 
-0.02010179156867593 
-0.09463797951854176 
0 
-0.1499761286867294 
0.03616304986842815 
-0.07370934595849728 
0.1852036162799853 
0 
0.2054787417127238 
-0.344274475845692 
0 
0.08426445425118213 
0.3470970415124475 
0 
0.07193989245991424 
0.2959486236122107 
0 
0 
0 
0 
0 
0 
0.1196954533165322 
0 
0 
0.0004466312480086833 
0 
0 
0.4880509112032678 
0.1238822868068506 
-0.1148319229892091 
0 
0 
-0.2337447952210966 
-0.1964140439875788 
0 
-0.008372388035889107 
0 
0 
0 
0 
0.0003681154121186346 
0 
0 
0 
0 
0.2742141666122863 
0 
0 
0 
-0.03859960250376603 
0 
-0.06486396713377121 
-0.08990140543048609 
0 
-0.000228019733664611 
0.19793048256489 
0 
0.179097217376924 
0 
0 
0.05683346946447632 
0 
0 
0.000107467168786377 
-0.1300916259986034 
0.1438339799935354 
0 
0 
0.09239189433102518 
-0.1297930999715738 
0 
0 
-0.3886783455840722 
-0.3727099964296013 
-0.2997607456300797 
-0.0001931206567141797 
0 
0 
0 
0 
0.3729292936438995 
0 
0.1688837422774342 
-0.06589351733038482 
-6.077353958090925e-05 
0 
0 
0 
0 
-0.02867272480378737 
0 
-0.1243404205082138 
0 
0 
0 
-0.1485722411772561 
0 
0 
0 
0 
0 
-0.2389530157626679 
-0.05483226080827455 
0.2009842601202479 
-0.06083208272630381 
0 
-0.119016248597643 
0.06214065946597335 
0 
0 
0.0003232355298670626 
-0.25175728707488 
0 
0 
0 
0 
0.08373084412537596 
0.04660008297213509 
0 
-0.128582295640243 
0 
0.170661660303961 
0 
0 
-0.05441091533918368 
0.1732495539971986 
0 
0 
-0.340398002232612 
0 
0 
0 
-0.02378418108085991 
0.09863266488579842 
0.3996716628442155 
0 
0.0498909789258702 
0 
0 
0 
-0.19793048256489 
0 
0 
-0.059240234754108 
0 
-0.05252973648171838 
0 
0.370061943519822 
0 
-0.01025769422075074 
0 
0 
0 
0.4992394567147416 
0.07240862220138936 
0.2065087610595282 
0 
0.1635467537756007 
0 
0.19793048256489 
0.0104799847610184 
0 
0 
-0.1541880790527255 
-0.06944158451293357 
-0.1742536797208487 
-0.1369818811683754 
0 
0 
0 
0 
0 
0.2907961468722411 
0 
-0.0001009233574076283 
0 
0 
0 
0 
0 
0 
0 
-0.04630311561899204 
-0.236179398690649 
0.2892260267658633 
0 
0 
0 
0.2559142846128614 
-0.1653818145708849 
-0.2294573393211389 
0.1766632975912322 
0 
-0.369901043587806 
0 
0.1414560508237685 
0.4890914617605712 
0 
0.3959072364771915 
0 
0 
0 
0.8016306012073455 
0 
0 
-0.1089449611969843 
0 
0 
0 
-0.01038236304298833 
0 
0 
0 
0 
-0.1572658354932873 
-0.1118431733872499 
0 
0 
0 
0 
0 
0.1834658845911631 
0.04121838074770049 
0 
0 
0 
0.1521070420112288 
-0.08196228173191547 
-0.09209321890901176 
0 
0.19793048256489 
0 
0 
-0.08285267129322094 
0 
0.2546207613300631 
0.09819676926142094 
0.2683010205380654 
0 
0 
0 
0 
-0.0001077378075253583 
0 
0.1222748249521416 
-0.2259591225690152 
0.3560146609409703 
0.480215389271753 
0 
-0.06205597035781708 
-0.2228463525145326 
-0.3631664711234453 
0.2007620139146623 
0.03773898777181976 
-0.1190237317267965 
0.0004886886212705727 
0 
0 
0.3170523224728748 
0 
0.3773957973421146 
-0.6335650348635192 
0 
0.2053327479907494 
-0.2509863152045915 
0 
0 
0 
0 
0 
0 
0 
0 
0 
0.4101290331590814 
0 
-0.1716558835599597 
0 
0 
-0.2231175634868819 
0.3837180410439667 
0 
0 
0 
-0.5436847453713031 
0 
0 
0 
0 
-0.1168141288930895 
0 
0 
0.05216910752622207 
0.1374336562787715 
-0.1622927522753823 
0 
-0.227826186941756 
-0.04506945495704971 
-0.1093570513725485 
-0.2296372451981029 
0 
0 
0 
0.2071151762373307 
0.2022162836455447 
0.01207884996831857 
-0.167893253158747 
-0.19793048256489 
0 
0 
0 
0.1878931336895407 
0.1716191432595908 
-0.0007770291803597811 
0.3237422188480806 
0 
0 
0 
-0.009250706828327449 
0 
0 
0.001858403384824598 
0 
0 
0 
-0.05519191457527655 
-0.04523021629679327 
0 
0.2580459700665367 
0 
-0.2493941608952611 
0 
0 
-0.1579459560132684 
-0.2827265332418851 
0 
0 
0 
-0.07618623754987575 
0 
-0.1168435845765752 
-0.03035371908211885 
0.06795563220656496 
0 
0 
0.156747578308987 
0 
0 
0.2746125981430791 
0 
0 
-0.2339347535453884 
0 
0 
0 
0 
0 
0.19793048256489 
-0.06024332292304259 
0.1350924455802245 
0 
0 
0 
0 
0 
-0.1063718681718698 
0 
0 
0 
0 
0 
-0.1588703303058481 
0 
0.06069088597735657 
-0.0002059030343313901 
-0.0003823469313588379 
-0.00063621349862116 
0.2827633697954447 
0 
0 
0 
0.2872461642631861 
0 
-0.2772264844685147 
0 
0 
0.02694595427852975 
0 
-0.348844540832436 
0.0001422021843379626 
0 
0 
0 
0 
-0.1366013300242201 
-0.02043775619931842 
0.1991004370834139 
0.01867000895639917 
0 
0 
-0.06429985428330398 
0 
0 
-0.7097028845205764 
-0.01703753135097511 
0.1494886981226839 
0 
0.4332285612363477 
-0.1162239354033551 
0 
0.19793048256489 
0 
0 
0.5043973452238695 
0 
0.08427264174698708 
0 
0 
0.2784755923651192 
0.2059315206900388 
0 
-0.2662609604972912 
0 
0 
0.1574165626752681 
0.1040182273448215 
0 
0.2463681577493453 
0 
0 
0 
0.4992852737923704 
0.124050589117182 
0 
-0.6324415531235094 
-0.1551584416576303 
0.1475163027624747 
0 
-0.02304957738629079 
0.1210292696299433 
0 
0.5533940096938678 
0 
0 
-0.1692150312651315 
0 
-0.07872783303406213 
0.1632586675928992 
0 
0 
0.07232448898495623 
0 
0 
-0.2633829238003579 
-0.134761182087333 
0 
-0.270578429652384 
0 
-0.1860563988085969 
0.1349683308879849 
0 
0.3967119871424321 
0 
0 
0.4683493810372454 
0.05172957489721645 
0.1291338335080804 
0 
0 
0 
0 
8.548422600841006e-05 
0.005461307114479915 
0.1063106633981127 
-0.1363055535981327 
-0.009211046482874123 
0.2142240327348912 
-0.0002040786988008621 
-0.1555040136060869 
0 
0 
-0.1251900064534025 
-0.1956907335026344 
-0.1569236731155485 
-0.2451135440140678 
-0.004076609638228984 
0 
0 
0 
-0.448817181389737 
0 
0 
0 
0 
0.270431415852808 
0.1436406970738265 
-0.19793048256489 
-0.1270697735159122 
0.4308276348459116 
0 
0.07568135639761081 
0.3284089082687265 
-0.8737731729961303 
-0.1125154212436563 
0 
0 
0 
0 
0 
0 
0.2040485953362149 
-0.03517866190884595 
0 
0.3416683888522571 
0.3410170332251089 
0.07059240886165039 
-0.1677120461100085 
0.01957250905834068 
-0.1003999248817792 
-0.1674035275599679 
-0.1106898408018969 
0 
-0.1278130217912868 
0.07674971723338267 
0 
0.134235734481357 
0 
0.1140427710039403 
0 
0 
0 
-0.08778541654991792 
0 
0 
0 
0.1627384284018793 
0 
0 
-0.215248689244915 
0 
0 
0 
0.09627033012565045 
-0.3580083785955185 
0 
0 
-0.2012925272535321 
0 
-0.3787772743407338 
0.3621812474463103 
0 
0 
0 
0.1404614676394179 
0 
0 
-0.0009985397452095929 
-0.0516392066409013 
-0.1159104601719469 
0 
0 
0 
0 
0 
0 
0.2637884499104612 
-0.3233997161815436 
0.2586892713200479 
0.6289474994372781 
-0.002780957172120455 
0 
0.1674035275599679 
0 
0.1545053475523713 
0 
0 
0.6050685215668004 
0 
0 
0 
0 
0.3524623273469092 
0.1297576911347333 
0 
0 
0 
0 
-0.1979591386425155 
0 
0.5413125470814566 
0 
0 
0 
0.3531054907091802 
0 
0 
-0.6622415037898437 
0 
0 
0.03640969740035482 
0 
0.05030752327059967 
0 
0 
0 
0 
0.000110289784162085 
0.4246335444381892 
-0.01852084351288866 
0 
0.03594947026954584 
0 
-0.5561294904272016 
0 
-0.1451788592310608 
-0.69385162520274 
0.3735241811816534 
0.2920590709470067 
0 
0.116942111854766 
0 
0 
0 
-0.07910307350648987 
0 
-0.06828753793029312 
0 
0.2771688847123412 
-0.6451627683467541 
0.005773267624201064 
0 
0 
0 
-0.07948980693603912 
-0.08755532616192808 
0.1953832888940551 
0 
0 
-0.001512593495546206 
0 
0 
-0.1671595595905759 
-5.337879435127931e-05 
-0.1087965013523801 
0.1765185424559226 
0.2092918567730483 
-0.19793048256489 
0 
0 
-0.2180492876070612 
0.07764222136691136 
0 
0 
-0.28255547452545 
0.1976042006563594 
0 
0.372272593585025 
0 
-0.1591997274841793 
-0.1606068231045436 
0 
0 
0 
-0.3866402065843684 
-0.0001908148311965186 
0.1404247342376763 
0 
0 
0.0003385771998858371 
0 
0 
0 
0.003046002512373153 
0.2003028215807821 
0 
-0.03281425060255058 
0 
-0.08929357101509618 
0.0003123468071049237 
0.3233722974398667 
0 
0.3047884160585826 
0.07374296918326718 
-0.08954302814733522 
0 
0 
0 
0 
-0.6436398140050513 
0.03916335422607595 
0 
0 
-0.070087123842419 
0 
0 
0.2014307207197636 
0 
0 
-0.01213347227701265 
0 
0 
-0.2613655804542711 
-0.3068678120285697 
-0.2776334639389858 
-0.2024071786516891 
0 
0.3510960889246433 
0.0001568910552260173 
0 
0 
0 
0 
0.0005339462703416897 
0 
-0.3530447683289631 
0.3902241379860279 
-0.7792013556673956 
0 
-0.0684092959561288 
0 
-0.19793048256489 
0 
0.2664646659720186 
0.05337936789437017 
0.162413566033012 
0 
0 
0 
0 
0.05629634632338759 
0 
-0.1238341969760857 
0.3147088880773745 
0 
-0.03878997010203025 
0 
0.1805505738477645 
0 
0.1949595216229949 
-0.09272318125094878 
0 
0.1083315567306855 
0 
0.1008006147829562 
-0.2462655286114225 
-0.1794107762521526 
0 
0 
0 
0 
0 
0.05642838874739757 
-0.1045315580558921 
0 
0 
0.3239933857358167 
0 
0 
-0.1081784912095986 
0 
0.2105243001419006 
0.19793048256489 
0 
0.03873222616097922 
-0.001261595727834677 
0.09661139237731463 
0 
0 
0 
0 
0 
0.1244572198041109 
0.04300865987712847 
0.09675288182452101 
0 
0.04077669208810787 
0 
0 
0 
0.1302290668437185 
0.009027507432171353 
0 
0 
0 
0.04865847299725074 
-0.1425830321233905 
0 
0 
0 
0 
0 
0.006095115055323494 
0 
0 
0 
0 
0.04265985353275182 
0.2415628187502603 
0 
0 
0 
0 
-0.3218609290195854 
-0.2430156643050468 
-0.08238559169971768 
-0.1946597396328295 
0 
0.04483365877971168 
0 
-0.3272543219357573 
0.2194786332604027 
0 
0 
-0.3444035136022988 
0.008881592535158876 
-0.1676526562932774 
0.1387356056552674 
-0.0002830188172665249 
-0.2858556396036955 
0.09003044068079062 
-0.02560413878123518 
0 
0.05666973510948604 
0 
0 
0 
0 
-0.4489785807734261 
7.968532011964959e-05 
0 
-0.1671773399004246 
-0.237724613066238 
-0.2269937635074127 
0 
-0.2183784539749627 
-0.1143769119326117 
0 
0 
0 
0 
-0.03995320905783407 
0.2254385214726322 
0 
0 
-0.20033579561772 
0 
-0.4003636975493857 
0.4225230209641424 
-0.19793048256489 
-0.6751907260423502 
-0.04590755651644954 
0 
0 
0.453608337718136 
0 
0.1162266542195686 
0 
0 
0 
0.1491765526985713 
0.2117697845939167 
0 
0.4250556648037355 
0 
0 
-0.3888858087539016 
-0.2648650337898146 
-0.6984225027479364 
0 
0 
0 
-1.759408534060625e-05 
0.07335314902340821 
-0.001747498209537812 
0 
6.752057774378702e-05 
-0.1662920305967692 
-0.207178916403416 
0 
0 
0 
-0.2272188669628433 
0.2468121932110756 
0 
0 
0 
0.09305961380238566 
0 
0 
0 
0 
-0.0530158268880272 
0 
-0.1462439753265352 
0 
0.3407061445043477 
0 
0 
0 
0 
0 
0.3850018583159982 
0 
0 
0.05210950237478248 
-0.1394849988956361 
0 
0.07037850146062991 
0.2803024899185116 
0 
0 
0.1887147452278403 
-0.09394250845526093 
0 
0 
0 
-0.3867279935610992 
0 
0 
0 
0 
0.3006439606568375 
0 
0.1290146134126819 
0.1974236293100685 
0.08506435878262185 
0 
-0.02092598451867386 
0 
0.2511319172137323 
0.1742165993868162 
-0.02972985484845989 
0 
0.05711371153875409 
0 
-0.1516979456588546 
0 
0.2085275299306587 
0.2003073989713316 
0 
0 
0 
-0.1431463229885343 
0 
0 
0.7667850580217349 
0 
0 
-0.005657957798267245 
-0.03466113455329681 
0.215618851633167 
0 
-0.170402608179127 
0.19793048256489 
-0.3790868279134802 
0 
0.2814600551126274 
-0.1296987111065925 
0 
-0.2008222880050078 
0 
0 
0 
0.1390778820932311 
0 
0 
0 
0 
0 
0 
0.2303720444301226 
-0.03662185736155891 
0.1921459250065133 
0.126267362872772 
0 
0 
0 
0 
0.2605360320627185 
0 
0.09599311112135858 
-0.6740660447432003 
0 
0.1112871491545169 
0 
0 
0 
0.5315812820115663 
0.571953032566102 
0 
0.1745731245550766 
0 
0 
0 
0 
0 
0 
0.2721413459045451 
0.01235154266382943 
0.1674035275599679 
0 
0 
0.1517191413741372 
0 
0 
0 
0 
0 
0 
-0.0024919833751485 
0 
-0.07418158367160242 
0 
-0.01241626605174765 
0 
-0.17700114633452 
0 
0 
-0.523090521491605 
-0.1876606778185716 
0.003477758590732697 
0 
-0.09923050237384436 
-0.1674035275599679 
-0.0006117445410439395 
0 
-0.003138812299348919 
0 
0 
0 
-0.5555442647347651 
-0.06750558804989371 
0 
5.070874237080332e-05 
0.2834131861629524 
-0.2109242292590613 
0 
0 
-0.1674035275599679 
-0.3330104811759717 
-0.02327719324423953 
-0.3324236712350748 
0.125841109672284 
0 
0.1522729905573467 
0.5636480314297848 
0 
0 
0.3423126647039689 
0.6001130625503716 
0 
0 
-0.1388454329645357 
0 
0 
0 
0.3548952510498476 
0 
-0.1321416015094066 
0 
-0.110040238842818 
-0.1512586064357293 
0 
0 
-0.8639220650542668 
0 
-0.01963271194800554 
-0.241584251133918 
0 
0 
0 
0.0883125097484166 
-0.1746458876724497 
0 
0 
0 
-0.00406376424468046 
0 
0.06242237282212657 
0 
-0.707317151976342 
-0.06298857928824916 
0 
-0.003382425080634672 
0 
0 
0 
0 
-0.1444830267973913 
0.1595420610155997 
-0.0007424428422903762 
0 
0 
-0.1269490852808451 
0 
0 
0.3081750784056616 
0 
0 
0.1766072154003775 
0 
0 
-0.3246247245117244 
0.4582379799592544 
0 
-0.8596319859560444 
-0.1283868059552586 
0 
0.007180330218879405 
0.5043306843723659 
-0.3654215839052063 
-0.2015752810383737 
-0.1641542215389379 
-0.02993670633793641 
0 
0.19793048256489 
-0.03253982984865872 
0 
0 
-0.05964582299293791 
0 
0 
-0.1459505301108236 
0.1452292862423585 
-0.1287963707022678 
0.2132232194382329 
0.2212646675680374 
0 
-0.342915006383845 
-0.393754387645518 
0 
0 
0 
0 
-0.1312596199525504 
0.006234626385727552 
0 
0.2512844697611095 
0 
0 
0 
0.2245246268542279 
-0.3252962610317953 
0 
0 
0 
-0.2518814738408431 
-0.2070485521487135 
0 
0 
0.142384948643614 
0.2210106311222768 
0 
-0.1836465028894599 
0.440675072660136 
-0.07192921652202768 
-0.1907743104959443 
0 
0 
0 
0 
-0.1309428008619655 
0 
0 
0 
0.1287419530515537 
-0.0006857338712900734 
0 
0 
0 
0 
0 
0 
0 
0 
-0.351040806009512 
0 
0.03151035009625642 
0 
0 
-0.2163252430224504 
0 
-0.2108339210556354 
0.05482767030145074 
0 
0 
0 
0 
0.1731662077724128 
0.339316993439681 
-0.2652556162436184 
0 
9.370924472798584e-05 
0 
0 
0 
0 
-0.3032240962343432 
0.09010961342227727 
-0.1048469331805448 
0.19793048256489 
0 
0 
0 
0 
0 
0.2017869160934598 
-0.0390953477855731 
0 
0 
0 
-0.2355806160332256 
0 
-0.1970696275166899 
0.2406490691973663 
-0.1818893321565486 
-0.1766070864430816 
0 
0 
0 
-0.6302902049662759 
0.3859739101401926 
0 
0.2064830815198014 
0 
0.2849567917449364 
-0.1733459594256422 
0 
0 
0.1675573255224288 
0 
0 
0 
-0.1049387118556246 
0.23754979429395 
-0.2901994407351696 
0 
0 
0 
-0.111891298182144 
0 
0 
0 
0 
0 
0 
0.1930987702181689 
0 
0 
-0.1195779472761128 
-0.1990110342333616 
0 
0 
-0.04435443747556587 
-0.1282664351458313 
0 
0 
0 
0.06620920297282651 
0 
0 
0.08021498295345074 
-0.3995297316020485 
0 
0 
0 
-0.0001634513740938071 
0.09038538475907093 
-0.1814851337247461 
0.1150352224037055 
0.30803737044156 
-0.139318998311672 
0 
0 
0 
0.1817435568633145 
0 
0.06097225751753386 
0 
0 
-0.04521876832145035 
0.0844644935723779 
0 
-0.4991442478767725 
-0.3266010083423356 
0 
0.1290172340865302 
0.3348070551199359 
-0.2322708490422481 
-0.09993479299347739 
0 
0 
0.19793048256489 
0 
0 
0.4440617211646257 
0 
0.1317570184144026 
0.02336118290937259 
0 
0 
0.1256310832144416 
0 
-0.08608275687207674 
-0.06932895624016576 
0 
-0.2145910297070628 
0.1529179821125849 
0 
0 
-0.3550811486924883 
-0.2405596161633522 
0 
-0.1178144636300887 
0 
0 
0.1704866707225499 
0 
0.19793048256489 
-0.009227752862778519 
-0.1674035275599679 
-0.6785067628739956 
-0.1360476491168195 
0.02735982369902444 
0.09675860707081164 
0 
0.6779639836158042 
0.08363384729013459 
0 
0 
-0.1876732628469128 
0 
0.4957237637909399 
-0.131057497518632 
0 
0.2401898685246179 
0 
0 
0 
0 
0 
-0.03010713809738882 
0.1069521342243903 
0.2006904499357234 
-0.3558642969044497 
0 
-0.007217445091447941 
0.06896911507080127 
0 
0 
0 
-0.1874864064696849 
0.002153532112231508 
0 
-0.102895613878389 
-0.1756863271777342 
-0.08256060433185165 
0 
0 
-0.004596410297940189 
0.1596012930305146 
0 
-0.3347913745145813 
0.4797762141590889 
-0.05740098418610052 
0 
0 
-0.2007624175200033 
0 
0 
0 
-0.005340569912698689 
0.0268905739547006 
0.01103011587719404 
6.263333264086071e-05 
-0.2387112639617232 
0.0002872053037109936 
0.04613157228813448 
-0.4169430896305752 
0 
0 
0 
0 
-0.1674035275599679 
0 
-0.1979284252256784 
0 
0 
0 
0.6289906388237712 
0.1693062411561507 
-0.1084861239877891 
0 
0 
-0.1586883644101829 
0.03231795013831973 
0 
0.2213558464425605 
0.101093196640457 
0 
0.2297239577493964 
0.2327825972743344 
-0.07014538974532766 
0 
0 
0 
-0.08571615598729132 
0.08499611779873645 
-0.1524132337608453 
0.1399910004817107 
0.1175621029858239 
-0.1699288491545936 
0.1195183111965183 
0.4895189927772267 
0.19793048256489 
0.19793048256489 
0 
0 
0 
0 
0 
0 
0 
-0.1479505372410427 
-0.4148459844642333 
0 
-0.205472918497014 
0 
-0.2320966542129416 
0 
0 
0 
0 
0 
0 
-0.1652488873136276 
-0.1524317023910072 
0.07156604047169647 
0 
0 
0.6068341381470286 
0 
0 
0.2415262757533167 
0 
0.19793048256489 
0 
0 
0 
-0.09177777164458015 
0 
0 
0 
0.0003874799204148382 
0 
0 
-0.01412395626779433 
0 
0.5097059520028614 
-0.2012436078196966 
0 
0.2465430954030449 
-0.2902170508703756 
0 
0 
0 
-0.1447184205186801 
0 
-0.3038268272127749 
0 
0 
0 
0 
-0.1094054168715169 
-0.001041677879383957 
0.2531964266656052 
0 
0 
0 
0.0003039001207093561 
-4.331649494779242e-05 
-0.1311074856017901 
0 
-0.02986535790181321 
-0.3613564417948065 
0 
-0.3877188237856213 
-0.2147015977253045 
0 
0 
0 
0.1414560508237685 
0 
0 
0 
-0.1425441990992116 
0 
-0.1407603811375534 
0.19793048256489 
0 
-0.1827064349027345 
0.1334655244180222 
-0.2357536219887945 
-0.1139699553529435 
0 
-0.05005433240296454 
0.1128578723162998 
0.2790578314204903 
0.5422301697530638 
0 
0.1253076972932623 
0.2177209345264391 
0 
-0.19793048256489 
0 
0 
0.03718200319168256 
0.103976575776518 
0 
0 
0 
0 
-0.2448066487660136 
0 
0.08512249667292267 
-0.1704040365764832 
0.1367280659243398 
0 
0.1324311608602189 
0 
0 
-0.1315009941032622 
0 
-0.1025703242994266 
0 
-0.7976821673515233 
0.01392888421865191 
0 
9.907268801721083e-05 
0 
-0.1527749917840816 
0 
0.1241375296343696 
0 
-0.05955543622409631 
0 
0 
0 
0 
0.1125102920023659 
0.2680374803719599 
0 
0 
-0.2579949906440694 
0 
-0.3839970200348088 
-0.1687755716303911 
0.5904227916964855 
0 
-0.1676446075903939 
-0.09984668452216759 
0 
-0.2411949882607369 
0 
0 
0.2295463312039853 
0 
0 
0 
-0.4546139427940329 
0 
0 
0.08475929418989052 
0 
0 
0 
0 
0 
-0.1424946056566365 
-0.2624610162856317 
-0.4186590604479483 
0 
0.04792701967863394 
-0.1259589255955255 
-0.339458615168199 
0.0005266198171268747 
-0.1435407127493809 
-0.1867693181611849 
0.03332331070065527 
-0.08582936549475717 
0 
0 
0.19793048256489 
-0.1261468603715813 
0 
0 
0.4561912258034737 
0 
-0.09256086468213166 
0.1992297501131328 
0 
6.752057774378702e-05 
-0.1339530206879326 
0 
-0.09318347414766137 
0.3661074833022155 
0 
-0.1555983614579784 
0 
0.04264079560687873 
0 
-0.0003857728306856878 
0 
0 
0 
0.02082042490799719 
0 
0 
0 
0 
0 
0.258609005450625 
0.1941736249310958 
0.1400010631760353 
-0.1666035748151628 
0 
0 
-0.2989982670279022 
-0.2140892908867869 
0.1195183111965183 
0 
-0.009808849029765128 
0 
0 
0.1125379259976972 
0 
-0.4432738505173326 
-0.3974502739497325 
0 
0.314593052651419 
0 
0 
-0.5887645686976567 
-0.2060273322293877 
-0.1261936294568153 
0 
0 
0 
-0.4357356750594822 
0 
0.04571107735655103 
0.05325380660134878 
0 
0 
0.06244834687927798 
0.1836696988734721 
-0.3651525708829091 
0 
-0.1542268838158581 
0 
-0.1986445590327309 
0 
0 
0.2283195138303508 
0 
0 
0.3079808926647324 
0 
0.1617039513263223 
0.1211219553151861 
0.2940271370395563 
0 
0 
0 
0.1026677427153392 
0 
0.1238570101425013 
0.4089501169741734 
0 
0.2505415371464434 
0 
-0.1556879171285292 
0 
0 
-0.09694615423419246 
0 
0 
0.1029683504792689 
0 
0 
-0.001233359239315594 
-0.1819628083630816 
-0.2497193462665959 
-0.3426961050460851 
-0.1409253610620299 
-0.1680486607372314 
0 
0 
0 
0.1462972807555005 
0 
0 
0 
0 
0 
0 
0 
0 
0.02286507404004235 
0.4701885218139708 
0 
0 
-0.770120673020544 
0 
-0.04257212928362809 
0 
-0.1376402461782691 
0 
0.0568101357806051 
0.06255640998265416 
-0.09310251536285909 
-0.04883732264309874 
0.03732114307456551 
0.1753305714412094 
-0.1129395052142977 
0 
0 
0.5106788684885786 
0.09039963899823111 
-0.148542247963252 
0 
0 
0 
0 
0 
0 
0 
-0.1495654725544041 
0 
0 
0 
0 
0 
0 
-0.5743425023604636 
0 
0 
-0.1116185932542 
0.4721396021841273 
0 
0 
0 
0 
0 
0.1353497914705558 
0 
0 
0 
0.01160369696886852 
0 
-0.1469000596444803 
0 
0.2331504374764349 
0.05216910752622207 
0 
0.2334341042854557 
8.316646252938154e-05 
0 
0 
0 
-0.004943304348125468 
0 
0 
-0.1111874111152123 
0.1275662276656109 
0 
0 
0.1379895894773562 
0 
-0.19793048256489 
0 
0 
-0.340017407561769 
0 
0 
0 
0 
0 
0 
0 
0 
0 
0 
-0.0001217169127475532 
0.2142672661771135 
-0.01567470568993534 
0.04104345507132568 
0 
0.2679287743274583 
0 
0 
0.1252879170566674 
-0.1979340486395823 
0 
0 
-0.09885596313224566 
0.2047243122475916 
0.1674035275599679 
0 
0 
0 
-0.3164124938094766 
0.006983611408043119 
-0.1528747470820635 
0.2022233800951253 
0 
0.0003655347129435202 
0 
-0.1457767693255016 
0 
0 
0 
0.1465067947134743 
-0.05741593346267976 
0.000241619553524613 
-0.1673999668926199 
-0.2557170577936645 
0.2035552390378737 
0.4595057025973512 
0.1088164725441583 
0 
-0.19793048256489 
0 
-0.07188867936735929 
0 
0.149905667221855 
0 
-0.19793048256489 
0 
0 
-0.1674035275599679 
-0.07067094995564711 
0 
0 
0 
-0.05307130575172792 
-0.002765804409716396 
0.04068312810290309 
0.05380999431473728 
0 
0 
0.1034886406667815 
-0.3148377902574177 
0.2627623970112048 
0 
0 
0.01249154664371715 
-0.2579075733139841 
0.06040171216179604 
0.175439220193756 
0 
0 
0 
0 
0 
0 
0 
-0.3348070551199359 
0.6321902417961395 
-0.0005795652373504661 
0 
0.2316839434913587 
-0.2514331609357005 
0 
-0.1619523690903003 
-0.1470787401683196 
-0.2711049378029811 
0 
0 
0 
0 
0 
9.137924579551665e-05 
0.00112524250531942 
0 
0.002873810287647595 
0.07059240886165039 
0 
0 
0 
0.1195183111965183 
0.7297953865491774 
0 
0 
0 
0.02347107741528155 
0 
0 
0 
-0.1494223330900797 
-0.001530207926470824 
-0.6391682233382741 
-0.2337507588169468 
-0.05099147155997998 
0 
0 
0 
0 
0 
0 
0 
0.2719042544613857 
-0.158554867607248 
-0.03573540615556942 
0 
0 
0 
0 
0 
0.3642161576809771 
0 
0 
0 
0 
0 
0 
-0.04018911477805641 
0 
-0.2072125872535892 
0 
0 
0.08038524987798097 
0.007071376179674618 
-0.1045522866719003 
0 
0 
-0.4465445971506489 
0 
-8.913139867583307e-05 
-0.05117951375353378 
0 
0 
0 
0 
0 
0.230252519618666 
0 
0.3415141876074217 
0.08832525918896873 
-0.1765659528089787 
0 
-0.2901635485352107 
-0.2359966533497093 
0 
0.1093334629248017 
0 
0 
0 
-0.08874429719163432 
0 
0 
-0.1746458876724497 
0 
0 
0 
-0.19793048256489 
0.19793048256489 
0 
0.1082614234067621 
0 
0.1179411552549013 
0.3903983039668376 
-0.1913253727450703 
0 
0.01288496037369265 
-0.1227065427712634 
-0.01765041425213234 
-0.19793048256489 
0.09039963899823111 
-0.1593616518373339 
-0.2773837601731201 
0 
0 
0 
0.1664157083340115 
0.1166819669331008 
0 
0 
0 
0 
0 
-0.1014756859232975 
0 
0.1404603088407605 
0.1584219573121378 
0 
0.2569313997810731 
-0.1116408213343379 
0.5134849395055615 
0.4327166838175837 
0 
0 
0.201567267307176 
0.2175100630405868 
-0.0001223183194957312 
0.1105118303411845 
-0.02808619550250782 
-0.05001727905563216 
-0.175832965264336 
-0.1213400427090819 
-0.2653119153438132 
-0.0004934749586200659 
0 
0 
0 
0 
0 
0.061883857167663 
-0.1164286259388465 
0.2287346898060836 
0 
0.1227172121655699 
-0.3366933167073706 
0.1026613858055121 
0 
0.06409569322256919 
0.2471650009506823 
0 
0 
-0.06427353991786604 
0 
0 
0 
-0.1495798116902405 
0 
0 
0 
0 
0 
0 
0.1368657057602825 
-0.1530098739328797 
0.2006019742187837 
-0.3750024502040954 
0 
-0.07624481667702702 
0 
0 
0.1138240997976576 
0.2635513895052945 
0.1878900019291676 
0.1262107317101091 
-0.19793048256489 
0.3348070551199359 
-0.275461644962284 
0 
-0.0590387020830416 
0 
-0.2564238137095027 
0 
0 
0.1902760641566198 
0 
0.09779589449570263 
0 
-0.5192291198202879 
0 
0 
0.03483516367890126 
0 
0.06517130742036971 
0 
0.1689717035683717 
-0.3363641782868844 
-0.2077903256986693 
-0.4591713978318449 
0 
0 
-0.1037977313968064 
0 
0.03002947816339892 
0 
0 
0 
0 
0 
0 
0 
0.06825973310760253 
0 
0 
0.006150323614278823 
0 
0 
-0.1674035275599679 
0 
0 
0 
0.1052378099960015 
0 
-0.03599502231725426 
0 
0 
-0.19793048256489 
0 
0 
0 
0.345391939103262 
0 
0 
0.05713839705724801 
0.0008311781331530549 
0.4040598914464725 
0 
0.1370856956352671 
0 
-0.01576634358076426 
0.256974411558442 
0.1808715514544548 
0 
0.201698350250939 
0 
0 
0 
-0.03106657122987964 
0 
0.02006185102936787 
0 
0 
0 
0 
0 
0.1269813072342349 
0 
0 
-0.1800315164155166 
0 
-0.00113969862054852 
0.1219521652261872 
0 
0 
0 
0 
0 
-0.189792292710217 
-0.3161153595591714 
0 
0 
0 
0.008756336941814657 
-0.5757859738708082 
-0.1423673029892626 
0 
0 
0.01686039151751724 
0.1428029055236754 
-0.1930299673426788 
0 
0 
0 
0 
-0.04167800780187148 
0 
0 
0.09815927551093241 
0 
-0.1029325846245788 
0.1419582928783447 
0 
0 
0 
-0.04614808669952346 
0 
0 
0 
0 
0 
0 
0.2296582693194158 
-0.3067281028525941 
0 
0 
0 
-0.002854665872775893 
-0.05313882911001834 
-0.184472043090268 
-0.3852471717688297 
0.1995280958058736 
0.08204670106024137 
0.003549803555096318 
0 
0 
0 
0 
0.3212690465728211 
0 
0 
0.1799328697894171 
-0.530134787222873 
0 
-0.1520187524069398 
-0.005390631613975636 
-0.9514660055661622 
0 
0 
0 
0 
0.165979650368892 
-0.1546564685937188 
-0.2058332933253186 
-0.02817547471044043 
-0.2841010561058298 
0 
-0.19793048256489 
0.3464234630704432 
0.07862106868124047 
0 
0 
0 
-0.19793048256489 
0.1723430938449745 
0.1179258929628668 
-0.1634446712656469 
-0.1796761100516925 
0.04169783519357831 
0 
0.102530431669821 
-0.2307364812048286 
0 
0 
0.07855664139841437 
0 
0 
0 
0 
0 
-0.2492137411056192 
0 
-0.2105240832192566 
0.1965725132753321 
-0.2171682871675963 
0.2023574105994301 
0 
-0.19793048256489 
-0.19793048256489 
-0.2753565062894837 
0.2392508932640487 
0 
-0.1663945398241588 
0 
0.1100502431081123 
0 
0.02707904536248701 
0 
-0.2120338040048836 
0.06870155143674547 
-0.1244034527639274 
0 
0 
-0.0796019722463171 
-0.19793048256489 
0 
0.3066842427531346 
0.1477467744780104 
-0.2129820608227086 
0 
0 
0 
0 
0 
0 
0 
0.2393432842265194 
0 
0 
0 
0 
-0.1136058624147011 
0 
0 
0 
0.2043749795713244 
0.1831661764254162 
0.2897690539674014 
0 
0 
0 
0 
0 
0 
0.0004460966472673385 
0 
0 
0 
0 
0 
0 
0 
6.857564357616306e-05 
-0.02708311282476345 
-0.7929011985667634 
0 
0.124775080933283 
0 
0 
-0.3253255653027385 
0 
-0.1271305111342614 
0 
-0.2026485230079508 
0 
0.483288801761135 
0 
0.2068166573011683 
0 
-0.1800850686512693 
0 
0 
-0.1147045374913282 
-0.1425838842009323 
0 
-0.1827583940345093 
-0.2882841957897202 
0.1418332415429787 
0.3418849757941522 
-0.04672079060700005 
0.422879979796784 
0 
-0.8275646910762215 
0 
0 
-0.1198411992893521 
0 
0.1290146134126819 
-0.228131482453506 
0 
-0.02433792198586555 
0 
0.2314418156139537 
0 
-0.4623141603485458 
0 
0 
-0.5057783145361999 
0.0001319319673243727 
-0.1821839324202821 
0.2378536375186199 
0.2347832710312482 
0.001810741374081666 
0 
0 
0.09868391323070683 
0 
0 
0.1215584750154712 
-0.03209764550303539 
0.1273914864293373 
0 
0 
0 
0 
0 
0.3703836163667444 
0 
0 
0.04509552418010313 
0 
0 
-0.1618219719417597 
-0.5336225707971037 
-0.1076978509659058 
-0.1716834907754654 
0 
0.2023574105994301 
0 
0.04996589218357975 
0 
0 
0 
0 
-0.02960013188922501 
-0.5338496313222344 
0.1996862259300974 
0 
-0.312631438601822 
0 
0 
0.09514202928048304 
0 
0 
0 
-0.2608811116439185 
0 
0 
0.01992732899508041 
0.1977156318850947 
0 
0.3623397595542926 
0 
0.2611184434526264 
0 
0 
0.02620983750286895 
-0.005969299716683382 
-0.5203432808853052 
0 
0.2003306549980932 
0 
0 
0 
0.145387218501113 
-0.06046656049387827 
-0.08689080111274167 
0 
-0.2099003245453861 
0 
0.1791670836340606 
0.3630524544504618 
0 
0.0009349878457207704 
-0.4706029818160987 
0.1450860776670578 
-0.2331225367279006 
-0.06835374203467619 
-0.2057896910791336 
0.1016911630069499 
0.0003457010061976746 
0 
0 
0 
0.1819877866854704 
0 
-0.19793048256489 
0 
0 
-0.002721951673092532 
0 
0.006509726748975939 
-0.2758307744461245 
-0.4002039408615873 
-0.0006880688608826993 
0 
0.3152678910277686 
0.3505282884287937 
-0.133696557894775 
2.557634436799333e-05 
0.1231890625551577 
0.2785673024303968 
0 
0 
-0.2028668244198125 
0 
-0.114298098339375 
0 
0 
0 
-0.3688407132928389 
0 
0 
0 
-0.0002127624091169315 
0 
0 
0 
0 
0 
0 
0 
0 
-0.2049498144360063 
-0.19793048256489 
0 
-0.001604573352212141 
0.1404614676394179 
-4.314737261773971e-05 
0 
0 
0 
0 
0 
0 
0 
0 
0 
0 
-0.08478537773466785 
0 
0.03562887864461415 
0 
-0.3619951258348496 
-0.05422420502289882 
0 
-0.5351618252413471 
0.19793048256489 
-0.4959649891589586 
0.1436489500310284 
0.004341408827340317 
0 
-0.1119718653588977 
0 
0 
0 
0.1674035275599679 
0 
0 
0 
0.6782214129074342 
0 
0 
0 
0 
0.03092170254581537 
0.09958977055436964 
-0.1402435121430323 
0 
0.1674035275599679 
0 
0 
0 
0 
0 
0 
0 
0 
0 
0 
0 
-0.4011645222078934 
-0.2789066696063517 
-0.03354560133051249 
0.05386859608236055 
0 
0.2309623838207811 
0 
0 
-0.1066839129566108 
-0.09160693412494271 
0.002245177166757169 
0 
0 
0.2299046163917695 
-0.1852161447070447 
0 
0 
-0.01781260074214993 
0.2057440136582803 
0.04426812934169137 
0 
0 
0 
0 
0 
0.3942881108187908 
0 
0 
-0.0001718449534939495 
0 
-0.1691126283491605 
0.1297682834687509 
0 
0.1733459112394134 
0.05296948873413582 
0 
0 
-0.1364503338468828 
0.180359249591298 
-0.225100350745779 
8.70342224168441e-05 
-0.1068467789819864 
0 
-0.0002070642563032825 
-0.1970245234776271 
-0.0005832072090129086 
0 
-0.7229617425820719 
0 
-0.240106882277571 
0 
0.19793048256489 
0 
-0.0989271282312877 
0.1240122121738695 
-0.1964628422647537 
0 
-0.1949622728197674 
0 
-0.1559918534145607 
-0.3284226108275264 
0 
0 
0.03029814274700325 
-0.2291516796670819 
-0.2573364536902658 
-0.4631528152193585 
0.1390440816715926 
0 
-0.3885959179447164 
0 
0 
-0.126760477072754 
0 
0 
0 
0.1674035275599679 
-0.06057386701570955 
0.4172438148631517 
0 
-0.2797012782807906 
0 
0.2613844223987257 
-0.03072069123874202 
0 
0 
0 
0 
0 
0 
0.1201104868275952 
-0.1719004338209153 
0 
-0.2110578235162936 
-0.08797623432779313 
-0.3037980613250534 
-0.1642617018100146 
0 
0.2039079023630974 
0 
9.460585540291151e-05 
0.3853719691782098 
0 
-0.04015739572105925 
0 
-0.08740392721680357 
0 
-0.04142438606671803 
0 
0 
0 
0 
-0.2811227235465549 
0 
0.2247714221279715 
0 
0 
0 
0 
0 
0 
-0.02369434614450576 
0.04420671160596367 
-0.5631576523027688 
-0.009875265076539989 
0 
0.009204500036659556 
0 
-0.02906264216030997 
-0.3541378477132597 
0.1227773603972634 
0 
0 
0 
0.3683672564811294 
-0.07422807737450221 
0.19793048256489 
0 
0 
0.135152908980036 
0 
0 
0 
0 
0.0817158327142038 
-0.08048204791198139 
0 
0.0180301676485616 
-0.0003291546796854387 
0 
0 
-0.19793048256489 
0 
-0.164465494861651 
0 
-0.3263693503466549 
0.2935322168648011 
-0.3136733316724744 
0 
0 
0 
-0.19793048256489 
0 
0 
0 
-0.1518004929452434 
0 
0 
0 
0.2523810286965594 
0 
0.3685478923689005 
0 
0 
0.2001153334781089 
0 
0 
0 
-0.1087043009124475 
-0.1593946532797151 
-0.07123088224407818 
0.08649162254712534 
-0.1128570161741972 
0 
0.0475113957444777 
-0.1608438904271474 
0 
0 
0.06198144403541985 
0 
-0.1253024694507104 
0 
-0.2036175024836689 
-0.19793048256489 
0 
0.3448719739094902 
0.329847774571828 
0.19793048256489 
0.1427464976689358 
-0.06201477965035278 
0 
-0.3213760648575007 
0 
0 
0.1263425352308281 
0.001459602611702285 
-0.03080074381854825 
-0.1416947038087533 
0.1422707196605061 
0.01006290110454705 
0 
-0.2365856234837732 
0 
0 
0.3617393354670503 
0 
0.2260007726972586 
-0.193658339905658 
0.1089107098537331 
-0.3450656648842961 
0 
0 
-0.04311280471778556 
0.2007409733602287 
0.1114275329878447 
0 
0 
0 
-0.07840840581396755 
-0.1971654500299948 
0 
-0.1576989791041557 
0 
0.423141862726981 
0 
0 
0.2232214257695623 
0.01295467025563631 
0 
0 
0 
0.01753626259086058 
0.1011129966870874 
0 
0.173474327845328 
0.2565450060539226 
0 
0.05042409281556975 
0 
0 
0 
0 
-0.09054671827991893 
0 
-0.3014087597683618 
-0.04239401535164804 
0 
-0.1941626148788409 
0 
0.2332636136346742 
0.01018618424335844 
0.1648649335826905 
-0.1471465120351715 
0 
0 
0 
-0.02386503388595768 
0 
-0.03448838000011811 
0 
0 
0 
0 
0 
0 
0 
0 
0.1570402107832543 
0 
0.1568327936911482 
-0.2544049143060115 
0 
0 
-0.1518326851391848 
0 
0 
0.3994692729316831 
0 
-0.3417038210055463 
0 
0 
0 
-0.06976289945208999 
-0.09043956717804778 
-0.681434741202203 
0.151094100548798 
0 
0 
-0.1169845605418063 
0 
0 
-3.831130131312317e-05 
-0.3128656323818879 
0 
-0.1269490852808451 
0 
0 
-0.09971728099880454 
0.2178933166278797 
-0.2308776910363288 
0 
0.1781683606436986 
0.1631664892878731 
0 
0.2241774743543146 
0.00626003392298045 
0.1339930487131815 
0 
0 
0 
0 
0 
0 
0 
-0.1999200399117065 
-0.1661617953686144 
8.461419843304063e-05 
0 
0.07319362354370065 
0.347508264280231 
0.06819916623144129 
0 
0 
0 
-0.1411493133373661 
0 
-0.1722152714100134 
0.1206663484979612 
-0.1520523987884307 
0 
0.3580758103210396 
-0.06968143585038249 
0.000304177153081498 
-0.282217912836695 
0.268882411954798 
-0.2194750120442954 
-0.1140280053089344 
-0.7543652723229501 
0.2812055719508839 
-0.1881834988088301 
0 
0.2369153967335451 
0 
0 
-0.000326496045635349 
0 
0.0001679996153374403 
-0.2376893464731267 
0 
-0.1152402815985276 
0 
0 
0.01763730535834248 
0 
0 
-0.2982206430489495 
-0.0002089315734669882 
-0.1314541592563762 
-0.1034656645835687 
0 
-0.0003974828055860531 
0 
0.0008743034883985242 
0.0002436011633224432 
0 
0 
0.1434495013942197 
-0.2825079307527388 
0.1260238086636044 
-0.2230605923147167 
-0.19793048256489 
0 
0.1126268707724163 
-0.19793048256489 
-0.2006369420578665 
0.19793048256489 
0 
-0.4568284201296989 
0 
0 
0 
0.231440222790822 
0 
0.03395600316946982 
0.2238721482086203 
-8.153693060850904e-05 
0.1335131713166785 
0 
0 
0.2769927777560225 
-0.1653188626447946 
0.07319664320691301 
0 
-0.0580075763010524 
0.08849017770534508 
4.169388021863518e-05 
0.06793632733458976 
0.8632569857264247 
0 
0.0002594954718680501 
0.06077926300026876 
0 
-0.08175923177714016 
-0.01450529427967524 
0 
-0.1008569815768986 
-0.2814395176119757 
0 
0 
-0.003648873953074707 
0 
0 
0 
0 
0 
0.3868259216569488 
-0.4093360911591969 
-0.09652458587729323 
0 
0 
0.09423265692622601 
0 
-0.2043647925043043 
0 
0.04926860210265741 
0 
0 
0 
-0.266846351717098 
0 
-0.0002262430807932846 
-0.110368535491061 
-0.1695373828726086 
-0.19793048256489 
0.4224694023126469 
-0.2292322668168281 
0 
0 
0 
0 
0.0736977877883903 
0 
0.01254247159676269 
0 
-0.2246984422349039 
0 
0 
-0.2272105897621426 
0.1289586987409815 
0 
0.08449776674529599 
0.0006667008507957432 
0.05459307101511957 
-0.06873884307837018 
-0.3053060007410333 
0 
0 
-0.1495614895790118 
0 
0 
0.1517637297757027 
-0.1111416800695876 
0 
-0.2205830943640854 
0.1640892308001347 
0 
0 
0.1450728853308748 
0 
-0.4190597173292748 
0 
0.2777220148937592 
0 
0 
-0.1501061576469284 
0.01111458394183107 
-0.0001963847751441299 
-0.1318201848716946 
0.1404614676394179 
0 
0.0001741117071971167 
0 
0 
0.0005105750597077011 
0 
-0.2440129487099114 
-0.3102928407961456 
-0.3018028217762104 
0 
0.06421701810657444 
0 
0 
0 
0 
-0.003489508261763886 
0 
-0.2877502625404557 
-5.309870989641629e-06 
0.19793048256489 
-0.1818281387610581 
0 
-0.3688229530855219 
0 
0.1253194444796911 
0.04865623265732397 
0 
-0.1304316982638601 
-0.19793048256489 
-0.0001220308209637206 
-0.1647935862263744 
0 
0 
0 
0 
0 
-0.1271211633423951 
0 
0 
0 
0.3176923808576951 
0 
0.201698350250939 
-0.4459089307817116 
0 
-0.2061750463377382 
-0.06837316377558754 
0.04926098341746378 
0.2946576856092636 
0 
0 
-0.2635173426169573 
-0.1674035275599679 
-0.07068280315785902 
-0.06918498354971883 
0.1318327297526172 
0.0946777801126593 
-0.3609966273653465 
0.1418551398955409 
0.07505906474702634 
0.06833705336541085 
0 
0 
0 
-4.335257750084207e-05 
0 
0.2427944264448082 
0 
0 
0 
0.5042063870568144 
0 
0 
-0.2522110902699236 
0.06583087879878829 
0 
-0.0008028352976535189 
0 
0.06382988198188827 
0.1433987980040682 
-0.1674035275599679 
0.0113957202857193 
0 
0 
-0.2202532288701194 
0 
0 
0.007938827719019576 
0 
0.3592638518687388 
0 
0.09645268486394232 
0 
0 
0.2356201977419376 
0 
-0.1503406081929454 
-0.2762113367513407 
0 
0 
0.2208047383097033 
0 
-0.2538379124467749 
-0.1579618404132292 
-0.0005548172982366676 
-0.05005433240296454 
0.07705623132027935 
0 
0 
0.1662585012886457 
0.3051860592022766 
0 
-0.1869946064883728 
0 
0 
0.300410541730859 
-0.06153219645876239 
0 
0 
0.04908157079279575 
0.2218322592245864 
0 
0 
0 
0.1120373540371179 
0 
-0.2004415343246967 
0.1908318400546748 
-0.4733016603904485 
0.000110484586310257 
-0.4783197790088684 
-0.1876575750660584 
0 
0 
0 
0.02149701466041221 
0 
0.3645693180837168 
0 
-0.008406056120176118 
-0.07429193051652873 
0 
-0.4234761523613906 
0 
0.07585671954583782 
-0.1374845657570212 
-0.1002734790572408 
0.106941356676065 
0 
0 
0.03312530525468491 
0.2510102130209018 
-0.1899294444397412 
-0.1732688813635762 
0 
0.021891982541331 
0.1148705205366212 
0 
0 
0.44342815870764 
0 
0 
0.1057216901568949 
0.05879153322446453 
0 
0 
0 
0 
0.1066256475142542 
-0.03584541821302135 
-0.1166615320302526 
0.3351632202340616 
-0.006990033590393963 
0 
0.1091568189613155 
0 
0 
0 
-0.2138170042973216 
-0.1721632701746158 
0 
-0.0590559578269025 
0 
0 
0 
0 
0.3493874485874284 
0.1742646206014523 
0.1069068629738978 
0.5044544584123343 
3.923753274130031e-05 
0 
0 
0 
-0.00016435693551969 
-0.1422677141342759 
-0.5048157654239903 
-0.1981484323663418 
0 
0 
-0.1877811568228372 
-0.05658849712185039 
0 
0.201977384578008 
0 
0 
0.3948399785984981 
0.1329950944922457 
0 
0 
0.2389853216151169 
-0.1065116947290127 
-0.1821751950270301 
-0.001271541343493 
0 
0.04996589218357975 
-0.6727579248432691 
0.03792401021475169 
0 
0.000312017131754094 
-0.0007564216943597823 
0 
0 
0 
0.1384621940794886 
0 
-0.07302641503735463 
0 
0 
0.4004762389015912 
0 
0 
0.1531682688530822 
0 
-0.08850651014715458 
0 
0 
0 
0 
0.3652891837271454 
0 
0 
0 
-0.2026725809157598 
-0.02902066869535087 
0 
0.0466347994816446 
-0.2253058443166908 
-0.1677924379951763 
0 
0.1061479666409477 
0 
-0.2709119613528955 
-0.231566037200794 
-0.1844030978736129 
0 
0 
0 
0 
-0.5790975844493969 
-0.135561369549956 
0 
0 
0.1438339799935354 
-0.2583551052232983 
0.1104598380825441 
0 
0.1210812308885635 
0.19793048256489 
-0.07992287463525516 
0.1373185164980887 
0.1705720921352382 
0 
0 
0 
-0.133465897897751 
0.06569340282922774 
0 
0 
0 
0 
0 
0.284109154935427 
0 
-0.07863818922668789 
0.2645494312297024 
-0.3401414015966627 
0.0004979683245293523 
0.202592702164565 
-0.4200467782200329 
0 
0 
0 
0 
0.225079208704635 
-0.2136562455748423 
0.231625948874762 
-0.2858860176046381 
0 
0 
0 
0 
0 
-0.04387197461850455 
0 
0.745191718699644 
0 
0 
0 
0 
-0.04346468013346357 
0 
-0.1594748874890849 
0 
0 
0 
0.06003037459902695 
0.108600156286867 
0 
0 
0 
0 
0 
0 
-0.06059237034219955 
-0.1672555222459712 
0 
0 
0 
-0.2734783200398362 
0 
0.2006667933735646 
0 
0 
0 
0 
0 
0.05743110681841259 
0 
0.0003047233634798228 
0 
0 
-0.01101269294324458 
0 
-0.09952409657211657 
0.0002121567626408062 
0 
0 
0 
-0.1607179871080755 
0 
0 
-0.19793048256489 
0 
0 
0 
0 
-0.4009735244947689 
0 
-0.5950205197673584 
0.07568429720084674 
0 
0.3221236466805191 
-0.2702261251060847 
0.4055681694984469 
0 
0.000408736926588621 
0.19793048256489 
0 
0 
0 
0 
0.2214989747277251 
0 
0 
-0.1895535962954767 
-0.08646775374298464 
0.3307331609875442 
0 
-0.2281567282162958 
0 
0 
0 
0 
0.0003417735843800932 
0.2892032748423494 
0 
0 
-0.2326907217976813 
-0.03583005972409928 
0 
-1.056209486471519e-05 
0.3133907109828796 
0 
-0.2390281714386318 
0 
0 
0 
0 
0 
-0.3348070551199359 
0 
0 
-0.0824520874931272 
-0.3609412900741727 
0.19793048256489 
0 
0.3484989439991446 
0.4982456828826436 
-0.4156067715760179 
0.1383153593206874 
0 
0 
0 
0 
0 
0 
0.2597142135639541 
0.1887424984625544 
0.2810175929922843 
-0.19793048256489 
0 
0 
0.03839024930011413 
0.2771926468022731 
0 
0 
-0.3695693409253945 
0 
-0.1105008240009771 
0 
0 
0 
-0.19793048256489 
0 
0 
0 
0.08814034293599481 
0 
-0.3139908100061251 
0.2395968817384646 
0 
-0.1366625268018034 
0.1141977164671014 
-0.2663055329436204 
0 
0.09980072354305082 
0.1031724204892786 
0 
-0.3958349486047165 
0 
-0.7069831587516603 
0.02930665581341967 
-0.1487917289446073 
-0.1360476491168195 
0.2681708113543766 
0 
0 
0.2686084702840406 
0.3518714787908481 
-0.1458037084018442 
0 
0.7164201701335819 
-0.1675793734771456 
0 
-0.3800577716242343 
0 
0 
0.06595032021205254 
-0.1832546014624358 
-0.0256872357720954 
0 
-0.04845364673582225 
0 
0 
0.175971838531477 
0.0553630162460052 
0 
0 
0 
0 
-0.1608438904271474 
0 
-0.06157522825869478 
-0.1476697554722816 
-0.1469819710736646 
0 
0 
0 
-0.2904838312359227 
0.201705827403983 
-0.3238627443841843 
0.04616492579911134 
0 
0 
0 
0 
0 
0 
-0.04816073210984462 
0 
0 
-0.0002144013936598269 
0 
0.5708228933187034 
0 
0.1340972843394533 
0.02471232741643464 
0.08719006409661029 
-0.1899294444397412 
0.6453362707975411 
0 
0 
-0.03836213321563445 
0 
0.01784642946694561 
0 
0 
0.4304555947106414 
0 
-0.4130259312918487 
-0.2131305658683121 
0.1627403875480143 
0.1458603650085787 
0 
-0.4733186728373592 
0 
-0.19793048256489 
0 
0 
0 
0 
0 
0 
0 
0.0001618331693782648 
-0.172413250858377 
-0.1843567156162337 
0.02469918346870843 
0 
-0.206799085881809 
0.07050760687036939 
-0.1062424217408754 
0 
0.3575880256142089 
0 
0 
0 
0 
0.3553530303549725 
-0.0001322034008038881 
0.0003953847932951632 
0 
-0.0002732973234447923 
0.2395021199892633 
0 
0.1548457958092013 
0 
0 
-0.2405213321334076 
0.02557989454967193 
-0.19793048256489 
0.1499133184765419 
-0.19793048256489 
0 
0 
0 
-0.1886796166315265 
-0.7010438895078017 
-0.08092682480391179 
0 
-0.003745189328365072 
0 
0 
0 
0.4691328767159231 
-0.2784244818512356 
-0.2257033322230287 
0 
0 
0.1353631627768587 
-0.2317134270723121 
0.04949191826068293 
-0.1691820469176853 
0 
0.5068166826059114 
0 
0.1347396622083345 
0.08309578582783994 
-0.14944418410336 
0 
0.2477014457528115 
0.7060844220105177 
-0.1222992983943919 
0 
-0.5693951464450503 
-0.4315019399806063 
0 
-0.2228159432751831 
0.122860380339231 
-0.2217145919302572 
0.1146933728609017 
-0.2868182677002534 
0 
-0.1994284539162228 
0.1383130701541552 
0 
0.06691349509679963 
0 
0 
-0.336648510684906 
0.1722405746196197 
0 
0.016315226618994 
0 
0 
0 
0 
-0.02616445576175435 
-0.1045850263020315 
0 
0.124586574496203 
0 
0.2667960345468335 
0 
0 
0.19793048256489 
0.2257486238215411 
-0.1760671961980597 
-0.7141425093038657 
-0.3101702580461025 
0.1581834532983532 
0 
0.000294567734965477 
0 
0.1500780764615531 
-0.1792992144616455 
0 
0.09090746931089234 
-0.09608031247411172 
0.1010368052034685 
0 
0.1674035275599679 
0.385231584304072 
-0.1054656507066768 
0 
0.2012181604007157 
0 
0 
0 
0 
0 
0 
0 
0 
0 
0 
0 
0 
0 
-0.1485972690984908 
-0.05569482312546718 
0 
0 
0.003187012310549586 
0 
0 
0 
0 
-0.1943106441864172 
-0.08316524436312031 
0 
0 
-0.02073963833527617 
0 
0 
0 
-0.02624109428624603 
0 
-0.01903304788145382 
0.1045499803033613 
0 
0 
0 
0.08358254641662495 
-0.3071539219079252 
-0.4669998628533971 
-0.1941626148788409 
0 
0 
0 
0 
0 
0.19793048256489 
0 
0 
-0.1183962832013809 
0.2713456659878182 
0 
0 
0 
0 
0 
0 
0 
0 
0 
0 
0 
0 
-0.4057451535254811 
0 
-0.1417731885883684 
0 
-0.3803770222699381 
0 
0 
0 
0.0001676278259025155 
-0.1137135167612607 
-0.04408105623071423 
0 
0 
0 
0 
-0.328364614357122 
-0.185278234357178 
0.4556457234751385 
0.2081152232003496 
0.1505103226180971 
-0.3089326338103549 
0 
0.09723530098075608 
0 
0 
0 
0 
0 
0 
0 
0.006805367426708139 
-0.1372374677576888 
0.1041684551293367 
0 
0 
-0.1821839324202821 
0 
0.2657986934308367 
0 
0 
0.156830097073236 
-0.1983184854483394 
0 
0 
-0.3259270195940918 
0 
0 
-0.2139211489287541 
0.36892878460841 
0.4269537075135463 
0 
0.2851605997838679 
0.1189735140809123 
0 
0.3284199778098899 
0 
0.09966756055624292 
0 
0 
0 
-0.3510471959273337 
0 
-0.228837906516741 
0 
-0.2197033543084838 
0.2053165688379199 
0 
0 
0.03127364308865676 
0.1662087972194674 
0 
-0.2626166484669138 
-0.3938707098796264 
-0.2206088275506863 
0.2115849463881157 
0 
0.1035226370438213 
0 
-0.1669569285127818 
-0.185978996970957 
-0.5637602511700326 
0 
-0.1290017151257011 
-0.0002948872170196124 
0.1876061372535814 
0.1355727402906483 
0 
0 
0 
-0.1360861199574313 
0 
0 
0.2852231809581852 
0 
0.2942570684671715 
0 
-0.2093188086462104 
-0.8230808125720269 
0 
-0.2099462811180237 
0 
-0.3348070551199359 
0 
0 
-0.07822878244215495 
0.03467394490976953 
0 
0.4380462795090893 
0.0704147510605576 
-0.1686031669433922 
0 
0.1381496153064206 
0 
-0.1213973971172408 
-0.3857523233128363 
-0.196720386153126 
0 
0 
0 
-0.4873997246342836 
0.312464380786882 
0.4409929437187554 
0.1294951788895277 
0 
0.02656004381142635 
0 
-0.19793048256489 
0.2142204470380455 
0 
-0.1111665581677198 
0 
0.0002365478522564445 
0 
-0.2178186667708249 
0 
0 
0 
0 
0 
0 
0 
-0.2080320045813681 
-0.3300259583540387 
-0.2568183653019617 
0.2924132681340725 
0.05214666829554911 
0.1158283866334859 
0.1797296983728977 
0 
0 
-0.1648014831231828 
0 
-0.3546108891308742 
-0.05005433240296454 
0 
0.07782784349352441 
0.1722994099907872 
-0.19793048256489 
0 
0 
0 
-0.1674035275599679 
0 
0.1743476425285108 
2.976605020706064e-05 
-0.2106912127006133 
0.09335872447054858 
0.02575006611825919 
0.3500279053226327 
0.2779865042887247 
0 
0 
-0.1136432823482154 
0 
0.1075226970910978 
0.1928493958751004 
0.1818182904342103 
0 
0 
-0.3987578115603488 
0 
0 
0 
-0.0363031503945388 
0.1539856462803809 
0 
0 
0.3291562191125288 
-0.1612478276132896 
0 
0 
0 
-0.01175073050535618 
0 
0 
0.1076177069466789 
0 
0 
0 
0 
-0.1754126707420416 
0 
-0.2911077730885389 
0 
-0.121600716545196 
0 
-0.1932468663545397 
0 
0 
0 
-0.19793048256489 
0 
0 
-0.4593032290767683 
-0.200754442902657 
0 
0 
0 
0 
0.04649047290222911 
0 
-0.19793048256489 
0 
-0.2050910022705165 
0.2256182272078469 
0.1081839315006381 
0 
-0.1869534607304371 
0 
0 
0.1119175361472583 
-0.3345044670134789 
0 
0 
0 
0.2674146859172535 
0 
0 
-0.2241608596269306 
-0.134242407317654 
0.4315019399806063 
0 
-0.5228789887191642 
-0.4015453022294321 
-0.09957397591399436 
0 
0 
0.1597433904567335 
-0.19793048256489 
0 
0 
-0.1283468304935129 
0 
-0.2161848973143377 
-0.3071110361989458 
0 
-0.0183732507402353 
0 
0.19793048256489 
0 
-0.2713511980244673 
0 
-0.07330930678486398 
0 
0 
0.08606739079295288 
-0.0004967892609648432 
0.1852973101903311 
0.1030804827515143 
0 
-0.1672555222459712 
0 
0 
0.08749146735265377 
0 
0 
0 
0 
0.1636798381045973 
0 
0 
0 
0 
-0.1499761286867294 
0 
0.1479138305497876 
0 
0 
0 
0 
0 
0 
-0.4127195722619157 
0 
0 
0.1896518210587738 
0 
0 
0 
-0.3657690833814929 
0.07325628470991921 
0 
0.05371545678997987 
0 
0 
0 
0.001650599171172237 
0.07959654677037276 
-0.06551849574813748 
0 
0.3259062311168516 
0 
0 
0 
0 
0.1041326416221188 
-0.3019024023140306 
0 
-0.3720118795250499 
-0.19793048256489 
-0.1388058579562531 
-0.1290169142136817 
0 
0 
0 
0.4497830508270664 
0 
0 
-0.1677063790033249 
-0.3261045639649453 
0 
0 
-0.0001232948697574826 
0.03791902174093306 
0 
0 
0 
0 
0.2951925350617538 
-0.19793048256489 
0.09419394794916212 
0 
0 
0.1608723867303384 
0 
-0.0005363274949972625 
0 
0 
0 
0.156262888282535 
0 
0 
8.774232649915318e-06 
0 
0 
-0.02711546911516186 
0 
0 
0.1621703020720753 
-0.09166245330991908 
0.001402358393185441 
0 
-0.09244042548578744 
0.05864106371749452 
-0.1492622746258185 
0 
0 
0 
0.05214666829554911 
0 
0 
0.08605780063129202 
-0.0002359306691166987 
0.04228049576712711 
0.1004219922780765 
-0.1545147507268313 
0 
0 
-0.002209882457149435 
0 
-0.08310205073764076 
0 
0 
0.6532258624334759 
0.1134112190560632 
0 
0 
-0.1635139845141928 
0 
0 
0 
0 
0.4978097828876155 
-0.5347881116270042 
0 
0.1047397266609148 
0 
0 
0 
0 
-0.1259085218044066 
0.3085322686667196 
0 
0.0001295690025155863 
0 
-0.06186683631865721 
-0.1234691069117807 
0 
0 
0 
-0.3915882920634859 
0 
0.1504778291752723 
-0.02868074409296698 
0.09060277834735125 
0.1559999432236184 
0 
0 
0 
0 
-0.123961960945792 
0.2115849463881157 
0.0004886886212705727 
-0.04600698862272225 
-0.19793048256489 
0.0731850675061216 
-0.6245804279056928 
0 
0.003625654779212329 
0 
0.2315381951012851 
0 
0.04089035043649346 
0 
-0.1039956642853679 
0 
-0.04016396668151791 
0 
0 
0 
-0.0002402714501144824 
-0.2032632165727075 
-0.19793048256489 
-0.2933725274831799 
0.3977776997264239 
0.09453471273168605 
0.1474568623908369 
0 
-0.132900545909054 
0 
0 
0.4859220179275294 
0.19793048256489 
-0.1354525606808324 
0 
0 
0 
0 
-0.04155116606984356 
0 
0 
-0.2989502051513233 
0 
0.2239889181279944 
-0.06072295219315874 
0 
0 
0 
0 
0 
0.1263563951429261 
0 
0 
0.1868781548956999 
0.1674035275599679 
-0.2479752086084777 
0 
0.1674035275599679 
0 
0 
-0.2995581096840634 
0 
0.001409629081319981 
0 
-0.2123935145403554 
0.1885107136636158 
-0.05016754374892105 
0.0739585597023506 
-0.1150683498673765 
0 
0 
0 
-0.08878039775056248 
0 
0 
0.08993208577022359 
-0.1980661842639488 
0.06722000189712254 
0.2749483419145644 
0 
0.1218380611503366 
0 
0 
0 
0 
0 
0 
-0.07479560751046808 
0.1809726053290925 
0.4041270988718139 
0 
-0.09686875580996708 
0 
0 
0 
0.1944211547156035 
-0.001146884233465179 
0 
-0.04349709302781768 
-0.1857617012912452 
0 
0 
0 
-0.4853642022570344 
0 
0.1771136638702034 
0.2972141870745617 
0.5984034163078646 
0 
0 
0 
0.469098905263826 
-0.04115248738787832 
0 
0 
0 
0.6890730267147086 
0.03760457623889983 
0 
0 
0.01310568394922497 
0.1281557507682168 
0 
0 
0 
-0.1324441416625987 
0.01572585186762654 
0.05646499473037148 
0 
0.1653543007385283 
0 
0 
-0.3348070551199359 
-0.2168586593068438 
0 
0 
-0.1152733551111053 
0 
-0.1280296995582649 
0.2450105482603177 
0 
0.8013817910069896 
0.19793048256489 
0 
0 
0 
0 
0 
0 
-0.1866921116806653 
-0.1558035129509212 
0 
0 
0.2656934224895177 
0 
0 
-0.3587315234653746 
0.0240757456324269 
0 
-0.2146964478443215 
0 
0.1674035275599679 
-0.1474829174667326 
0 
0 
0 
0.1367725808132855 
0 
0 
0.1627551261955283 
0 
0.1546175079568892 
0.002607029252285178 
0 
-0.001770283583352819 
0 
0 
-0.4832587914815418 
0.258851302856575 
0.1516585658866532 
-0.1336477930081486 
0.3166153397146531 
-0.2674754758681199 
-0.01047196206787918 
0 
0 
-0.05628574330441815 
0 
0 
-0.1143450778104258 
-0.1408900799195889 
-0.0007530596569530999 
0 
-0.007951410395497609 
-0.1442402331751274 
0 
0 
-0.2062584014885945 
-0.146436701751524 
0.1161674921330057 
-0.003318949996189413 
0.1754873386443899 
0.3331815965839867 
0 
-0.3135045528357223 
0.3086658606205835 
0 
0 
-0.1696647275858761 
0 
0.1250995344263023 
0 
0 
-0.19793048256489 
0 
-0.0436032027889417 
-0.1629384453008381 
0 
0 
-0.3686489486842895 
0 
-0.005451895637436076 
0.3272746971530332 
-0.3046810173044025 
0 
0 
0 
0.05747667024851785 
0 
0.1674035275599679 
0 
0.1498614804975445 
0 
0.07203437334762822 
-0.1145088252503454 
-0.1360684751996543 
-0.1003153479058968 
0 
0.1525008235118434 
-0.06875580791697657 
0.2236614036205794 
0 
0.2009664678559394 
-0.183413203729144 
-0.1736998720781245 
0 
0 
-0.3914142829201192 
0 
-0.06544896293773268 
-0.2296593889679943 
-0.3953465117512365 
0 
0.0832957829101364 
0 
0 
-0.0001115094957008715 
0 
-0.01179576849020336 
0 
0.1842089340149256 
-0.2960847344584583 
0 
-0.19793048256489 
0.1794055923725091 
0 
0.2060349214502164 
0.19793048256489 
0 
-0.004311640167070118 
0 
-0.2442329078624156 
0.2431464347965787 
0.3038605081271988 
0.3434999057710912 
0 
9.427222115014202e-05 
0 
0.1325315160784158 
0 
0.4412658874567233 
-0.07287053752808717 
-0.1114226008178533 
-0.05682892175050325 
-0.0435228521751722 
-0.2469343374334387 
0.1012554209150919 
0.001747856781073503 
-0.08781070108768729 
0 
0.1931374043886063 
0 
0 
0.1425201066768985 
-0.6087596062085926 
-0.1265775321722993 
0 
0 
0.001289177670256557 
0 
0 
0 
0 
-0.2141951252225832 
0 
0 
0 
0.2352611282432769 
0 
-0.06715312496961438 
-0.08329807160263902 
0.0002121567626408062 
0.119618392193235 
-0.1719553357396159 
0 
0.2744954005332545 
0.04335250684601891 
0 
0 
0.04993047629537897 
0 
0 
0 
0 
0.002643463224943946 
0 
0 
0.3177686908690563 
0 
-0.09295363152851162 
0 
0.2751606889103746 
-0.2131259846698827 
0 
-0.1370163005672764 
0 
0 
-0.4178121361972218 
0.2271219462573549 
-0.1674035275599679 
0 
0.2857863190299781 
0 
-0.7754828945374106 
-0.19793048256489 
0 
0.06031597687384301 
0 
0.04252555271983333 
0.01507025940324218 
-0.2596955521798422 
0 
-0.5345253325094966 
0 
-0.1258424597071537 
0.3162378402720591 
0 
0 
-0.08846926019019455 
0.2666971337586267 
0.1360585316834086 
0 
-0.7651624677747221 
-0.000237609936580215 
-0.05737796751682284 
0 
-0.001941478123514544 
-0.3523146571159197 
0.00392567311223945 
0 
0 
-0.1931780725043386 
0.5154447124988404 
0 
0 
0 
0.04543118016503701 
0.1122852593199184 
0 
0.101303791246352 
0 
0 
0.2425937908198767 
0.03302433834856224 
0 
0 
-0.08600429665817523 
0.1488541665366508 
0.2086019329854856 
-0.3291872289445629 
0.3314679330810036 
0.4245784835028336 
0 
0 
0.1740851550028172 
0 
0 
0 
0 
0 
0 
-0.07798005177260924 
0 
0 
0.386176990595128 
0.00975271565355737 
0 
0 
0 
0 
0 
0.2515288033470418 
0 
0.2860885382284448 
0 
0 
0 
0.09771056029611826 
-0.06628321996770868 
0.2161939780597607 
0.0139990582081295 
0.1649904592060665 
0 
0 
-0.2532789932892296 
0 
0 
0.372694428231503 
0.3037503635048743 
-0.0482585984813257 
-0.09055599825438487 
-0.2342586082649116 
0.15602523675125 
0 
0 
0 
-0.1927156807641641 
-0.2803790821131807 
0 
-0.07840140241737353 
0 
-0.3784004277871972 
0 
0 
-0.1556389400636908 
0.05563355456426942 
-5.530083286346274e-05 
0.1674035275599679 
0.1484790831688006 
-0.2411537818004334 
0.2392136143253426 
0.2307038754535785 
-0.535464053312837 
0 
0 
0.1175064981176596 
0 
0 
-0.1769864446908312 
0 
0 
-0.07749000015913025 
-0.2617295310754699 
0.07440033014404865 
0.6340360151735084 
-0.1583212349810899 
-0.1672776782558612 
0 
-0.07929933764373556 
0 
-0.682424114416479 
0 
-0.08265565625389999 
-0.09255338459126354 
0.05255028064597703 
0 
-0.4327876523977002 
-0.06833674434159263 
0.19793048256489 
0 
0 
-0.2424331782076399 
0.1672341274377666 
0.0881061204550766 
0 
0 
-1.625630592940331e-06 
-0.3417806641810396 
0 
0 
0 
-0.1574024731798835 
0 
0 
0.1064190414758929 
0.06954339297366412 
0 
0 
-0.1426138123025487 
-0.0797526405228816 
-0.2753446789758695 
0 
0 
0 
0 
0.08072398506625446 
0 
-0.001806759711940556 
-0.1058715018710565 
-0.1609973442163268 
-0.227771336141904 
0 
0.2638358495800928 
0.3330626891199733 
-0.1038339862440198 
0.19793048256489 
0 
0 
-0.007851601861263215 
0 
-0.1512090970332237 
-0.004311640167070118 
-0.05494691628540743 
0 
0.2987947779577694 
0 
0.3510556527911093 
0.1304013876690516 
0 
0 
-0.01727834004204791 
-0.19793048256489 
0.1239153599956528 
0 
-0.126760477072754 
-0.216178003804142 
0.2804649582828008 
0 
0.1471924828566647 
-0.01415904708463044 
0.6678326738422156 
-0.1901154024289865 
-0.001287853523053643 
0.142131581472804 
-0.06377072061379002 
0 
0 
0.0003832282220768473 
-0.2194553510139742 
-0.2171178041529094 
0 
0.2097029873468297 
0 
0 
0.1637519718731187 
0.3431724867426799 
-0.08398013950937759 
0 
-0.2659912591394801 
0 
0 
0 
0.03074643708990235 
0 
0 
0 
0.05565145575719165 
-0.0004286278793835766 
0.2080078007149924 
0 
0 
0 
0 
-0.3485928787269065 
0 
-0.1507520416662054 
0 
-0.0003630238468281663 
0 
0 
0 
0 
-0.07876569760994521 
-0.001151543958909548 
0 
-0.4322469968051191 
-0.2368024702393269 
0 
0 
0 
0 
-0.1878254391043602 
0.4139293608160161 
0.5209909087219063 
0 
0.3744367948608064 
0 
-0.5420744765920597 
0 
0 
0 
0.2809357940017645 
-0.1321178867786494 
0.4533943501021362 
0 
0 
-0.1272719935196177 
0 
0 
0 
-0.08329957098722263 
0 
0.02264554777289824 
0 
0 
0 
0 
-0.1608438904271474 
0.018434496552625 
0 
-0.19793048256489 
0 
0.1186396232742143 
0.2915804191011993 
0.03698291601409496 
0 
0.1865421564835695 
0 
-0.2548852987923775 
0 
0.0191244572494617 
0.1605590449127864 
0 
0.1394669684954665 
0.1848726062031662 
0 
0.02004898578694915 
-0.3359880756526525 
0 
0 
0 
0 
-0.1681620966472291 
0.4688434589155922 
-0.196088487468217 
0 
0 
0 
-0.1467857127430129 
0.1472864457249217 
0 
0.1408528812144121 
-0.2813448214881631 
0.4097766963782375 
-0.2067036097405389 
-0.2093188086462104 
0 
-3.350901276903853e-05 
-0.03096559596769526 
-0.2017983314142383 
0 
0 
0 
0.01368726402311125 
-0.08852354664028603 
6.137022229469643e-05 
0.105340257948812 
0.5593596621514779 
-0.1048548469440624 
0.0004667943047992173 
0.2491676647438658 
-0.1912772937953957 
-0.1407090862875631 
0 
-0.2887856612131069 
0 
0 
0 
0 
0 
0.1750540002659093 
0.06784532659314299 
0.19793048256489 
-0.2086984250854854 
-0.08584975016105946 
0 
-0.1777218779501975 
0.3356635611676571 
-0.1879779464378157 
0 
-0.02920330033383147 
0.02810414756825891 
-0.363368150101583 
0 
0 
0.1037260408010486 
-0.19793048256489 
0.0003327961737784817 
0 
-0.4315019399806063 
-0.1795321593194757 
0 
0 
3.846115757832354e-05 
0 
0 
0.2132955502635496 
0 
0 
0 
0 
0 
0.0001827531722217884 
-0.1135601746817074 
-0.2061750463377382 
0 
0 
-0.223403643737138 
0 
0 
0.04715395675647685 
0 
-0.1110128261569834 
0 
0 
0.07755902135602985 
-0.09272732712485415 
0 
0.1729582829204519 
0 
0 
0.2484884571282774 
0 
0.2341410802965811 
0.2259086936626331 
0.1460287310744954 
-0.2015494894961053 
-0.1832592368381946 
0 
0 
0.2392665743497187 
0 
0.1927598237778761 
-0.05785205974252944 
0 
0 
0 
0 
0 
0.5396329975403619 
0 
0 
0.00660862373345258 
0 
0 
-0.1481312968047469 
-0.1375192657769404 
0.4757184526668828 
0 
0.02397444886090612 
0 
-0.1191616028680483 
0.3157152363913489 
0.07065718027607282 
-0.1132947128541225 
0 
0 
0 
0.1326554389403537 
0 
0 
-0.1857471243852328 
0 
-0.1598263456652099 
0 
-0.3881769267851995 
0 
-0.05028498000352168 
-0.2240302205276381 
-0.01687066669174379 
0 
0 
0 
-0.1609383374391929 
0 
0 
0.04994632689941125 
0.08308438646174192 
0 
0 
0 
0.04012618582122044 
0.2363992795980139 
-0.2616724542354896 
0 
-0.2170481446137858 
0.2494354269186408 
0.2874746814588001 
0 
-0.1316179463055409 
-0.3280730400347681 
0.651934054283319 
0 
0.001650599171172237 
0 
0 
0 
-0.04436156239975456 
0 
0.4885115621391559 
0.1759023981470012 
-0.1309555283564544 
-0.2080947660336307 
-0.01091729863882196 
0.0617996514330169 
0 
-0.5500467240028142 
0 
0.0334835163207735 
-0.1759226164216082 
-0.2110451832063213 
0 
-0.1717495025502117 
0.2914688621243473 
0 
-0.001085073189795182 
0.01712572559684507 
0.498753255750936 
0 
-0.3653367121141254 
0 
0 
0.2812872095073759 
-0.01276967628385235 
0 
0.1686279998296343 
0.1481200562553371 
0 
0.3256836623854734 
0 
0 
0.2557466042334436 
0 
-0.3764385297551859 
0.356237587819965 
-0.2968788137237355 
0 
-0.2952459396316398 
0 
0.09510604960272419 
-0.1552582500286641 
0 
-0.03563117305033591 
0.2120406857131882 
0 
-0.1411366273404773 
0 
0 
0 
0.09285402342485174 
0 
0.0937253053878157 
0 
0 
0 
0.2734246343901572 
0.1551896766216374 
-0.08774765809566272 
-0.04166303908399151 
0.2670088326314977 
-0.0004429510639541859 
0.2919652162698439 
-0.0001806850805257189 
-0.2589283887569249 
-0.0327561510965684 
-0.1364099140384763 
-0.07210844962542269 
0 
-0.1078025528545708 
-0.2202435171330002 
0.04181221545155602 
0 
0 
0.05649636124815486 
0.09187368041618468 
-0.2310306011210797 
0.000207091731716563 
0 
-0.09375215629189249 
-0.1353166445074297 
0 
0 
0 
-0.1855720164452905 
-0.1160409874579267 
0 
0 
0.055259030177098 
-0.03533188055288111 
0.4645731498077315 
0.05446919663372327 
0 
0 
0.1322295519356872 
0.2647127445980509 
-0.1672555222459712 
0 
0 
-0.2116948232444983 
-0.2908033650766097 
0 
8.166978799487815e-05 
0 
0 
0.1897770025655986 
0.0560895811997093 
0 
0.1438339799935354 
0.4510936477973388 
0 
0 
0.1058246933438474 
0 
-0.166292433879233 
0.1456067181216509 
0.219240280555477 
-0.2368127068715379 
0.19793048256489 
0 
0.1623813773684999 
0.3317572381583789 
0.07094098586707802 
-0.3695268508699229 
0 
0 
0 
-0.1798386815810392 
0.1024884376466 
-0.1709881023031946 
0.1291693490313245 
0.4135328035172929 
0.04657890828564687 
0 
-0.01763648177914659 
0 
0 
-0.3862172572856929 
-0.1296987111065925 
0.143656497509054 
-0.2826314855711055 
0 
0.0001903856829359851 
-0.1492215663408673 
0.3772206181173792 
-0.08780457790027162 
0.2287014055392041 
0 
-0.1258369417359725 
0.4465395286471666 
0 
0 
4.035577435881241e-05 
0 
0.5148330423643022 
0.003699735593332134 
0 
0 
0 
0 
0 
-0.2264973036221648 
-0.2219329730001107 
0 
0 
0 
0 
0.180296438148748 
-0.3539312310641038 
-0.2284216880119969 
0.1372816206429687 
0.2370883584089937 
0 
0 
0 
0 
0 
0 
0.2174357034053822 
0 
-0.06540751480011492 
0 
-0.7622802423670549 
0.7326737214875603 
0.1292938420171651 
0.3791388556281913 
-0.7983389770585327 
-0.06157844527415943 
-0.299913231054636 
0.07854845288989325 
-0.2817787417644601 
0.07202711945136904 
0 
0.4596947003260098 
0.08048254253224553 
0.1308597872507352 
0.2548132058434738 
-0.01654700917698776 
0.007908462927302108 
0 
0 
0 
0 
0.1673107673928488 
-0.1331160547380575 
0 
0 
0 
0 
0 
0 
0 
-0.2812992068487256 
0 
0 
0 
-0.1544896282491869 
0 
0 
-0.2579785464243777 
0.2007665465957267 
0.19793048256489 
-0.107485083193747 
-0.1719004338209153 
0 
0 
0 
0.01705428690317321 
0.1507735099365907 
0 
-0.9885819837353088 
-0.1724102093203417 
0 
-0.1917552651576062 
0 
0 
0 
-0.3098842577394032 
0 
-0.1590271448602275 
0 
0 
0 
0.1802983518810899 
0 
0 
0 
0 
0 
0 
0 
-0.2414424246839177 
0 
-0.02596306689828534 
-0.1672845054002799 
-0.19793048256489 
0.1414605957231517 
-0.1129229676645843 
0 
-0.1213400427090819 
0 
0.00208377153588174 
0 
0.0001699914735135552 
0 
0 
0.09937703522901008 
0 
0 
0 
0 
-0.1302046553157281 
0 
0 
-0.1765059281902566 
0.3465803158233395 
0.00670558484175013 
0.3570282139858993 
0 
0 
0 
0 
0.201698350250939 
0 
-0.1557361476058473 
-0.1857335410589689 
0 
-0.1488592642052568 
-0.2631180499500297 
0 
-0.1039811116178881 
-0.001261595727834677 
0.009408616893784492 
0.19793048256489 
0.06021607898121511 
-0.0008961128318433027 
0.3507915101727302 
0 
0 
0 
-0.2476054101557799 
0 
0 
0.2723574609210554 
0 
0.19793048256489 
0.1615079571962116 
0 
0 
0.2427507682069166 
0 
0 
0 
0 
0 
-0.2459420396270659 
0 
0 
0.1302993251807781 
0 
0.3890174382653712 
0.1861083501398672 
0 
0.09458047304294614 
0.0002710415841681174 
0 
0 
-0.03931935729276036 
-0.2206678663159426 
-0.1443903502015776 
-0.1338991338551356 
0 
0 
0 
0 
0.0005872055722143038 
0.19793048256489 
0.2008991070382733 
0.1373443474224486 
0 
0 
-0.04130817417450443 
0 
-0.07928156828121011 
0.4655723586442927 
0.0001190301090618652 
0.01639116488913758 
-0.4646422473386623 
-0.04008364525265839 
-0.1161527320090056 
0.2262526224966959 
0 
0.03187606155804992 
0 
0.1183097639146786 
-0.169450213674676 
0.4509334139336731 
-0.19793048256489 
0.06808928071735565 
-0.4049866740363195 
-0.3780775833819215 
0 
-0.03620467344703602 
-0.2267095702560788 
-0.1439614466963008 
0 
0 
-0.1947314545126167 
0 
-0.2926551511063469 
0 
0 
0 
-0.3036881161341426 
0.1082870301644015 
-0.07181358733215017 
-0.5583710913918495 
-0.1674035275599679 
0 
-0.19793048256489 
0 
0 
0 
0 
0 
0 
-0.5563638719358007 
0 
-0.08415519546362121 
0 
0 
-0.3476408210651792 
0 
-0.19793048256489 
0 
0 
-0.03723557717924376 
0.1288268799055208 
-0.1240053319308438 
0 
0.1074220759799226 
0 
0 
0.7228187839870394 
0 
-0.1522449045614161 
0.2453744200607725 
0.1734064093769061 
0.4372189100677725 
0 
0 
0 
0 
-0.03316536672434482 
-0.006707264390819674 
0.1355620271543296 
0 
0 
0 
0 
-0.5442398289897582 
-0.05460592568970844 
0 
0 
0 
-0.1454361895984675 
0.003728690912012775 
0 
-0.08473318530070804 
0 
0 
0.1465304932079548 
0 
0 
0.01903413766043758 
-0.1743307331096525 
0 
0 
0 
0 
-0.001781981093031213 
-0.1430336439416395 
0 
0 
0 
0 
0 
0 
0 
0.07973699151504905 
0 
-0.2030664264363601 
0 
0 
0 
0.19793048256489 
0.0828812355467647 
0 
-0.1280676292948026 
-0.0256683026025395 
0 
0 
-0.1153801940349921 
0.3260016594595357 
0.4217855362046213 
0.19793048256489 
0 
0.2561100630750109 
0 
0 
0 
-0.2527654901846837 
-0.1438094668345171 
0.1921315786637219 
-0.09130383861270425 
0.1297682834687509 
0 
-0.2905098021304982 
0 
0 
-0.362932528401719 
-0.1750562268200766 
0 
0 
0 
-0.1964528880655587 
0 
0 
0 
0 
0.191835305369503 
0 
0.1789487640770696 
0 
0 
-0.7031916440895168 
-0.06148762623830028 
0 
-0.07225566890551723 
0 
0.3162399806590993 
-0.1265159396245218 
0 
0.199998595058499 
0 
-0.1726370854723493 
0 
0.04126490307513328 
-0.7368783782473759 
0.1853110250656108 
0.1822979062429598 
0.0002874941931764548 
0 
-0.001999526989284737 
0 
0 
-0.03710338026907808 
0 
0.1230623433240564 
0.3548377983480459 
0 
-0.0199707781343752 
-0.142187209975272 
0 
0 
0 
-0.01084451978262738 
0 
0 
0 
0 
0 
0 
0.1836607920913525 
0 
-0.1919036969283444 
0 
0.1120373540371179 
0 
0.09690985086056896 
-7.197384601079307e-05 
0 
0.08765086507515697 
0.7235884251225507 
0 
0.01945468181645168 
0 
0 
0 
0 
0 
-0.1770887062084982 
-0.03353326142562516 
0 
0.08765676120147872 
0.00428326400420213 
0 
0 
-0.06606463766853346 
0 
0 
0 
0 
0 
0 
0.1176462771271553 
0.2390199560763177 
0 
-0.1657264821615884 
0 
-0.3298316251796373 
0 
0.002447967656735766 
0.000168349496491182 
-0.002387756294474392 
0 
0.09723530098075608 
0.07748854816830406 
0 
0.09080616085441741 
0 
-0.19793048256489 
0 
-0.5537087178852541 
0 
0 
0 
-0.1851870740488592 
0.03289915976738829 
0 
-0.2035452332529987 
0 
0.1817301586019916 
0 
0.210472942332318 
0 
0 
-0.1424297776015421 
0 
0 
-0.1971420650939403 
0.1255801552773057 
0.2087164469982393 
0 
0 
0 
0 
0.2998515245667217 
0.8516682961331981 
-0.2066457847101489 
0.4492858294450618 
0 
-0.19793048256489 
0.159812106569783 
-0.09274976174641475 
0.200885336072459 
0.02805060698440367 
0 
0.4200309437607425 
0 
0.2671185860211532 
0 
0 
0.008403154457342061 
0.01326117871671053 
0 
-0.2850384617221144 
0 
0 
0 
0 
0 
0 
0.1473347027151141 
0.001769332859982764 
0.19793048256489 
0 
0.3475984726932674 
0 
0.1392186420042337 
0 
0 
0.26203413234213 
-0.1478503182915954 
0 
0 
0 
0 
-0.001479961685371808 
0 
-0.1575314486727048 
-0.2481824372709606 
0 
-0.3945078248386917 
0 
0 
0.19793048256489 
0 
0 
-0.02681099963586315 
0 
-0.1008890422330899 
0 
-0.08507966330974107 
-0.02045750100028842 
0.09060277834735125 
0 
-0.04440162612663182 
0.1975593745127462 
0.09638444388005693 
0 
0 
0 
0.1976261714381038 
0 
-0.08343897798130581 
0 
0 
0.2359070802429365 
0 
0 
-0.19793048256489 
0 
0 
0.1392126745166314 
0 
0 
0 
0 
-0.1241810539639053 
0 
0 
0 
0 
0.8886404467284947 
-0.02774506446098983 
-0.07412089132382892 
0 
0.1523497049219676 
0 
0 
0 
0.04805882669056195 
0 
-0.1615530905649853 
0 
-0.371490552966922 
0.066511962245034 
0 
0.399078302844706 
0 
0 
0 
0.2059315206900388 
0 
0 
-0.04856188118850118 
-0.1929256126822199 
0 
0.4173245121061711 
-0.1895294452142565 
0 
0 
0 
-0.0415697609391803 
-0.07636654930483994 
0.05108477137041159 
0 
0 
-0.07363433400918105 
0 
-0.6296176960488877 
0.167936971062448 
-0.1783509020891932 
0 
0 
-0.1499761286867294 
0 
0.1230744397494294 
-0.256050056806338 
-0.1305149025583905 
0 
0 
0.19793048256489 
0 
0.0001749392900828571 
0.1820137820985244 
0 
0 
0 
0 
0.03518801134839913 
-0.4290565180384651 
0.02685368940417064 
-0.2530975560146034 
0 
-0.19793048256489 
0 
0.1498198993008411 
0 
0 
0 
-0.2463958386622868 
0 
0 
-0.001771513096805034 
-0.1163206006611006 
-0.09863557966548075 
0 
0.3560524598552618 
0.1065926233757646 
-0.04499579558041026 
0 
0 
-0.0003542452112795576 
0 
0.01039697130470237 
0 
0.1864348320880035 
0 
0.05734567882337275 
0.0003413154633326493 
0 
0 
0 
-0.06940988433196274 
-0.05391181821952291 
0 
-0.02318505810474975 
-0.2718970666306735 
0 
0.1959848538027128 
0.5925811065418131 
0 
0 
0 
0.02631110716290712 
0 
0 
-0.1281028244922844 
0.1779533397851029 
-0.00518735732830086 
0.08783953279469735 
0.2458848364430506 
-0.1899294444397412 
0 
0 
0 
0 
-0.1443249797870891 
0.0510150092397982 
0 
0 
-0.1896632520118173 
0 
0 
0.1674035275599679 
-0.2453831359545076 
0 
0.4336660392287503 
0.2277584504655299 
0 
-0.2434025472395422 
0 
0.1118053155444115 
0 
-0.1291673805919951 
0 
0 
-0.001327123559687079 
0 
0.2106146107309082 
0.0002784383981567534 
0 
-0.01495977044838387 
0 
0 
-0.2112169188998956 
0.07736045455243298 
-0.2273195818672606 
-0.1958612056615957 
-3.634967564634331e-05 
0.1020277862555745 
0 
0 
0 
-0.09051393151356517 
0.2301199450533499 
0.035947812449947 
-0.0001499495534790325 
0 
0.0001164204523254692 
0.1817607393447395 
-0.5646107935783163 
0 
-0.2746392918667434 
0 
0 
0 
0 
0 
0 
0 
0 
0 
-0.1911718255806506 
0 
-0.19793048256489 
-0.19793048256489 
0.1421549836742194 
0 
0.2180670458160572 
0 
0 
0.1857063342770008 
0 
0 
0 
-0.02990221830925868 
-0.006407620282565452 
0 
0 
0.3780619217501637 
0 
0 
0 
0 
0 
0 
0 
0 
0.132023416673124 
0 
-0.03986585071047997 
0 
0 
0 
0 
0 
0.138635429563331 
0 
0.1368791303981149 
0 
-0.19793048256489 
0 
0.06585305350162672 
0.2013415835883887 
0 
-0.006440950274360735 
0.1664190106056496 
0 
0.06921482802754926 
0 
0 
0.0566389177803719 
0 
0 
0 
0 
0 
-0.1891146352980334 
-0.1517821465537599 
0.4397922772006906 
0 
0 
0 
0.4578352818488545 
0.2204395998641471 
0.4437307693135322 
-0.1979032599962924 
-0.09182044292181349 
0 
-0.1346266650139218 
-0.2102804790501457 
0 
-0.3363292075242363 
0 
0 
-0.5215917987479319 
0.5026448717629304 
-0.00261310063278334 
0 
0 
-0.2729128574297026 
0 
0 
-0.2359027811530915 
0 
0 
-0.03623699836807745 
0.08605780063129202 
0 
0 
0.07685596193386013 
0.19793048256489 
0 
0.2189880817050392 
-0.06182681757509175 
0 
0 
0 
-0.46505245333754 
0 
0 
0.13943716246475 
0.01784642946694561 
0.04990923947765209 
0 
0 
0 
0 
0 
0 
0.04336932110471534 
0 
0 
0 
0.2193023458722363 
0.19793048256489 
-0.4026709744022738 
0.3100708401134394 
0.2173467963447041 
0.1325967766447436 
-0.005027315523384507 
0 
0 
-0.2156319840100455 
-0.06915698138673328 
0 
0 
0.0001049106962175028 
0 
0 
-0.2065021939783404 
0 
-0.2028267563320661 
1.937797482330459e-05 
0 
0 
0 
0 
0 
0.3280153450232258 
0 
0 
0.08187938567829894 
0 
0 
0.19793048256489 
0 
0.03113535033530642 
0.4905260230754969 
0 
0 
-0.09264209709562293 
-0.2225088802096943 
0 
0 
-0.09254826543661152 
0 
0.06105294817189499 
-0.1156300812469656 
-0.00147742441407321 
-0.3655387769855222 
0 
-0.04227222005404446 
0.2507271535696884 
0 
2.732064381763286e-06 
0 
-0.9066753129853246 
0.06621404019873066 
-0.00430342102936332 
0.1754597292358138 
0.2201207166601414 
0 
0.231887246405035 
0 
0 
0.2049942218370232 
0 
0 
0 
-0.2143395076474516 
0 
0 
0.01367089940061697 
-0.03565573757994578 
0 
-0.09858590402379425 
0 
-0.02598475687304517 
-0.04641693938485834 
0 
-0.0002220675903845143 
0 
0 
0.09335827055771427 
-0.1379641510901363 
-0.1475107833398566 
0 
0 
0 
0 
-0.232328114601454 
0.3073992171336158 
-0.7521908230487158 
0 
-0.6360777356961869 
0 
0 
-0.3957077549456099 
0 
-0.3137765340556469 
0 
0.3889541529586134 
0 
-0.1673996192203556 
-0.1723908288414244 
0 
0 
-0.0005405471827728138 
0 
-0.04265389398138867 
-0.06295819058526381 
0 
0 
0 
0 
-0.1522015490691258 
0 
0 
-0.1083477761628451 
0 
-0.2104479574720975 
0.1295333230791301 
0.1349426856512464 
0.2272194920396877 
0 
-0.01798378983044324 
0 
0 
-0.02722870110875453 
0 
0.1984607029935394 
-0.2289957131094636 
0 
0.265696951916848 
0 
0.6451838690823115 
-0.1692434119848701 
0 
0 
-0.104218769676255 
0.05459755637906965 
-0.1015124679867077 
0 
-0.1156814474345917 
0 
0.06149328936657585 
0.07863134021468032 
0.005459591280442116 
0.07071269113798641 
-0.06140251348625253 
0 
0 
-0.009896392059412432 
-0.1674035275599679 
0 
0 
0.005419558673136546 
0.3903966986758323 
-0.0001791370265662599 
0.6748442362135757 
0 
0 
0 
0 
0 
0.1885810676714635 
0.5835648239935961 
0 
-0.2155808946189836 
-0.3370102776765805 
0 
-0.2268293169297248 
5.519158077282127e-05 
0 
0 
0 
0.4514226763834562 
0 
0.1926908784464276 
0 
-0.288254523238396 
-0.003993348059643508 
-0.00141459327775118 
0 
-0.2980751365193883 
-0.1798613275902478 
0 
0 
0 
0.02492127280917835 
0 
0.1476552202968735 
-0.19793048256489 
0.1365851091619148 
0.1921200346928785 
0.04179120592336581 
0 
-0.3680952660503658 
-0.1309983881740138 
0 
0 
0 
0 
0 
-0.4354749427144093 
0.000470195289695937 
0.158054453512223 
0 
0 
0.202515042526444 
-0.1899294444397412 
-0.05287886648678677 
-0.5014881973329263 
0.02510873897196916 
-0.08540564516042784 
0 
0 
0 
-0.2623228170213558 
-0.1533247200870048 
0 
0 
0.2555065572887669 
0 
0.1096406959810686 
0 
-0.2348763006330205 
-0.2495790359435054 
0 
-0.1379112036442642 
0 
0 
0.0999652741913519 
-0.3316538624141641 
-0.2664165603479314 
0.3713485625678724 
0 
0 
0 
0.06724897115720339 
-0.2416324271347883 
0.2295046059897768 
0.08065101549750489 
0 
-0.06815147873467593 
0.03921783091928847 
0 
0.001527122316694947 
0 
0 
0 
-0.1442286347101411 
0 
-0.005451895637436076 
-0.04538594631739332 
-0.1890998124290763 
0 
0 
0.1751192490033035 
0.2355168672105115 
0.07316755914415798 
0 
0.03403977532146755 
0.08608718576528308 
-0.4049713312670081 
0 
0.690391078311404 
0 
-1.030315981501187 
0.1562930304688197 
0.2774795622902884 
0 
0.2011820550132097 
0.09029170953382232 
-0.7065100399625119 
-0.2305347037693752 
0 
0.1472581640426419 
0 
0.2273080337131605 
0 
0 
0 
-0.177760490291112 
0.3584571604867116 
0 
0 
-0.001791744674820305 
0 
0 
-0.0838953083160419 
0.5018884611691049 
0 
0.1079759763360343 
0 
-0.0002402714501144824 
0.1064804475384342 
-0.2971184863248644 
-9.499571635912768e-05 
0.1634688041518171 
-0.111559596428763 
0.3348070551199359 
0.1297989956818101 
0 
0 
0 
-0.2674286059812613 
0.2241523742151 
-0.1503049701315192 
-0.1674035275599679 
-0.1220428892575204 
0.1313066818780573 
0 
0.1226013819134005 
0 
0.0934134290828897 
0 
0 
0.2583805111877044 
0 
0 
0.04989943997418353 
0 
-0.2002016871046768 
0 
0.0255619047309159 
0 
0 
-0.199111213286239 
0 
0 
0 
0.06898060026937411 
-0.1882108395522375 
-0.0428887971161591 
0 
0 
0.0009610490205893725 
-0.04239184037945145 
0 
-0.19793048256489 
0 
0 
0.19793048256489 
0 
0.1945433924479693 
-0.06867997469396367 
-0.1311404751450526 
0.1618998713391848 
-0.304729859203998 
0 
-0.07605514967511277 
0 
0.04996589218357975 
-0.4018427525154747 
-0.185863503244726 
0 
0 
0 
-0.09172887170631205 
0.2819900058246926 
0 
0 
0.0734568280251584 
-0.01037379092855546 
-0.2186907719171242 
0 
-0.1834421684984303 
-0.0249933868847206 
0.05066297020943276 
-0.2184302736519609 
0 
0 
0 
0 
0 
0 
0 
-0.1681550659873292 
0.7916356385309514 
-0.483252138678193 
0 
0.2676889349275747 
0 
0.1016510432925157 
0 
-0.4159704905481528 
0 
0.06435940974837756 
-0.003282302084376605 
0 
0 
0.6350507453262507 
0 
0 
0 
0 
-0.07913963905737209 
0.1674035275599679 
0 
-0.2350396546331614 
0 
-0.1747469196485033 
0.2090916881294324 
-0.05377461224216509 
-0.19793048256489 
-0.3213682396721079 
0 
-0.1556592517544018 
-0.2973419285670917 
0.1409028055969163 
-0.1739357489716398 
0 
-0.2293372948648736 
-0.2958286229760818 
-0.0848648880691211 
-0.5325755130127959 
-0.2978986329214557 
-0.1209477368276888 
0 
0 
-0.1221532612966747 
0 
0 
-0.2965914884393208 
-0.1594898029752823 
0 
0 
0 
0 
0 
0.1584119516022058 
-0.2352531532513613 
0 
0 
0 
0 
0 
0.4230464710068553 
-0.1419550906355677 
-0.9862364661365043 
-0.19793048256489 
-0.2045998811789841 
0 
0 
0 
-0.0008169118109375252 
-0.2829787932716093 
-0.1928017045052753 
0 
0.03976628605528396 
0.0001208540590056598 
-0.04087298815433663 
0 
0 
0 
0.1361800468316963 
-0.001114373588973115 
0 
0 
0.007226683204635404 
0.002582214874048519 
-0.1011280991912863 
0.06580522394105488 
-0.1411434684203426 
0.2026984571364215 
0 
-0.1366869316309279 
0.1370605158075187 
0.260214615396454 
0 
-0.1087184938914242 
-0.2411972079356338 
0 
-0.2025661943834371 
0 
0.09494295116517121 
0.1445029466664247 
0.1813328299989681 
0 
0 
0.2008158036483352 
0 
-0.1171567195217305 
0 
0 
-0.5614877957319948 
-0.06402656346510792 
0 
-0.1380888266074305 
-0.02721951066414802 
0 
0 
0 
-0.5656367555639357 
-0.1284399869058325 
0 
0 
-0.2193018479794102 
0.18148917338084 
0 
0 
0 
0 
0 
0 
-0.3558915662796063 
0 
0 
0.1553041726721217 
0 
0.07493310921265449 
0 
-0.182428801833624 
0 
0 
-0.191605672595783 
0.775298739601766 
0 
0 
0 
-0.2046975592997529 
-0.01601472293623056 
0 
0 
-0.07080001382878591 
0 
0 
0 
0.209478228864747 
0 
0.05481443291043416 
0 
-0.2169443794846819 
0 
-0.1362739523209607 
0.0139165438208522 
0 
-0.1090185257946597 
-0.267053453552918 
0 
0 
0.19793048256489 
-0.1925087065316832 
-0.2403678021528099 
-0.01621028435573234 
0 
0.19793048256489 
0 
0 
-0.1581568890692295 
0 
0.1674035275599679 
0 
0 
-0.156857726464259 
0.1966091852401168 
0.2551678348395073 
0 
0.1890511778234628 
-0.2498639028980514 
0 
0.4702169387504846 
0 
0.2830771685946536 
0 
0.2185352132903123 
-0.1331967008857019 
0 
0.06303299830975159 
-6.587623921744572e-05 
0 
-0.1281648616927579 
0 
0 
-0.1889348196481728 
0.1979709216049086 
0 
-0.1454782701958405 
0.0002442667616025656 
0.06315933142221349 
-0.05776180173086985 
0 
-0.0691221158252423 
0.3024261846294704 
0 
0 
0 
-0.3335600860490385 
0 
-0.1594898029752823 
0 
0 
0 
-0.4002514251649619 
0.1128189723091273 
0 
0 
-0.1783238625715235 
0 
0 
0.09555770926281242 
0 
0 
-0.1047279575120437 
0 
-0.02681618872289714 
-0.2596702752007607 
-0.1838200242519261 
0.2059315206900388 
0.2349146281339904 
0 
0.08523240540949632 
0 
0 
0 
-0.2433406092927132 
-0.0007331934694981967 
0 
-0.1395798862196561 
-0.001376662313971666 
0.05329827048392212 
0 
0 
-0.2094481428802022 
0.3993704898362478 
0.4370903536635926 
0.2527083770868792 
0.3634693168037669 
0 
-0.0008387985646983095 
-0.19793048256489 
0 
0 
0 
-0.04933420726748382 
0.09174575005390018 
0 
0 
0.2779972943916536 
5.809465222501198e-05 
0.1224320058375909 
0.0003255014362794802 
0 
0 
-0.1502711461443353 
0 
0 
0.6515548058943652 
0 
0 
0 
-0.08719901645659882 
0 
0 
-0.1045733712113552 
0 
0 
0.09458946380378197 
0.149523367315337 
0.1167510613059942 
0 
0.1852262068851813 
-0.2502356991904118 
0.0006061228847502673 
0 
0 
0.03501341800276964 
0.2102992460124107 
-0.05918989783437553 
0.245187954186647 
-0.02470326929852518 
0 
0 
0 
0.1093203769292487 
0.1266275911632106 
0 
0.1856109040203026 
0 
-0.01701612175190714 
0.3153325470148476 
0 
0 
-0.0930469005779621 
-0.220928802725148 
0 
0.2722444427962549 
0.19793048256489 
0.1659137919531373 
0 
-0.2026315002786755 
0.09019296788829889 
0 
0 
0 
0 
0 
0 
0 
0.3344136903355772 
0 
-0.09232044863137601 
0.1578401787324936 
0 
0.1974509242830586 
-3.606610400198116e-05 
0 
0 
0 
0.2264601848595744 
0 
0.295916936996363 
0.210301932125284 
0.2887242247562066 
0.1333995547986854 
-0.1530098739328797 
-0.3494057970800319 
0 
0 
-0.262579737527637 
-0.1569236731155485 
0 
-0.19793048256489 
0 
0 
0 
0.0001807958491514329 
0.05478230273068774 
0 
0.1948544280440416 
0 
0 
0.5044915132783137 
-0.1914187619888866 
0 
0 
-0.1101271163340226 
-0.3583023736296245 
0 
0 
0 
0.201698350250939 
0 
0 
0 
0 
0 
0 
-0.2175724423016339 
0 
0.08192739577884092 
-0.3656307743573825 
-0.06022564872441919 
0 
0.006918838048989412 
0 
0 
0.0001255564351729223 
0 
7.407880063533546e-05 
-0.0001986347709484332 
0 
0 
0.1909045257059089 
0.07204407457838395 
0.1945857311291412 
0 
0 
0.003797614137573909 
0.05954481311294537 
0 
0 
0.7320141015989751 
0 
0 
0 
-0.0498265458469296 
0 
0 
0 
0 
0 
0 
0.1697748781846386 
0.1717665330923994 
-0.3778463190627211 
0.0002374110062752784 
0 
0.3121405842184307 
0 
-0.1424968183834005 
-0.2071227765588154 
0.5626487262640983 
0.1626766256195538 
0 
0 
0 
0.3348070551199359 
-0.0006112006456554778 
0 
0.4466724901136376 
0.1169861842005631 
0 
-0.0001400754573469956 
0 
0 
0.2485182739223625 
0 
0.2017419363270588 
0 
0 
0 
0.19793048256489 
-0.4607959624146715 
0.2611234803086008 
0.19793048256489 
0 
0 
0.07608478100317068 
0 
0.7190563881448379 
0 
0 
0 
-0.1645453558940512 
0 
0.1956554602374087 
-0.2385859320143261 
-0.003641080993492212 
-0.04997780599620493 
-0.02732372922972573 
-0.2157237709406547 
-0.01511817647931758 
-0.0001040792351940357 
0 
0 
0.1674035275599679 
0 
0 
0.1794099002344559 
0.2059315206900388 
0 
0 
0 
-0.5824569042499139 
0.1190198825370712 
-0.1943912628486988 
0 
0 
-0.1252508729987952 
0.5423060077105901 
-0.6357890132697361 
0 
0.0002184570311168075 
0 
0.04903006456721666 
-0.06533817365536927 
0 
0 
0 
0.09489457958989098 
-0.2073826036489432 
0 
0 
-0.2527754477030259 
0.1025371234060974 
0 
0 
0 
-0.4663832407246217 
-0.1970803744291948 
0 
-0.2495426491503688 
-0.3343668356629259 
0 
0 
-0.1081329852488635 
-0.2877309800145821 
0 
0 
-0.1040501104521404 
0 
0 
0 
0.1674035275599679 
0 
0.1674035275599679 
-0.1466588562129421 
0.1651995487092978 
0.03648916009250505 
0.1962466648450774 
-0.1431463229885343 
0 
-0.1180316620857972 
0.3944512444671407 
0 
0 
0 
0 
-0.1528499688437924 
0.1917968618191786 
-0.1430826132173359 
-0.01234982603566287 
-0.1432903931665421 
0.1617161388948765 
-0.3461680392827088 
0 
0 
0 
0 
0 
0.120842455777823 
0 
0 
-0.1014825638552423 
0.3981064554027129 
-0.1452921587361484 
-0.2321451426832471 
0 
0.06475810547673629 
-0.1972327916301268 
0 
0.05214666829554911 
0 
0 
-0.1886635998917896 
0 
-0.1674035275599679 
0 
0.19793048256489 
0 
0 
0 
0 
-0.02446528936595606 
-0.1519898762759419 
0 
0 
0.5019726304091831 
0.4002033009837515 
0 
0 
0.30014604170627 
0 
0 
0 
0.06174305104600333 
0 
6.033884109509498e-05 
0 
0 
0 
-0.4939240886013036 
0.3052529928367264 
0 
0.2725904990367653 
0.1008213866799638 
0 
8.985172972400243e-05 
0 
0 
0 
0 
0 
-1.552957840806702e-05 
-0.1001830400026374 
0 
0 
-0.101493881939848 
0 
0.0006914837774148005 
-0.200996052760821 
0.1674035275599679 
0 
0.19793048256489 
-0.1929273098212983 
0 
0.05762627810607329 
0.01485337701747181 
-0.003419269563075317 
0.04309274012430434 
0 
0 
0 
0 
0.04179120592336581 
0 
0 
0.009946382538464702 
0 
0.5412088851060552 
0 
0 
0.02847365835203784 
0 
0.7179490929182891 
0.139784808854918 
-0.19793048256489 
-0.1135942426854042 
0 
-0.2870508909492882 
-0.3054453809837983 
0.001187730191983398 
0 
0 
-0.1278704579772995 
0.2232238796574306 
0 
0 
-0.1337580496217528 
-0.1164900333130254 
-0.1657367402177845 
-0.2039692462770031 
0 
0 
-0.05234930524285226 
0.04754702204912008 
0 
0 
0 
0 
0.06767656347879279 
0.1111587495329321 
0 
0.07860704165012097 
-0.1496996511190302 
0 
0 
-0.1409277377990152 
0 
0 
-0.19793048256489 
0.00062349039528785 
0 
0 
0.3106187095704508 
0 
0 
0 
0 
0.2357713667469763 
0 
0.1875829543317405 
-0.1930216068026067 
0.02333662688514697 
0.0002113909522446186 
0 
0 
-0.2667604994201235 
-0.4533226485120061 
0 
0 
0 
0 
-4.020948438708908e-05 
0 
0 
-0.1941626148788409 
0.1007280462957982 
0 
0 
0.0318425485051745 
0 
0.2569486730978641 
0 
0.1771273460478498 
0 
0 
0 
0.09330299331768856 
0 
-0.1887839526218353 
-0.3625412400367605 
0 
-0.1619617879553361 
0 
-0.04883732264309874 
0.4116567837096137 
0 
0 
0.08687030054796838 
-0.0886596523107983 
0 
0 
0 
0 
-0.1495154705896936 
0 
0.110691662756374 
0 
0.03927599493174238 
0.1511860672493481 
0 
0 
-0.7620447835143024 
0.337236898827163 
0.110062364120554 
-0.000376246202923915 
-0.2394127119009776 
0.003986260839295051 
0.01942297434191769 
-0.2511693225657419 
0 
-0.2849020512718637 
0.1143113487276208 
-0.1523465041125316 
-0.04559886044286721 
-0.3600655704949067 
0.05216261383444657 
-0.3348099822471805 
0 
0.01565804254755985 
-0.2133077310542537 
-0.2841200211994497 
0.06033242715991131 
-0.2321692986225834 
0 
0.100114625856159 
-0.2276531401117442 
0.06091314212492421 
-0.03323246707602874 
0 
0.2987788889849743 
0 
0.07377466301489609 
-0.353408633525746 
