solver_type L2R_L2LOSS_SVC
nr_class 2
label 1 0
nr_feature 79548
bias -1
w
0.0003305696153162565 
0 
0 
-0.0001539582594579159 
0 
0.1059017893408028 
-0.08396187462133678 
-0.09562606592291548 
0 
0.2036316211385514 
0 
0 
0.06646102831146786 
0.3841249249751426 
-0.06789465248795482 
0 
0.1204637683874553 
-0.169424793225113 
-0.128882390125468 
0.04439717502564031 
0.06109471293827558 
0 
7.010526578754171e-05 
0.4574187081181623 
-0.07780619457748161 
0 
0.0002354507101672417 
0 
-0.2095999207247148 
-0.008607495485830173 
0 
-0.3974318152177843 
-4.445606691571844e-06 
0.05477597736887727 
0.07917471476122942 
-0.2281905437430198 
0.0003026965426622048 
-0.0002509663406118487 
-0.1393237220603107 
0.07877846259984893 
0.1130362435802185 
-0.2504174193227459 
0 
-0.1838578920259067 
0 
-0.0334685896616368 
0.02816802115053959 
0 
-0.02594899823064371 
0 
0 
0 
0.01565973655807369 
0 
-0.03662561349604105 
0 
0 
0 
0 
0.06967875953372182 
-0.2759048064708965 
-0.1838421451748659 
0.3026074012664915 
0 
0.003052055896549312 
0 
-0.06537826728571175 
-0.06113442052001771 
0 
0 
-0.1375639624647549 
0 
0 
0 
-0.0004741636526707955 
-0.05774239143809576 
0 
0 
0.1044765171464494 
0 
0.0975525007447451 
0.1167234606706437 
-0.08961811256184923 
0 
0.1074193400092448 
0.21351077583302 
0 
0 
0 
-0.08954968346763995 
0.1209878328372184 
0.1188953384584222 
0 
0.001427612560839996 
0 
0 
-0.09850357960121787 
0.00194379033804121 
-0.06257751983801256 
0.1377697116109042 
-0.09139644620724907 
0 
0.09892332477811359 
-0.181927844921403 
0.0176090622644393 
0 
0 
-0.04512438337355366 
0 
0.04164800594305977 
0.0001150907767685569 
0 
0 
0 
0 
0 
-0.08452739625023536 
0 
0 
0 
0.1044765171464494 
0 
0.1374990804579098 
0.01952982255065787 
9.884237324869272e-05 
0 
0 
0 
0 
0 
0.01616178208758079 
-0.04642386332426978 
0.06840758017902177 
0 
0 
0 
0.1924970286134906 
-0.03050953501213358 
-0.001092236072352457 
0.0001453538159084508 
0.2403255401644752 
0.1016425339223272 
0 
0 
0.02268791817290301 
0 
0 
8.776121882574263e-05 
0 
0 
0.09273689220074235 
0 
0.1044765171464494 
-0.115113658477473 
0 
-0.06500953696640296 
0 
0 
-0.06462661533719551 
0.2163124265857165 
0 
0.1019751654163118 
0 
0 
-0.05860944732623369 
-0.02004742945376797 
0 
0.162143778239586 
-0.02143006937324867 
0 
0.01552364596541502 
0 
-0.111713885667617 
-0.0753075884084586 
0.02021650743863891 
0.59690526496934 
0 
0.01057507237773316 
0 
0.09403567458546441 
0 
0 
0.309644909688473 
-0.09874147791748811 
0.04820886750665382 
0 
0 
0 
-0.117770259972355 
0 
-0.1006402833914349 
0.1014435785494978 
0.07642003831795008 
0 
0.1375298290337959 
0 
-0.3662013254075667 
0 
-0.02907591087104464 
0.03703854746576921 
-0.1515325421007335 
0 
0 
-0.1305352336807526 
-0.1322167225035376 
-0.05930241323589781 
0.03229543002814664 
0.114096298017721 
0 
0 
0.1265832451327296 
0 
0 
0.1044765171464494 
0 
0.06491987413587631 
0 
0.08820043730849667 
0.06925988099313324 
-0.01752650348977636 
-0.1898600580146669 
0 
-0.1580894001834519 
-0.001009287200509401 
-0.03578247040822337 
-0.2359087655648221 
0 
0.01951961712213985 
0 
0.09956732936553073 
0.13802639019989 
-0.07599769739316095 
-0.04357710332613629 
-0.04420460031470831 
0 
0 
0.1612171529078496 
0 
0 
0 
0.2444548533614089 
0.01485421311896092 
0 
0.0006964504836190527 
0 
0 
7.420611952508856e-05 
0 
0.03383812421432198 
0.0255519503671571 
0 
0 
-0.160992525145398 
0 
0 
-0.1610109082763044 
0 
0 
0 
0 
0.2402115270434897 
-0.1238859434060564 
0 
0 
0.05180269308674981 
0.0001638407058277004 
0 
0.0001053906255999927 
0 
0 
-0.09925996180324065 
0 
0 
0 
0.1227628819032793 
-2.511068185368583e-05 
0.07690010889800172 
-0.03155591795785241 
0 
6.967753061625507e-05 
-0.4583585524709751 
0.2349168595391246 
-0.2894106779909262 
0 
0.08252315393388024 
0 
-0.06413495398215976 
0 
-0.01642196345721859 
0 
0.0005705445200027944 
0 
0 
-0.2025756647041771 
0 
-0.009190542025672988 
0 
0 
-0.1044765171464494 
0.2167728856531002 
0 
0 
-0.0245722764118758 
0 
0.0002886941706192116 
0 
0.127574120733835 
0.08752099375168504 
-0.0997697349554344 
0 
0 
-0.4629433714482514 
-0.5522256205876958 
0 
-0.03332909257144375 
0.04110806865665639 
-0.2415342913526465 
0.04771470005549358 
0.0003362227886469138 
0 
0.1044765171464494 
0 
0 
0 
0.2017253951981235 
0 
0 
-0.2743053917669629 
0.0153303545004638 
-0.1044765171464494 
0 
0 
0.08756177790975231 
0 
0.01071750495059492 
-0.1044765171464494 
-0.1624651533686835 
0 
0 
-0.275102291889 
0 
0 
0 
-0.1047181572761959 
0 
0.08680877560194333 
0 
-0.1008129442541825 
-0.03149434027349213 
0 
0.1551869049549683 
0 
-0.01549190167053311 
0.1250747066583326 
-0.1122869056812155 
0.09997144272883492 
-0.1022258133858887 
0 
0.0310590738439047 
0.5679315688670614 
0 
-0.012674057231239 
0.04587041525843036 
0 
-0.0001762355034394935 
0 
-0.1140124463918423 
0 
-0.0100723015457325 
0.05385090739453184 
0 
0 
0.03661981848172695 
-0.4532814315791487 
-0.1640969202051829 
-0.1210832254799512 
0 
0 
-0.06715522642743495 
0.2335975043269196 
0 
0 
0.04402878683753139 
-0.09191936733558331 
0 
0.08019100685771416 
0.06915649353583433 
-0.08978964216943033 
0 
0 
0 
-0.1018445833354649 
0.08818482582371501 
-0.07352802684760593 
0 
0.159357048735173 
-0.01940740577185348 
0.1044765171464494 
0 
0 
-0.05779509672934977 
0 
0 
0 
0.05266991604916259 
0 
-0.1990469357107578 
-0.1870138353642668 
0 
-0.1169890820018097 
0 
0 
-0.1033201220173091 
0 
-0.1923366405677056 
-0.0002639155188137814 
0.07803947234591219 
0 
0.006606447290142849 
0.0002335087785486545 
-0.01442771946399088 
0 
0.03586349865905448 
0 
0.02156091561985417 
-0.05859959200188737 
0 
0 
0 
0 
0 
-0.1156030439074262 
0 
0 
-0.05574351429598025 
0 
0 
0.002650907217269462 
-0.06967151457243864 
0 
-0.2653287293784218 
-0.0891075015149022 
0 
0 
-0.1121335063106054 
0.1603132121711468 
0.1113422813544524 
0.07886947132959465 
-0.04149713900214472 
0 
0.2456213021129728 
0 
0 
0 
0.1044765171464494 
0.1988543447072427 
-0.01482859378150503 
0 
0.1044765171464494 
0 
0 
-0.0007685446955548328 
-0.08838984592091605 
0.3862736804560744 
0.2828900116511373 
0 
0 
-0.3719153389571398 
0 
0 
0 
0 
0 
-0.011973738707896 
0 
0.1054102276798314 
0 
0.0002808007297496974 
0 
0.06715713921518594 
0 
-0.07341387119240785 
0 
-0.4538424203569763 
0 
0.1044765171464494 
0.1243623472711869 
0.2673112021452835 
0 
0 
0 
0 
0 
0 
0 
0 
0 
-0.5288432177438157 
-0.05239050818802093 
-0.09640650615990726 
8.672529249966715e-06 
0 
0 
-0.03423328327548579 
0 
-0.04094690916719148 
0.02105537561433462 
-0.09360373080465126 
0 
0 
-0.03808737819173796 
-7.243394036864287e-05 
-0.07663081416625064 
-0.2138588826940862 
0 
-0.0179494889993368 
0 
0.0002941640620419753 
0 
0 
0.002222551086436386 
0.1407524535522363 
0 
0.2651928433115323 
0.1241125830558284 
0.09579602391246869 
-0.1232344908341073 
0 
0 
-0.1085753662428708 
0 
0 
0.1675262938277522 
-0.001610361586665827 
0 
0 
-0.2770280244936206 
0 
-0.06950784793814851 
-0.05614588035824553 
-0.1677779365095759 
0.09635044063793093 
0.1163272451945869 
-0.1006048937356046 
-0.03220765658660431 
0.08317489534988246 
0 
-0.03158718174705202 
0 
-0.1168344771731882 
0 
0 
0.2399132160197556 
0.09504693976667461 
0 
-0.3098389721754845 
-0.2511448769936865 
0 
-0.0499168358894486 
0 
-0.1408624869122657 
0.09238343591511491 
-0.1496975929314194 
-0.0514118456403867 
0 
0.01197594040691547 
0.0002851706781892586 
0.09021520370949015 
0 
-0.1756324443713606 
0 
-0.4684967685213252 
0 
0.1606045042728568 
0.02899803111710244 
-0.08978964216943033 
-0.1373382612005365 
0 
-0.03249292100569071 
-0.0966363108051754 
0 
0 
0 
0 
0 
0 
0.04361161794252152 
0 
0.02802236212630039 
-0.0212467816836863 
0 
-0.09584461470485381 
0 
0 
0 
0 
0 
0 
-0.1456695814193352 
0 
0.06988474472133333 
0 
0.0002043624767027906 
0.1306852204346562 
0 
0.2019196623748344 
0 
0 
0 
-0.09333262951366461 
-0.2263466600746333 
0.08566845244349264 
0 
-0.1094685550213404 
0.0001119994944584795 
0 
0 
0.05384719829008906 
0 
0 
0 
-0.1080548529909602 
-0.0002210864938062863 
0 
0 
-0.1043762012108996 
0 
0.1044765171464494 
0 
-0.2418828057995794 
0 
-0.0003128163841286816 
0 
0.1052463602131961 
0 
-0.07124687647636482 
0 
0 
-0.04067986925192078 
0.1018812844076902 
0.07318558625189073 
0 
0.2539070999185793 
0 
-0.06675056919899208 
0 
0 
-0.1034129427697983 
0 
0.128648888404183 
0.1105960818433556 
-0.1743853287544708 
0.06250452497482865 
0.07872010462204292 
0 
-0.08672391888699216 
0 
0 
0 
0 
0 
-0.2855728368848305 
0.08074145313047094 
0 
-0.2232835788757674 
-0.0584844997304604 
0 
0 
-0.1218946695870673 
0 
0 
0 
0 
-0.44219478924845 
0 
0.000346807623974314 
0.3429231277920334 
-0.07906626952346994 
0 
-0.0001386311700541918 
0 
-0.0002330351112242103 
0 
0 
0.09965052627386559 
-0.08137696005333518 
0 
-5.264000122298657e-05 
0.1023425726745234 
-0.2634522673214563 
-0.09683075773900451 
0 
0 
-0.06403839718789867 
0 
0 
-0.1948154431970765 
0 
-0.1191336946128535 
-0.2820675269872548 
0.1966980835285689 
0.07261953104066421 
-0.1042481108740544 
-0.07074578592515751 
0.1349609192073995 
-0.4880518553868709 
0.01890390223551452 
0 
0 
-0.1158331033430665 
0 
-0.09493502110757562 
0 
0 
0 
-0.0006188848719452973 
0 
0 
-0.1332428144522523 
0.03340037568381189 
0 
0 
0 
-0.03044967172647397 
0.0004864786968339085 
-0.2349220244125191 
-0.1835548526281957 
0.1742378037534171 
0.07898147264467625 
0.09725366262130916 
-0.02838221823080218 
0.2012974461463214 
0 
0.0001960101715288024 
0 
0.09896372735590518 
0 
0 
0.0667669682596763 
-0.09744767864303239 
0.1044765171464494 
-0.00144683303721941 
0.04432717239456002 
0 
2.00667220557644e-06 
0 
0 
0 
0 
0 
0 
0 
0 
0 
0 
0.0002199747565410554 
-0.04645735618020802 
0.08580681203144189 
-0.08403498812017446 
-0.002647223913779638 
-0.3054715733560602 
0 
0 
-0.2178825019075314 
0.0003538357326337773 
0 
-0.4216289985316451 
0 
0 
-0.189834604409339 
0 
0 
0.1896081267943318 
0.2283935878190839 
0 
0.026023178719639 
0 
0.07641089489476817 
0 
0.01339418987741344 
-0.01601473853338143 
0.5333410808042233 
0.063942547502086 
0 
0.07454785271595296 
0 
-0.07457325315878519 
-0.08168340737944954 
-0.0926277830789551 
0 
-4.369172672863604e-05 
0.1506056341967836 
0 
-0.1408793824452973 
0.2373257456694504 
0 
-0.000303701416088874 
0.158525425004249 
0 
0 
0 
-0.1127181302700192 
0 
0 
0 
-7.440528469342133e-05 
0 
0 
0.1184569611218883 
0 
0 
-0.128009390761459 
-0.005447669514859246 
0.1234857475735517 
0.2093635239250246 
0 
0 
-0.0001210911422346441 
0 
-0.2415511601014301 
-0.1409186620630697 
-0.09945460754999158 
0.2076053620705654 
0.0003212143628243398 
0 
-0.007813983335147812 
-0.07311258162203936 
0 
0.09827079440685085 
0 
-0.1044765171464494 
0 
-0.1265076468283424 
0 
0 
0 
0 
0.06595828502187454 
0 
0 
0 
0 
0 
-1.709265127983993e-05 
-0.1260002340532699 
0.08973238169871725 
0.03357345123782708 
0 
0 
0 
-0.1177473386907823 
0 
0 
-0.008065815778154845 
0.0001100884433597323 
0 
-0.01991583294228762 
0 
0 
-0.2066549541335931 
0 
0 
0 
0 
0 
0 
0 
0 
0 
0.4186975116029076 
0 
0 
0 
0 
-0.03612397894980514 
0 
0 
0.007784727288368313 
0.1566872242235481 
0.1032795157664187 
0 
-0.02973834822083021 
-0.05724858751045582 
-0.0827447240315571 
0.0004010775963189071 
0.09295741991206992 
0 
0 
0.116672917201681 
0.003630793505128192 
0.2262085606998702 
0 
-0.0004939003403518025 
-0.1300275086179455 
0.2358857791663664 
0.01578945832864935 
0 
0 
0 
0.06746587209174028 
0.02611540635602214 
0 
-0.008062982877817567 
0.0848466315159193 
-0.3829178330747539 
0.0003591767678703321 
0 
0 
0.06173909591127905 
0.1420055058271503 
0 
0 
0 
-0.08085788357641785 
3.816838095011758e-05 
0 
0.1088566369595096 
0.04121215113135855 
-0.05352786583569487 
0 
0 
0 
-0.43245637974242 
-0.03158002649503175 
0.2844173599228745 
0.09971838045759196 
0 
0.0002560192464466406 
0 
0 
0.0405836990959948 
-0.03845492220869879 
0.2075014118729838 
0 
0 
-0.5607195709133261 
0 
-0.07629331878997395 
0 
-0.1869733979921699 
0 
-0.1044765171464494 
0.01131150797755635 
0.1295427299593151 
0.05175285427212252 
0 
0.004503328401903702 
-0.01049573865606328 
-0.1044765171464494 
-0.07307414862512111 
0 
0 
0.1092069567216619 
0.4571986457809005 
0 
0 
0.1444454985931546 
0 
0 
0 
0.1318999508509601 
0 
0 
0.1175199904708872 
-0.08421521968940404 
0.06662779577751216 
-7.492760165337873e-05 
0.5313910157686471 
-0.0248693638675644 
0.1763783681407481 
0.1149676509406372 
-0.105889276885709 
-0.2422196991931384 
-0.2010654303319396 
0.1642718229464034 
-0.117955326824258 
0 
0.007767813734891153 
0 
0.04220161689106859 
-0.06239142304386045 
-0.1208641752668768 
-0.2953449303873073 
-0.1700350903066857 
-0.1267634921907106 
0 
0 
-0.08090968897298499 
0.06736328709054928 
0.06669229443601396 
0 
0 
-0.06812972039392237 
0 
0 
0 
0 
0.06994428938356437 
0 
0 
0 
0 
0 
0 
0 
0.2555667822562868 
0 
0.7388052485696764 
0.2170886362530946 
0.1594391023775883 
-0.05091291858979249 
-0.05148979280380863 
0.1022045385025333 
-0.0273040260483258 
0 
-0.06642712121887977 
0 
0 
0 
0.07383298590304041 
0 
-0.001457596530843054 
-0.0001424661116960827 
-0.1148467132216204 
0.100914087777739 
-0.1285756945349353 
0.1063193594262951 
0.0005244541430312354 
-0.1945073252426183 
0 
0 
-0.04073184245174992 
0.07517422349031097 
0 
0 
0.1860583557975476 
0 
-0.06901299847711248 
-4.632067474251021e-05 
0.0996744841950967 
-0.05141426987467029 
0 
0.1336269519420037 
0 
0.4085792558511394 
0.1495492397353561 
-3.277117535991974e-05 
0.06897661889645329 
0 
-0.06170418220699594 
0.03543422624208248 
-0.2451370798030099 
0 
-0.01418652554923851 
0.006554469964742403 
0 
0 
0 
0 
0 
-0.0006277606267276162 
0.07610900381260152 
0 
0 
0 
-0.1398866931899035 
0 
-0.03010479497796376 
0 
0 
0.0004746986071698595 
-0.2757979730931911 
0 
0 
0 
0 
0 
0 
0.01179256518951543 
0.02802457440086106 
0 
0.1358964777850931 
0 
0.08454405790585476 
-0.1567244543785454 
0.2752433661937349 
0 
0 
6.279813356483679e-05 
0 
0 
0 
0.2243933532109548 
-0.1639907003457236 
0 
0.2239026260925673 
0.04184335795855781 
-0.09724362695082897 
0.193140178043409 
-0.02514310520614761 
0 
0.03197923609477464 
0 
0.0003187042488661796 
0.1231333184209149 
0.00508439415973768 
0 
-0.1044765171464494 
-0.09934817386916089 
-0.01541644877608042 
0.03305283946616148 
-0.03512566888840151 
0.1422970668685993 
0 
0 
0.01755941205028037 
0 
-0.2193062039645544 
0 
0 
-0.05893160768258546 
0 
0.04850696790629146 
-0.1699641175523978 
0 
-0.1060742588356054 
0 
0 
-0.06000966436997136 
0.01444632686272633 
0 
-0.05933425650755465 
0 
0.09421324231077417 
0 
0 
0 
0 
0 
0 
0.2711042200868909 
0 
0 
0 
-0.06403839718789867 
4.914238755390207e-05 
0 
-0.04403629220419224 
-0.07360136661935704 
0.07065200836925591 
0.1374820597778745 
0.000290985803873309 
0.08517617410990047 
-0.3809667775730767 
0.03999649359039064 
0 
0.09725366262130916 
0 
0.2771567418609371 
0 
0.06421572658037032 
0 
0.1685591784461364 
-0.01633313819272919 
0 
0.4186944935258614 
-0.2195959501473836 
-0.4144810583852196 
0.1727852239816509 
0 
-0.09065104289257178 
0 
-0.05068739798234105 
0.1162948835029449 
0 
0 
0 
-0.09810457301294342 
0 
0 
0.008312266482178898 
0 
-0.01895981408094493 
-0.03049662673735657 
0.1844271050473616 
0.06067586023267225 
-0.1518277423342246 
-0.2759153322477489 
0.0002796938144863147 
-0.06144106636293582 
0.1287584659182629 
-0.429877311898837 
0 
0 
-0.3988366835547852 
0 
-0.00103166648848151 
0 
0 
0 
0 
0 
0 
-0.04681024589460883 
-0.1223660235831082 
0 
0 
0.1007639694906309 
-0.040727402465595 
0.1556754949980795 
0 
0 
0 
0 
0.0002616639192489765 
-0.1164448074610959 
0.0562489784013957 
0.05822894508018033 
-0.09143304382201146 
0 
0 
0.01059900191115849 
0.0002811988159890184 
0 
0.205825672887715 
0 
0.04698420621089634 
-0.1248606540668493 
0.0001024728960209987 
0.1044765171464494 
-0.07493396143925596 
-0.1687435065361678 
0.003623970800034995 
0 
0 
0.0001080217224233875 
0 
0.4895380535356494 
-0.08540394669002405 
0.1140482745457904 
-0.1157564182280935 
0.1477282217774639 
-0.02665144461876993 
-0.2071921070552027 
-0.1044765171464494 
0 
-0.07938179627609177 
0.02455449531461131 
0.1444060008764024 
0.01011694587416204 
0 
-0.1275106422705275 
-0.06403839718789867 
-0.0602201286314234 
0.2688155168887371 
0 
0.1463399092993535 
0.0001167866053522308 
0 
-0.1741462078762085 
-0.1432368301153186 
0 
-0.1734239505028937 
0 
0 
0 
-0.1031320419057206 
-0.01527218507801351 
0 
0 
0 
0 
0 
0.02668128184645913 
0 
0.07974277475233107 
0.2421918152365008 
0 
0 
-0.00181187158304336 
0.09510441653209953 
0 
-0.04819775249126749 
-0.09206969357937414 
0 
0.1675176699086296 
0.1398770866411951 
0.05378723675858775 
-0.2378521020302892 
-0.1945703478850001 
0.175774961680872 
0 
0 
0 
0 
0 
0.1044765171464494 
0.05166470141589778 
-0.1150706709571747 
0 
0.002052047586408113 
0 
-0.03831629449147796 
0.1141986521204189 
0 
-0.06644382819541486 
0 
0 
0 
0.05459051660428599 
0 
0 
0 
-0.3270858774041257 
-0.08718050349219447 
0.122286558416962 
0 
0.1123342712872146 
0 
0.1833929412494374 
0 
0 
0 
-0.05222439878815212 
0.0001512657573295999 
0.0003648424936759942 
-0.07091522411752767 
-0.1071024958515423 
-0.1193739105860493 
-0.0371638727947471 
0.1044765171464494 
0 
0.5054080079036246 
-0.2260970037240736 
0 
0 
0.0649812948511924 
0 
0.08758593420449728 
0.05261979714160329 
0 
0 
0 
0.1677052358908113 
-0.1628935640049452 
0 
-0.05439334873348071 
0 
0.08155876613506899 
0.03510568098842774 
-0.02320076802813528 
0 
0.1262454849342113 
0.1340829481278985 
0.0002506989141188949 
0 
0 
-0.6435822304772795 
-0.1014933055249611 
0 
0.000140232229555139 
0 
0 
0 
-0.0001588147911230503 
0.0007547450831829386 
0 
0 
0 
0 
0.1481422808213843 
0 
0 
0 
0.1250087868682125 
0 
-0.01928055716268226 
-0.05277356353843964 
0 
-0.0006235553550862707 
0.04728841361719319 
0.2786550447069957 
0.08507701976947485 
0 
0 
0 
0 
0 
0.0002106786404032569 
-0.1056726467150111 
0 
0 
-0.07967764848469587 
-0.1044026557361407 
-0.09362157564620885 
0 
0 
-0.4059626658849336 
-0.1880169769787572 
-0.04802036824116616 
0.05841746245762779 
0 
0 
0 
-6.765098796192895e-05 
0.256859623629073 
0 
0.0002437531946289935 
0 
0.0239583728712713 
0 
0 
0 
0 
-0.09383736373781247 
0 
0 
0 
0 
0 
0 
0 
0 
0 
0 
-0.1262366417891613 
-0.1182388832924402 
-0.06696011795878504 
0.1077350334818106 
-0.02998512735752012 
0 
-0.06963357365608652 
0.05347706189789918 
0 
0 
0.01683080614706373 
-0.1362651435604629 
0 
0 
0 
1.307628777315233e-05 
0.1335568685293668 
0.09046136061575141 
0 
-0.002370513598425402 
-0.0007239066210706097 
0.09209590709495633 
0.1401026313725198 
0 
-0.0002474346159881224 
0.00258121168031832 
0 
0 
-0.3667383323518223 
0 
0 
0 
-0.03419297655677808 
0.06237595368408241 
-0.02521147350943535 
-0.01472078410238096 
-0.1535182725590211 
-0.1198086060154153 
0 
0.08063167709179626 
-0.1044765171464494 
-0.1205856112857262 
0 
0.09457455850158053 
0 
-0.1019248869121072 
0.0250017539006716 
0.1044765171464494 
0 
-0.06485507522537046 
0 
0 
0 
0.01237214425435141 
-0.04665390448115719 
0.1212825923949531 
0 
0.1705172527405899 
0 
0 
-0.04400668973484621 
-0.05781800915239431 
0 
-0.1725662433316339 
-0.04655197481868729 
0 
-0.06543523123404341 
0 
0.1058765212338064 
0 
0 
0 
0.1188742654685938 
0 
0.009480914373584065 
0 
0 
0 
0 
0 
0 
0 
-0.0007692975931605523 
-0.08615027025208122 
0.214838913831559 
0 
0 
0 
0.3537705249805668 
-0.0936778154486467 
-0.1195548376917863 
0.1147960942383858 
0 
0.2234869795160727 
0 
0 
0.3132510019066588 
0 
0.1861319338996914 
0 
0 
0 
0.5396672809735873 
0 
0 
-0.005264533964329306 
0 
0 
-0.0001092858417363813 
-0.02156866796186086 
0 
0 
-0.001628611887786409 
0 
-0.1583309409523307 
-0.07517863093512162 
0 
0 
0 
0 
0 
0 
0.04768221440647714 
0 
0 
0 
0.0009254225541190566 
-0.0720807849341121 
0.01351297100792032 
0 
0.1090840243391532 
0 
0.09915012069458619 
-0.4411650583860521 
0 
0.005319405581705414 
0.079207431610611 
0.02555121814246532 
0 
0 
0 
0 
-0.01400851047872874 
0 
-0.0176746954181534 
0 
0.2969959163634378 
0.3455816266672664 
0 
-0.07514572668585931 
-0.09251769560503588 
-0.3074001600431369 
0.1654209976481222 
0.2393921751912784 
0.0008062710674274437 
-0.00656245392511199 
0 
-0.06125453106917327 
-0.01332729370402585 
0.06000458524241752 
0.2039044847298329 
-0.450869859004989 
-0.0439150674598384 
0 
0.05957064058424875 
0 
0 
0 
0 
0 
0 
-0.0001018480970499583 
0 
0 
0.1517350330900264 
0 
-0.08230565971724138 
0 
0 
0 
0.004897028441925293 
0 
0 
0 
-0.2850233935365891 
0 
0 
0 
0 
-0.0516039417192142 
0 
0 
0 
0 
0.1904457800226604 
0 
-0.1178463868476548 
-0.04260244740107488 
-5.523415394956618e-05 
-0.002822953730869693 
-0.1086521232840403 
0 
0 
0.09763177831350087 
0.08472635736594022 
0.1325524753974909 
-0.088229396578462 
0 
0 
0 
0.05255548817796488 
0.2070146857495693 
0.01252523643511818 
-0.01068637362217512 
0.0321012014377576 
0 
0 
0 
0.01525535219324667 
0 
0 
0.01537172403194315 
0 
0 
-0.09797320063865614 
-0.06128918712560352 
-0.2189694349528747 
0 
0.1002634656535199 
0 
-0.2589769991668993 
0 
0.1261478512133941 
-0.003802864925647631 
-0.2035515866076981 
0.02338050050047351 
-0.0602965143622204 
0 
-8.060233903036594e-05 
0 
-0.08782179569881529 
-0.06573309505766504 
0.0363930820953861 
0 
0 
0.09692029105417727 
0 
0.0002134463198137223 
0.1298802839380856 
0 
0 
-0.09229725461224714 
-0.06396868142446983 
0 
0 
0 
0 
0.1150456979283721 
-0.06322009554832074 
0.07686697419175584 
0.1489645628171163 
0.1216073588454762 
0 
0 
0 
-0.03368152852744029 
0 
0 
-0.2132268448555994 
0 
0 
-0.1121658493646618 
0 
0 
-0.00465306722167225 
-0.0003392480345232535 
0 
0.1007436756826128 
0 
-0.0002003087560998611 
0 
0.05331704919676601 
0 
0 
0 
0 
0.07593305210997084 
0 
-0.2934259182866432 
0.03479121274268765 
0 
0 
0 
0 
-0.01290348289573415 
0.2153762703864521 
0.1486209041058544 
0.02822101376378744 
0 
0 
-0.007032375084976892 
0 
0 
-0.6350811283071628 
0.03402703733917982 
0.2254928018611597 
0.08229943566959089 
-0.06756586509042217 
-0.03762658844239125 
0 
0.08162915271084061 
0.07872637068446074 
0 
0.1673601629394019 
-0.004211074444853642 
0 
0 
0 
-0.003892663153920037 
0.1118454867659648 
0 
0 
0 
0 
0.09717894364319862 
0 
-0.006375007541682803 
0 
0 
0 
0 
0.3369103125074097 
0.07658917000531773 
0 
-0.2256447439642227 
-0.150879633713035 
0 
0 
0.1155156326351994 
-0.1916759224918414 
0 
0.3960287715958885 
0 
-0.000291363231412234 
-0.1119709959669299 
0.0001939167170931075 
-0.06615425046481874 
0.002161328362421232 
0 
0 
0.2173587475533396 
0 
0 
-0.09998156560668994 
-0.07486790013404748 
0.1830023845794778 
-0.1377613633733207 
0 
-0.1476618515388807 
0 
-0.006739972344218797 
0.1044765171464494 
0 
0 
0.2568729306123726 
0.2170715047587657 
0.08937760911779553 
0 
0.0381184946315833 
0 
0 
6.990971208262534e-05 
0.08860348647892939 
0 
-0.1033589956744189 
-0.2648763555393001 
0 
0 
-0.09281176326194768 
-0.05684767122631068 
0 
-0.0004644699196351453 
0.08177789135182069 
-0.0002129852169375078 
-0.1186351533029545 
0.003856123355437323 
0 
0 
0 
-0.03076178333952127 
0 
0 
-0.0005435294025365614 
0 
0.196559688759796 
0.09612672145012628 
-0.1044765171464494 
-0.08710598921946638 
0.209763126719683 
0 
0 
0.1456064614722266 
-0.6399942046346506 
-0.08253524529352679 
-0.07475690851305122 
0.08952778247448473 
-0.05081815349360783 
0 
0 
-1.363757049902707e-05 
-0.04791324627714157 
-0.1540090067486751 
0 
0 
0.1603923056633559 
0.03197923609477464 
-0.1469109032209934 
0.0001622294462267389 
0.03600300371632827 
0.000391314318770657 
-0.0001788834139659365 
0 
-0.1124749294752585 
0 
0 
0.01197594040691547 
0 
-0.05941509151033212 
0 
0 
0.1044765171464494 
-0.0004869567058665585 
0 
0 
-4.001387749073528e-05 
0.05776135202075875 
0 
0 
-0.03700482016591561 
0 
0 
0 
-0.02815171652996785 
-0.3136007040376882 
0 
0 
-0.0349847299033624 
0 
0.009554222651146253 
-0.0832679385235302 
0 
0 
0 
0.2454048674248551 
0 
0 
-0.0001145419922199575 
-0.03665941765663074 
-0.07553398802341206 
-0.1044765171464494 
0 
0 
0 
0 
0 
0.1182315010133297 
-0.1578361391980507 
0.3687976681382706 
0.4279848950594962 
0.09543007487078876 
0 
0.09725366262130916 
0 
0.09566223301670143 
0.02877919247162213 
0 
0.3709573393742913 
0 
0 
0 
0 
0.1055561441107098 
0 
0 
0.02372675399636905 
0 
-0.1044765171464494 
-0.1252137529644956 
-0.02546054663364541 
0.4254983359153045 
0 
0 
0 
0.2478394537826981 
0 
-0.008862850511742845 
-0.6571927914492321 
0 
0 
0.03999649359039064 
0 
0.04946088223910534 
0 
0 
0 
0.0005196356789959333 
0 
0.1872279152897973 
-0.01467253049636583 
0 
-0.0001661908894445726 
0 
-0.3074021925820815 
0 
5.054116246901912e-05 
-0.3897703105971835 
0.1201990578235653 
0.2393103598350133 
0 
-2.457680011365573e-05 
0 
-0.04676598676574459 
0 
-0.0467490459640799 
0 
-0.09850747424645685 
-0.07844867863453373 
0 
-0.2580708463721342 
-3.82313026079617e-05 
0 
0 
0 
-0.06957395240869993 
-0.005688367046157796 
-0.03866061454420813 
0 
0 
0.2143336789277356 
0 
0 
8.324878535683698e-05 
0 
-0.0004741636526707955 
0 
-0.0998900554879141 
-0.110951181960064 
0.1112931742520216 
0 
0 
-0.02459394404946906 
-0.009204062006334349 
-0.1044765171464494 
0.1245657136345181 
0.1141798899305406 
0 
0.3359905118411563 
-0.0003926949756077518 
-0.09760672154221771 
0.1404467105212392 
0 
0 
0 
-0.2766600578711264 
0.04384893735451648 
0.0758579614487308 
-0.02914753018801921 
0 
0 
0 
0 
0 
0 
0.1600135842394583 
0 
0.004392946777819713 
0 
-0.08897657084032691 
-5.442244348459252e-05 
0.08041063752880347 
0 
0.07156851155334759 
0.0460925667199631 
0.03072571260038981 
-0.1248084105462935 
0 
0 
0 
-0.2147472436587996 
0.04089959375017592 
0 
0 
-0.0631642497098297 
-0.01877274560836779 
0 
0.124225800194703 
0 
0 
-0.1493022649694057 
0 
0 
-0.08504796355440261 
-0.1528295015278305 
0.06912500522646987 
-0.1044765171464494 
0 
0.04194746174346755 
-0.08648845253053261 
-0.04584856114985389 
0 
0 
-0.06403839718789867 
0.004399120838782953 
0 
-0.1720356200586902 
0.2164192687836031 
-0.6328628263927339 
0 
-0.0887180586218636 
0 
0.1059017893408028 
0 
0.2121824753700474 
0.1025199168251134 
-0.1147713635530576 
0 
0 
-0.0002700442389059509 
0 
0.1044765171464494 
0 
0 
-2.524708774101134e-05 
0 
-0.01196763908908274 
-0.0003083193345178831 
0 
0 
0.04722282217747772 
-0.04726922925715869 
0 
0 
0 
-0.08708576329922935 
-0.2847558327320389 
0.01396675650033586 
0 
0 
0 
7.607665170988534e-05 
0 
0.0007599876828121577 
0.07974924829362418 
0 
0 
0.02093593532439228 
0 
0 
-0.04748278104803807 
0.04250702010730545 
-0.1924453491938504 
0 
0 
0.0001615040950437488 
-0.002957404819297864 
0 
0 
0 
0 
-0.3222016624666237 
0 
0.06259287249093307 
0.05252498805856116 
-0.0001609224882811343 
0 
-0.3573005570619861 
0 
0 
0.01773094418871839 
0 
-0.02266170549118174 
0 
0 
0 
-1.020506936007439e-05 
-0.1007435112407651 
0 
0 
-0.1099708076678517 
0 
0 
0.00911984094338074 
0 
0 
0 
0 
-0.06994658903275477 
0 
0 
0 
0 
0 
-0.1776771709652099 
-0.2603181345812534 
-0.04260244740107488 
0 
0 
0.0518402925455335 
0 
-0.257561180720757 
0 
0 
0 
-0.0653618706453513 
0.2543072673810701 
0.1352799852233463 
-0.1071045246382934 
0.02115415080946402 
0 
0 
-0.03639283280541796 
0 
-0.06931398535456509 
-0.02723006272686265 
0 
0 
0 
-0.1930100695016631 
-7.902704601447388e-05 
0 
-0.04881637886739928 
-0.1245291307494826 
-0.02858516710512893 
0 
0.004544274443559268 
-0.0636282925296654 
0 
0 
0 
0 
-0.055281521236295 
0.04670379304428002 
0 
0 
0 
0 
-0.3167015043792402 
0.1823475923267629 
-0.0003489829187392469 
-0.1484281144082107 
0.008934191492145501 
0 
0 
0.2588733666413964 
0 
0.05446931307727954 
0 
0 
0 
-0.242420630418456 
0.08031503414935839 
0 
0.3401477007561974 
0 
0 
-0.3706917438044099 
0.2201727247149686 
-0.421366927061583 
0 
0 
0.01308355661869963 
0 
0.03574603969474886 
0 
0 
-0.002015714335704754 
-0.07573510137329977 
-0.2055170370115274 
0 
-0.02125335944532269 
0 
-0.1999350123680951 
0.01964773051881451 
0 
0 
0 
0.08062071790100934 
0 
-0.05283726286683588 
0 
0 
0.2385612886675166 
0 
-0.07857666972989188 
0.04753025626270355 
0.185670193881786 
0 
0 
0 
0 
-0.105979394593628 
0.2855882132548586 
0 
0.007453071605527077 
0.04824210741476923 
0 
0 
0.04209665681418 
0.1645723928771872 
0 
0 
0.1744535484415628 
-0.09498900305449658 
0 
0.009504430422209189 
0 
0.0385538285001462 
0 
0 
0 
0 
0.09289301791914521 
0 
0.04258281497776037 
0.137362399367501 
0.06222274433287938 
0 
-0.1347289007122147 
0 
0.1106541818680138 
-0.06424041886163115 
-0.1495187320120195 
0 
0.1186139184021751 
0 
-0.07939156924627942 
0 
0.2131909280208536 
0.302317156197365 
0 
0 
0 
-0.1102984993463287 
0 
0 
0.5277217197524696 
0 
-0.05261886100954007 
0.03730949678723715 
-0.1912695758332463 
0 
0 
-0.1375828437566989 
0 
-0.1703777091685896 
-0.0005868379497841331 
0.1497443193026134 
-0.05859959200188737 
0 
-0.05815689959209961 
0 
0 
0 
0.0223044998700613 
0 
0 
0 
0 
0 
0 
0.2116190159549412 
0 
0.1100641307774448 
-0.00396534433134808 
-0.0002000690182568515 
0 
0 
-0.07919891287255143 
0 
0 
2.043324085439414e-05 
-0.3383224377116597 
0.02233475816584269 
0.2484745190408769 
0 
0 
0 
0.2250277184058346 
0.2624933746997347 
0 
0.1240130087157034 
0 
0 
0.1343855481809554 
0.08503166790342268 
0 
-0.1075223187588557 
0.05244415809126804 
-0.07031755366586512 
0.0006452362636214411 
0 
-0.3655137185508873 
0.07113214673553794 
-0.08249123654769322 
0 
0 
0.0001729127312315808 
0 
0 
-0.04257313700522131 
-4.80019296472141e-05 
-0.1918772196018309 
0 
-0.1462328078798345 
0 
-0.1408695531908669 
0 
-0.0808633265502002 
-0.2088193970757958 
-0.2112931969121591 
0 
0 
-0.1543127246487528 
-0.1321323459619504 
0.03569971920534431 
0 
0.1202015420521618 
0 
0 
8.010282959925352e-05 
-0.1467790140703509 
-0.05253595980306494 
0 
0 
0.2031205434067704 
-0.032581071050876 
0.0001642245709737672 
0 
0.0001537140845540887 
-0.2274079770546944 
-7.031608718438385e-05 
0.0753703476063442 
0.0706015987607347 
-0.001544864910857639 
0.01316804318523939 
0.0001545839556615242 
0 
0 
0.157146268168779 
0.4037272609757135 
0 
7.102641850764647e-05 
-0.03554140331767428 
0 
0 
0 
0.380755789493598 
0 
0.2569477700827489 
0 
0.0008693475015156089 
-0.07055895862780871 
0 
0 
-0.7164787637155761 
0 
-0.02043271655327701 
-0.1693821969403536 
0 
0 
0 
0.09917495692035205 
-0.0001426112985612048 
0 
0 
0 
-0.1323294182144288 
0 
0 
0 
-0.3171224237790575 
-0.205847057040842 
0 
-0.06401986953054056 
0 
0 
0 
0 
-0.10844545983617 
0.09514822833933644 
0.02941169015651391 
0 
0 
-0.04457032623944689 
9.461462622788175e-05 
0 
0.07933120966550582 
0 
0 
0.06565758415443895 
0 
-0.1781152946620966 
0 
0.2152841772013163 
0 
-0.2616843911595246 
-0.0717784231096284 
0 
0 
0.311010107298029 
-0.2335733439516945 
0 
-0.2858468079363751 
-0.03546672924080228 
0 
0.02981880322865316 
-0.02844690671262367 
-0.0831928676819233 
0 
-0.000250594306902534 
0 
0.08883027012423893 
0.01825763146914302 
0.02599130757808408 
-0.07199233470939005 
0.248000825307427 
0 
0 
-0.1632302557371504 
-0.3525792880266405 
0.0212005671624639 
0 
0 
0 
-0.07355585520443295 
0.106420780058244 
0.1130362435802185 
-0.02339471951280793 
0 
0 
0 
0.08071225200284474 
-0.3379137592407656 
0 
0.07382793287122136 
0.0857050348446898 
-0.1175945856868758 
-0.2962132199161411 
0 
-0.04708617659298518 
0.07156828512873964 
0.1588480125118698 
-0.02568884434700092 
-0.146009414048846 
0.2606521653848305 
0.114420145478893 
-0.1125534541958022 
-0.08868392502048397 
0 
0 
0 
-0.05747535860355873 
0 
0 
-0.2147365788674444 
0.09751479983691053 
-0.02884503533354135 
0 
0 
0 
0 
0 
0 
0 
0 
0.09798522250987174 
-0.04493933626826253 
0.04114613556456165 
0 
0 
0.03646091591649917 
0.09385917370988503 
-0.06109659701933184 
0.04755388692036624 
0 
0 
0.1626226786619029 
0 
0.07055140520888765 
0.1022035525146936 
-0.09267352716979582 
0 
0.0260892404936451 
0 
0 
0 
0 
-0.2988366372808139 
-0.04233976953183166 
-0.05932064635502468 
0 
0 
0 
0 
0 
0 
0.1176937441864993 
-0.06878881605281675 
-0.05857832431103607 
0 
0 
-0.07688214505770498 
0 
-0.1194742972025947 
0.1320990658199843 
-0.1066236757193966 
-0.06924082712985141 
0 
0 
0 
-0.3474582874122352 
-0.0570224802648643 
0 
0.3569415026338604 
-0.0001783523489918374 
0.1742245510242177 
-0.06230806585264118 
0 
0.03919171205819084 
0.09073741883409461 
0 
0 
0 
-0.2698120963481118 
0.1063193594262951 
-0.2131335216188238 
0 
-0.04076790814224247 
0 
-0.08851367605479527 
0 
0 
0 
0 
0 
0 
0.06756511679525407 
0 
0 
-0.003825908263597361 
0 
0.0001591270443842536 
0 
-0.01710619658992628 
0 
0.03061870577872309 
0 
0 
-0.1907106770333049 
0 
0 
-0.1202808900551255 
-0.0963190873588104 
0 
0 
0 
-0.07454155461992468 
0 
-0.0001410511809328553 
0 
0.4056140706473915 
-0.09250096357567282 
0 
0 
-0.07602099263035368 
0.09683924519923104 
0 
0 
0 
0 
-0.07227251024189467 
-0.04506824921306483 
0 
-0.3110225732710528 
-0.3573972070137882 
0 
0.1622996896248348 
0.1044765171464494 
0.1740670553326361 
-0.09118242706177981 
0 
0 
0.1044765171464494 
0 
0 
0.1633938410546558 
0 
0.1592208836687903 
0.1453918729858023 
0.06968982133743365 
0 
0.07494739526417099 
-0.1043245832246693 
0.1654239483861389 
-0.01044063190649317 
0 
-0.1170546903838723 
0.1231604359355182 
0 
0 
1.453750409595678e-05 
-0.1478445160159074 
0 
-0.01802388505697615 
0 
0 
-0.03419344156365111 
0 
-0.07621163181502072 
0.05291617060338198 
-0.03025411985948855 
-0.4194961958821191 
0 
0 
0.119221664811749 
0 
0.474200169024141 
0.1205898958713902 
0.09026587929775687 
0 
-0.1044733504322241 
0 
0.2515987413531174 
-0.01549190167053311 
0 
0 
0 
-0.1175977058681526 
0.008630109012476819 
0 
0 
-0.04563130828310921 
0.05878974922619336 
0.003090559122489633 
-0.05248781614011057 
0 
-0.1023823023185315 
-0.1070256890882936 
0 
0 
0 
-0.0003518893036164974 
-0.03924070955447634 
0.1439609003756693 
-0.05536769527840484 
0 
0.1660161638301442 
0 
0 
-0.1480130128263035 
0.1088289605939115 
0 
-0.1618142432170548 
0.2813416043844558 
-0.1401908100284092 
0 
0 
0 
0.1825558691046452 
0 
0 
-0.06381877891360886 
0.01393509716202502 
0.02387978105863905 
0.04724676401984797 
-0.004658710772414452 
-0.0930347224095293 
0.06109646792379837 
-0.3011315828459607 
0 
0.06112378153998856 
0 
0 
-0.1321323459619504 
0 
-0.1045415864234377 
0 
0 
0 
0.3293223448131955 
0.0006513732998750937 
-0.04254493175123542 
0 
0 
-0.1007011435277023 
-0.1371772763010339 
-0.09410070111363122 
0.08892838472895849 
0.06496823813900607 
0 
0.1215108189247547 
-0.1568432053022113 
-0.000421044089717226 
0 
0 
0 
-0.1264910306685864 
-0.1030512449520959 
-0.07347174787708456 
0.1449458480016935 
-0.05047802388201467 
0.1587063567122263 
0.05385090739453184 
0.08294869023324805 
0.1044765171464494 
0.1044765171464494 
0 
0 
0 
0 
0 
0 
0 
-0.03640354341377118 
0.04419639038133214 
0 
-0.1532227074727326 
0 
-0.1004452544291913 
0 
0 
0 
-0.1044765171464494 
0 
0 
-0.09821700500716457 
-0.04668718178013279 
0.01958128152793795 
0 
-0.1420743115632746 
0.3921783312172507 
0 
0 
-0.05389745197502552 
0 
0.003881047549777913 
0 
0 
0 
-0.05673345657408596 
0 
0 
0 
0.01603635225259643 
0 
0 
-0.02100572015543132 
0 
0.5751156549134173 
-0.1940755120737451 
0 
0.08878501336407613 
-0.0773607870510985 
-0.1213244063310284 
0 
0 
-0.06891448967612784 
0.1370579290879123 
-0.1483248600835854 
0 
0 
0 
0 
-0.04731920614603119 
-0.01774892660210517 
0.4039249048448558 
0 
0.05362833207327622 
0 
0 
0 
-0.08088931056954893 
0 
-0.0972585774599358 
0.1061805244096768 
0 
-0.1330612349754909 
-8.902361840053865e-05 
0 
0 
-0.0005947469601411143 
0.0996422299203949 
-0.03358298784959553 
0 
0 
-0.08849176378179957 
0 
0 
-0.1030512449520959 
0 
-0.1005268826485373 
0.05200361241105525 
-0.0926637650253888 
-5.886574966023104e-05 
0.02531728944546737 
-0.03901757344297523 
0.0001430368960445067 
0.1229815891112625 
0.06267875237059573 
0 
0.0867791905089621 
0 
0 
0.0002557490525762649 
0 
0 
-0.01087239067305541 
0.04727115880304402 
-0.06860332436827286 
0 
0 
0 
-0.1515099271128794 
0 
0 
-0.1200217783457624 
0 
0 
0.07870740632004569 
-3.797912254742162e-05 
-0.05747165269437843 
-0.05999357358215714 
0 
-0.05441557689711053 
-0.001100672139965221 
-0.5773532126981213 
0.03442380598366808 
0 
-0.07879158709915787 
0 
-0.09200852889785223 
0 
0.1328206505522552 
0 
-0.1641082476550383 
0 
0 
0 
0 
-0.05901929791866817 
0.09623761495548586 
0 
0 
-0.1567493406741809 
0 
-0.09909232013534805 
-0.09069051293785785 
0.2635957226486491 
-0.0630711195099698 
-0.09783088796825823 
-0.1943197491803114 
0 
0.08523516133201278 
0 
0 
0.1170459621776659 
0 
-0.006431040456819527 
0 
-0.2290708194811041 
0 
0 
-0.07911136802817964 
0.1509338912036644 
0 
0 
-0.05571813128498633 
0 
-0.0683402448308377 
-0.3064263408792833 
-0.1405729204532657 
0 
0.1447815903947158 
0.05918977246304698 
-0.2823172924737593 
0.0004615073409106815 
-0.07291220435853044 
0.1593056134312077 
-0.05678899460037278 
-0.09111925544546076 
0 
-0.06016893053137277 
0.1044765171464494 
-0.002022681159537689 
0 
0.05077265662317485 
0.3039465486318764 
-0.01042724256740593 
-8.834885164219267e-05 
0.05416250692021696 
0 
-0.002015714335704754 
-0.2364699891579086 
0.0001165708323869337 
-0.1399755216820051 
0.1759117387125781 
0 
-0.01645454809209084 
0 
0.07945000697021644 
0 
0.01726264489216005 
0 
0 
0 
0.07399293097646832 
0 
0 
0 
0 
0 
-1.090605009789364e-06 
0.0923100202446907 
0.06204225418098674 
-0.04652355561051098 
0 
0 
-0.09358368543653353 
0.0002404006310096395 
0 
0 
-0.05362921576821962 
0.0002178238031189279 
0 
0 
-0.03093514158662981 
-0.3921274219990017 
-0.2745738274146724 
0 
-0.009178490244628046 
0.0003247217302764604 
0 
-0.464825924844111 
-0.1348657992588362 
-0.008170025431865192 
0 
0 
0 
-0.3455254020219469 
0 
0 
0.01817046770054911 
0 
-0.0003555796259535997 
-0.02668269892271545 
0.09111335738729784 
-0.1813266470584529 
0 
0.0688636030432114 
-0.03150255646565077 
-0.156663668377018 
0 
0.0001640232244833131 
0 
0 
0 
0.002664018602698559 
-0.0008346287901081738 
0 
0.1564830189900986 
0.09932004762586022 
0 
0 
0 
-6.300609606188251e-05 
0 
-0.06222771845522126 
0.3084586304876107 
0 
0.1279090972007414 
0.06686227657420965 
-0.310703930486794 
-0.003210307456403651 
0 
-0.05661065001685202 
0 
0 
0.04548139746418049 
0 
0 
0 
0.02885826261347729 
-0.07590845727483385 
-0.415495874786871 
1.015458107478767e-05 
-0.0002546132174935849 
0 
0 
0 
0.1244343745641754 
0 
0 
0 
0 
0.0803285018879183 
0 
0 
0 
0.0001914729461396031 
0.06527047550526344 
0 
0 
-0.62202863025948 
0.09788178761425993 
-0.04156151431363615 
-0.03802859212336522 
-0.06361660182425428 
0 
0.03037294477581179 
0.04944244389506579 
-0.0767020170818859 
6.522991791696497e-05 
-0.06167852258892124 
-0.1008040424428585 
-0.05353672164172225 
0.1044765171464494 
0 
0.5271624282512244 
0.07191466077757042 
-0.1058508729035226 
0 
0 
0.08081963098615845 
-3.571749903779481e-05 
-0.1551021268983668 
0 
0 
-0.1418058556042109 
0 
0 
0 
-0.04619116402580729 
0 
0 
-0.2030513230501485 
0 
0 
-0.05170096211318607 
0.1931690225632355 
0.08101491788781759 
0 
0 
-0.02384455201383519 
0 
0.08938322787651537 
0 
0 
0 
0.002275034121865294 
0 
0 
0 
0 
0.04172563277279299 
0 
-0.1782201257611396 
-0.0001326236045803256 
0 
0 
0 
-1.443733701580999e-05 
0 
0 
-0.07158562563819529 
-0.03901757344297523 
0 
0 
0.1194649677363894 
0 
-0.1044765171464494 
0 
-1.895249555971181e-05 
-0.105186154664367 
0 
0 
0.09288973177582222 
-4.308489967209413e-05 
0 
0 
0 
0 
0.0001457239694031753 
0 
-0.06393554324048241 
0.1152782525622126 
-0.04385579204248639 
0.02188580337535569 
0 
0 
0 
0 
0.0727208258524925 
-0.1664014637514507 
0 
0 
-0.0007170388724515643 
0.1426365471444483 
0.07414227893755455 
0 
0 
0 
0.0007164002191786967 
0.09829532995641656 
-0.1317461054335349 
0 
0 
-0.00192936775743498 
0.07585536593461467 
-0.08527044729999687 
0 
0 
-0.05445317274067328 
0.1077182158938007 
-0.07704183040622142 
0.0004121263117194628 
-0.09037140235060385 
0.1116002478537177 
0.1044765171464494 
0.3097787054693293 
0.06121637396111573 
0 
-0.1136854083380499 
0 
-0.1331975959274166 
0 
0.143838118912727 
0.05555260938826007 
-0.1044765171464494 
-0.07424405552182953 
0 
0.1801876907238166 
-0.002970242441920038 
0 
-0.04613432300757142 
0 
-0.1733937781607721 
-0.1044765171464494 
0 
0.05381886045408393 
-0.1246125078346541 
0 
0.07519552080161274 
-0.2213534780433515 
0.1531035505026023 
0 
0 
-0.009793612184284256 
-0.03510361232403749 
0.01779435571123036 
0.1224529889305255 
0 
0 
0 
-0.01816847936042104 
0.1252904290278776 
0 
0 
-0.07159192937673126 
0.4340910880707873 
-0.001339376646033731 
0 
0.2308395056463239 
-0.1766187762220024 
0 
-0.09948026064437307 
8.705438515593762e-05 
-0.07794099647533979 
0 
-0.004368900212015935 
0 
0 
0 
0 
0.07990187580222721 
0 
0 
0.03197923609477464 
0 
0 
0 
0.05385090739453184 
0.4131492256300121 
-0.0001357685649364956 
0 
-0.03160633845175261 
0.2039606735600049 
0 
0 
0 
-0.1837097409019012 
-0.0001718385971714505 
-0.5577407498305004 
-0.1945230772297479 
-0.0827499983868268 
0 
0.03646624388998256 
0 
0 
0 
0 
0 
0 
-0.1026671139332651 
-0.05288893777823984 
-0.06499576738438985 
0 
0 
0 
0 
0.06063040686103528 
0 
0 
-0.0930347224095293 
0 
0 
0 
-0.1646511052978676 
0 
-0.1120222561848662 
0 
0 
0.05678092956790634 
0.1819197006690625 
-0.06381399726861745 
0 
0 
-0.2238372367457523 
0 
7.930890886820134e-07 
0.111281064648602 
0 
0.1242096711093194 
-0.06634960757794617 
0.1459066341283727 
0 
-0.1157488955621008 
0 
0.1760576826974841 
0.1126313214700179 
-0.08630604188145664 
0 
-0.333291798452737 
-0.01766348166152257 
0 
0.1630333999364545 
0.1295140627454378 
0 
0 
-0.05188127505442786 
0 
0 
-0.0002946209427034325 
0 
0 
0.07851474537208246 
3.444491330774647e-05 
0.04614030810163731 
0 
0.145699669525578 
0 
0 
0.07021770003148156 
0.0003226160969539657 
0 
-1.845043332160004e-05 
-0.07900214717307372 
-0.02123931888886925 
0.004388138359952568 
0.07191466077757042 
0.0002031110606880231 
0.03496145558541315 
0 
0 
0 
0.2700986613845922 
0.1076338132433121 
0 
0 
0 
0 
0 
-0.04118528257297864 
0 
0.04713313035405196 
0.06150265107819297 
0 
0.1871330430889417 
0 
0.3422155571478743 
0.3969225805426374 
0 
0 
0 
0.1337526850322555 
0 
0.1996524699958848 
0.01780890790607857 
0 
-0.07090083585857021 
0 
-0.1486719843568471 
-0.002522305044884141 
0 
2.20992841768358e-05 
0 
0 
0 
0.05709769919650134 
-0.07777490087087603 
0.1092523294307025 
0 
0 
-0.2465434740425723 
0 
0 
0.0597087369590043 
0.1420944011271127 
0.02016283880997962 
0 
-0.0007437473740161925 
0 
0 
0 
-0.05147223320052102 
0 
0 
0 
0 
0 
0 
0.09171291104985527 
-0.1401544844694607 
-0.09697439573322515 
-0.3417647734556105 
0 
0 
0 
0 
0.2942534204841885 
0.2688834334220409 
-0.07560933461945321 
-0.04291371674548641 
-0.1044765171464494 
0 
-0.1851845628723701 
0 
-0.08018853868423567 
0 
-0.14437601572855 
0 
0 
0 
0 
-0.1513719298795094 
-0.08372969483497494 
-0.3216752122791366 
0 
-0.08486266564535452 
-0.03561284154680338 
-0.08334859911754643 
-0.05939342523076383 
0 
0.2162111854962215 
-0.395026234564597 
0.01460732252206575 
-0.1925805003738583 
0 
0 
-0.1881026320615369 
0.04753025626270355 
0.09317576037177229 
0 
0 
0 
0.0001752080925765407 
0 
0 
0 
0 
0 
0 
-0.01076629345151245 
0 
0.02430642990215811 
-0.09725366262130916 
0 
0 
0 
-0.3000887547313463 
0 
-0.1328488537622279 
0 
0 
0 
0 
0 
0 
0.02771664428952248 
0 
0 
0.04791760225934878 
0.1340357941159682 
0.1508913764574275 
0 
0.06337358131102232 
-0.03355513494572239 
-0.1279500855849524 
0.3765909002456918 
0 
0 
0.0344085687705742 
0 
0 
0 
-0.0235411414465061 
0.09725366262130916 
-0.05259046519323846 
0 
0 
0 
0 
0 
0.06397219761679075 
0 
0 
-0.1457317349760993 
0 
0 
0.09242698438776259 
0 
0 
0 
-0.1082936660706213 
-0.01866661268049986 
0.09231547770351745 
-0.3559838406536115 
0 
0 
0 
0.1022707599320729 
-0.5623988034185031 
-0.1625314779641382 
0 
0 
0.02876590264889052 
0.09146168625747778 
0 
0 
-0.01122772345222944 
0 
0 
-0.001194249049275994 
0 
0 
-0.01026684505175161 
0 
-0.01789208875164494 
0.04232918655443474 
0 
0 
0 
-0.02860002703878011 
-0.0005072579993497094 
-0.1111260160564305 
-0.09750712506767424 
0 
0.08169304546164817 
0 
0.1316874544378352 
-0.1586030210884548 
0 
-0.07928902983257838 
0 
-0.006193804067299763 
-0.1882451569251712 
-0.09708495024680369 
-0.1509959933932479 
0.1162575082350172 
0.07331486264869537 
0.03398196453128746 
0 
0 
0 
0 
0.2268011097056353 
0 
0 
0 
-0.3672486807245978 
0 
-0.09661893926965016 
0.09352004020097479 
-0.7034660647669495 
0 
0 
0 
0 
0.3252531724699017 
-0.1496431293302026 
-0.1107161928844211 
-0.05822992876654238 
-0.09433146553401846 
0 
-0.1044765171464494 
0.1297095289430514 
0.09207030869777977 
0.07829423296398247 
0 
0 
0 
0.01737514686571552 
0 
-0.09094575979978931 
-0.1171101258068929 
-0.01697735726750817 
0 
0.02545915853075299 
-0.1851919053402925 
0 
-0.1003081257318355 
0.0737703967865317 
0 
-0.02497314127793276 
0 
0 
0 
-0.0669026510860383 
0 
-0.1067527916524997 
0.1610416060689226 
-0.07468527554404336 
0 
0.02970742667481652 
-0.1044765171464494 
0.000104966411724819 
-0.3033587719081087 
0.1728761529584399 
-0.1232693755228197 
-0.03528101417189938 
0 
0.08039277276697482 
0 
0.03752870228678505 
0 
-0.1082402294123009 
0 
0.004624151373583478 
0 
0 
-0.02788783997474783 
0.03178796629692637 
0 
0.05178008191365906 
-0.0597383777479378 
-0.09203374629845922 
0 
0 
0 
-0.05172412174702234 
0 
0 
0 
0 
-0.0001982256279653464 
0.1044765171464494 
0 
0.03154551061595009 
-0.2944768699211789 
0 
0 
0 
0.1727151059759511 
0.08432855661221436 
0.07937112765351566 
0 
0 
0 
-3.554522664127094e-05 
0 
0 
0.04591519079145789 
0 
0 
0 
3.905572667375669e-06 
-0.0398416362418433 
0 
0 
-0.0002130728387232494 
-0.1935502865006515 
-0.7623156733318458 
0 
-0.1160777764910753 
0 
-0.09677185887629264 
-0.1322789312814452 
0 
-0.04413054100766096 
0 
-0.1605295962174885 
0 
0.1068187339859767 
0 
0.05229221249022187 
0 
-0.06749449938790718 
0 
0 
-0.09260730613537931 
-0.09212485313442784 
0.008705273201243691 
-0.1281876501527078 
-0.04312174350998528 
0 
0.2851413611557451 
-0.04461022031036546 
0.4609829280956195 
0 
-0.5498688747479459 
0 
0 
-0.07286002956000097 
0 
0.04258281497776037 
-0.1099436147646021 
0 
0.06754839714155646 
0 
0.5093719675896244 
0 
-0.2149061274295125 
0 
0 
-0.173343214201708 
-3.824003775787242e-05 
-0.1872022538307117 
0.1470094676074696 
0.2456139776327262 
3.582775290456958e-05 
0 
0 
0.0980025398634633 
0 
0 
0.09031788098994417 
-0.006972131434449039 
0.01188480312870347 
0 
0 
0.0004886830414752874 
0 
0 
0.197388232666822 
0 
0 
0.204879534755661 
-0.116721822909439 
0 
-0.168249738203177 
-0.07419332058479632 
0 
-0.1119136138924454 
0 
0.09306012485658038 
0 
0.04374093552263312 
0 
0 
0 
-2.829303146082026e-05 
0 
-0.2430558061581136 
0.08188895074604408 
0 
0.02616236157737816 
0 
0 
0 
0 
0.1186919943763857 
0 
-0.1750742935170862 
0 
0 
0.02116585563190558 
-0.0181998920983106 
0.1416217747910308 
0.007097891180365697 
0 
0.1464650722161884 
-0.08234323487357836 
0 
0 
-0.02185680474359004 
-0.2851122059004451 
0.1044765171464494 
0.06372223532811318 
0 
0 
0 
0.07885358023059728 
0.008341129123469702 
0.0003952950846307147 
0.0001249006640975848 
-0.153154487179759 
0 
-0.0157667088544711 
0.09273018963199334 
0 
-0.05074508314354587 
-0.2706594346310039 
0.1945073252426183 
-0.1565352228829952 
0.1322131143841826 
0.1386534099912499 
0.1263736970582331 
0.04962454779381995 
0 
0 
0 
0.173592052871314 
0 
-0.06401980475619111 
0 
0 
-0.1002875220665901 
-0.000284998456454146 
-0.1012594191293 
-0.07371763088673633 
-0.2058561758797348 
-0.2043278439764711 
0 
0.1259653370838203 
0.200521755416789 
-0.0843060266938805 
0 
-0.2329898459629148 
0.1044765171464494 
0 
0.002007927655734318 
-0.1352201990057221 
0 
-0.03489457518169292 
0 
0 
0 
-0.2638697322424254 
0 
0 
0 
-0.0007103620352988788 
-0.03647092870028852 
0 
0 
0 
-0.1118177469443238 
0 
0 
0 
0 
-0.02060575079687258 
0 
0.1413789072497337 
0.07101156699454908 
0 
0 
0 
0 
0 
0 
7.808499382900576e-05 
0.02302728726103139 
0 
0 
0 
-0.074012014170838 
0 
0.04243159570833565 
0 
-0.2580604541512465 
-0.04036346827166243 
0 
-0.1372002468294373 
0 
-0.1844190820273288 
0 
-0.0133941187121299 
0 
-0.02832070516634614 
0 
0 
0 
0 
0 
0 
0 
0.4775106298968496 
-0.0265913870215912 
0 
0 
-0.05248857423087741 
0.1129229795151286 
0.08551674447247146 
-0.001181097209787096 
0 
0.1197039418423647 
0 
0 
0.0001349835651278356 
0 
0 
0 
-0.02934362348996621 
0 
-0.07515395172370121 
0 
0 
-0.04287142898218352 
-0.2084798021844786 
-0.09320484885038122 
0.06730312746944311 
0 
0.03647197201267354 
0 
0 
-0.001398960395043779 
0.006370716316411311 
0.06503312653910906 
0 
0.08099414503479738 
0.2495816161131143 
-0.03831298193623034 
0 
0.1001812924679375 
0.07646642804659155 
0.1096358604898427 
0.07335121298685318 
0 
0 
0 
0.0749426788503611 
0 
0.1017845859261826 
0 
0 
0.08965624639136295 
0 
0 
0.07182824185056184 
0 
0 
0.1159503400571955 
0.1223623569074799 
-0.005829270881366937 
-0.06722872194204955 
0.09613784882887391 
-0.1001670179552724 
-0.0004187715862547115 
0 
0 
-0.001055514806345934 
0 
-0.0002297101270312969 
0 
-0.5166385863696706 
0 
-0.1195088004558858 
0 
0 
0 
-0.04168420150344608 
-0.09986145895372475 
-0.08437737079322598 
0 
-0.02646942621961624 
0 
-0.1066508222421222 
0.1046481298302247 
0 
0 
0.001836476517843293 
-0.06904828345528405 
-0.0436559437072232 
0.2410852298080059 
0.05727445340442613 
0 
-0.137300980590376 
0 
0 
-0.07990928799567473 
0 
0 
0 
0 
-0.02892241207319689 
0.3144281794387571 
0 
-0.2454603832299631 
0 
0.03728834178117162 
-0.03536489318597773 
0 
0 
0 
0 
0 
0 
-0.002248450569314323 
0.0001106461637808704 
0 
0.07580767908988911 
-0.1436589577927911 
-0.3381878020721474 
-0.1989970860729635 
-0.0005696444979112862 
0.157644982104488 
0 
0 
0.4837106567358259 
0 
-0.06783564905564904 
0 
-0.0781829735573657 
-0.0001978368079835419 
-0.06621543643919145 
0 
0 
0 
0 
-0.1657338705790198 
0 
0.07485784317357853 
-0.0631719520103215 
-0.02589383187247496 
0.0006030169007414411 
-0.0514969733599883 
0 
0 
-0.2193184865214531 
0 
-0.4694908637223162 
-0.08565950273645498 
0 
8.37886555704534e-05 
0 
-0.03270402436548487 
-0.2797787335573299 
0.06157113920827255 
0 
0 
0 
0.05287326446553638 
-0.08796587247242994 
0 
0.0826539552103961 
0 
0.06489456806356091 
0 
0 
0 
0 
0.02737087984924591 
-0.1044765171464494 
0 
0.1166692978677087 
-0.0001155110599009429 
0 
0 
-0.1182083337703739 
-0.08428273019373829 
-0.1148850012545288 
0 
-0.1431005875639633 
0.0629502108535521 
-0.07985718799953194 
-0.0002828488518453946 
0 
0 
8.122764328240853e-05 
0 
-5.723208562677921e-05 
0 
-0.08698309672838955 
0 
-0.05342939160512764 
0 
0.1832987863509027 
0 
0.3662615668299481 
0.01349656457483355 
0 
0.0891812492783719 
0 
0 
0 
-0.05895203212672341 
-0.09132676112795117 
0.0003978051794874728 
0.0589787598202324 
-0.1095398158260837 
0 
6.038119904820772e-06 
-0.1044765171464494 
0 
0 
0 
0 
-0.1470409562554106 
0 
0 
-0.1044765171464494 
0 
0.1655280807591673 
0.1199738228735985 
-0.03297239596116668 
0.07709911290288327 
-0.02982538355543127 
0 
0 
0 
0 
-0.02251405526282733 
0.004400792754169422 
0.1292541407947599 
-0.04602088134316809 
0 
0.03883166671712492 
-0.1611138286514202 
-0.2424466706572954 
0 
0 
-0.0008715312918927574 
0 
0.0880517806562829 
-0.08438357379899368 
0.08263123265002195 
-0.163863821370836 
0 
0 
-0.001220027006260049 
0.2794093326468398 
0.03903954655787817 
0 
0.1255563256425081 
0 
-0.0421037315062505 
-0.1584661634488333 
0 
-0.0932202569509064 
0.01556020900138035 
0.01417303281562517 
0 
0 
0.1044765171464494 
0.08412468858946792 
0.06783480624314864 
0 
0 
-0.03345083561132167 
0.0001075283336998747 
0 
0.08740077670130506 
0.1914399364127462 
0 
0.01578840956387245 
0 
0 
0.06021525432180455 
0 
-0.09058071075501017 
0 
0.03016700482544235 
-0.05055680202503873 
0.08289338091861188 
-0.08978964216943033 
0 
-0.008663419293304008 
0 
-3.192104786462673e-05 
0 
0 
0 
0 
-0.02474451672919871 
0.01317699178911204 
0.1176791347397419 
0 
0 
0 
0.1084656852378842 
0 
0 
0 
0 
-0.2642393656397171 
0 
0.08207028684513278 
-0.1093108043725037 
0 
0 
-0.2290236538868262 
0 
0 
0 
0 
-0.6403148651203552 
0 
0 
0 
-0.05961707454588806 
-0.06844520892268741 
-0.2835764224781561 
0.02838426038711465 
-0.0003130418664752212 
0 
0.000352047943017167 
0 
0 
0.0003212143628243398 
-0.01531320476558706 
0 
0 
0 
0 
0.0001000560225404591 
0.128047538412075 
-0.04607538195203643 
0 
0.1580436883157275 
0.05318801226363641 
0 
0.06274053418314429 
-0.06313528126199558 
0.09217258772854257 
0 
0 
-2.184498362331174e-05 
0 
0 
0 
0 
-0.2481387226762572 
-0.1008611616200306 
0.0001129827140851365 
0.0001109072145291192 
-0.00418795508691016 
0.1038292753731438 
0.2148569626378035 
0 
0 
0 
-0.01415840280227386 
0 
-0.1230648808805212 
0.001243456719530643 
-6.97070362802464e-05 
0 
0.1748419823486553 
-0.06845081024212923 
0.0008684846609357446 
-0.1449418662275854 
-0.1234317360665534 
-0.126466167584514 
7.411208655652045e-05 
-0.5972553278270309 
0.04514801509166981 
-0.2908412415291285 
0 
0.1251030455413041 
0 
0 
2.567141583497265e-06 
-0.0009413346752794255 
0 
-0.052011125497045 
-0.04700760326822774 
-0.1851972478750799 
0 
0 
0 
0 
0 
-0.2428168896599449 
-0.01474710627175019 
-0.1499910960514532 
-0.0594048791342168 
0 
-0.001034667218911366 
0 
0.01769907595514686 
0 
0 
0 
0.06268651150031659 
-0.01995919868686578 
-0.00316685216126944 
-0.144637319285152 
-0.01870503533025722 
0 
0.0009755947487862316 
-0.06322975134967793 
-0.09700579345276056 
0 
0 
-0.1647342078916915 
0 
0 
0 
0 
0 
-0.0145223501144667 
0.09242776021192414 
-0.0004490468101923427 
0.05759017539202638 
0 
-0.02226099593426391 
0.3199703208423842 
-0.1044765171464494 
0.2123599050774792 
0 
-0.06723499800488142 
0.06328296392427069 
-0.004471541736740773 
0 
0.5683328921171964 
-0.1044765171464494 
0.0005183621959245037 
0.03122090051225381 
0 
0.08546309233308746 
-0.01007287276633772 
0 
0 
-0.1321001987141792 
0 
0 
0.03297620717625179 
0 
0 
-0.01103093941990986 
0 
0 
-0.09472439164765023 
-0.5684233194548479 
-0.05710713566339284 
0 
0 
-0.2615822067243468 
0 
-0.2302077869691011 
0 
0.1143502399785944 
0 
0 
0 
0 
0 
0.0001523294523723272 
-0.05033055734314723 
-0.07351402220744895 
-0.1030512449520959 
0.2144551398253281 
0 
0 
0 
0 
-0.03358507689091646 
-0.1675367830651721 
-0.05187778815255267 
-0.01246695430859655 
0 
0.05938100889394641 
0 
0 
0.05078504493801424 
0.09098147632793285 
0 
0.1648964814662901 
0.0002661637600635258 
0.2320158519353789 
-0.03927833052082851 
0 
0 
0 
-0.1364358369276092 
0 
0 
0.2085950220486747 
-0.06539330027814168 
0 
-0.02876644775391491 
0.1203082582486848 
0 
0 
0.08996806367489649 
0.03164707391538817 
-0.3251514232659166 
0 
0.1025496038122833 
-0.01775555132377555 
0 
-0.1067012268383281 
0.0578094030021518 
0 
-0.000330833776594767 
0.07101156699454908 
0 
0.1520324566207225 
-0.1429301722461259 
0 
0.007568402478913082 
0 
-0.1671235026776334 
-0.1792265878990592 
0.1644247180970843 
0 
-0.2018780978173108 
0 
0 
0 
0 
-0.0117084702418081 
-0.06323613523167859 
-0.0974683286354991 
0.0001427998401681511 
0.03846875474609579 
-0.0583342918015413 
0 
-0.3039837566639661 
0 
0.1419130677239896 
0 
0 
0.1105374613689784 
0 
3.760859052543718e-05 
0 
0 
0 
0.05616188957751278 
-0.2820405429129282 
0 
-0.1778614376708981 
0 
-0.05215643294379429 
0 
0.062377169830911 
0 
-7.996267288757182e-05 
-0.232804716926497 
0 
-0.09490475974710824 
-0.000109128860578676 
0.2199975958858237 
0.2434403670062288 
0 
0 
-0.1478423181004235 
-0.09725366262130916 
-0.4286330635672627 
-0.06412543802398234 
0.2807088424919791 
0 
-0.2222454100708106 
-0.1053621352762859 
-0.1147391658416633 
0.01054948478493717 
0 
0 
0 
0.0004162704218615716 
0 
0.04305368556625148 
0 
0 
0 
-0.1046760851560182 
0.1247138634564357 
-0.007440597132230916 
-0.01397604511734165 
0.03197923609477464 
0 
-0.02037487056005122 
0 
0.07705452576142843 
0.09762793314637552 
-0.05743268154189955 
0.0176569309921769 
0 
0 
0.08568136107145795 
-0.01430901905414036 
0 
0 
0 
0.3455226126408186 
0 
0.06887224324286056 
0 
0 
0.1362272190261157 
0 
-0.02792910831687589 
0.08062140885022678 
0 
-0.01626410118733255 
0 
0 
0.008534504070691954 
1.022661500114921e-05 
0.08263332376526369 
-0.03901757344297523 
0.06347254473641151 
0 
0 
0.0308000644265188 
-0.2205916566378806 
0 
-0.03915851300769852 
-0.116058224399161 
0 
0.2493699433164111 
-0.09707356087060737 
0 
0.1317128593613519 
0.1044765171464494 
0.001265034532922179 
-0.06147191620711166 
0 
0 
0 
0.08466565992564452 
-0.1254803778858231 
0.01780927203744163 
-0.2633695131813417 
1.194067603025672e-05 
-0.3342216745739164 
-0.09598635499547863 
0 
0 
0 
0.3266424939486122 
0 
0.1169800270885274 
0 
-0.01050763379217618 
0.168133559179878 
0 
-0.1888007717257211 
0 
0 
-0.1969550746760093 
-0.1242914853400236 
0.07663322702459477 
0 
0 
-0.1851759221518747 
0 
-0.1120005394436274 
-0.09720121867795761 
0 
-0.2843631586458071 
0.1295109015052415 
0 
0 
0.09018835550899597 
0 
0 
0.01161527872309712 
0.02598641358258477 
0 
0 
0 
0 
-0.009801925077581059 
-0.03750222151450915 
0 
0.02398180746414962 
-0.0003838725657583082 
0 
0 
0 
0 
8.735441416214961e-05 
-0.1560350444499435 
0 
0 
-0.07324579118616945 
0 
0 
0 
0 
0.2870056936668284 
0.05372001338385066 
0.0373722865794642 
0.2453853871351919 
-4.400701439852184e-06 
0 
0.000117298230909576 
0 
0.0001551663905293064 
-0.09777479747016629 
-0.2472761554377876 
0.01883186511978872 
0 
0 
-0.0602401873823902 
-0.1531632830445479 
-0.01309562019541977 
0 
0 
0.05925605823566751 
0.2017496623789804 
0.2809699070466251 
0.04580458813321255 
-0.0146151030238574 
0.07915260151974221 
-0.08735794598750246 
-0.04808647939169956 
2.028634714047517e-05 
0 
0.05101138048341467 
-0.6834921250208816 
0 
0 
0.0001381085499011689 
9.085650667863222e-06 
0 
0 
-0.03047932457883025 
0.03063536841420444 
-0.1816589171881971 
0.02561991116240648 
0 
0 
0.08118577273293534 
0 
0.0003420743279176517 
0 
0 
0 
0 
0 
0 
0.1044765171464494 
0.1768556594101234 
-0.07527757795145404 
0 
0.06950563608776467 
-0.09428804971992591 
-0.01570476284607877 
0 
0.03965714160680972 
-0.09553204290041035 
-0.03078501296204609 
-0.0757855094335948 
-0.0372547782720091 
0 
-0.1885235566890989 
-0.2539718218640367 
-8.422126624467669e-05 
0 
0 
0 
0 
-0.5207578785097714 
-0.04744411366803591 
0 
0 
0 
0.04039632966349374 
0.05041840753844509 
0 
0.07504387775897932 
0.05676028268580974 
-0.06724365553566841 
0.07330740362922948 
0.08419121358250256 
0 
0 
0 
0.00678022147988383 
0.09876477678733975 
0 
0.0003020450265729933 
0 
-2.434351452721311e-05 
0 
0.1465022998424712 
0 
-0.0001872162333039609 
0.1254853024399635 
0.06153271866399103 
-0.02246569413672554 
0.2886981185803639 
0.1349749714603123 
0 
0 
0 
0 
0 
-0.1966473089127205 
0 
0.0593988919606158 
0 
0 
0 
0 
-0.09776292717214659 
-0.04010389634387725 
-0.09237797050348381 
0.6688315376859715 
5.534953152007687e-05 
0 
0 
0 
-0.1914563662081256 
0.02664545995484049 
-0.1288392461093564 
-0.0004695817279811894 
-0.1494433028812015 
0 
0.1628812074998063 
0.05941740405767038 
0 
0 
0.07872637068446074 
0 
0 
0 
-0.02990079570267177 
-0.09052842394666498 
0 
0 
0 
-0.06853311824734791 
0 
0.2390434267108068 
0.06614053880819434 
9.340749755266719e-05 
0 
0 
0 
0.000136442868160372 
0 
0.0005841128437395803 
0 
-0.07018678555443189 
0 
0 
-0.01536331283323078 
0.0001426224047575201 
0 
0 
0 
-0.0708948879047783 
0 
0 
0 
0 
-0.3379748429100028 
0 
0 
0.119270768026993 
0 
-0.506561994990773 
-0.03938607560105956 
0 
0.266792116269662 
-0.0990772606254469 
0.2077146874419958 
0 
0.004195609314934765 
0 
0 
0 
0 
0 
0 
-0.05788494133459624 
0.0001430289576617777 
-0.1080778772482136 
0.05563647204205485 
0.6794463058495741 
0 
-0.09046003743928628 
0 
0 
0 
0 
-1.096576050842929e-05 
0 
-0.04289572856670203 
0 
-0.1205240961469421 
-0.1399804080574169 
0 
0.0004855768761325525 
0.1268794627211398 
4.075612374872591e-07 
0.1360293785813305 
0 
0 
0.0001198172831036493 
-0.02682560317943947 
0.02372675399636905 
-0.07903904792058186 
0 
0 
-0.05792636081055808 
-0.1193383948986728 
0.07724681435931624 
0 
0.2181253091073883 
0.5641287817453717 
-0.3103145516335185 
0.1135822898921497 
0 
0 
0 
0 
0 
0 
0 
0.06503827932923051 
0 
-0.1044765171464494 
0 
0 
0.02707982484656439 
0 
-0.02502852242449727 
0 
-0.3208361490064036 
0.1044765171464494 
0.1378119810997337 
0 
0 
0 
-0.2022239082723319 
0 
0 
0.0002884608386116375 
0.03488354729527317 
0 
-0.3715330123153833 
0 
0 
-0.09046788042024603 
0.01904597268183732 
-0.1256633206832133 
0 
-0.0151513999126023 
0.06561556101783336 
0 
-0.1936870099014601 
0 
-0.6179165984190862 
0.04214305721628285 
-0.0269276328280576 
0 
0.1430460704595083 
0 
0 
0.2480298870454938 
0.2103322878978172 
-0.02175479708423543 
0 
0.6549250800118793 
-0.0004916013783657063 
0 
-0.1712536950364915 
-0.01754847361699096 
0 
0.01928248975251978 
-0.1606250499064505 
-0.2650594790462962 
0 
-0.1444641276963978 
0 
0 
0.01985381068091924 
0 
0 
0 
0 
0 
-0.07689894368180927 
0 
-0.04074522924355037 
-0.2561121580827711 
-0.07673991990871605 
8.566769198218866e-05 
0 
0 
-0.1407383537668216 
0.1596199491988489 
-0.04440229912002366 
0.1076906055351075 
0 
-0.03841319811348044 
0 
0 
0 
0 
0.04549008265802114 
0.1527350220775258 
0 
0.03679397152341309 
0 
0.3767503553282135 
0 
0 
0.02959408384463288 
0.009947873556221183 
-0.09229471394328401 
0.6243523269031268 
0 
0 
0.008978921138066726 
0 
0 
-0.0001411514146573159 
-0.06387775728346221 
0.138877916454297 
0 
-0.5093377364641473 
-0.339458969477483 
-0.07683223887475778 
0.2471153390364362 
0 
-0.3671124246850055 
-0.1686762201434994 
-0.1527418208890905 
0 
0 
0 
0 
0 
-0.1005903070072013 
0 
0 
-0.0509631368790933 
-0.1305913426110003 
0 
0 
-0.07409424664947198 
-0.02547262543843344 
-0.09437655812538434 
0 
0.2630645789789168 
0 
0 
0 
0 
0.2537140858410561 
0 
-0.005675964995388829 
0 
-0.00139080239787962 
0 
-0.02308038108392255 
0.1511827776960653 
0 
0 
-0.3016248997173082 
-0.1751218241344461 
-0.0002021393667063804 
0.1185168592456698 
-0.1044765171464494 
0 
0 
0 
0.01534310032938851 
-0.5058196848617482 
-0.105449941328306 
0 
0.2254668343573871 
0.1307094387047827 
0 
0 
0.1620818813159303 
-0.0948163978374907 
-0.1021425493586746 
0.08022790796193557 
0 
0.09868488201855045 
-0.1002735870408243 
0 
-0.106367482963595 
0 
0.4449865808634023 
0 
-0.006822288728356924 
0 
-0.1350018240955578 
0 
0.2423512306284275 
0.4070304757129656 
-0.1567263323930436 
0 
-0.2684600765012284 
-0.09324040113400499 
-0.02308038108392255 
0.03773840071169599 
0 
-0.1246836089412634 
0.2215444953053586 
-0.136642071678702 
-0.1102829933641342 
-0.1800370421443217 
0.06245682503121466 
0 
0.004810689359908798 
0 
0 
-0.2431465250248723 
0 
0 
0.3674221864043166 
0 
0.0302166725034878 
0 
0.07948521401244138 
-0.1069109125473506 
8.819447637518023e-05 
0 
0.1057889391658321 
0 
0.1709421609243646 
0 
-0.004217233693956896 
0.09010813827470943 
0.1538627444478564 
-0.1419271002706155 
-0.5837945855462521 
-0.1531514918331926 
1.831086107537626e-05 
0 
-0.02023736495290522 
0.5696058044854193 
0.05455363272021668 
0 
0.0322843251585088 
0.06408131615152728 
-0.03121694835122271 
0.2473147092396332 
0 
0.0005213303585702694 
0.1154348893667216 
0.1883875383281734 
0 
0.1044765171464494 
0 
0 
0 
0.03061870577872309 
0 
0 
0 
0 
0 
0 
0 
0 
0 
-0.08667169753968 
-0.05790731487199938 
0 
0 
0.02638132687257087 
0 
0 
0 
0 
-0.08641194248052265 
-0.03982498519945416 
0 
0 
0.1825803464712444 
0 
0 
0 
-0.02161880157931525 
0 
0.04557255967979564 
0.06998929810021011 
0 
0 
0 
0.1401817771026269 
-0.03621990624087951 
-0.1674684721970439 
6.657107993156465e-05 
0.07608062161052634 
0 
0 
0 
0 
0.1044765171464494 
-0.07841308857801359 
0 
-0.01852616423241153 
0.1598779588680991 
0 
0 
0 
3.921543043830693e-05 
0 
0 
0 
0 
0 
0 
0 
0 
-0.2321193783663142 
0 
0.009130173963625069 
0 
-0.2719195123059463 
0 
0 
0.0003794118847780729 
1.015458107478767e-05 
-0.108549129696709 
0 
6.507341576865894e-05 
0 
-0.04330877548120249 
0.0001356622754134405 
-0.2925035027130295 
-0.09339897173234687 
0.4013672232069503 
0.1170904062229221 
-0.007943570421816678 
-0.09360443255378961 
0 
0.07233770086649088 
0 
0 
0 
0 
0.0002170641295661383 
0 
-0.1053013141613527 
0.07004584447594532 
-0.0104246979208341 
0.1358846389034388 
-0.05968198182354761 
0 
0.1938472517798728 
0 
0.1390773471147396 
0 
0 
0.1132093360804376 
-2.710910871672081e-05 
0 
0 
0 
0 
0 
-0.09653258916029864 
0.4348702775852664 
0.1796836034627501 
-0.1371521236301122 
0.02296599732003928 
0.1100423434557014 
0 
-0.1000374823625193 
0 
0.008459297587586801 
0 
0 
0.1312199165787554 
-0.2405099481786817 
0.2314799670627611 
-0.0938358625731332 
0 
-0.1904484360140865 
0.00470118429156399 
0 
0 
0 
0.0353005792072022 
0 
-0.172402484957497 
-0.2330607973717336 
0 
0.09995276169177003 
0 
0.08033196219883876 
0 
-0.1022800704028165 
-0.1450609062104383 
-0.3693092316136208 
0 
-0.1740163386049584 
-0.1644278320280119 
0.04269119977437656 
0.0009233721124877713 
0 
0 
0.0847517950154394 
-0.05839082504251315 
0 
0 
0.101739102842278 
0 
0.191898368068825 
0 
0 
-0.5056008573726842 
-0.03754741151147334 
-0.07537461225587247 
0 
-0.2272532088116332 
0 
0 
0.1243861859447462 
0.008814601184601371 
0 
0.1762781488983948 
-0.02739568927268157 
-0.09168588358966701 
0 
0.02506204333302587 
0 
-0.06229060924392309 
-0.2688612543726728 
-9.627858720142403e-05 
0 
0 
0 
-0.3002015080323165 
0.1665160334695059 
0.1849965142832816 
0.003891238057133659 
0 
0.0006882152380064052 
0 
-0.1044765171464494 
0.3562738259137028 
0 
-0.07049287953615813 
0 
0.0001644178109402893 
0 
-0.1287078120815225 
0 
0 
0 
0.07437186549825053 
0 
0 
0 
-0.1404900197193925 
-0.1539826248994919 
-0.07001306801444107 
0.2196559443588099 
0.1223578901691527 
0.06812659393613027 
0.08966190965194648 
0 
0 
-0.1138296810870474 
0.08103365383606123 
-0.2243032129130095 
-0.03901757344297523 
0 
-0.02459394404946906 
0 
0 
0 
0 
0.02714868573719015 
0 
0 
0.06325154990073732 
-2.222280275798935e-05 
0 
0.0384342552127554 
0.0312393313161776 
0.2578367082661086 
0.1232560100870599 
0 
0 
-0.1168176388390336 
0 
-0.06207367983031037 
0.08928211373531229 
0.07613772989076772 
0 
0 
-0.3666667317099602 
-0.1009372531330031 
0 
0 
-0.0585785310157103 
0.04968241605830789 
-0.08618281952690637 
0 
0.1546491742602746 
-0.02793310489617543 
0 
0 
0 
-0.01389769239882385 
-0.05858837539827449 
0 
-0.05408524676989399 
0 
0 
0 
0 
-0.08808587275413718 
0 
-0.3112053559274274 
0 
1.456972258386468e-05 
0 
-0.01923449085039267 
0 
0 
0 
-0.1044765171464494 
0 
0 
-0.2750794229587247 
-0.1014538191882915 
0 
0 
0 
0 
0.01911467811952989 
0 
-0.08840399506956637 
0 
-0.0613555722404713 
0.214936266393608 
0.0771727068637216 
0 
-0.1404761566598022 
0 
-0.03169373215485288 
0 
-0.196339477818212 
0 
0 
0.0001474863110178985 
-0.1099594429342764 
0 
-0.08821918867400101 
-0.1167115662608541 
-0.04325370531050496 
0.1681158391364093 
0 
-0.3557450276155556 
-0.4001339232852041 
-0.08210227368520426 
0 
0 
0 
-0.1044765171464494 
0 
0 
-0.06458093462365107 
0 
-0.006430063410340274 
-0.2295960831239315 
0 
-0.03095402405938965 
-0.0001727562120774753 
0.1044765171464494 
0 
-0.1144379443704381 
0 
-0.1399725511239936 
0 
0.09859997120543917 
0 
-0.001503481391867004 
0 
0.04795679278551256 
0 
-0.09052842394666498 
0 
0 
0.07766715746573094 
0 
0 
-0.0004551065052489384 
0 
0.1219714661035149 
0 
0 
0.111520146114792 
0 
-0.07355304230563227 
-0.05807456897982273 
0.0005374817736656023 
0 
0 
0 
0 
0 
0 
-0.5058249971950928 
0 
0 
-0.001425521425229437 
0 
0 
0 
-0.1622517542540044 
-0.04843143909413031 
-0.06699919313786676 
0.05786622101168871 
0 
0 
0 
-0.01486585016334157 
-0.09634888790205781 
-0.008416902422561573 
0.0007183066057685149 
0.1400258278229942 
-0.05175650855474973 
0 
0 
0 
0.05107074942518947 
-0.4096273548694874 
0 
-0.2158452826977861 
-0.03212371426732408 
-0.1264147866021197 
-0.08736692699400926 
0 
0 
0 
0.2403800378959581 
0 
0 
-0.07792792066964924 
-0.09626153907595242 
0 
0 
-4.287593921698435e-05 
0.1738046004586007 
-0.01625879503578019 
0 
0 
0 
-0.04975932023783775 
-0.1044765171464494 
0.06627012236346025 
0 
0 
0.073044531088308 
0 
0 
0 
0 
-0.01160499020376893 
0.02034557900674602 
0 
0 
0 
-0.04981924529118041 
0 
-0.0548269087178746 
0.2741015075036294 
-0.2611350542458536 
-0.1111949503544031 
-0.1543330194344132 
0.01048480923633341 
-0.06635959557830866 
-0.04321372486241952 
0.05069291802261879 
-3.09621306605165e-05 
0 
0 
0 
0.1044765171464494 
0 
0 
0.05873735099545878 
-0.006064128791824271 
0.1216473413729172 
0.08620374385072506 
0.130290569541656 
-0.1146938321099438 
0 
-0.001519898842632292 
0 
0.0001286426408820562 
0.0001278414381711226 
0 
0.4590343385533708 
0 
0 
0 
-0.08904878034818434 
0 
0 
0 
-0.0596719980391461 
0.1924402741615402 
-0.365034378949505 
0 
0.04737197449727801 
0 
0 
0 
0 
-0.08241166520416807 
0.0001702547680385758 
0 
5.642916226480081e-05 
0.1297622190294623 
-4.837007872621481e-05 
-0.09231367682861795 
-0.03007749065821338 
0.1339065098136234 
0 
-0.1492482827954372 
0 
0.0751646393960245 
-0.002707100953650635 
0.08546599569891108 
0 
-0.08610317290564577 
0 
0 
0 
-0.04819742855600792 
0.09995276169177003 
0 
-0.2077929609759788 
-0.1044765171464494 
0.04332508478692751 
-0.2720543839604997 
0 
0.1225318518383991 
0 
0.08267172416503688 
0 
-0.008674640108275913 
-0.001170901058044639 
0.03933443726586812 
0 
0.06413740800053924 
0 
0 
0 
0 
-0.3791998601409901 
-0.1044765171464494 
-0.1044765171464494 
0.1724660684595035 
-0.09031367318099917 
0.004631072071080191 
0 
0.005656264608667586 
-5.702281413963212e-05 
0 
0.4848461451742672 
0.07513023559952987 
5.813935781501267e-05 
0 
0 
-0.04094764077245359 
-0.08004443282581215 
7.347211407024911e-05 
0 
0.0002601259969230408 
-0.2471502205191639 
0 
0.1439923484063108 
0 
0 
0.07402920929196852 
0 
-0.1860031563305855 
0 
0.1044693231490898 
0.06715910078109152 
0.003380800901162172 
0 
0 
-0.1347056862757857 
0 
0.09725366262130916 
0 
0 
0.05641800729205733 
0 
0.002083137045865203 
0 
-0.1884552865051849 
-0.09899308488853548 
-0.04575279337362455 
0.249056261561833 
0.2556043357029442 
-0.08900330576751225 
0 
0 
0 
0 
-0.0131384203663208 
0.1428135013803549 
0.05954710397480922 
0.1987326022574789 
0.1646236042526645 
0 
0.0006563116832067253 
0 
0 
0 
0 
0 
0 
-0.02166744116083924 
0.09166246411869144 
0.3396194322931955 
0 
-0.2247067641446632 
0 
-2.255705219231199e-05 
0 
0.2370019364029635 
0 
0 
-0.05250050830875053 
-0.3294346301760199 
0.04034722151018585 
0 
0 
-0.4246999338703777 
0 
0.002897805105741357 
0.1177386279559474 
0.0869128171579322 
-0.02854497731192578 
0 
0 
0.2544881993958046 
-0.1163515638239718 
0 
0.1005985490520068 
0 
0.5969477130003075 
0.03213312592275648 
0 
0 
0 
0.07653972519618656 
-0.1214274431147326 
0 
0 
-0.05249906936558924 
-0.05793125864163254 
0 
-0.1055437457051493 
0.1545512314295855 
-0.001368847820033973 
0 
-0.4030414814894022 
-0.2773052220757045 
0 
0 
-0.08128029081505753 
0 
-0.008981422546037955 
0.1387994373635245 
0 
0.4979013924253551 
0 
0 
0.1242110322766838 
0 
0 
0 
0 
0 
-0.1083286979501256 
-0.06697686381985643 
0 
0.1769457537803484 
0 
0 
-0.1388325233147851 
0 
0 
0 
-0.0005842352480705183 
0.09725366262130916 
0 
0 
0 
0 
0 
0 
0 
0.01071750495059492 
0 
0.1187740906662564 
0.002049411332639544 
0 
-0.1212381001658196 
-0.006082209259395776 
-0.1044765171464494 
-0.4265035122788445 
0.1639936629044068 
0.02452037159843737 
0 
-0.03570328353848443 
-0.2058023284445378 
0 
0.0002742965826432863 
0 
-0.2838495124381206 
0.0654938937534959 
0 
-0.02114158451261723 
-0.08541895167481819 
0.0003689846609190642 
0 
-0.1069953611080493 
0.02811920187951771 
0 
0 
0 
-0.08181380377206485 
0.05157410828493248 
-0.001007974409616774 
0.08854698296490718 
-0.04790571777806975 
0 
-0.2783346959060119 
0.1044765171464494 
0 
-0.09640355021235142 
-0.09903301071839503 
0 
0.09502238116368122 
0 
0 
-0.1044765171464494 
-0.01770108848140664 
-0.08792720567374755 
-0.01152944763493184 
0 
0 
-0.1625920710098085 
0 
-0.0008993643807827141 
-0.01239635824908946 
-0.1280052576377609 
0 
0 
0 
0.06434627612477423 
0 
-0.2140858950404442 
0 
0 
0 
0.009596919485738565 
-0.06716007490354781 
-0.06319653340147846 
-0.07493923713414724 
0 
0.1447984400474681 
-0.06175297980136558 
0.04789588580249747 
0 
0.1141374205368687 
-0.01516949032417273 
-0.1047819382009627 
0 
0 
-0.2954781905484893 
0 
0.0595921294720688 
-0.133337530692366 
-0.1970164316166839 
0 
-0.04866875620593687 
0.06294582080568055 
0.07530593716380951 
0.01819730079974469 
0 
-0.04378016661657848 
0.1044765171464494 
0.09846865814240267 
-0.001262139995139921 
0 
-0.1044765171464494 
0.1245017617693524 
0 
0 
0.1044765171464494 
0 
0 
0.1119613507656602 
-0.01477700108286396 
0.04189921449022517 
0.08162915271084061 
0.1409631240749629 
0.1457270621353055 
-0.0008827358664545131 
-0.0124077427794938 
0.07991299776079894 
0 
0.2062333338665179 
-0.0008575644426072355 
0.05680940243535723 
0.198023972130091 
0.05579762916540727 
-0.1647636073564215 
-0.01312139469136735 
0.007022693518623547 
-0.04902196395114959 
-0.0006740402123607075 
0 
0 
0 
0.02521020581101165 
-0.402301204683534 
-0.001032919855982169 
0.0001551995602189231 
0 
0 
0 
0 
0 
-0.02616241866618836 
-0.09802066106427743 
0 
0.1033947864315606 
0 
0.2492928332282818 
0 
0 
-0.0696719687340249 
-0.100165503327078 
0 
-0.1504754949140845 
0 
0.06483373069164235 
-0.04877329101781122 
0 
0 
0 
0 
-0.05386046960718065 
0 
0.07286192715883619 
0 
0 
0 
0.1578266298782256 
0 
0.1270126760504048 
0 
0 
0 
-0.0002828488518453946 
0 
0 
0.1179557195924826 
-0.1890097348418607 
0.1305899346616908 
0.09725366262130916 
0 
-0.1498172773119996 
0 
-0.6319317800976511 
-0.04858841976060117 
-0.02968254518581957 
-0.08404358355658589 
0 
0.05615808359229522 
0.01740913771684535 
-0.0361693653567152 
0 
-0.4204675305350974 
0 
-0.1044765171464494 
0.1820667717790118 
0 
0 
-0.01894795748335269 
0.09682643994479916 
0 
-6.012274539642695e-05 
-0.5659350582627407 
0.06492046418566938 
0 
0 
-0.0002745842435379264 
-0.09041408031333396 
-0.04484421966556922 
0 
0 
-0.231399641294925 
0.1428395017608218 
0 
0 
0 
0 
0 
-0.01606099595316906 
0 
0 
-0.07943542217007279 
0.1053567507744783 
0.03653579352022246 
0 
0 
-0.09197147433056135 
0.122968018740354 
0 
-0.03297651112086373 
0.2825069598780618 
0.1993208450287592 
0 
0.000208181901822182 
-0.06094516843149789 
0 
0 
0 
0 
0 
0 
-0.1342133110217403 
0 
0 
0.1659906501275632 
0.06176788045699221 
-0.00667685279054309 
0 
0 
0 
0.0005010569462241595 
0.07290247589518664 
0.02065396559229105 
0.1969918427148142 
0 
0 
0 
0.2161840813427817 
-0.02882951288909488 
0.09738459950381573 
0.01773897123671504 
0.07440428338294158 
0 
0 
0 
-0.05370607041930524 
0 
0.2524704541089717 
0.1069841462783617 
-0.001444903610695693 
-0.04677448085988295 
-0.1015017079228027 
0.07652772043259301 
0 
0 
0 
0 
-0.08692497784751292 
0 
0 
0 
0.02798122925690883 
0 
0 
-0.1731151358937928 
-0.1279125378641366 
-0.0002038059346644854 
0 
0.04614030810163731 
-0.1402006755581117 
0.1442410923311921 
0.09038656629506593 
-0.3745979808287951 
0 
0 
0.04640168388959479 
0.0223626806896083 
0.08646753329972184 
-0.1184968807026197 
0 
0.1139283746475068 
-0.02574179415089971 
-0.2173021914270827 
3.072333701448096e-05 
0.7513633387511423 
-0.1534691514214343 
-0.09885641301320866 
0.04292300438678844 
0.1570768077448159 
0 
-0.3888192260845678 
0 
-0.05380168374802553 
-0.06401704390542459 
0.04177261948970672 
0.06001795902042856 
0.1087049272686972 
-0.02234190957460915 
0.1044765171464494 
0 
0 
-0.1319736824586021 
0.06231307676679805 
0.05923202013064283 
0.1426264057234353 
0 
-0.0002134026406067292 
-0.005179686309071755 
0 
0 
0.07964702267139974 
-0.2054999031632494 
0 
0.08044672572028438 
0.1255649957350687 
-0.03564367264737971 
0 
0 
-0.09909915007694531 
-0.02825912038901592 
0.04956012048578237 
0 
0 
0 
0.02969053966271331 
0.2306180756420216 
0 
-0.0001755441397935617 
-0.1105174628233897 
0.0001564639794151779 
-0.3030779669887653 
0 
0.1280598255715292 
0.05282013406271714 
0.243864840918633 
0.1044765171464494 
0 
0 
-0.03441130016019116 
0 
0 
-0.01945835051936401 
0.03335954470853646 
-0.05712623276583713 
0.1597270698204801 
-0.05767338482681166 
0.2075962130550613 
0.08353827161618527 
0 
0 
-0.05675264996030619 
0 
0 
0 
-0.09848791224221304 
-0.03545607384930591 
0.1645093414415151 
0 
0.2309038726916583 
0.2812904204891244 
0.7546675258510025 
-0.1044765171464494 
-0.01758783938843746 
0.06235201206803195 
-0.08826925256419016 
0 
0 
0 
-0.1264903644727834 
0.08861278910352724 
0 
0 
0 
0 
0.000758704542914507 
-0.001496291124565962 
-0.02768685072806726 
0 
-0.08761658360043928 
0 
0 
0 
0.06725432744203387 
0 
0 
0 
-0.01889036903344894 
0.0005726602250976697 
0.1331787733060241 
0 
0 
0 
0 
-0.1950480175346475 
0 
-0.07016621783949398 
0 
0.1111896420831551 
-0.008975348647543744 
0 
0 
0.07075751125701912 
-0.0592076670404388 
-0.01136421958219539 
0.144023428142464 
-0.07510133248065079 
-0.313519856877787 
0 
0 
0 
0.1340565899032526 
-0.1919841693383977 
0.1671100125851098 
0.1969324832948239 
0 
0.1896207496850965 
0 
0.04189064294470592 
0 
0 
0 
0.2886753775077537 
-0.119629104520673 
-0.01914972411876545 
0 
0 
-0.1939503980328734 
0 
0 
0 
-0.1123528619765675 
0 
0.007277025160658342 
0 
0 
0 
0.1617832021081789 
-0.07689894368180927 
0.00823863106618189 
0.1623827586880055 
-0.1044765171464494 
0 
0 
0.1895803617314595 
0.06032223937160356 
0 
0 
0 
-9.080341442886024e-05 
-0.0001506838259480041 
-0.04668839856917496 
0 
0 
-0.0702857496755708 
0.1014781257972991 
0 
0.04593654078346038 
-0.2180603200738095 
0 
0 
0 
0 
-0.04093204832038266 
0.2703617666298083 
-0.0442947751090015 
0 
0 
0.003902975496997976 
-0.1198678602062602 
-0.007205954884846764 
2.037437873656601e-05 
0.07903833314286957 
-0.1432465578364301 
0.4762614662268818 
-0.1044765171464494 
-0.1315168247188261 
0 
0.04468243919356732 
-0.1044765171464494 
-0.1022714563952384 
0 
0.0002768198875578748 
0 
0.005710928076598578 
0.05886430085941472 
-0.08736242499993553 
0.05799095728167047 
0.4149030826226419 
0 
0 
0.1445341317146326 
-0.1044765171464494 
-0.1274921914271256 
0 
-0.1687385873203188 
0 
0 
0 
-0.0001210855635850118 
0 
0.04514633325122561 
0 
0.1044765171464494 
0.1044765171464494 
-0.06283514224265001 
0 
-0.09817773747226 
0.1126117798597495 
-0.08445443671059891 
0 
-0.08041510153804178 
0.08962624379778086 
-0.08621809885144363 
0 
0 
0 
0 
0 
0 
-0.1584455113997554 
-0.1044765171464494 
0 
3.440867927364727e-05 
0.01119397022294387 
0.000148700835659753 
6.973959201659664e-05 
0.147547003067722 
0 
0 
0 
-0.06644943043614818 
0 
0 
0.0182122802041189 
-0.1044765171464494 
0 
0 
-0.1264195951278637 
0 
0 
0.06168489442476537 
0 
-0.06976795784521669 
0 
0 
0.1404996154993189 
-0.06684160566572504 
0 
0.0925330974095252 
0.09661131942898379 
-2.750581560075017e-05 
0.1014692545254847 
0 
0.1983500778543458 
0.1382591313448228 
0.1367327959946943 
0.01620048932061664 
-0.05324117489288417 
0.06257942274465789 
0 
0.1114820105539655 
0.0004010775963189071 
0.1162122457511969 
-0.00100759369980823 
0 
0 
0 
0 
0 
0.4465722835711504 
0 
0 
0.04917435516108822 
0 
0.08515861472608069 
-0.0904601553556075 
-0.2330615155805926 
0.1041408758649111 
0 
0.02430237559614861 
0 
-0.07114912330685237 
0.1473496044946209 
0.1692454082679575 
-0.09613314235297207 
0 
0 
-0.1999350123680951 
0.09436918418470214 
0 
0 
-0.1089708147108876 
0 
-0.09083547501191847 
0 
-0.4328475711572088 
0 
-0.04257251389396736 
0.05753262303379963 
-0.0007711307287094709 
0 
0.03124222432396396 
0 
-0.08828155414323344 
0 
0 
0.03778405823407189 
0.02478604014801042 
0 
0 
0 
0.07398004494005481 
0.05485751861863572 
-0.1708083102116962 
0 
0.005205739283912873 
0.2421911359148846 
0.1164324614515133 
0 
-0.1974843452183826 
-0.1786876478905204 
0.5128861013410433 
0 
2.764982794646617e-05 
0 
0 
0.0001938049511945282 
-0.02549165600935913 
0 
0.03153237688448395 
0.08886196417602266 
-0.001070283188607648 
-0.1100423473518806 
0.08763098906792521 
-0.1022789189468445 
0 
-0.0148080501390287 
-0.001544864910857639 
0.04662156791935495 
-0.1142474589618707 
-0.1219102950384387 
0 
-0.006414680636507792 
0.008888140743049224 
0 
0.0255519503671571 
0.0007828580888005685 
0.5583895103463691 
0 
-0.1415847909548726 
0 
0 
-0.1891407796649846 
0.01003370423793393 
0 
0.01067575510489544 
-0.0694268936040266 
0 
0.2049629688914161 
0 
0 
0.1397306098011296 
0 
-0.2374806161606517 
0.4092665042816937 
-0.256713377974349 
-0.0001378645089742832 
0.1101175871119345 
6.579875490231936e-05 
0 
-0.1928601075128829 
0 
0.1159383165135956 
0.1355009320458117 
0 
-0.1603179613814201 
0 
0 
0 
0.07272696630980438 
0 
-0.126691204525304 
0 
0 
0.0001216478800222676 
0.3673983596312013 
0.1050239489437133 
0.05862456559948345 
-0.01342552313358188 
0.3923829688118933 
-0.001953879354424325 
0.1125480679739037 
0.009014746638563225 
-0.06021138175896212 
-0.3936941725317282 
-0.05699680408594945 
-0.08802227660039033 
0 
-0.2473928960923965 
0 
0.0002090270062164029 
0.06096248027121152 
0 
-0.04576841951834806 
0.07377533462657698 
-0.1972444473285739 
0.0331227342300112 
-0.02257961343373451 
0.1312523278602671 
0.1277231398852136 
0 
0 
0 
-0.02560694626886916 
-0.07467843952058312 
0.106348337291058 
0 
-0.0006047562177433339 
-0.0002001374734627614 
0.1951688233590944 
0.07184783914017452 
0 
0 
0.03352373284600358 
0.1505673416978072 
-0.1661719211238102 
0 
0 
0.0002347248634930882 
-0.1393541361610356 
0 
0 
0 
0 
0.1464950444272694 
0.004059724497925393 
0 
0.07556862531467813 
0.1349001908118383 
0 
-0.06403839718789867 
0 
0 
-0.1063931739398044 
0.05037323075873593 
0.3307182367138377 
-0.04788974281353223 
-1.615803292932976e-06 
0 
0.1033273321645287 
0.2482961259574495 
0 
-0.08437882553178212 
0 
0 
0 
-0.08427654612249075 
0 
-0.09133337932532268 
0 
0.2295931808106967 
0.003682499520360444 
0 
0.2007442200734738 
0 
0 
-0.2618368647869916 
-0.05859959200188737 
0.09588727357284016 
-0.04768346618217142 
0 
0.0002976137430279271 
-0.07563065722105652 
0.08009935757994112 
-0.2637316416484327 
0.1300488391575817 
0 
0.2438119011764305 
0.1231485924558986 
0 
0 
-0.01463443497788998 
0 
0.3817113547675987 
0.009764888223002123 
0 
0 
0 
0 
0 
-0.04545391518150627 
-0.1274621397136827 
0 
0 
0 
0 
0.1095268688512366 
-0.051846960360535 
-0.2742731770441353 
0.1563916693430985 
0.1320108651817367 
0 
0 
0 
0 
9.021223046047913e-06 
-0.0442106528086975 
0.2203201722582683 
0 
-0.1177423403217591 
0 
-0.5894556165316347 
0.5661087085573185 
0.07373562126569286 
0.09410001689310155 
-0.5698077360088387 
-0.2142619474645739 
-0.2093036216362512 
0.3427043104404043 
0.08669335995925609 
0.05678092956790634 
0 
0.3507861776750649 
0.06421239377492838 
0.07604504811898509 
0.1483866790399179 
-0.01650239002249296 
0.0567847094647982 
0.02745183063942904 
0 
0 
0 
0.2218419183675158 
-0.1050157450159553 
0 
-3.690279258020368e-05 
0 
0.0001753374993450607 
0 
0 
0 
-0.1229028853228938 
-0.08153825662280448 
0 
0 
-0.05907105066274551 
0 
0 
-0.09645832448064462 
-0.09885079139198305 
0 
-0.0001834919308108724 
0.0001106461637808704 
0 
0 
0 
-0.2446729834253759 
0.009434687085006917 
0 
-0.6724729025868089 
-0.250548518970941 
0 
-0.0472539094876886 
0.04944014149754149 
0 
0 
-0.03472338874133915 
0 
0 
0 
0.0001859107555138878 
0.09643988737335901 
-0.07015472561454085 
0 
0 
-0.05313376015927782 
0 
0 
0 
0 
-0.1626779934588191 
0 
0 
-0.09583195947425045 
-0.0002057030594078231 
0.03758340051874971 
-0.2157518621436224 
0.07140991237881281 
0.04000417386363543 
-0.09617367119731565 
-0.02037425351349471 
0 
0 
0 
0 
0 
0.5945401004163671 
0 
0 
-0.02720953681146927 
-0.1635507182114611 
0 
0 
-0.09669146997147282 
0.1339765398792213 
0 
0.2990023929500481 
0 
0 
0 
-0.002047810635492735 
0 
0 
-0.08907502646467458 
-0.1034561438239274 
0 
-0.1027936871570552 
-6.856908691353885e-05 
0 
0.04628513856865304 
-0.03604454548367033 
0 
0.1044765171464494 
0.06956132203606329 
0.002475275262707669 
0.1079520192149054 
0 
0 
0 
0 
0 
0.1242629738086147 
-0.0249778971748093 
0 
0.01488781794608599 
0.09354484920776718 
0 
0 
0.1567555381834385 
0 
0 
0 
0 
-0.03289834340161471 
0.01087848284336472 
0 
0 
0.1603952135507421 
0 
0.3074445315407491 
0.1554763038746931 
0 
0.05733261454120181 
-2.323570424328233e-05 
-0.05926375895231355 
0 
-0.006586202477666279 
0.1408274339274915 
-0.07760724497308072 
0.09214053843048253 
0 
0 
0 
0 
0.0001484324123175694 
0.1044765171464494 
0.3948241161483846 
0 
0 
-0.1929563303800749 
-0.08254373735995046 
0 
-0.06784076011183643 
0.3347775751125853 
0.04986933212342909 
0.08326937590317768 
-0.3219563263365292 
-0.03372592917593011 
-0.08815049034060979 
0 
-0.07286261228951615 
0.1221928864538333 
3.282210245747721e-05 
0.001004936586067305 
-6.222252462625744e-05 
0.1714146064452694 
-0.1044765171464494 
0.02787056074174807 
-0.2209510390078057 
-0.2925786021265393 
0 
-0.1215019463695537 
-0.07453432027583334 
-0.1046465476041076 
0 
0 
-0.1307556001109263 
0 
-0.1493301389790925 
0 
0 
0 
-0.1052925301632729 
0.02656414390160399 
-0.07050230087846746 
-0.3623998926123571 
-0.09725366262130916 
-0.06210151962981294 
-3.067544108083139e-05 
0 
0 
0 
0 
0 
0 
-0.3704405356729178 
0.003536736326241498 
0 
0 
0 
-0.1436666403692261 
0 
-0.07595327873156374 
0 
0.04979136013684119 
-0.04348462767751982 
0.1800462425183556 
0 
-0.07396668850052354 
0.1790387479677295 
0 
0 
0.3118275423562962 
0 
-0.09725366262130916 
0.08083862664685569 
0 
0.2348560819954011 
-0.3052925157226904 
0 
0 
0 
0.07963904164573637 
0 
0.08489007505728569 
0 
0 
0 
0.01890910886597459 
-0.2372455693854129 
-0.04499980527801668 
0.01756358124919841 
-0.2076128817226025 
0 
-0.004435461473238159 
0.02920457835304559 
0 
5.48176210725342e-05 
-0.1254691975184472 
0 
-0.1281398542083984 
0 
-0.05555603848016395 
-0.1705272384681968 
0.01313098678318959 
0.0143314349903482 
0 
0 
0 
-0.02151082485507048 
-0.06253921096353619 
0 
0 
0 
0 
0 
0 
0 
0 
0 
-0.121893656900719 
0 
0 
0 
0 
-0.007264097766925952 
0 
-0.301595909487197 
-0.04972014385155326 
0 
0 
0.0001687303913499846 
0.3783280240320372 
-0.01057197619254237 
0.1044765171464494 
-0.08584003578766844 
0.07579663785890205 
0 
0 
0 
0.1244330237983667 
-0.004733064374904295 
0.09421763788684323 
-0.02927408099131196 
0.07182824185056184 
-0.09625117176480194 
-0.1983266884281629 
0 
0 
-0.0348006060714048 
-0.09554435849608708 
0 
0 
-0.06767781602868526 
-0.2690484954831863 
0 
-0.03322173898493543 
0 
0 
-0.03118651523664635 
0 
0.0546428008282101 
0 
0 
-0.5993475238800043 
0.007244601475382631 
0 
-0.2228619193056848 
-0.09099884597854449 
0.2254314251068191 
8.049920076293724e-05 
0 
0.09046461598330256 
0 
-0.07888059420947031 
0 
0.03729847154596467 
-0.3981405051210006 
0.1035959634591631 
-0.001974757079150865 
0 
0 
-0.04388337605934211 
-0.08063364067396422 
0 
-0.05822335133834498 
0 
0.08816003999721209 
0.2498876574722809 
0 
0.040719305606055 
-0.05971156768939935 
0 
0 
0 
0.01845389340274617 
0.08314656912434171 
0 
0 
0.09031788098994417 
0 
0 
0.2410529791923758 
0 
0 
0 
0 
0 
0.06989507194539103 
0.06322144314589638 
0 
0.04697152007483942 
1.060703856397249 
0 
0.06560946922082328 
0 
0 
0 
0.1676495103427819 
-0.12658356178132 
-0.0776061494239321 
0.01659682057948594 
0 
-0.1188275442063026 
6.854352339528264e-05 
0 
0.0001241654950678828 
-0.0001735011980855972 
0 
0 
0.06277736842662565 
0 
0 
-0.0001766693484078162 
0.07042552876640241 
0.2189243138943755 
0.09447338917328252 
0.2731408769323561 
0 
-0.08701541423075922 
0.03855740353531652 
-0.08689523876905014 
0.0006988229590467574 
0 
0 
0 
0.0005212039816001953 
0 
-0.08819439337914659 
0 
0.1337148517358109 
-0.0007899909458626729 
-0.236902826391661 
0.4464833903315088 
0 
0 
-0.1075029192481322 
0.03341940094921565 
0 
-0.1227222004771598 
0 
0 
1.443728322322578e-05 
0.07681100404455136 
0 
0 
-0.04806417651306181 
0 
0 
-0.05839752129417788 
-0.1090109472725986 
0.1059810418412781 
0.1239254148484665 
0 
0 
0 
0.1495767146745854 
0.7917605104562007 
-0.04928182960135013 
0.361711584377193 
0.08429927647411528 
-0.1044765171464494 
0.07984921365977665 
-0.0002302554796828245 
0.01133585738690893 
-0.09143304382201146 
0 
0.3515524932467088 
0 
-0.1405717539456927 
0 
-0.1290770845174484 
-0.1142196083868234 
0.1967110404779841 
0 
-0.4433831659238843 
0 
0 
0 
0 
0 
-0.0719069604333859 
-1.34417598105476e-05 
0.04490289184295736 
0.1084023121623976 
0 
0.1949095487194054 
0 
-0.03829097194958635 
0 
0 
0.2571404114263203 
0 
0 
0 
0 
0 
3.462961186552715e-05 
0 
-0.2114922549476263 
-0.1470202599003363 
0 
0.03771368672068196 
0 
0 
0 
0 
0.04476923332900441 
-0.2044382550061855 
0 
0.1511907895343089 
0 
-0.1040453953731207 
-0.03378644752579715 
0.08546599569891108 
0 
-0.04421019348246154 
0.04756538129587003 
0.06189315986394247 
-0.1168233337994304 
0 
0 
0.1054050929923701 
0 
-0.1462301650612029 
-0.01311994247653667 
-8.047139173202831e-05 
0.1133140542942843 
0 
0 
0 
0 
0 
0.172385560101602 
0 
0.04679166382853971 
0.03217799034755377 
0 
-0.1837985796237555 
0 
0 
0 
0 
0.6218069317593219 
-0.04810930537327961 
0.07508403852408513 
0 
0 
0 
0 
0 
0 
0 
-0.007614872600402322 
0 
-0.1531121926366583 
-0.01754638738670776 
0 
0.2055569439092107 
0 
0 
-0.1447537187836744 
-0.05343999215622951 
0 
0 
1.449726087025543e-05 
-0.269711314691082 
0 
0.2195849573329637 
-0.1728160137703196 
0 
0 
-0.2025054850986383 
-0.03796284793461625 
-0.149362541182956 
0.1322978476412393 
0 
0 
0.04499634019951546 
-0.01006452224216429 
-0.2888718869604488 
0.1314328571758993 
-0.0004275514568536335 
0 
0 
-0.1896147533226249 
0 
0.0736489768910091 
-0.1331142762185208 
-0.04846257841386686 
0 
7.783334222629751e-05 
0.112905804745626 
0 
0 
0.0902295975927668 
0 
-0.01476062065696418 
0 
0 
0 
-0.3348463642105374 
-0.3607730012263394 
-0.1721871540871302 
0 
-0.031124552597864 
0 
0.04595790155338706 
0 
0 
-0.04222333074868831 
-0.1163716203367499 
0 
0.02413006539691676 
0.01188609940055414 
0 
-0.2216212744836218 
0 
0.05382138638128081 
-0.04869251505278739 
-0.06308901580131063 
0 
0 
-0.04777223941795841 
0 
0 
0 
0.1619812233215518 
0 
0 
-0.001092236072352457 
0 
0 
0 
-0.04469518526717374 
3.224787694159188e-05 
0 
0.07648923488790714 
-0.4910987394268833 
0 
0.04826112813019545 
0.1494573925339161 
0 
0 
-0.001081587296650046 
0.05505310896547426 
0 
-0.0100528630064078 
-0.03296289874234139 
0.09701603341427854 
-0.01560128464662862 
0.08018059930086108 
0.1353999919872664 
-0.09229471394328401 
0 
0 
0 
-0.07631850614806784 
-0.08994267209291743 
0 
0 
0 
-0.1319564911663848 
0.07837932393386093 
0 
0.09725366262130916 
-0.09717784780220803 
0 
0.3953979734591214 
-0.03052963091190452 
-0.1358761446072808 
-0.06508261118125279 
0 
-0.08566480993222396 
0 
-0.07209459396528198 
0.05817701424746197 
0 
-0.001550191622946049 
0 
0.1044765171464494 
0.001705718514901866 
0 
-0.02390898647044581 
0 
0 
-0.06768111894100887 
0 
-0.09755959178739718 
0 
0.03430379596119426 
0 
0 
0 
0 
0.1843880461463447 
0.1795617832461933 
0 
0.00894920792116685 
0 
6.272889904405352e-05 
0.1358007346745608 
-0.4522320942433652 
-0.0004419710491656952 
-0.1179317669388793 
0 
0.08075482126819078 
0 
0 
0 
0 
0 
0 
0 
-0.08564130082350424 
0 
0.01335692758330571 
-0.1104261172616799 
0 
0 
0.1567760553875029 
-0.1044765171464494 
0 
-0.349460876125863 
-0.1239699029908173 
0.1435350193870391 
0 
-0.03838241655774523 
0.03033212572001055 
0.1044765171464494 
0 
0.172963169213066 
-0.01704280169884943 
0 
0 
-0.04438365473776173 
0 
-0.01558909860044614 
0 
0.0003367521946053677 
-0.07403196911060642 
-0.08194539514316233 
-0.02120095849006456 
0 
0 
-0.1142119922827834 
0 
0.1010217051337646 
-0.06082455988496473 
0 
0.08705804547184087 
0 
0 
0 
0.04036693277344919 
0.118458506588218 
0 
0.1162711119242426 
0.07932260120676882 
0 
0.009531868993821933 
-0.05957700413010582 
0 
-0.03517617714000112 
0 
0 
0 
0 
0 
-0.01280627713162679 
0 
0.3904900311531193 
0 
0 
0 
0 
0.3199827122646386 
0.07992605028386843 
-0.2816351855053219 
-0.08653879297220232 
0 
-0.000437642948940874 
-0.1068774116697736 
0 
-0.1895802275058687 
0 
0 
-0.2914912931090593 
0.2822309984566074 
-0.120831204926457 
0 
0 
-0.1288194528367632 
0 
0.09519895098767456 
-0.1271988696344868 
0 
0 
0.1252038314653159 
0.05873735099545878 
0 
0 
0.115873978862655 
0 
0 
0 
-0.07812858348740852 
0.0002976137430279271 
0 
0.07514674273360022 
-0.4077485267677563 
0 
0.0004243010387707047 
0 
0.03554523150400084 
-0.02710482140991955 
0.0003045252157406722 
0 
0 
0 
-0.0001102025942405673 
0 
0 
-0.03886570875256079 
0 
0 
0.1032123592947443 
0.1044765171464494 
-0.3453492149581946 
0.04426191184808285 
0 
0.1773483644321743 
0 
0 
0 
-0.1852237453525768 
-0.07434683582423107 
-0.1044765171464494 
0 
0 
0 
0 
0 
0 
-0.1241423589317459 
0 
0 
0 
0 
-0.02330910655870995 
0 
0.3790024813647321 
0 
-0.03097485716877359 
0 
-0.04345810955794421 
0 
0.1043545413932898 
0 
-0.01803733036669536 
0.5994194683412724 
0 
0 
-3.587441237987748e-05 
-0.02327820263309268 
-0.0471695998931245 
0 
-0.01149483936793363 
0 
0.06578713487489468 
-0.001184856386695698 
-0.04621369817440436 
-0.4738749199458082 
0 
-0.2083893341333134 
0.1388456183869329 
0 
0.0001095122555635116 
0 
-0.7085012414515606 
0 
0.04786386562690978 
0.05984820183611355 
0.1184789414399118 
0 
0.1757974640843792 
0 
0.1603579299138254 
0.2278999129386509 
0.04393596994392243 
0 
0 
0.1101498504661456 
0 
0 
0.1227234670049255 
-0.01789750995267678 
0 
-0.02294930983642729 
0 
-0.0002327849277996427 
0.08389923167320629 
0 
0 
0 
-0.000109112460620309 
0.07367653402756891 
-0.1066300396674815 
-0.05305127658523885 
0 
0 
0 
0 
-0.1032540035149749 
0 
-0.6172744397806293 
0 
-0.2401013299695314 
0 
0.1223859076510445 
-0.03364678171419278 
0.03134712864003852 
0.05831355143132842 
0 
0.2039137447602494 
-0.05509537983312073 
-0.05280127995273032 
-6.009799774474056e-05 
0 
0 
0.0003941498493526081 
0 
-0.001801564235197667 
0.0204350610523915 
0 
0 
0 
0 
-0.07709973151117581 
0 
0 
0.06121254506327682 
0 
-0.1563162221891328 
0.1044765171464494 
0.01034436464842945 
0.2374896293016493 
0 
0.006972811439211026 
0 
0 
-0.08495223396090337 
-0.0001518035867889045 
0.09795471966999025 
-0.1175054719362872 
3.238525119424559e-06 
0.137872685048587 
0 
0.3957052069818686 
-0.1212647119913336 
0 
0 
-0.09499220262739719 
0.05161861274716054 
0.1101227957657026 
0 
-0.1436822252696947 
0 
0.05687172087153068 
0.05550408524598206 
-0.0979604120570912 
0.1794922383876003 
0.04658451665057853 
0 
0 
0 
-9.973148817470426e-05 
0.07957312593232496 
-0.05298741658071736 
-0.04488762347519136 
0.2888241632553347 
-0.07777589077832965 
0.3198267566679686 
0 
0 
0 
0 
0 
0 
0.3984964431102177 
0 
-0.1351115531582371 
-0.2343917170286702 
0 
-0.1956249667431127 
-1.193683003134487e-05 
0 
0 
0 
0.2212920643823964 
0 
0.104769707616766 
0 
-0.2453076829956395 
-0.08855360689152073 
-0.008563430447978079 
0 
-0.1382433109736055 
-0.06308559507813435 
0 
0 
0 
0.04342009148284559 
0.1127662280673448 
0.09173744589221081 
-0.1061357772457026 
0.1041370586315772 
-0.1358653113223367 
0.03432818178706931 
0 
-0.2579580295269184 
-0.05982565484567039 
0.01483191028255224 
-0.03190082909858036 
0 
0 
0 
-0.216406523235802 
0 
0.06625660841278799 
0 
-0.08730140528524802 
0 
-0.05445458198630072 
-0.07968734983875696 
-0.1874103455279819 
0.04090390412778328 
-0.1122780401229394 
0.001455149924349844 
0 
0 
-0.04865011463110984 
-0.1925735082222829 
0 
0 
0.1342293153042118 
-0.1692331852648691 
0.01132213901164865 
0.0241537121569558 
-0.1503631558363373 
-0.1218035030228909 
0 
-0.02094598248621446 
0 
0 
0.2194228557537129 
-0.0238594192739236 
0.04924377872991154 
0.1989860084452303 
0 
-0.07345657203793532 
0 
0 
0.04084150792948445 
0.07784832762725324 
-0.01881631959895764 
-0.05500893917281147 
-0.02283860566286167 
0.04462763143483094 
-0.06414118587916323 
0.0004742757669373154 
0 
0 
0 
0.1673095678493158 
0 
-0.0008993643807827141 
0.1504616760289481 
-0.0816719029131126 
0 
0 
0.007049683410878534 
0.1445367497347938 
-0.003481368960104236 
0 
0.03520553457763206 
0 
-0.2256263755530722 
0 
0.7196293105501382 
0 
-0.5492556839701398 
0.08539202346876737 
0.09536028828244328 
0 
0.04997065630054803 
0.1703191543904916 
-0.322773768877015 
-0.143619098145331 
0 
0 
0 
0.2946469925744424 
0 
0 
0 
-0.1063509266272157 
0.2390419693645638 
0 
0 
-0.04121519990391512 
0 
0 
-0.08033378308757599 
0.3586309450701627 
0 
0.06972482879192762 
0 
0 
0.03549442013311972 
0.01540806694575961 
0.000249852671854991 
0 
-0.0002694705346424238 
0.1945073252426183 
0.08957276106860787 
0 
0 
0 
-0.06582549281687586 
0.1418049133080075 
-0.06466953839119677 
-0.04097063915979385 
-0.330432806282932 
0.009303521470919373 
0 
0.0003216850687207393 
0.04773254706507594 
0.08566666967447402 
0.08675852845349821 
0 
0.01984279694907958 
0 
0.1045760838110737 
0 
0 
-0.07336386379916604 
0 
0.02997455690529554 
0.002058022572391121 
0 
-0.09549972231839654 
0 
0 
-0.1748323884332422 
0.04954803756208319 
-0.1349107796768121 
-0.02943897259965486 
0 
-0.1860031563305855 
-0.0740426112334101 
-0.06375357816433846 
0 
-0.000329920581332001 
0.0001224606512662338 
0 
0.09169170013265476 
0 
0.09458603665785428 
0 
-0.08012131607461978 
0 
-0.02146501882454258 
0 
-0.0004555327188328602 
0.08567989399236495 
0.1966925312136832 
-0.2166732550632954 
-0.1059617506239291 
0 
-0.07087590531899211 
0 
-0.08797103883478374 
0.2721677267488203 
0 
0 
0.01318777427576743 
0.0001937229152783345 
-0.1524220759512251 
0 
-0.3247853805368718 
0.1132696179724012 
-0.08454235590717263 
-0.110535244071827 
-0.01678217302074093 
0 
0.0002124047463806485 
0 
-3.806188750153723e-05 
0 
0 
-7.215135235979982e-05 
0.6547573260302485 
-0.2996130558937122 
0 
0.1420120290067839 
0 
0 
0 
-0.270115269093813 
-3.193297747588477e-05 
0.1044765171464494 
-0.01781276430463642 
0 
-9.179830986686533e-05 
0.341986602594874 
0 
0 
0 
0 
-0.2732174030757541 
0.1044765171464494 
0 
-0.02888972122752422 
0 
0 
0 
-0.02044904725299885 
0.0001451175076065412 
-0.06997050462696917 
0 
-0.07456069873209331 
-0.1484728387758583 
0.08136773178301075 
-0.001258141508833668 
0 
0.08615824489471956 
-0.2026099476956282 
0.06817309068910926 
-0.3469811442185062 
-0.09394331541946854 
-0.03425332368732134 
-0.09332881385103146 
4.464922856096558e-05 
-0.04103716232683149 
0 
0 
-0.244410612327197 
-0.1051678471468707 
0 
0 
0 
0 
0 
0.1051801570018445 
-0.2130047042143171 
0 
0 
0 
0 
-0.2199640337438478 
0.3267059318521143 
-0.07158103753616518 
-1.028720709118544 
-0.1044765171464494 
-0.09794532151273988 
0 
0 
0 
-0.02734181920622015 
0 
-0.2253900928577612 
0 
0 
0 
0 
0 
0 
0 
0 
-0.02342536830693653 
0 
0.1603839852596166 
-0.1504456235645493 
0.0004993296652862516 
0.1240666016730402 
