solver_type L2R_L2LOSS_SVC
nr_class 2
label 1 0
nr_feature 79548
bias -1
w
-1.380583291120629e-05 
0 
0 
-0.00011191912121132 
0 
0 
-0.06979367457159226 
-0.1898839312779635 
0 
0.04040251423367754 
0 
0 
0.01598998526269946 
0.1885014717399564 
0 
0 
0.0005830386208508583 
-0.07963639152037533 
0 
0 
0 
0 
0 
0.04964462244801068 
-0.001475477200178178 
0 
0 
0 
-0.0004946966311885402 
0 
0 
-0.03663706336235955 
0 
-0.03604214836534929 
0.009826255520838195 
0.08156487719287513 
0 
0 
-0.295151377959855 
0 
0 
-0.2001834546405377 
0 
-0.2489324227667543 
0 
-0.05851257996048247 
0 
0 
0 
0 
0 
0 
-0.02438536116861504 
0 
-0.1073277288302681 
0 
0 
0 
0 
0.003407207850208911 
-0.1990107160408693 
-0.02771069465676576 
-0.04110549621660824 
0 
0 
0 
0 
-0.03069730963946861 
0 
0 
1.653295243579521e-05 
0 
0 
0 
-0.001163398694627314 
0 
0 
0 
0 
0 
0 
-0.0459151390083261 
-6.391829096463823e-06 
0 
6.234231732638119e-05 
0.3642276980958616 
0 
0 
0 
0 
0 
0 
0 
0 
0 
0 
-0.02680666182647274 
0.001055194881540551 
0 
0 
0.09706895179552975 
0 
0 
-0.003558977107283844 
-8.570241720609472e-06 
0 
0 
-0.006357054973862865 
0 
0 
0 
0 
0 
0 
0 
0 
0 
0 
0 
0 
0 
0 
0 
-1.179739452549463e-05 
-6.803350836832346e-06 
0 
0 
0 
0 
0 
0 
0 
0.09662623973684023 
0 
0 
0 
0 
0 
0 
0 
0.04631624956062872 
0 
0 
0 
0 
0 
0 
0.001006608680465075 
0 
0 
0 
0 
0 
0.005325173568588224 
0 
0 
0 
0 
-0.1585668051302902 
-0.2211626163765499 
0 
-0.0008770052470019924 
0 
0 
-0.00347234515520521 
-0.09868373746501251 
0 
0 
0.06159719630228961 
0 
0.1142561833022542 
0 
-0.0005613706970932055 
-0.07426219478300074 
0 
0.5679820652959306 
0 
0.1285167402247853 
0 
0.000283629218438411 
0 
0 
0.08426930420400799 
0 
0.02922912382550709 
0 
0 
0 
0.09552266263643053 
0 
0 
-0.0003908904610972351 
0 
0 
0 
0 
-0.3910017047030195 
0 
0 
0 
-0.02848905982196171 
0 
0 
-0.08191801812172907 
0 
0 
0 
0.149465159758159 
0 
0 
-0.1041330695231939 
0 
0 
8.751421133459757e-05 
0 
-0.06150217254125005 
0 
-0.0002879564051251978 
0.0008651426129310334 
0 
-0.00017618436013614 
0 
-0.07428767967144909 
-0.01726463459822962 
-0.01604241719513436 
-0.3537369826962612 
0 
0 
0 
0 
0.006608400204446682 
0 
-0.01649821198089379 
-0.07566694475483929 
0 
0 
0 
0 
0 
0 
0.08588216524997695 
0 
0 
0 
0 
0 
2.460292020209942e-05 
0 
0.1477573660920698 
0 
0 
0 
-0.1429357405745815 
0 
0 
-0.01514752478181526 
0 
0 
0 
0 
0.285516152464634 
0.0002187254884990192 
0 
0 
0.2290086607565078 
0 
0 
0 
0 
0 
4.095558080933187e-06 
0 
0 
0 
0 
0 
0 
-4.072954376897899e-05 
0 
-8.220480680315818e-06 
-0.3983041257495062 
0.02285916363991205 
-0.2682400515257419 
0 
0 
0 
0 
0 
-0.006708167965046769 
0 
0 
0 
0 
-0.2491427357669135 
0 
1.980998729649475e-05 
0 
0 
-0.01440087190867439 
0.5875053413845388 
0 
0 
0.0001901543369046201 
0 
-4.728470286903969e-06 
0 
0 
-0.0003940611152552288 
0 
0 
0 
-0.4445786204162814 
-0.7452250963515822 
0 
0.0004600813325292945 
0 
-0.2309840167479739 
0 
3.143605512030108e-05 
0 
0 
0 
0 
0 
0 
0 
0 
-0.2354558538910161 
-3.079862961259447e-06 
-0.1871861232587219 
0 
0 
0 
0 
-0.01007800675866707 
-0.1934464119785624 
0 
0 
0 
-0.1209426395420562 
0 
0 
0 
-1.37460375244688e-05 
0 
-0.07316353664332545 
0 
0 
4.348347781446991e-05 
0 
0.1149668745548925 
0 
0 
0.06196633450025033 
-0.2128964299790422 
0 
0.5396565516382146 
0 
0 
0.5677042216350663 
0 
0 
0 
0 
0.0002585402357500728 
0 
-0.01594218053116288 
0 
-0.2028769675606963 
0 
0 
0 
0 
-0.1963192377040099 
-0.003664955235343129 
0 
0 
0 
0 
0 
0 
0 
0 
8.437811944164349e-06 
0 
0.06856366357908511 
0.001047684646844468 
-0.01033535979600106 
0 
0 
0 
-0.1012759857348124 
0 
0 
0 
0.0972914892574494 
-0.0004462352715079577 
0.1246423645245104 
0 
0 
-0.005914221580179852 
0 
0 
0 
0.02119449017389671 
0 
0 
-0.121409305373481 
0 
0 
0 
0 
-0.001313354510996872 
0 
-0.1782688372259524 
-8.568631767958828e-05 
0.01740377957592805 
0 
0 
2.029362477541049e-05 
0 
0 
0.04716776512638442 
0 
0 
-0.03505877209012949 
0 
0 
0 
0 
0 
0.0176781728354832 
0 
0 
0 
0 
0 
4.769285981974416e-05 
-0.06319464344647674 
0 
0.000151568798461407 
-0.04305056259928383 
0 
0 
9.907928209250188e-05 
0 
0 
0.140432041130338 
-0.002946441414679686 
0 
0.1392278005345673 
0 
0 
0 
0.1988301436118566 
0.02539594534955147 
-2.406486329105757e-05 
0 
0 
0 
0 
0 
0 
0.3906762390158761 
0 
0 
0 
-0.3358778673926321 
0 
0 
0 
0 
0 
8.158237638567406e-05 
0 
0 
0 
0 
0 
0 
0 
-0.09499494903126408 
0 
-0.2175429097666511 
0 
0 
0 
-0.00586545640838209 
0 
0 
0 
0 
0 
0 
0 
0 
0 
-0.42779400746488 
8.768910575848769e-05 
0 
3.495782983843851e-05 
0 
0 
0.1730537653895247 
0 
1.438637941855863e-05 
0 
0 
0 
0 
-1.554287183706348e-05 
0.04437010037119482 
-0.0004249939239533663 
-7.837321009546917e-05 
0 
1.235606443536143e-05 
0 
0 
0 
0 
1.595567677631685e-05 
0.04519231767677247 
0 
-0.02174767999439955 
0 
0 
0 
0 
0 
-0.4613382631509559 
0 
0 
0.05509729963326881 
-9.728342721680266e-05 
0 
0 
-0.0738994215509087 
0 
0.0001525286776363663 
1.672163588811655e-05 
-0.07659003975175308 
0.0001764880846942319 
0 
0 
-0.1808781581562872 
0 
0 
0.1566325603790842 
0 
0 
0 
0 
0 
-0.0009755947188824212 
0 
-0.190974481954392 
-0.1269853070289655 
0 
-0.06877867502651591 
0 
-0.01600417037848576 
0 
-0.03134951485406253 
-0.0918837105778498 
0 
0 
0 
0 
0 
-0.03362858287312484 
0 
-1.553501535898854e-05 
0 
-0.1032615871981134 
0.09533308491523973 
-0.1492491918346901 
8.903099635205152e-06 
0 
-0.04828717264993122 
-0.1059070438886232 
0 
0 
0 
0 
0 
0 
0.1159334761258345 
0 
0.1323152187005814 
-7.229273964148027e-06 
0 
2.987179580195128e-06 
0 
0 
0 
0 
0 
0 
0 
0 
0.005596203056614945 
0 
0 
0 
0 
0 
0 
0 
0 
-0.07522157770321528 
-0.1521037353288687 
-0.0001619409994261757 
0 
-0.1013173730902218 
-0.001511878398722531 
0 
0 
0 
0 
0 
0 
0 
0.000135272881211837 
0 
0 
-0.002159328366882329 
0 
0 
0 
0 
0 
0 
0 
-2.846750839869877e-06 
0 
0.001216181826834667 
0 
0 
-0.05093337019049614 
2.577164265955805e-05 
-0.182672886821042 
0 
0.2592644189766277 
0 
-0.0002369089189201677 
0 
0 
0 
0 
1.678398845531918e-05 
0 
0 
0 
0.1592742991371822 
0 
0 
0 
0 
0 
0 
0 
-0.0008544976556609084 
0 
0 
0.03739578477230714 
-0.0002902968104848007 
0 
0 
-0.09325396733822171 
0 
0 
0 
0 
-0.2538811579391835 
0 
0 
0.1523390695506308 
0 
0 
-9.28209249465174e-05 
0 
-0.0001909322353762824 
0 
0 
0 
-0.1312962488232037 
0 
0 
-5.462821031284856e-06 
-0.2366821109860589 
-0.1299559459517004 
0 
0 
0.0002220727035425418 
0 
0 
-0.1249093442721534 
0 
-4.115661263295327e-06 
-0.0005450392133656246 
0.1115366863951178 
0.001260718670026097 
0 
0 
0.3605749753893657 
-0.1571211846897684 
0 
0 
0 
0 
0 
-7.013455684109379e-06 
0 
0 
0 
-1.934956287497819e-05 
0 
0 
5.790089623715643e-05 
0 
0 
0 
0 
-0.001725452961692778 
0.0197989148212689 
-0.4863715461250283 
-0.07607508817434892 
-0.1028573424856714 
0 
0 
1.445938756108682e-05 
-0.000172114931811209 
0 
0 
0 
0.1746935062454071 
0 
0 
0.1381419609495655 
-0.03634651887474841 
0 
-0.03526244718867975 
0 
0 
2.460156376033016e-05 
0 
0 
0 
0 
0 
0 
0 
0 
0 
0 
0 
0 
-0.02531413180883166 
-5.886777500641453e-05 
-0.1971145833495147 
0.0003811366623561665 
0 
0 
-0.1822320450004251 
0 
0 
-0.1468645674112193 
0 
0 
-0.3293899559170116 
0 
0 
-0.199062358499671 
0.06242215894315516 
0 
0 
0 
-0.0001074189277918835 
0 
0 
-0.006751004923842297 
0.2919565844119124 
0.0004254817838717122 
0 
0.0004588169074147377 
0 
-5.953411600325654e-05 
-0.007016429645280655 
4.906705436374097e-06 
0 
0 
0 
0 
-0.08733533425617672 
0.1373156948936953 
0 
-3.505835829531692e-05 
0.2537989868579651 
0 
0 
0 
-0.1856359800832776 
0 
0 
0 
0 
0 
0 
0.09285537919020961 
0 
0 
0.1719970481493793 
-0.02900590098471676 
-0.01500604095892222 
0 
0 
0 
-9.47723685017671e-05 
0 
-0.07445207722411684 
-0.1889190460640841 
0 
0 
0.000535174962433159 
0 
0.0009595005223627089 
0 
0 
0 
0 
0 
0 
-0.2458162515118291 
0 
0 
0 
0 
-0.03076817402144223 
0 
0 
0 
0 
0 
0 
-0.01103493159483074 
0.3599788541721753 
0 
0 
0 
0 
3.653738146586823e-05 
0 
0 
-0.0455611989136295 
-0.0008096913664556015 
0 
9.091756658071416e-06 
0 
0 
-0.07981312250023548 
0 
0 
0 
0 
0 
0 
0 
0 
0 
0.5374540805244985 
0 
0 
0 
0 
1.115705185292852e-05 
0 
0 
-0.000385798230938598 
0.0003754954947831405 
0.2484594838174671 
0 
0 
0 
-0.02091055299635292 
8.911364780179956e-06 
0.1731366505900276 
0 
0 
4.874404786985715e-05 
0 
0.05248585938938942 
0 
0 
-3.688824678715519e-05 
0 
-0.07766814934476368 
0 
0 
0 
-0.03505877209012949 
0 
0 
0 
-0.04340772675408943 
0.0005118441847906934 
-7.008163439174082e-05 
0 
0 
0 
0.1579472834049681 
0 
0 
0 
-0.1192227469055286 
0.0002529647988030547 
0 
0 
0 
0 
0 
0 
0 
-0.120631332435191 
-0.0005451189441285501 
-0.1246414090578117 
0 
0 
9.749736538051572e-06 
0 
0 
-7.091350173887292e-05 
0 
0.3137682354632666 
0 
0 
-0.7375816243095334 
0 
-0.01020849174469748 
0 
-0.1211963648572601 
0 
0 
4.908593632761468e-05 
0 
-0.07710318477894901 
0 
0.05910444623999381 
-0.01306127202574463 
-0.08351232014540878 
0 
0 
0 
0 
0.0006122899500951952 
0 
0 
0.177184111111655 
0 
0 
0 
0 
0 
0 
0.07929613396881074 
0.0006962546886492811 
0 
4.944684387154996e-06 
-1.463638092925107e-05 
-3.049364547449209e-05 
-0.07762176005420596 
-0.03891272901902508 
0 
-0.1439583231228772 
9.451002607478736e-05 
0.07012242633767315 
0.0001909635528845845 
0 
0 
0 
0.09490089009905306 
0 
-0.09410002312084581 
-0.1897897996379906 
-0.1101447803500394 
-0.1153649619225633 
0 
0 
-0.04937946492616309 
0 
0 
0 
0 
-0.05348328600398701 
0 
0 
0 
0 
0 
0 
0 
0 
0 
0 
0 
0 
-0.08075900701999209 
0 
0.56966643176623 
0.2775293639466543 
0.1294999661881881 
-0.002044836922826176 
0 
0.04485879965563131 
-0.0005217746849529321 
0 
-0.0002102051694997198 
0 
0 
0 
-0.1358402093280499 
0 
-0.0005987940322216153 
0 
0.06664587285927737 
0 
-0.1215093733360236 
0.0524578188329199 
0 
-0.0623305741072785 
0 
0 
0 
0 
0 
0 
-0.000706280914744015 
0 
-0.1482616354594015 
0.0006598597585374772 
-0.2335595526056092 
0 
0 
0.1133983972287371 
0 
0.3946440019635112 
0.2140048960330698 
0.0001496929298899402 
0 
0 
0.1612616658121116 
0.0003159945236787575 
0.01379841309787189 
0 
0.04233781633240762 
0 
0 
0 
0 
0 
0 
-0.0001951625520454946 
0 
0 
0 
0 
-0.1128483665049186 
0 
-7.521100652966656e-05 
0 
0 
1.954061083286939e-05 
-0.1986953007519373 
0 
0 
0 
0 
0 
0 
0.0001128528562107464 
0 
0 
-0.03014600793012653 
0 
0.2022996178213497 
-0.0002800236960052605 
-0.05279408526027962 
0 
0 
0.0002807011215331187 
0 
0 
0 
-0.001960837574006903 
-0.2974829954647381 
0 
0 
0.0832888710394968 
-0.01899763150507362 
0 
0 
0 
0.04664068311519425 
0 
0.007939697915192296 
0.1136686066732956 
0.140684349586503 
0 
0 
1.678616172798759e-05 
0 
0.1079730063334685 
0.07730632970276186 
0 
0 
0 
-0.1682593404423163 
0 
-0.1307457246076499 
0 
0 
0 
0 
0.0001473624832216584 
-0.3105477749517041 
0 
0 
0 
0 
-1.713595508024174e-05 
0.08976225822181748 
0 
-0.1175791138277057 
0 
0 
0 
0 
0 
0 
0 
0 
-0.001313192250641105 
0 
0 
0 
-1.37826655578939e-05 
-2.977414169840306e-05 
0 
-0.0001482111669784198 
-0.1186413909310362 
-0.1460745258156447 
0.2381942827729332 
0 
0 
-0.100090969811219 
0.04229779253458321 
0 
0.1671875410750981 
0 
0.05969295521044847 
0 
0 
0 
0.1586010094659029 
0 
0 
0 
-0.06862625955428783 
-0.07282080423535693 
2.341116676845873e-05 
0 
0 
0 
0 
0 
0 
0 
0 
-4.558893923921602e-05 
0 
0 
0 
0 
0.03913167163856614 
-0.02804740361198889 
0.2187867905354312 
0 
-0.1457034198595567 
-0.04823346160265615 
1.02912388650585e-05 
-0.06867434185494774 
0.01215921260406115 
-0.2099053653636307 
0 
0 
-0.3378350366314951 
0 
6.735478367838867e-05 
0 
0 
0 
0 
0 
0 
0 
-0.01928879289412239 
0 
0 
6.686290884619079e-05 
-6.274238874317534e-06 
0 
0 
0 
0 
0 
4.054918667923844e-05 
-0.2814549256983124 
0.1179188727599099 
0 
-0.002557132164631161 
0 
0 
-0.01024859235697332 
7.653756318614747e-06 
0 
0 
0 
0.03954361270444809 
-0.0001767369019995701 
2.96565031616777e-05 
0.1934464119785624 
-0.1523570228429892 
-0.1642761216537937 
-3.983252607369066e-06 
0 
0 
0.0002917248931599088 
0 
0.2294526898191884 
2.047435168986539e-05 
0 
-0.05903283462339391 
0.2769259949805027 
-0.00184533543832332 
0.002579814106237547 
-0.0678409690341038 
0 
-7.685816345789157e-06 
0.05876296324411257 
0.2752572575516571 
-0.0003802542689723843 
0 
-0.07893762367062825 
-0.07339726433612352 
0 
-0.07352001689181928 
0 
0.003808391516324101 
0 
0 
-0.2743862416536542 
0.1079549923010108 
0 
0 
0 
0 
0 
-0.06132462227787637 
0.2359227712947675 
0 
0 
0 
0 
0 
0 
0 
0 
0 
0 
0 
-0.001751256954369733 
0 
0 
-2.211828567628582e-05 
0 
0 
0 
0 
0.008563797605928136 
-0.2693279397509359 
-0.2302852355884033 
0 
0 
0 
0 
0 
0 
0 
0 
-0.0001032372002211777 
0 
-0.08379541592512678 
0 
0 
0 
0 
-0.002901657506938639 
0 
0 
0 
0 
0 
0 
0 
-0.3463111270962951 
0 
-0.03009939464313414 
0 
0 
0 
0 
0.03984973052277831 
0 
0 
5.536548572102258e-05 
3.053271548165807e-06 
-7.709774192389527e-05 
-2.440639341755367e-05 
0 
0.2914114672104616 
-5.785189285364254e-05 
0 
0 
0.5616825274029565 
0.1090954340309269 
0 
0 
0 
0 
0 
0 
0 
0 
0 
-0.0004594752580079687 
-0.09596260798456177 
0 
-0.01852788754540441 
0 
0.1012701485370326 
0 
0 
0 
0 
0.0547634624138558 
3.431730529066389e-05 
0 
0 
-3.321269861594975e-05 
0 
0 
-2.054915116367864e-05 
0 
0 
0 
-6.750224638698511e-05 
0.001319794902505 
0 
0 
0 
0 
0 
0 
0 
0 
0 
0 
2.83017974774973e-05 
6.883960449012566e-06 
0 
-0.000923390679226135 
0 
0 
0.0005275133162883458 
0 
0 
0 
0 
0 
0.001274812141659963 
-0.2823599861901385 
0 
0 
0 
-8.869712042894741e-05 
0.02782480432745651 
0 
0 
-0.4777314648949201 
0.0004946702290772912 
-0.1367230371735458 
0.0813794494400083 
0 
0 
0 
-8.575355353174371e-05 
-0.04371587437821235 
0 
0 
0 
0.1283356783147488 
0 
0 
0 
0 
-0.2011054089375238 
0 
0 
0 
0 
0 
0 
0 
0 
0 
0 
-0.2618717750312408 
-7.780902574933837e-05 
-0.08115214665515619 
0 
6.22219345975013e-05 
0 
-2.824155839877967e-05 
-0.1919400989167601 
0 
0 
0 
0 
0 
0 
0 
0.00027409567570812 
0.02748289745764036 
-0.0761495474274415 
0 
0.0001072034062245711 
0 
0.1541986012547876 
0 
0 
-0.000377443268379547 
0 
0 
0 
-0.2097616811588909 
0 
0 
0 
-1.404631954026004e-05 
0.04057506048368194 
-0.2106544799709062 
-0.0001444032924609882 
0.0003306221011880146 
-0.1545993815890885 
0 
0 
-3.762004119235417e-05 
-0.0001229470884256558 
0 
0 
0 
-0.1921004144134428 
0 
0 
0 
0.04935337530440135 
0 
0 
0 
0.1059758041579034 
-0.05066159198805471 
0 
0 
0 
0 
0 
0 
-1.42984276698524e-05 
0 
-0.01016113569050969 
0 
0 
0 
0 
0 
0 
0 
0 
0.1860119143458789 
0 
0 
0 
0 
0 
0 
0 
0 
0 
7.653615599380366e-06 
0 
0.00030112455318838 
0 
0 
0 
-0.04479548733983939 
-0.07232314679991671 
-1.157814444378525e-05 
0 
0 
0.1895749065965168 
0 
0 
0 
0 
0.137700664220489 
0 
0 
0 
0.5085261875511462 
0 
0 
0.1329478773473724 
0 
0 
0.00012906532101678 
0.0001308300192043736 
0 
0 
0 
0 
5.838401148881156e-05 
-0.09419671396922941 
0 
0 
0 
0 
0 
0 
0 
0 
0 
0 
0 
-0.0001032372002211777 
-0.002663955298248078 
0 
0 
0 
0 
-0.1304652558132997 
0 
0 
-1.889882735117559e-05 
0 
0 
0 
0 
0 
0 
0 
0.0002461766487945709 
0 
0 
0.1509376877469796 
0 
-0.1215727947317832 
-0.2039871702725458 
-0.2742862539236124 
0 
-0.0003154581348492287 
5.024289298363131e-05 
0 
0 
0 
0.3263994776386894 
0 
1.930062140867985e-05 
-0.3008029416332676 
0 
0 
0 
0 
0 
0 
0 
0 
0 
0 
0 
0 
0.1865924867297695 
0 
-0.2945256187637389 
0 
0 
0 
0.246557028053651 
0 
0 
0 
-0.396011657891069 
0 
0 
0 
0 
-4.277755320554657e-06 
0 
0 
0 
0 
-1.750525640918429e-05 
0 
0 
-0.01634709756366023 
-0.0001213489166872342 
-0.0003573951797457245 
-0.0003514961273603798 
0 
0 
0 
0 
0 
1.433124286737023e-05 
0 
0 
0 
0 
-0.09465141600873925 
0 
0 
-2.950700597705608e-05 
0 
0 
0 
0.002121656829899971 
0 
0 
0.0006937722052296675 
0 
0 
8.724393241389792e-06 
0 
-0.0001292646934168548 
0 
0 
0 
-0.05302705481948579 
0 
0 
-2.283136891822703e-06 
-0.01700448631434888 
0 
-0.002311968252622526 
0 
0 
0 
1.711916038250026e-05 
-0.07314966652932677 
-0.05928217865815001 
0 
0 
0.07371681658356737 
0 
-5.034330465916767e-06 
0 
0 
0 
3.496012814439697e-05 
-0.07908109346335124 
0 
0 
0 
0 
-0.04399889762751521 
-0.0563982304788407 
0 
-0.0005084946024137465 
0 
0 
0 
0 
0 
0 
0 
-0.3152955931645595 
0 
0 
-0.06964921841531228 
0 
0 
-0.0002260748946987571 
0 
0 
0 
0 
0 
0 
0 
0 
0 
0 
0 
0 
0 
-0.1449764953658808 
0 
0 
0 
0 
0 
-4.997720580485619e-05 
0 
-0.0002371985923997365 
0.00179141383350631 
0 
0 
0.0003363609360191493 
0 
0 
-0.5562096337528791 
-0.009186143063909927 
0.0002061603166692705 
0.1521138235489447 
-0.0001527906763907189 
-1.540499945764583e-05 
0 
0 
0 
0 
0.0006216108165057205 
0 
0 
0 
0 
0 
0 
0 
0 
0 
0 
0.09087876398200344 
0 
0 
0 
0 
0 
0 
-0.007362053642652949 
0.06529851417720106 
0 
-0.07517954099704022 
-3.182996726114809e-06 
0 
0 
0.2027213054471079 
-3.774050719438626e-05 
0 
0.2211342306842613 
0 
0 
-4.65040538111934e-05 
1.225729551798344e-05 
0 
0 
0 
0 
0 
0 
0 
0 
-0.0004314091175397895 
0 
4.513298843339872e-05 
0 
-0.03966394827427178 
0 
0 
0.001969269605611144 
0 
0 
0 
-0.1665116124455406 
0 
0 
0 
0 
0 
0 
0 
0 
-0.0004553608412189679 
-0.04362053404586722 
0 
0 
-0.1124780221530535 
-0.07685312053301314 
0 
-0.0001121622729669649 
0.4358075494698156 
-0.001096403922726716 
-0.1329860770462636 
-2.686975314989101e-05 
0 
0 
0 
-0.004951773833498161 
0 
0 
0 
0 
0.0008705483539499554 
-0.2480457817964669 
-8.729615056544555e-06 
0 
0 
0 
0 
0.167249233852021 
-0.6621738024027509 
0.0009152902734095147 
-0.1253038483380887 
0 
0 
0 
0 
0 
-0.06179302190889026 
-0.04716816465126122 
0 
0 
0 
0.04664068311519425 
-0.02050314448194396 
0 
0.09508440401085157 
0 
0.0009440485266402217 
0 
-0.2280420658345355 
0 
0 
0 
0 
-0.0001358524174167338 
0 
0 
0 
-0.1348489790189172 
0 
0 
4.723198114373536e-05 
0.1589217427339181 
0 
0 
2.792857112975717e-05 
0 
0 
0 
-0.0002805762725476045 
-0.04314107173703466 
0 
0 
-0.2018105035906054 
0 
-0.07953083627562572 
-0.02991225544874123 
0 
0 
0 
0 
0 
0 
0 
-0.0002572800847495255 
0 
0 
0 
0 
0 
0 
0 
-0.002212301525939099 
-0.0004161593317377819 
0.2836523357673616 
0.5123068063535795 
0.01384699798793283 
0 
0 
0 
0 
0.3091566193206586 
0 
0.05527185513686927 
0 
0 
0 
0 
0 
0 
0 
0 
0 
-0.05958636589801658 
-1.06016520252836e-05 
-0.002148067869073173 
0.001479815283193897 
0 
0 
0 
0.08437545471616964 
0 
-2.429782563662928e-05 
-0.5543462250714705 
0 
0 
0.04229779253458321 
0 
0 
0 
0 
0 
0 
0 
-0.03679409234130903 
0 
0 
0 
0 
-0.3612536498928264 
0 
-0.0001248145298617593 
-0.5809088561298567 
0 
-0.0009851591798921166 
0 
0 
0 
-0.0002926256769005544 
0 
-0.0001986885843713774 
0 
-0.06478805789903644 
-0.0001655979520044191 
0 
-0.09140354138862031 
-4.921031847578592e-05 
0 
0 
0 
0 
0.1878468589074574 
0 
0 
0 
0 
0 
0 
1.613996262787643e-05 
0 
-0.001163398694627314 
0 
0 
-3.609318871873931e-05 
0 
0 
0 
0 
0 
-0.1425217461038054 
-0.005761374999783537 
0 
0 
0 
-0.0001308482215215039 
9.756939858556307e-06 
-0.0001408933017479311 
0 
0 
0 
-0.002224865682540621 
0.0005963751543457015 
0 
-1.174328757315145e-05 
0 
0 
0 
0 
0 
0 
0 
0 
-0.1860436246819112 
0 
-0.04786414439037494 
1.274667468098927e-05 
-0.0006791062526199086 
0 
1.757780733601328e-05 
0 
-0.1073463729757686 
-3.810485376486104e-05 
0 
0 
0 
0.01458103122980072 
0 
0 
0 
0 
-2.176799786872686e-06 
0 
0.0002910294250354647 
0 
0 
-0.1220483086414095 
0 
0 
-0.001136887601810571 
-0.0002328118934841551 
-3.679491998501276e-05 
-0.1429889031148495 
0 
-0.06575669171507234 
-5.405083950512783e-05 
-2.014196428031038e-05 
0 
0 
-2.295549092044211e-05 
0 
0 
-0.0215275898842897 
0.4899373279741703 
-0.8661387121328614 
0 
0 
0 
0 
0 
-0.001008124609270565 
0 
0 
0 
0 
-3.886865438223398e-06 
0 
0.1726347824769282 
0 
0 
0.0261353696298306 
0 
-0.0008067105319236258 
0 
0 
0 
0 
1.599183153548565e-05 
0 
0 
0 
2.216237379739281e-05 
0 
-0.06966845595334104 
0 
0 
0 
5.50436331326864e-05 
0 
0 
-0.001827200165783002 
0 
0 
-0.08329111712666684 
0 
0 
-0.05971473311396956 
-0.0003097922150296719 
0 
0 
0 
0 
-0.04369889936518963 
0 
0 
0 
0 
-0.06734182806099476 
0 
0 
0 
0 
0 
-0.202032981954648 
0 
0 
0 
0 
-6.083591239216073e-05 
0 
0 
0 
0 
-0.0004266057393217211 
0 
0 
0.00270045058911004 
0 
0 
0 
0 
0 
0 
0 
-0.1364571737859969 
0 
0 
0 
0 
0 
0.0005122776205162029 
-0.1342527295147687 
-0.0003159605361236968 
0 
0 
0 
0 
-0.1116693984685579 
0 
0 
0 
-0.1115725099347915 
-0.06470207685649902 
-6.802511938152437e-05 
2.222742168519176e-05 
-0.0001909505122890621 
0 
0 
-0.004082941262895986 
0 
-0.1363825869404762 
-0.02390602843204321 
0 
0 
0 
-0.2328300898843225 
0 
0 
-0.3850314469855292 
-0.2169846489780633 
-0.2549073206438484 
0 
-0.0003108184912583775 
0.007092640331824874 
0 
0 
0 
0 
-0.06384898589229129 
-0.0002202390739046964 
0 
0 
0 
0 
-0.1781535503239466 
0 
-0.002766306230043869 
-0.09313087030320097 
0.2082624686181192 
0 
0 
0.1524230329544742 
0 
0 
0 
0 
0 
0 
0 
0 
0.2090758737845902 
0 
0 
-0.1634462528586842 
-0.0324671017544391 
-0.1599604628904194 
0 
0 
0.000235351682535322 
0 
0 
0 
0 
0.05324640223917682 
-0.1328548620096417 
0.0001439519889048367 
0 
0 
0 
-0.1347634896015049 
0.1249963752811739 
0 
0 
0 
0 
0 
-0.1066967961519857 
0 
0 
0.07567971952707932 
0 
-0.09625520227987337 
0 
0 
0 
0 
0 
0 
1.773785122256448e-05 
0.0002861510039961796 
0 
0 
0 
0 
0 
0 
0.06529851417720106 
0 
0 
0.001582465121806261 
0 
0 
0 
0 
0.3271209704292072 
0 
0 
0 
0 
0.1299033897692729 
0 
0 
0 
0 
0 
0.105933454644659 
0 
0 
0 
-0.07929751122429614 
0 
-0.07061418565638571 
0 
-0.1703353593836576 
0 
0 
-1.858671484836628e-05 
0 
0 
0 
0 
0 
0 
0.3830602799069558 
0 
-0.0002594216832505038 
0.007956143654828357 
-0.07575048131110421 
0 
0 
0.001757071253119206 
0 
-0.1986781666333957 
1.406411567041609e-05 
0 
-0.03505877209012949 
0 
0 
0 
0 
0 
-0.03498922236335471 
0 
0 
0 
0 
0 
0 
0.4358697428924547 
0 
-0.1535087819042222 
-0.05435828719867788 
-0.0001708892546816815 
0 
0 
-0.0006311865571156791 
0 
0 
0.0006105558606699323 
-0.1805781282639788 
0 
0.1118743760283537 
0 
0 
0 
0 
0 
0 
-0.1192930013554858 
0 
0 
0 
0 
0 
-0.1431523347040613 
0.1282206924230459 
-3.272798085294376e-05 
0.000739752607305421 
0 
-0.001738312577980033 
0 
0 
0 
0 
2.487106447788589e-07 
0 
0 
0 
0.000108118065682542 
-0.07642127985476665 
0 
0.09831970669958001 
0 
-0.04475224129181024 
0 
-0.1368071633279199 
-0.0842172075625368 
-0.2444202270019621 
0 
0 
-0.1881496303631678 
-0.09305554121139212 
-0.0003599164896129197 
0 
-0.2358083587568916 
0 
0 
8.483053261408606e-06 
-0.1421901542830034 
0 
0 
4.204906786621786e-05 
0.1565717485075435 
8.294621009662677e-07 
-2.472549512361235e-05 
0 
7.000256411073997e-05 
-0.180636659318601 
-0.0001433152117995829 
-0.007678374039982932 
0.1130944569251979 
0 
0 
0 
0 
0 
0 
0.1507748238663485 
0 
0 
0.002987314537301063 
0 
0 
0 
0 
0 
-0.0003650072076340847 
0 
4.867735878529719e-05 
-0.02686944449239266 
0 
0 
-0.7393401373941414 
0 
-6.226255090631253e-05 
0 
0 
0 
0 
0.08638063141260828 
0 
0 
0 
0 
-0.09078256555715739 
0 
0 
0 
-0.2467957161796999 
-0.1029626984439444 
0 
-2.389091686513141e-05 
0 
0 
0 
0 
-0.1855263418007548 
-0.08451595517283611 
0 
0 
0 
0 
0 
0 
0 
0 
0 
0 
0 
-0.05696917432893795 
0 
0.2312553758291641 
0 
-0.3631463535889535 
-0.1669029716681047 
0 
0 
0 
-3.100701166082645e-05 
0 
-0.1894135512473641 
0 
0 
0.0399089257912104 
0 
-0.02708950990327054 
0 
-0.008088993185744121 
0 
0.1608405706936405 
0 
0 
-0.0005180260719056589 
0.1147069196541595 
0 
0 
-0.0001075819091190454 
-0.0879493082961155 
0 
0 
0 
0 
0 
-0.0003106268826518681 
0 
-0.1631472897559093 
0 
0 
0 
-0.1101661593253291 
-0.286721346756472 
0 
0 
0 
-0.01306127202574463 
0 
0 
-0.006181442469843961 
0.1273074859312394 
0 
-9.36978719165882e-06 
0.0003620075142527887 
2.021631092630203e-06 
3.443224776112925e-05 
0 
0 
0 
0 
0 
0 
0 
0 
0 
0.1589859918998139 
0 
0 
0 
0 
0 
0 
0 
0 
0 
-0.0299399007843172 
0 
0 
0 
0 
0.05225753080864583 
0 
-0.09438915165112105 
0 
0 
0 
-8.519077472015417e-06 
0 
0.1588339524236531 
0 
-4.826892464607479e-05 
0 
0 
0 
0 
0 
0 
-0.2159551287229842 
0.1518203040179968 
0 
0 
0 
0 
0 
0 
0 
0 
-0.02077214516091095 
0 
0 
0 
-0.06970350533236874 
0 
0.08452656558702233 
0 
4.900274840568945e-05 
0 
0 
0 
0 
0.01232924075697125 
-0.04823159266855359 
0 
0.001552655472872927 
-8.371564394606579e-05 
0.1870738591013311 
0 
0 
0 
0 
0 
0 
0 
-0.04246929268841166 
0.0524578188329199 
0.0002835013565332853 
0 
4.232693750991822e-05 
0 
4.094845917804475e-05 
0 
0 
0 
0 
0 
0 
0 
0 
0 
3.685307469228576e-05 
0 
0 
0 
-0.008263702711071401 
0 
0 
0 
0 
-7.964859481695836e-05 
0 
0 
0 
-0.001277071015794626 
0 
0 
0 
-0.001004913575596628 
0 
9.992216656810577e-06 
0 
0.3221286779131379 
-0.02685568378649947 
0 
0 
0 
0.1956200472663134 
0 
0 
0 
0 
-0.01633173682277118 
-0.04103518352975995 
0 
0.0003741230700102225 
0.0118758210967057 
0 
0 
0.01054381215634314 
0 
0 
0 
0 
0 
0 
0 
0 
0 
0 
0.06555916620916924 
0.02175741655975106 
0 
0 
1.502254829628513e-06 
4.622182927673451e-05 
0.0003951063758275935 
0 
0 
0 
0 
0 
2.581396616245198e-06 
-0.01138083869013172 
0 
-6.71865706369903e-05 
0 
0 
-3.973734329714234e-05 
0 
0 
0 
0 
0.1007553804772834 
0 
0 
-0.01270972360508666 
0 
0.3485912493611008 
0 
0 
0 
-0.121592763131913 
0 
0.3452895069926556 
0 
0 
0 
0 
-0.0035697448543469 
0 
0 
0 
0 
0 
0.03940384200288993 
-2.383753449463057e-05 
0 
-0.1301555833912579 
0 
0 
0 
0 
-3.044127361332354e-05 
0.01542710404630065 
0 
2.093767917698712e-05 
0 
0 
0 
0 
-0.08044820086368779 
0 
0 
-0.02691666287803943 
0.09914765096227146 
-0.03099469618837538 
0 
0 
0 
0.1089130221623887 
0 
0 
0 
0 
-0.003525623304367028 
0 
-0.00299416037969023 
-4.67103391946399e-05 
0 
-0.09827139028396614 
0 
0 
0 
0 
-0.09305554121139212 
0 
-0.009069686032634777 
0 
0 
0 
0.4933836636473296 
0.1783437666951391 
0 
0 
0 
-0.1203493794900452 
-0.007752017275589726 
0 
0 
-0.01360016754175019 
0 
0 
-0.0003091660976244667 
0 
0 
0 
0 
-0.02157148542769424 
0 
-0.1548392794067035 
0.0009931911141949088 
-3.175134969473752e-05 
0 
0 
0.04855934977457902 
0.1934464119785624 
0 
0 
0 
0 
0 
0 
0 
0 
-0.0003293955180684413 
-0.2200305042476709 
0 
0 
0 
-0.09439545026661592 
0 
0 
0 
0 
0 
0 
4.944616675820905e-05 
-1.340621862484383e-06 
0 
0 
-0.0003432480300536223 
0.1664326939736216 
0 
0 
-0.09007084753446161 
0 
-0.09019728675460223 
0 
0 
0 
0.02976159428032208 
0 
0 
0 
0 
0 
0 
-0.03631681854593781 
0 
0.4301242439010913 
-0.09975097979593144 
0 
-0.006226047148925056 
-2.039317719271069e-05 
-0.1181192775828462 
0 
0 
7.60568294806113e-05 
0 
-0.0002188631708078062 
0 
0 
0 
0 
-0.08301032119390971 
-0.001064848197956044 
0.07442951579675446 
0 
0 
0 
0 
0 
-0.0006090840371624016 
0 
-0.2773398774476967 
-0.008782587440700788 
0 
1.780936734613248e-05 
0 
0 
0 
0 
0 
0 
0 
0 
-3.30348449190804e-05 
0 
0 
0.001073970301426023 
0 
-0.001988031387818199 
0 
0 
0.0005507290453739355 
0 
-3.76201150459963e-05 
0 
-0.001797993975111954 
0.05136306127859493 
0 
0 
0 
0 
0 
0 
0 
0 
0 
0 
0 
0 
0 
-0.03661265717763545 
0 
0 
-0.004126318353708846 
0 
0 
0 
0 
8.355525994997959e-05 
-0.0951447007582867 
0 
0 
-4.87528562995302e-06 
-0.6576523224754373 
0 
0 
0.0007915276417691554 
0 
-0.04618074666970982 
0 
6.38658814556547e-05 
0 
-0.07386613054476596 
0 
0 
0 
0 
-0.004128759717127537 
0.03672820829611238 
0 
0 
-0.03423924813154901 
0 
0 
-0.04839145417116597 
0.1858726187647169 
0 
-0.0001288871226132347 
-0.1658145414690951 
0 
-0.09091013136700843 
0 
0 
0 
0 
-0.0001296358869457243 
0 
0.001887011376519196 
0 
0 
0.009521320638985163 
0 
0 
0 
0 
0 
-0.1841635385079513 
-0.1159868392233317 
-0.08542690200756312 
0 
0 
0.0001229820284234477 
-0.1623606817115944 
0 
0 
0.1681433161550751 
0.07106198338478061 
-0.05473756728895471 
0 
0 
0.06122187064292267 
0 
0 
0 
0 
-0.000471165606298133 
-0.1201961549406858 
0 
0 
0.05324640223917682 
0.0001085072997690296 
1.932869867601897e-05 
-0.053088761096728 
0.2630739220729961 
0 
2.677586377901438e-05 
0 
0.09511620477732202 
0 
0 
0 
0 
0 
-1.242542441963292e-06 
0 
0 
0 
0 
0 
0 
0 
0 
-0.002988107378828361 
0 
0 
0 
3.36413770303839e-05 
0 
0 
-0.0576631508332882 
3.999941196461347e-05 
0 
0 
-3.973734329714234e-05 
0.002821260204655059 
-0.1503111577557747 
0 
0.1107236325503121 
-0.0001284222090388834 
0 
0.005799056809055677 
0 
-3.589577446289717e-06 
0 
0 
0 
-2.879341585256376e-05 
0 
0 
0 
0 
-4.025073032922383e-05 
0.03441622191063458 
0 
-0.1516775818304968 
0 
-0.0003400043353877572 
-0.1093382890845487 
-0.002028712774647552 
0 
0 
0 
0 
0 
0.3439677036951397 
5.127575213475385e-05 
0 
0.02102873151452929 
0 
0 
0 
0 
0 
0 
-0.001709159784511886 
0.1214966584446145 
0 
-0.09249898358963887 
0 
-0.03667327632665163 
0 
0 
-0.005169252567007852 
0 
0 
0.0003687216699601466 
0 
0 
0 
-0.001416550729517936 
-0.07180717236185594 
-0.2120883589341767 
6.305837527612615e-05 
-0.0009932700479622944 
0 
0 
0 
0.06530803262892949 
0 
0 
0 
0 
0 
0 
0 
0 
0 
0 
0 
0 
-0.5013393355205595 
0 
-0.01640252557921466 
-8.824596082296858e-05 
-0.09440760963537152 
0 
0.00708198602812175 
0 
0 
0 
0.0237003083313881 
-0.2942523300899073 
0 
0 
0 
0.06584343608825435 
0 
-0.06631397044971203 
0 
0 
0 
0 
0 
0 
0 
0.05896464180981704 
0 
0 
0 
0 
0 
0 
0.00202676957615362 
0 
0 
0 
-0.0001107948229732596 
-0.002966408838602715 
0 
0 
0 
0 
0 
0 
0 
0 
0.0009941677213614131 
0 
0 
0 
0 
0 
0 
0 
0 
0 
0 
0 
-6.471941653509836e-06 
0 
0 
-0.1477260762335312 
-3.76201150459963e-05 
0 
0 
0 
0 
0 
0 
-5.851333346623198e-06 
0.1297812233170297 
0 
0 
0 
6.920148285125564e-06 
0 
0 
0 
0 
7.129375816634783e-06 
0 
-0.1926444365483236 
0 
-2.787895910913922e-05 
-8.095312096130671e-05 
0 
0 
0 
0 
0 
0.0007046026104498286 
0 
0 
-0.0002371272140547236 
0 
0.0651003580334085 
0 
0 
0 
-3.984378843326089e-05 
0.2066085206916833 
-0.1301321113340381 
0 
0 
1.386538000430376e-05 
0 
-0.0004405350133995234 
0 
0 
-0.03244827849104617 
0.0002585490681923424 
0.05244453029279714 
-0.007798909089382317 
0.04493658684641792 
0 
0 
0.0001856462950233745 
0 
0 
-1.264009563034181e-05 
0 
-0.2441942022738236 
0 
0.3538315460017878 
0.224989798737161 
0 
-0.02563920214912785 
0 
-2.63256657138691e-05 
0 
0 
-0.000136987467878382 
0 
-0.1345477861622141 
2.203520232635393e-05 
0 
0 
3.505718311500946e-06 
0 
0.000132451812844521 
5.545173066830163e-06 
0 
0 
0 
-7.406214565820114e-05 
0 
0 
0 
0 
0 
0 
-1.876568727960482e-05 
0.3110629475576748 
0 
0 
-0.002298666815780568 
0.2049670935116005 
0 
0 
-0.1500803252955625 
-0.09873744607452334 
0 
0 
-0.0001489887953028449 
0 
0 
0 
0 
0 
0 
0 
0 
0 
0 
0.04664068311519425 
0 
0 
0 
0 
0.06928593066033069 
0 
0 
-4.665592153766288e-05 
0.0001957114130663291 
0 
0 
0 
-0.003369144188075903 
0 
-0.07501007828732205 
2.66636394098348e-05 
-0.1249739593375223 
0 
0 
0 
0 
0 
0 
0 
0 
0 
-0.10380920447829 
-1.763019126395273e-05 
0 
0 
0 
0 
0 
0 
0 
0 
0 
0 
0 
-0.07740311448297872 
0 
-0.1527741533664182 
0 
0 
0 
-0.023811425545018 
2.828454737413563e-05 
0 
0 
0.08837630825963602 
0 
2.495206965824442e-06 
0 
0 
0.1947839528771035 
4.657180510681963e-06 
0.06267049407967847 
0 
-0.1947884081834984 
0 
0 
0.002243763162823304 
-4.915593923944642e-05 
0 
-0.05765965045020913 
0 
0 
-0.01352071010455207 
0 
0 
0 
-0.02851337479644891 
0 
0 
-9.430919871262344e-05 
0 
0 
0 
9.004019118298481e-05 
0.05782243595523048 
0 
-0.07957649367862391 
0 
0 
-0.1944333375359627 
-0.1142091173206701 
0 
-0.0001056661046473102 
-0.03926454814900897 
-0.001494062559719779 
-8.427818633190068e-06 
0 
0 
0 
0 
0 
0 
0 
-0.02265781662650651 
0 
0 
0 
0 
0 
-0.3598969264423649 
0 
0 
0.0443272880317293 
0 
-0.1296844036230612 
0 
0.1276508481575975 
-0.001325202447935225 
0 
0 
0 
0 
0 
-0.01233672634558136 
-0.07106615421817368 
0 
-0.0002985432250916551 
0 
-0.03857930733817557 
0 
0 
7.525879258198152e-05 
0 
0 
0 
0 
-0.0001173731343233243 
0 
0 
0 
0 
0 
0 
0 
0 
0 
0 
-2.546750957638379e-05 
0 
0 
0 
-0.01126700045403157 
0 
0 
0 
0 
0 
0 
0 
-0.0005944459057903859 
0 
-0.00184670896019093 
0 
0 
0 
0 
2.286286736786113e-06 
0.1142209363371386 
0 
0 
-0.1934464119785624 
0 
-0.2072264084839721 
0 
-0.0001342897047143912 
0 
-0.1349423461868334 
0 
0 
0 
0 
0 
8.823345987141833e-06 
-0.1588774165380609 
0 
6.188999803314102e-05 
9.893760788924616e-05 
0 
0 
0 
-0.05130392052421823 
-0.1359804020237571 
0 
-0.1770420923169103 
0 
0 
9.690363733900825e-08 
0 
0 
0 
0 
0 
0 
0 
0 
0 
0 
0 
0 
-0.003251476615369826 
0 
0 
1.464048785858367e-05 
0 
0 
0 
-0.135219240180065 
0 
-0.01206578849338 
0 
0 
0 
0 
0 
0 
0 
0 
0 
0.001047684646844468 
0.3515779115865278 
0.2420805869097565 
0 
-0.06482864574767294 
3.979853170872421e-05 
-0.0003847592387774472 
0.2471549515785984 
0 
0 
0.1485969083356829 
0 
0 
0 
-0.178158480840758 
0 
0 
0 
0 
0 
0 
0 
0.1338919767387195 
0 
0 
0.005973003132629728 
0 
0 
0 
0 
0 
0 
0 
-3.914437993267666e-05 
-1.748275728115432e-05 
-0.03112172395210675 
0 
0 
0 
0.166204678151145 
-0.4318263528267668 
-0.02524530675993737 
0 
0 
0 
0 
0 
0 
0 
0 
0 
0.271648819376347 
0 
0 
0.05233737088999908 
0 
-0.0005419908053596134 
0.0935065484692672 
0 
0 
0 
4.114507686807508e-05 
0 
-0.02319280386046006 
-0.1770337845929819 
0 
0.1482838571070193 
0 
0.001801191355225438 
-0.001410771483064248 
0 
-0.01046434174420481 
0 
-0.04617690614105219 
1.940817727892225e-05 
-3.964791932882195e-05 
0.04230436779709013 
-0.02975612061783803 
0.0006639938879137433 
0 
0 
0 
0 
0 
0.2723137909750038 
0 
0 
0 
-0.2582508956949898 
0 
-1.620251181490018e-05 
0.2360076737532236 
-0.7743884960850822 
0 
0 
0 
0 
0.119262891521636 
-0.0360752753755241 
0 
8.514487824659226e-05 
0 
0 
-0.1934464119785624 
8.742739855211693e-05 
0 
0 
0 
0 
0 
-0.08458097795512402 
0 
-0.1622783735573791 
-6.619977028243436e-07 
5.550726170147112e-05 
0 
0.03804597593980181 
0 
0 
-0.00361254141848415 
0.1686812531842219 
0 
-0.01310821167709656 
0 
0 
0 
5.676177456051465e-06 
0 
0 
0.0002910294250354647 
-9.677249616807019e-05 
0 
0 
-2.760738353415103e-05 
-0.000300824930999598 
-0.4115703799758417 
0 
0 
0 
0 
0.06993856777711165 
0 
0.001766625802066804 
0 
0 
0 
0 
0 
0 
-0.1350442540306608 
-0.0755040165603148 
0 
0.06601017419010993 
-0.2296177363825876 
4.889503350658544e-05 
0 
0 
0 
-2.982382586781309e-05 
0 
0 
0 
0 
8.533114721695208e-05 
0 
0 
0 
-0.0001888228292180917 
0 
0 
0 
-2.017322803751607e-05 
-1.030784044762704e-05 
-0.124523642350334 
0 
0 
0 
-0.000107510831655869 
0 
0 
0 
0 
0 
0 
0 
-1.442220529341946e-05 
0 
0 
-0.0003909220455909925 
-0.01435067365870341 
-0.8723273909017506 
0 
0 
0 
-0.0009347910175910032 
-0.1044063430150334 
0 
0 
0 
0.1190162790004831 
0 
0.115872604094344 
0 
-4.092893362914581e-05 
0 
0 
0 
0 
-0.1625266785507668 
2.144141047430125e-05 
0 
-1.966365353943414e-05 
-0.04140550468995129 
0 
0 
-1.11066133175649e-05 
-0.1888307968994351 
0 
-0.6753966723168053 
0 
0 
0.147596283496451 
0 
0 
0.0005275133162883458 
0 
-0.0009857162861597142 
0 
0.3258459558888876 
0 
-0.1478890295522821 
0 
0 
-0.202220592707845 
-4.205246110407227e-05 
-0.04236461588267489 
0.0001075418842216392 
0.1129729133420139 
0.0002135295486965365 
0 
0 
-0.0198869636819038 
0 
0 
0 
-0.06682826726047589 
0 
0 
0 
0 
0 
0 
0.1668062219715533 
0 
0 
-0.000381782611278793 
-0.0001280831854681669 
0 
-0.182945718637349 
0.01010611127315898 
0 
0 
0 
0 
0 
0.02327482525661146 
0 
0 
0 
0 
0 
-0.05636900943600038 
0 
0 
0.07793614395130738 
0 
0 
0 
0 
0 
0 
-0.0222555123450183 
0 
0 
0 
-0.03440412189020228 
0 
0 
0 
0.109918437960617 
-0.1004044991381139 
0 
0 
-4.665592153766288e-05 
-0.2909908077099305 
0 
0.009840707520420527 
0 
0 
0 
-2.475437649736964e-05 
-3.862565552225044e-05 
1.449747837661162e-05 
-4.029622052943138e-05 
-1.852764746713174e-05 
0 
0 
0 
0 
0.0008922218162933778 
-0.07254374180052757 
0.118620930041007 
-0.1103338507665343 
3.190514420728526e-05 
0.324189530656745 
0 
0 
0 
0 
0 
6.369232467813931e-05 
0 
6.030940235252938e-06 
0 
0 
0.04563971839844681 
0 
-0.2570205095103222 
0.007843442484768488 
-0.05048541901639172 
0 
0 
-0.0001735745452339305 
0.0008773605828110696 
4.636561976719759e-05 
0 
-0.1002176489310305 
0.2971808730523889 
0 
0.004921405776844436 
-0.02592172034216725 
0 
0 
0 
0 
0 
-0.2139089108545074 
0 
0 
0 
-0.03868508967287446 
-0.01843524263471091 
0 
0 
0 
-0.1265622039556087 
0 
0 
0 
0 
6.220901899496104e-05 
0 
0.06806705770103882 
0 
0 
0 
0 
0 
0 
0 
0.00163986176872621 
6.928326738424767e-05 
0 
0 
0 
0 
0 
0 
0 
-0.218303484058624 
0 
0 
-0.2077174657896303 
0 
-0.3415517815626784 
0 
0 
0 
0 
0 
0 
0 
0 
0 
0 
0 
0.007739975686460555 
4.867735878529719e-05 
0 
0 
0 
-0.1914485693205287 
0.1632261069800102 
0 
0 
0 
0 
0 
2.484647793316135e-05 
0 
0 
0 
-0.0004074804912106566 
0 
-4.391304661736096e-05 
0 
0 
9.52626582521805e-05 
-0.03448576579312093 
-9.465086335960977e-05 
0 
0 
0.0001386382528227237 
0 
0 
0.002231645784335122 
-0.0003859517282171424 
0 
0 
0 
0 
-0.0005230341944764965 
0 
0.1072889831539364 
-2.861413337658142e-05 
0 
0 
0 
0 
0 
-2.977414169840306e-05 
0 
0 
0 
0 
0 
0 
0 
0 
0 
0 
-0.001085440231887686 
0 
-0.04772266534642457 
-0.005178380096052744 
0 
-0.154079857758361 
1.633800620610828e-05 
0 
0 
0 
0 
-0.0002483709183673357 
0 
-0.5036705918693083 
0 
0 
0 
0 
0 
0 
0 
-0.07043182817550205 
0 
1.836061817576393e-05 
0 
-0.05954193681495429 
-1.160210124940837e-05 
0 
0 
-0.07337060497330238 
-0.0001215810295942488 
-0.109067953321533 
-0.0001105868699923779 
-0.001013063242297119 
0 
-0.05252708178690937 
0 
0 
-0.04885560631866936 
0 
0 
0 
0 
0 
0 
0 
-0.0658569888204561 
0 
0.007956143654828357 
0.03145320121103136 
0 
0 
0 
0 
0 
0 
0.002249474022186641 
2.157271335030236e-05 
0 
0 
-0.05392894213131452 
-0.3853239449139851 
-0.1290538550216277 
3.919026217418427e-05 
0.006164833565009558 
0 
-0.0003822001257001791 
0.1283522680616472 
0 
0.003810478126948743 
0 
-0.119116272666218 
-0.0001091546765837757 
-0.1110020400925506 
0 
0 
0 
0 
-0.05717230818737944 
0 
0.06780975097510811 
0 
0 
0 
4.857908549453318e-05 
0 
0 
-0.04324643049904391 
0 
-0.4512968221130282 
-0.04484534231093444 
0 
0.1192102154231733 
0 
-0.04977328440456508 
-0.1762501127514765 
0 
0 
0 
0 
0.02403838800562032 
-0.02013742622869076 
0 
0.1758318476521849 
0 
0 
0 
0 
0 
0 
0.000446665869288131 
-0.1024494016845785 
0 
0.154370315836259 
0 
0 
0 
6.758726664627714e-05 
-0.1017842286617333 
0.1512622848245368 
0 
-0.1195270731363978 
0 
-0.07109912065717489 
0 
0 
0 
7.155107950669008e-06 
0 
-0.000180261567311908 
0 
6.506782901750809e-06 
0 
0 
0 
0 
0 
0.2645444928926745 
0 
0 
0 
0 
0 
0 
0 
-0.1032921798940755 
0.002778775996219592 
0.0413558052122182 
-0.09538626829146285 
0 
0 
-0.0003662273422804794 
0 
0 
0 
0 
0.001886210181235915 
0 
0 
0 
0 
0 
0.1138953674590812 
0 
0 
0 
0 
0 
0 
0 
7.688222443427484e-05 
-0.02198939321086225 
-0.008100205089323291 
-5.598786371987085e-06 
0 
0.01182510680315971 
0 
-0.1287425727694629 
0 
0 
5.285055405402958e-05 
0 
0 
-0.1631165080447862 
0 
-0.048102205057398 
0 
0 
-0.04945392901950203 
0.2305365409234612 
-0.1588397783031825 
0 
0 
0 
0 
-0.1242245886584965 
0 
-2.14739985225842e-05 
0 
0 
0 
0 
0.1819269341743924 
0 
-0.001725452961692778 
0 
0 
0.2434661433689995 
0 
0 
0.005746166887379712 
0.150577725280772 
0 
0 
0 
0 
0 
0 
-0.1020743942078808 
0 
4.625162840486292e-05 
0 
0 
-0.1492491918346901 
0 
0 
0 
0 
0 
0 
0 
0 
-0.0006861150579331367 
0 
0 
0 
0 
0 
0 
0 
0 
0 
0 
0.02242681633483582 
0 
0 
0 
0 
0 
0.006480077815409883 
0 
0 
0 
0 
-0.7519795745747564 
0 
0 
0 
-1.854005761806254e-05 
0 
-0.08274458962444158 
0.006164833565009558 
-0.0001293588820897067 
0 
2.609613100443643e-05 
0 
0 
0.000535174962433159 
0 
0 
0 
0 
0 
6.375589897998974e-05 
0.1729434635979653 
0.09028072188814631 
0 
0 
0 
0 
0 
-2.58400820185945e-08 
0 
0 
0 
-0.0002194999539880841 
0 
0 
0 
0 
-0.09233655058442633 
-0.08375436745548742 
2.681313145890179e-05 
8.351642491756492e-06 
0.001470877080260675 
0.00277178100709044 
0.2465799259671342 
0 
0 
0 
1.688538805390058e-05 
0 
-0.0002985432250916551 
0 
-0.0005562920126783229 
0 
0 
-0.0004824193955727035 
0 
-0.06133550998483869 
0 
-0.00684017768340511 
2.796142001084209e-05 
-0.3716272409144222 
0 
-0.0637550905303752 
0 
0.1428807800054466 
0 
0 
0 
0 
0 
-2.434361075912849e-05 
0.001831485959844298 
-0.0001021167235682817 
0 
0 
0 
0 
0 
0.01859743358777338 
0 
-0.002877997772551372 
-0.02289521869576419 
0 
3.243069151427167e-05 
0 
0.008469485163953037 
0 
0 
0 
0.1322928721800598 
0 
0.2532033867025092 
0.002870466068707028 
-1.22786890675839e-05 
0 
0.0009554326452556705 
0 
0 
0 
0 
-0.1212985645509575 
0 
0 
0 
0 
0 
3.997046467089631e-05 
-0.1625494065961989 
6.579023978488424e-06 
0 
0 
0 
0.06058710219180091 
-0.1279506366619803 
0.0006469442003799804 
0 
-0.07383240564619561 
0 
0.001433477562724098 
0 
0.3461519262973527 
-0.1043088917244654 
0 
0 
0 
0.2030005510367136 
-1.128735926866505e-06 
0 
0 
0.1395582779166898 
0 
0 
0 
0 
0 
0 
0 
0 
-0.1991165910662648 
-0.3958846726168489 
0 
0 
0 
-0.2424482515205719 
0 
-0.2643758866516897 
0 
0.03954361270444809 
0 
0 
0 
0 
0 
0 
-0.000136993849314566 
0 
0 
0.09197727314458842 
0 
0 
0 
0 
1.35041047375917e-05 
4.994876266056518e-06 
-0.0004138176168902064 
-0.03587931022283595 
0 
0 
0 
0 
0 
0 
0 
0.07403237317007527 
2.603626076389956e-05 
0 
-0.1347547659780169 
0 
0 
0 
-0.05131150846588531 
0 
0 
0.2391840794937007 
-0.08569376277217731 
0 
-1.246700678654922e-05 
0 
0 
0 
0.000667895898931339 
0 
-0.3756528445232383 
0 
0 
0 
0 
0 
0 
0 
-1.522468775560368e-05 
0 
0 
0 
0 
0 
0 
0 
-0.0004188731948016645 
0.0005770987813312942 
-0.1964912625274123 
0 
-0.02151455140549327 
0 
0 
0 
0 
0 
-2.718528515444558e-05 
0 
0 
0 
4.880001159757979e-08 
0 
0.1768057187789178 
0 
0 
0 
0 
-5.680264017864057e-05 
0 
0.001624682503002111 
0 
0 
0 
0.09744736101217143 
-0.4869488752127422 
0 
-0.03945104689042429 
0 
0 
0 
0.3845339618532218 
0 
-1.827264005530238e-05 
-0.04548038726085923 
0 
0 
0.0008639730443872808 
-0.1665713671730098 
0.3636328735345004 
0 
0 
-0.02675879457998874 
0.001028772409299585 
-0.2882882241232873 
1.383353015090382e-05 
0 
0 
-0.1871861232587219 
0 
0.03757459557819815 
0 
0 
0 
0 
2.571219149108854e-05 
0 
0.0003710268580740027 
0 
0 
0 
-0.02529549479602527 
0.2087503098538379 
-0.04534591463215439 
-0.1600942412451726 
0.04664068311519425 
0 
0 
0 
-1.144645124052314e-05 
-0.03391615745827994 
0 
0 
0 
0 
7.484001578001928e-06 
-0.009459772487743646 
0 
0 
0 
0.1188630180644078 
0 
0.1392117824789457 
0 
0 
0 
0 
0 
0 
0 
-0.0001015051278190987 
0 
0 
-0.004349128756313159 
-1.09955620617956e-05 
-3.894504396915208e-05 
-3.76201150459963e-05 
0 
0 
0 
0 
0 
0 
-0.0001166591075076644 
3.172508055254112e-05 
0 
0.02863599714872767 
0 
0 
-0.000150452638917028 
0 
0.0006138405251656265 
-0.1292247931201202 
0 
0 
0 
0.06593989336737677 
-0.000294521987470449 
0.05540662528856291 
-0.4202442374151844 
0 
-0.0007004545856704398 
-0.0001989546127246824 
0 
0 
0 
3.161529524709289e-05 
0 
0 
0 
-0.0001039482676772311 
-0.2598926823772783 
0 
-0.3839428813160472 
0 
0 
-0.0007586827894003798 
0 
0.01056921192605585 
0 
0 
-0.2292057464772586 
0 
0 
-0.0008281965481718814 
0 
-0.5928726820017263 
0.0002231024082064954 
0 
0 
0.09629314004017711 
0 
0 
0.03915574434556082 
0 
0 
0 
0 
0 
0.01086893835005013 
-0.0001634035967871519 
0 
0 
0 
0 
0 
0 
0 
-1.879338515928013e-05 
-0.02809161501044079 
0 
0 
-0.0001373858507503701 
0 
0 
0 
0 
0.05762353572621921 
0.000368168436553839 
0.04192136699839961 
0 
0 
0 
0.07729406622214545 
0 
0.0004264865906686763 
-2.647902307147457e-05 
-0.0001413173931139504 
-0.2657509736352979 
0 
0 
0.1162289455420023 
-0.1692347237098278 
0 
0 
0 
0 
0 
8.12595300403923e-05 
-0.0366643895450724 
8.78945080379421e-05 
-0.05654245303764145 
0 
-0.0550773256332077 
0 
0 
0.02327482525661146 
-0.5429261278237398 
0 
0 
0 
0 
0 
0 
0 
0 
-0.1552137874875966 
0.07534740324952638 
0 
0 
-0.0001401671390691084 
0 
-5.919467128475233e-06 
0 
0 
0 
0 
0 
0 
0 
0.2536534674386168 
0 
0 
0 
-0.0002097910197829519 
-3.506448059625608e-05 
0 
0 
-6.639223607618567e-05 
0 
0 
-0.09330475337353648 
0 
2.80784740286493e-05 
-0.2116623779443441 
-0.0002825512928943263 
0 
0 
0 
0 
-0.9208237185800043 
0 
0 
0 
0 
0 
0 
0 
0 
0.1152130185591713 
0 
0 
0 
0 
0 
0 
-2.341339658447938e-05 
0 
0 
0 
0 
-5.433315853431078e-05 
0 
0 
0 
1.629556738546095e-05 
0.1006500940425645 
0 
-8.43758366929258e-05 
0 
0.04969426709274953 
0 
0 
0 
0 
0 
-0.1873772026719285 
0 
0.2423481569313302 
0 
0 
0 
0 
-4.4158439052385e-05 
2.251681603486915e-05 
-0.0004357687454799534 
0.4844326888279119 
0 
0 
0 
0 
-0.07708559287620971 
0 
0 
0 
0.0003967005218770401 
0 
0.03829036934501234 
0 
0 
0 
0 
0 
0 
0 
-0.05420483259354762 
-0.151790383019455 
0 
0 
0 
-0.1013390526539865 
0 
0 
0 
0 
0 
0 
0 
0 
0 
9.327648532605934e-05 
0 
-0.08470505264334813 
0 
0 
1.4853006917674e-05 
0 
0 
0 
0 
-0.02002601920410885 
0 
0 
0 
0 
-0.0008882423346140717 
0 
0 
-0.0001356871294663157 
0 
-0.4188237191384586 
0.0006697904125474771 
0 
0.03786644355180686 
-4.393196234982446e-05 
0.1504101812096284 
0 
0 
0 
0 
0 
0 
0 
0 
-0.0947324739555367 
1.002102285534551e-05 
0.1398051924887355 
0 
0.3381555176928518 
0 
-0.01674704277352161 
0 
0 
0 
0 
-6.131775883295811e-05 
0 
-0.05098780041459854 
0 
-6.400203731204988e-06 
-4.828487928078704e-05 
0 
3.607902835993351e-05 
0 
-2.755615244064448e-06 
0 
0 
0 
0 
-9.736691348644182e-06 
0 
-1.934972942536301e-05 
0 
0 
-0.09698797979005408 
-0.0001029134796677172 
0 
0 
0 
0.3632477087073941 
-0.4171479718469167 
0.2097510896421678 
0 
0 
0 
0 
0 
0 
0 
0 
0 
0 
0 
0 
0 
0 
0 
0 
-0.1748331632153453 
0 
-0.01964296424053773 
0 
0 
0 
-0.0455527203002828 
0 
0 
0 
0 
0 
-0.2051891691863521 
0 
0 
-0.1436619516584926 
0 
-0.03256784246118272 
0 
0.001107024882527623 
0.08138955817532642 
0 
-0.08306079892776325 
0 
-0.5540602802574701 
0 
0.1495245914337433 
0 
0 
0 
0 
-9.798336470183557e-05 
0 
-0.06907972734987963 
0 
0.5267379736796158 
-0.001167451566221291 
0 
-0.2328908191662438 
2.834046743487156e-05 
0 
0 
6.988667603587258e-06 
-0.0622467938346557 
0 
0 
0 
0 
-0.1473755110738303 
0 
0 
0 
0 
0 
-0.09519602770288972 
0 
-0.1028367938613006 
-0.1621076429554035 
-0.0250633487672591 
0 
0 
0 
-0.2019868039023209 
0.2221151701507774 
-5.495200296003772e-06 
-0.01029403234207354 
0 
6.04874556518177e-05 
0 
0 
0 
0 
0.01217091796149065 
0 
0 
6.371460746033408e-05 
0 
0.5378465935958665 
0 
0 
0 
0 
-0.1385314211524531 
0.2806388792302058 
0 
0 
0.07892607682393861 
0 
0 
-2.543903695678165e-05 
0.0001098007159380047 
0.023577293273539 
0 
-0.3289716069703266 
-0.03011693776045609 
0.108972095673352 
0.1944692215566465 
0 
-0.05236620181523352 
-0.0162747901924722 
-9.877403872071949e-06 
0 
0 
0 
0 
0 
-2.787764035075326e-05 
0 
0 
-0.02851337479644891 
-0.0001107951204207345 
0 
0 
-0.03597883958911351 
0.1050641005890788 
-1.021008549000898e-05 
0 
-0.2273529598192685 
0 
0 
0 
0 
0 
0 
0 
0 
2.761735635936231e-05 
0 
0 
-0.02960877975508064 
0 
0 
-0.0744270656571531 
-0.03943306130787165 
0.0001500441612464514 
0.187741860545336 
-3.607566636654356e-05 
0 
0 
0 
-0.0283346329679076 
-0.2632368855900311 
0 
0 
-0.01172427956390725 
0 
0 
0 
-6.139427872708001e-05 
-0.0001550941734524753 
-0.0007736572060825543 
0 
0 
-0.02676933414829774 
-0.06502241337419752 
0 
-0.09173510195320228 
0 
0.1732364745871227 
0 
0 
0 
-0.1900253396432499 
0 
0.1737316057554053 
0.1124540392594999 
0.06196924030548073 
0 
-0.2347481277720755 
0.0005182373010319998 
0 
2.38528031062125e-05 
0 
-0.0007543966540582799 
0.4687672752787952 
-0.2108581335726956 
2.879814277547301e-05 
-0.09905382649207795 
0 
0 
-6.071190181114464e-05 
0 
0 
-0.1670539873190761 
0 
0 
0.4035631089381737 
0 
0 
0 
0 
0 
1.994566745065152e-05 
0 
0 
0 
0 
0 
-0.001036799236310165 
0 
1.268200569451266e-05 
0.1595850435946935 
-0.3334462618474913 
-2.740903350492053e-05 
0 
0 
-0.05398581177136395 
0 
0.2223050037160524 
0 
0 
0 
-4.846242771288872e-05 
0.0719284236377722 
0 
0 
0 
4.892956369532514e-05 
0 
0 
0 
0 
0 
0 
0 
0 
0 
0 
0 
0 
0 
0 
0 
-0.001129115292166317 
0 
0 
0 
0 
0 
0 
0 
0 
-0.09102487774843279 
-0.0001237324175040959 
0 
0 
0 
0 
0 
0 
-0.0001193507033960282 
0 
0.04890599969996971 
0 
0 
0 
0 
0.0003048519118088469 
-0.02117618767749659 
0.3109212208917903 
5.906708312346914e-06 
0.1566532519169051 
0 
0 
0 
0 
0 
0 
0 
7.264598562692543e-05 
0.3286097720269666 
0 
0 
0 
0.006197728344748805 
0 
0 
0 
0 
0 
0 
0 
0 
8.253374858475693e-05 
0 
0 
0 
6.714838091429579e-05 
0 
0 
0 
6.305837527612615e-05 
0 
0 
1.659203083649582e-05 
0 
9.210244156349976e-07 
3.559743418726689e-05 
-0.1202846205177224 
-0.1650859140057115 
0.05807525292592325 
0 
0.000421944279051708 
-6.277945441150086e-05 
0 
0 
0 
0 
0 
0 
0 
0 
0 
-0.4153431372163188 
-5.360294672566698e-06 
0.1329348656685659 
-2.574116550105918e-05 
0 
0.1500446653965952 
0 
0.2806105340956863 
0 
0 
0 
1.928418041209847e-05 
0 
0 
0 
0 
0 
-0.002252570408892933 
0.3316976910839249 
-0.1043798416532501 
-0.07277844813160772 
0 
0.03601302673981694 
0 
0.05209231311532782 
0 
0 
0 
0 
0 
-0.211375022495441 
0.0002403862653645909 
0.0001481965061612 
0 
5.524748251506569e-06 
0 
0 
0 
0 
-0.00833964056457989 
0 
-0.2161878464409358 
-0.000403446873191688 
0 
0 
0 
0 
0 
-0.0009793553979550837 
4.280703181981459e-06 
-0.1547621336424475 
0 
-0.2539496518253117 
-0.01726547091067557 
0.07520947413957493 
0 
0 
0 
0 
0.03475107744328364 
0 
0 
0 
0 
0.1052329954783596 
0 
0 
-0.02129216402383716 
-2.764130764852082e-05 
7.416280222950891e-05 
0 
-0.07042582105510116 
0 
0 
-0.1935736566250196 
0 
0 
0.07681451677121666 
0.004171417783447817 
-0.08813218117341702 
0 
0 
0 
-6.129171341437645e-05 
-0.0004848318368341304 
0 
0 
0 
0 
-0.140177416168194 
-0.1226623965263898 
0.212125023673284 
0 
0 
0 
0 
0 
0.003356815042280694 
0 
-0.1252772925151868 
0 
0.0001996471700377853 
0 
-0.009563161738727873 
0 
0 
0 
0 
0 
0 
0 
-0.002726166738582171 
0 
-0.0189713946466895 
0.07217870418406164 
0.0001056175940460035 
0 
0.0007923433721928812 
0 
0 
0 
0 
-0.08058773037822205 
-3.76201150459963e-05 
0 
0 
0 
0 
0 
0 
0.0002522004475227557 
0 
0 
-0.06881329263915356 
0 
0 
0.02706146879963343 
0 
0 
-0.001064097139849094 
0 
0 
-0.07525464966941232 
0 
0 
0.003121092181874557 
0 
0 
0 
-0.3096699517980077 
0 
0 
0 
-0.004680591986515958 
0.2207690453585378 
-0.0001298861276580982 
0 
0 
0.02798781612344165 
0 
0 
0 
-3.439785644722527e-06 
-0.02550770586163347 
0 
-0.06451154165711173 
0 
0 
0 
0 
0 
0 
-0.1380428910937022 
0 
-4.055237316940837e-05 
0 
5.045260248235566e-05 
0 
0 
0 
0 
0 
0 
-0.2039465853272934 
-0.0005922105572341843 
0 
0 
0 
0 
0 
0 
0 
0 
0 
0.05036176638770865 
0 
0 
0 
0 
0 
0 
-0.1605808400629428 
0 
0 
1.420762905702953e-05 
-0.001960053770673022 
0 
0.00658674365658592 
0.1114286077564399 
-3.264632869800344e-05 
0.003620216403765419 
0 
-0.4369842974019006 
-0.01163956801307117 
-0.06708283256747331 
0 
0 
0 
-3.701091121448666e-05 
0 
0 
1.449747837661162e-05 
0 
-0.1230529763190192 
-0.07373209766265502 
0 
0 
2.915562174990384e-05 
0 
0 
3.152590847793036e-06 
0 
0.06292343207753849 
0 
0.3481236947636861 
0 
0 
0 
-0.02618893799251396 
0 
0 
0 
0 
0 
0 
0 
-0.0004086956199016165 
0 
0 
0 
0 
0 
0 
0 
0 
0.1098600929717119 
0 
0 
0 
0 
0 
0 
-0.5419871296292437 
0 
0 
-0.002909400757435887 
0 
0 
0 
0.1029549314207235 
0.02292087162572556 
-0.03428434590704166 
0 
0 
0 
0 
0 
-0.08926304973000318 
0.06049409916864617 
0 
0 
-1.732688242643647e-05 
0 
0 
0 
0 
-0.5183364366056179 
0 
-0.1528002973615792 
0 
2.783171503497316e-05 
-0.01177806293799554 
0 
0 
0 
0 
0 
0 
-0.1094186855613823 
-0.0001357645325599804 
0 
0 
0 
0.003160586644052995 
0 
0 
0 
0 
-2.531457281139198e-05 
-0.1934464119785624 
0 
0 
0 
0 
0 
0 
0 
0 
0 
0.005982689043588868 
0 
0 
0 
-0.05335763953985301 
0 
4.095558080933187e-06 
0.184627359300879 
-0.1141024323656555 
0.008183361427824651 
-0.1075719093162845 
0 
7.616020156633738e-05 
-0.002430721438447321 
0 
-5.137357607475632e-05 
0 
0 
0 
0.03490310185580064 
0 
0 
0 
4.067368995120432e-05 
0 
0 
0 
0 
0 
-0.002221022575998014 
0 
2.021316348432409e-05 
0 
0 
0 
0 
0 
0 
0 
0 
0 
0 
0 
0.1569428376226182 
-0.4796557323812723 
0 
-0.0002130642768688744 
0 
0 
0 
0 
-0.00030032221086895 
0.00132975875563482 
0 
-1.2582587001391e-06 
0 
-2.562747563341283e-05 
-0.007578216442185186 
0 
0 
0 
-0.06518328494858817 
0 
0.1608958509517836 
-0.0005086553851562738 
0 
0 
0 
0 
0 
0 
2.403954507263128e-05 
0 
0 
0.02658550868341506 
0 
0.1146358928562334 
-0.1134143976151927 
0 
0.1437896525091394 
0 
-0.04311645531835354 
0 
0 
0 
-0.04879434756812072 
0 
0.01325570822244236 
0 
0 
0 
0 
-0.03748904218788688 
-8.383925468925715e-06 
0 
0 
-0.0009316700283417698 
0.001140472130185412 
0 
-0.04209225807818952 
0 
0 
0.1314310086460788 
0.05226010552854479 
1.977728955494061e-05 
0 
0 
-0.0001780982791517933 
3.134521741607195e-05 
1.049209487145133e-05 
0 
0 
-0.429383619196259 
0 
0 
0 
0 
0 
0 
0 
0 
0 
0 
0 
0 
0 
-0.1375623149847027 
0 
0 
0 
0 
-5.372948792324633e-06 
0 
0 
0 
-2.176799786872686e-06 
0.003034326046637845 
-0.000146890411915441 
0 
-0.1000214224651582 
0 
0 
0 
0 
0 
-0.03435949889240177 
-0.1559056176176804 
2.769349256134715e-05 
-1.294457376897377e-05 
0 
0 
0.002287886447523483 
0 
0 
0 
0 
0 
0 
0 
5.737160137038236e-05 
0.0386718901888455 
0 
-0.3325270717325895 
0 
0 
0 
0 
0 
0 
0.0008823086587571578 
-0.03317492480278406 
0.154339342777167 
0 
0 
-0.5320343604902886 
0 
-0.1517823802365756 
0 
0 
-0.0006921158423417251 
0 
0 
0.1182531708499657 
-0.0004803692502950154 
0 
0 
0 
0.5160601037911067 
0 
0 
0 
0 
0 
-0.1523824167547568 
0 
0 
-8.763535868215979e-05 
-0.03366813650487632 
0 
-1.46237712317602e-05 
0 
-0.001709319556550968 
0 
-0.427774524671475 
-0.3713894930475432 
0 
0 
-0.09181918765087048 
0 
0 
0 
0 
0.1306910927194568 
0 
0 
0.2485940070966546 
0 
0 
0 
0 
0 
0 
0 
0 
0.2188352042075893 
0 
0 
-2.131711832899581e-06 
0 
0 
0 
0 
0.05938199943023843 
0 
0 
0 
0 
0 
0 
0 
-0.01007800675866707 
0 
0.01248735826065426 
0.005286000093355177 
0 
-0.06855550601691013 
-0.0009184042928634712 
-8.625588007624992e-05 
-0.05769686089173436 
0.03133520715950163 
0 
0 
0.0001867526479131391 
0 
0 
7.663074719866037e-05 
0 
-0.3025675034166979 
0 
0 
0 
0 
0 
0 
-0.1391386682921527 
0.1455258543009419 
0 
0 
0 
0 
0 
0 
0.1956366071414499 
-0.0007251650108527205 
0 
-0.06997246109529717 
0.1289091859732928 
0 
0.001049153305988676 
-0.06080826671864177 
0 
0 
0 
0 
-6.269611262508439e-05 
6.554640450140772e-06 
-0.04187568087719783 
-0.2473197515958328 
0 
0 
-2.13000665117346e-05 
0 
0 
0.2002918767138651 
-0.2052338397282814 
0 
0 
0 
0.0004944769888378256 
0 
-0.1308402453940293 
0 
0 
0 
-0.003131008897515466 
-0.05071485927006884 
-0.01858453114427682 
-0.001852598276981589 
0 
0.1022267053312919 
-6.679911712105616e-05 
-0.09796138333873791 
0 
0 
0.0001122451673068031 
0 
0 
0 
-0.01707988791574901 
0 
0 
0 
4.488166941189726e-05 
0 
0.1385005896195812 
-0.000183696189339919 
0 
0 
0 
-0.02388904463817976 
-0.1105064881886656 
0.26445532866848 
-0.2031901626449461 
0 
0 
0 
0 
0 
0.008469485163953037 
0 
0 
-0.004878642406459649 
-0.2041222021105092 
0 
0 
0 
0 
9.050875012614988e-05 
0 
0 
0 
0.2959328001717683 
0.001251493143461931 
0.03261036159868713 
-0.0004688205389581266 
-4.051169787733317e-05 
0 
0.09571115908908107 
-0.0001037579207590477 
-0.05379599393152908 
0 
0 
0 
0 
-0.01326469203130263 
-0.3980083744676507 
3.561147812031971e-05 
4.178662752543936e-06 
0 
0 
0 
0 
0 
0 
0.1352669309520217 
0 
0 
0 
0.2802121242142208 
0 
0 
-0.07770172231801087 
-0.00361254141848415 
0 
-0.04536450166207792 
0 
0.06191205711887823 
0.0003609420723065381 
0 
0 
0 
0 
-6.293517042367229e-05 
0 
0 
0 
0 
0 
0 
0 
-0.0001010318362290263 
0 
0 
0 
0 
0 
0 
0 
-0.1520378959527932 
0 
-2.141938739693656e-05 
0 
-0.04864769824986939 
0 
-0.6256632977648703 
4.903468890429544e-05 
-0.000112523971791759 
0 
0 
0 
-0.05686253864825225 
-0.0001014141598455203 
0 
-0.5356091409022201 
0 
0 
0.3240940310809681 
0 
0 
-0.0438842773842406 
0 
0 
3.46507887325715e-05 
-0.100425233279406 
-0.2746484863772651 
0 
0 
0 
0.0004708827024113797 
-0.01796721223686362 
0 
0 
-0.05257022964627429 
0 
0 
0 
0 
0 
0 
0 
0 
0 
0.2899085287754401 
0 
0 
0 
0 
-0.0002856388381768782 
6.52800423257471e-05 
0 
0 
0 
0.2239312926094868 
0 
0 
0.1010458346688061 
0 
0 
0 
0 
0 
0 
-0.01248784087367441 
0 
0 
-0.0009973688630956126 
0.001809204830566112 
-7.970918776454433e-05 
0 
0 
0 
-4.577582269688052e-05 
-0.004918932442123956 
0 
0.1342018448414239 
0 
0 
0 
0 
0 
0.0912041804568713 
0.175460471759957 
0 
0 
0 
0 
0 
0 
0 
0.1818840582179719 
0.2338873211954999 
0 
-0.0008384768664939733 
0 
0 
0 
0 
0 
0.0002659086858080124 
0 
0 
0 
0 
0 
0 
-0.2258238179011131 
0 
3.696185135470334e-05 
0 
0.05782243595523048 
-0.2603632516722005 
0.1431225581687556 
0.0009330874783039424 
-0.0006236893251309389 
0 
0 
0 
0 
0.364403957257518 
-0.05771635248198218 
0 
0.09714195388882049 
-0.02035020692273666 
-0.0195298632312035 
0 
1.011092200934691 
0 
-9.406328759231267e-05 
0.0002323889579767935 
0.001004731851269888 
0 
-0.08779985049985443 
0 
-0.007831161593393813 
-0.05197918671778749 
0.0832888710394968 
0 
0.1798095142583848 
-0.0807788284672085 
0.1934464119785624 
0 
0 
0 
0.1813868214376149 
0 
0 
0 
0 
0 
0 
0 
5.573198163913749e-05 
-9.258746560061008e-05 
0 
0 
0.008469485163953037 
-0.003676559740224359 
0 
0 
-0.06601167179752421 
-0.1820374408010413 
-0.0443862462936865 
0 
0 
0 
0 
-0.002548513409728517 
0 
-3.63846795701811e-05 
0.0007136885069174586 
-8.398558477066583e-05 
-0.1260997683012314 
0 
8.940890534932136e-05 
0 
-0.1350438946946853 
0.1988301436118566 
0 
0 
0 
0 
0 
2.172726090232217e-05 
-0.002331692163740279 
0 
0 
-0.1631696667237621 
0.08703599772106355 
0 
0 
0 
0 
0 
0 
0 
-0.01267614779276837 
-0.0009983348574518157 
0.005858238160810124 
0 
0.3545645748350063 
0.1380189766905321 
0.2022675666782767 
-0.1726369737401411 
-0.0001441016506180064 
0.1135975960040347 
0 
0 
0 
0 
-0.1365223951020671 
-5.785189285364254e-05 
0 
0 
0 
0 
0.0007915276417691554 
0.001643364980938188 
-0.001057046550673615 
0 
-0.0004450328672213916 
0 
0 
0 
0.1998479403011333 
0 
0 
0 
0.04765233998652454 
0 
-3.452421009752642e-05 
0 
0 
0 
0 
-0.04707179940197331 
0 
0 
0 
0 
3.254840952619035e-06 
0 
0 
-0.05974321480370839 
1.117883471017406e-05 
-0.009784816143552394 
0.2943092717009143 
-0.1221097829190921 
-0.1842413733257648 
0 
0 
0 
-3.987380306620528e-05 
-0.3281979444955622 
0.06620734791676955 
-0.1446834078579417 
0 
0.003131201492692496 
0 
-0.339968586460149 
0 
0 
0 
0.1041370420799625 
0 
-0.02193010609422228 
0 
0 
-0.06427964452440499 
0 
0 
0 
-0.0386678594603278 
0 
0 
0 
0 
0 
0.1494911682539379 
-0.09519602770288972 
0 
0 
0 
0 
0 
0.2022675269922724 
0 
0 
0 
0 
0 
-0.1256377581583054 
0 
0 
0 
0 
0 
0 
0 
-0.2601619688919193 
0 
0 
0 
0 
0.0001170467845863716 
-5.120478820103304e-05 
0.2340867266655123 
0 
0 
0 
0 
-0.1951351256656188 
-8.937556905977694e-05 
0 
0 
0.6295956175888423 
-0.0006620653692362439 
-0.001162931173059661 
0 
0 
-2.97226774171445e-05 
0 
0 
5.320926430710395e-06 
0 
0.0004439447512973886 
-3.585237915767857e-05 
0 
0 
0.1936842064717476 
0 
0 
0 
-0.09470553106755941 
-3.929768874237733e-07 
0 
-0.005468287927658445 
0 
0 
0 
-0.0008303474511444035 
0 
0.03306009008388791 
0 
0 
0 
0 
0 
0 
-0.09710326274470876 
0 
0 
-0.008451136758330447 
0.1556186351623691 
-0.01460571353910988 
0 
0 
0 
0 
0 
0 
3.060051681424024e-06 
-0.1814938397095185 
0 
2.808545517571732e-05 
0 
7.258974579989181e-05 
-2.616287250926106e-05 
0 
0 
0 
0.009772000759320082 
-0.06018223106628167 
0 
0 
-0.01713194586781274 
-0.1935486875128639 
0 
0 
0 
0 
0 
0 
0 
-0.02859883402941063 
0 
0 
-0.2113363193323889 
0 
0 
0.1037028648804456 
0.1859475819001518 
-7.521100652966656e-05 
0.07617038985808532 
0 
0.1920141643606496 
0 
-0.04527713479826501 
-0.2001354138973954 
0 
0 
0 
0 
8.911364780179956e-06 
0 
8.30713635235573e-06 
0 
0 
0 
0 
0 
-0.03034515144069898 
0 
0 
0 
0 
0.0009094710857977598 
-1.556299272187754e-05 
-0.0001323234670645911 
-0.1407079206590384 
0 
0 
0 
4.006881940290716e-05 
0 
-0.05537993892338926 
-0.2824476963412815 
0 
0 
-0.1347634896015049 
0 
0 
0 
0 
0 
3.528688963571969e-05 
0 
-0.6156436061645941 
0 
-0.0003262291153032703 
-0.08027469284113124 
0 
0 
0 
0 
0 
0 
0 
0 
0.1251632666209625 
0 
0 
0 
0 
0 
-0.1059033878369239 
0 
-0.06995397830144977 
0.09408022535854343 
0.02111746562273418 
0 
-0.1808215695385071 
-0.06644707798221901 
-4.592051544703366e-05 
0 
-3.068209984760652e-05 
0 
0 
3.127194909304141e-06 
-0.2552704889290435 
0 
3.394417916359979e-05 
0.161983215121592 
9.694269041957246e-05 
-0.1539045723411141 
0.1937764554308771 
-0.1294211963187436 
0 
-0.247415988455593 
0 
0 
0 
4.140695764798171e-05 
0 
0.000391923193197793 
0.01501025542197955 
0 
0 
0 
0.370386915082221 
0 
-0.1592222157204554 
0 
0 
0.0002236994467115043 
-0.1503971068771748 
0 
-0.0005895593692990637 
-0.0002285361287002631 
0 
0.3296988787034335 
0 
0 
-0.0008305048751656809 
0 
0 
0.1633647023548836 
-0.1323782547806591 
-1.877438057413807e-05 
-6.269611262508439e-05 
1.405318818245227e-05 
0 
-0.03650708978030048 
0 
-0.06454191337821752 
0.2141297767478797 
0 
-0.03291911908084649 
0 
0 
0 
0 
0 
0 
0 
0 
0 
0.1159162700429223 
0 
-0.2217741284947856 
-0.0002741336480632214 
0.02621206024906892 
5.745610559341099e-07 
0 
-0.001397848953426969 
3.798810741178523e-05 
-0.4103155038836314 
-0.06127072261321469 
-0.0001941449710683379 
0 
-3.679348616186296e-05 
0 
0 
0 
0 
0.0005932803674648381 
0 
-0.1641978912749331 
0 
-3.78260954783718e-05 
0.1171098416286553 
-0.001002496014656805 
0 
0 
0 
-0.0053188613975324 
-0.03505877209012949 
0 
0 
-0.0008421598418217762 
-0.0002496195896256765 
0 
0.1431225581687556 
0 
0 
-0.002697227277173711 
0 
-0.2028840013435964 
0 
0 
0 
0 
0 
0 
0 
0 
0 
0 
0 
0 
0 
0 
-5.627236629918958e-05 
0 
0 
0 
-3.871177168162826e-06 
0.2216745197128931 
-3.439894828747843e-05 
0 
0 
0.174803093930648 
0.0776895210597596 
0 
-0.2503904035229011 
0 
0 
0 
0.0009440726972727224 
0 
0.0006517870960071575 
0 
0.06992180528143652 
0 
0 
-0.04488089186053935 
0 
0 
-0.09645323896360949 
-0.03505877209012949 
0.0003242212132722039 
0 
0 
1.05418934988626e-05 
-0.103304492536247 
0 
-0.1457333540043753 
0 
0 
0.3047823422341098 
1.801577387748305e-05 
0 
0 
-0.0002021617338545466 
0 
0.1913929247405671 
0 
0 
0 
0 
0 
0 
0.08732543706078913 
0 
0 
0 
0 
0 
0 
2.093144475930226e-05 
0.0002214171796528794 
0.1883821358377958 
0 
0 
0 
0 
0 
7.208656623154417e-05 
0 
0.1442985275412232 
0 
0 
0 
-0.4814542062846575 
0.3603788534066509 
0 
0 
-0.6853067628297408 
-0.1829354156146923 
-0.006959821547412759 
0.3064661946065885 
-9.009803336987071e-05 
0 
0 
0.2119065138628038 
0 
0.02615384353572015 
0.3179187984995929 
-0.07469216616343666 
0 
0 
0 
0 
0 
-8.908827862390566e-05 
-0.2045841619627964 
0 
0 
0 
7.647425979517678e-06 
0 
0 
0 
6.767475100721051e-05 
-0.07556794050979507 
0 
0 
0.00119194174834527 
0 
0 
-0.1730298471762132 
0.3881305444774804 
0 
-8.207051824339639e-05 
2.157271335030236e-05 
0 
0 
0 
-0.1083673531875896 
-0.06736617929571458 
0 
-0.9386388675566275 
0.07304908458657018 
0 
0.3477855526599615 
0 
0 
0 
4.949124726955438e-06 
0 
0 
0 
2.255666446108371e-05 
0 
0.04587961442884386 
0 
0 
0.0001743400170949443 
0 
0 
0 
0 
2.875740985912847e-05 
0 
0 
-7.209758487793653e-05 
-0.001276476910599177 
-9.512957299566351e-05 
0.01634968561766801 
0 
-0.1296679100077268 
0 
0 
0 
0 
0 
0 
0 
0 
0 
0 
3.60565612707937e-05 
-0.07149066953486222 
0 
0 
-0.04774040875838256 
2.263839574692164e-05 
0 
0 
0 
0 
0 
-3.356828613957735e-05 
0 
0 
0 
-1.402043600115768e-05 
0 
0 
-0.09834063652510938 
0 
0.002512827545721942 
-0.04403896903963787 
0 
0 
0 
0 
0 
0 
0 
0 
0 
0 
0 
0.2272110555133424 
0 
0 
0 
0 
0 
0 
0 
0 
0 
0 
-9.525717621935272e-06 
-0.04941978913793495 
0 
0 
0.191360316664693 
0 
-0.0381383981620476 
0 
0 
0.01545655432454224 
-2.568209142231869e-05 
-0.0002777072960774903 
0 
0.0001073982508100238 
-0.08673123015915125 
0 
-0.09136765668942985 
0 
0 
0 
0 
0.0002569018486644738 
0 
0 
0 
0 
0 
-5.571146308275363e-05 
0 
-0.1390986536869089 
0.1385411183858108 
0.0003261274193340532 
-0.1929241904577927 
-0.3154175556236912 
2.779728072675349e-05 
0 
0 
-0.0250633487672591 
0.1848574249413441 
0.0007685113097522945 
0 
3.167130919701553e-05 
0 
0 
0.00154427527887601 
-0.05256851738001997 
0.04031182010952115 
0 
0.05938199943023843 
-0.002635675400290804 
-0.0004981303587624809 
0 
0 
-0.01707565725660648 
0 
-0.2031880265790909 
0 
0 
0 
-2.662923147811999e-05 
-0.01998594619914894 
-0.02926377570535463 
-0.09617372868048732 
-0.1671875410750981 
-0.02895733002419749 
-8.132387548838743e-06 
0 
0 
0 
0 
0 
0 
-0.2607358454946028 
0 
0 
0 
0 
-0.1214373430726851 
0 
-0.0008351326497561731 
0 
0 
-0.0001101055757947574 
0.01094162163039867 
0 
-0.0003888151275881679 
0.1237215934629882 
0 
0 
0.3360691075047906 
0 
-0.16256242150509 
6.792025825244058e-05 
0 
0.3643125229906323 
-0.03626109775946697 
0 
0 
0 
0.01391461199922582 
0 
0.09077099513652707 
0 
0 
0 
0.1117591468563205 
-0.03122563410516909 
-0.1489654239882006 
0 
0 
0 
0.2142677641766965 
0 
0 
-2.345428231260296e-06 
0 
0 
0.09101485428278464 
0 
0 
-8.854609257061719e-05 
0.2001792838354908 
0 
0 
0 
0 
-0.001484699841616077 
-7.946261101750557e-06 
0 
0 
0 
0 
0 
0 
0 
0 
0 
-0.001727896758559413 
0 
0 
0 
0 
0 
0 
0.05553195472527522 
-0.0002069681266725648 
0 
0 
3.20711463402119e-06 
0.3164706234102275 
0.01703406252226881 
0.1934464119785624 
0.003883721249795018 
0.0120416260162746 
0 
0 
0 
-0.0759368500599765 
-0.09824472512786914 
0 
1.566390702445876e-05 
0 
0 
-0.02559188087798783 
0 
0 
-0.1729282563412333 
0 
0 
0 
-0.02411542336621095 
-0.05267365737025542 
0 
0 
0 
0 
4.105623017856429e-05 
0 
0 
0 
0 
-0.2035979229191478 
-0.001816371974610831 
0 
-0.3220961496124132 
0 
0 
0.0003758632426325418 
0 
0 
0 
3.613910047549335e-06 
0 
0 
-0.2259793181482672 
0 
0.1947947425724137 
0 
0 
-0.04839145417116597 
0 
0 
0 
0 
0 
0 
0 
-0.009937451243345118 
-0.002553968783360729 
0 
0 
0 
-0.3959009925479572 
0 
0 
0 
0 
0 
0 
0.1260315745231214 
0 
0 
0 
0 
0 
0.0651003580334085 
0 
0 
0.0466743539156346 
0.2125409852077914 
0 
0.0004757228884352447 
0 
0 
0 
0.1825611968437749 
0 
1.574451003628832e-05 
0.480988409148868 
0 
0.2304297923475094 
0 
0 
0 
-0.0001881289271749149 
0 
0 
0.03087783136750155 
0 
0 
0 
0.07586980694070135 
0.04458852364748504 
0.254888438239139 
-0.1319945943862179 
0 
0.05125495114191918 
0.02539594534955147 
-0.01230271702705988 
0 
0 
0 
0 
0 
0 
-0.03490430595607855 
0 
5.589013916022917e-05 
0 
-0.2652468508910327 
-4.474934373396543e-05 
0 
0 
-0.0009313332196596922 
0.03672820829611238 
0 
-0.0003067648261014904 
0 
0 
0 
0 
0 
0 
-0.01052940023289901 
0 
0 
0.07723162714154208 
0 
0 
0 
0 
0 
0 
0 
0.7456562432888141 
0 
0.2758427330543939 
0 
0 
2.044968378733351e-05 
2.880591671744889e-05 
0.02050203483715264 
0 
0 
0.2521270358026532 
0 
-0.02117059477447644 
0 
0 
-0.09316707151846464 
-0.2219747836992939 
0 
-0.07911483450742662 
0 
0 
0 
0 
0 
7.264598562692543e-05 
0 
0 
0 
0 
0.02469188712853456 
0 
-0.0003465775388316913 
0 
0 
0.08579221268493058 
0 
0 
0 
0 
0 
0 
0 
2.504283466192028e-05 
0.01999008532083082 
0 
-0.2877922641835187 
0 
0 
0 
0 
0 
-0.000828825170794154 
0 
-7.302351601389518e-05 
0 
-0.02289251764766524 
0.0004460297142818562 
0 
0 
-0.2763445699290838 
0.0443272880317293 
0 
-1.422596331343313e-05 
0 
0 
6.293904273198874e-05 
0 
-0.09099803493072814 
-1.675845291836821e-05 
0 
0 
0 
0 
0 
0 
0 
-0.0984036469410241 
0 
0 
0 
0 
-0.3245920465214707 
0 
0 
0 
0 
0.3507670905990448 
0 
-0.0003102926484884019 
0 
0 
0 
0 
0 
0 
0 
-0.1936475001809074 
0 
-0.1859870453764628 
-9.288111680159081e-06 
0 
0 
0 
0 
-0.2941054818721924 
0 
0 
0 
0 
-0.2567798227765054 
0 
-1.91282871407567e-06 
-3.205714247527167e-05 
0 
0 
-0.2288563328181104 
0 
0.01250722672259794 
0.05517906244021541 
0 
0 
2.699754189767659e-05 
-0.08690676192323604 
0.09453104348557467 
0.1648568650641958 
-5.723762775695693e-05 
0 
0 
-0.137406823225154 
0 
0 
0 
-0.04635017262499939 
0 
0 
0 
0 
0 
0.002910844807526318 
0 
-0.03948785166582083 
0 
0 
0 
-0.0007746900502123874 
-0.3291795260417398 
-0.04794933938298776 
0 
0 
0 
0 
0 
0 
-3.820078581791961e-05 
0.0001034769497651943 
0 
0.1283356783147488 
0.0590221671876504 
0 
-0.2754321368589641 
0 
0.2506310216045804 
0 
-0.0910190925164315 
0 
0 
-0.03587943851173638 
0 
0 
0 
0 
0 
0 
0 
0 
0 
0 
0 
1.916547683067383e-05 
0 
0.2257143727089373 
-0.5304257152594491 
0 
-0.02497264522359557 
3.872605723464459e-05 
0 
0 
-0.002130927389177696 
0 
0 
0 
-0.09407575939518611 
0.0006072544655212437 
-0.0001081342715680391 
0 
0 
0 
0 
0 
0 
-0.000775670546142187 
-0.0004761478138263844 
0 
0 
0 
-0.0002217862042842605 
0 
0 
0 
0 
0 
0.3044172073179229 
0.2204142537079926 
-0.0002496005674592641 
-9.01697175859405e-06 
0 
0 
0 
-0.0005180260719056589 
0 
0 
0 
0 
0 
0.001832904679612878 
0 
0.1326453562662435 
0 
0 
-0.2375683301115386 
0 
-0.1552660664056584 
0 
0 
0 
0 
0 
0 
-0.0003922564809365424 
0.1845158999956748 
0 
0 
0 
0 
0.1588464100416537 
-0.1419285471472148 
8.782216718675983e-06 
0 
0 
0 
0 
0 
0 
0 
0 
0 
0 
0 
0 
0 
-0.04651645489601532 
0 
0 
0.1496977537852514 
0 
0 
-0.1200151729645983 
0.000132589596661097 
2.081405208030834e-05 
0 
0.01497335434416559 
-7.133279800600947e-06 
0 
0 
0.1920407689991317 
0.1608405706936405 
0 
0 
0 
0 
-0.0004048639377051491 
0 
-2.97165685900616e-05 
0.05318375394557426 
-0.0003489951945051741 
-0.02009815851648062 
0 
0 
-0.1370485747482268 
0 
0.09556413438561606 
-0.05190053131141864 
0 
-0.0002381331486433894 
0 
0 
0 
0 
0 
0 
-0.0001523020054930851 
0 
0 
0.01727682098371582 
-0.1307093190790978 
0 
-0.0008943849322861808 
0 
0 
0 
0 
0 
-6.498448321823783e-05 
0 
0.07929294522276172 
0 
0 
0 
0 
0.2690944313639876 
0 
-0.02987326035363214 
0 
0 
1.217754883435954e-05 
1.117883471017406e-05 
0 
-0.2012169474626301 
0 
0 
-0.001749840267492376 
0 
0.006242027031906404 
0 
0 
0.001500293886784274 
0 
0 
0 
0 
0 
-0.1310290235909558 
0 
0 
0 
0 
0 
0 
0 
-0.1705367589159691 
1.05418934988626e-05 
0 
0 
-0.2038228191853952 
0 
4.396316103451678e-05 
0 
0 
-0.1517518314420132 
0 
0 
0 
0 
0 
0 
0 
-0.05690123728333842 
0 
0 
0 
0 
-0.3528606353835634 
0.2593931571729484 
0 
0.03854010183685976 
0 
0 
0 
-0.09449913219333721 
0 
0 
0 
0 
0 
0 
0 
0 
-0.1818797722737422 
0 
0 
0 
0 
-0.01414583858155534 
0 
0.5036527621136186 
0 
-0.04986604007204036 
0 
-0.005673913323444225 
0 
0.1934637339485615 
0 
0 
0.5303730776037607 
0 
0 
-4.760390663088637e-05 
0 
0 
0 
-0.001279226616735265 
0 
0 
0.1163422238008552 
6.48727237740105e-06 
-0.3146545116887501 
0 
0 
0 
0 
-1.981851054558076e-05 
0 
-0.5932893514429181 
0 
-0.0001758165171172207 
0.09845148582796304 
0 
0 
0 
0 
0.0866859243183065 
0.1394562692335304 
-2.022514187761979e-05 
0 
0 
2.971005138110164e-05 
0 
0 
0 
-0.03505877209012949 
0 
-0.02792500591685879 
0 
2.26307354866043e-05 
0.09500272406243182 
0 
0 
0 
-0.002423435371244798 
0 
-0.1462690444978248 
0 
0 
0 
0 
0 
-4.037580181493706e-05 
0 
-0.6890026942588442 
0 
-0.4767479372602884 
0 
0 
0.004842876319751945 
0 
-6.420590362813844e-06 
0 
0 
4.843184192550541e-06 
0 
0 
0 
0 
0 
0 
-0.000420695731259101 
-0.02615940914804625 
0 
0 
0 
0 
0 
0 
0 
5.431530293215111e-05 
0 
-0.1057820885064543 
0.06531534431902082 
0.09884683688902517 
0.3748524678952313 
0 
0.05336656479057487 
0 
0 
-2.544271157756631e-05 
0.0002107186416919244 
0 
-0.06574498909633333 
-1.732428577890288e-05 
0 
0 
0.3805226282742915 
9.485651476109002e-06 
0 
0 
-0.001861816862269806 
0 
0 
0 
-0.3065656775178418 
0 
0 
0 
-0.1579749844907782 
0.2456318895404715 
0.289046537584021 
0 
0 
0 
0.0003025943799007824 
0 
0 
5.454800009282909e-05 
0.2233164607462605 
-0.03146385393516075 
0.2805638233529139 
0 
0 
0 
0 
0 
0 
0.4624351878778221 
0 
0 
-0.02087585959335338 
0 
-0.1372623103596261 
0.00204706457256736 
0 
0 
0 
-0.1484841672869219 
0 
0.002243763162823304 
0 
-0.06953983540520946 
-9.232293215735518e-06 
0 
0 
5.337618382439592e-05 
0.1543524452995366 
0 
0 
0 
0 
0 
0.1604985197476495 
-0.07959833584942896 
0 
0 
0 
0 
0 
0 
0 
-1.445814447777221e-05 
0 
0 
0 
-0.4213661737541423 
0 
0 
0 
0 
0 
-0.07677344362873069 
-0.0003551058640443017 
-0.0638837879542723 
0 
-0.2751928388131256 
0 
0 
0 
0.0001770496739543478 
-0.3118046151217428 
0 
0 
0.07902483619120933 
0 
0.2695776721514631 
0 
5.907212068071026e-05 
0 
0 
0.04157968575654324 
0 
0 
0.3968608426050062 
0.07850594692626645 
0.001259781880323856 
0 
0 
0 
0 
0 
9.664976607879055e-05 
-0.003155984232964348 
-1.459503880260346e-05 
-0.09277759788538559 
-0.0003448718901384146 
0.02604940961651139 
-0.0002030968905457173 
0 
0 
0 
0 
-0.0001061261932204292 
0 
0 
0.001015877711241673 
-0.2067630918620012 
0 
0 
0 
0 
-0.0553547142183081 
0 
0 
0 
-0.02478266691479067 
0 
0.2912417521293106 
0 
-0.5801807414872083 
0 
1.084637840416731e-05 
0 
-0.03173985123186242 
0.09148606546585551 
-0.2724904993856198 
0.02645021702864643 
0 
0 
0 
0.4671949822428635 
0 
0 
0 
0.0003399145184066043 
0.2416467247758115 
0 
0 
0 
0 
0 
-0.002023942914722189 
0.4366661738562007 
0 
0.1208489609695293 
0 
0 
0 
8.437811944164349e-06 
-0.0001852199485006648 
0 
0 
0 
0 
0 
0 
0 
2.062684141929155e-06 
-1.261536882686799e-05 
0 
0 
-0.1083948958207331 
0 
0 
0 
0 
0.1912103218610581 
-0.1102021156920027 
0 
-2.407655892661824e-05 
0 
0 
0 
0 
0.0003349995046032824 
0 
0 
-2.657506555650819e-05 
0 
0 
0 
0 
0 
0.000245514322091878 
1.565579213171642e-05 
0.001267471961629976 
0 
0 
0 
-0.2774786307706312 
0 
-0.000915385757215734 
-4.49536050503176e-06 
0 
0.1688598600375203 
0 
0 
0 
0 
0 
-7.975745969360443e-05 
0 
-2.379386173812933e-05 
0 
0.02327482525661146 
-6.501121032489494e-05 
-0.0003024713870649186 
0 
0 
0 
-0.1149738857402676 
0 
0 
0 
0.1323506730149561 
5.571752496187461e-05 
-0.1116615472820064 
0 
0.1767336842007769 
0 
0 
0 
6.211358788439373e-05 
0 
-4.606589211086874e-05 
0 
0 
0 
0 
-0.03134891040741662 
0.10072806839482 
-0.275220308493453 
0 
0 
0 
0 
0 
0.005316377490284088 
8.255595559687268e-05 
0.0822919759161847 
0.0580593287711673 
0 
1.666677716015137e-05 
0.1598578039211558 
0 
0 
0 
0 
-0.2462462112474829 
0.03829036934501234 
0 
-0.002392883059959629 
0 
0 
0 
-0.05391170277050948 
0.001998075198904009 
-0.2056348605712099 
0 
0 
-0.1088113044944183 
-0.01491207861323845 
0 
0 
0 
2.814309826603969e-05 
0 
-0.2595317334885721 
-0.1770513415495212 
-1.878870130292006e-05 
-0.1046425927415044 
-5.15759940359389e-05 
1.612544657966758e-05 
0 
0 
0.08562072231632234 
-0.1211859155529909 
0 
0 
0 
0 
0 
0.03329288992367772 
-0.0002183737450087103 
0 
0 
0 
0 
0 
0.3420333196428348 
-0.2203810315635565 
-1.005460556878436 
-0.1267049247468848 
0.0007541687405467749 
0 
0 
0 
0 
0 
-0.02853975668487722 
0 
0 
0 
0 
0 
0 
0 
0 
0 
0 
-3.260958154513716e-06 
0.1080065038584507 
7.554992454799088e-05 
-0.0168202647414878 
0 
-0.2239509151577689 
-4.578131294328552e-05 
0 
-0.02762473513194203 
0.1923738276725288 
-9.60890992919914e-05 
0 
0 
-0.08840179177922426 
0 
-0.0003004635850495992 
0 
0 
-0.4115210159173195 
0 
0 
0 
0 
0 
0 
0 
0 
-0.08782096935904932 
-0.001614719944007042 
0 
0 
-0.16428773354799 
0 
0 
0 
-0.0299088402159928 
0 
0 
0 
-0.07121303629819296 
0 
0 
0 
0 
0 
0 
0 
0.08379619676553823 
0 
0 
0 
0 
0 
0 
0.08481485729486662 
0 
0 
-4.11483999874915e-05 
0.3208939760558291 
0 
0 
0 
-0.0002847820835331118 
-2.420653240279849e-05 
0 
0 
-3.223925546390861e-05 
0 
0 
0 
0 
0 
-0.001621556779843045 
0 
-0.05746990069117131 
0 
-2.290834555213606e-05 
0 
0 
-0.1498954727028246 
4.306158039705e-05 
0 
2.069143148890236e-05 
0 
-0.01185902976684569 
-0.0003609371505019358 
-0.0009857344648184865 
0 
0 
0 
0 
-0.000191636254370517 
0 
0 
0 
0 
0 
0 
0.05195932520117594 
0 
0.2051726655364243 
1.374476008881389e-05 
0 
0.09105356517917644 
0 
0.3639402739383645 
0 
0 
-0.04529913808366338 
0 
0 
0 
0 
-0.0009763249359852504 
0 
0 
0 
6.673239373354995e-05 
0 
-0.1317233861495988 
0 
0 
-0.1138429991580089 
0 
3.903853057509772e-05 
0.002592188479803812 
0 
0 
0 
-0.3286925227078228 
0.1115921525595552 
0 
0 
0 
0 
-0.00316271791926934 
-0.03253683673334495 
0 
0 
0 
0 
0 
4.692227046443716e-05 
0 
0 
-0.1522907634795352 
0 
0 
-0.1366878685171853 
0 
0 
0.05035121019559118 
0 
0 
0 
0 
0 
2.205118039027186e-05 
-0.0003475282206020554 
-2.703752575755689e-05 
-0.001942677714038599 
-0.0001112053586566043 
-9.06855770629383e-05 
0 
0 
-0.1736481701735342 
0 
0 
0 
0 
0.0003973982651022667 
0.0001764830727512964 
0 
0 
0 
0 
0 
0 
0 
0 
0.211597977685051 
0 
0 
0 
0 
0 
0 
0 
0 
0.4715517110299619 
0 
0 
0 
0 
-0.0001064446459276338 
0 
0.4683022012450443 
0 
0 
-0.0400411103261899 
0 
0 
0 
0 
-0.2756063988139949 
0 
0 
0 
-0.006504980917960422 
0 
0 
0 
-0.04314706623981918 
0 
-2.475791121716697e-05 
0 
0.07957756956794421 
0.005746166887379712 
0 
-0.04691134597228489 
0 
-0.07178576272797589 
0.02201574755302464 
0 
0 
-0.1405278550427973 
0.006456553942615788 
0 
0.0005024831743589691 
0 
0 
0 
0 
0 
0 
-0.08370027140445865 
0 
0 
0 
0 
0 
0.1001052914140777 
0 
-0.0001557223153475893 
-0.08385554030443364 
0 
0 
-5.516247782170676e-06 
0.001259781880323856 
0 
0 
0 
0 
-0.020371181536648 
0.01885661981913503 
0.01950547955848093 
-0.002553277571440495 
3.349196916627484e-05 
-4.921031847578592e-05 
0 
0 
-0.1449186527495459 
-1.469122394713718e-05 
0 
0.0009626053855806027 
0 
0 
0 
0.1683909918741633 
-0.06339847776346738 
0 
0.7405888665581063 
0 
0 
-0.01836198759405892 
0.09605073428104478 
2.96588128858014e-05 
0 
8.143689550995873e-07 
-0.1433457112093252 
0 
0.07130438247024809 
0 
0.03924198469404083 
0 
0 
-0.1533703102126206 
0 
0 
0 
-0.09531401950641137 
0 
0 
0.05092971732422618 
3.77011519048141e-05 
0 
0 
0 
0 
0 
0 
0.0001239195569231216 
-0.0009229982186023918 
0 
0 
-0.07360248413035074 
0 
-0.1313218232518889 
0 
0 
-0.1556705053527181 
0 
-0.04364892031444659 
0 
0.5567704045949742 
0 
0 
0 
0 
0 
0 
0 
0 
0 
0 
0 
0 
-0.3890334306180566 
0 
0 
-0.0395224834909868 
0 
-0.03534315963039306 
-1.402147391448059e-05 
0.09323514751867845 
0.26374984451644 
0 
0 
0 
0 
-0.002737319222136119 
0 
0.300118282078789 
0 
0 
0 
0 
0.01285574727366733 
0 
0 
0.2134659393795188 
0 
0 
0 
0 
-0.08528210352865559 
0.3749838048152651 
0 
0 
0 
0 
0 
0 
0 
0 
0 
-0.07732134806944062 
0 
0 
0.01869215343914262 
-0.0003574828403790024 
-0.004368667622962931 
0.2143445968803742 
-0.2894928312703155 
-0.001166232816624162 
0 
0 
0 
0 
0 
0 
0 
0 
0 
0 
0 
-0.04633612506906333 
0 
0 
0.0009324234903594891 
0 
-0.0003621984604832806 
0.3263485062495922 
0.03359966245933921 
0 
0 
0 
-8.862438042604151e-05 
-0.001547967971003053 
0 
0 
0 
0 
-6.510316898130565e-05 
0 
0 
-0.01009509073223941 
0.1420637703746435 
0 
0 
0 
-2.816320730118121e-05 
8.752929061332245e-05 
0 
0 
0 
0 
-4.531244101672169e-05 
-0.0002207838825693193 
-0.2932450264106881 
0 
0 
0 
0 
-0.0002226549531206005 
0 
0 
0 
0 
-0.1341462632592167 
0 
-0.08936900437955847 
0.0894657275555846 
0 
0 
-0.3989815768252561 
0.006142918181786597 
0 
0 
0 
0 
0 
0 
3.528469861139841e-05 
0.1356151894249149 
0 
0.2337095274071646 
-0.1816721264855 
0 
0 
0 
0 
0 
0 
-0.1018315377209455 
0 
-0.01378274113106747 
0.2747320903477179 
-0.01750205040103011 
0.1266970210269431 
-1.665774896629805e-05 
0 
3.011354746815568e-05 
0 
0.03490310185580064 
0 
0 
-0.01147229488998403 
-9.642230028331257e-07 
-2.141938739693656e-05 
0 
0 
0 
0 
0 
0 
-4.115661263295327e-06 
-4.046207321069855e-05 
0 
0 
0 
0.08039405965718099 
-0.006146308968313936 
0 
0.1011372984103881 
0 
0 
0 
0 
0 
-0.0001539150947049234 
0 
0 
-8.64265664729133e-05 
-0.5121181187112467 
0 
2.627988132494293e-05 
-0.04497766491483667 
0 
0.3639428269175851 
0 
0 
0 
0 
0 
-0.03143390907093202 
0 
0 
0 
0 
5.023990349220267e-05 
0 
6.262168706756556e-05 
-0.04501523307402401 
0.03591658438056342 
0 
0 
0 
0 
0 
-0.06705646378121599 
5.602724574483578e-06 
0 
0 
-0.001454077149822059 
0 
0 
0 
0 
0 
0 
0 
-0.3387351683835919 
0 
0 
0 
0 
0.4350890635339636 
0 
0 
-0.0009457405447542157 
0 
-0.0004363642086754587 
-0.3327264345687453 
0 
0 
0 
-0.1579822344423855 
0 
0 
0.001377329060224765 
0.04159937451270584 
-0.2672883451489707 
-0.07001976565474542 
-2.63820125709776e-05 
0 
0 
-3.033608229730721e-05 
0 
0 
0 
0 
0 
-0.002895823147311061 
0 
0 
0.04248516565345028 
5.531884304455927e-06 
0 
0 
-0.0004402754498384004 
0 
0 
-0.07959833584942896 
1.529135152897162e-05 
0 
0 
-0.06093289376354603 
0 
0 
0 
0 
0 
0 
0 
-0.1026488797349028 
0 
0 
0 
0 
-0.1303337828206216 
-0.1882183167664835 
0 
0 
0 
0 
0 
0 
0 
-0.0005291888829438097 
0.1466979227612936 
0 
0 
0.2826506783420505 
0 
0 
0 
0 
-4.329625673503906e-05 
0 
0 
-0.1143600971561799 
0 
0.002675751710169495 
-0.07058801051487254 
0 
-0.3046788916667864 
0 
0 
0.1540188232017472 
0 
0 
0.06881152769752302 
0.03688879915888409 
-0.08586544460197273 
0 
0 
0 
-0.2548438926198577 
0 
0.02578284946846621 
0 
0 
0 
0 
0 
-0.53177827587246 
0.09784507444762883 
0 
-0.03291911908084649 
0 
0.271648819376347 
0 
-0.06631397044971203 
5.117094272520602e-06 
0 
0 
-0.0002758031149560487 
-4.262775854446235e-05 
-0.0528998326320806 
0 
-3.294871615529548e-05 
0 
0.0003493039364064583 
-0.05128584827994694 
-0.03098224881228263 
0 
-0.1086731739602173 
0 
3.839372602205145e-05 
-0.1785685726657577 
0 
0 
0 
0.1011206607648577 
0 
0 
-0.07313137294715348 
-0.07383248262124056 
0.2910850757145642 
-3.143719375787883e-05 
0 
-0.1251459500095914 
0 
0 
0 
0 
0 
0 
0 
0 
0 
0 
0 
0.004249202232667153 
0 
0 
0 
0 
0 
0.002491940715719957 
0 
0 
0 
0 
0 
0 
0 
0 
0 
0 
0 
0.04082371685626637 
0.3829977088109074 
0 
-0.3949140838774525 
0.1373439074679551 
0.06267049407967847 
0 
0 
0 
0 
0 
0 
0 
0 
0 
0 
0.0002741148594956059 
0 
-0.1208773804195853 
0 
0 
0 
-0.00369924263736486 
0 
0 
0 
0 
0 
-0.0001461376198884187 
0 
-0.0001871690353442486 
0.3108762614234313 
0.7572748374855921 
0 
0 
0 
0 
-1.118222904649882e-05 
-0.1248473861460316 
0 
0 
-0.1118800435798348 
-0.1379361412396828 
0.2247865759795339 
-0.0007051323880481997 
0 
0 
0 
0 
0 
0 
0 
-0.003485674863959173 
0 
-0.005794087661414668 
0 
0 
0.1386594470045603 
0 
-0.0007182662436834384 
0.08582942647879366 
0 
0 
0.03937751583318175 
0 
0 
0 
0 
0 
0.001769063814016775 
0 
0 
0 
0 
0 
0 
-0.000839521093506912 
0 
0 
0 
0 
0 
-0.005131116970592271 
-0.0003541587878770677 
4.40343110584829e-05 
0.001227740204282206 
0 
0 
0 
0.04664068311519425 
0 
3.395990290171137e-05 
-6.471941653509836e-06 
0 
0.004956435684978076 
0 
0 
0 
-0.08778803243952374 
0 
0.1703641842595459 
7.925030172091516e-06 
-0.01007800675866707 
0 
0 
1.139504349979401e-05 
0 
0 
0 
0 
-0.04692337794263531 
0 
-0.09412571430506603 
0 
0 
-2.921297450924731e-06 
0 
0 
-0.2199368796907899 
3.465390261023595e-05 
-0.0002372423183427917 
0 
-0.1500700459196581 
0 
0 
0 
0 
0 
0 
0 
0 
0 
0 
0 
0 
0 
0 
0 
0 
0 
0.2437068109048505 
-0.4959439068764709 
0 
0 
-0.07754518962167975 
0 
0 
0 
0.1511339225004878 
0 
0 
0 
0 
-0.0004920759890592455 
8.891711723005085e-05 
-0.228526459285382 
8.551644746314997e-05 
0 
0 
0 
0 
-0.9674046906245891 
-0.04176779453138234 
0 
0 
0 
0 
0 
0 
-2.054915116367864e-05 
-0.09076762143180102 
0 
0 
0 
0 
-0.0002436740132944279 
-0.3406266677721346 
0 
-0.07383240564619561 
0 
0 
0 
0 
0 
-0.1003761521361071 
0 
0 
0 
0 
0.3950283976271976 
0 
0 
-0.1284317300147269 
0 
-0.2346684932788594 
-0.04651862811783698 
-0.1889078907164058 
0 
-0.08665540983934833 
0 
0 
0 
-0.04063665145104094 
0 
5.458519085607977e-06 
0 
0 
0 
-0.1436009623634361 
0 
0 
0 
0 
0 
0 
0 
0 
0.08490549140619941 
0.1819138050972721 
0 
0 
-0.1718801187683622 
0 
0 
0 
0 
0.1489242562349248 
0 
0 
0 
0 
0 
0 
0 
0 
0 
-0.05600101679300894 
0 
-0.3578605848006323 
0 
0 
0 
0 
0 
-5.515105883976883e-05 
0 
0 
0 
1.963602955383249e-05 
0.05641944656820964 
0 
-0.1003259286433886 
0 
-0.05199533972970079 
0 
0 
0 
-0.04781259242152466 
0 
0 
0 
0 
-3.804147873715007e-05 
0 
0 
0 
0 
0 
0 
0 
0 
-0.0001138205354616241 
0.0003087275122750993 
0 
8.552353759608809e-05 
0.00912235835625692 
0 
0 
-0.9845983197216549 
0.001339539002421444 
0 
0 
-0.06969475400220317 
0 
0 
0 
0 
0.142966995278116 
-0.05727954864357937 
-0.0006073360668194983 
-2.434706586666382e-05 
9.010883453067307e-05 
0 
-0.02055070228626233 
0 
0 
0 
0 
0 
0 
0 
0.05084530372097831 
0 
0 
0.05840380359520758 
-0.1529267905192047 
-0.008851923799729199 
0 
0 
0 
-0.0004052422376813857 
-0.008006833831480048 
0 
0 
6.195079856813478e-05 
-0.00373953782493565 
0 
0 
0 
0 
0 
0 
0 
0 
0 
0.0006971525751219665 
0.06994313999936348 
0.2974271728568953 
0 
0 
0 
0 
0 
0 
0 
0.007170817346510913 
0 
0 
0 
0 
0 
-0.0001439070975678579 
0 
0 
0 
0 
0.1191752362988749 
0.1827737051584134 
-0.002331692163740279 
0 
0 
0 
-0.0194349647402348 
0 
-0.06192995171467088 
0 
6.764252444753897e-05 
0 
-1.017459848766999e-05 
0 
4.932694177709227e-05 
-0.2259921469182258 
0 
0.2354392042493473 
0 
0.08049373706996216 
0 
0 
0 
0 
0 
0 
0 
0 
0 
0.02596793758561369 
0 
0 
-0.02480619338556517 
0 
0 
-0.06855550601691013 
0 
0 
0 
0.06055659464496359 
-0.165539336359617 
0 
0 
0 
4.09028478725825e-05 
-0.008550367507284273 
0 
0.0001030145547447782 
0 
0.03036533449906208 
0 
0 
-0.06574498909633333 
0 
0 
0 
-0.08280679549530486 
0 
0 
0 
0 
0 
0 
-6.677513350484158e-05 
0.001911872226883136 
0 
0 
-0.006645272852768266 
0.00431258369532238 
0 
-1.380583291120629e-05 
0 
0 
0.1317185341225126 
0 
0.02507668393471316 
0 
0.19268240680888 
0 
0 
0 
-0.04839642600764978 
3.967388003305352e-07 
0 
0 
0 
0 
-0.08324549188966363 
0 
-4.108173087441293e-05 
-4.516753064826815e-05 
0 
0.3244540184675523 
0 
0 
-2.585810713740508e-05 
0 
0 
-0.07456460526060596 
0 
-0.1234371022011744 
0 
0.3033557574644596 
-0.1048034052551824 
0 
0 
0 
0 
0 
-0.08041252335119906 
0 
0 
-0.07254822545492833 
0 
0 
-0.0006413774719064916 
0 
0 
-1.067634144838774e-05 
-1.321247753302977e-05 
0 
0 
-0.0004058833624931515 
0 
0 
0 
-0.1472736219843879 
0 
-0.1882562242643509 
0 
0 
-0.09942851734489955 
-5.169503124202881e-05 
-0.2038585086080493 
0 
0 
-0.1466102965532929 
-0.001044602080940843 
0.4771473600310725 
-0.001600127528707267 
0 
-0.2189524467324819 
-0.08661291981708397 
-0.07821945904207374 
0 
2.251681603486915e-05 
1.393718700013365e-05 
0 
0.001158922986018525 
0 
0 
0 
0.03212893035568141 
0 
-0.04063665145104094 
0 
-0.0002336502830227702 
-0.1214890978959732 
0 
0 
0 
0 
0 
0.002833101595948481 
-0.205865321552904 
0 
0 
0.0001339169441600087 
0 
0 
0.1814972154515549 
0 
0 
-0.1311123163502032 
0 
0 
0 
-0.01122541351063447 
0 
-0.08484125254972538 
0.04777168963760695 
0 
0 
0 
0.05023118788772667 
0 
-1.727902007177814e-05 
0.0001331716867208313 
0 
-0.06985815805057743 
0 
-0.06368773388707696 
0 
0 
-7.578590984819048e-05 
0 
-0.01307848565449137 
0.02081047517996177 
-0.04964332592649767 
-0.03458387093992635 
3.313704806161821e-05 
0 
0 
-0.2791132719045628 
0.2225875927654183 
0 
-0.04367794237608614 
-0.03410862867752815 
3.73188259110653e-05 
0 
-0.36873908850972 
0 
0 
0 
-1.006135267368605e-05 
0 
0 
-0.3383469953668087 
0.2201430944039522 
7.315285495720672e-05 
-0.2146780600695912 
0 
0.2173656415471436 
0 
0 
-0.000324510689050584 
-5.082286717603157e-06 
0 
0 
-6.039381372427241e-06 
0.22601724361673 
0 
0 
0 
-0.0002879564051251978 
-7.910400792264513e-05 
0 
0 
0 
0 
0 
0 
-0.001984344143873586 
0 
0.4379713313510765 
0.1111435875501686 
7.50481564931061e-05 
0 
1.500506155392415e-06 
0 
0 
0 
0 
0 
0 
0 
0 
0 
0.002534804486419245 
-0.2870780305554005 
0 
0 
-0.2621333797811648 
0 
0 
0 
0.07203188463483756 
0 
0 
0 
0.004298388621531703 
0 
0 
3.728524476185655e-05 
0 
0 
0 
0 
0.0004309939262209085 
0 
0 
0 
-0.03325532149188557 
-0.0004658274659988613 
0 
0 
0 
-0.03546959145160998 
0 
-0.03505877209012949 
-0.0001041536140886424 
0 
0 
0 
0 
0.1000701944765976 
0 
0 
0 
0 
0 
0 
3.476179825529008e-05 
0 
-0.03712159875551484 
0.06071339151293186 
0 
0 
-7.603013401921674e-06 
9.129131645843738e-05 
0 
0 
0 
-0.0004082749080431003 
0 
0 
-0.552962074194577 
0.2090892375591308 
0.388254411579888 
0 
0 
-0.09119742888562889 
0 
0 
0 
-0.106521094308701 
0.0007388745477501526 
-0.000771242148816765 
-0.2144673978220002 
0 
0 
0 
0.07044656046755728 
0 
0.01260818208996311 
0.002366993414750167 
-5.806294478736277e-05 
-0.0001714888922804779 
-4.479765170536327e-05 
-0.0001904047417317493 
0.2361852915225831 
0 
0.2067447013784686 
4.733920873125232e-07 
0 
-0.0426579574089926 
-1.423552924422778e-06 
0 
0 
0 
-0.2386815793445086 
-0.005827898998698667 
0.3111756116634719 
0 
9.023733661673162e-05 
0 
0 
0 
-0.001602026992600803 
0 
0 
0.2219721112086346 
0.04451954253207721 
0.1228726055260033 
0 
-0.00491243242254681 
0 
0 
5.348886865791738e-05 
0 
0 
-0.0004314091175397895 
-3.28116656606313e-06 
0.1688252212334398 
0 
0 
6.506782901750809e-06 
0 
0 
8.753314327185406e-05 
0 
0 
-0.00442422341962195 
0.1398239196320119 
0 
0 
0 
0 
0 
0 
0 
0 
0 
0.04531305711797739 
0 
0 
0 
-0.04504541153630786 
0 
0 
0 
0 
0 
0 
0 
0 
0 
0 
0 
0 
0 
0.001026042708308917 
0 
0 
0 
-0.2229363390049527 
-0.0001067644484680467 
0.001210633640499462 
-0.006038896768735568 
0 
0 
0.07647509194041667 
-2.102227430352632e-05 
0 
0 
0 
0 
0 
0 
0 
0 
0 
0 
0 
-0.223234250042534 
0 
0 
-1.402147391448059e-05 
0.1675321782413592 
0.1980006494769371 
7.297449501377226e-06 
0 
0 
0.1540892224791917 
-4.531244101672169e-05 
0 
0.1195423891580445 
0 
0 
0 
0 
0 
0 
0 
0 
-0.06382163543705908 
-0.1111214677536424 
0.01722035339086753 
0 
0 
-7.261712989403254e-05 
0 
0 
0 
0 
0.31553140033236 
-0.1562347102261855 
0 
0 
0 
0 
-0.0765988093337799 
0 
-0.003102067578744353 
0.0831492074606069 
-0.02704837332353551 
-0.1175735917428878 
0 
0 
0 
-0.07915692232875721 
0 
0 
-0.03946490532160876 
-1.501821666615448e-05 
0 
5.846127369796755e-06 
0 
0 
0 
-0.1361718112296494 
-0.0008366018565918272 
0 
0 
0 
0 
0.2016546287995896 
-0.1145504132724992 
0.1173550499829191 
0 
0.0002899181281221103 
0 
0 
0 
-0.07908109346335124 
0 
0 
0 
0 
0.2169671832114346 
0 
0 
0 
0.1242809446567113 
0 
0 
0 
0 
-1.791717659005232e-05 
0 
0 
0 
0 
0 
-0.0436358282821798 
0 
-0.3935916017510141 
0 
-0.0001530101579797379 
0 
8.554606510029097e-05 
0 
0 
0 
0 
0.05063908019127678 
0 
-4.411226781281786e-05 
2.542303094566068e-05 
0 
-0.1470774952247291 
-0.01789917051359829 
0 
0 
0 
9.024757537270473e-05 
0 
-0.001006077350684533 
-0.1212506857338627 
0 
0 
0 
0 
0 
-0.00323167032975662 
0 
0 
0 
0 
-0.03496624694914421 
-0.1223035965771185 
0 
0.02202807649493843 
0 
-4.249557801215472e-05 
-0.0001509864734271763 
0 
1.495869767937087e-06 
6.544306017615823e-06 
-0.323141851400818 
0 
0 
-0.01804095617821177 
0 
0.1934464119785624 
-0.0006122027720767596 
0 
0 
0 
0 
0.05655293253325412 
0 
-0.143895152560866 
0 
0.06303715379141575 
2.775034512742426e-05 
0 
0.04328249594306172 
-0.080520223921075 
0.001055194881540551 
-4.541109455217761e-05 
0 
0.0466743539156346 
0 
0 
0 
0 
0 
0 
0 
0 
0 
0 
0 
0 
-0.2344726457555196 
0 
-0.69888803299899 
0 
0 
0 
0.005996868676535892 
-0.00014477994900116 
0 
-0.0053188613975324 
0 
-9.409359042632367e-05 
0 
0 
0 
3.433610396810941e-05 
0 
0.0002582076217710587 
0 
0 
0 
0.01545655432454224 
0 
0 
0 
0 
0 
0 
0 
0 
0 
-0.1717022352101319 
-0.2988107555940226 
3.746258769418773e-06 
-0.0001380097777605781 
0 
0 
-0.1556041421454574 
0 
0.3103833932086146 
0 
0 
0 
-0.07878212124075376 
0 
0.129037513034548 
0 
-0.02480619338556517 
0.05676898805615322 
0 
0 
0 
0 
-0.367694965703067 
0 
0.000492724085752381 
0 
4.792388242473594e-05 
-1.604592971357595e-05 
-0.01318111306675825 
0 
0 
0 
0 
0.0001653199852713194 
5.161904908337905e-06 
0 
0 
0 
0 
-0.000136213340638606 
-0.2025252455103153 
0 
0 
0.0117851528555673 
-0.0946782255594226 
-0.03201819249933011 
0 
0 
0 
0 
0 
0 
0 
-0.1110963770064826 
0 
0 
0 
-0.0008483827614036879 
0 
0 
0 
0 
0 
2.95770424576005e-05 
-0.002207538474019087 
0 
0.2204704901530203 
-0.1717140734559129 
0 
0 
0 
0 
3.323460449696124e-05 
0 
0 
0.06455419662840597 
-0.003150771153813396 
-0.1982086828117532 
0 
0 
-0.0321384350713181 
0 
0 
-0.1145312039294761 
8.483053261408606e-06 
0 
0.02922912382550709 
0 
9.0734226708877e-06 
0 
-0.5005583987556239 
-4.34433185853076e-05 
-0.01177806293799554 
0 
-0.1774020665193868 
0 
0 
0 
-0.2745996340265148 
0 
-0.02686275000083533 
0.07399278164992726 
-0.08216270145162084 
-0.1197206445751455 
0.3460092152566422 
-0.3327818136251061 
0 
0 
0 
0 
-0.0002024465707590738 
0 
0 
0.05199138985138126 
0 
0 
0 
0 
0 
0 
0 
5.799992189122223e-05 
0 
2.047876413556707e-05 
-0.06072573434715293 
-0.0003636929041020483 
0.01540195327904439 
0 
0 
0 
4.923800923017728e-05 
0 
0 
0 
0 
-0.02602736533539551 
0 
0 
-9.829712308340719e-05 
0 
0 
-0.2353352014618841 
0.05867643341090407 
-0.2046653146732802 
0 
0.006918856452503881 
0.001865762555639748 
0 
0 
0 
-0.05913883430976839 
0 
0.0001013802400951745 
0 
0 
0 
-1.280808203218855e-05 
0 
0 
0 
-0.0002325684503187289 
0 
0 
0 
0.002930045412696331 
0 
4.597545488052709e-05 
0 
-0.0006030342149933243 
0 
0 
0 
0 
0 
0 
0 
0 
-0.1481255490034782 
-0.0001228370548038656 
-0.1568426115237324 
0 
0 
-0.001947906355915962 
-0.1009478525696235 
0 
0 
0 
2.840805937929552e-05 
0 
0 
0 
-0.0004016726395502852 
0 
0 
0 
0 
0 
-1.878870130292006e-05 
-0.04526465926995171 
0.001125114188086082 
0 
0 
-7.274857283938965e-06 
0 
0 
0 
0.3031292138149839 
2.487106447788589e-07 
-0.1770532073468653 
0.09080644421649214 
0 
-0.000101787441455135 
-0.4251247042804795 
0 
0 
0 
0 
0.266745556810464 
0 
0 
0 
-2.434209719378226e-05 
0 
0.0014375450845053 
0 
0 
0 
0 
0 
0.07111009549400207 
-0.01481917957378678 
0 
0 
0 
0 
-0.1236009419123067 
0 
0 
-2.516515353771442e-05 
0 
0 
0 
1.940055844747188e-05 
0 
0.1487411062821936 
0 
0 
0 
-0.08544525608569663 
0 
0 
-8.120617779849422e-06 
0 
0.0001728325485231918 
0 
-0.0001180670277216079 
0 
0.09989405864826545 
-8.536321470894359e-06 
0 
0 
-3.91286829957651e-05 
0 
0 
0 
0 
0 
0 
-0.110805253656914 
0 
0 
0 
-0.09463178224531398 
0 
0 
-8.057429346752901e-05 
-2.047896302960339e-05 
0 
0 
0 
-8.734117162362861e-06 
0 
0 
-0.0001904047417317493 
0 
0 
0.0001003934484420321 
0 
-6.025375147693273e-05 
0 
0 
0 
0 
0 
0 
-0.0002264445357656486 
0 
0 
-0.114735162033227 
-0.04651589306227064 
-0.05501709861481364 
0.07502974933467524 
0 
0 
-2.63256657138691e-05 
0 
0 
0 
-0.02931922943054008 
0 
-0.002028712774647552 
0.02379665982606834 
0.03867527648010582 
-0.00106368931019073 
0 
0 
0 
0 
0 
0.0001805272476975583 
0 
0 
-6.053237266340731e-06 
-0.04787098331116197 
0.3182888712335088 
0.01980161935912078 
0 
-2.930213508675817e-05 
0 
0 
2.559491901987047e-05 
0 
0 
2.497533544888065e-05 
0 
0 
-0.516263572694466 
0.1329360645511697 
0 
0 
0 
0 
0 
-0.03690591574990575 
0 
0 
0.7429849329324625 
0 
4.343618262858768e-05 
0 
0.2559533064523564 
-0.008103596033218377 
3.594133485174566e-05 
0 
0 
0 
0 
0.09089201622733042 
-0.0001692293614748345 
0.0001706369648817397 
0.2337666453207108 
0.1010458346688061 
0 
0 
-0.02232022719751479 
-3.935047940137272e-05 
0 
0 
-2.055127090530423e-05 
0 
-0.0003341043764125142 
0 
0 
0 
-0.03256784246118272 
0 
0 
0 
-0.0217030339632246 
0 
-0.1225224826228548 
0 
0 
0 
0 
-0.1968923841694799 
0 
-0.06643456304042965 
0 
0 
0.01120989819111066 
-0.009897112117189763 
0 
0 
0 
0 
0.0004607930926019931 
-0.0009184042928634712 
0.1308414740923189 
-0.05071485927006884 
-0.05857094199002268 
0 
0 
0 
-4.334297614321485e-05 
0 
0 
0 
-0.05808507178271511 
0 
8.979770647182523e-05 
0 
0 
0 
0 
0 
0 
0 
0 
2.029459120547826e-05 
0 
0 
0 
-0.05897814360752381 
0 
0 
1.786618316129742e-05 
0 
0 
-0.273648362017155 
0 
0 
0 
0 
0 
0 
0.001464419565016765 
9.028473331373996e-05 
0 
0 
-0.1877404156435176 
0 
-0.00179896949382099 
0 
-0.002876768903510166 
-0.1569640530479301 
0 
0.0326466986809805 
0 
0 
0 
0 
0.1293529137317364 
-0.01264123810438231 
0 
-2.068160807487275e-05 
0.04716490325393514 
0 
0 
0.02230560228119541 
0 
0.001091067020958797 
0 
-0.04049765118345721 
0 
0 
0 
6.586180688163788e-05 
0 
0 
0 
0.1154380728651531 
0 
0 
0 
-0.09157759510614065 
0 
-0.01358382488017203 
0.009086448934373201 
0 
0 
0 
0 
0 
0 
0 
0.1897068839282602 
-7.355639701916013e-05 
-1.787626550107398e-05 
1.11476394739705e-05 
-0.008568666380645346 
0 
0.006448367016731984 
0 
0 
0 
0 
0 
0 
-0.3114025135495359 
0 
0 
0 
0 
0 
0 
0 
-9.09065812168866e-05 
-0.08467356212440014 
-0.06705370437204067 
0 
0 
0 
0 
0.0001300621522204802 
0 
0 
-0.002393548747304762 
0 
0.0001249667913330134 
5.565131992787195e-06 
0 
0 
0 
0 
0 
0.1154380728651531 
0 
-0.004869320309592251 
0 
0 
0.1965774604608319 
0 
0.1913537167981244 
0.1691368872109245 
3.710043197580656e-06 
0.01259114868105604 
0.09472689224472863 
0 
0 
6.712863686389277e-05 
0 
-0.1329754487109449 
0 
0 
0 
0 
-1.289081698077759e-05 
-5.323148688294774e-05 
0 
0 
0 
0 
0 
0 
0 
0.1390172658018505 
0 
0 
0 
0 
0 
-0.3022917982527291 
0 
-0.2248393875565705 
0 
0 
0 
0.1306039879520151 
0 
-4.916762875456911e-05 
0 
0 
0 
0 
0 
0.05177543607247916 
0 
-0.08224643002816716 
0 
0 
0 
0.1845191984193023 
-0.4230584802922837 
0 
0 
0.0005301968856498806 
-3.607731201865416e-06 
0.0002187803913830258 
-0.7367808539783877 
0 
-0.0004722605729679439 
0 
-0.1620494961245669 
0 
0 
0 
0.2539173752461799 
0 
-0.0007170303337385433 
0 
-4.464337914105121e-05 
0 
4.0352474149106e-05 
0 
0 
0 
0 
0 
-0.1396087405635625 
0 
0 
0 
0 
-0.02675879457998874 
0 
-0.001462324915847765 
0 
0 
0 
0 
-0.002465466942349166 
0 
0 
0 
0 
0 
0.04057506048368194 
-0.2838290423801259 
0 
0 
0.04887908409942721 
0 
0 
0 
0 
0 
-2.649463683506398e-05 
0.0006335692848509925 
8.506001552930649e-05 
0.04582132182649649 
0 
0 
-0.01833658352043619 
0 
0 
0 
0 
-0.0001988637082071546 
0 
-0.1146499200440404 
0 
-0.06995949197199154 
0 
3.042656792935579e-05 
0 
0 
0 
0 
0 
-0.01009014143081552 
0 
-0.000116820117532968 
0 
0 
-0.158692117881657 
0 
0 
0 
-0.0108915684998784 
0 
-0.1752321562555941 
-2.81843280212284e-05 
-0.07381227194199493 
0 
-0.398293444091446 
1.202308967622044e-05 
-0.002865934561499009 
0 
0 
0 
-0.5399227117473137 
-0.009293724253597578 
0 
-0.1516300661207748 
0 
0 
0 
0 
0 
0 
0 
-0.1178411013692511 
0 
0 
0 
0.0003341215364569112 
0 
0 
-0.08376847332720964 
7.746071162370742e-05 
0 
0 
0 
0 
0 
0 
-0.06964940920830956 
-0.2949412767942389 
0 
-0.05574727300622766 
0 
0 
0 
-0.1945644477863935 
0 
-0.167803517851583 
0 
-0.1353189013265916 
0 
8.409257121927264e-05 
0 
0 
0 
0 
0 
0 
0 
0 
0 
-0.1622548815937966 
0 
-2.432019001512187e-05 
-0.2611434248615035 
-0.02227089124094925 
0.06619790698294639 
-0.002470841080352086 
0 
0 
0 
-0.0001121279970445805 
0 
-0.07591023070187457 
0 
-0.09695455649182635 
0 
-3.556226694187553e-05 
0.0001320478082117333 
0 
0 
0 
3.060823640097599e-05 
0 
