solver_type L2R_L2LOSS_SVC
nr_class 2
label 1 0
nr_feature 69365
bias -1
w
-0.01411152515088382 
-0.006767196756513287 
0 
0 
-0.02624855720127477 
0.02708002065658092 
0.03007589188098969 
-0.01875037777224086 
-0.01702488351213817 
-0.02378713009470351 
0.0234521519077779 
0.01549471595609855 
0 
-0.007799630477850902 
0 
0 
-0.01775155146094711 
0 
-0.0008241066524694396 
-0.01842814096245785 
-0.004722229339344535 
-0.006302898061879989 
-0.008465783253471358 
-0.001646416977084879 
0.008270653043535329 
-0.01615753816843949 
0.02712843375124423 
0.03105139833229664 
0.007005258357852154 
-4.738083630204554e-05 
-0.001960454453495743 
-0.01875037777224086 
-0.01167544660872501 
-0.008087668381543633 
-0.004367769305489818 
-0.009011234216425365 
0 
0 
0.01815360082648398 
-0.004699179330203519 
0.004188649632093787 
0.02349420289102298 
0.003775196465188042 
0 
-0.006904659008754777 
-0.01784127262286228 
-0.0419585242557946 
-0.004654338073839508 
0 
-0.002883773090467083 
-0.005149916002072687 
0.01987177743976112 
-0.02607122381105107 
0 
0.01461796982534153 
0.01875037777224086 
-0.01767895764927944 
0 
-2.777994363910134e-05 
-9.69035379720045e-05 
-0.028885120815956 
0 
-0.009966461311488704 
-0.04096487929545187 
0.01517758249520718 
0 
-0.02527794152238582 
-0.02107375538431697 
0.03831420599546206 
-0.006362037083502916 
0.04016815574505815 
-0.01846939404699406 
-0.008202294553249872 
-0.04300880161784833 
-0.003617609250033552 
-0.01164713379873046 
-0.05645595792480441 
0.01887635274317857 
0.02809317326442859 
-0.01749255594985353 
0.02440559435061467 
-0.006234656853089816 
-0.02706827076822798 
-0.006810078250170558 
0.1020745561793642 
-0.01875037777224086 
0.01626324954061139 
0 
0.01790094832111933 
-0.006501657935550906 
-0.01883381812507977 
-0.01525407150845959 
0.0004104735724866709 
-0.01355590474778425 
0.01972058372451748 
0.02048327160119405 
-0.006911748121411625 
0 
0.001116785632816526 
0.01242029904582685 
0 
0 
-0.008746677726739345 
-0.06172067543888587 
0.01774232487938172 
0.0124814846480052 
-0.01875037777224086 
-0.01744155614587184 
0.01862997198638273 
0.01053599654161865 
0.02455049777761845 
-0.04793059167899505 
-0.005100615266295495 
0.0539115480306864 
0.001133555974570288 
0.02826774976139323 
0.04939230745465024 
0.02945840972095793 
-0.01525407150845959 
0 
0.01846989850124867 
-0.01570878113409935 
-0.01724209932827774 
0.01870888023100132 
0.02441191143227699 
-0.02638130334166837 
0 
0 
-0.01244914360381769 
0.0007007324802019621 
0.0698877971772526 
-0.01935251531299311 
0.004540325868261057 
-0.01757880189475297 
-0.04968338958857322 
0 
-0.02010849069124785 
-0.03093309925733706 
-0.01875037777224086 
0.004300289261976807 
0.007369993075670381 
0.002641470975308262 
-0.008427603466845839 
0.01029588789443015 
0 
-0.03212982990712698 
-0.01783168434581155 
0.004631952528188214 
-0.01673608914683013 
-0.02643179095274456 
-0.0003143069304286522 
-7.343201438769721e-05 
0.000173615150989213 
-0.01722117791318843 
-0.007751114308856773 
0 
-0.009186633788348286 
0 
-0.01046422112236889 
-0.01274107995759737 
0.01476019143797742 
0.01870860756901649 
0.0244215957511897 
0 
0.01892175566738261 
-0.01833363869931845 
0.01736617209247387 
-0.05117152231231105 
-0.01719686317096673 
0.02548858705096408 
0.02245547109540529 
0 
-0.006426666753033832 
0 
0.02906698478690983 
0.004787813083435111 
0.02852854733326753 
0.01102265136323315 
-0.01875037777224086 
0.01178408483977871 
-0.02040059282025862 
-0.01548821684674652 
-0.02115387374279098 
0.04181013915435255 
-0.005690821687567921 
0.000178690750225429 
-0.02248252108840491 
0.04887082392484647 
0 
0 
-0.01257984136565329 
-0.04100928980815927 
0.0264182317768373 
0.003518181498712524 
0.007988492690790794 
0 
0 
-0.006902891144500392 
-0.04119749764847659 
0.03359586107131967 
-0.009329988137233203 
-1.522783147713177e-05 
-0.01556969863428222 
0 
0.02269276241179459 
-0.005102140182183116 
0.02014457733132269 
-0.001895717289660685 
0.03499825996446735 
0.005145045679671355 
-0.01649125652564397 
0.0172293636912815 
-0.01250967197817615 
-0.01698770134109612 
0 
-0.00937151881284997 
0 
0.0124601219142155 
-0.0001381044591162036 
-0.007541393107693336 
-0.002565369482649502 
-0.0232535918726287 
0.01264791339616033 
-0.01885550586052147 
0.007567098917381901 
-0.01415804261309622 
0.008752397911561228 
0.001299605629263166 
-0.04118715879510445 
-0.01875037777224086 
-0.004066824360673178 
-0.02100496260868289 
0.02975071157014599 
-0.003162567421374656 
-0.02572728701969882 
0.008871147045005806 
-0.0003580439253948386 
0.03957272175083609 
0 
0.01040275311425357 
0 
0 
-0.01580236204072436 
0 
0 
-0.001130035293056953 
0.003115781508993317 
0.006540074002980993 
0.03040195183464528 
0 
0 
0 
0 
0 
0.0006319756409840688 
0.01839593333307892 
0.04293598387913452 
0.0149470410393917 
0 
0.01325174806744253 
0 
-0.002817817220834362 
0.002077339159231888 
0 
-0.01119036180699023 
0.0001429957095285544 
-0.01666306886130733 
-0.01866782818840048 
-0.011495923120778 
-0.01239512937563822 
-0.003874214956959408 
0 
0.01229067889093454 
0 
-0.01415917537089476 
-0.04372215659170026 
0.0273502483424106 
-0.008069287330177468 
0.002756052665569288 
-0.01678073542773699 
0.003451975499283379 
0.01968588400510797 
-0.003677943149906529 
-0.02280571332103594 
-0.01795175790275006 
-0.09271096092861297 
0.0111941199015384 
0 
-0.007324163866832653 
0.01960571121020181 
-0.004570203893723996 
0.02115491910475723 
0 
-0.01004610799155277 
-0.008989205252886944 
-0.02563201754259551 
-0.03486053144648445 
0 
0.02569470206986341 
0.02882392608024064 
0.02627376600939288 
0.02110207046109782 
0 
-0.03763198421359722 
-0.03128188080569551 
-0.01442900139660423 
0 
0 
0 
0.04222710782562753 
0 
-0.07898110657022636 
-0.08920313973103836 
-0.02296085020318106 
0.03118530377282291 
0 
-0.01250670271698201 
0.007303018912555731 
0.03836807645180091 
0.0008231048488299797 
0.006190956343854647 
0.04402268988140722 
-0.03282205708532727 
-0.02016029362610995 
0 
0.04405898626312022 
0.019972607378735 
0.0001272876540089571 
0.01622163515053437 
0 
0.01427262584841465 
-0.007803752861569081 
0.006369402599404219 
-0.00767923624850177 
0.02907968258665199 
0 
0.01404773418412405 
-0.02073880712435896 
0.01779550039991152 
-0.01287991672244866 
0.002459845737899697 
0.01694787262370361 
-1.632919899202494e-05 
0.03715329367550177 
0.02451191323171698 
-0.003670372589626452 
0.0006572039676881374 
-0.0169448331614242 
0.05090372952688025 
-0.01901386555570045 
-0.01491618823753153 
-0.002121467892623048 
0 
0.01432062690743756 
0.0001431587047650289 
0.02497589241112283 
0.04304515886190027 
-0.0333998071992659 
0.01408266437137152 
0.007832524389571483 
0.002568806458473102 
3.414925670726965e-05 
0.0003443250590867644 
-0.003951555123429545 
-0.02394318145080298 
-0.0005197629785016267 
-0.0001882980768932866 
-0.02559945186537679 
0.02848467843355596 
0 
-0.03482831524878911 
-0.005955450076024765 
-0.008690081587212302 
-0.02565832327048346 
-0.007617557507387931 
0.007353434613163807 
-0.01596778822281365 
-0.003096111936910923 
-0.02061771305184715 
0.01875037777224086 
0 
0.02205666535972299 
0.01953094777793613 
-0.06734502784034943 
0 
-0.01996964141165686 
0.02072151327497264 
0 
-0.03396717296630281 
-0.007070057626358938 
-0.003006044123782746 
-0.01895110852058945 
-0.02125946948673777 
0 
0.02118727537687027 
0.02659975928395886 
0.001788426412298047 
0.0047016187562416 
-0.005257349509282428 
0.01510894688350773 
-0.02133229470933331 
0.01875037777224086 
-0.00318840257148881 
0.01861320150231625 
-0.01744432313135002 
-0.003332038875989866 
0 
-0.001385398663735196 
0 
0.01521610433088599 
0 
-0.01360946380542279 
0 
0 
0.0183501132288375 
0.0001944880178029068 
-0.004367590446591632 
-0.05753888009286372 
0.02678082937868148 
0.01623353018079812 
0.005818120741944617 
-0.02067922924603687 
-0.08406276682527661 
0.01875037777224086 
0 
0.00721750111568193 
0 
0 
0 
0 
0.002881111613147806 
0.01651145213585118 
0.05330647076421088 
-0.07078946776907762 
-0.02089141408906761 
-0.01832671149968646 
-0.01631307224064021 
0.01698184740065322 
0 
0.03350003367782447 
0 
-0.005884134230247555 
-0.02284630449123886 
0 
0.01382044907219734 
0.003887682321525318 
-0.00400151003647179 
0.008275628835783116 
-0.01875037777224086 
-0.08635660598454876 
0 
-0.01654860345919572 
0.04999656268396284 
0 
-0.01270562545570938 
0 
0 
0.006369381523882072 
-0.0177073008164027 
-0.01808418221361517 
-0.01525407150845959 
-0.005146467848714031 
0 
-0.02085263510684906 
0.04235953044564678 
0 
0 
0 
0.0121962155832272 
0.06888641852369103 
-0.02828523880027447 
-0.03520493464343188 
-0.02667407973677045 
-0.01139047556928743 
0.005429121268877552 
0 
-0.001577732096417522 
-0.01875037777224086 
0 
0.0325298498876183 
-0.0262203530026288 
0.01390306997003789 
0.002186116812284186 
0.02317746884805704 
-0.01289123408332536 
0.01372533779288215 
-0.0001704706766469534 
-0.021648029372509 
-0.01088420895514641 
0.01580992511766994 
0.0296479998507234 
0 
0.005668264789077442 
-0.01309237211039553 
0 
0.01570564000563793 
0 
-0.000845895552296892 
-0.01225889806602798 
0.04115942872885781 
-0.01064003161569 
0.00385560960130221 
0.0003206555320344641 
0.0190764248456254 
-0.01158064054218417 
-0.01993075176169765 
-0.02449434906546159 
-0.02275942631193168 
-2.106258572978584e-05 
0.01447170995973571 
0.008562282854523628 
-0.01875037777224086 
-0.01068408606059106 
0.008846270495449688 
0.09930700738462564 
0.01286485278540318 
0 
0 
0.00654760894130427 
-0.0257454134727721 
0.004639008243871678 
0.02860761768489296 
0.01525407150845959 
-0.02337534114216999 
-0.007978680471381614 
0.001495228120336341 
-0.0107096376574584 
-0.01050048629382858 
0.006859376282047433 
0.01462426103241485 
0.0384346189529372 
0.000196450315528048 
0.01415895733814307 
0 
0 
-0.02706814400708782 
0 
-0.02146515509636131 
0.01926072543645952 
-0.00833322607626899 
-0.02050867120913337 
0.02227051126573511 
0.002103454174490242 
0 
0.01875037777224086 
-0.03463332640202599 
-0.0124043971382835 
-0.004412333089708686 
0.01110897700758614 
-0.02028483022601826 
-0.01609616468931866 
0.02488996697981187 
-0.01686929963725253 
-0.007673305889251983 
0 
-0.02187518390000623 
0 
0.003208353528088398 
-4.985089057994306e-05 
0.02951368973637613 
0 
-0.02241611877152901 
0 
0.01938073217891935 
0.03103292811525098 
0.01053754462607973 
0.01875037777224086 
0.02397468864450606 
0 
0.02863378209907563 
-0.003263493318712773 
0.02227019182142144 
-0.01273377046775338 
0.01875037777224086 
-0.007198794100408493 
-0.01364991185446704 
0.008487895503685111 
0.00255132216768132 
-0.002721613122419722 
0.002918269746553307 
-0.0009493201496761339 
0.01491722817797695 
0.02290265679649473 
0.0147092940128875 
0.01312093632613239 
0.02179592283268053 
-0.03503357319091627 
0.00211593299886905 
-0.01230647068495874 
0 
0.08176664116836872 
0 
-0.03946417130017359 
-0.002625506381205439 
-0.01377034597803162 
0.02127309555687516 
0.01508990059542805 
-0.02107259733622889 
-0.02347583908775025 
-0.01596175861889579 
-0.01517444557880048 
0 
0.005241354649677028 
0.003303300685463116 
0.003522408625240946 
0 
-0.02036997069062107 
-0.001218616673708768 
0 
8.663256148416581e-05 
0 
0.01592559924224752 
-0.01875037777224086 
0.03125761410313282 
0.06738964473484953 
-0.02234838617016337 
0.0001903801961375629 
-0.02913515416896083 
0 
-0.01593181251338088 
0.01444979628508496 
0.008806887477784504 
-0.01030952774329959 
-0.01486205962830023 
0.01086023296203912 
0 
-0.03238973504277084 
0 
-0.01875037777224086 
-0.02400981468693732 
0.01525407150845959 
-0.0312142696083086 
-6.922715185297322e-06 
0.02127309555687516 
-0.05555889816077194 
0 
0.03758385835757855 
0 
-0.01823905071153245 
-0.01302572911811588 
-0.03009364662919245 
0 
-0.009168721969283049 
0.02729267785353024 
0 
0.0279735184995423 
0.07508487002676983 
0 
0 
-0.008062161809154063 
0 
0 
-0.03285863888930066 
0 
0.01284713677260232 
-0.01416658817930499 
-0.004309278341459406 
-0.00624013089403788 
-0.01944179211149015 
0 
-0.004673970161881482 
0 
-0.2290000760644064 
-0.01957526273108741 
0.01077896401260672 
0 
0.0001422347675232516 
0 
0.007116198895554661 
0.0468849492057633 
0.02453726287903212 
0.007425499461561202 
0.01317071385064088 
-0.03051653989568206 
-0.01525407150845959 
0.0001631873473911566 
0.01695515592413069 
-0.04181178151834069 
0.002975748460699847 
0 
0.0008406577273311791 
0.006903124205281925 
0 
0.02302385888062208 
0 
0.009230253604266693 
0.01875037777224086 
0.01680056695751981 
0.03873493084619439 
-0.07207884061616132 
0.001688171596791929 
-0.01996638677930556 
0 
0.001779704263011099 
0.0004125661294754471 
-0.0209985974087077 
0.01404804308749331 
-0.01923985498576932 
-0.03579084442664892 
0.01567377982948771 
-0.01875037777224086 
-0.0009824653532494411 
0.000296662859667818 
0.001266572141085623 
0 
0.00434424448367514 
-0.006869864051617848 
0.01286373783258276 
0.02603121185424596 
-0.02455469897142815 
0.01501963961970369 
0.030393141982306 
0.009768786892651276 
-0.02194457204858966 
-0.02746980510227515 
0.0009301661264239209 
-0.01105496834796268 
-0.007937745927225631 
-0.008481216617357422 
0.03000872879933596 
0.00631916456673671 
-0.008251554547146883 
0.0005387127118829077 
-0.007904169106314363 
0.004450423495835718 
0.01797792722667676 
-9.181476304041851e-05 
0 
-0.03466637932942495 
0.0219369146203243 
0.04009467497476722 
0 
0.07424943148483332 
-0.0005502887935568489 
-0.00838112025430619 
0 
0.0008105244771168959 
0.02288621027686962 
-0.03760416847928815 
0.01875037777224086 
0 
0.02525104572793884 
-0.01525407150845959 
0.01316266474823715 
-0.02932738246926399 
0.0003325582818545217 
-0.01054004643827892 
-0.01444651605161223 
-0.001533444198295997 
0.007151430364871517 
-0.01717054537737022 
-0.02465855593686048 
-0.03073592121709549 
0 
0.0408475810356977 
0.02793053700622555 
0 
0 
0.01029356455978713 
0.01545000967762313 
6.777451094152324e-05 
0.009914290974705029 
0.020017243264701 
0.01875037777224086 
0.01823481900624808 
0.01930024185828425 
0 
0 
0.04476092047674106 
-0.01753321908443522 
0.0006560035129023587 
0.02836070173406812 
-0.03868634498390809 
0.01138964638218444 
0.01875037777224086 
0.0001323159305327636 
9.142160054951239e-05 
0 
0.009606163334717286 
0.01701891006128294 
0.01422373844485377 
0.02476046509837461 
0.01053818867639794 
-0.009172991391958776 
0.006781922991190317 
-0.04300042886513127 
0.015355048194313 
-0.01102172696704233 
0.0377318139572816 
-0.0103450256718993 
0 
0 
0.009278980854422957 
-0.02202118885996031 
-0.02490048040390062 
-0.03425562457306187 
-0.01272297336324948 
-0.008259954883008541 
0 
0.01003671312393796 
0.05041383104963091 
-0.01217510239071809 
0 
-0.01419031872759036 
-0.01104636180676662 
0.01299283802834381 
-0.030379650213585 
0.003196157702641237 
-0.02991132383776867 
-0.005741301694461255 
0 
-0.01484359760472287 
0.0006067274876930216 
0 
-0.01769203602521424 
0 
0.02399713123427814 
-0.01244867079915322 
0.02045797575198721 
-0.01104362894961524 
0.01338345743888718 
-0.01666952192613785 
-0.01318086922945319 
0.002037894089587435 
0.03007589188098969 
-0.006461028625183714 
0.004640054863714865 
0.01626837693154535 
-0.01700768064785065 
-0.0003554557295410934 
0.02227635343728377 
-0.01039665241721393 
0.01307604189658481 
0 
-0.03389742718710857 
-0.01301041528187181 
0.01245529414627285 
6.510729634563736e-05 
-0.03033012304034933 
-0.01272807046906175 
-0.01135360383064588 
-0.01943238359171545 
0 
0.003871043802941307 
0 
0.000173615150989213 
-0.02916600267678965 
0 
0.0361522457038315 
0.01263802872322712 
0 
-0.04077153802336604 
0.0002107495698661365 
-0.03962960557437376 
0.01195437323696497 
-0.006733182857988905 
4.130049238085618e-05 
-0.00150140602404756 
0.01864276234628482 
0 
0 
-0.004809765926504676 
-0.0124756270833244 
-0.02170062613887888 
-0.03299170468044125 
-0.01875037777224086 
0 
-0.01875037777224086 
0.03301650952427777 
0 
0.03990581055975036 
0 
-0.007935595671829773 
0.004911900529800858 
0.002385758202356933 
0.01717752707145064 
-7.018457430209757e-05 
-0.01875037777224086 
0 
0.01875037777224086 
0.05365218524669144 
-0.04580186590349197 
0 
0.01336328416030404 
-0.006695251037768659 
0.0253994963827045 
0.04235400641548512 
-0.01578749822845538 
0 
0.008097845698307507 
0 
-0.002051795494216995 
0.018593246417433 
-0.03492024443460752 
0.01763642209225322 
-0.01157618088032401 
-0.0272476401255898 
0.01843497453619494 
-0.001882608868227142 
0.01875037777224086 
0.01010471666768021 
-0.0116969203352094 
0.0206606089969444 
0 
0.0754982674043589 
0.01831680266927036 
0.007637452889097108 
-0.001613101007903316 
-0.03175473712835084 
0.005834486543131958 
0 
0 
0.03318126789782154 
0.02581744314839979 
0 
0.01247398113488354 
-0.02086040124448708 
-0.01288671213607659 
-0.01198010903761559 
-0.006527888627908504 
0 
0 
0 
0.009193697365839864 
0 
0.01653503120945222 
0 
0 
0 
-0.006945260675032896 
0.01334178441045223 
-0.027714692433315 
-0.002883324699261899 
0 
0 
-0.0732626861993291 
0 
0.002403267277074799 
0 
0.01740299846934601 
-0.01980013733409305 
-0.03764221890351899 
0.03004154813824286 
-0.005976887931726469 
-0.002149313075289893 
0.009846185157337038 
0 
-0.07941037972331237 
0.01635411807781215 
0.008436075190569913 
0.01593000367126333 
0.01972452243704834 
0 
-0.01270298536169374 
0.008552029464390438 
-0.03575783894300202 
0.02420175002625324 
3.057510736245379e-05 
0.01049821443507542 
-0.04324915422650379 
-0.06426630150748668 
0.02528479642830752 
0 
-0.05138881852285727 
0 
-0.02679201432868805 
-0.01355590474778425 
0.04408503421963585 
0.006125549357573918 
0.002713881565538186 
0 
-0.02412590921904188 
-0.02165454103659947 
-0.0179439373881741 
-0.001415295924045983 
0.0002600062840091983 
0 
-0.002331421596440436 
0.003974620022421671 
0.01266592507840955 
-0.018664826802079 
0 
-0.02298453103749088 
3.230844920103192e-05 
-0.03443071216720021 
0.01065143781425952 
0 
0.01320886155268666 
-0.01388556450502862 
0.03990011301999331 
0.01820694653544447 
-0.0114570085522198 
0 
0 
0 
-0.01354026233708209 
-0.02107179494616488 
0 
-0.01479298368160688 
0.01625434435923139 
-0.02665907770328261 
0.004746980716875029 
-0.02720784013567346 
-0.01517262921319251 
-0.0197584306651 
-0.04481010365588082 
-6.181632526945923e-05 
-0.01875037777224086 
-0.01838826371608513 
-0.004427849808280963 
0.06882772174740642 
0.0510989128797049 
0 
0 
0 
0 
-0.0221892983535433 
0 
0 
0 
0.01821287589539437 
-0.02854132062250871 
-0.0114152728232878 
0.01167115701821299 
0.02102648810422298 
-0.04093040164038465 
0.0155823006621222 
-0.008911435392097749 
0.0001076988156984861 
-0.01010420808282154 
-0.009527882858788528 
-0.00275191792745384 
-0.01875037777224086 
0.0203161943683731 
0 
-0.01415875698166409 
0.01812086682421879 
0.01875037777224086 
-0.01715877414672168 
-0.005728243654047714 
0.0164696172376811 
0.003876228168748059 
-0.008784448209541747 
0 
0.01875037777224086 
-0.02570073687830266 
0.006286369585959331 
0 
-0.007322157325240445 
0.03133218609043805 
0.007565676377749417 
0.01316870072692213 
0.03265635902825353 
-0.005922842342975054 
0 
-0.0241067502952635 
-0.03040375331542321 
-0.0005430771396354419 
-0.03366461671392167 
0.02812735149799932 
-0.001043914756811767 
-0.01875037777224086 
-0.02955892235946872 
0.006970476569430134 
-0.03218659843665996 
0.004687866746153895 
0 
-0.001921632844327652 
-5.265475649156735e-05 
0.04774191399666847 
0.04717195826304667 
-0.01655775154832102 
-0.01786225216616461 
-0.0003908814320853505 
-0.004027435743704877 
-0.007232680217611271 
-0.003699168782734416 
0 
0.02813434878778718 
-0.008919439134842701 
0.03159438795117763 
0.008990872940642341 
0.01460421115175581 
-0.00800962720169208 
-0.02499386451108608 
-0.01982438272397062 
-0.01786243356593362 
3.394669676268041e-05 
0.01441650528946351 
0.00760014960625019 
0.005000730211910178 
0 
-0.01785268921763756 
-0.01460383165439553 
0 
0 
-0.002409683968464629 
0 
-0.01119129004626273 
0.01218179057972546 
0.0002600062840091983 
-0.02484083457042133 
-0.003136723675855024 
0.035364381252903 
-0.02399316945758309 
-0.008435051435749902 
-0.008963604366136829 
0.01103507866989355 
0.004599280959994779 
0.0001294877440377481 
0.01246406104589224 
0 
-0.03243159358841802 
-0.0003366739015835386 
0 
0.01491009211474082 
0.0008036542629528591 
0.01066856720122996 
-0.005299014052498007 
0.03108615853019019 
-0.01436098148088624 
0.01875037777224086 
-0.003721628111467683 
0.04119359378101326 
0.06592097236281899 
0.005797050078925385 
0.08121861592978802 
0.006980543426769858 
-0.03920780294719489 
0 
-0.0004872854852867807 
-2.88249976819002e-05 
-0.01200704889050833 
-0.00883076251976549 
0.009672754699203659 
0 
0.01340915838883599 
0 
0 
-0.02319482489400584 
-0.005865774517093777 
0.0195140654105015 
0.003584919666764785 
0.005537201723821813 
0 
0.001035674991786273 
0.01503822297385705 
-0.01875037777224086 
-0.04357998946585178 
-0.0249346566445034 
0.03704748287796809 
0.01222128234916541 
-0.01649929079866432 
0.00704459817419209 
-0.01261585137931244 
0 
-0.01875037777224086 
0.005642280489129888 
0.006287120520980695 
0 
0.01034191622026262 
0 
0.0008394264220428849 
0.007501451791886478 
0.002713518892451182 
0.0005418584060232037 
-0.02923759770250073 
-0.03848175585489954 
0 
-4.535822286790235e-05 
0 
-0.02044698568344309 
-0.02520892421883702 
-0.00992028188950843 
-0.05189919342604771 
0 
-3.543373354089725e-05 
0.01897251867895505 
-0.06262513615216836 
0.02169912059768476 
0.02542235059093703 
0.0007518881398982576 
-0.0166011648735836 
0.01942453651888883 
0.02907970110350789 
0.01637612655309328 
0.01979345472807902 
0 
0.002191149155671158 
0.031603037313249 
-0.01457599662142869 
0.005007664974517025 
-0.005953593507614313 
-0.02277035290450254 
0 
-0.01188391700232418 
0 
-0.01043241815310994 
0.001002579957020853 
-0.07673089299704079 
0.01070665620032871 
-0.0101013229818462 
-0.01958293308364663 
0.01918553878741024 
0 
0.03243766159113237 
-0.01842433069885631 
0.04468330531938635 
0.02557469120863082 
0.01635816521196589 
-0.0094478007844052 
0.01875037777224086 
0 
-0.01775589281878686 
0 
0.009363836248260874 
-0.04515209734608747 
0.03091312509064075 
-0.0906192280218376 
0 
0.001247529658923899 
-0.007116444309606155 
0.02139809490677025 
0 
0.004724726990450276 
0 
-0.09036475832558699 
-0.01859610839161944 
0.0001475964525544733 
0.01794531119426391 
-0.0170505891880015 
-0.008247311691647705 
0 
-0.01408095369464313 
0.01905102265124178 
-0.01527449217604957 
-0.02281942941665207 
-0.04751876719241524 
0.008904981492122523 
0 
0 
-0.0005348692668610512 
0.03007589188098969 
-0.002637739220221518 
0.002304712712950922 
0 
0 
0.002849391761344787 
-0.02549284387038862 
0 
-0.01691295771235866 
0.03503544115476306 
0 
-0.01875037777224086 
-0.0263861767308942 
0 
-0.01810393035847669 
0.007457798874232626 
0.00406111650030124 
-0.02210605902529699 
0.07848056057354792 
0 
-0.007304930738265692 
0.01933155464897296 
0.02598951564805813 
5.691169472569227e-05 
0.02149337767597586 
-0.016798606145221 
0 
0.0231598991560244 
0 
0.000100969961394662 
-0.01125183985797647 
-0.00497579423796469 
0.008479525093448933 
-0.01645543175857813 
-0.005250341755864761 
0.01264789720900308 
0 
0.05617530932022615 
-0.02006656737068338 
-0.0175930301767002 
0.04488348043749119 
0 
-0.007161041044914596 
-0.01189251384557054 
0.02096907901478584 
-0.04960488506802155 
-0.008830179789834552 
0 
0.0001779011552256626 
-0.01695265197937882 
0 
0.00712561303553725 
0 
0.00950055708190361 
-0.03363725250502745 
0.02860268411603546 
0.0006528381373834905 
-0.007295285526819695 
-0.0219947047117321 
0.006976433994063341 
-0.0188153711350823 
-0.04592902617409395 
-0.0002494464333159681 
-0.01270670812607701 
0.01177814136678106 
0 
0.004831099233845036 
-0.02006684955417017 
0.01667255185644018 
-0.01424347932380137 
0 
0.02329082691041537 
0.01882787258159255 
-0.0007035201483772362 
0.04499228429199877 
0.0005806526453456474 
0 
0.02305400703214216 
2.658141146533139e-05 
-0.0140392219319266 
0 
0 
-0.01196371889814114 
0 
0 
-0.007559817476941358 
8.258714154972519e-05 
0.001006313972966843 
0.01499991469609217 
0 
-9.447554306159337e-05 
-0.01770420554579905 
-0.01391131437350777 
-0.01809501530267286 
0 
0 
-0.01525407150845959 
0.004446331429210399 
0.01489624665739218 
0 
0 
0.01706391653743053 
-0.0112456164760439 
-0.03558263422868305 
0 
-0.008933162778719021 
0 
4.41935326865061e-05 
0 
-0.01411049167286471 
-0.01198032841872057 
-0.007660145250995603 
0 
0.005450919436660202 
-0.01102414117535514 
-0.006924556102454234 
-0.01875037777224086 
0 
0.006453065123047184 
-0.0190663458200606 
0.04547553202071986 
0.0002774578304797501 
0 
0 
0.01303068533661121 
0.0002026446718662001 
0 
-0.02931153887340068 
0.01006436084332119 
-0.03809015336925446 
0.03954967468790635 
0 
-0.01921016337223124 
0.02015210461665351 
0 
0.01632262788179163 
-0.006918284798624852 
-0.06748384789181303 
0 
0 
-0.0003175440686167467 
-0.01166304472100906 
-0.01672858495036688 
0 
0 
0.0246859754881728 
-0.01246343198265787 
0.02017703836812798 
0 
-0.03662660904980045 
0.00559242711780007 
-0.006707153832092806 
0.001624576784856378 
0.02128691330861504 
0 
0.02196808910048087 
0.01875037777224086 
0 
0 
-0.01324896492186901 
-0.01695816815016859 
0 
0.02041604125570812 
0 
0.01875037777224086 
0.02235551278101846 
-8.614855191616368e-05 
-0.008944969144428999 
-0.004463800135845953 
0.03444197188090323 
0 
-0.02645957187632825 
0 
-0.02153184260848298 
0.01825514645514006 
-0.001967907772281727 
0 
0.02597151656349117 
-0.001731725106627354 
0.0211813646760269 
-0.02714241876917347 
-0.03194715449864349 
-0.0119970982036138 
-0.02635064753334999 
-0.01615697319737393 
0 
0.01154656428175362 
-6.402127482499809e-05 
-0.02299634764491438 
0.04472450304630526 
0 
0.01556814636474653 
0.01160979635348897 
-5.092133963301379e-05 
-0.01245824382845637 
-0.005570797569884258 
-0.01100977789203573 
0 
0 
0.009708511527182094 
0 
0 
0 
0 
0.002045840510071477 
0.01477660509297507 
-0.0004996005322121015 
0.006927667269725869 
0 
0.01458167173404621 
-0.02966546484540829 
0.01875037777224086 
-0.009238611344632473 
-0.0105475483901675 
0.01325280927196775 
0.03868717044640321 
-0.01917655535662611 
-0.001682735353391992 
0 
-0.005904363457693199 
-0.01765324677295075 
0.01904361020747757 
-0.03152416583447899 
-0.01429563368611596 
0 
0.004346397416607677 
5.477389987040967e-06 
0.008059956178947395 
0.005642280489129888 
-0.003401021835178316 
-0.02336696261273392 
0.0228995307953975 
0.01951665103531215 
-0.03948981006661301 
-0.01959647563618154 
0.02755422073769372 
0 
-0.01306924803788774 
-0.02945572377650198 
0 
0.007875795741480006 
-0.03147747130821892 
-0.03290512505645332 
0 
0.01865623673904214 
0.00416980896224344 
0.007243189223243508 
0 
-0.01839350488217192 
0.004982693687538108 
0 
0.03715624590744156 
0.01869557301287543 
0.01013814431500858 
0.02149337767597586 
-0.0049048951913348 
-0.0001456602326703371 
-0.01236377468457138 
-0.03299674758698116 
0.01598154583170129 
0 
0.02417525228115648 
-0.01249691873737437 
-3.966351841529766e-05 
0 
0.02344073987926575 
0 
-0.00323817772901144 
0.01652623319415209 
0 
-0.008246930571691357 
-0.004655497045842126 
-0.01469653182876327 
-0.009193080966755534 
0.09665506159527137 
0.03781054325049883 
0.005099833908581083 
-0.02417569546789911 
0 
0.0246578672382023 
-0.02406834911282158 
-0.000212313500931802 
0 
0.002881111613147806 
0.01875037777224086 
0 
-0.006041107587786453 
-0.06103129265058516 
0.005649879127131848 
0 
0.002368284489434826 
0 
0.0004224459168179907 
0.1219011156286294 
0.008324045951886114 
0 
0.006177205151297941 
0.01129478245157236 
0.02653016759318512 
0.01875037777224086 
-0.01339848894214516 
0.01459347134768722 
0.01041709904206872 
0.001417228216464653 
0.005290013370346457 
0.009074943986504054 
0 
-0.009527882858788528 
-0.01623180281113393 
-0.03553335476075269 
0.01875037777224086 
-0.03729866329324034 
0 
0.01487087199067771 
-0.01994090835116153 
0.005174463470893214 
-0.04392347428538408 
0.0001685572544320081 
-0.006065388456278032 
0.01197239112494258 
0 
0.008951820423307711 
0 
-0.0060897516530349 
0 
0.002953650089956423 
-0.01359717475257823 
-0.03171320359948443 
0.02787267479586607 
0.03584812485902152 
0.05215305182440766 
-0.02596432812852944 
0.04181585779608762 
-0.009268246279598913 
0 
-0.0379210795375263 
0.0009729514388581689 
-0.000109752978183794 
-0.0215751563022342 
0.0009035152895011494 
-0.007680495665414147 
0 
-0.02052611538843067 
-0.008456178913479622 
-0.008594345670992876 
-0.004906440402027401 
-0.00319452416640279 
-0.01484439366776127 
0 
-0.01367215634081251 
-0.007220972068420249 
0 
-0.0002180157337323407 
-0.03007589188098969 
-0.01052414418496316 
0 
-0.01032126012787878 
-0.0002528494352175938 
-0.01828888020928602 
-0.02549942136892392 
0.01569624639588222 
-1.570363270441838e-05 
-0.01348125449019272 
0 
-0.02942919251561793 
-0.01168264796109375 
0.01910760700082825 
-1.711114355156954e-05 
-0.01183336258548576 
0.01072455016153283 
0.01875037777224086 
0.0006067274876930216 
0.01592770286217247 
0 
0.01500294145963191 
0.0280437203092741 
0.03599385211180053 
0 
0 
-0.01423719167501966 
-0.01608862034525597 
-0.0007924321486220175 
-0.02482111576042979 
0.03122698520325433 
-0.03088735022740731 
-0.02905613391713702 
-0.01318677661844184 
0.006908075177914388 
-0.01246898737494167 
0 
0 
0.01576243746404695 
-0.03727985374697974 
0.01404480239311625 
-0.02419776371818884 
-0.01012705910982336 
-0.0117473436100344 
-0.002135156187019308 
0 
0.01392284669083712 
0.01533472703888427 
0.007419326013453075 
-0.01875037777224086 
-0.006139874578159813 
0 
-0.02393749793692941 
0.007991735462753238 
-5.016330577215319e-05 
0.01265346809887268 
-0.003613343241188435 
0 
0.00520137793638845 
0.01169044886596048 
-0.01652811522396643 
0.002183430971807918 
-0.01875037777224086 
-0.01554179224072777 
-0.01538196168363849 
0.06958856776310814 
0 
0 
0.01577288279566106 
0.005792296431280203 
0.0003373555612806049 
-0.02817384636286911 
-0.01916423282555639 
-0.01189811221138545 
0 
0.09712620886122762 
0.00871542438287248 
-0.01875037777224086 
-0.02354501692838649 
-0.009063089303819162 
0.003858266937193826 
-2.73367736472211e-05 
0.06464566854078863 
-0.0101700534586219 
0 
-0.0271466926475948 
-0.03056495148314223 
-0.02367164079106604 
0.01402080812144463 
0 
0 
0.03780997570145217 
-0.02176778112873694 
-0.005390624805613257 
-0.01468114305706727 
-9.253845657605846e-05 
0.02656494428074782 
0 
0 
0.004496056087597401 
0.01752908701920251 
-0.02747404443709146 
-0.02345273166569509 
-0.002998026634091556 
-0.02605658865951634 
5.713438510326256e-05 
-0.002195053304354753 
-0.0004872854852867807 
0.02406270325507328 
0 
-0.009502538774062047 
0.01912964908243852 
0 
0.02127309555687516 
-0.0107351968839109 
-0.0182400301080222 
-0.016410935283068 
-0.03653827817905519 
0.01849535900036661 
0 
0 
-0.02141807056928307 
-0.008859622792297933 
-0.01463628665115132 
-0.01758214684719321 
0.004851361348221514 
0.03107862721556712 
0 
0.01679752683291327 
0 
-0.0008781403307252465 
-0.04227213134203917 
-0.0004017322515746788 
-0.004000175481048757 
-0.005530759923567791 
0.0285126755240063 
-0.02464813028841595 
0 
0.01284269891562972 
0.02876711578843705 
0 
0.006355308156468162 
0.02937263735547225 
0.0115086530384397 
0 
-0.007284452210162097 
0 
0 
0 
-0.01207933007091451 
0 
0 
0.01160000105777857 
-0.01041064128020859 
0.03760315217931706 
-0.0123501920477432 
-0.003525739849562393 
0.01103816339711011 
-0.004109830430135253 
0.01801513716723 
0.009222809293985789 
-0.01134852098527951 
0.05133853293023346 
0.02033231957404189 
0.01654957771709181 
-0.02331552845747063 
0.01926072543645952 
0 
0.009190024782753325 
-0.02028310513894265 
-0.03661808318153494 
-0.001920561884469767 
-0.02466672159070582 
-0.0116852717895556 
0 
0.0174492786650544 
-0.05485582909195781 
-0.00740047192033383 
-0.01700144107809743 
0.01733418830121072 
0.02531312322636253 
-0.008764291936480262 
0 
-0.01061584412998657 
0.006416431796153506 
0.01137404379407772 
0.003351536377774637 
0 
0.01228575328134369 
-0.01148915702788019 
-0.0002256397197246488 
0 
-0.01762365308896745 
0.01721217487133369 
-0.01152356574033954 
-0.007563011510457918 
0.003806528563067366 
0 
0.01705333612447031 
0.01530401405508024 
-0.02932738246926399 
0 
-0.05201639745754096 
-0.005331753105265555 
0.002723451039071351 
0.02051611586693146 
-0.02257136343420037 
-0.0002210533530825608 
-0.01025158001872666 
-0.02802952155629797 
0 
-0.0004044792086540245 
-0.007709300277642927 
0 
-0.01787572712277755 
0.01875037777224086 
-0.01772786246343165 
-0.01030329590887634 
0 
-0.01539811466040614 
-0.01513929587569237 
0 
0.02628004062607738 
-0.01037657310606362 
-0.003903988655168023 
0.008475318191609852 
0 
-0.017482265822371 
-0.008935947064028527 
-0.008378642332052006 
-0.03875130698187135 
-0.02352604986187656 
0.01137557382914697 
-0.03355358297553147 
-0.01200924715774905 
-0.01791951323941337 
-0.0001386832297204134 
0 
0.01100134902791257 
0 
0 
0 
-0.01032917419942527 
0.03160387789613443 
-0.006170172674587198 
0.01179393854171854 
-0.02855590519086782 
-0.01490673021472769 
0.02034256978441033 
0.02388156399695447 
0 
-0.002206837654183308 
0.01140028248969029 
0.0001058388500917967 
-0.01998456560470124 
0 
0 
0 
-0.01258505259779845 
0.005806934732253925 
0.01772708928930432 
-0.01417314201311841 
0.005163407876131093 
0.01476952411852227 
-0.002747584179220341 
-0.02780938399827586 
0 
-0.01952337129373028 
0 
-0.01003920779843426 
-0.01875037777224086 
-0.01184452589273383 
0.009938946275460211 
-0.01700828084765494 
-0.005564835011023153 
0.01302966782835982 
0 
0.008060992580004318 
-0.02591325299065834 
0.01379986691690254 
0 
-0.01205766377398607 
-0.01416197508095423 
-0.008313854900958881 
-0.009329426027529779 
0 
0 
-0.02404515763191723 
0.03827976679370108 
-0.06476798238928248 
-1.468275002117486e-06 
-0.03273606117278961 
0.007451540128865136 
0 
0.0121428786904168 
0.03427296871670162 
-0.04695578632217576 
0.001745881647726046 
0.01233002359075866 
-0.0002690436402884422 
0.008914514411069734 
-0.03456683249563508 
0.04187023170324582 
0 
0.01378024327561555 
-0.0301946397271353 
0 
-0.01410411745556727 
0.0323511978265609 
0.0355164773444745 
0 
-0.01384523292828486 
-0.0133188510266318 
0.009478205175124783 
0.023021670728607 
0 
0.006989555455752334 
0.01852478096140483 
0.0210276042157373 
-0.0004366602154900676 
0.04414661007643888 
-0.0580229042398055 
0.001059767899393144 
5.969302626984021e-05 
-0.04751147909961279 
-0.002674735454743922 
-0.03471203682465514 
-0.03105237500451072 
0.005577835183339106 
0.02039781497922247 
0 
0 
-0.01278123698962774 
0.01282360550239267 
-0.01540142445837846 
-2.990819746020448e-05 
0.03186310655656119 
0.02160518429420506 
-0.02570106983487811 
-0.01755967838354875 
-0.00077741257543466 
-0.0001987364044007336 
0.02424513411365209 
-0.02741268403707579 
0 
0.01045373392856722 
0.01736268931405156 
0.001031790922596257 
0 
0.01709827198826345 
-0.03345705297378622 
-0.01990563825436078 
0.001096838565577088 
-0.001032087303587714 
-0.008374728149579852 
-0.01032686112156723 
-0.02119222256180428 
0 
-0.01950886657682306 
-0.008423858240717785 
-0.05990134538077795 
0.009751316009710749 
-0.009929150192919732 
-0.03234070312744232 
0.06203104601051071 
0.01687836842884994 
0 
0.007279650688917078 
0.02216224015586356 
0.02231150130952442 
-0.007087944124819145 
-0.0005653059733490831 
0.0001964383890738744 
0 
0 
0.004935833052794786 
0.02658770654257212 
0.005196986665575591 
0.01525407150845959 
0 
0 
-0.03616090143666546 
0 
0.03007589188098969 
-0.01878414747071567 
0.05755145988800649 
0 
-0.003495841256719401 
0.008118377669521398 
0.01985339123718495 
-0.007055157110124464 
0.003588362963532681 
0.007582995796604064 
0.0008092953315851554 
0.00791030202642342 
0.01875037777224086 
0 
-0.01734549956385304 
0.003386547526686633 
0.01919641867706294 
0 
-0.008104237454085096 
0 
-0.005216378659474137 
-0.02965375312786172 
0.03139439624188962 
0.002822855965201891 
0.0190764248456254 
0.02361026485874819 
-0.007751114308856773 
0 
0.07406099431779395 
-0.01875037777224086 
0.01966515301227437 
0 
0.003686094892064389 
0.03470131784408924 
-0.006569194053214952 
-0.01875037777224086 
0.02309333886209056 
0.01203269271312534 
-0.02722797758753943 
-0.02070040507394115 
-0.001090521347117313 
-0.01835996348261886 
0.04756706353541004 
-0.01525407150845959 
-0.02883519048702844 
0.02334086965685495 
0.006429252646583364 
-0.01303592615819952 
-0.01875037777224086 
-0.006656500818169158 
-0.01912990894045268 
0 
0 
0.005458098604311351 
0 
-0.01112959194885633 
0.02323115045639364 
-0.0139079029157408 
-0.05961161693212928 
0.0008399463902271731 
-0.04883790200706526 
0.002958995092206368 
0.007452714620945309 
0.02798450618398319 
-0.01499998719455339 
0 
-0.02900746613560392 
-0.0004636747312182884 
0.01023020920837864 
0 
0.04997662876911373 
0.01147017552984339 
0.01731778682037309 
0.0001299007968190581 
-0.01573220677845365 
0.003001879215710322 
-0.02894509540866036 
0.002202233538669662 
0.01334994658389248 
0.03576242848320463 
0 
-0.009222513871404929 
0.003555678951485359 
-0.008220571021116726 
-0.03002073391983721 
-0.0002321144415273601 
-0.01367622820349343 
0.01373209313419442 
0 
-0.01181843363467986 
-0.008994939699448987 
-0.01494711766734174 
0.02741955182920704 
0.01944036891459072 
-0.01875877978682092 
-0.06446573400887445 
0.01715456704511878 
0.01815360082648398 
-0.01924709229101663 
-0.01167290182841758 
0.0169496496570439 
0.00665511779527801 
-0.005306332945369114 
0.00839848191958072 
0 
-0.02634383480954707 
-0.005589492206073719 
-0.01533083711995725 
-0.0005090922327809588 
0.01030607382480065 
0.01212442807749279 
0.01758538039696756 
0 
0.02025320328452816 
0.0118211639348381 
0 
0.005713622201150424 
0.0008424186431709954 
-0.01875037777224086 
0 
0.01657838381533693 
0.02215426546594785 
-0.009947591528985413 
0 
0 
-0.005478726027317572 
-0.0004745504031046242 
0 
0 
0.003675368347704566 
0.005614017443976936 
0 
-1.320519887485876e-05 
0.01030335662526292 
-0.001805377248441774 
-0.004074245132874037 
0.0001188058967998261 
0.01930477910199375 
0 
0.0111998084380413 
0 
-0.02440749311734188 
0.00122454935374086 
-0.01108753339095007 
0.01875037777224086 
-0.008954212489292809 
0.007899925261900309 
-0.01834130404703638 
0.003966154862174872 
0 
0.006604226390815434 
0 
-0.01260687354961906 
0.01086310891903013 
0.03393841388179223 
0 
0.01366588982058905 
0.01355184494477502 
0.01171858976649001 
0 
0.03995223562574923 
-0.01116435115989747 
0.003429402284852436 
0 
0.02678525004048385 
0 
-0.04626114377161249 
0 
-0.01261841281035376 
0.01544441124883492 
0.009377070404200235 
-0.03438840976046918 
0 
0.03105807486367053 
0 
-0.02103488061285052 
-0.08553987459808017 
-0.01220847137710677 
-6.552189018806622e-05 
-0.02309516710990919 
-0.0003152758411545742 
0.03179474635864772 
0.03177038005585216 
0.03892432842628772 
0.02130042563120468 
-0.0138185518216504 
0 
-0.02898711897813797 
-0.02671134786969308 
0.01406312856640274 
0 
0 
0.01875037777224086 
0.002263666487979832 
-0.009938998454348903 
0.03614766700060194 
-0.007077710488333173 
-0.009624983215636424 
0.06188793950951846 
-0.01475960573083793 
0.02366704963825733 
0 
-0.02475181305150592 
0.02248044407832352 
0.006973638754685415 
0 
-0.01258279143289718 
-0.01397538362160606 
0.03708656661194468 
0.006172677111495627 
0 
-0.01626769228902593 
-0.0164550676164836 
0.01525407150845959 
0 
0.0001147156805916576 
0 
-0.0182400301080222 
0.0223013904100562 
0 
0 
-0.02764358282353912 
0 
0.01276274896303306 
0 
-0.02218625701927903 
-0.01027829044893852 
-0.0182400301080222 
0.01992211110586506 
-0.01404634309256536 
0 
-0.07334307947500709 
-0.01813256089830256 
0.02124357994979919 
-0.0040132505208313 
-0.008639796053908329 
0.0001608708298954671 
0 
0 
-0.02573193490250496 
0 
0.00396480411084255 
0 
0 
0 
0.01183404247043161 
-7.746808225781281e-05 
0 
0 
0.02444438654342451 
0.007025466205506926 
-0.02339587126254695 
0.03118870873749488 
0 
0.007954098955877249 
0.003263825873735896 
0.01363906670702898 
-0.01017084122782845 
-0.0244640060442246 
0 
0.008542071628991335 
-0.01194084160195122 
-0.008734798130944807 
0.01799131543581722 
-0.006936913098180489 
-0.001315010980197171 
0 
0.01525407150845959 
0 
0.006318593135948973 
-0.006336950528364406 
0.01440065611217726 
0.01109148522287673 
0.009873927956138557 
0.01186970713039663 
-0.0165320744908973 
0 
0.03675196209524693 
-0.01770606368099193 
0 
-0.03007589188098969 
-0.03509663192204054 
-0.002093064918533196 
0.015547995114265 
0.004965892582093275 
-0.01818501962715657 
0.01094409357912327 
0 
0 
0 
-0.01544389038248307 
0.03083804729792661 
0 
0.02261271983312265 
0.02053190234507327 
0 
-0.01633842438901941 
0.01239326534172101 
0.01087491593505692 
-0.01073881536109422 
-2.506824022163735e-05 
0.003017422029209455 
0.01832757979861623 
-0.01736816858421122 
0 
-0.003271215784415156 
-0.01205290896048006 
0.0001335776228974647 
-0.006294597490537663 
0.01892142335644778 
0.01557055652156286 
0.01014762354810729 
0.009178427047950631 
0.01292924680851371 
0 
0.01875037777224086 
0.02999051478136447 
-0.007107046346245764 
0.007536875518363402 
0 
0.01761388521165282 
-9.696833732264956e-05 
-0.003702200587549788 
0.01289982761063133 
0.01282292087294222 
0.02644582610368695 
0.006835986094606285 
0.01875037777224086 
0.01391317007851453 
-0.00707570904304699 
0.009079474839659147 
0.01802285276397912 
0.01906047705416756 
0 
0 
1.023133192046548e-05 
0 
0 
0.007227270769388859 
0.005287624420423877 
0.0147791854963741 
0.001383284121244172 
0.002852198070392739 
0.04789427942275146 
-0.05555881369878538 
2.546143789720922e-05 
0.01163018331641267 
0 
0.01337151578434393 
-0.015384305878416 
-0.006242351180739602 
-0.00735911323662507 
0.0006998624130381041 
0 
-0.009196078171436053 
0.02203450367726694 
0.01705258023796172 
0 
-0.02860862816547443 
0 
-0.01417290765610107 
0 
-0.005306969106296066 
0.01297005219190209 
-0.01969897436895955 
0 
0 
-0.01345211415550754 
0.03968152429972131 
-0.01421187608883091 
0.0008968212905893452 
0 
-0.00336032822893967 
0 
0.02937038716916481 
0.0139091463832392 
0.01774232487938172 
-0.01073760593495171 
-0.02131674626628504 
0.03332221675793826 
0 
0.0220670498119138 
0 
-0.02719686935703665 
0.001571916839756766 
0.05265219934281666 
0.03240919542676477 
0 
0 
0.02145383759117132 
-0.008837418284730865 
-0.02113239512653455 
-0.02264637920094188 
0.006933833582074795 
-0.03750483487289207 
-0.0008700803595129303 
-0.01429101660592731 
-0.02404819025367438 
0 
-0.01614273198589074 
-0.04803053937442411 
0 
-0.00148381654086813 
-0.003576578743283948 
0.01412235257810505 
-0.006475755758152037 
0 
-0.06179609127064746 
0.01349887608540413 
-0.007935267783200242 
-0.01369506648044797 
-0.03137337481130589 
-0.002834709827579426 
-0.01131921365685731 
0 
0.01293006284563908 
-0.002956242354784268 
0 
0.00211593299886905 
-0.0268343699977385 
0.02801061048301141 
0.004754046300302375 
0 
-0.00486188994307013 
0.04505204141824309 
0 
0.03007589188098969 
-0.0004227974214283412 
0.01310219906070355 
-0.0003418852716398735 
-0.01271616452068144 
0.02580997562740688 
-0.005602686228580473 
2.759272005090057e-05 
0.007292405759346858 
0.01471196911155872 
0.004590372778669077 
-0.007361646534075473 
0.01875037777224086 
0 
-0.01759175193102432 
-0.01446153477688613 
0.01875037777224086 
-0.01183766422778264 
0.02184760740263201 
0 
-0.002379874726080114 
-0.03228518273940162 
0.009920322006267752 
-2.28806476422164e-06 
-0.03794645337972252 
0.02321340382081806 
0.0002258196218217223 
0.05080489462813963 
0.01571800423416823 
0.02002109313491483 
0.01689500857822461 
0 
-0.01444838570997052 
-0.01037758662137393 
-0.01875037777224086 
0.01547756943110267 
0 
0.005281320697790497 
-0.01116358638579959 
-0.01146210964784088 
-0.02628327297918598 
0.001509066394493853 
-0.004332000880985295 
-0.01302283119527926 
0.02216891322577282 
0.004351731264606361 
0.003655449192051554 
0.01913224371884589 
0.01875037777224086 
-0.01638559557010406 
0 
-0.01315228811325337 
-0.01930181270621749 
0.0004401495382582027 
-0.004084520110071406 
-0.01873234017604192 
0.0142643813421356 
0.001569856800610988 
0.01875037777224086 
-0.01000047971831356 
-0.01348587157785341 
0 
-0.004556105790047007 
-0.005174687598930059 
0.009837329285747397 
-0.05051746574195815 
0.003922787712180666 
-0.01868573117772901 
0.002906852104217553 
-0.02060938275370081 
-0.009226749116410806 
-0.02543863879578201 
0 
0.04415057868119113 
0 
0 
-0.0001294065311959578 
-0.0006175757844716146 
0.01382639898297961 
0 
0.1163249771252357 
0.01375397819560811 
-0.01046299955374083 
3.986244571945434e-05 
0.00959882039471207 
-0.004920636215354765 
-0.006252194052280113 
0.03097623085844032 
0.004599118266218717 
0 
0 
0 
0 
0.07299032054080642 
-0.0463890797316308 
0.0005909794734575951 
0.01670244134233306 
0.03435365941739572 
-0.006707164446844812 
-0.01297756968471869 
0.01382794214285536 
0 
-0.04077068681839338 
-0.01787061892956675 
0.02604940767437362 
0.01995538376683257 
-0.01505129307616327 
-0.008700915506713607 
0.01995966205269058 
-0.05773004268676875 
-0.02066354848124419 
0.01020991463311515 
0.005776117204999952 
0.01615951500489644 
0.03854460015688828 
0.01861534970074603 
-0.01723926722230209 
-0.006327800495588954 
-0.03077018836710738 
-0.03194530268589181 
5.003713077002169e-05 
0 
0.02403986753371712 
0.007183613479366211 
0 
-0.01338592864433598 
-0.022405719834311 
0.01536904988205467 
0.006561976207820687 
-0.008346624099378823 
-0.005610187395527003 
0.02933604911909106 
-0.0005404708073716381 
-0.03224977895186969 
-0.01288288248011097 
0.01815360082648398 
0.01808795742221907 
-0.007463747913864703 
-0.01875037777224086 
0.0199546540058395 
0.0005604104587763107 
0.03601013309421522 
0.004259930226650626 
-0.006841330493640733 
0.01320067941477683 
0 
0.00617065982960072 
0.02017851622787039 
0.01508694493480742 
-0.00170468328354931 
0 
0.039938293980112 
-0.03232894863448147 
-0.00607361266625467 
0.0001571387240375834 
-0.06386092122105072 
0.04249251764843742 
0 
0.02241782451716549 
-0.01875037777224086 
-0.03040282559069949 
0.02384267469261211 
0.006552238518164265 
0.01058972304710491 
0.01716511395701363 
-0.000159280149867186 
0.006007051751373171 
-0.008991938032680682 
-0.008661452060729382 
0.01743721100293086 
0.01691272173010004 
0 
0 
0 
-0.0390144991688651 
0.04115942872885781 
0.01262771862131581 
0.003444552861896596 
0 
0.05409066644962061 
0.0006067274876930216 
-0.02029070109612162 
0 
0 
-0.004773495697330786 
-0.04576912503559712 
0.002710724911452357 
0 
-0.02111366467933617 
0 
0.004560001939183975 
0.04078157719367646 
-0.01043307988664421 
0.03009244657831392 
0.004620039231437761 
0 
-0.01369297508110242 
-0.001975780342860985 
0.01861538716444004 
0.04420135320199729 
0 
-0.02128722698012087 
0.01570047107586516 
-0.0169508962284668 
-0.01493470229363394 
0.02264118079681537 
-0.007563563701073983 
0 
-0.01195953245973226 
-0.006512934571326449 
0.00635389067399454 
-0.003018913380958159 
0.001571916839756766 
-0.007995768744204738 
-0.02295419137526096 
-0.03527030022054223 
-0.0001607735496058683 
0 
0 
0 
0 
0 
0.007355702466881589 
-0.004589529352755651 
-0.001040995391285655 
-0.01506041971488763 
3.081310240462604e-05 
0 
-0.01525407150845959 
0.03051044212850795 
0 
-0.02678277050434704 
0.01476504720376475 
-0.02086012288524797 
-0.02464018868918957 
0.003468930710903367 
0 
-0.01552639102274308 
0.006437966724002682 
-0.0142338626538369 
0.0001068849554236621 
-0.01875037777224086 
0 
0.01633305349829423 
-0.0096003366305042 
-0.01748659686586169 
0.01199138580710225 
-0.04358672475551388 
-0.0001110402660039495 
0 
0.01022535433175667 
-0.001121930395776473 
0 
0 
0.01532092053635933 
-0.0205416433820638 
0.01945829079223043 
-0.01714103647802577 
0.02121630746156475 
0 
-0.003886808713350342 
0.02489635494827058 
0.01203209251229529 
0 
0 
0 
-0.01472060240485747 
-0.008297324792557114 
0.01043702064200649 
0 
0.01284704541234871 
-0.01032843992406796 
0.006243555961637758 
-0.01912728061858343 
-0.02591832273244309 
-0.004806353008830309 
0 
0 
-0.07334258692769846 
0.001593728055726665 
0.005431765953977292 
-0.01525407150845959 
-0.02182288563959819 
0.0369121472611273 
0 
0.01683895565758204 
-0.0009585783811281659 
0 
0 
-0.008497443587450684 
0.007434103395524608 
0.03680586261427832 
-0.04434837402356523 
-0.01875037777224086 
-0.01370360893898966 
-0.0383649006002413 
-0.01747569691617219 
-0.01629323585138922 
-0.0119314911534705 
0.02522167664149022 
0.01332633790028956 
-0.01865271717524702 
0 
-0.01389151982204064 
0.03529927985958828 
0.01913822738271266 
-0.03402434726083116 
-0.01883464216125404 
-6.5280194205316e-05 
0.02232270765820572 
0.009278980854422957 
0 
-0.01875037777224086 
-0.01273474497067763 
-0.01875037777224086 
0.00575357096250596 
0 
-0.04071289334996599 
0.02141257898755879 
0.01525407150845959 
0.001496347068147086 
0 
-0.01008627044368423 
0 
0.01468641538946011 
0.005498191970580485 
0.01961367651433217 
0.04124213799309042 
0 
0.02743402195750339 
-0.005489570826667183 
0 
0.03794645337972252 
0 
0.006054734024646531 
0.005014050706454509 
0.03629076976922232 
0 
-0.0143920055378464 
0 
0.01032113581551659 
0.06089172375432552 
0.03825436072452269 
-0.01368090744283063 
0.004828543032992268 
-0.01242546326314029 
0.04133568297022688 
0 
-0.0121453660181403 
0.02206037019460911 
0 
0 
0.007917341985481614 
-3.133149627692726e-05 
0 
-0.006430228854647073 
-0.005425219604037769 
0.01013135115500381 
0 
-0.000133934515320365 
-0.01928531008685361 
-0.03447215029134335 
-0.01373962973070205 
0.0253123984958912 
-0.02725072457138641 
-0.0143924601642346 
0.01525407150845959 
-0.01411502791239407 
0 
0.02442693138985195 
-0.01722497365367345 
-0.004442461176523889 
-0.0141955733478947 
0.006372659407338054 
0 
0.003138049051405314 
0 
0 
-0.0001291945987424161 
0.02958183151139421 
-0.0151485856697921 
0.006446868459385815 
0.002101739504912588 
-0.02136367144257716 
0.04179013101727895 
0.02244150048938968 
-0.02199788250621077 
0.006237283741870946 
0 
-0.02269150535444841 
-0.001125582493694382 
0.0163889677771825 
-0.01566649429911487 
-0.02711334501904133 
4.887200140513174e-05 
-0.01882396800897737 
-0.0289826519949931 
-0.03400887341072405 
0.02321543151716576 
0.03059029850440339 
-2.067939470728503e-05 
0 
-0.002258290053009899 
-4.973350259222103e-05 
0.02159208411089258 
0.05813451654332186 
-0.02916469627972572 
0 
-9.321552103612333e-05 
0.003824956949353433 
0.0006562711328274633 
-0.01983851631923085 
0.01361163656205417 
0 
0.01337641591865473 
0.02802125580940618 
-0.03554135374729747 
0 
-0.01423010458288478 
-0.02685700305957696 
-0.01875037777224086 
0 
0.02715282485929589 
-0.04264264753096025 
-0.01945816508524892 
0 
0 
2.715180962737247e-05 
0.0191794973422187 
0.006916056058738319 
0 
0.01245078816181488 
0.02688111235170636 
-0.01082961097100242 
-0.02126095042001535 
0.02447202997653065 
0.02337935162870368 
0.03749029329248086 
0.03300516447363684 
0 
0 
0.01411663962555299 
-0.02068000635187703 
-0.01990060251396414 
0.02296808807317714 
0 
-0.01049112341402748 
-0.02142542660156058 
-0.00921944410058825 
-0.0001021545805135536 
0 
-0.01875037777224086 
0.01875037777224086 
0.04016710827747718 
0.01284637337594484 
4.440471567079098e-06 
0.04279335948730949 
-0.01525381483250478 
0 
0.0008520739142256076 
0 
0.008615552404401842 
0.01362509246536231 
0.01271728490002301 
0 
-0.0151079450530743 
-0.01539811466040614 
2.663423054388073e-05 
-0.01317157589077026 
-2.777051293472274e-07 
-0.02151599594104652 
0.005544898515027624 
0 
-0.02084990866446727 
0.01729398610353034 
0 
-0.03276674003337252 
-0.01066299856852062 
0.01425069148535652 
-0.001990500857664862 
-0.002856846023987227 
0.03769970944102832 
-0.01441437027608762 
-0.005705142551349049 
-0.01875037777224086 
-0.01559847296586076 
0 
0 
0.01446419080512635 
-0.02304015023130388 
0.0236734382765289 
-0.006606559292314435 
0.02612235338883952 
-0.01539811466040614 
0.003141033164900577 
-0.009288372330615288 
0.01875037777224086 
0.01347959376155095 
0.02144645602881791 
-0.02672179153187499 
0.001397284086278373 
0.01302685037458361 
0 
0.02221077563841492 
-0.01426815376229822 
-0.006693458310668897 
-0.00655147566492543 
-0.03950148343160718 
-5.779233129668857e-05 
0.006099588414430965 
0 
0.01526843309816199 
-0.004463739231002017 
0.01831257121366511 
-0.02144475305093615 
0 
-5.931854511723994e-05 
0 
0.02431280861095628 
-0.01585135399928839 
0.0207878702820876 
-0.007015070277880979 
-0.003910435758638595 
0.03783201407650165 
-0.00824478452211762 
0 
0 
-0.006214698869889147 
0 
0.01064432024562914 
-0.02014825024857777 
0.05496294773748151 
-0.02931775815770602 
-0.01030381353741882 
0.01875037777224086 
0.004854869067998432 
0 
-0.02969340519303884 
0.003981733776852587 
-0.002414350504933753 
0.01550039060308998 
-0.0004439684908942416 
-0.01390433840813619 
1.937319629863026e-05 
0.01875037777224086 
2.260593311669026e-05 
-0.02826848320624912 
-0.01057219561507707 
-0.004878758319929071 
-0.003659757901531749 
0.00297217645772556 
-0.03405343849025907 
-0.0001030782659934202 
0 
0.006247761096414202 
0 
0 
0.009576756411578891 
0 
-0.006733383307185897 
-0.003139575819572506 
0 
-0.009711243566294407 
-0.01875037777224086 
-0.007039052918695748 
0.05566724881148 
0.04129094244765082 
0.009258646862343846 
-0.0522668133633605 
0.00922255569169537 
0 
-0.01316126621330097 
-0.01925816886930736 
-0.01836141438410087 
-0.02847994309911024 
0.01875037777224086 
0.003965065589160498 
-0.01016642323440935 
0 
-0.01402316272465289 
0 
0.02677885883998117 
-0.03670146248051374 
0.01875037777224086 
-0.005915985895329942 
0.01875037777224086 
0.0002845881376421623 
-0.01317650186893655 
0.0169017320586817 
0.01525407150845959 
0.02533974607846892 
-0.002765996273400057 
-6.499907475890286e-05 
0 
0.02554668873028074 
0 
0.01222655178616011 
0.0125378850601362 
0.01394885251286551 
0 
-0.01383707843603786 
0 
2.994095787448688e-05 
-0.0001009727805090303 
0 
0.002816345703446122 
0.006709541804518144 
0 
0 
0.007671346637370024 
0.02485946073010255 
0.01976490701931594 
-0.01357605741245125 
0 
0 
0 
0.004270930824949937 
-0.01590917987227895 
-0.006031049388424762 
0.01875037777224086 
-0.03933983648968477 
0.01049967534610789 
0.01569303181649001 
0.01409701251531153 
0 
0 
0.01284570880679258 
0.004645864223747732 
-0.07050723180687786 
0.05121191331938305 
0.05587861823113575 
0.01649247897684087 
0.008903044350784603 
0 
0.01980964734826004 
0.02459562145993629 
0.01768933106135036 
-0.01004111611791699 
0 
-0.01545843570203586 
0.002794798838644307 
0.00211651356672633 
0.05344335460128142 
-0.0182400301080222 
-0.009298514986286172 
0.04094091533262544 
-0.003021807636803472 
0 
-0.006021358318457603 
0.002791584920705519 
-0.003340533856214481 
0.02157347464690568 
-0.0008283373857529037 
-0.01599293586493436 
-0.01249263945027213 
0 
0.03738696513177919 
-0.002843258350294692 
0.001758774099844986 
-0.006847517981401031 
-0.02448030867063127 
-0.005951649846439815 
0.03400049928565876 
0.004929716994784001 
0 
0.000398625461819404 
-0.004077171520976437 
0.003980327540281799 
-0.005071023347302328 
0.04742697662081424 
-0.000212455688913132 
-0.0003227749240504469 
-0.01711282144193588 
-0.0182400301080222 
-0.003819498446353734 
-0.02150515900892782 
0.001653575992696698 
-3.137666601573308e-05 
0 
-0.01494496868106518 
-0.004018745283466641 
0 
0.01491507007572758 
-0.01570843960423797 
0.03273180511675026 
-0.002964495427875542 
0.002893863446177501 
-0.02650864493344793 
-0.009242660185688961 
-0.004144004651263048 
-0.001349808376748071 
-0.004324199110911617 
-0.0123766154409924 
-0.0006650473553542447 
0.01308613445470468 
0.0001146350745362653 
0.01951216827787087 
0.00559541961056755 
0.01578904357575743 
0.01087906355350566 
0 
-0.009429279534507756 
0 
0.02246098805051287 
0.01232848051337964 
0.0001098375228428648 
0 
0.0009756518703524386 
-0.0141210411856965 
-0.01369009347589926 
0.03437755500576204 
0.008791715015154673 
0 
0 
0.02234442124140321 
0.01889391809644365 
-0.02651172249444978 
0 
-0.008843107282273756 
0.02666432870843705 
0.01420036099317813 
-0.02106196496639425 
0 
0.03510724786283743 
-0.01875037777224086 
-0.01263311980408978 
0.01059236188927543 
-0.02607721706142482 
-0.006625816119556148 
0 
-0.00693195720208054 
0.09065211431964261 
0.01113178039599445 
0.007057337244678956 
0.01504730796352694 
-0.02283450366908052 
0.01314810737916965 
-0.006641928592426787 
0.01637262082647885 
0.06305142106496089 
0.01240861305122029 
0 
-0.0007845875548884416 
-0.003978418757920831 
0.01875037777224086 
0 
-0.01074735836258037 
0 
0.008701104663436614 
0 
0.001604176764050447 
-0.008635416103423709 
0.008147638679500663 
0.007351375767017825 
0.06201673156881837 
0.02099642473812872 
-0.01770700271963085 
0 
0 
0.006186421804719627 
9.811294953434869e-05 
0.03407896015195799 
-0.003441760233653446 
0.01782161645612055 
0 
-0.02683958912842288 
-0.004671770525079484 
0.02542561078399336 
0.01238697906370373 
-0.03739118329552069 
-0.0001395273590220938 
0.02031241848890451 
0.02928736120929263 
-0.01842433069885631 
0.01308386761306693 
-0.03042570827489792 
0.0001248699013677003 
0 
0 
-0.01131480383986673 
0.01370453238849151 
0 
0.005642280489129888 
0.07031177818506437 
0.02565745531904823 
0.01875037777224086 
0.02079220880912878 
0 
0.01573934672187579 
0 
0.007576960632608517 
0.01271344755514364 
-0.00970926482711627 
-0.001201233436432033 
0 
-0.00416679252780415 
0 
-0.02836614447825187 
0.03816913242914197 
0 
-0.05540474271546898 
-0.03745891467397566 
-0.02079831762998172 
0.01638697898658441 
-0.01977049246175719 
-0.01308583501579539 
-0.02055772886946076 
0 
0.01875037777224086 
-0.009967809936989022 
-0.01525407150845959 
0.01629033677972587 
0 
-0.02441236138692796 
0.02364674761429386 
1.068658246997664e-05 
0.01926064568430157 
9.950637092645201e-05 
-0.01875037777224086 
-0.003091314215324692 
-0.01230169203775767 
0.006401476431979258 
0.0131496991875014 
0 
-0.02001638349058736 
-0.005803475014523257 
-0.01978280639199063 
-0.00910507319611914 
-0.01339935506805019 
0 
0.002250160077540002 
0.01653605231042023 
-0.01342991643620773 
0 
-0.02527412559075308 
-0.03701771083734796 
0.01525407150845959 
0.002197781100911458 
-0.01199700420583014 
-0.001168641760953871 
0.008917926569884995 
0.0135695275100505 
0.007999021548117673 
0.004544783193737235 
-0.03117304660962235 
-0.01123898217524271 
0.01470008648097814 
0 
-0.03158208463937599 
0.01173395871210352 
0.02296808807317714 
0.009554463608438866 
-0.0001193477017057002 
0.0325533762843886 
0 
-0.005129134329662218 
-0.0001332944331720542 
-0.01555777441044499 
-0.01494513407281543 
-0.01649325959281753 
0.0205013340730491 
0.001571916839756766 
0.01235357002827148 
-0.01503126291312696 
-0.02096083865018747 
0.01749728020416635 
-0.03402606495688024 
-0.01453817369599515 
0.007344693242592219 
0 
0.02515690281115502 
0 
0.01875037777224086 
-0.009101733146375832 
0.01875037777224086 
-0.01168264796109375 
0 
-0.04461276098125069 
0.02669691138821061 
-0.01628167295057101 
-0.0008750100484060806 
-0.01666503487822518 
0.102896549817657 
-0.02016298113393967 
0 
0.002146830177020831 
-0.03322624091185696 
-2.840490121210411e-05 
0.00937095420739723 
0.02682797847341131 
0 
0 
-0.02060928402001858 
-8.7343194945298e-05 
0 
-0.01437781355720827 
-0.01554232066211114 
0.02017161499472406 
0 
0 
-0.008887909482741568 
-0.02381116710372069 
-0.004061288140335582 
0 
-0.01558786407804933 
-0.01875037777224086 
-0.01329894810957427 
0.004521685207464163 
0.004491288272342816 
0.03530427330941221 
0 
0.006267578485862659 
-0.007248647252627286 
0.02682101016507957 
-0.006818785211953929 
-0.007334245323149648 
0 
-0.002914410214831608 
0 
0.007697427972671588 
-2.387072039307096e-05 
0.008875125957108609 
0.02969289576239386 
0.01875037777224086 
0.02172353115128882 
-0.01353677945869841 
0 
0 
0.01341990452510703 
0.02038537123440573 
-0.009736195193576883 
0 
-0.03773698330435071 
0.03171375992504815 
0.01588788151706173 
0 
0 
0 
0.01875037777224086 
0.08828944614997941 
0.04387849181278516 
0.01370123435651962 
0.0121829375282768 
-0.0001128161373376335 
-0.01724755225995355 
0.03192498073668684 
0.005896533167971182 
0.01467974248940188 
0 
0.02251049570461526 
0.01376959083881891 
-0.01448629056571044 
0.01525407150845959 
0.003386236968413352 
0.02812711998711085 
-0.01824983252959577 
0 
0 
0.0204371152225502 
0 
0.01335154611658469 
0.05990612732911268 
-0.01525407150845959 
0.06945509384347133 
-0.02787446311695678 
0.003143014613596391 
0.02901750522339594 
0.01972936850926577 
0.01864241342820086 
0.0245202891669525 
-0.02250732971980406 
-0.02138621613990365 
-0.006552159429719704 
-0.0166489141995971 
-0.01953307261494267 
-0.01916458605516834 
0.01078588564885941 
0.03326871629985118 
0.0107660126896279 
-0.006801987469358467 
-0.001027027350668047 
0.01675423092119104 
-0.009558181263842445 
0.006147032565812957 
-0.004000175481048757 
0 
0.03500320165614844 
-0.002170450914036822 
-0.02178836891621239 
0.04070849334614138 
-0.009299674789059027 
-0.0168059796411134 
-0.08513767041782337 
0.01809586503701259 
-0.01034951438738873 
0.05539438720160599 
0.03260703741763217 
-0.02810730007442737 
-0.01875037777224086 
0.007688996086154759 
0.005955101739355173 
6.368355511790979e-05 
0.01320071263103199 
0.01654141721449501 
0.02943374149141452 
0.01036919929251361 
-0.0005185318484239585 
-0.007131937913774991 
0.01081470616771614 
0 
-0.0239087908143018 
-0.04040795463705429 
-0.01783510454187179 
0.003046852312662057 
-0.03216524772946062 
0.02894976726492452 
-0.03155037455714584 
0.01815360082648398 
0.016590025676887 
-0.00707570904304699 
-0.002956242354784268 
0.01875037777224086 
9.902850244075542e-05 
-0.0003478305569116774 
-0.02111522144002917 
0 
-0.02105210217556715 
0.03796101040524342 
-0.004271341514998458 
-0.01965222350175527 
0 
0.01837504247714249 
-0.003630457852268272 
0.04964008564025554 
-0.009744805288125224 
-0.01986048818268781 
0.05484353509064818 
0 
0 
0.0293126701441643 
-0.01595015158828936 
0 
-0.01176572379611202 
0 
-0.0190856817560023 
0 
0.1297020161150305 
0.02771235451427006 
0.003029800867536034 
0.02886669523664533 
-0.02375464605374886 
-0.02023009506730525 
0.02642640077998884 
0 
0.01500774728035902 
0 
0 
0.01359595527284188 
-3.651198620221991e-05 
-0.01425909699202591 
-0.02419893194587197 
-0.01725230100649479 
0.01550923598402411 
0 
0.004381437453309249 
-0.02819205726599435 
0.02177191499592297 
-0.01641384910338733 
-0.01570236021379761 
-0.05339019303514893 
-0.01954734866145984 
0.04871301538878251 
0 
0 
-0.01316449317794824 
0.01701441484498722 
0.02368563071406167 
0.04169971416209779 
-0.01247588341839424 
0 
-0.0180332433017854 
-0.004013172505157243 
-0.01360407404778689 
-0.03927567818964535 
0.004467608363261785 
-0.01478890168399252 
0.008879251222340326 
0 
0.02229181525390337 
0 
0 
0.01210119028839436 
0.02292980176333799 
0 
-0.01875037777224086 
0.0001280489110416805 
0 
0.0001157439400716351 
-0.0140982319331192 
-0.02405892511681609 
-0.02888640747074811 
0.0002950774508902983 
0.01498163358037418 
-0.01467400371703567 
0.0009830201271460444 
-0.01545783488872575 
-0.02240517524369348 
-0.01364773551720299 
0 
-0.0102745159468346 
0.007741086344588252 
0.008165729338580206 
0.009528222054889009 
0.002359889655682033 
0.01917659720993814 
0.02045493545924823 
0 
0 
-0.04780135411299878 
-0.01843361899123705 
-0.009094936341482854 
0.02052042548165188 
-7.302225599455366e-05 
-0.03456156064450928 
-0.01769750361658929 
-0.02206124310218099 
0.05899728061797325 
-0.01397215008975196 
-0.01624645840235098 
-0.01892181271936134 
0.01875037777224086 
0 
0.0777181059065513 
0.00812434143189533 
0 
0.02914575629006899 
0 
0 
0.01323137118128075 
0 
0 
-0.01331517816504887 
-0.04025362615795385 
0 
0 
0 
0.007758041327038011 
0.01443632885566334 
0.01064810271741701 
-0.006957564726625452 
-0.008806414647168146 
0 
-0.00872004240921666 
0.02929024857791896 
-0.04401602055301736 
0.000360127777537322 
0.001869994747945022 
-0.002518689195840286 
-0.01701956187732792 
-0.02747829270157597 
0.0022893506118045 
0.03113217279839943 
-0.02264547220373308 
1.467849973347082e-05 
-0.05538921464797029 
-0.01635685990118298 
0.01034351781866926 
0.01477622688567327 
0.005871657014448609 
-0.02269544197771301 
0.01283279114156101 
0.00161094234418348 
-0.01317117132711044 
0.01472428952522317 
-0.007915025674335297 
0 
-0.00543200037239436 
0.03290268712869624 
0.01371085463452408 
0 
0.007316933875631123 
5.785275119834198e-05 
0.02285129649169372 
0 
-0.01542399050759701 
0.02249296510819019 
0.02845462472646094 
-0.005279443947144833 
0.01826907585417023 
0 
0 
0.00625083474836772 
0.001636019962397001 
0.01272938412600051 
0 
-0.01658533324956842 
-0.02207609866343192 
0.01001680299598269 
0.0134109959048045 
0.03531556595219991 
-0.008113306295521521 
0 
0 
0.01077860976678909 
-0.02523006958182443 
0 
0 
-0.01185088713571672 
-0.01822546293038639 
-0.0007348877074977319 
-0.01266391913062324 
0 
-0.004765203634941831 
-0.02791669491264308 
0 
2.116518859678158e-05 
0.05032164972893786 
-0.004718183264909623 
0.0101376012057023 
0 
0.003705094660962934 
0.003922107570111798 
-0.01195807124632266 
0.008571348078045974 
0 
0.01170896817950318 
-0.01875037777224086 
0.01635673894369585 
0.01293207440926325 
0.01491235335648377 
0.01447706185443197 
0.03085640168849177 
-0.0006136069795864261 
0 
0.01182005780131544 
0.06237281921357343 
0.04663037179135682 
-0.01122819887866548 
0.01173670503878725 
0 
-0.02469443523047192 
0 
0 
-0.0426571016088139 
-4.631551558455674e-05 
-0.01355981829263262 
0 
0 
0.01875037777224086 
-0.002713099449277405 
-0.03466782765497649 
-0.001526048697357473 
0.0122071854078405 
0.02435525675888925 
0 
0.04233452606821151 
0.006134546422746167 
-0.01744173771538649 
0 
0 
0.0001146306516282276 
0.03327494916120415 
-0.0009597707592334916 
0.004801963782515032 
0 
0.003225808911279657 
0 
0 
0.01083161970893074 
0 
0 
-0.02545550904424889 
0 
-0.009563973659440936 
0 
0.03838668781387222 
0.01867862003308638 
-0.01875037777224086 
0.01928951390156068 
-0.01102292653611765 
-0.01567146988648252 
-0.01875037777224086 
0 
0.00644658369274251 
-0.004501159515879739 
0 
0.02277338691467 
0.02566255366268927 
0 
0.05200804738867151 
0.05386789257933799 
-0.01490652480363912 
0.01875037777224086 
-0.008363823651317111 
0.007339163112778446 
-0.01615016703837437 
-0.02499704617139044 
0.04774751865592184 
-0.004442643546359218 
0.004398952134210639 
0.0112860786305497 
0 
-0.1356459157216503 
-7.566331951236552e-05 
0.04488776295978206 
0 
-0.0134200285027688 
0 
0 
0.000787804762931051 
-0.02494605688321261 
-0.03256250842782222 
-0.01815360082648398 
0 
0.04521220392811049 
-1.519180727301378e-05 
0.01074522001120204 
0.02466828168738613 
-0.01752425673468025 
-0.0006409054873716287 
0 
0.006082844126477856 
-0.02618375706813685 
0 
0 
0 
0.01750822706912592 
0 
-0.02408901236404636 
0 
0.01933818773242424 
-0.01748207153417949 
0.03091548427126559 
-0.0007587474542411351 
-0.007089772773090204 
0.02914892501158438 
0.01190157800936041 
0.03885689092077253 
0.05270316207156235 
-0.003815129985512845 
0.01875037777224086 
0 
-0.01130597910820354 
0.03259296851850853 
-0.008684850283702961 
-0.0142575307691189 
0.0006197918348139144 
0.003419479698142679 
-0.0197584306651 
0.001401968031068355 
0.01576756724941202 
0 
0.01000790728102443 
-2.330460001241439e-05 
0 
0 
-0.0105083869624262 
-0.04606096591720388 
0 
0.008282874988077072 
-0.0201274746710117 
0.0157670178861146 
0 
-0.006873906070358459 
-4.593540198741052e-05 
0.05023803874060978 
-0.02447991445886571 
-0.02134891486236762 
-0.05121747717614104 
0 
-0.03670320891429633 
0 
0 
-0.03174035079338769 
-0.007277701778564074 
-0.05980441746598806 
-0.02923636122153725 
-0.03298888735051725 
8.275806228288287e-05 
-0.003333232284885343 
-0.004333187915880166 
-0.01643705448580369 
0.01774232487938172 
8.717334605843529e-05 
0.01824201954899002 
-0.0001694877801088106 
-0.03374130734235044 
0.007218789967961186 
0 
6.122753036235138e-05 
-0.00515081647007717 
0.01071382373921306 
-0.05118381072746429 
0 
0.01112497502600511 
0 
-0.01709192298934245 
0.01951665103531215 
-0.06984661935244572 
0 
0.03398237959864626 
0.01559728052874967 
-0.01490691213219776 
-0.002856342528179149 
0.01593249067091167 
-4.133770032130792e-05 
-5.155455055835909e-05 
0 
-0.01606868996146119 
-0.02107699898396267 
0.02270132998384855 
0.009752895296097382 
0 
0.01777642693978982 
0.01875037777224086 
0 
0 
-0.01163147571884198 
-0.02345799242818796 
-0.01972620704323833 
0 
-0.07461294183364214 
0.02128791641140235 
-0.01875037777224086 
-0.008561692482262184 
0.045938363530445 
0 
-0.01205917597689835 
-0.01631220998912817 
-0.01711197047270322 
0 
-0.04397536560861316 
-0.008113582941120728 
-0.007095790136177817 
0.005499233693786051 
0.02298374635544531 
0 
0.00481288103307757 
0.01503975131625944 
0.00848231976482134 
0 
0.00659815695908559 
-0.005813576159343492 
0.05095279668231135 
0 
0 
-0.01240345990298458 
0.01875037777224086 
-0.02903695551935495 
9.736681330169665e-05 
-0.04974245765467608 
-0.01910867775242007 
-0.01150140614664127 
-0.02328407035874741 
0.0001181702814449331 
-0.00824142289212579 
0.03325690594951908 
0.03753424896214659 
-0.0002875172506584913 
-0.01875037777224086 
0 
-0.03185847505535182 
-0.01842433069885631 
0 
-0.001771854809150887 
0.02866355368591708 
-0.01446630400959221 
-0.0118148211754075 
0 
0 
-0.01470638785703115 
0.02887610947759569 
-0.002071542086489813 
0.002509856408726935 
-0.015625296209507 
0.009783309322093214 
0 
-0.01597185974349419 
0 
-0.01905246528122546 
-0.02093435123945083 
0.007448979237008575 
0.02303752006501837 
0 
0.01356726732972158 
-0.01087007877168275 
0.001025809460416252 
0.01202391939296717 
-0.02311836901678855 
0.01613503868782976 
-0.005333719752020946 
-0.02663738383370098 
-0.0001704706766469534 
0.02946549621473445 
-0.004239420902844131 
-0.01453952955218602 
0 
-0.01940512147486642 
-0.01875037777224086 
-0.02741326250432128 
0.006172492958962568 
0.01384479173658016 
-0.004780306248128213 
-0.0147259206249876 
0 
0.0274751591529949 
-0.006325041417898305 
0.01685487142417724 
0 
0.007129916368507714 
-9.143790287480347e-05 
0.02252261085263461 
0.0001277260283724476 
0.01797508210016398 
0.001845882718430233 
0.01128352167647895 
0.01875037777224086 
0.01850919369232241 
0.01158624728980668 
0.007628673247060397 
0.003585432533206632 
0 
-0.02398916168240368 
-0.03458134196405153 
-0.02240762757156345 
-0.0008309456499942151 
0 
0.02039976227126358 
0.007193782334052206 
0 
-0.03735085836287455 
0.009174722848180859 
0.02503985877487982 
-0.02033502177555161 
0.03007589188098969 
0.01398706665803096 
0.01485040734528043 
0.01802328274569945 
0 
-0.01960187256852296 
-0.02977456873356017 
0.03588311968368189 
-0.03196843206910977 
0.02471288966497203 
-0.01253025310349422 
-0.01242930090599998 
0.01117592507686161 
0 
0.006519073519876409 
0.01621007796000143 
0.03472728106629377 
0.06173988329730976 
0.00396480411084255 
0.01473472934567175 
0.01553642422465168 
-0.02224189428050618 
0 
0.01568196127623986 
-0.01806957533590939 
-0.0431132262322908 
0 
0 
0.01697046503915722 
-0.01427243369334133 
-0.0282587720225575 
-0.007389162752464012 
0 
-0.01078861046024967 
-0.04286942868223016 
0 
0.01332828380845489 
-0.01248870975876597 
0.0121829375282768 
-0.01560192232265194 
0.01400179617137088 
-0.02329425431113527 
0.01786885072419598 
0 
-0.004270933335378315 
0.01875037777224086 
0.02725820288720097 
1.020297736078488e-05 
0.0332919149579592 
-0.03182903957803069 
0.01115178624315087 
0 
-0.04456750194317523 
-0.01815360082648398 
0.01064810271741701 
-0.006041107587786453 
-0.01860245799726768 
-0.01875037777224086 
0.01672302875974051 
0.003314340617609568 
0.0378814871962363 
-0.03012280298534277 
-0.01323169117200901 
-0.003794162327503587 
0.01764038605617604 
0 
-0.01935071596744526 
0.008190079257398728 
0.05332702063472962 
-0.01096131861428397 
-0.0002111742068759144 
0.01321546533766425 
-0.01292044868136827 
0.03924901847805234 
0.02134636960475548 
0.03145964795669526 
0 
0 
-7.546368549762549e-05 
0 
0.00461330214691856 
0 
-0.02281193729954144 
-0.02269779695411454 
0.0009083765619049573 
0 
-0.01663426000023732 
0.02737575979138672 
0.02008094971648796 
0 
0.01656109745489162 
0.01444741381962348 
-0.01443602587499413 
0.0142364326872296 
-0.02440522455222878 
-0.007995768744204738 
0 
-0.004139791302229235 
-0.0156924340835833 
0.003179066396716544 
0.01932008883475315 
-0.001943489533904683 
-0.0120938769716838 
-0.01636902808598615 
-0.0114343742846099 
0.007908227323544617 
-0.02623623599388368 
-0.0008906954998815105 
0.003338262146429869 
0 
-0.01875037777224086 
9.201567350558683e-06 
0.01483894777261099 
0.00884790333689227 
0.01913621812054478 
-0.002100752671852918 
-0.01312351122346684 
-0.02976341083650077 
0 
-0.007456753321544526 
-0.0001584358112078991 
0 
0.01963311949624679 
-0.1084551828533994 
-0.02209552381329957 
0 
0.009684829501345443 
0.03204045978240205 
0.04063139491500654 
0.01592559924224752 
0 
0.00595039775497659 
-0.004008307716130465 
0.003612958343041966 
-0.003845565074128866 
-0.01602101261438161 
-0.002910962037007554 
0.005669430675928256 
0.01487648426948813 
-0.01842433069885631 
0.05753537668847893 
-0.01430869844879751 
0.01875037777224086 
-0.004035868653399372 
0.01246440309898932 
0.01554649024511126 
-0.05180291237260751 
-0.006475300292348539 
0.03804858073330066 
0.01652531759485955 
0 
0.01956647682430443 
0.009535928693417876 
-0.01133043345759515 
0.001342764574403491 
-0.004261400257533062 
0.01525981690427623 
0.02505925979569741 
0.003273236461412197 
-0.03286548157846046 
-0.01875037777224086 
0.008453984441629446 
-0.0156624127907224 
0 
-0.004328197765660582 
-0.0001434705140373899 
-0.004644396731946397 
-0.04285131834617839 
0.03552813490053045 
0.01525407150845959 
0.005371244113239792 
-0.01079366053691982 
0.05200712543788516 
-0.01070399026909339 
-0.01058300640649172 
-0.0292521840575625 
-0.0003572303598843553 
0.04532849821225324 
0 
0.03647859003692874 
-4.966298945805295e-05 
0.01943326574044974 
-0.02260450888708954 
-0.009113364246081964 
-0.0120736677730238 
0 
-0.05555948919998301 
0.0253702573076503 
0.05978847642618507 
-0.01765894609934285 
0.01302519696844326 
-0.001557745320927081 
0.001571916839756766 
0.02317183380060757 
-0.02900050037279026 
0.009085561707081951 
-0.007702010669716092 
-8.582367649867425e-05 
-0.01563478584846471 
0.06684658706607918 
-0.01326450900614693 
-0.00400151003647179 
0.002395879612030761 
-0.02441787865817459 
0 
0.01065718013881563 
0 
-0.01524667479226961 
-0.1561072323945678 
0 
-0.01748732065081529 
0 
-0.01553978130653789 
0.02105411217617799 
-0.03472272021301474 
0.01224532516995356 
0 
-0.01931981127336977 
0 
0.01991833083764737 
0 
0.03361690161738391 
-0.009350626946109166 
-0.01323312182206843 
0 
0 
0.01875037777224086 
0 
-0.01762365308896745 
0.01940383896319153 
0.07883618532304508 
-0.03673705478740425 
0 
0.0001700652194525975 
-0.02881725647913179 
-0.01234883717406253 
-0.02021190367488627 
0.04228219482391115 
0 
0 
0.02928166774337937 
0 
0.009814238260280671 
0 
-0.01875037777224086 
-0.01473601989831597 
0.01730119415152941 
0.00528039561175559 
0 
-0.01683367127216465 
0 
0 
0.01367800253602107 
0 
0.01346289433266367 
0.04457826663258647 
-0.02493754641442956 
-0.02783865520758414 
-0.02316365938192427 
-0.0244511516419306 
-0.01903371532943283 
0.01926072543645952 
-0.01591506385409594 
0.01372533779288215 
0.007282473014981981 
-0.07026286421959635 
0.0001727760308402384 
-0.02890528152906596 
-0.01875037777224086 
0 
-0.01218364066699258 
-0.0151978328941857 
0.01291186952541243 
-0.01168121327399903 
0 
-0.02659081944875044 
0.002109282957363624 
0 
0 
0.01154641141141429 
0.01604944778375122 
0.07022091382041067 
0.0002600062840091983 
-0.0008568169014400729 
0.01152244511512809 
-0.0115673108089101 
-0.001977756871812141 
-0.01108753339095007 
0 
-0.04160008189277326 
0 
0.0007486836297131378 
0.03932946216704439 
0.01588869021636814 
-0.01521870401625238 
-0.03519233455492034 
0.01808795742221907 
6.817991707656491e-05 
0.008653135683200213 
0.008856032389847184 
0 
-0.01668631037556323 
0 
0.0139546038079771 
-0.02209279475634185 
-0.004644396731946397 
-0.01924808300088133 
-0.0186521212986252 
-0.007764274198365905 
0.001813621757162916 
0.05653983925494908 
0.01526232174829052 
-0.05567107926949531 
-0.02367495523222153 
-0.020966884034479 
0.01139093511596537 
-0.004392630848992588 
-0.04530433787548475 
0 
-0.02277483146641116 
0.01007621881500989 
0.01041649445150354 
0 
0.007196387200316362 
0.007497896371846269 
0.006574903759098793 
0.0215963409005042 
4.440471567079098e-06 
0.006032997276690585 
0.02303926062970119 
-0.01875037777224086 
-3.372593394012845e-05 
0 
-0.01659343101694024 
1.596624267768783e-05 
0.004394480400119903 
0.01875037777224086 
0 
0 
-0.01339666346199761 
-0.06394867995178607 
0.02349106926828917 
-0.01875037777224086 
0.01294425745050317 
0 
0.0116094994463351 
-0.02773302365100666 
-0.01967978981461076 
-0.02045573719166257 
-0.03023065365128367 
0 
0.01515721195757811 
0.01378087919032644 
0.01254790639390321 
0.01461571257310583 
-0.0109747219804092 
-0.01323169117200901 
0.03095375340976698 
-0.001074294413414479 
0 
0.01320678419898457 
-0.01875037777224086 
0.01436759818827899 
0.008520214537656954 
-0.002281489003970483 
-0.04128957394334772 
-0.000595241683992605 
-0.001503275989902864 
0.003412555288634571 
0 
0 
0.01973195486086017 
-0.0005289511336892634 
0.002148946303789754 
0.03859054103878592 
-0.006095548197045568 
-0.01525410258805119 
-0.0001751749654796487 
-0.02520732140633685 
3.414682739036146e-05 
0.01100320836169365 
0.01875037777224086 
0 
-0.01678959691266504 
0 
0.006076825367125788 
0 
-0.01658921088872036 
-0.01085816197994026 
0.01582367895445655 
-0.02263564249861869 
-0.001190173090690525 
0.0191059912915918 
0.01222694324219014 
0 
0.03267604361888839 
-0.004642230475438436 
-0.01442861504538561 
0.0200487845522168 
-0.005333784840385654 
-0.01539716011781262 
-0.01389598952404083 
-0.01180743199804525 
0.02012116479005784 
0.03102810490030722 
-0.01549765358339721 
0.01680492958719726 
-0.007843961513042777 
0.0003379481487282297 
-0.03018458763022178 
-0.0001042415225951202 
-0.02616320028814755 
-0.0003178636787699461 
-0.01808768184994326 
0 
0.03423188368954477 
0.02452900679366459 
-0.00964259508893346 
0.01572502436716507 
-0.008704509068120578 
0.01092588298466692 
0.05968432993121453 
-0.01325615329064217 
-0.02944645673840273 
5.600589813517116e-06 
-0.006013783560884334 
0.01593904484441654 
-0.006384032723798921 
0 
-0.02467954901424935 
0.01275323850750426 
0.01179393854171854 
-0.01500029248433022 
-0.01039346880339077 
0.0005329728240297423 
0 
0.03764310925650857 
0.01738531111822524 
0.01585553829599878 
-0.04362650362144114 
4.613673838160981e-05 
-0.002956203981248461 
0.0531388444837523 
0.03093185744103368 
-0.01786062178175668 
-0.004905754373190132 
-0.02498680300843749 
0.01919327070653519 
-0.01061964319277536 
0 
-0.008800691827136688 
-0.01540796516930538 
0.00961729193018512 
0.01936013719087587 
-0.02766865046354143 
-0.0009956878303066931 
0 
0.0005998577412857078 
0 
-0.03672487021183013 
0 
-0.02342424767548192 
-0.04561139246564264 
0.07463883937599664 
0.002960909215001474 
0.01740901041529868 
0 
0.0001114307968356505 
0 
-0.008628227992979309 
-0.01806638675357172 
0 
-0.02093966788068847 
0 
0.02205184484676313 
0 
-0.004881718758875894 
0 
0.01750700617603162 
-3.801578521339716e-05 
0.008734674790806727 
0.003086854747050016 
0.008153662234740325 
0.01158733464486717 
0.02374903330415325 
0.01873641761311852 
-0.0182549683680443 
-0.01242782544101278 
-0.01018014666142634 
0.005038611412807734 
0.0144945537975001 
-0.01906292695013323 
0.0003567122746893508 
0.0387644347267258 
-0.004170228195544941 
0.05283885474543037 
0.01813418864360477 
0.01469188145604552 
0.01051319507194247 
0.01103047277639242 
-0.01875037777224086 
0.01490740815430177 
0.01815469866387849 
0.01662518381077929 
0 
-0.0239884793055181 
0 
0 
0 
0.03559934493144926 
0.03571668556481338 
0 
0.01267567692492531 
-0.01778045543857446 
-0.0189651222799627 
0.0149254616962751 
-0.03317551993670308 
0 
0 
-0.01996964141165686 
0.02248044407832352 
0.01338860844729523 
0.02331670140744957 
0.02232938940147361 
0.006739191953564044 
0.02871780649827288 
-0.03741576758046376 
-0.032896830879824 
0 
0 
0.04657469348661361 
0.0591269207471311 
0.01421754410672828 
0.05238657946065134 
-0.01803075632305195 
-0.008055792873523661 
1.472375464452447e-05 
0.01529756683004829 
-0.007248647252627286 
0.02284482215773018 
0 
0.01875037777224086 
0.008081840030308455 
0.02252478392144218 
0.04259999931583199 
0.0177162227181148 
0.03531350889683177 
0.0001468180252542636 
-0.02032336032632385 
0.0002243103937219147 
-0.01266992912909702 
0.06714922262475637 
-0.02634082037138319 
0.01689412871950698 
0.05316713312687084 
-0.008629716824077998 
0.01159848192227528 
0.01171894756281555 
0.06380660011916109 
0 
0 
0 
-0.02257158852450764 
0 
0.001787453795346585 
-0.01411152515088382 
0.01483872948906436 
-0.01484228807629977 
0.01520166171063698 
-0.03932663519249149 
-0.02618235935589582 
0 
0.01436074601644446 
2.467694688397586e-05 
0.01927855474491326 
0.007580579130713402 
-0.02212060804661077 
0.01615081615371078 
0 
-8.039616983863707e-05 
-0.01430684463706932 
-0.05841144702652575 
-5.740111423040695e-05 
-0.01954243284120426 
0.01865444520048363 
0.01887268591460164 
0.001622052476917945 
-0.006902724412634837 
-0.005149721391891965 
-0.01302184100768665 
0.03124839034427772 
-0.02948164748021415 
-0.04580300401894621 
7.83037747344891e-05 
-0.01790293404390168 
0.08223677733136607 
-0.0163899066024382 
0.01862693250590233 
0 
0.08016609857479479 
-0.01136248573694323 
0.003765986543149504 
-0.03561884380052221 
0.02394332574949457 
-0.01736384996294781 
-0.01993837908193802 
0 
-0.004089310674635008 
0 
-0.01848361728283061 
0.0361772582784965 
0.0077108784208267 
0.01414167422447079 
-0.01818264137105056 
-0.01821138022999933 
0 
0.0022893506118045 
-0.01327120229029352 
-0.002644798003912118 
0.006118448708383803 
0.004889847751683346 
0.008212037322661963 
-0.02821469615351235 
-0.01875037777224086 
0.02143562050412774 
-0.01621283641289779 
0 
-0.01875037777224086 
-1.299034184392271e-05 
0 
0.01400018531514829 
0 
0.03007589188098969 
0 
0 
-4.918525124332947e-05 
0.01064038832627691 
0 
0.03145964795669526 
0.008537436538619088 
0 
-0.02115296407090567 
0.02591495538510772 
-0.01779556442393167 
0.04349995189894958 
0.003502918754713521 
0.01223930763967432 
0 
0 
0 
-0.03260126424133959 
0 
0 
-0.01613157785048541 
0.01925477614409251 
-0.04343821187985448 
-0.01025950469791714 
-0.005610243045851456 
0.01848686126099306 
-0.01575099256466472 
0.0008446064849159389 
-0.01788321644149965 
-0.01368695456661751 
-0.01777508127331798 
0.008863079260949687 
-0.003573534592117715 
0.01794786823394941 
0.004601159021140224 
0.02285072788345646 
0.01819987719003183 
-0.01875037777224086 
0.008711277493042541 
0.007989620251979881 
-0.02039884158379826 
0.002781768650960057 
0 
0.0111396008188053 
0.01465072147634839 
0.01815360082648398 
0.02016525060332131 
-0.02672055945447512 
-0.01856566228787964 
0 
0.007163395931526333 
-0.0007295997977553466 
0.02001123146250793 
-0.006076545957512041 
-0.01875037777224086 
0.007204012299987442 
0.009693474453503399 
-0.004724167048958811 
-0.03153355139690527 
0.01191211478564491 
-0.02094797248870533 
0.01869683524528988 
-0.02914895472922927 
0 
0.002532872964363699 
0.01902687939320116 
-0.04926505254031117 
-0.01670319402725745 
0.01875037777224086 
-0.0007209526526164204 
0.006754738867386843 
-0.0133816729411265 
-0.02803185514714104 
0.008905977642469439 
0.001573851375764343 
0 
0 
0.006499675835745229 
0.02019633881704884 
8.171649771966338e-05 
-0.01875037777224086 
-0.02551505891808875 
-0.02629623968778555 
0.03470572946491336 
0.01422966616630126 
-0.01032827616324309 
-0.008980249048051944 
0.001235504642340029 
0.03301740008384644 
0.009220208361357542 
0 
0.02768578526393277 
-0.04662090233811246 
-0.003411502606023077 
-0.0104493619848478 
-0.01461736652447395 
-0.02119040279535121 
0.01300076361876326 
0.02182521805949472 
0 
0 
0.002520371635922864 
0 
0 
0 
-0.01363588449003364 
-0.007461529576673126 
0.01963840813002897 
0.002817507572471104 
0.01944036891459072 
0 
0.006942354945752903 
0.005627989707460871 
0.01594176107533759 
0 
-0.0171968383021101 
-0.01734384074658197 
0.01590037473191904 
0.0238417103763018 
0.0074358434751861 
0.008791715015154673 
0 
0 
-0.005826061527425654 
-0.001558460598706068 
0.00331805857701141 
0.01408208595698972 
-0.02240821888708079 
-0.01268286024443356 
-0.008836734068028415 
0.008785619921165205 
0 
0 
0.002866282257083702 
0.001659268153963567 
0.02152941894170161 
0.01204274659597274 
0.0003267516706516708 
0.04039548965560749 
0.002667646118853823 
0.02879141930007661 
0 
0.01184400375560238 
-0.01812735068901095 
-0.001682089466871918 
0.001604176764050447 
-0.008661337506479436 
0.02794208007904632 
-0.02399936195378556 
0.05827825122873501 
-0.02981703800456965 
0.00197233902563939 
0.01012112427602514 
-0.01875037777224086 
0.04549288798167382 
0 
-0.0002146365929752854 
-0.0245293232250185 
0.01570564000563793 
0.01324766976597765 
-0.01875037777224086 
-0.0328196942914835 
9.089679488497005e-05 
0 
4.912756220140153e-05 
0 
0 
0 
0.001501857414187252 
0 
0.03447221661722582 
0 
-0.03313560613050639 
-0.01424518316726276 
-0.01709052537333454 
0.01233071912737819 
0.02544959099243037 
-0.01617731467069422 
-0.01928317554352861 
0 
0.01230263054302275 
-0.02395367988805221 
0 
-0.006627873491050585 
-0.01285817730264689 
0 
0 
0.05978208286598253 
0 
0.03117371221403436 
0 
-0.04547518252565031 
0.02720028020505148 
0.01875037777224086 
0 
0.006856266629473599 
-0.04393708634409786 
0.00907921554542394 
0.0372182778284378 
-0.0252490433353575 
-0.03793501229757417 
0.02261685408330631 
0.02216608744357935 
-0.01842433069885631 
-0.03047501185075762 
-0.02919137158051799 
-0.01580574418077324 
0.01875037777224086 
0 
-0.0336632433289835 
-0.02290411606227606 
0.03847718397327907 
0 
-0.03011016109425135 
-0.007113907822056885 
0 
-0.0348558617033512 
0.005585833649380078 
0.01492639887307389 
0 
-0.008488223014204941 
-0.03396271883060777 
-5.448891005621832e-05 
0 
0.003879439696458723 
-0.06032033563249039 
0.05083535872264019 
0.001226330665351351 
0.00410080876241843 
0.03358048529934364 
0.01525407150845959 
-0.005262136659557147 
0.05395306022162362 
0 
-0.03400218967795591 
9.214945476748645e-05 
0.0006686093368834249 
-0.01922128085148323 
0.01525407150845959 
-0.03535749764152298 
0.002720827540211516 
0.01053599654161865 
0.004854151269237778 
0.008864485410861862 
0.02894172612244921 
-0.01449786070601022 
-0.002865789763207153 
0 
0.05263290181227714 
0.0005721066313565174 
0.01845409633740682 
-0.01210461128802751 
0.02337468702898213 
0.0552517306163224 
-0.01927365145336535 
-0.01842433069885631 
0.008827354674364267 
-0.02276040818336674 
0 
-0.05847645675305889 
-0.02234463354866849 
4.440471567079098e-06 
0 
0.0106128606251067 
-0.009430401623154167 
0.03044619921665422 
0.04058695194338 
0.03948595580552806 
-0.0001530941037254488 
-0.002764392396352629 
0.004867862650940944 
-0.02388267931630436 
0.0004049267205276774 
0 
-0.01778181088971133 
5.139305893772167e-05 
-0.01432092775154091 
0.006282949559063992 
0 
0 
0 
-0.0002279207441082715 
0 
0.0001165257331197003 
-0.01542892421916716 
0.01368949148498402 
0.01537989478904949 
-0.02402439614490008 
-0.01799497123841004 
0.01370123435651962 
0.007804914602284128 
-0.04287042665296075 
-1.850512617036228e-05 
0.0375746020924016 
0 
0 
-0.0008645488695897142 
-0.01122549748030067 
0 
2.414893558970422e-05 
-0.02980373302912138 
0 
4.640669284842958e-05 
0.003562204959114146 
-0.04860326767818392 
0 
-0.06134225736232383 
0.007172368841269 
0 
0.02664450527413715 
0.03118300193918834 
0.006589012065424893 
0 
-0.01952626445773349 
0.02023900598992174 
-0.03007434538073671 
-0.02195698875172781 
0.01914663554658232 
0.01875037777224086 
-0.007160669293716803 
-0.01693465506878011 
-0.0188036264654806 
-0.02308076905888147 
-0.00774789841579539 
-0.01068038252489523 
-0.005984583764714961 
-0.0002875172506584913 
-0.03350351502305887 
0.005925107033892403 
-0.01614801698089913 
-0.03389001406379001 
0.01337776672654192 
0.05336199916774848 
-0.009824814410622596 
0.0002600062840091983 
-0.02657794271013771 
0.0008751375691099244 
0.01696092760475825 
0.006535671100926839 
0.04038212723341648 
0.04741237026650714 
-0.07665920612771127 
-0.002795784978118834 
0.003995952737476069 
-0.01667053250928945 
-0.03556075954485081 
-0.01813372616498544 
0.01636292665500255 
-0.0181394616226735 
-0.01448644999725634 
0 
-0.009345598654217361 
-0.005396816104003724 
-0.0564980830443326 
-0.002401292699611993 
-0.01186234028824066 
0 
0.05851798055702264 
-0.01748837236588231 
0.001456938829742737 
-0.03166611054457343 
-0.02938660062049112 
0 
0 
0 
0.009193095067744718 
0 
0.01422926842878067 
0.03442264474133955 
0 
0.006393549784936309 
-0.00927328581800496 
-0.01997907758683803 
-0.03065189092532791 
0.0175757945314632 
0.005464553627902808 
0 
-5.165649566720899e-05 
1.41244092396961e-05 
-0.03577427447613939 
-0.003541639352782833 
0 
-0.01902026751206822 
0.0190764248456254 
0 
0.0003588114048360448 
0.001226330665351351 
0.03761422856354783 
-5.215888788027705e-06 
0.01133545309495635 
3.501058214268011e-05 
-0.02858116811826234 
-3.888639895666032e-05 
-0.007835051741263078 
0.0145358950045749 
0.00829676752228123 
-0.01321237374064547 
0.01814694168255823 
0.005779434370910638 
0 
-0.01831582565406694 
-0.01444651605161223 
0 
0.008002252058022014 
0 
-0.01220693338322855 
-0.01185626034015565 
0 
-0.005612717930300243 
0 
-9.141293374629773e-05 
-0.03262858393041328 
0 
0 
0.00956440838590698 
0.05510719896325665 
-0.001038477624943113 
0.01213775636497749 
-2.27694248016778e-05 
-0.01875037777224086 
0.02836204608295643 
0.007937620625794249 
0 
-0.02463308111909217 
-0.01031719954847348 
-0.02314392120236914 
0.005642280489129888 
0.02062316031517951 
-0.01047355343290434 
0 
0.0314965663495308 
0 
0.006120636415531766 
-0.03317259454017377 
-0.005222868948093034 
-0.01840240733893259 
0.01176358902647709 
0.00199008894723806 
0 
0.01637189032321489 
0.01113346071770101 
0.01700182503371168 
0.02541056770077352 
-0.01073464031241306 
-0.05611266844055891 
-0.02209279475634185 
-0.007365972077666415 
-0.01731123641578307 
-0.03125082261935237 
-0.03654730825064285 
-0.01942908964604726 
-0.01038574314614663 
-0.007466119569739653 
0 
0.01164274730479858 
0.01229007435668498 
0.03261175841632368 
0.01875037777224086 
0.007719685466319855 
0 
0.02675828655137973 
0 
-0.01875037777224086 
0.006329419850587791 
-0.01469595193389914 
0 
-0.01842614686628966 
-9.576447134620678e-05 
0.006079844002428852 
-0.006391626239201321 
0.01875037777224086 
0.005229526403055883 
0 
0 
0.01383184547166089 
-0.007715992068411857 
0.02291061438033473 
-0.0173077727612078 
0 
0 
-0.005462071575236772 
-0.02470515054617754 
0 
-0.02491523939268714 
0.03495390660566051 
-0.01794341296007984 
-0.006638096810446755 
0.0220648892572468 
0.002784507480790843 
0.0142704150911331 
-0.01540293771951196 
-0.01101980454808654 
0.06583116318803831 
0.002103652296191662 
-0.03392128705082995 
0.003438776033524085 
0 
-0.02696572148683863 
0 
-0.0446974286330088 
-0.01417713736211514 
-0.03029333106587885 
0.01127530633286867 
-0.02322485380017818 
-0.02221847165761498 
-0.01390375855600912 
0.0001773060528217405 
0.02412666372961665 
0 
-0.02686245622171052 
-0.07407950873840649 
0 
-0.0251408906247726 
-0.0003179634077095326 
0 
-0.01875037777224086 
0.02009208040500759 
0.01358023239144877 
-0.01867451745837836 
-0.01875037777224086 
-0.01303851998257224 
0 
-0.01473140406924295 
0 
-0.01131873572482279 
0 
-0.01272938412600051 
0.0003478738906817517 
0.03779462518881201 
0 
0.01303718466165184 
-0.02077289764322399 
0 
0.008869395462649967 
0 
0.001899533660636618 
-0.001237864632818576 
-0.005979411005310357 
-0.02053838470951048 
-0.05855517461414009 
-0.0003335321554439949 
0.003968998422316684 
-0.0050471153934284 
0.009567035433585057 
0 
0.01758703749263131 
0.005314022270428496 
-0.006527774733096312 
-0.04859901055183029 
-0.02476787965596035 
-0.01940677145871923 
0.0004252612811503785 
0.01040339827707659 
0.01800262389981882 
-0.009426106377358539 
-0.01504533244753538 
-0.01825206556775775 
-0.008288970819998763 
0 
-0.01789951830625353 
0.02735515306014128 
0 
0 
0.06062342949134018 
-0.03063141820852978 
0 
-0.0004074626493385754 
-0.03245655550041274 
-0.001617255051066898 
0.01875037777224086 
0.01488599795389519 
0 
-0.05205528049335852 
0 
-0.01384523292828486 
-0.01362118313666903 
-0.004748586005513095 
-0.01875037777224086 
0 
0 
0 
0 
0.01810302332334131 
0.009691805287479373 
-0.02502988398665882 
-0.03167651267704579 
-0.0003862247013007399 
0 
-0.02005868766051995 
0.005575816364149743 
-0.01910175186786993 
0 
-0.01341414109137713 
-0.005196950218383222 
0.006927667269725869 
-0.0206933644317628 
0.002787747970672005 
0.009953584245206397 
-0.005852132168914204 
0.00707454228839325 
-0.01014264028201306 
0.002080770759357382 
-0.0190323485650173 
-0.0140839782283569 
0.009544753783673334 
0.02816199434771534 
0.005419184451667256 
0.01525407150845959 
-0.01164897779907623 
-0.01427116623471482 
0.02735744791699024 
0.07095434685909476 
-0.02021488881392452 
-0.02698864220539733 
0.0002133820282183231 
0.01647349046590822 
-0.02117494358668058 
0.06902465018686131 
0.01303479661425609 
-0.01275686548795496 
0.001571916839756766 
0.004918093753267797 
0 
-0.007595212771390266 
0.01260065855841531 
0 
0.04829221088692929 
-0.003874384543859091 
-0.02430090192418547 
0.06125981848859286 
0 
0.02594347096854203 
-0.0001276121950631619 
0 
0.01525407150845959 
-0.026041163107787 
-0.01929124319249583 
0.01015032060935287 
0 
0.007042050454442283 
-0.01201231462994482 
0 
-0.02925292226170177 
0.009051684072671436 
0.0460631601142903 
-0.02318391996360579 
-0.03462297807642432 
-0.06559166108776146 
0.005077431621467413 
0.02509859825173592 
-0.01875037777224086 
-0.000845895552296892 
-0.07068126276497683 
0 
-0.004698481052319148 
0.01892742935478237 
-0.07071270222379121 
0 
-0.0004586600106643354 
0.007747735638038335 
0.00639744186022804 
-7.566331951236552e-05 
0.001610667771126899 
0.004498805192939796 
0.0184235497890899 
0.006549126096252147 
-0.0004239308283799246 
-0.03822035090139793 
0 
-0.01880131238143556 
-0.0002124223845646806 
-0.0005767141792065924 
0.001241730609030058 
0.0001355167369353534 
-0.0005030604391476506 
-0.01468949590669799 
0.02223859430074139 
-0.01472092150533443 
0.01232678985752952 
0.01774232487938172 
-0.01507083727926515 
-0.01874072255906625 
0.02275005433320915 
-0.01302136060914803 
0.03558283095521799 
-0.01156241829002768 
0 
0 
0.01633853140562315 
0.008654419839411806 
0 
0.0002163237939093156 
-0.03174575575111441 
-0.02253811442597416 
0 
0 
-0.01229393963398749 
0.001233114633996912 
-0.05577547751794134 
0 
0 
0.008788529321050913 
-0.03326170530355919 
-0.006249890253827367 
0 
0.008477542797815542 
-0.05208145343521962 
0.0592270568104674 
-0.006241790463262504 
0.0003800419451957346 
-0.02040326712097086 
0.01875037777224086 
0 
-0.05444539041563776 
0.001971405245194124 
0 
-0.004909777059808499 
0.006639039378851798 
0.008957114571808767 
-0.03565064205302748 
-0.02150992720198922 
0.01875037777224086 
-0.03858590212978053 
-0.01739154343192026 
0.003188442280553503 
0.01056199001657001 
0 
0.02176389648450877 
-0.009280308079088192 
-0.01085934125906367 
-0.01096261865759958 
-0.006930851343432819 
-0.02168738908485387 
0.00373328758757554 
-0.02855754266082382 
-0.01637698928229507 
0.02710995879554645 
0 
-0.02119754727043744 
0.03937067258570095 
0.002104870689063714 
-0.01875037777224086 
-0.002263222378499392 
0 
-0.007985596190301225 
-0.02368873782909019 
-0.02167824402957353 
-0.02252259851908322 
0 
0.0468212889490096 
-0.04226985458848802 
0.001019262068527087 
-0.002388881023466771 
-0.006041107587786453 
-0.01123686458993609 
-0.03364309507182826 
0.01229869856003885 
-0.02443489644512629 
0.02434889975826319 
-0.0087794949528216 
0 
0.02735432832027008 
-0.0122537239735717 
-0.003048221590752615 
0 
0.01474008773400837 
0 
-0.03724029840714314 
-0.02792003516108653 
0.01666444386859236 
0 
0.01511714554700558 
0.02731685801089865 
0.009005352705274767 
0.02013089384056871 
-0.0197610673260036 
-0.06535868873796312 
-0.03412071338220182 
0.0022893506118045 
-0.01608746477627217 
0 
-0.01309774352155149 
0.02713197184795637 
-0.009305572588286827 
-0.01822313299019813 
-0.0008422812787173368 
0.066188147828941 
-0.00275191792745384 
0.007192681147198228 
0.00651493783389709 
0.00476257109702718 
0.01525407150845959 
-0.009056946667645283 
0 
-0.01525407150845959 
0 
-0.02447587435594652 
-0.007169491409731562 
-0.01525407150845959 
-0.03054593899589297 
0 
0.01100605487074367 
-0.009199187622525732 
-0.01875037777224086 
0.003310452792702789 
0.01147677100979669 
-0.01835467981919198 
-0.0126654796548001 
0.01303674950025712 
0 
-0.04542375678700787 
0.03182489498911142 
0.01824559469610278 
0.01606565940207518 
-0.02728480342956698 
-0.01542279306591047 
0.01875037777224086 
0.07475883549006283 
0.05648566829926518 
0.01673997270909027 
0.01013135115500381 
0.005431765953977292 
0 
0.01875037777224086 
0 
0.02928931405304511 
0.0008179115751056752 
0.01456792167494904 
0 
0.01875037777224086 
0.009790275747298875 
-0.01620501157655775 
-0.02049647260155916 
0.05082705313757114 
0.01867858497568222 
-0.01305215463427156 
-0.01769958907329275 
0.01127818948996706 
0.01985806307250667 
-0.01626465726230576 
0.004492550272672471 
0.009715647525576247 
-0.009705606717055672 
0 
0 
8.936258685424014e-06 
0.04028524091117464 
-0.009189471473401323 
0.01638950708949154 
-0.003346920117768796 
0 
-0.05990948703089581 
0 
-0.0148229428811328 
0.01307288533966061 
0.0349095922528473 
0.03578383034720206 
0.007619890426470556 
-0.004961616485017884 
0.001981001796182429 
0.0002577929312368758 
0.001044567708487354 
0 
0.004245877328109415 
-5.931854511723994e-05 
0.004629719832463299 
-0.01799392545937374 
-0.02402020134175424 
0 
0 
0.01390879556639858 
-0.01491618823753153 
0.05520082698838572 
0.01184930910982729 
0 
-0.01415430427190108 
0.01398613474675072 
-0.1577984644804594 
0 
0.01902388993826801 
0.01829953263570399 
-0.02626159386535396 
0.01875037777224086 
0.01002437874424814 
0 
0.01618599935320916 
-0.01875037777224086 
0.01710041672724301 
-0.005296194161994223 
0.01445537307326938 
-0.006499650135646073 
-0.0004634952248040202 
-0.01875037777224086 
0.008773150268464017 
0.01353332710043993 
0.04426292758282483 
-0.001082366236695472 
-0.008171861156713945 
0.003225808911279657 
0.01875037777224086 
-0.006154114494235543 
-0.0001682302694982375 
-0.02027521481170105 
0.007629037153285534 
0.007235179977390817 
0 
-0.0001703863023859259 
