solver_type L2R_L2LOSS_SVC
nr_class 2
label 1 0
nr_feature 79548
bias -1
w
0 
0 
0 
-0.0185005185366886 
0 
0.0185005185366886 
-0.02004011991757073 
-0.01020498105612214 
0 
0.01990734376436165 
0 
0 
0.02487423397279542 
0.0734909588307191 
-0.01499336355725131 
0 
0.01713300822954053 
-0.02752596606869148 
-0.0237843519092951 
0.02565589229000289 
0.01594721570532441 
0 
0 
0.04890773494742941 
-0.01515605475173694 
0 
0.0001631927368808977 
0 
-0.03395094899788547 
-0.000462857931368688 
0 
-0.04669675640795171 
-0.002694144227641698 
-0.01223562651848478 
0.02896463112031607 
-0.0003588224096340169 
0.01734373521448384 
0.01691049447713663 
-0.02357795538638563 
0.01650940412639762 
0 
-0.02273096850011517 
0 
-0.01726972439240458 
0 
0.01775640897797537 
0.01033667979490217 
0 
-0.021377245208744 
0 
0 
0 
9.416565503405196e-05 
0.01142678863955581 
0.01417939670543886 
0 
0.001514999076989122 
0 
0 
0.01256592046308364 
-0.02992247317121664 
-0.04352214598393869 
0.008042677663807871 
0 
0.0001772512765808778 
0 
0 
-0.01372992077587629 
0 
0 
-0.02059613212984757 
0.01882413362454234 
0 
0 
-0.008255992317472427 
-0.009968346242960282 
0 
0.001133736085377002 
0.01371060354174176 
0 
0 
0.02285817171318081 
0 
0.01450578618905664 
0.02942814711458824 
0.03122972996318435 
0 
0 
0 
-0.01566776735443942 
0.02061488377661422 
0.01963888809143299 
0 
0.01158017844646558 
0 
0 
-0.04992673829075632 
1.965034433013282e-05 
0 
0 
-0.006442333776491675 
0 
0 
-0.01508541572818663 
-0.0001290634183244439 
0.01028792426823321 
0 
-0.02303417168807067 
0 
0.005036928728741944 
0 
0.008414443972948155 
0 
0 
0 
0 
0 
0 
0 
0 
0.0185005185366886 
0 
0.02629903986584284 
0.03506848423045147 
0 
0 
0 
0 
-0.02237579705918116 
-0.0001560220256993561 
0.000327623231063048 
0 
0.008864198605297635 
0 
0.0185005185366886 
0 
0 
0 
0.0002959028011398703 
0 
0.05221879886328904 
0.01596001189901602 
0 
0 
0.01057260476638903 
0 
-0.007128340156111446 
0.02150809906662094 
0 
0 
0 
0 
0 
-0.02165163831644343 
0 
0 
0 
0 
-0.008998565280026717 
-0.004111168635686258 
0 
-0.01630309191816779 
-0.0116567555725903 
0 
-0.007360354102068519 
-0.02692361423435662 
0 
0 
0.008314451725914322 
0 
0.01793127074848849 
0 
0.001890721900972872 
-0.007448606364411851 
0 
0.0874108578942933 
0 
0.02181717396199216 
0 
-0.02562438624281956 
0 
0 
0.1061751217891933 
0.005391748049826318 
0.003039023175746939 
0 
0 
0 
-0.01987083997781589 
0 
-0.02240300335442937 
-0.02618478017300909 
-0.0002686402320374405 
0 
0.02627985195860041 
0 
-0.03505969919655343 
0 
-0.009625164585489579 
0.004779889654071392 
-0.0249616571370544 
0 
0 
-0.02298547009664815 
-0.0300247119799224 
0 
0.02047097526076541 
0.02451953492988322 
0 
0 
0.01500070467791493 
0 
0 
0 
0.0185005185366886 
0.004148805605951412 
0 
0.01834909557776887 
0.01605009048526576 
0 
-0.02715777268921967 
0 
-0.02680222058209709 
-0.01844496810156353 
-0.01158872280243472 
-0.0411662761827168 
0 
0 
0 
0.01213419954687966 
0.0465030865671144 
-0.01080969350785886 
0 
-0.008950847842673417 
0 
0 
-0.01486933489804133 
0 
0 
0.01876595792922254 
0.04633830650979124 
0 
0 
0 
0 
0 
-0.01405369300619405 
0 
0 
0.01213256144707451 
0 
0 
-0.01786742658074744 
0 
0 
-0.01512888128548043 
0 
0 
0 
0 
0.03635684052369125 
-0.02150373782319344 
0 
0.01590937229602001 
0 
0 
0 
0 
0 
0 
-0.01836904976463261 
0 
0 
0 
0 
0 
0.01074856635951541 
0 
0 
0.000222259121264495 
-0.06824883665764062 
0.00372394786647791 
-0.02432761548631837 
0 
0.01013963548462064 
0 
0 
0 
-0.01040869282534126 
0 
0.001491466402835463 
0 
0 
-0.01945053447171594 
0 
0.0002622252642613218 
0 
0.01751263189503637 
-0.01224821599125761 
-0.003944325330957493 
0 
0 
0.0001264994191285238 
0 
-7.371597200169752e-05 
0 
0.02703454513775439 
0.04292249070607387 
-0.01981951452024923 
0 
3.890090344347003e-05 
-0.07191765600629531 
-0.07649161653583618 
-0.004791767646390257 
0.009754213891329633 
0 
-0.02638200856652293 
0.005103903533888682 
0.02887351176373385 
0 
0 
0 
0 
0 
0.0185005185366886 
0 
0 
-0.03034509590980209 
-0.01415892416227106 
-0.01931591205536816 
0 
0 
0 
0 
0.004543748884004974 
-0.0185005185366886 
0 
0 
0 
-0.01225641733626948 
0 
0 
0 
-0.02781872403118727 
0 
0.04135471376354374 
0 
0 
-0.003480156158718129 
0 
0.005212952524766945 
0 
-0.01188301478437018 
-0.01901970200664935 
-0.01849898266413489 
0.0298261166288101 
-0.02092798558432095 
0 
0.01118165769835257 
0.07700746282139506 
0 
0 
0.007151426080158898 
0 
0 
0 
-0.02284869129363328 
0 
-0.07069054415300961 
0 
0 
0 
0.01547957912077754 
-0.01830146770250715 
-0.03261477752144695 
0 
0 
0 
0.03340938106550714 
-0.02347900778533706 
0.009799752405799146 
0 
0 
-0.007649375539925913 
0 
0.0001375605202975059 
0.003559289117319559 
-0.01806596365339375 
0 
0 
0 
0 
0.0120527258780966 
-0.01709794876005459 
0 
0.01804802972616014 
-0.001610246850691765 
0.01020840970469275 
0 
0 
0 
0 
0 
0 
0.01219526506273028 
0 
-0.01211130717725354 
-0.02776426591964978 
0 
0 
0 
0 
-0.02039941064825923 
0 
-0.01263033471000635 
-0.008571842199589907 
0.0002827345078810949 
0 
0.01908238241725145 
0 
-0.007075587165779769 
0 
0 
0 
0.009200658412065951 
-0.01019263090531041 
0.009997771262031125 
0 
0 
0 
0 
-0.01785010930452569 
0 
0 
-0.01286920424823978 
0 
0 
0 
-0.01138085563042803 
0 
-0.007828460587827431 
-0.01750997822755459 
0 
0 
-0.01679470616170315 
0.02347250721209839 
0.02208846848504256 
0.02561513753146559 
0 
0 
0.009873230491339268 
-0.03217393531132924 
0 
0 
0.0185005185366886 
0.02058486486766887 
0 
0 
0.0185005185366886 
0 
0 
0 
0 
0.05620656449711193 
0.02564844432159868 
0 
0 
-0.02753206163849203 
0 
0 
-0.005819121120601811 
0 
0 
3.392177161088745e-05 
0.00978740307551041 
0.01692017759581693 
0 
0 
0 
-0.005126295678928777 
0 
-0.01388993758861188 
0 
-0.04407930562340494 
0 
0.01787944914677124 
0.0168950971639762 
0.006440600620468887 
0 
0 
0 
0 
-0.01136058911782097 
0 
0 
0 
0 
-0.07291147388464489 
0.01707372610995549 
-0.007000058237759721 
-0.02321202674730588 
0 
0 
0.004950366676043242 
-0.005411396504888959 
-0.009601739996761977 
0 
-0.01948993597837664 
0 
0 
-0.007202075512745901 
0.007573890408671082 
-0.02497379105473046 
-0.02015617855672691 
0 
-0.02051656051909233 
0 
0.0185005185366886 
0 
0 
-0.002749894818960411 
4.474441246666268e-05 
0 
0.01974572232556726 
0.01956857128439435 
0.00815546596247909 
-0.01617774069426973 
0 
0 
0.0100414494851023 
0 
0 
0.01795921659260943 
0.02112711204121235 
0 
-0.006201982152836252 
-0.01535693766308422 
0 
0 
-0.01020535890353773 
-0.003593641265827861 
-0.006504264467629457 
0.008357073576597335 
-0.009977302838929756 
0.009542544573916628 
0.01434405556226374 
0 
0.01420786454370229 
0 
-0.007763083546679856 
0 
0 
0.03509100954790739 
-0.01527704607291158 
0 
-0.05286998516298905 
-0.02816249289522329 
0 
0.0009024288202469107 
0 
-0.003898244763086307 
0 
-0.02000273318309976 
0 
0 
0.01164934686288697 
-0.001092699399034509 
0.00702411045327485 
0 
-0.02377152077495576 
0 
-0.03612226747886811 
0 
0.00107150059153661 
0.003868177216601499 
-0.01806596365339375 
-0.02203438428776602 
0 
-0.009131402614117604 
-0.01137808034097674 
-0.01742598746916765 
0 
0.003913674865526433 
0 
0 
0 
-0.02322359369625149 
0 
0.03535999066291625 
0 
0 
-0.01449406038330954 
0 
0 
0 
0 
0 
0 
-0.001693259295454251 
0 
0.02270640296063261 
0 
-0.0001482787651665118 
0.02062641480777464 
0 
0.03556528539160428 
0 
0 
0 
-0.01979188349961566 
-0.04248435395816766 
-0.0006774153176531064 
0 
0.01811654625813224 
-0.02210067856292709 
0 
0 
0.02529884953476383 
0 
0 
0 
0 
0.008209549031466487 
0 
0 
-0.005959282807665459 
0 
0.0185005185366886 
0 
0 
0 
0.000102210048058694 
0 
0.03656608924912753 
0.007155917989915529 
-0.02129189723403217 
0 
0 
-0.00660930578096451 
0.006416052448682116 
-0.01824857593389076 
0 
0 
0 
0.01030423816309664 
0 
0 
0.001518800240657171 
0 
-0.00250549890156374 
0.01689365592662739 
-0.02528882779271441 
0.007909267219329632 
-0.01511589480831396 
0 
0 
0 
0 
0.00911797821199783 
0 
0 
-0.02161852257313481 
0.01130358735067047 
0 
-0.01934572609030983 
0.0001816694294001894 
0 
0 
-0.05336605420284408 
0 
0 
0.02379544051865768 
0 
-0.04085491092027962 
0 
0 
0.03501100900839026 
-0.0185005185366886 
0 
-1.71903626170958e-05 
0 
3.329355171158377e-05 
0 
0 
-0.01670354884729101 
-0.02254494828920524 
0 
0 
-0.01461545601607597 
-0.05136031530222111 
-0.01153745200237393 
0 
0 
0 
0 
0 
-0.02461158459033149 
0 
-0.009138310395751225 
-0.05217212220587884 
0.01661428694811742 
0.01177295332097517 
-0.01001224997977693 
-0.0124651083267105 
0.009371902729311923 
-0.04755510120477324 
0 
0 
0 
0.01060072485825904 
0 
-0.01828950168102242 
0 
0 
0 
-0.01338965453653702 
0 
0 
0.001671240068519105 
0 
0 
0 
0 
-0.02198177529584016 
0.007152991885260916 
0 
-0.02964498458267327 
0.001233007707091802 
0.02409599620967345 
0.01515605475173694 
-0.01806596365339375 
0.002058585554529987 
0 
2.387475417428868e-05 
0 
0.002502255746849518 
0 
0 
0.0153934751484983 
0 
0.02948150901996207 
-0.005839077047496033 
0 
0 
0.000796340260100364 
0 
0 
0 
0 
-4.268331175656326e-05 
0 
0 
0 
0 
0 
0.0001686166943369933 
0 
0.03027287456071669 
-0.02338193778266146 
0 
-0.04410155464761976 
0 
0 
-0.02445053176819331 
0.004888947336184841 
0 
-0.05181660648141873 
0 
0 
-0.02075790140057585 
0 
0.005815201103773733 
0.04232801831182309 
0.04520708548332748 
0 
8.370575584392038e-05 
0 
0.01287465486326733 
0 
-0.0002441111137396189 
-0.008508997442765513 
0.06355947728932008 
0.002531419088299454 
0.02166026318631551 
0.01499888571563583 
0 
0 
-0.01157450946044561 
0 
0 
0.0132647404031613 
0.02875713193949946 
0 
0 
0.01650379349215143 
0 
-0.01061200931298411 
0.04194825756013362 
0 
0 
0 
-0.008402526086393476 
0 
0 
0 
8.076700536484641e-05 
0 
0 
0.01335129281205484 
0 
0 
0 
0.06267469247919763 
-0.02198677799410039 
0.01409387457220673 
0 
0 
-0.002270980919602522 
0 
-0.01651596210125808 
-0.03814408923731633 
-0.02071512643898166 
0.03834386687491716 
-0.0001171948858736461 
0 
-0.0185005185366886 
0 
0 
0.01545943668145413 
0 
-0.0185005185366886 
0 
-0.00977800281690982 
0 
0 
0.00890646055421283 
0 
0.02059409739831453 
0.01206186161926516 
0 
0 
0 
0 
0.0006042279617264536 
-0.01524415888493677 
0.005206443035205278 
0 
0.02142576954031446 
0 
0 
-0.004786232819141866 
0 
0 
-0.01993949000563346 
-0.009323710097110964 
0 
0 
0 
0.008844122976002967 
-0.05164817693828485 
0 
-0.0179945031948456 
0 
0 
0 
0 
0 
0 
0 
0.06635205686338658 
0 
0 
0 
0 
0.0008958189769417949 
0 
0 
0 
0.0258408774102789 
0.03632529669980256 
0.01995633234708821 
0.0004452776689202364 
-0.005668954895849151 
-0.01003740399895774 
0.0001343305432388324 
0.02836080371959005 
0 
0 
-0.01279531361713387 
0 
0.03371908859834928 
0 
0 
-0.01365218585252082 
0.04738583223557922 
0.01672873103952725 
0 
0 
0 
0.008976699196519762 
0.004196763124080605 
0 
-0.004728559907509065 
0.01403350968425068 
-0.05228387855882195 
0 
0 
0 
0.01655072111134747 
-0.01783135590832782 
0 
0 
0 
0.008394789150862185 
0 
0 
0.0219277318044519 
0.01066365531825298 
0 
0 
0 
0 
-0.04661065295958931 
0 
0.05292956255917283 
0.02038578865204652 
0 
0 
0 
0 
-0.007271613893689854 
-0.0007050502200015446 
0.01670972162277436 
0 
0 
-0.1141587064939249 
0 
0.0234970666145828 
-0.0048976440060187 
-0.01993903694210252 
0 
-0.0185005185366886 
-0.003014730276275358 
0.01044222751451833 
0.002020441420258715 
0 
-0.0001040307328328958 
0 
-0.007505431133721241 
0 
0 
0 
0.04496090861974333 
0.05450707982468739 
0 
0.008176031279613926 
0.02568746899695528 
0.0185005185366886 
0 
0 
0 
0.00264159248757534 
0 
0 
0.009967974036088142 
0.009502463931267547 
0 
0.008416602101734501 
-0.01329269987438881 
0.01243549213814686 
-0.0002220440591430351 
-0.01841719916350381 
-0.03884148713558353 
-0.03746616658584484 
0.00311405489890842 
0 
0 
0.01702577700173806 
0 
0.01421388379447595 
-0.01787944914677124 
0.01714836997335975 
-0.007552090234341457 
-0.02676398438246351 
0.000316216731743827 
0 
0 
0.001539993090029647 
0 
0.008950841391369447 
0 
0 
-0.01463052696982104 
0 
0 
0 
0 
0.02497734294008065 
0 
0 
0 
0 
-0.002746453070509277 
0 
0 
0.0321253263294906 
0 
0.07199712951369971 
0.02571451255968795 
0.02984614098540815 
0.01803700688824533 
-0.007089290313088537 
0.00429504128185727 
0.01334844834829505 
0 
-0.009048077874106674 
0 
0 
0 
0.01778083841863452 
0 
-0.01602526348900819 
0.007458387861482044 
0.007974940176361016 
0.01614939952828908 
0.02310180766828806 
0.02976002503223485 
0.01465407817355771 
0 
0 
0 
0 
0.008768417179936755 
-0.01494608466991153 
0 
1.784259740440875e-05 
0 
-0.01641669851423557 
0 
-0.01891510230810309 
0 
0 
0.01605768160230021 
0.002168448634658538 
0.06153291762125643 
0.01078045724464045 
-0.0002414816518253258 
0.0163328043289596 
-0.01534003599541754 
0.01509977775538271 
0.0007562118367939719 
-0.04279470788757535 
0 
-0.01560386209535046 
0.004461908535686799 
0 
0 
0 
0 
0 
0 
0 
0 
0.007702837210937436 
0 
-0.01635625048621031 
0 
0 
0 
0.002249658023016796 
-0.001202704362756025 
-0.04833449028298584 
1.637257889018369e-05 
0 
0 
0 
0 
0 
0.01610829767847707 
0.0001230892209836951 
0 
0.02243010065414813 
0 
0.02184699766270476 
-0.0127860368367483 
0.04023704190560987 
0 
0 
0.002588996765719359 
-0.0007788333085660152 
0 
0 
0.00139617270533079 
-0.01904160921393794 
0 
0.02533847332119328 
0.004845788701051684 
-0.01515605475173694 
0.02728797942103978 
0.0001677351032117835 
0 
0.005067591560264046 
0 
0.008724751250940297 
0.01721409151351166 
0.06111368018544523 
0.01034674147701428 
-0.0185005185366886 
0 
0 
0.01137585389521869 
-0.007050004058241991 
0.02590668131224062 
0 
0 
-0.006741771216747306 
0 
-0.01677116761010947 
0 
0 
0 
0 
0.02464162457693604 
-0.0368889421892015 
0 
-0.01711147466516793 
0 
0 
0.004894998873032544 
-0.000177664774665167 
0 
-0.01814688009675198 
0 
0.01678639245662143 
0 
0.02936102610516735 
0 
0 
0 
0 
0.05173052055526683 
0.0140533023949254 
0 
0 
0 
0 
0 
-0.0048976440060187 
0 
0.02144210828920022 
0 
0 
0 
-0.06548975463778559 
0.0185005185366886 
0 
0.01515605475173694 
0 
0 
0 
0 
0 
0.01096853477692886 
-0.01742538657916337 
0 
0 
-0.005790692890424966 
-0.03812010401817585 
0.02124541065407247 
0 
-0.01336292243353072 
1.842689582526616e-05 
-0.007667371207445005 
4.969773444054123e-05 
0 
0 
0 
-0.02184588798168417 
0 
0 
0.002243953699808139 
0 
0.001320626153676212 
-0.009985498762644813 
0.02626739639405827 
0.008307407255003306 
-0.006531961303685737 
-0.02911508543598336 
2.506627844419537e-05 
-0.02498263346980021 
0 
-0.03983824575952619 
-0.01669768185639994 
0 
-0.05146192096443701 
0 
2.071985896223989e-05 
0 
0.01728496882140116 
0 
0 
0 
0 
-0.002363400213835788 
0 
0 
0 
-0.0185005185366886 
0 
0.03843928421283127 
0 
0 
0 
0 
-0.01191750868991362 
-0.01158158561835713 
0.01055407061203654 
0.00840302132058127 
0.000451771342687046 
0 
0 
-0.001418763300381225 
0 
0 
0.03011262759480634 
0 
0.01784058289528593 
-0.009199496524414489 
-0.01312747376731239 
0.0185005185366886 
-0.009382971153773177 
-0.03649698171286087 
0 
0.03161441965416066 
0 
2.773026279742158e-05 
0 
0.07114540041784034 
-0.03049038220846331 
0.01709139622200065 
-0.02175202817546611 
0.01835521503790583 
-0.02893794793906036 
-0.03358735466895313 
-0.005399973576591023 
0 
-0.01054645484213465 
0.008626551017020036 
-0.01691318879156964 
-0.01615637731022071 
0 
-0.004838173933122621 
0 
0 
0.02914660028309517 
-9.74610279025329e-05 
0 
0.009378469518370004 
0 
-0.01573376933182424 
-0.01550002643517504 
0 
-0.02666271494060963 
0 
0 
0 
-0.004595446000085318 
-0.01231173522126022 
0 
0 
0 
0 
0 
0.01987338239009913 
0 
0.01388237672713276 
0 
0 
0 
-0.01563310686574717 
0.01710778421723233 
0 
-0.006875167595423103 
-0.01495625476069132 
0 
0 
0.03049444325528341 
0.01079795425763808 
-0.02481532456797291 
-0.03635780964526995 
-0.006779295588219283 
0 
0 
0 
0 
0 
0.001007291083495721 
0.01092078994944965 
-0.01378772650881574 
0 
0.001959373686218682 
0 
0.01141166368037282 
-0.003833286200836207 
0 
0 
0 
0 
0 
0.02874306743393704 
0 
0 
0 
-0.05986823630232458 
0 
0 
0 
0 
0 
0.03358368860335054 
-0.01328124868561829 
0 
0 
0 
-0.002557284165419429 
-0.009489863083189191 
0 
-0.01398007238012088 
0.00402759137395361 
-0.007746965116047114 
0.01680684744491205 
0 
0.01779517248226232 
-0.03540535655381108 
0 
0.007777171556900254 
0.03025803801252765 
0 
0.006659060623878508 
0.02265982255906947 
0 
0 
0 
0 
0 
0 
0.009212836154408785 
0 
0 
-0.0001391991272372107 
0 
0 
0.0431372966729394 
0.01111381015595083 
-0.01120680036933718 
0 
0 
-0.02054326608367272 
-0.01851768218766467 
0 
-0.001355739240871436 
0 
0 
0 
0 
-0.0004441197360281937 
0 
0 
0 
0 
0.02551679130239387 
0 
0 
0 
-0.002927285368829555 
0 
-0.005202529979786949 
-0.00798602347389895 
0 
-3.406477974936401e-05 
0.0185005185366886 
0 
0.01533011955726326 
0 
0 
0.005715299495579064 
0 
0 
-2.985380261518052e-05 
-0.01742168888476316 
0.01272201618716747 
0 
0 
0.008088539656601888 
-0.01765686840517357 
0 
0 
-0.04294210143188672 
-0.03079968816302823 
-0.02814898016683106 
-0.0001063987305120156 
0 
0 
0 
0 
0.04058823874162028 
0 
0.01569265229030641 
-0.00625106575324448 
2.811418734927209e-05 
0 
0 
0 
0 
-0.002528026359236905 
0 
-0.01160084727881594 
0 
0 
0 
-0.01478497330819859 
0 
0 
0 
0 
0 
-0.02083032029120467 
-0.005425541495809912 
0.01867391332629314 
-0.006472806294735144 
0 
-0.01149854036786477 
0.008466556774922245 
0 
0 
0.001119958459401585 
-0.02340878158334531 
0 
0 
0 
0 
0.007555596509726131 
0.003095084497833264 
0 
-0.01161872360911844 
0 
0.01509117603902399 
0 
0 
-0.003984828701025986 
0.01694542469442109 
0 
0 
-0.0424737357310095 
0 
0 
0 
-0.002991070880603453 
0.008236629229621036 
0.03579897735397344 
0 
0.004299284931813412 
0 
0 
0 
-0.0185005185366886 
0 
0 
-0.006310673065313424 
0 
-0.004446324296406306 
0 
0.03270164709132875 
0 
-7.225701696013251e-05 
0 
0 
0 
0.04535381536855577 
0.007039976360372951 
0.01923804537242521 
0 
0.01469501544001596 
0 
0.0185005185366886 
0.0004924167330091645 
0 
0 
-0.01346121477148639 
-0.006973183565361496 
-0.01626903621784969 
-0.01290628653197962 
0 
0 
0 
0 
0 
0.025667223937541 
0 
-0.0008302890711990329 
0 
0 
0 
0 
0 
0 
0 
-0.004896689565100735 
-0.02274819107807778 
0.02631741204416608 
0 
0 
0 
0.02747738362352909 
-0.01548899929529168 
-0.01968054387693554 
0.01650097977419464 
0 
-0.03446020271007529 
0 
0.01325655940834666 
0.04284677644351319 
0 
0.0364107402924293 
0 
0 
0 
0.08984780564744597 
0 
0 
-0.007789348120083542 
0 
0 
0 
0.001255547636952701 
0 
0 
0 
0 
-0.0126649301384667 
-0.01031921110178304 
0 
0 
0 
0 
0 
0.01666850669736845 
0.004223001786305012 
0 
0 
0 
0.01353658765925156 
-0.0079481138292901 
-0.007011877755745752 
0 
0.0185005185366886 
0 
0 
-0.008242595014757319 
0 
0.02285727352942173 
0.01176010681809509 
0.0243365409447175 
0 
0 
0 
0 
-1.90173198237164e-05 
0 
0.0108546155158134 
-0.02109072634003378 
0.0309282934121594 
0.05746340312861059 
0 
-0.007057981725610696 
-0.02080795388153978 
-0.03388492270484951 
0.0189134690818752 
0.00296683294665775 
-0.01091689900124534 
-0.0001944816911600766 
0 
0 
0.03148542335681494 
0 
0.03531428985050817 
-0.06408820845681279 
0 
0.01970043139852395 
-0.02203836257198523 
0 
0 
0 
0 
0 
0 
0 
0 
0 
0.03542695084843007 
0 
-0.02101649683304777 
0 
0 
-0.02050803144067719 
0.03437200746964961 
0 
0 
0 
-0.05282894574819048 
0 
0 
0 
0 
-0.01095427803153544 
0 
0 
0.004996010782673132 
0.01323479040607456 
-0.01624800110595061 
0 
-0.02002405529791984 
-0.004463089122723851 
-0.01101749973628363 
-0.02129352575703739 
0 
0 
0 
0.01935005265954896 
0.01927759001874586 
0.002085565537597478 
-0.01488086345976167 
-0.0185005185366886 
0 
0 
0 
0.01715353559472033 
0.01521489511703449 
0.0008175590140229914 
0.02885479428649346 
0 
0 
0 
0.0004028541250503641 
0 
0 
3.18661795106222e-05 
0 
0 
0 
-0.00574167340839693 
-0.004707149619151004 
0 
0.02383924453897677 
0 
-0.03100253971280583 
0 
0 
-0.01405965314906109 
-0.02538083020379354 
0 
0 
0 
-0.00701348176965746 
0 
-0.01153948090000119 
-0.00348492264953842 
0.008939774924803662 
0 
0 
0.01530656261988709 
0 
0 
0.02447458472159469 
0 
0 
-0.02116282717465924 
0 
0 
0 
0 
0 
0.01787944914677124 
-0.005977499837665373 
0.01247948803922601 
0 
0 
0 
0 
0 
-0.008522196641744154 
0 
0 
0 
0 
0 
-0.01394884984727303 
0 
5.792499225760456e-05 
-1.838333932551703e-05 
-0.0001555886543577079 
-0.0004469816360394246 
0.02537749270271676 
0 
0 
0 
0.02610344424578511 
0 
-0.02561032478448496 
0 
0 
0.00367953331813163 
0 
-0.03161156769663203 
2.872752978198454e-05 
0 
0 
0 
0 
-0.01251699944571005 
-0.002235773740833935 
0.01830424694643348 
0.0008957652418358873 
0 
0 
-0.005405213297042834 
0 
0 
-0.08406665770502349 
-0.001769272876041293 
0.01288092295337002 
0 
0.03617050751561769 
-0.01072295980431055 
0 
0.01787944914677124 
0 
0 
0.04560025137396312 
0 
0.007946252212650821 
0 
0 
0.0218639089418237 
0.01932630290112971 
0 
-0.02466803466907663 
0 
0 
0.01383509682507662 
0.009868785323450256 
0 
0.0226676733551295 
0 
0 
0 
0.04638065002576241 
0.01117074068346578 
0 
-0.05519153567612372 
-0.01473247416140907 
0.01354831895905412 
0 
-0.0004299969237407382 
0.009338708182918444 
0 
0.07327191029310717 
0 
0 
-0.01495627911093692 
0 
-0.009436454247589659 
0.01443823025154108 
0 
0 
0.005331606634702551 
0 
0 
-0.02422413127470616 
-0.01094604481509116 
0 
-0.02442428114693967 
0 
-0.01798749413134737 
0.01325090716338711 
0 
0.03512188328872 
0 
0 
0.04223747178781741 
0.00439863896689109 
0.01282408807134183 
0 
0 
0 
0 
0.0005177674303343035 
0.001552566780104375 
0.01020436301786534 
-0.01346409680977006 
-0.00151734736838766 
0.01979912160581814 
-0.0001150900210737948 
-0.01463679299453481 
0 
0 
-0.01164211514427734 
-0.01931625098556863 
-0.01417417737739619 
-0.02129020774384198 
0.0001499734599189607 
0 
0 
0 
-0.03838029413855881 
0 
0 
0 
0 
0.0241336199527375 
0.01391035848063031 
-0.0185005185366886 
-0.01199383182456434 
0.04185203225068216 
0 
0.006841177761384962 
0.03013539296698196 
-0.1161629863772159 
-0.01075769528936776 
0 
0 
0 
0 
0 
0 
0.01929274510519389 
-0.004817880957444079 
0 
0.03287867225775817 
0.03113205490440516 
0.005067591560264046 
-0.01421306647361866 
0.002761893120041374 
-0.01404733048825491 
-0.01460840533937088 
-0.01079293465409063 
0 
-0.01594759844153104 
0.007533280818842863 
0 
0.01164934686288697 
0 
0.008289924743329336 
0 
0 
0 
-0.009599803278262818 
0 
0 
0 
0.01515456143302631 
0 
0 
-0.02019801878858921 
0 
0 
0 
0.008154528247319498 
-0.03260386874822659 
0 
0 
-0.02168251664459803 
0 
-0.03462810539211366 
0.0313745673662084 
0 
0 
0 
0.01248771677190186 
0 
0 
-0.000716908862321607 
-0.004179258257290514 
-0.01212546482870732 
0 
0 
0 
0 
0 
0 
0.02259340721435801 
-0.02693743639565975 
0.02822616900885062 
0.0561399981518164 
-0.0009436099114975091 
0 
0.01515605475173694 
0 
0.01511774654597449 
0 
0 
0.05417236611007099 
0 
0 
0 
0 
0.03227275447081454 
0.01211364263205515 
0 
0 
0 
0 
-0.01720330265818659 
0 
0.04885643250839528 
0 
0 
0 
0.03111266188425797 
0 
0 
-0.06382608080339448 
0 
0 
0.004090667572145851 
0 
0.004430574254188127 
0 
0 
0 
0 
4.900666432048923e-05 
0.03765842555950229 
-0.001657432665185552 
0 
0.003237892433382576 
0 
-0.06124378767876051 
0 
-0.01419644149695348 
-0.07036402229989853 
0.03231007671493737 
0.02598759903960757 
0 
0.01232385677145487 
0 
0 
0 
-0.007863300546500654 
0 
-0.007864233138649633 
0 
0.02571454045198419 
-0.05659955191928434 
-0.0003682360069174001 
0 
0 
0 
-0.006941726394237058 
-0.009517636486913807 
0.01650905424929583 
0 
0 
-0.0001976708626740562 
0 
0 
-0.01551834501165318 
8.918854009806629e-05 
-0.009746670089769316 
0.01680951356049456 
0.01943415157882021 
-0.0185005185366886 
0 
0 
-0.02010208592157642 
0.008174219978523724 
0 
0 
-0.02506386267482659 
0.01768803615523575 
0 
0.03260800178418115 
0 
-0.01444657528138503 
-0.01487495914565009 
0 
0 
0 
-0.0345304558397667 
-0.0001160780009627864 
0.01247841798129691 
0 
0 
0.0004773755930312527 
0 
0 
0 
0.0008762162910386667 
0.0174673439172438 
0 
-0.003808087817045042 
0 
-0.009206588025889882 
0.000309710030795075 
0.0300812503355321 
0 
0.0263340304175957 
0.007264327701553368 
-0.008896701256889444 
0 
0 
0 
0 
-0.05946493225040559 
0.004811595798437385 
0 
0 
-0.006869008911640428 
0 
0 
0.02259465776618419 
0 
0 
-0.0007085795581779639 
0 
0 
-0.02376536609132801 
-0.02859857433795877 
-0.02476341775231703 
-0.01888135717207331 
0 
0.03191717725093104 
7.577535003541253e-05 
0 
0 
0 
0 
0.0009382219501041343 
0 
-0.03170388295520792 
0.03621823622037044 
-0.08965963012205259 
0 
-0.006680073659719427 
0 
-0.0185005185366886 
0 
0.02447754631022988 
0.005144037980214363 
0.01489828642948516 
0 
0 
0 
0 
0.004988808828380242 
0 
-0.01118258944652458 
0.02799959833050728 
0 
-0.004462199637837927 
0 
0.01723420575479927 
0 
0.01713563868691434 
-0.009395066003740824 
0 
0.01033108488499437 
0 
0.008730149523519342 
-0.02222180731953169 
-0.01441087257214447 
0 
0 
0 
0 
0 
0.005968940437629008 
-0.009143020363338503 
0 
0 
0.02851673882353032 
0 
0 
-0.01211417031287266 
0 
0.01641224440932466 
0.0185005185366886 
0 
0.00380911440646445 
0.00211364387005588 
0.009435459697948881 
0 
0 
0 
0 
0 
0.01188521516837045 
0.004581972229781683 
0.00875157603137299 
0 
0.00410520760772607 
0 
0 
0 
0.01211242139351451 
-0.0007718358035948576 
0 
0 
0 
0.004438671510019821 
-0.009805606602144237 
0 
0 
0 
0 
0 
0.001474795702496594 
0 
0 
0 
0 
0.003930956682213772 
0.02211419493095591 
0 
0 
0 
0 
-0.03215276587057618 
-0.02258357545049935 
-0.007756936999610754 
-0.01286953624442739 
0 
0.004724708526507606 
0 
-0.03148271912089009 
0.02004718722920272 
0 
0 
-0.03051414458831948 
0.001003094410888472 
-0.01503964563578773 
0.01324540684982839 
-6.109532182566683e-05 
-0.02627931730018679 
-0.00103241048577267 
-0.001275138109034749 
0 
0.004578976557295002 
0 
0 
0 
0 
-0.03906800248807869 
-1.201526358846507e-05 
0 
-0.01785986412112578 
-0.0221148970655447 
-0.01991296690996565 
0 
-0.02053716995343146 
-0.01077480817264563 
0 
0 
0 
0 
-0.003264811703016805 
0.01970483771725695 
0 
0 
-0.01850685013256089 
0 
-0.03565024151623741 
0.03832447981156848 
-0.0185005185366886 
-0.07118967762056065 
-0.004345589604427687 
0 
0 
0.03920995463135126 
0 
0.01110425250291424 
0 
0 
0 
0.01457707709831817 
0.01643703307556875 
0 
0.03715005945494122 
0 
0 
-0.03488744735586137 
-0.02347650350345349 
-0.06925704597113355 
0 
0 
0 
0.0001624457490001024 
0.007657068171005746 
-0.0007781253703791363 
0 
-2.05012647760863e-05 
-0.01557264473577609 
-0.01897110024129813 
0 
0 
0 
-0.02116275945057907 
0.02298229158322557 
0 
0 
0 
0.008515516872250425 
0 
0 
0 
0 
-0.005368058015513081 
0 
-0.01417035082967238 
0 
0.02993333665995188 
0 
0 
0 
0 
0 
0.03371389464940144 
0 
0 
0.0071836940422296 
-0.01378723772003721 
0 
0.006587620630819292 
0.02422366298340725 
0 
0 
0.01761116050559657 
-0.009090327224130621 
0 
0 
0 
-0.04496057948580855 
0 
0 
0 
0 
0.02655622219459856 
0 
0.01202589109918112 
0.01679946248953658 
0.008338542555364826 
0 
-0.002501128159325053 
0 
0.0235374698951928 
0.01694823939411889 
-0.002656853692823714 
0 
0.002180643586278527 
0 
-0.01396045418605575 
0 
0.01838922983029063 
0.01604713544541657 
0 
0 
0 
-0.01299944725084286 
0 
0 
0.1117254849967066 
0 
0 
0.001618573785208509 
-0.003854242759722988 
0.01862030952648008 
0 
-0.01622258528943612 
0.0185005185366886 
-0.03456166726382738 
0 
0.02618325391009347 
-0.01139834290954478 
0 
-0.01908311697841136 
0 
0 
0 
0.01217912192774039 
0 
0 
0 
0 
0 
0 
0.02105684333692105 
-0.004414458730985795 
0.01708870176731106 
0.01086239487866274 
0 
0 
0 
0 
0.02442790851458197 
0 
0.009405065349583488 
-0.05912649105082454 
0 
0.01151822855851273 
0 
0 
0 
0.04644671125007157 
0.05152819909950026 
0 
0.01402307497654211 
0 
0 
0 
0 
0 
0 
0.02357146870037704 
-0.01378418121984166 
0.01515605475173694 
0 
0 
0.01344226320178699 
0 
0 
0 
0 
0 
0 
-0.001570177509165506 
0 
-0.006540150635109325 
0 
-0.001695139940130177 
0 
-0.01757334500456923 
0 
0 
-0.04502140093355416 
-0.01815637561065542 
0.001029438298885396 
0 
-0.008933867234030154 
-0.01515605475173694 
-0.000112629348009641 
0 
0.004072709395544405 
0 
0 
0 
-0.04914928701544612 
-0.007853677626713306 
0 
6.940779484516997e-05 
0.02430991537059139 
-0.01946985066547174 
0 
0 
-0.01515605475173694 
-0.02893709766375938 
-0.0032287432145233 
-0.03055252947825103 
0.01235245779594011 
0 
0.01403878237614294 
0.0518086744778189 
0 
0 
0.03121592346332031 
0.06128566243017254 
0 
0 
-0.01324594463682749 
0 
0 
0 
0.03182062082230696 
0 
-0.01168763004629972 
0 
-0.01053811209702884 
-0.01323268014348132 
0 
0 
-0.09625475099692023 
0 
-0.002874511675638465 
-0.02133474447475828 
0 
0 
0 
0.007975755081240625 
-0.01630144750404003 
0 
0 
0 
0.001308590566476093 
0 
0.006003749560780054 
0 
-0.08310792890004065 
-0.007656923660814722 
0 
-0.001091818984913118 
0 
0 
0 
0 
-0.01303001040409597 
0.01601017837621454 
-9.51236115818788e-05 
0 
0 
-0.01197310634907845 
0 
0 
0.02752787754268791 
0 
0 
0.01496938833081549 
0 
0 
-0.02983169014934967 
0.03838260798457848 
0 
-0.07828818271045894 
-0.01323985643195488 
0 
0.003358860663508854 
0.04250914306922764 
-0.0325076724040514 
-0.01874878457029717 
-0.01497870831485258 
-0.003021639081986801 
0 
0.0185005185366886 
-0.004578562086148185 
0 
0 
-0.00587164518209474 
0 
0 
-0.01300421502701184 
0.0140490237506905 
-0.01168101296467415 
0.02169707032412736 
0.02094945800127908 
0 
-0.0299870111121465 
-0.03389309385363 
0 
0 
0 
0 
-0.01239142350884006 
-0.0002370663470344078 
0 
0.02114402769337824 
0 
0 
0 
0.02096202248233844 
-0.03065298851701732 
0 
0 
0 
-0.02330327321971191 
-0.0178779156987298 
0 
0 
0.0148855114085088 
0.019692566404785 
0 
-0.01738584913072307 
0.03784091910709181 
-0.006502235922637982 
-0.01644700815046574 
0 
0 
0 
0 
-0.01233511355062157 
0 
0 
0 
0.01325420556934742 
-0.00021861870834839 
0 
0 
0 
0 
0 
0 
0 
0 
-0.03043634700670947 
0 
0.003051121367539279 
0 
0 
-0.01824668347776646 
0 
-0.01955800547956537 
0.005289432496424041 
0 
0 
0 
0 
0.01601502520731171 
0.03167816279494116 
-0.02282982548503108 
0 
0.0009740656585834254 
0 
0 
0 
0 
-0.02984756062189372 
0.008282094060641751 
-0.01011494765687786 
0.0185005185366886 
0 
0 
0 
0 
0 
0.01869224903234478 
-0.003507235444772154 
0 
0 
0 
-0.02136142852191399 
0 
-0.0192781835415929 
0.02249478798406881 
-0.01593063587945906 
-0.01719592276293606 
0 
0 
0 
-0.06216736762850252 
0.03490866559812673 
0 
0.01903850426506438 
0 
0.02543749858269369 
-0.01579646178313708 
0 
0 
0.01534737191395352 
0 
0 
0 
-0.00784987438337776 
0.02209256469794004 
-0.02597757932183099 
0 
0 
0 
-0.01115866051232164 
0 
0 
0 
0 
0 
0 
0.01741151953781041 
0 
0 
-0.01088816493140553 
-0.01861937889293492 
0 
0 
-0.005159164544411451 
-0.0121265701754386 
0 
0 
0 
0.004025942664614183 
0 
0 
0.008339360297973974 
-0.03600279813051731 
0 
0 
0 
7.945250444195613e-05 
0.009213616020215188 
-0.01692949311979963 
0.01088442958355608 
0.04236134082817569 
-0.01459968037783315 
0 
0 
0 
0.01719248262625346 
0 
0.006611127719486653 
0 
0 
-0.00435356506535434 
0.007488071604147687 
0 
-0.04417898193573309 
-0.03198923133524198 
0 
0.01238090029078365 
0.0298261166288101 
-0.02213676544504985 
-0.009556817061756092 
0 
0 
0.0185005185366886 
0 
0 
0.03889834738934645 
0 
0.0130002225677276 
-0.001275703022314651 
0 
0 
0.01216256012239078 
0 
-0.006678802792842574 
-0.006374589249373503 
0 
-0.02045162181527011 
0.01486251020470649 
0 
0 
-0.0317398907011965 
-0.02174657449388664 
0 
-0.01072565305740465 
0 
0 
0.01489905333699913 
0 
0.0185005185366886 
-0.001611667606247559 
-0.01515605475173694 
-0.05981559002336832 
-0.01207034314284529 
0.00235717673118652 
0.0107612413924771 
0 
0.06219824468280134 
0.008384602673125446 
0 
0 
-0.01946672726643474 
0 
0.07343501263213568 
-0.01188301478437018 
0 
0.02326091729764741 
0 
0 
0 
0 
0 
-0.003902934680202425 
0.009898369909731182 
0.01811038049582279 
-0.03116765205514881 
0 
-0.001241444064832879 
0.006939896343108751 
0 
0 
0 
-0.01796161782681989 
-0.0002501008268389292 
0 
-0.009823572795067627 
-0.01589727794485218 
-0.008701783731575308 
0 
0 
-0.002719340754073011 
0.01484670782903699 
0 
-0.02920920134451063 
0.04556673164310367 
-0.004795229297911712 
0 
0 
-0.01906574362183791 
0 
0 
0 
-0.001828223935575018 
0.003237062375153073 
-0.0004974569782229637 
1.578267177608786e-05 
-0.01926608011083138 
0.0001686912647624454 
0.005432210962802072 
-0.03676609632068269 
0 
0 
0 
0 
-0.01515605475173694 
0 
-0.01787193062406002 
0 
0 
0 
0.06772421503657997 
0.01927354154498996 
-0.01061527489969136 
0 
0 
-0.01486421452010043 
0.002947682929598651 
0 
0.02077234143315816 
0.01041789814565115 
0 
0.0209951275217256 
0.02057257367707724 
-0.008132477178048322 
0 
0 
0 
-0.007558114704663036 
0.008312070515530021 
-0.01405838565365068 
0.01231021676859975 
0.009934744478240987 
-0.01475955280253926 
0.01142678863955581 
0.04466853378164064 
0.0185005185366886 
0.0185005185366886 
0 
0 
0 
0 
0 
0 
0 
-0.01315586162850252 
-0.02354006663542804 
0 
-0.01905510565058718 
0 
-0.02796377855466419 
0 
0 
0 
0 
0 
0 
-0.01516451149422941 
-0.01360425786019838 
0.006757284361114274 
0 
0 
0.05896354218012601 
0 
0 
0.02225492490555573 
0 
0.0185005185366886 
0 
0 
0 
-0.0110048612661901 
0 
0 
0 
0.001003698402331007 
0 
0 
-0.001294826435425169 
0 
0.06571149358814138 
-0.01896592935386975 
0 
0.0204859958852145 
-0.0269010717899379 
0 
0 
0 
-0.01210169448306162 
0 
-0.02884920652392199 
0 
0 
0 
0 
-0.009819345668699768 
0.0003005552056327093 
0.02365244203965537 
0 
0 
0 
4.354240778520305e-05 
-7.8772192580151e-05 
-0.01083638179913301 
0 
-0.00536253359366739 
-0.03328236874935178 
0 
-0.03443647891392575 
-0.01789201722949475 
0 
0 
0 
0.01325655940834666 
0 
0 
0 
-0.01383589840263845 
0 
-0.01233182373076641 
0.0185005185366886 
0 
-0.01525726456794678 
0.01061744679616929 
-0.0228136609756174 
-0.01117426112323015 
0 
-0.004372908421853326 
0.01120285006341209 
0.02687674299942027 
0.04870509476273432 
0 
0.01169478856670442 
0.02046615839870568 
0 
-0.0185005185366886 
0 
0 
0.003829250528765947 
0.01001658811670648 
0 
0 
0 
0 
-0.02241163932734497 
0 
0.00784315678141953 
-0.01540501413060667 
0.01358774290983628 
0 
0.01262333145585293 
0 
0 
-0.01227881932337653 
0 
-0.00955425878119937 
0 
-0.07980456156390002 
0.002249510017056346 
0 
-0.0003967032206037078 
0 
-0.01400283167866309 
0 
0.01228061522962708 
0 
-0.00587455087038239 
0 
0 
0 
0 
0.01014409285804908 
0.02282576211736479 
0 
0 
-0.02545605801732538 
0 
-0.03309095945599133 
-0.01616271889246533 
0.05501160334713809 
0 
-0.01375519872656576 
-0.009756611177646139 
0 
-0.02033237771845905 
0 
0 
0.02168391023233285 
0 
0 
0 
-0.03867908698515165 
0 
0 
0.008436335206368148 
0 
0 
0 
0 
0 
-0.01345238575553037 
-0.02317304823015106 
-0.03812362387531681 
0 
0.004497898168802715 
-0.01132783686372198 
-0.04184862091188084 
0.0001714449103349758 
-0.01373690711214914 
-0.01873218044970501 
0.002567600732325061 
-0.01029694207690308 
0 
0 
0.0185005185366886 
-0.0123183793931601 
0 
0 
0.0396604466947891 
0 
-0.009133285797721885 
0.01804196726118382 
0 
-2.05012647760863e-05 
-0.01219344147266074 
0 
-0.00709069931108015 
0.03480078559510649 
0 
-0.01455943289793868 
0 
0.004025089052180778 
0 
-0.0002564434929159019 
0 
0 
0 
0.002187456383637847 
0 
0 
0 
0 
0 
0.02188245706294639 
0.01819076189300055 
0.01261351984485637 
-0.01595057251563168 
0 
0 
-0.02666591949895878 
-0.01957226371355827 
0.01104554131466515 
0 
-0.001513177746916059 
0 
0 
0.01028836451990187 
0 
-0.03854494404500721 
-0.04613093504725477 
0 
0.02833708064171993 
0 
0 
-0.05962474941083444 
-0.01811415387837268 
-0.01278304926561853 
0 
0 
0 
-0.03947773242088271 
0 
0.004521149614532155 
0.006495968817714173 
0 
0 
0.005871949746183938 
0.01654970276236317 
-0.03143785131204904 
0 
-0.01365953650558769 
0 
-0.01888283329432922 
0 
0 
0.0212498084492212 
0 
0 
0.02752061328373808 
0 
0.01553829018537199 
0.01071808018371722 
0.0258118952699487 
0 
0 
0 
0.01001432896921691 
0 
0.01217239938460702 
0.04895236023890088 
0 
0.02277142891872875 
0 
-0.01463530254086187 
0 
0 
-0.008329720771718733 
0 
0 
0.01016080224612928 
0 
0 
-0.000402614983992402 
-0.02125533462771748 
-0.0212516274319879 
-0.03454267139202428 
-0.0129854466289807 
-0.0158177126771361 
0 
0 
0 
0.02361634997241418 
0 
0 
0 
0 
0 
0 
0 
0 
0.002895224710279292 
0.04045868704368365 
0 
0 
-0.08682339682963862 
0 
-0.004451037988032601 
0 
-0.01268443343258281 
0 
0.003547915106026422 
0.006489355135357323 
-0.00940568556307449 
-0.0048976440060187 
0.00713081002192463 
0.01826127886230798 
-0.01090534483159954 
0 
0 
0.05049739771566575 
0.008871895030368698 
-0.013928941784651 
0 
0 
0 
0 
0 
0 
0 
-0.01324673350578523 
0 
0 
0 
0 
0 
0 
-0.05307942764621361 
0 
0 
-0.01038651061516169 
0.04174857436196303 
0 
0 
0 
0 
0 
0.01330789267981355 
0 
0 
0 
-0.0003766233459590142 
0 
-0.01374710004988012 
0 
0.02140361981457726 
0.004996010782673132 
0 
0.01984876031679412 
-1.506821173371981e-05 
0 
0 
0 
-0.0009045435251609014 
0 
0 
-0.0101658292551813 
0.01001788019293154 
0 
0 
0.01253485372387559 
0 
-0.0185005185366886 
0 
0 
-0.04160629580929727 
0 
0 
0 
0 
0 
0 
0 
0 
0 
0 
-5.194777618502098e-05 
0.0198778578200608 
-0.002434495086464699 
0.003863180044446122 
0 
0.02455811335971945 
0 
0 
0.01219310519687289 
-0.0173287321910969 
0 
0 
-0.009927103118818359 
0.01881991302476082 
0.01515605475173694 
0 
0 
0 
-0.02782935546194292 
0.0004151902909892284 
-0.01408575567283544 
0.01944277379145723 
0 
0.0001704208750597873 
0 
-0.01381588816988037 
0 
0 
0 
0.01200798105468773 
-0.007960666646444577 
5.864786381270349e-05 
-0.01435912424614497 
-0.02373629667021591 
0.01876431511984431 
0.04085318762602393 
0.009944871760027138 
0 
-0.0185005185366886 
0 
-0.009032823434922762 
0 
0.01797682155958704 
0 
-0.0185005185366886 
0 
0 
-0.01515605475173694 
-0.0075289368584065 
0 
0 
0 
-0.00559398462041258 
-0.0007291552871599307 
0.003691518413302316 
0.005815150138566446 
0 
0 
0.01026879810447831 
-0.02553045021361856 
0.02440885625718998 
0 
0 
0.00150624403061132 
-0.02355028696261096 
0.007573252470784135 
0.01669757739125709 
0 
0 
0 
0 
0 
0 
0 
-0.0298261166288101 
0.06294713237752318 
-0.0001344192451742222 
0 
0.01981280268642774 
-0.02418392435493612 
0 
-0.01551302315173354 
-0.01435853703225781 
-0.02366186871692693 
0 
0 
0 
0 
0 
-2.113188663795736e-06 
0.0003092653970451505 
0 
0.002373098721447623 
0.005067591560264046 
0 
0 
0 
0.01142678863955581 
0.07080281776327657 
0 
0 
0 
0.001880880378771213 
0 
0 
0 
-0.01266240472150007 
-0.000537460392739501 
-0.05720662939358265 
-0.02162049065466949 
-0.00569071066592514 
0 
0 
0 
0 
0 
0 
0 
0.02523860315050734 
-0.01448242895380895 
-0.003969176573092982 
0 
0 
0 
0 
0 
0.03229659289224277 
0 
0 
0 
0 
0 
0 
-0.003994680178096922 
0 
-0.01969002716726124 
0 
0 
0.007215777524410548 
0.001402555334863465 
-0.01007813887334142 
0 
0 
-0.03817083937081944 
0 
-0.0001356114221973991 
-0.004905849426378128 
0 
0 
0 
0 
0 
0.02168100202423927 
0 
0.03112683708305698 
0.00882501481628571 
-0.01633493729164469 
0 
-0.02666027551421554 
-0.02134846916223519 
0 
0.01067040243608408 
0 
0 
0 
-0.00665380476751018 
0 
0 
-0.01630144750404003 
0 
0 
0 
-0.0185005185366886 
0.0185005185366886 
0 
0.01053416236952262 
0 
0.01102414152289733 
0.03592659713112407 
-0.0178719233489232 
0 
0.0005614515430648772 
-0.01135528765389554 
0.0009108542154999469 
-0.0185005185366886 
0.008871895030368698 
-0.01571185545140577 
-0.02379593956059769 
0 
0 
0 
0.01520281663830843 
0.0118080390493957 
0 
0 
0 
0 
0 
-0.01430913372828896 
0 
0.0129034769952791 
0.01437675990761994 
0 
0.02480566303972015 
-0.01079772353539864 
0.04465824996961312 
0.02888616187684625 
0 
0 
0.01901822365438727 
0.02049667606792525 
-4.418685873988447e-05 
0.009716185697088472 
-0.003870601288500132 
-0.004991929613886118 
-0.0182788561452932 
-0.01170389710656361 
-0.02885774117541597 
-5.557049374697629e-05 
0 
0 
0 
0 
0 
0.005857504682280176 
-0.01028342393461143 
0.02100883285628192 
0 
0.0118793946623561 
-0.03091907544593096 
0.009604897814532561 
0 
0.005435876326387067 
0.02139735783507158 
0 
0 
-0.005596848506518456 
0 
0 
0 
-0.01390322670604341 
0 
0 
0 
0 
0 
0 
0.01272582499985752 
-0.01449507415384533 
0.017617454196039 
-0.03388400959348226 
0 
-0.006799961876673276 
0 
0 
0.01047032355014213 
0.02322176562732442 
0.01811561510910665 
0.01099305552414702 
-0.0185005185366886 
0.0298261166288101 
-0.03093288216669934 
0 
-0.006027498946587086 
0 
-0.02689255808543105 
0 
0 
0.0174757255683026 
0 
0.009096561179133553 
0 
-0.04441404904947427 
0 
0 
0.001715772262182253 
0 
0.006416425153366655 
0 
0.0191144128062247 
-0.03404880066795068 
-0.01608009279792457 
-0.04156201172975301 
0 
0 
-0.009989456325732463 
0 
0.002434051868397147 
0 
0 
0 
0 
0 
0 
0 
0.007224751145656925 
0 
0 
0.0006940151525381841 
0 
0 
-0.01515605475173694 
0 
0 
0 
0.008782405417439371 
0 
-0.004633291871562531 
0 
0 
-0.0185005185366886 
0 
0 
0 
0.03198691910240974 
0 
0 
0.005072689843222931 
-0.000621456708350386 
0.03486837420193083 
0 
0.01368530500242568 
0 
-0.00285293781911641 
0.03103600401503397 
0.01705747424417873 
0 
0.01893507341998345 
0 
0 
0 
-0.002886524792190628 
0 
0.001984531274615709 
0 
0 
0 
0 
0 
0.012249302076981 
0 
0 
-0.01754516972666963 
0 
-7.21201542416963e-05 
0.01147597010533645 
0 
0 
0 
0 
0 
-0.01534584382104005 
-0.03469580438639939 
0 
0 
0 
0.0007842226789039234 
-0.05742486284502642 
-0.01214191830145162 
0 
0 
0.002063452000157636 
0.01388434378686369 
-0.01792641581659201 
0 
0 
0 
0 
-0.004253927382031432 
0 
0 
0.009776189397689596 
0 
-0.01097285824662311 
0.01356139226662839 
0 
0 
0 
-0.005605192148464688 
0 
0 
0 
0 
0 
0 
0.02038710925860763 
-0.02825672372713512 
0 
0 
0 
-0.0004413395362429778 
-0.005798140444273252 
-0.01717562599110371 
-0.03153173600398435 
0.03004447205305096 
0.007710912830042413 
0.0004384036338169295 
0 
0 
0 
0 
0.02740996841241447 
0 
0 
0.0169463005338358 
-0.04911780572109446 
0 
-0.01422051010512984 
0.0004161128366285988 
-0.08986038914317571 
0 
0 
0 
0 
0.01750007006105186 
-0.01391739461303277 
-0.01914608505794326 
-0.0007929270381548722 
-0.024626057718707 
0 
-0.0185005185366886 
0.03052728198440738 
0.007532281084394133 
0 
0 
0 
-0.0185005185366886 
0.03120597962682342 
0.01126721829324656 
-0.01436009337781319 
-0.01616167474629238 
0.001497812042205848 
0 
0.009825453934047235 
-0.0175558939173984 
0 
0 
0.007398324091183596 
0 
0 
0 
0 
0 
-0.0230200305177517 
0 
-0.01959518396464955 
0.01641326017969292 
-0.0195922272172193 
0.01878623380114133 
0 
-0.0185005185366886 
-0.0185005185366886 
-0.02939105532800118 
0.02240942317233476 
0 
-0.01585745683412129 
0 
0.008379665439090368 
0 
0.0005433927743006552 
0 
-0.01997083756253997 
0.006804779618193419 
-0.01165220352010728 
0 
0 
-0.0079653388011733 
-0.0185005185366886 
0 
0.02877385455549588 
0.01288494450699251 
-0.01939837273004159 
0 
0 
0 
0 
0 
0 
0 
0.0222633427674326 
0 
0 
0 
0 
-0.01039613639223254 
0 
0 
0 
0.01795462760916298 
0.01670815087257312 
0.03456119500748895 
0 
0 
0 
0 
0 
0 
-0.0001403127789865883 
0 
0 
0 
0 
0 
0 
0 
0.0001658705401845205 
-0.0009054220534030667 
-0.0738648004492687 
0 
0.01197439687393413 
0 
0 
-0.02617922162660272 
0 
-0.01233600465620567 
0 
-0.0194904863076556 
0 
0.04437285179432624 
0 
0.01904290191829381 
0 
-0.01536070214132254 
0 
0 
-0.01176498531508429 
-0.01299800919730003 
0 
-0.01477906698765205 
-0.02852442013901824 
0.01335928819200038 
0.03000170058421477 
-0.004650090863100178 
0.0372987065644528 
0 
-0.1056385062835786 
0 
0 
-0.009186233098391188 
0 
0.01202589109918112 
-0.02139448729877292 
0 
-0.001902316890115244 
0 
0.0200577434863431 
0 
-0.04186700122837767 
0 
0 
-0.04689802447419421 
5.481408036034477e-05 
-0.01709794876005459 
0.02147378637072454 
0.02256505030565167 
0.0001534664640721052 
0 
0 
0.007331586028618816 
0 
0 
0.01158801955730123 
-0.003006945804733622 
0.01226548704349356 
0 
0 
0 
0 
0 
0.03272589135890605 
0 
0 
0.003347201640329113 
0 
0 
-0.0201768832176099 
-0.05550234922463054 
-0.01043642678294897 
-0.01605937953941173 
0 
0.01878623380114133 
0 
0.002673038350064528 
0 
0 
0 
0 
-0.002958804541384757 
-0.04520738326435403 
0.02065853836171329 
0 
-0.02564508414651205 
0 
0 
0.009052490686360864 
0 
0 
0 
-0.02373645096006204 
0 
0 
0.002394488769223236 
0.0183746730022179 
0 
0.0322972348883744 
0 
0.02261895634795698 
0 
0 
0.003105926668522752 
-0.0001509264900991895 
-0.05303060721557137 
0 
0.0224669330148164 
0 
0 
0 
0.01226716080690159 
-0.005795277278041814 
-0.0102389519266133 
0 
-0.01985916493469609 
0 
0.01521120522936253 
0.03262025061363392 
0 
0.0005867411804942437 
-0.04457044222113829 
0.01323805248914527 
-0.02184647564035089 
-0.007190185990423321 
-0.0195390099765184 
0.009774181252264078 
8.002660310394018e-05 
0 
0 
0 
0.01466785026594464 
0 
-0.0185005185366886 
0 
0 
-0.0006892512878005417 
0 
0.0002028954153592227 
-0.02570103823465946 
-0.03538254072751848 
1.526156486176001e-05 
0 
0.02939477952235562 
0.03127702401129822 
-0.01263033611818005 
1.784824620892887e-05 
0.01212236360914829 
0.02381714267396655 
0 
0 
-0.01866029200167693 
0 
-0.009994380396581586 
0 
0 
0 
-0.03410136542109867 
0 
0 
0 
-9.580085006608789e-05 
0 
0 
0 
0 
0 
0 
0 
0 
-0.01928071866081639 
-0.0185005185366886 
0 
-0.0002350397648103319 
0.01292392455297271 
-0.0001213045766174444 
0 
0 
0 
0 
0 
0 
0 
0 
0 
0 
-0.008444925223703267 
0 
0.004333832310052324 
0 
-0.03176551333044374 
-0.005632291774079092 
0 
-0.04695026552494275 
0.0185005185366886 
-0.05820273304980316 
0.01518248084173337 
-0.0002068092312140209 
0 
-0.009656413232646167 
0 
0 
0 
0.01546769882475735 
0 
0 
0 
0.06535565940981916 
0 
0 
0 
0 
0.006761068219768395 
0.00936946541976213 
-0.01257738953155991 
0 
0.01515605475173694 
0 
0 
0 
0 
0 
0 
0 
0 
0 
0 
0 
-0.03623689677040151 
-0.02453519344570554 
-0.00413116737171841 
0.005662284106071858 
0 
0.01954002412437893 
0 
0 
-0.01081037470578133 
-0.0091327810054518 
0.000279617067236744 
0 
0 
0.02011672893604544 
-0.01745151202778772 
0 
0 
-0.003496139646876746 
0.01970267726311856 
0.005867644779570522 
0 
0 
0 
0 
0 
0.03473625465185061 
0 
0 
-3.674500617600897e-05 
0 
-0.01609983748647143 
0.01122605132568035 
0 
0.01674327999334455 
0.00550869855376569 
0 
0 
-0.01304439808320904 
0.01621921868914014 
-0.0207220633705236 
-4.689643624672434e-05 
-0.01063930738701141 
0 
-0.0001288263016032699 
-0.01812051377086904 
-0.0001523256997277689 
0 
-0.08806305041783306 
0 
-0.02282584923137982 
0 
0.0185005185366886 
0 
-0.009032358250371644 
0.01120015814737901 
-0.01660231440009899 
0 
-0.0180097579689547 
0 
-0.01541701122357369 
-0.02927140966575528 
0 
0 
0.0033570258232005 
-0.02021213011284878 
-0.02436915618690534 
-0.04219355117812728 
0.01275893095625633 
0 
-0.03300109388791909 
0 
0 
-0.01211940702639721 
0 
0 
0 
0.01515605475173694 
-0.004898589569893385 
0.03691818109212288 
0 
-0.02409526157484432 
0 
0.02185518534903044 
-0.003386979476184449 
0 
0 
0 
0 
0 
0 
0.0118237988770361 
-0.01554646943698738 
0 
-0.0197482435046017 
-0.007720161386263307 
-0.03966565119987277 
-0.01473759681716481 
0 
0.01903212522872869 
0 
0.001097955859938089 
0.04051714117716142 
0 
-0.003371329467957952 
0 
-0.008899456439159166 
0 
-0.006699171472456874 
0 
0 
0 
0 
-0.02510789573698161 
0 
0.02332959411293271 
0 
0 
0 
0 
0 
0 
-0.002355869453798003 
0.003986939603826368 
-0.06877319622686631 
-0.001090522703570963 
0 
0.001340489134187156 
0 
-0.003034552035633993 
-0.04106754098263812 
0.01161934263826411 
0 
0 
0 
0.03301343826169295 
-0.007706739298632786 
0.0185005185366886 
0 
0 
0.01267026732663286 
0 
0 
0 
0 
0.007992775982225146 
-0.008515979831624507 
0 
0.001264179630160144 
-0.0001553738374907944 
0 
0 
-0.0185005185366886 
0 
-0.01483812848694815 
0 
-0.0324779634750827 
0.0261948542270085 
-0.02794240095800386 
0 
0 
0 
-0.0185005185366886 
0 
0 
0 
-0.01226182436571603 
0 
0 
0 
0.0222722678486064 
0 
0.04486423264374566 
0 
0 
0.01805801818984003 
0 
0 
0 
-0.01013605580600515 
-0.01855110200947875 
-0.005307454633226207 
0.01304875357089167 
-0.01192447749788382 
0 
0.005721013668109462 
-0.01482849268403851 
0 
0 
0.005850673356144737 
0 
-0.01163468289926806 
0 
-0.01888846106674269 
-0.0185005185366886 
0 
0.02974130367403039 
0.03225077460617771 
0.0185005185366886 
0.01275570885044566 
-0.006353985054091325 
0 
-0.02850555999180817 
0 
0 
0.0128021788225438 
0.001297855587390625 
-0.003504793713351076 
-0.012800254548934 
0.01262319071307078 
0.003802723227584699 
0 
-0.02365220057723914 
0 
0 
0.03143949870678672 
0 
0.02110731337224864 
-0.01946518699220401 
0.01081815683998023 
-0.03314209273766139 
0 
0 
-0.004825032882351673 
0.02487446205936016 
0.01253528276322082 
0 
0 
0 
-0.009677573838984009 
-0.01888461722830746 
0 
-0.01436757644282276 
0 
0.03703331002528437 
0 
0 
0.02103477357242039 
0.001714076359508522 
0 
0 
0 
0.0002424459099226033 
0.01025755233768407 
0 
0.01594731631313779 
0.02914336924626401 
0 
0.006011766646478323 
0 
0 
0 
0 
-0.008311422198464244 
0 
-0.02688869692452405 
-0.004020626124216936 
0 
-0.01806596365339375 
0 
0.02078130044788313 
0.002249658023016796 
0.01487844331945204 
-0.01370908030802306 
0 
0 
0 
-0.002701820666089599 
0 
-0.003163446425696262 
0 
0 
0 
0 
0 
0 
0 
0 
0.01268396621523587 
0 
0.01442658138073772 
-0.02374447766503054 
0 
0 
-0.01288451598769685 
0 
0 
0.03472265275143126 
0 
-0.0299573218342393 
0 
0 
0 
-0.007048513949401978 
-0.008730880577088212 
-0.06271391434026458 
0.01427198768377146 
0 
0 
-0.01120232130574622 
0 
0 
-0.0001171948858736461 
-0.02693886065876918 
0 
-0.01197310634907845 
0 
0 
-0.009110125669477399 
0.03496451491981645 
-0.02285844264633164 
0 
0.01677857551427325 
0.01481255711845747 
0 
0.02094165753396547 
-8.884147439016114e-05 
0.01287262700277469 
0 
0 
0 
0 
0 
0 
0 
-0.01820105531776018 
-0.01580676213099749 
8.976196198495859e-05 
0 
0.007464692510580682 
0.02998437490731231 
0.007633604166199871 
0 
0 
0 
-0.01344162788459628 
0 
-0.01680199063581136 
0.01117375528696065 
-0.01386717517639032 
0 
0.03461941674125217 
-0.0048532039761752 
7.560987500646667e-05 
-0.02260202884022776 
0.0248528290942685 
-0.02046230772118476 
-0.01070868689944021 
-0.06888279252129724 
0.02516254338714803 
-0.01866730182862664 
0 
0.02718629590592155 
0 
0 
-0.0001449538615222686 
0 
-0.0003587780997777827 
-0.02297428299191425 
0 
-0.01052073208910348 
0 
0 
0.001776583436682275 
0 
0 
-0.02780629280660749 
0.000163865365628999 
-0.01202176448203883 
-0.01018016067278992 
0 
5.210429486099828e-05 
0 
0.0004032230355151253 
4.46708008089415e-05 
0 
0 
0.01438090139871523 
-0.02603566461827197 
0.01017085649227307 
-0.02035300878024048 
-0.0185005185366886 
0 
0.008981692711175507 
-0.0185005185366886 
-0.0197357779471647 
0.0185005185366886 
0 
-0.04068990606062341 
0 
0 
0 
0.0208682045234843 
0 
0.002684588470603042 
0.02044953299134213 
3.453500597000619e-05 
0.01382964197261118 
0 
0 
0.02422181692325924 
-0.01460743533385196 
0.006081774025028772 
0 
-0.005349213453933067 
0.009200658412065951 
-8.904479894798035e-05 
0.0074572129359239 
0.07662162025297958 
0 
-0.000592441371968533 
0.005171921397262946 
0 
-0.006456245423975293 
-0.0005756667082274047 
0 
-0.01112263726833258 
-0.02989084389056536 
0 
0 
0.0002621453553959493 
0 
0 
0 
0 
0 
0.0344403421437354 
-0.04197121401557189 
-0.007915527484831899 
0 
0 
0.01165919959890992 
0 
-0.01787202380057764 
0 
0.005079150941313118 
0 
0 
0 
-0.02497514597419609 
0 
-0.0002325802058129787 
-0.009677440203115156 
-0.01607583126370644 
-0.0185005185366886 
0.03789603584138797 
-0.02101713294002797 
0 
0 
0 
0 
0.006963266801790799 
0 
0.0004916116659404116 
0 
-0.02093959448676212 
0 
0 
-0.01967983526659626 
0.0121128324154642 
0 
0.01073062231519719 
0.0004845556005918333 
0.004364344309260649 
-0.003588050402564252 
-0.02805013755616553 
0 
0 
-0.01405054091895522 
0 
0 
0.01330953963681667 
-0.0103641084250987 
0 
-0.02042752438968545 
0.01442678965313989 
0 
0 
0.01372670253588783 
0 
-0.04339940733813755 
0 
0.02631400697355105 
0 
0 
-0.01360845365294095 
0.003403422203180388 
-0.0003484544823307424 
-0.01188285994723729 
0.01292392455297271 
0 
4.595525525371026e-05 
0 
0 
9.962936846262278e-05 
0 
-0.02257205959615296 
-0.02764320076127161 
-0.02961630959468082 
0 
0.004070539656259622 
0 
0 
0 
0 
-0.0023609208479731 
0 
-0.0264741010740119 
6.750442851923444e-05 
0.0185005185366886 
-0.01793522822198267 
0 
-0.0392702968328309 
0 
0.01167438471686868 
0.005644837340456514 
0 
-0.01263962548545952 
-0.0185005185366886 
-0.0001567782308421322 
-0.01499094036559095 
0 
0 
0 
0 
0 
-0.01164948994816534 
0 
0 
0 
0.02867435320317992 
0 
0.01893507341998345 
-0.03840342797308625 
0 
-0.01931591205536816 
-0.007033850315329617 
0.00383647645551475 
0.02521382760688655 
0 
0 
-0.02400117691315226 
-0.01515605475173694 
-0.006893235302619758 
-0.006695693091972615 
0.01161983612381024 
0.008918070178265987 
-0.03216851474074869 
0.01245380010461355 
0.006968028715515298 
0.007645760017117051 
0 
0 
0 
0.0002096389534323236 
0 
0.02159902745359833 
0 
0 
0 
0.04402082792128834 
0 
0 
-0.02216249241034005 
0.004719241415871528 
0 
-0.0007440128727225787 
0 
0.005639741911058269 
0.01196036324838091 
-0.01515605475173694 
0.0009253488688918434 
0 
0 
-0.02068258590181302 
0 
0 
0.002360821603782018 
0 
0.03612648727984613 
0 
0.009437364569277715 
0 
0 
0.02222679409094345 
0 
-0.01372145409295978 
-0.02305046756007605 
0 
0 
0.02046294499813918 
0 
-0.02225243729566013 
-0.01446686736374318 
-0.0002261320708355293 
-0.004372908421853326 
0.007442343237192769 
0 
0 
0.01542613663943255 
0.02690482095851032 
0 
-0.01714744097667464 
0 
0 
0.02738154426263184 
-0.006000186257956305 
0 
0 
0.004124419063946913 
0.02104755662879552 
0 
0 
0 
0.009595637187882243 
0 
-0.01811476779766376 
0.01767231508966932 
-0.04203690897190626 
6.776358010885178e-05 
-0.04358962593679141 
-0.01779627320118065 
0 
0 
0 
0.003448683762818503 
0 
0.03255355161014709 
0 
-0.000867267685778292 
-0.007422780178917 
0 
-0.03703582476209688 
0 
0.007276012558305136 
-0.0137336570664736 
-0.009759038361256023 
0.008669137526948412 
0 
0 
0.004155076947078783 
0.02217898798056243 
-0.01767473417224749 
-0.01602580533144061 
0 
0.002052923477636665 
0.01002023396667705 
0 
0 
0.03981311905913461 
0 
0 
0.009706832463284189 
0.006193403246716063 
0 
0 
0 
0 
0.008356128338410164 
-0.003891062872758767 
-0.01180342817027692 
0.02944187032911857 
-0.001835463048142202 
0 
0.01122418013117881 
0 
0 
0 
-0.01821773708805039 
-0.01590469584604307 
0 
-0.006312814670995571 
0 
0 
0 
0 
0.03767775549006279 
0.01668474802947226 
0.008348246953037987 
0.04428295672559149 
-1.947322282544575e-05 
0 
0 
0 
-0.0001680438201196231 
-0.01449541464832296 
-0.04701010445228314 
-0.0169094143261864 
0 
0 
-0.02332606431516175 
-0.004954108664443103 
0 
0.01822575455472693 
0 
0 
0.03475813837579022 
0.01112532362691047 
0 
0 
0.02057662548533958 
-0.01035238007005519 
-0.01683219623979662 
-0.0006344860602190556 
0 
0.002673038350064528 
-0.06471216406017925 
0.00473644289446524 
0 
-0.0008191404047694344 
-0.000440544945279453 
0 
0 
0 
0.01353422704911358 
0 
-0.004835523228999414 
0 
0 
0.03485086349430194 
0 
0 
0.01376318571270647 
0 
-0.009113197877154795 
0 
0 
0 
0 
0.03328920246914856 
0 
0 
0 
-0.01761064697490482 
-0.003226312328880087 
0 
0.005637555325213893 
-0.02121126387445314 
-0.0156737049177234 
0 
0.01394313248311491 
0 
-0.02452598662629636 
-0.03320971538915878 
-0.01720424441739778 
0 
0 
0 
0 
-0.07145025565569564 
-0.01320326712209021 
0 
0 
0.01272201618716747 
-0.02417788196130537 
0.01041347854898996 
0 
0.01091003744869313 
0.0185005185366886 
-0.007633924114142128 
0.0130771921837903 
0.01607253919399308 
0 
0 
0 
-0.01196287766095134 
0.007324313158727534 
0 
0 
0 
0 
0 
0.02644185995047589 
0 
-0.008005877951481867 
0.02201355544425351 
-0.0308217068280281 
0.0004406660201905889 
0.01880390192869398 
-0.03683587883709089 
0 
0 
0 
0 
0.02088649138093439 
-0.02041661816911593 
0.0214447849427416 
-0.02658030187590706 
0 
0 
0 
0 
0 
-0.004317399499768353 
0 
0.09045427907230055 
0 
0 
0 
0 
-0.004333847501434404 
0 
-0.01396928302422086 
0 
0 
0 
0.00616792635945004 
0.01016564051050723 
0 
0 
0 
0 
0 
0 
-0.007189532745596199 
-0.01554883774028243 
0 
0 
0 
-0.02378946218879758 
0 
0.0190634185279242 
0 
0 
0 
0 
0 
0.006342621508851686 
0 
-0.0001166209308190227 
0 
0 
7.915087413142986e-05 
0 
-0.00831606326302297 
4.831775835271711e-05 
0 
0 
0 
-0.0133869424780215 
0 
0 
-0.0185005185366886 
0 
0 
0 
0 
-0.03662782379281215 
0 
-0.0575077123380589 
0.005908795799563399 
0 
0.02967475615368305 
-0.02537358032465083 
0.03955199076104256 
0 
-0.0004802380159099711 
0.0185005185366886 
0 
0 
0 
0 
0.02040002795250214 
0 
0 
-0.01527609486616041 
-0.008448050110326647 
0.02876995368016692 
0 
-0.02079473812862107 
0 
0 
0 
0 
0.0001579883649858593 
0.02711919743770769 
0 
0 
-0.02142630732904665 
-0.004481766406958058 
0 
0.0001146388823944818 
0.02774508589688468 
0 
-0.02257445569263948 
0 
0 
0 
0 
0 
-0.0298261166288101 
0 
0 
-0.008603873495612903 
-0.03227526920049168 
0.0185005185366886 
0 
0.03036731883765885 
0.05002956357871884 
-0.04255214485498252 
0.01335376978599479 
0 
0 
0 
0 
0 
0 
0.02404696352095676 
0.01737289547222782 
0.02566566206599736 
-0.0185005185366886 
0 
0 
0.003673087404225998 
0.02477047702851393 
0 
0 
-0.03235883678235629 
0 
-0.01093397700511376 
0 
0 
0 
-0.0185005185366886 
0 
0 
0 
0.008393464909316896 
0 
-0.02751278411949731 
0.02203716303328766 
0 
-0.01336184782983774 
0.01051994298727162 
-0.0246421982317629 
0 
0.009619388981301071 
0.009747180765518846 
0 
-0.03482803520831736 
0 
-0.07017069176678636 
0.003278349147604219 
-0.01339332416704878 
-0.01207034314284529 
0.02493057370292572 
0 
0 
0.02435881780542473 
0.03052242266068345 
-0.01369736587875064 
0 
0.06481176327687939 
-0.0146784470433703 
0 
-0.03357557149481834 
0 
0 
0.006633744979573972 
-0.01726292117837623 
-0.002901916336795718 
0 
-0.004826964795049717 
0 
0 
0.01416743179153836 
0.006613814198369078 
0 
0 
0 
0 
-0.01482849268403851 
0 
-0.005033909670045766 
-0.01387623109185089 
-0.01393359347840152 
0 
0 
0 
-0.025775393908642 
0.01904272080317929 
-0.0286386088191538 
0.003650170221405823 
0 
0 
0 
0 
0 
0 
-0.003358947964840261 
0 
0 
-9.78574835441706e-05 
0 
0.05102953591280814 
0 
0.01188800907080889 
0.003001872210095255 
0.008740387352516183 
-0.01767473417224749 
0.06217425916002191 
0 
0 
-0.003165775698586911 
0 
0.002281967329382467 
0 
0 
0.05456759546861231 
0 
-0.04170978950728674 
-0.01957689642103302 
0.0145796917951997 
0.01201671187900339 
0 
-0.0431171243688532 
0 
-0.0185005185366886 
0 
0 
0 
0 
0 
0 
0 
7.051453612663488e-05 
-0.01578218330279411 
-0.01762456680093868 
0.003790036599856485 
0 
-0.01879944802212439 
0.007328945811078721 
-0.01009966283408445 
0 
0.03569931060607695 
0 
0 
0 
0 
0.03078399252778496 
-7.047027648940682e-06 
7.17830377435542e-05 
0 
6.786016718233266e-06 
0.02206296175441501 
0 
0.01356966296906875 
0 
0 
-0.02552580031305615 
0.002738085270985848 
-0.01787944914677124 
0.01420017143870361 
-0.0185005185366886 
0 
0 
0 
-0.01780923037920316 
-0.07302032540685242 
-0.007853406149139566 
0 
-0.001298188290733626 
0 
0 
0 
0.04325437144651885 
-0.02442356875323369 
-0.02089120195279743 
0 
0 
0.01106167017079392 
-0.02085484610945756 
0.004093846776030359 
-0.01580096328261207 
0 
0.0473928203045369 
0 
0.0122113706516368 
0.007989820046545252 
-0.01444753611157399 
0 
0.037838578169031 
0.06563589939833323 
-0.01158955001638942 
0 
-0.05402914277146609 
-0.03777333464811744 
0 
-0.019486001405588 
0.01118350343887952 
-0.02056337891525501 
0.01038186599763145 
-0.03001877415737276 
0 
-0.01957837632472967 
0.01187101653078428 
0 
0.005839748311124032 
0 
0 
-0.035837120480311 
0.01629511590816774 
0 
0.001421972995353091 
0 
0 
0 
0 
-0.003762778150628396 
-0.01025592617588477 
0 
0.01155154126171506 
0 
0.02464262135734474 
0 
0 
0.0185005185366886 
0.01917546125868383 
-0.02028797146856474 
-0.06456134946657695 
-0.02695394908679285 
0.01433077461987075 
0 
0.0002803440461565697 
0 
0.01390488790452408 
-0.01732822731173234 
0 
0.01005748424254683 
-0.00861888238459188 
0.009689927182845162 
0 
0.01515605475173694 
0.03470151447934676 
-0.005547764658609975 
0 
0.0173895259433075 
0 
0 
0 
0 
0 
0 
0 
0 
0 
0 
0 
0 
0 
-0.01172861141750282 
-0.003579391717637951 
0 
0 
0.002032441948852971 
0 
0 
0 
0 
-0.01846655256529199 
-0.008246006175308835 
0 
0 
-0.002138275463408425 
0 
0 
0 
-0.003447378058295401 
0 
-0.001972261705661911 
0.01008855272809364 
0 
0 
0 
0.007153374941568124 
-0.02761067511454462 
-0.0465114914411096 
-0.01806596365339375 
0 
0 
0 
0 
0 
0.0185005185366886 
0 
0 
-0.01182267536064721 
0.02520770769991904 
0 
0 
0 
0 
0 
0 
0 
0 
0 
0 
0 
0 
-0.03554941586882655 
0 
-0.0127936914589388 
0 
-0.03414150137876519 
0 
0 
0 
-4.824984187740727e-05 
-0.0108626785058327 
-0.004467605986300428 
0 
0 
0 
0 
-0.02971052056730667 
-0.01701452213812059 
0.04150787199031326 
0.0196936926023209 
0.01387395868937114 
-0.02818654208022906 
0 
0.009500290438800294 
0 
0 
0 
0 
0 
0 
0 
0.0005402815475124554 
-0.009683274500601427 
0.009753740569432744 
0 
0 
-0.01709794876005459 
0 
0.02267990574478023 
0 
0 
0.01462140143048882 
-0.01796867940137577 
0 
0 
-0.03002107588672302 
0 
0 
-0.02010086379723846 
0.0343247034524234 
0.04332130780324807 
0 
0.02630822422222587 
0.01017272530277914 
0 
0.03060546920515116 
0 
0.009505873099081168 
0 
0 
0 
-0.03440834658248871 
0 
-0.02129423758599624 
0 
-0.02046256060454999 
0.01883961697751927 
0 
0 
0.003004676435277315 
0.01769570138257301 
0 
-0.02593643104350637 
-0.03543468840153455 
-0.02016542975857053 
0.01970023512854582 
0 
0.01009623712322186 
0 
-0.01577650499250107 
-0.01514161633361197 
-0.06505158886877566 
0 
-0.01181309702753715 
-7.175927169725553e-05 
0.01713452253780257 
0.01256717607440985 
0 
0 
0 
-0.01249694689634823 
0 
0 
0.02510525887812538 
0 
0.02701593691730799 
0 
-0.01959934055060149 
-0.07899203171593433 
0 
-0.01936240148010568 
0 
-0.0298261166288101 
0 
0 
-0.009226879687817194 
0.004084424863837617 
0 
0.03857436609701477 
0.005773367468204415 
-0.0164356319194732 
0 
0.01235767612246721 
0 
-0.01208271573737062 
-0.03627411587168358 
-0.01734495039228803 
0 
0 
0 
-0.04516735690068157 
0.02826180813833347 
0.04957416042660014 
0.01051536733976296 
0 
0.0009058529252729038 
0 
-0.0185005185366886 
0.02780699529689915 
0 
-0.01089277561369779 
0 
0.0002264614989292634 
0 
-0.02061036811705844 
0 
0 
0 
0 
0 
0 
0 
-0.01951693890445371 
-0.03043955097481444 
-0.02274417393419862 
0.02767001300098692 
0.005026667523800812 
0.01096495437277374 
0.01669941725767471 
0 
0 
-0.01528697945744148 
0 
-0.03992446308420795 
-0.004372908421853326 
0 
0.007697344688277346 
0.01649902362362216 
-0.0185005185366886 
0 
0 
0 
-0.01515605475173694 
0 
0.01393890811666697 
2.900806646882749e-05 
-0.01966016155304168 
0.009158250481973189 
0.003120999011716276 
0.03091185532816485 
0.02470578552222095 
0 
0 
-0.02392328655027953 
0 
0.01032345440646876 
0.01655366489830226 
0.01682342611748583 
0 
0 
-0.03881890220346759 
0 
0 
0 
-0.001494239667945359 
0.01344474568965661 
0 
0 
0.02914526126841562 
-0.01464256571142173 
0 
0 
0 
-0.00122561815336861 
0 
0 
0.01005412846357594 
0 
0 
0 
0 
-0.0164975986616898 
0 
-0.02637065115518545 
0 
-0.01172493848227802 
0 
-0.01793588985170031 
0 
0 
0 
-0.0185005185366886 
0 
0 
-0.0401823560122607 
-0.01869784053448112 
0 
0 
0 
0 
0.004852815428503359 
0 
-0.0185005185366886 
0 
-0.01920681420098029 
0.01987868449869595 
0.009675975181848526 
0 
-0.01748478900940411 
0 
0 
0.01318413030287495 
-0.02932862286470792 
0 
0 
0 
0.02972755497355446 
0 
0 
-0.02032593833526652 
-0.01335552219098238 
0.03790988224540383 
0 
-0.04601855249061444 
-0.0392161686734601 
-0.009897485177917964 
0 
0 
0.01501648246686107 
-0.0185005185366886 
0 
0 
-0.01265532334676895 
0 
-0.01980162225741801 
-0.02715834180104813 
0 
-0.001876042077382914 
0 
0.0185005185366886 
0 
-0.02388379866438941 
0 
-0.004080209960790123 
0 
0 
0.01119882846092927 
0.0002461419060175535 
0.01738935107016295 
0.008695157774051544 
0 
-0.01554883774028243 
0 
0 
0.008249546931772633 
0 
0 
0 
0 
0.01464991253470307 
0 
0 
0 
0 
-0.01398007238012088 
0 
0.01346773470791106 
0 
0 
0 
0 
0 
0 
-0.06831265043857615 
0 
0 
0.01670999969628883 
0 
0 
0 
-0.0380206490690195 
0.01113654302662674 
0 
0.005187452484349926 
0 
0 
0 
-0.0003307189477316141 
0.008156651416099309 
-0.006001110928060304 
0 
0.03002375413910726 
0 
0 
0 
0 
0.01006951107198094 
-0.03401731325880021 
0 
-0.04806178709596037 
-0.0185005185366886 
-0.01307663515538913 
-0.01086500633408473 
0 
0 
0 
0.0401227929274151 
0 
0 
-0.01559982126173533 
-0.02874768957417656 
0 
0 
-8.199613585177455e-05 
0.004185826682894168 
0 
0 
0 
0 
0.02766352353070198 
-0.0185005185366886 
0.007205351813114516 
0 
0 
0.01514283513177127 
0 
-9.664153679614493e-05 
0 
0 
0 
0.01516809174075316 
0 
0 
-5.407286554284102e-05 
0 
0 
-0.002914805753958816 
0 
0 
0.01598522941104496 
-0.008921394066875419 
0.00137461023558381 
0 
-0.008350653084791869 
0.00634256207939553 
-0.01371512956965608 
0 
0 
0 
0.005026667523800812 
0 
0 
0.006069602754301392 
-4.562394144341713e-05 
0.004172390984815554 
0.008874822398595701 
-0.0145283368239553 
0 
0 
-5.121612674171671e-05 
0 
-0.007892747090567327 
0 
0 
0.061654826405416 
0.01006392207733002 
0 
0 
-0.01518256684448125 
0 
0 
0 
0 
0.0441894760839821 
-0.07372520076889273 
0 
0.009124727856444803 
0 
0 
0 
0 
-0.01205140955014452 
0.02913007757465155 
0 
2.565907216414324e-05 
0 
-0.006216267483086126 
-0.01226186321072308 
0 
0 
0 
-0.03632480817460761 
0 
0.01415234577974393 
-0.003352614815585796 
0.008948977701671626 
0.01558431923839582 
0 
0 
0 
0 
-0.01098943483952206 
0.01970023512854582 
-0.0001944816911600766 
-0.003080803192326987 
-0.0185005185366886 
0.008177072036660264 
-0.05694476059053175 
0 
0.0007221546960454211 
0 
0.0187247669177997 
0 
0.002073919475420891 
0 
-0.008229744185306823 
0 
-0.004177939908456566 
0 
0 
0 
-0.001017685930475391 
-0.0214014497310288 
-0.0185005185366886 
-0.02708886191219768 
0.03498087494733527 
0.008682756962284863 
0.01359732116457575 
0 
-0.01332661462218024 
0 
0 
0.05088172081388612 
0.0185005185366886 
-0.01273816935462261 
0 
0 
0 
0 
-0.002782326612825634 
0 
0 
-0.0384569771059626 
0 
0.01967682940920583 
-0.006006013920816582 
0 
0 
0 
0 
0 
0.01154482822580187 
0 
0 
0.01756521856899691 
0.01515605475173694 
-0.02316990270878149 
0 
0.01515605475173694 
0 
0 
-0.02673822273173394 
0 
0.001055692939705842 
0 
-0.01887562633218866 
0.01773438995206194 
-0.004141255309429406 
0.006566145588765929 
-0.009639085594760273 
0 
0 
0 
-0.008472896000508944 
0 
0 
0.01170593923499127 
-0.01789919752403821 
0.005111288301382267 
0.02415462349348487 
0 
0.009503053937004048 
0 
0 
0 
0 
0 
0 
-0.007381206934640015 
0.01731046865422501 
0.03911891193071502 
0 
-0.008235062947263352 
0 
0 
0 
0.01699232590813314 
-0.0002655360332540697 
0 
-0.004920341099142933 
-0.01543642633944077 
0 
0 
0 
-0.04963658271792089 
0 
0.01489466187927854 
0.02627133516163758 
0.05249131314103208 
0 
0 
0 
0.04879687872903743 
-0.003963848584729457 
0 
0 
0 
0.1180876778500005 
0.003583164373437215 
0 
0 
0.002179795819596527 
0.01241309578261054 
0 
0 
0 
-0.01240465255480163 
0.001027723324075998 
0.005731952322731469 
0 
0.01516553563957073 
0 
0 
-0.0298261166288101 
-0.02188297275070546 
0 
0 
-0.01125866654514152 
0 
-0.01244924801764822 
0.02285561577831809 
0 
0.08045995532866493 
0.0185005185366886 
0 
0 
0 
0 
0 
0 
-0.01757618187273826 
-0.01317599390199686 
0 
0 
0.02481898829317502 
0 
0 
-0.03162936493966793 
0.002400558892369591 
0 
-0.01998689129725829 
0 
0.01515605475173694 
-0.01401398212084917 
0 
0 
0 
0.01286405202676286 
0 
0 
0.01464678722156678 
0 
0.01419090974531791 
1.191907683928232e-06 
0 
-0.0001943675655569117 
0 
0 
-0.04270376326635594 
0.02309953123135276 
0.01360553633530205 
-0.01269075643814276 
0.02814824203708576 
-0.02496368417234603 
-0.001926615328746618 
0 
0 
-0.005185547968991287 
0 
0 
-0.01078100411058988 
-0.01345764865166984 
0.0004552571356298012 
0 
-0.001954956005308709 
-0.01315683039026261 
0 
0 
-0.01955062111357484 
-0.01348653576630993 
0.01092078994944965 
-0.001278744391365575 
0.01588212783903525 
0.02867890467596936 
0 
-0.0276217196581625 
0.02841078799024114 
0 
0 
-0.01583761272936814 
0 
0.01145861787292206 
0 
0 
-0.0185005185366886 
0 
-0.005333336476444061 
-0.01489227113169564 
0 
0 
-0.03327485775004265 
0 
-0.0007601775691096279 
0.02854423324212259 
-0.02809184246801814 
0 
0 
0 
0.005201712699067844 
0 
0.01460840533937088 
0 
0.01432972198931245 
0 
0.00726480870296331 
-0.00975819033558256 
-0.01285305355307482 
-0.007372635639171976 
0 
0.01480282427538443 
-0.006988528574725712 
0.01932303264034316 
0 
0.01891823944486693 
-0.0172151865658624 
-0.01637840805339057 
0 
0 
-0.03549967755143195 
0 
-0.013548365253276 
-0.0198846126139486 
-0.03456887605955965 
0 
0.00812090613535736 
0 
0 
4.553794180083606e-05 
0 
-0.001069963305155907 
0 
0.01738682912678005 
-0.03355571933056095 
0 
-0.0185005185366886 
0.0170785167838225 
0 
0.01935744472987036 
0.0185005185366886 
0 
-0.0005409742032136753 
0 
-0.02580151510153425 
0.02300516212907269 
0.02699799636397867 
0.03101062508976146 
0 
-2.476861887726814e-05 
0 
0.01295425644309865 
0 
0.03887353223557852 
-0.006949732887017982 
-0.008951578467305005 
-0.004318125451989063 
-0.002685805769132797 
-0.02204652084234865 
0.01182882145568188 
0.0003648700291422253 
-0.00838397234629693 
0 
0.01826393199040028 
0 
0 
0.01332646127256108 
-0.07000462900966339 
-0.01219047106810989 
0 
0 
7.111892109106421e-05 
0 
0 
0 
0 
-0.01939979009729128 
0 
0 
0 
0.02041184553699442 
0 
-0.008039130915285454 
-0.008239235629703441 
4.831775835271711e-05 
0.01141898863881641 
-0.01484017301454154 
0 
0.0307523046134632 
0.005659686617091104 
0 
0 
0.005428389781598538 
0 
0 
0 
0 
-0.001336345907129122 
0 
0 
0.02773905896690638 
0 
-0.008901742467794758 
0 
0.0251781170527635 
-0.01933455516765123 
0 
-0.01255086034313621 
0 
0 
-0.0367508648665051 
0.02130894824200819 
-0.01515605475173694 
0 
0.02457811362771056 
0 
-0.09234859799051651 
-0.0185005185366886 
0 
0.006396718323344224 
0 
0.004156463087074462 
0.003100043959777397 
-0.02461660587432677 
0 
-0.1248889094320749 
0 
-0.01483342207893529 
0.02913093162040857 
0 
0 
-0.01065545336682063 
0.02436143025580502 
0.01298053740475258 
0 
-0.07247084433221505 
5.25861052453828e-05 
-0.006433223143685964 
0 
-0.0008970176247355254 
-0.03076468385632099 
0.0003175943285466675 
0 
0 
-0.01837604311828658 
0.04787282583443919 
0 
0 
0 
0.005398021097438083 
0.01070048242513595 
0 
0.009914638373565774 
0 
0 
0.02264583312890951 
0.00310621450677137 
0 
0 
-0.009192907074316786 
0.01322757820228334 
0.01957356515076585 
-0.02984423913275638 
0.02843154702932773 
0.03852650841220814 
0 
0 
0.01564589904625632 
0 
0 
0 
0 
0 
0 
-0.006973659330976687 
0 
0 
0.03793188976705904 
0.0003939759190063901 
0 
0 
0 
0 
0 
0.0234608902695448 
0 
0.02308775356593554 
0 
0 
0 
0.009384342103121418 
-0.006665768164698948 
0.01982203088835382 
0.0002493381435372695 
0.01554677480475825 
0 
0 
-0.02355091248734702 
0 
0 
0.03282784288756989 
0.02814649949699772 
-0.002691064355816125 
-0.008254361553102838 
-0.02122134938668213 
0.01484220576857481 
0 
0 
0 
-0.0179993454506061 
-0.02475970381732917 
0 
-0.007171491560073801 
0 
-0.03481572887166061 
0 
0 
-0.01820589824912515 
0.002885797641834187 
3.706407380114148e-05 
0.01515605475173694 
0.01305361768249018 
-0.02173537994039424 
0.02066785893030643 
0.02093096388212218 
-0.04780476111998448 
0 
0 
0.007715482688540483 
0 
0 
-0.01647477990985286 
0 
0 
-0.007987903433217638 
-0.02403457769328876 
0.008155432959716278 
0.07279458034087767 
-0.01535823099489488 
-0.01526753007389669 
0 
-0.007595485231296335 
0 
-0.06044499962826479 
0 
-0.008355920883904666 
-0.008148711285065941 
0.005256619879400309 
0 
-0.03950406046037212 
-0.007193715187835139 
0.0185005185366886 
0 
0 
-0.02261860712271315 
0.01455514963744294 
0.008658587063708777 
0 
0 
-7.93508352086903e-07 
-0.03048326201773769 
0 
0 
0 
-0.01550566825452302 
0 
0 
0.01051492011042346 
0.005404144606067477 
0 
0 
-0.01619531049699209 
-0.0129948290708189 
-0.02537300971676992 
0 
0 
0 
0 
0.007720244306431968 
0 
-8.800994182765461e-05 
-0.009538516813265284 
-0.01510919538224108 
-0.02517570190670681 
0 
0.02357079147529681 
0.0289236240842291 
-0.009620864971272569 
0.0185005185366886 
0 
0 
-0.00124729292327997 
0 
-0.01514955127105119 
-0.0005409742032136753 
-0.005989628892676962 
0 
0.02685501468647812 
0 
0.03450575899021463 
0.01265948922992441 
0 
0 
-0.002094018263818168 
-0.0185005185366886 
0.01286908061946038 
0 
-0.01211940702639721 
-0.01935969917611548 
0.02661488437402097 
0 
0.01481128508174726 
-0.001778510796309425 
0.07312090160043019 
-0.01777084245959535 
0.0001492030513607597 
0.01175882457611884 
-0.00494450579776233 
0 
0 
-0.001523901509657282 
-0.02053710880218978 
-0.01968709004556606 
0 
0.01946055501419979 
0 
0 
0.01521918634203055 
0.03344861789809613 
-0.008023599828776942 
0 
-0.02356057991306752 
0 
0 
0 
0.004150381752216413 
0 
0 
0 
-0.0003151678661422454 
3.048768336693133e-05 
0.01838505850177978 
0 
0 
0 
0 
-0.02817341397046767 
0 
-0.013852833612938 
0 
-0.0003100308689711707 
0 
0 
0 
0 
-0.007875267846491261 
-0.0001731282235251898 
0 
-0.03286519074527622 
-0.02258046170152376 
0 
0 
0 
0 
-0.02119603428505283 
0.03988776996568105 
0.04985479669068162 
0 
0.03338541243091141 
0 
-0.04661308689996636 
0 
0 
0 
0.02528402621684735 
-0.01211130717725354 
0.03918542467244638 
0 
0 
-0.007237331807941894 
0 
0 
0 
-0.007693628222783335 
0 
0.002750919715822559 
0 
0 
0 
0 
-0.01482849268403851 
0.002172019795805042 
0 
-0.0185005185366886 
0 
0.01077791327878237 
0.02601369504378636 
0.0064093242341549 
0 
0.01740169652277571 
0 
-0.02319670902408272 
0 
0.003779652751859491 
0.01468751899354868 
0 
0.01265539624467127 
0.01740309637257009 
0 
0.002183650970695359 
-0.05371045304357028 
0 
0 
0 
0 
-0.0154772506525348 
0.04180300252192003 
-0.02364287447480923 
0 
0 
0 
-0.01432758322940682 
0.01252781981045208 
0 
0.01303762354488914 
-0.02588945906330506 
0.04730952116486524 
-0.01774418313664825 
-0.01959934055060149 
0 
-2.289919404734455e-06 
-0.00352579837418054 
-0.01900826138477859 
0 
0 
0 
0.001902571308392151 
-0.006834635933119974 
0.0002247759808052602 
0.009708580259370171 
0.05301817962841204 
-0.009524056750915926 
0.000108604769876022 
0.02325565294215715 
-0.01806626073729024 
-0.01345032590406494 
0 
-0.02804114660894857 
0 
0 
0 
0 
0 
0.01693827035550056 
0.008050286728142652 
0.0185005185366886 
-0.01983564047994533 
-0.00826481523232017 
0 
-0.01664173564581798 
0.03006352697619173 
-0.0169405109153153 
0 
-0.00213655346704823 
0.002884295780875039 
-0.03173773285600342 
0 
0 
0.009841747606417591 
-0.0185005185366886 
7.990171546146059e-05 
0 
-0.03777333464811744 
-0.01697608203217798 
0 
0 
-1.031680302449738e-05 
0 
0 
0.01909872831517656 
0 
0 
0 
0 
0 
4.604493622762534e-05 
-0.01454231924831233 
-0.01931591205536816 
0 
0 
-0.02014226491774081 
0 
0 
0.004767401185537586 
0 
-0.01122973255406638 
0 
0 
0.00600350143678752 
-0.008631948862201987 
0 
0.01615883813238667 
0 
0 
0.0210214062587854 
0 
0.02331924790157138 
0.02115554981452846 
0.01368193621033678 
-0.01986281225607948 
-0.01503479300361549 
0 
0 
0.02076805844317308 
0 
0.01648779343926905 
-0.00764137659593048 
0 
0 
0 
0 
0 
0.05857805376979692 
0 
0 
0.001932004910333688 
0 
0 
-0.0140428255398397 
-0.01190277962873807 
0.04305497981242751 
0 
0.002443694289105867 
0 
-0.01248303720769344 
0.02863022613878786 
0.005894338533511768 
-0.01075717729103192 
0 
0 
0 
0.0115094457199051 
0 
0 
-0.01706244595205572 
0 
-0.01502483955430348 
0 
-0.04045194908517295 
0 
-0.005281991822459013 
-0.01808353101905041 
-0.003193956599881433 
0 
0 
0 
-0.0120497408605059 
0 
0 
0.005286727683761679 
0.005480524643975766 
0 
0 
0 
0.003573319604839681 
0.02159071977130138 
-0.02457402700489229 
0 
-0.02050136036933761 
0.02451700917410355 
0.02522891864408716 
0 
-0.01324523045885163 
-0.02675372095797795 
0.05815222747204712 
0 
-0.0003307189477316141 
0 
0 
0 
-0.0025606987547277 
0 
0.04337943154104774 
0.01731624449426106 
-0.01263847415049301 
-0.01938102998575053 
-0.0014214360148875 
0.006075858648483852 
0 
-0.06351667718453048 
0 
0.00339366305943429 
-0.01627227085704884 
-0.01950549283473454 
0 
-0.01761924396478607 
0.02545227509657689 
0 
-0.000200308102814428 
0.002647000504485731 
0.05029600789799685 
0 
-0.03387972500775215 
0 
0 
0.02472337890091583 
-0.001931319589726051 
0 
0.01418020153077249 
0.0133704031897423 
0 
0.05604531596582698 
0 
0 
0.02024490320345717 
0 
-0.03349757226719303 
0.04364937614223997 
-0.03733657104469038 
0 
-0.02759829126257001 
0 
0.008697747671283174 
-0.01660167728637893 
0 
-0.00326225146784181 
0.01913220192738027 
0 
-0.01135232701916423 
0 
0 
0 
0.009349265596427401 
0 
0.008589623042186596 
0 
0 
0 
0.02921327240763387 
0.01459986673129359 
-0.01160806223981952 
-0.004430549838867196 
0.02339132710129622 
-0.0001379699726543388 
0.02636646428391747 
-0.0003696520661059992 
-0.02298383554571977 
-0.003201265199529916 
-0.01289128481902256 
-0.006839647177479136 
0 
-0.01168180227681186 
-0.02035856068057568 
0.004147390274667969 
0 
0 
0.004833904027787841 
0.008828341324078564 
-0.0217180474862055 
7.491759893632182e-05 
0 
-0.007461616497038795 
-0.01273200821742646 
0 
0 
0 
-0.0175904221167665 
-0.00949649413837278 
0 
0 
0.005216894583377714 
-0.003319486083532839 
0.04085828247229438 
0.001487462434700724 
0 
0 
0.01182861011050339 
0.02314021532711799 
-0.01554883774028243 
0 
0 
-0.01903437069630991 
-0.02585701552142609 
0 
0.0001711064489984406 
0 
0 
0.0161537695618682 
0.006313834488187992 
0 
0.01272201618716747 
0.03874217056854039 
0 
0 
0.0100816092511113 
0 
-0.01505315794333167 
0.01219933052837262 
0.03330025726974888 
-0.02235806678743398 
0.01787944914677124 
0 
0.0146585470418067 
0.02986828553048354 
0.007494517852074235 
-0.04121000309988749 
0 
0 
0 
-0.01578976544885892 
0.009584472125246732 
-0.01532492306590286 
0.0119841292477475 
0.03645598569101945 
0.004789746411270441 
0 
-0.0014034163462761 
0 
0 
-0.03343960248691148 
-0.01139834290954478 
0.01346976217430797 
-0.02597327428003925 
0 
8.441587337277114e-05 
-0.01384740546499027 
0.03304323105237428 
-0.0073371135016274 
0.02148269206172402 
0 
-0.01000717927425803 
0.03822523884453493 
0 
0 
5.773608024709843e-05 
0 
0.04613178639081116 
0.001404841526956387 
0 
0 
0 
0 
0 
-0.02744404903225156 
-0.01936565064923406 
0 
0 
0 
0 
0.01686868996784242 
-0.03111129952847435 
-0.01949986842493395 
0.01325051649099075 
0.0218433006075225 
0 
0 
0 
0 
0 
0 
0.01906556736274954 
0 
-0.005514271347233503 
0 
-0.07576332346935753 
0.08889567638399835 
0.01144423374735029 
0.03408146057033518 
-0.0942092002123821 
-0.006648284820855282 
-0.02721208281990077 
0.0145425441263638 
-0.02439902071795849 
0.00635541141700287 
0 
0.04865502887308086 
0.007940258598127357 
0.01280157259807563 
0.02378448221716511 
-0.001686951667344362 
0.002086291018880687 
0 
0 
0 
0 
0.0144385965128428 
-0.01278346868814506 
0 
0 
0 
0 
0 
0 
0 
-0.02593462099739803 
0 
0 
0 
-0.01464315679682415 
0 
0 
-0.02317746808307616 
0.01868731565964556 
0.0185005185366886 
-0.01078315916195457 
-0.01554646943698738 
0 
0 
0 
0.001289862410136611 
0.01254417232232808 
0 
-0.1294660276973542 
-0.01651292106934786 
0 
-0.01860966799364073 
0 
0 
0 
-0.02821035324686635 
0 
-0.01488888745438306 
0 
0 
0 
0.01708799260072593 
0 
0 
0 
0 
0 
0 
0 
-0.02157474305663885 
0 
-0.002935217544568124 
-0.01545017660255234 
-0.0185005185366886 
0.01298168784186451 
-0.01020769719703368 
0 
-0.01170389710656361 
0 
-0.0007032433647968478 
0 
5.406761310795203e-06 
0 
0 
0.009899597204560944 
0 
0 
0 
0 
-0.01187238614131743 
0 
0 
-0.017702475338332 
0.03074728908321979 
0.001172955427445626 
0.0311018891902382 
0 
0 
0 
0 
0.01893507341998345 
0 
-0.01448662729843941 
-0.01726862341642562 
0 
-0.01382916949765036 
-0.02112288823716993 
0 
-0.008377045104389871 
0.00211364387005588 
0.0005494170071200364 
0.0185005185366886 
0.005648239250350437 
0.002780208564787271 
0.03253794795065335 
0 
0 
0 
-0.02203232907015357 
0 
0 
0.02486931973165362 
0 
0.0185005185366886 
0.01506354994367804 
0 
0 
0.0209841955433906 
0 
0 
0 
0 
0 
-0.02209422498792212 
0 
0 
0.01121529416569185 
0 
0.03960822446904786 
0.01787412111903191 
0 
0.009646446469473281 
0.0002351841033886505 
0 
0 
-0.003883011085776807 
-0.01820577844567835 
-0.0132245432229923 
-0.01165123415551099 
0 
0 
0 
0 
0.0003700000877606398 
0.0185005185366886 
0.01884255009603314 
0.01270020634591357 
0 
0 
-0.003402179888278889 
0 
-0.008871823468791874 
0.0413420936689637 
-0.0001713257996579931 
0.001033913023643406 
-0.04842565480213763 
-0.004443440349835148 
-0.01041279443269223 
0.02004127440109005 
0 
0.005177558403672625 
0 
0.01147905411362526 
-0.01461867439049918 
0.03957528293962088 
-0.0185005185366886 
0.006184746172146704 
-0.03828573815977367 
-0.03809893852404731 
0 
-0.004385703133573421 
-0.01939104465485911 
-0.01286846696428862 
0 
0 
-0.01743118140111016 
0 
-0.02773805179970006 
0 
0 
0 
-0.02827276887173657 
0.01116385468254795 
-0.006975569154279571 
-0.04922245570956713 
-0.01515605475173694 
0 
-0.0185005185366886 
0 
0 
0 
0 
0 
0 
-0.04788971795274128 
0 
-0.008869508454509045 
0 
0 
-0.03184098405953542 
0 
-0.0185005185366886 
0 
0 
-0.003413068824239968 
0.0167491472635092 
-0.01214416157537656 
0 
0.00909980216062067 
0 
0 
0.06386289023229835 
0 
-0.01248470487877497 
0.02133810370383522 
0.01504306368363179 
0.04057359665598489 
0 
0 
0 
0 
-0.001157783040771885 
0.001917052197886552 
0.01196621547334219 
0 
0 
0 
0 
-0.04471795647298297 
-0.005446198894256181 
0 
0 
0 
-0.0105315241729098 
0.0001786706180826454 
0 
-0.008177774806710543 
0 
0 
0.01176907845442798 
0 
0 
0.002487412886984348 
-0.01448281274582913 
0 
0 
0 
0 
0.000142714638855737 
-0.01366073058109065 
0 
0 
0 
0 
0 
0 
0 
0.008039138661357052 
0 
-0.01816349141431485 
0 
0 
0 
0.0185005185366886 
0.007764398950926947 
0 
-0.009767500323710872 
-0.002813122783000188 
0 
0 
-0.01387782312604393 
0.05385148256136502 
0.03608842305120541 
0.0185005185366886 
0 
0.0251353764035921 
0 
0 
0 
-0.02181125088418567 
-0.01239726643369662 
0.01783434425302895 
-0.00874568689303731 
0.01122605132568035 
0 
-0.02557779429564026 
0 
0 
-0.03347727963773075 
-0.01653809207523802 
0 
0 
0 
-0.018207150392446 
0 
0 
0 
0 
0.01756015350279753 
0 
0.01675937401773209 
0 
0 
-0.081056376683002 
-0.004880076514333625 
0 
-0.007760397744722291 
0 
0.02652810584034692 
-0.01139912285792038 
0 
0.01818456071026254 
0 
-0.01604921744332936 
0 
0.001992706075120275 
-0.07679436948250658 
0.016990981509548 
0.01745517474297737 
0.0001507908261473708 
0 
-0.0003527360213755797 
0 
0 
-0.003263272019179129 
0 
0.01174048652514698 
0.03139467965771185 
0 
-0.003754688283956914 
-0.01357956464408559 
0 
0 
0 
-0.0004626384121459483 
0 
0 
0 
0 
0 
0 
0.01662756533272455 
0 
-0.01813575125869553 
0 
0.009595637187882243 
0 
0.008887223591752962 
-5.459041362129802e-05 
0 
0.008722100910108124 
0.07165426043395587 
0 
0.003106332683019388 
0 
0 
0 
0 
0 
-0.01614101350316293 
-0.002920492872026692 
0 
0.008139733959492799 
-1.131926935472456e-06 
0 
0 
-0.007019061118704483 
0 
0 
0 
0 
0 
0 
0.008090426900593278 
0.02214467636107697 
0 
-0.01641101122429063 
0 
-0.03008264150731938 
0 
-0.0003224623632330227 
-7.930858403801404e-05 
-0.000305154293089075 
0 
0.009500290438800294 
0.008842991572360374 
0 
0.008525960160912553 
0 
-0.0185005185366886 
0 
-0.05045611407939671 
0 
0 
0 
-0.01718936713346187 
0.004094646529554939 
0 
-0.01832107436855212 
0 
0.01684839658478881 
0 
0.01932177313974697 
0 
0 
-0.01376835144842789 
0 
0 
-0.01703263546990769 
0.01177845789409106 
0.01840284867394785 
0 
0 
0 
0 
0.02683312461858122 
0.1097116792380588 
-0.01893379073833553 
0.06199859307614978 
0 
-0.0185005185366886 
0.01438406844802453 
-0.006888066865037651 
0.01891531504086199 
0.002631920848238479 
0 
0.03689770761369156 
0 
0.02510830434232982 
0 
0 
0.0004370367483433402 
0.001553251318320767 
0 
-0.02507489215472795 
0 
0 
0 
0 
0 
0 
0.01248785686322601 
0.0005795109314475013 
0.0185005185366886 
0 
0.03039584240910447 
0 
0.01304717956151555 
0 
0 
0.02795642015028497 
-0.01419884931758833 
0 
0 
0 
0 
-0.0001378363098081073 
0 
-0.01394587799723746 
-0.0227326387371898 
0 
-0.03749658761980969 
0 
0 
0.01787944914677124 
0 
0 
-0.003431935251908913 
0 
-0.009801889228885842 
0 
-0.01287567914827392 
-0.002900659812865531 
0.008948977701671626 
0 
-0.004947449011400034 
0.0193088507038524 
0.00941089252944291 
0 
0 
0 
0.01762295520355846 
0 
-0.007946353484125869 
0 
0 
0.02209539756230065 
0 
0 
-0.0185005185366886 
0 
0 
0.01278658971730748 
0 
0 
0 
0 
-0.02560020031039671 
0 
0 
0 
0 
0.1019166905294393 
-0.002754092276698134 
-0.00687495008129116 
0 
0.01436545746034507 
0 
0 
0 
0.0048860041333508 
0 
-0.0155951966152178 
0 
-0.03272481844941842 
0.004039453125237387 
0 
0.03477577107787608 
0 
0 
0 
0.01932630290112971 
0 
0 
-0.005559309356509719 
-0.01853669861402425 
0 
0.03554687969839683 
-0.01694935454692665 
0 
0 
0 
-0.004087507090934582 
-0.001583740852202529 
0.004813115949411775 
0 
0 
-0.006554284939536631 
0 
-0.05636930530248099 
0.01475885471872762 
-0.01650436100545195 
0 
0 
-0.01398007238012088 
0 
0.01168311654170861 
-0.02411836752136882 
-0.01255548720514877 
0 
0 
0.0185005185366886 
0 
3.818259725458279e-05 
0.0172190224435482 
0 
0 
0 
0 
0.003881028413464659 
-0.03862106439030699 
0.003005743819339319 
-0.02309863374129646 
0 
-0.0185005185366886 
0 
0.0138662790189124 
0 
0 
0 
-0.02139993303047502 
0 
0 
-0.0001085144145878814 
-0.01118144995456499 
-0.009080185833483485 
0 
0.03070207051270951 
0.008936981751117559 
-0.005005310031258327 
0 
0 
-7.614942873755822e-05 
0 
0.001102330490710632 
0 
0.01730543849288982 
0 
-6.008162863557916e-05 
0.0002959028011398703 
0 
0 
0 
-0.005211030644356356 
-0.004782301902915439 
0 
-0.002682317721058179 
-0.02679789960487692 
0 
0.01808157353265149 
0.05192143439220092 
0 
0 
0 
0.00374223974669541 
0 
0 
-0.01215315521928099 
0.01686623839097962 
-0.00111719434362504 
0.008073305435989945 
0.02302096469325632 
-0.01767473417224749 
0 
0 
0 
0 
-0.01427742148202996 
0.004757397209114036 
0 
0 
-0.01799298954646283 
0 
0 
0.01491305831440505 
-0.02284869129363328 
0 
0.04413000319771614 
0.02110339278758461 
0 
-0.02414244173267814 
0 
0.008902665098335188 
0 
-0.01215099326489573 
0 
0 
-0.0001817166591387894 
0 
0.01963264502627611 
6.598204194570558e-05 
0 
-0.001934115365370789 
0 
0 
-0.02151504053492093 
0.007550369592022608 
-0.02111624713288847 
-0.01841248614402025 
-0.0003311189072000964 
0.009683372580896269 
0 
0 
0 
-0.009247180542860034 
0.01990638786465318 
0.003312996409854868 
-1.167331804874653e-05 
0 
-0.0001483158289147924 
0.01764195711021711 
-0.05004953058637933 
0 
-0.02576774506964145 
0 
0 
0 
0 
0 
0 
0 
0 
0 
-0.01728819390189632 
0 
-0.0185005185366886 
-0.0185005185366886 
0.01338138933380095 
0 
0.02616055643344764 
0 
0 
0.01667528679353721 
0 
0 
0 
-0.002115266001360624 
-0.001431202388411808 
0 
0 
0.03374304468507965 
0 
0 
0 
0 
0 
0 
0 
0 
0.01234477726486604 
0 
-0.003459678746706529 
0 
0 
0 
0 
0 
0.01595085655485346 
0 
0.01146830427672545 
0 
-0.0185005185366886 
0 
0.006566638618951431 
0.01888519553590569 
0 
-0.0006507867166476136 
0.01533763304210627 
0 
0.006295088534961356 
0 
0 
0.004804508387638583 
0 
0 
0 
0 
0 
-0.01697521454163535 
-0.01427054689631847 
0.04709826766778321 
0 
0 
0 
0.04211403087350425 
0.02188114430397087 
0.03880908536927129 
-0.01785923581348725 
-0.01041700961088422 
0 
-0.01320254198500753 
-0.01976616837386145 
0 
-0.030288191045764 
0 
0 
-0.04864111902744022 
0.04584573791630727 
0.0001190843225022622 
0 
0 
-0.02510602428194958 
0 
0 
-0.02137285160512463 
0 
0 
-0.004708811349443121 
0.01213920550860278 
0 
0 
0.007309669502258451 
0.0185005185366886 
0 
0.01949363958569213 
-0.005825182401235428 
0 
0 
0 
-0.04073550791243363 
0 
0 
0.012999449271695 
0.002281967329382467 
0.003685406517314238 
0 
0 
0 
0 
0 
0 
0.004478758010945998 
0 
0 
0 
0.01960272029331872 
0.0185005185366886 
-0.03926607853213588 
0.02789617758127606 
0.02094772852279775 
0.01376752396817019 
-0.001859087854753405 
0 
0 
-0.0187745687764448 
-0.007077137624555853 
0 
0 
-3.723656385800748e-05 
0 
0 
-0.01913579411321429 
0 
-0.01999100018222922 
-7.548990201357197e-05 
0 
0 
0 
0 
0 
0.02928849667349136 
0 
0 
0.008149525621379551 
0 
0 
0.0185005185366886 
0 
0.0005141696896056522 
0.06693152338770776 
0 
0 
-0.008665255846464095 
-0.0208862648321827 
0 
0 
-0.008907450883803795 
0 
0.007116737790098962 
-0.01150359273244043 
-0.0005928094820969339 
-0.03813879832337367 
0 
-0.003367490855284466 
0.02121033519811862 
0 
8.8726758971356e-05 
0 
-0.09307833161742995 
0.007184245781105545 
-0.0006554855408833977 
0.0220891511671092 
0.01908967562544698 
0 
0.02102213531001801 
0 
0 
0.01931677060398046 
0 
0 
0 
-0.01993293080954573 
0 
0 
-0.001130030795424864 
-0.002681582359343809 
0 
-0.009528380266121338 
0 
-0.003271499969713353 
-0.003740682266361678 
0 
0.001097579237299941 
0 
0 
0.008786697827429454 
-0.01175335029680119 
-0.0137170510583453 
0 
0 
0 
0 
-0.02005825936844301 
0.02808956546555488 
-0.07825897090850682 
0 
-0.06817708447598442 
0 
0 
-0.03628072855667969 
0 
-0.02900651146581067 
0 
0.03484117118000629 
0 
-0.01487071706547723 
-0.01668431289705215 
0 
0 
-9.222873047029756e-05 
0 
-0.005102706809550579 
-0.006313044670848694 
0 
0 
0 
0 
-0.01446364870506927 
0 
0 
-0.009744397325013889 
0 
-0.01943878311033924 
0.01333623162408341 
0.01207414455477234 
0.03208226669049509 
0 
-0.001961943323073967 
0 
0 
-0.002345279962968188 
0 
0.01784058289528593 
-0.02093721575920983 
0 
0.02479200757715281 
0 
0.06277782511167757 
-0.01530701376612928 
0 
0 
-0.01002045526981833 
0.005440296009599379 
-0.008782789090250829 
0 
-0.01089500981065145 
0 
0.00606060692045282 
0.006741562177131837 
-0.002589589261044736 
0.004988684471010179 
-0.007005195592325365 
0 
0 
-0.0006400095112661362 
-0.01515605475173694 
0 
0 
-8.858363837514765e-05 
0.03649180253393938 
0.0001601389740562619 
0.06319822134139468 
0 
0 
0 
0 
0 
0.01741728049737268 
0.05589966562306464 
0 
-0.01985799692807219 
-0.04218623889014784 
0 
-0.01986928202404415 
-0.0008337550284774594 
0 
0 
0 
0.03865790927531529 
0 
0.01732188175268103 
0 
-0.02581077768080226 
-0.0004437475664916856 
7.370003356679382e-05 
0 
-0.02597618524546058 
-0.01594350006499008 
0 
0 
0 
0.00268052458491798 
0 
0.014002500643557 
-0.0185005185366886 
0.01309896084004818 
0.01821978612566026 
0.002195706796573164 
0 
-0.03407288275342898 
-0.01201573085075589 
0 
0 
0 
0 
0 
-0.04604138352721696 
0.0002025448812452188 
0.01529864834841975 
0 
0 
0.01836814560665162 
-0.01767473417224749 
-0.005497110901908355 
-0.04341139299669965 
0.003411932756818907 
-0.008140147745184515 
0 
0 
0 
-0.02292429649847599 
-0.0131664359927591 
0 
0 
0.02417027501546749 
0 
0.01011078339095041 
0 
-0.02183581974277239 
-0.02316894973913208 
0 
-0.01371103171071556 
0 
0 
0.009337401992605241 
-0.03380070432275865 
-0.02234544330043565 
0.03136066583617883 
0 
0 
0 
0.007056413485231558 
-0.02190205505281912 
0.0205210361484257 
0.007394893593340592 
0 
-0.006686497526374405 
0.00388615709485484 
0 
-7.796007039388726e-06 
0 
0 
0 
-0.01328383328675268 
0 
-0.0007601775691096279 
-0.004241131782651881 
-0.01734387782771924 
0 
0 
0.01628612140132498 
0.02116064329026137 
0.007508312481313619 
0 
0.004273650211040486 
0.008627140267988834 
-0.03536299025155873 
0 
0.07844265385944119 
0 
-0.1055353592976648 
0.01482891435547681 
0.02564604520582975 
0 
0.02190797739418155 
0.007731112564441531 
-0.07223787979320485 
-0.02084500646334981 
0 
0.01339032725441084 
0 
0.0198097153997182 
0 
0 
0 
-0.01606275835781669 
0.03169682964889203 
0 
0 
-0.0004140473315260987 
0 
0 
-0.009238771132447837 
0.06531886598665933 
0 
0.0104233550597549 
0 
-0.001017685930475391 
0.01044254191856016 
-0.02692075446219023 
3.180435631553107e-05 
0.01594971975886024 
-0.01096117531181209 
0.0298261166288101 
0.01179232189020999 
0 
0 
0 
-0.02489191474592532 
0.02070028420993185 
-0.01392492450607852 
-0.01515605475173694 
-0.01277070906592521 
0.01231140587452511 
0 
0.0120519656645715 
0 
0.009586707618454489 
0 
0 
0.02329178181914743 
0 
0 
0.005866765846096921 
0 
-0.01884473465802681 
0 
0.004256531145367182 
0 
0 
-0.01873985245861043 
0 
0 
0 
0.006830100602262345 
-0.01647406672758185 
-0.00384031878363135 
0 
0 
-6.909137250527122e-05 
-0.004127849598438454 
0 
-0.01787944914677124 
0 
0 
0.0185005185366886 
0 
0.01779245442354221 
-0.007348454808557483 
-0.01253848856585272 
0.01599070534612984 
-0.02951250728394499 
0 
-0.008617406674599029 
0 
0.002673038350064528 
-0.03580357891252104 
-0.01678780127873348 
0 
0 
0 
-0.009242605625289934 
0.0258084739563957 
0 
0 
0.01169987579205932 
-0.001158757947464737 
-0.01951830675024072 
0 
-0.01454810686076581 
-0.002786052503048377 
0.004495079728013733 
-0.02058605855534494 
0 
0 
0 
0 
0 
0 
0 
-0.01512486314046943 
0.08252450815860841 
-0.04282356476337242 
0 
0.02484982809593018 
0 
0.01025743757822656 
0 
-0.050087813074631 
0 
0.005531499841677111 
6.776874684706044e-05 
0 
0 
0.06290810748143627 
0 
0 
0 
0 
-0.0105414077140059 
0.01515605475173694 
0 
-0.02114024894282718 
0 
-0.01573496286937114 
0.01963270898204392 
-0.005428742348776991 
-0.0185005185366886 
-0.02966722012057691 
0 
-0.01455424046523906 
-0.02640897449595817 
0.011441964440645 
-0.01644088643705535 
0 
-0.02127903720442308 
-0.02531722209076281 
-0.006388246785729357 
-0.04757618878575447 
-0.02674702586682156 
-0.01116561636396785 
0 
0 
-0.01065137613080842 
0 
0 
-0.03999649800885678 
-0.01426897016532368 
0 
0 
0 
0 
0 
0.02077492983716347 
-0.01985113450999599 
0 
0 
0 
0 
0 
0.02997928234886921 
-0.01463418991345468 
-0.101603823677533 
-0.0185005185366886 
-0.01739747454064298 
0 
0 
0 
-0.0001699622069045672 
-0.02547767179005056 
-0.01742477525162081 
0 
0.003923696455084402 
2.315120910615791e-05 
-0.004933406161994027 
0 
0 
0 
0.01339416744541226 
-0.0002216242473763846 
0 
0 
0.0002034141969253893 
-0.0007554296640560138 
-0.01002704752410582 
0.006638422651882112 
-0.02475682173094645 
0.01745957960808692 
0 
-0.01241451075398271 
0.01301953446142046 
0.02184999440791879 
0 
-0.009974426665420059 
-0.02296260862257686 
0 
-0.01628169718866458 
0 
0.01011698537743154 
0.014496380224526 
0.01844332717776992 
0 
0 
0.0185002214527921 
0 
-0.01202601846425349 
0 
0 
-0.04958116081855785 
-0.006078890075706288 
0 
-0.01270733256631277 
-0.0005756712140420595 
0 
0 
0 
-0.05387983296209708 
-0.01204058929840829 
0 
0 
-0.01965308583260044 
0.01606413620580799 
0 
0 
0 
0 
0 
0 
-0.03427661832696759 
0 
0 
0.01499969178549052 
0 
0.007738214312550652 
0 
-0.02182830658914058 
0 
0 
-0.01777286228188938 
0.116314242549693 
0 
0 
0 
-0.01726678654316382 
-0.001401467684977727 
0 
0 
-0.006995319741103958 
0 
0 
0 
0.01951736302150141 
0 
0.006159918888477634 
0 
-0.02110074578415977 
0 
-0.01328119064147898 
0.001215477205367041 
0 
-0.009984191870194455 
-0.02223117327610787 
0 
0 
0.0185005185366886 
-0.01485904956793311 
-0.02236821104061252 
-0.001657087175483787 
0 
0.0185005185366886 
0 
0 
-0.01425163091579112 
0 
0.01515605475173694 
0 
0 
-0.01465375667892342 
0.01752571328589727 
0.02205355904081849 
0 
0.01586858630659065 
-0.02143313296394014 
0 
0.05105575039599289 
0 
0.04875081359885435 
0 
0.01959998359487158 
-0.01156975887636151 
0 
0.0067855912570417 
2.93407490170387e-05 
0 
-0.01208299734005268 
0 
0 
-0.01827851810201033 
0.01789191091540732 
0 
-0.01324035645276018 
3.005154478206987e-05 
0.006303377691207975 
-0.005578146514527585 
0 
-0.006396151460165304 
0.027439179812142 
0 
0 
0 
-0.02968165224361817 
0 
-0.01476711615122626 
0 
0 
0 
-0.03513877905150157 
0.009319866264221087 
0 
0 
-0.01736198314241951 
0 
0 
0.006867668631933306 
0 
0 
-0.008174873549252174 
0 
0.000123730024544793 
-0.02318463447723092 
-0.01649356111321314 
0.01932630290112971 
0.02157701929763337 
0 
0.0104315697017353 
0 
0 
0 
-0.02136862893087197 
0.0006490424291079246 
0 
-0.01365879616305884 
1.891724570225032e-05 
0.003423548535366879 
0 
0 
-0.01967040158437867 
0.03477039699975958 
0.03833854689021284 
0.02195800259528326 
0.03180064002091509 
0 
-0.0004683476950993191 
-0.0185005185366886 
0 
0 
0 
-0.005431701613857224 
0.009217467250906296 
0 
0 
0.02497685064929725 
-6.012821694540191e-06 
0.01144702250369181 
0.0001461894594149647 
0 
0 
-0.01289077639767465 
0 
0 
0.0904470838496812 
0 
0 
0 
-0.00832686442033867 
0 
0 
-0.01064960645680809 
0 
0 
0.01630364731607534 
0.01413751867716039 
0.01246987491772799 
0 
0.0173265049301263 
-0.03349044608618516 
-0.0001576893157450447 
0 
0 
0.002159608775381637 
0.0190599372608631 
-0.006181717969800745 
0.01957437699717021 
-0.003661223498155956 
0 
0 
0 
0.01172357416684543 
0.01144309985194648 
0 
0.01618846862993643 
0 
-0.0004096568946129215 
0.02775657123496097 
0 
0 
-0.00963694030141601 
-0.01999228510983179 
0 
0.02878782837131222 
0.0185005185366886 
0.01544635115603879 
0 
-0.01956907004663637 
0.009882330474110542 
0 
0 
0 
0 
0 
0 
0 
0.03015370937323594 
0 
-0.008758858484795535 
0.01774969066053278 
0 
0.01826484719141464 
-1.632362921146999e-05 
0 
0 
0 
0.02021584527063365 
0 
0.02425806202753453 
0.01978463763623476 
0.03005704601196121 
0.01365656015008796 
-0.01449507415384533 
-0.03115625040183643 
0 
0 
-0.0235136808291997 
-0.01417417737739619 
0 
-0.0185005185366886 
0 
0 
0 
-0.000196608257782594 
0.004731472058465425 
0 
0.0183295616920673 
0 
0 
0.04657130142607132 
-0.01969995139294684 
0 
0 
-0.01148667761613303 
-0.03836642359280167 
0 
0 
0 
0.01893507341998345 
0 
0 
0 
0 
0 
0 
-0.02059141006992896 
0 
0.00778279828544494 
-0.03503755299087254 
-0.005800575194846672 
0 
0.001948158890068336 
0 
0 
2.667874124759219e-05 
0 
-2.044638523043041e-05 
0.0002116459871057022 
0 
0 
0.0180611880961269 
0.007668203074839114 
0.01684494688405046 
0 
0 
0.0001303820330122669 
0.006080495235726945 
0 
0 
0.09288085835844706 
0 
0 
0 
-0.003886014783276477 
0 
0 
0 
0 
0 
0 
0.01577232094053087 
0.01592306563260583 
-0.04519029600341351 
6.521343024645711e-05 
0 
0.0281791518526123 
0 
-0.0130304631649537 
-0.01671053520665504 
0.04993349093411205 
0.01485090145403304 
0 
0 
0 
0.0298261166288101 
-0.0001584570770783747 
0 
0.07715694798403246 
0.01096629481896891 
0 
-3.152386623449511e-05 
0 
0 
0.02371558945675466 
0 
