solver_type L2R_L2LOSS_SVC
nr_class 2
label 1 0
nr_feature 79548
bias -1
w
0 
0 
0 
5.796009714344999e-05 
0 
0.0182151901295289 
-0.02284002338698619 
-0.009159092465572746 
0 
0.009884611906562375 
0 
0 
0.00171933095662921 
0.05269353934903544 
-0.01126056359970569 
0 
0.001145290092099099 
-0.01336847173437144 
-0.02502233083903741 
0.008391954165125622 
0.0137762118710127 
0 
0 
0.05252967989706227 
-0.012177965894602 
0 
1.733761195456485e-05 
0 
-0.02324819746159772 
-0.004781442288707216 
0 
-0.05412875644512725 
6.716846810507073e-05 
-0.01003496627614244 
0.01161797470144808 
-0.008852997651020097 
2.423457797969805e-05 
-0.0002903234276953156 
-0.02155272881796206 
0.01013775071266062 
0.01727402539651753 
-0.02364474182981095 
0 
-0.02326209036456686 
0 
0.02403832981268525 
8.596366638524504e-05 
0 
0 
0 
0 
0 
-0.02148380708641235 
0 
-0.005620645783378855 
0 
0 
0 
0 
0.01574068416938228 
-0.0306334854508469 
-0.02700503418469303 
0.01505228740809011 
0 
0.0009631803749312006 
0 
0 
0 
0 
0 
-0.01819068439977908 
0 
0 
0 
1.73105158377377e-05 
-0.007350098278791009 
0 
0 
0.01849094635521853 
0 
0.01761221063278428 
0.01544597677780005 
0 
0 
0.01562189656284233 
0.02420399968106414 
0 
0 
0 
-0.01556224447654613 
0.02100639405686999 
0.01949235362206442 
0 
0 
0 
0 
-0.02749621263737289 
6.888956684846282e-05 
0 
0 
-0.02922061706822822 
0 
0.01649076385990117 
-0.007195622384110272 
-0.00252865748075198 
0 
0 
-0.003136230155481091 
0 
0.008442321270850034 
0 
0 
0 
0 
0 
0 
-0.0140944429336996 
0 
0 
0 
0.01849094635521853 
0 
0.02237828009825628 
0.0006179585858732918 
0 
0 
0 
0 
0 
0 
0.003934844675693563 
0 
-0.008864939549373849 
0 
0 
0 
0 
0 
9.500450227525864e-05 
0 
0.02825452098457788 
0.0175816431045496 
0 
0 
0 
0 
0 
0 
0 
0 
0 
0 
0.01849094635521853 
-0.02107779937647252 
0 
0 
0 
0 
-0.01281112629936258 
0.01891092553830358 
0 
0.02866442013950616 
0 
0 
-0.007932931245337305 
-0.02733886270805696 
0 
0 
0.01222827870098281 
0 
0.005724866029850088 
0 
-0.006914467585414918 
-0.01177105619336466 
0.004544528647905263 
0.06637892664107979 
0 
0 
0 
0.006265682910145159 
0 
0 
0.07590893468399212 
-0.01456203355490685 
0.006220120121554017 
0 
0 
0 
-0.02294718370923313 
0 
-0.008790040065329794 
0.01498814406567117 
0.01635736072495572 
0 
0.02622683952925454 
0 
-0.0455190828109653 
0 
-0.004706897449348164 
0.006598463444073219 
-0.03008754811368032 
0 
0 
-0.01619401309084885 
-0.02490156979558412 
0 
0.0007499979248655583 
0.01853378021895213 
0 
0 
0.01000708875238635 
0 
0 
0.01849094635521853 
0 
0.01595355954844103 
0 
0.006578535313940779 
0.005391157024927351 
0 
-0.02886326309584396 
0 
-0.02034325162778167 
0.0003875132112376852 
-0.001683052122265433 
-0.02457840364021031 
0 
0 
0 
0 
0.01589245491832224 
-0.01141496607427695 
0 
-0.01135323814676687 
0 
0 
0.02044403834802295 
0 
0 
0 
0.02017921788810368 
0.00131054626495453 
0 
0 
0 
0 
0 
0 
0 
0.00432315198627306 
0 
0 
-0.01802400937855659 
0 
0 
-0.02416827764499062 
0 
0 
0 
0 
0.01144433846492256 
-0.02118878474313238 
0 
0 
0.008184550423886624 
0 
0 
0 
0 
0 
-0.01606209643851719 
0 
0 
0 
0 
0 
0.008785120430022881 
0 
0 
0.0003130894884108275 
-0.04473478297401531 
0.01769962749869777 
-0.0259472963713502 
0 
0.01280410243719099 
0 
0 
0 
-0.004064094833286532 
0 
7.377254590135762e-05 
0 
0 
-0.02120508789539444 
0 
0.0003676273925968022 
0 
0 
-0.01849094635521853 
0.003188479292412156 
0 
0 
-0.00291353071039764 
0 
0 
0 
0.02152599868144848 
5.730334607656468e-05 
-0.02303410783399753 
0 
0 
-0.04796029643699416 
-0.06986607428798658 
0 
-0.008983295995277803 
0 
-0.02955131161819363 
0.006247933559735086 
0 
0 
0.01849094635521853 
0 
0 
0 
0.03174595885812512 
0 
0 
-0.03138946739530154 
0.01470476281211328 
-0.01849094635521853 
0 
0 
0 
0 
0.001451200486681362 
-0.01849094635521853 
0 
0 
0 
-0.03194729498206125 
0 
0 
0 
-0.01382292897090388 
0 
0.009808824380313091 
0 
0 
-0.000454220422259609 
0 
0.02282153146868928 
0 
0 
-0.0004924645038184808 
-0.02010091713638844 
0.0150895289087286 
-0.01899683244385469 
0 
0.003327079352853772 
0.07067437300880403 
0 
0 
0.008880663338689313 
0 
0 
0 
-0.008181601269614357 
0 
-0.01556634429176669 
0.007812966612594301 
0 
0 
0 
-0.05361357570995257 
-0.02510334615344911 
0 
0 
0 
-0.01277200759521146 
0 
0 
0 
0 
-0.01477007222108224 
0 
0.002465094404546812 
0.01500330617207118 
-0.01521612756160796 
0 
0 
0 
-0.01323154471778953 
0.01434057700817049 
-0.01145237110512311 
0 
0.01583707765983177 
-0.001820052091052418 
0.01849094635521853 
0 
0 
0 
0 
0 
0 
0.01064477357993317 
0 
0 
-0.02871217123211393 
0 
0 
0 
0 
3.056761203181612e-05 
0 
-0.03141915644822894 
0 
0.009690688989734289 
0 
0.0004450860329851966 
0 
-0.00562944041405432 
0 
0.006241298189419939 
0 
0.005863302945784029 
-0.00617053645172304 
0 
0 
0 
0 
0 
-0.02288239722773885 
0 
0 
-0.01794406067970323 
0 
0 
0 
-0.002065757684280143 
0 
-0.0227184788574294 
-0.00183943626272084 
0 
0 
-0.01705158746034142 
0.02843489878711408 
0.01839475118961267 
0.002102393828925973 
0 
0 
0.008982867237550443 
0 
0 
0 
0.01849094635521853 
0.02354363225427111 
0 
0 
0.01849094635521853 
0 
0 
0 
-0.02692540879109014 
0.05133600130921474 
0.02784189667271702 
0 
0 
-0.04526255063971685 
0 
0 
0 
0 
0 
-0.003608864607785688 
0 
0.01748757297499019 
0 
0 
0 
-0.01435474580316937 
0 
-0.0126589506897086 
0 
-0.04718662680787365 
0 
0.01849094635521853 
0.01732091852508122 
-0.006396547914843933 
0 
0 
0 
0 
0 
0 
0 
0 
0 
-0.05521699447801343 
0.003747837234313893 
-0.009777673143820402 
0 
0 
0 
-0.0009250827343392208 
0 
-0.002262285526821669 
0 
-0.01780071573722933 
0 
0 
0.001887780473649424 
0 
-0.007748916435101415 
-0.02438787889153649 
0 
-0.0009648819771985172 
0 
-2.32442770071781e-05 
0 
0 
-0.02086280377752111 
-2.292933615949695e-05 
0 
0.02711767668857651 
0.02126334356600299 
0.01582065453964581 
-0.01510985246428403 
0 
0 
-0.03488451771283237 
0 
0 
-0.002005320091110832 
0.001544786339859753 
0 
0 
-0.01805059512122287 
0 
0 
-0.008918565073433816 
-0.01649963544251393 
0.009445954977485587 
0.01199611344057549 
0 
0.006659946898242263 
0.01470060334102479 
0 
-0.002771146895924489 
0 
-0.01503967847515836 
0 
0 
0.01994525539357493 
0.01176671995947285 
0 
-0.03087039033371847 
-0.03076312648586262 
0 
0.003912480413051374 
0 
-0.01968657079747381 
0 
-0.01140567316761088 
0 
0 
0.0001147574309713077 
-0.0003790884993772395 
0 
0 
-0.02863323976711041 
0 
-0.04786496293408456 
0 
0.01471306113881158 
0.001426533321577109 
-0.01521612756160796 
-0.02211856198806405 
0 
-0.003374947060867124 
-0.01623474409193598 
0 
0 
0 
0 
0 
0 
0.007638912427251588 
0 
-0.0009258820137224241 
0 
0 
-0.01784880938659722 
0 
0 
0 
0 
0 
0 
-0.004429300102633775 
0 
0.02592920851699884 
0 
1.674249038330165e-05 
0.01834786770612884 
0 
0.01307126183571157 
0 
0 
0 
-0.01423609666056225 
-0.04164604205126235 
0.004080370729992928 
0 
-0.02500547224476322 
0 
0 
0 
0.009536775440438763 
0 
0 
0 
0 
-0.0001517179698033067 
0 
0 
-0.01849094635521853 
0 
0.01849094635521853 
0 
0 
0 
-1.604088928107908e-05 
0 
0.0184586764062576 
0 
-0.009580929382030987 
0 
0 
-0.02057109578604042 
0.01537250020962317 
0.01796506417952195 
0 
0.02127040082274166 
0 
-0.01014330222468678 
0 
0 
0 
0 
0.01803357254711241 
0.02052244365169129 
-0.02343367842841249 
0.009955156816334639 
0.01129991341720311 
0 
0 
0 
0 
0 
0 
0 
-0.03951923611610947 
0.01353047726049411 
0 
-0.02695792893510852 
3.725191518369757e-05 
0 
0 
-0.02680697770421474 
0 
0 
0 
0 
-0.04437042335397097 
0 
0 
0.04988438791520626 
0 
0 
-4.922128814380117e-05 
0 
3.722122679886566e-05 
0 
0 
0.01712002651614374 
-0.009211823578886429 
0 
0 
0.01785874381427803 
-0.03848033353950251 
-0.008943931510092153 
0 
0 
0 
0 
0 
-0.02521246781597853 
0 
-0.01074355963056473 
-0.03934777045848857 
0.04441810371075511 
0.007071139326520922 
-0.01416299983542966 
-0.01218019271290879 
-0.005020860189559394 
-0.05279687994341731 
0 
0 
0 
-0.01983796746288104 
0 
-0.0183801680268728 
0 
0 
0 
0 
0 
0 
-0.01215715956353917 
0.008654162735916938 
0 
0 
0 
0 
0.01932058623419853 
0 
-0.005938514716696739 
-0.01662927424968647 
0.01078644856266578 
0.01515118401777867 
0 
0.0246817670663641 
0 
4.447741872141081e-06 
0 
0.01175960210390146 
0 
0 
0.01248300277341596 
0 
0.01849094635521853 
7.730988713676256e-05 
0 
0 
0.0005603318239732543 
0 
0 
0 
0 
0 
0 
0 
0 
0 
0 
-4.808791482772425e-05 
0 
0.02521881499440041 
-0.003850761600198655 
-0.01849094635521853 
-0.04216030834934621 
0 
0 
-0.02767147869592312 
-6.235514027234311e-05 
0 
-0.04885334646726389 
0 
0 
-0.02660821661359626 
0 
0 
0.02213372272161509 
0.0369378706624134 
0 
0.004318106327828993 
0 
0.01518112047808518 
0 
-4.819807879845317e-05 
-0.0006703189150584288 
0.05965111295922265 
-0.01347003660527707 
0 
0.01660319151443832 
0 
-0.01016916385120287 
-0.01443082378109643 
0 
0 
0 
0.02517576618138096 
0 
-0.02754641731576642 
0.02267104993796751 
0 
0 
0.03540604194399815 
0 
0 
0 
-0.001055462062215092 
0 
0 
0 
0 
0 
0 
0.01120614275125855 
0 
0 
0 
0.002310230529280201 
-0.01296757009392824 
0.01682744895984848 
0 
0 
0 
0 
-0.02588853621066339 
-0.00679895434170088 
-0.01574831653297702 
0.02650863311207655 
3.4111924124176e-05 
0 
0 
0 
0 
0.01422417820753969 
0 
-0.01849094635521853 
0 
-0.01418449010739947 
0 
0 
0 
0 
0.01400345636852451 
0 
0 
0 
0 
0 
0.0008579723046251873 
-0.01288545565491753 
0.0004757604867823685 
0 
0 
0 
0 
-0.01232989785727953 
0 
0 
0.003049434319723526 
0 
0 
0 
0 
0 
-0.03014562222427896 
0 
0 
0 
0 
0 
0 
0 
0 
0 
0.05393804138819102 
0 
0 
0 
0 
-0.00369110814073737 
0 
0 
0 
0.02338152234742613 
0.01018590254996509 
0 
0 
-0.007670803642793427 
-0.01131245298212991 
0 
0.02090808386358664 
0 
0 
0.02175333416883752 
0 
0.03194224004739125 
0 
0 
-0.02319552588779973 
0.04104630817143161 
0.01666715470341579 
0 
0 
0 
0.005518614186976608 
0.004549942727836954 
0 
1.345492693098182e-05 
0.01277521358218679 
-0.04849346734055104 
0 
0 
0 
0.009551982731734545 
0.0163460608160443 
0 
0 
0 
-0.02363292920851651 
0 
0 
0.01320772774974812 
-1.907823396711233e-05 
0 
0 
0 
0 
-0.02979106898339413 
0 
0.04422959220114901 
0.01486818533621019 
0 
0 
0 
0 
0.0069074025803376 
-0.008843393242101689 
0.01158338873945842 
0 
0 
-0.08220734490888111 
0 
0.002870743829101673 
0 
-0.02069852429716622 
0 
-0.01849094635521853 
-0.003949084924210465 
0.01078609817575908 
-0.003401446348328284 
0 
-0.0005517368848595143 
0 
-0.01849094635521853 
0 
0 
0 
0.01825472691798086 
0.04453042579849992 
0 
0 
0 
0 
0 
0 
0 
0 
0 
0.02156588627122535 
0 
0.008645100581873115 
0 
0 
0.002494519522287882 
0.02868901409035331 
0.01500659633407318 
-0.01734584919538451 
-0.04456893476148651 
-0.03030133647953212 
0.01198683204054991 
-0.02525365444053574 
0 
0.01256784172350632 
0 
0 
0 
0.0178677185727866 
-0.03991035134441005 
-0.02044098966989312 
0.009405469302169019 
0 
0 
-0.01440038199844803 
0 
0.007455128136210681 
0 
0 
0 
0 
0 
0 
0 
0.02178000963738053 
0 
0 
0 
0 
0 
0 
0 
0.04154625384226641 
0 
0.0848093294717655 
0.03554134846006594 
0.01809616509881237 
0 
-0.00579719663399697 
0.01897133054242942 
-0.005076079772521348 
0 
-0.009056341789829236 
0 
0 
0 
-0.02626522916290876 
0 
-0.0003409249069122127 
-0.0005574619228700317 
-0.01834132467876344 
0.01376679334844095 
0.001744197522212775 
0.01852905620777971 
0.003680941533211882 
-0.02981530409920375 
0 
0 
0 
0.01136108668452944 
0 
0 
-0.01157369460992662 
0 
-0.01848179905762542 
0 
0.004897549932800457 
0 
0 
0.0148631401647342 
0 
0.05500599204241444 
0.02852067854307619 
-0.0001570657497491374 
0.01000460950583159 
0 
-0.02145010406952527 
0.02318029673004519 
-0.007818487931428586 
0 
-0.002985493080267217 
-0.0003562215893129388 
0 
0 
0 
0 
0 
0 
0 
0 
0 
0 
-0.01869084309982515 
0 
0 
0 
0 
0 
-0.02539479156508526 
0 
0 
0 
0 
0 
0 
0.000104735154456443 
0.003081923398647294 
0 
0.01932960124218467 
0 
0.01582239636948287 
-0.02361576578142468 
0.006845404956363437 
0 
0 
-1.355739846814638e-05 
0 
0 
0 
0.03564297963355065 
0.001777070326753819 
0 
0.02258639298944241 
0.008709985096689738 
-0.01515118401777867 
0.02169366275421841 
-0.000959060438064648 
0 
0.003477372740607289 
0 
0 
0.01769891011096505 
0.01978577523953543 
0 
-0.01849094635521853 
-0.01630348000824373 
0 
0.000195069116480496 
-0.008564310036937318 
0.0218785926035223 
0 
0 
-0.0005636760670132467 
0 
-0.02570503810261803 
0 
0 
0 
0 
0.003169084764668873 
-0.02088484681575657 
0 
-0.01559809507060427 
0 
0 
-0.00935416571841381 
0.004227848901968066 
0 
-0.01854806573187046 
0 
0.01762682814769457 
0 
0 
0 
0 
0 
0 
0.04972099988771653 
0 
0 
0 
0 
0 
0 
-0.004596945259014515 
-0.01193212939766001 
0.01702386739584523 
0 
0 
0 
-0.05589097021341598 
0.002661543621600311 
0 
0.01515118401777867 
0 
0 
0 
0 
0 
0.002509138948881765 
-0.0002264460033104645 
0 
0.04850346811170019 
-0.009890280227004639 
-0.04262179803451616 
0.02772887390322577 
0 
-0.01271527820710515 
0 
-0.009687764639160944 
-0.0006525459592339059 
0 
0 
0 
-0.0198785825822638 
0 
0 
-0.009572831016201863 
0 
-0.004538009750457248 
-0.002635584180550069 
0.02761307100256859 
0 
0.01159273788214461 
-0.03466114848121015 
0 
-0.01143769389139163 
0 
-0.04387689039132098 
0 
0 
-0.04757921433769152 
0 
-0.0001928539149738393 
0 
0 
0 
0 
0 
0 
-0.008236054845791064 
-0.02244915803469262 
0 
0 
0.01729261491281092 
0 
0.02447377937032022 
0 
0 
0 
0 
0 
-0.03239145801504462 
0.008299241913783839 
0.006283204402951129 
-0.0154160064392117 
0 
0 
-0.01029244155173972 
0 
0 
0.03397619634552335 
0 
0.007315686757110345 
-0.01362146355226974 
0 
0.01849094635521853 
-0.007653006476682323 
-0.02102761559733064 
0 
0 
0 
-4.143165726225523e-05 
0 
0.0586213619487924 
-0.01351917006015526 
0.02062029118384191 
-0.02182501703976616 
0.02341204375243889 
0 
-0.02636380302552918 
-0.01849094635521853 
0 
-0.01257853406363075 
-0.0121213982680487 
0.0003039716956092565 
-0.01000055314692445 
0 
-0.0138599937930421 
0 
0 
0.03556545318325026 
0 
0 
-2.85282391221513e-05 
0 
-0.01558888316019912 
-0.01773297930826635 
0 
-0.02306974778968372 
0 
0 
0 
-0.01870517498714519 
0 
0 
0 
0 
0 
0 
0.004489724405011028 
0 
0.009020849917879908 
0 
0 
0 
0.0005059549688999363 
0.01873702041893245 
0 
-0.006264890672867503 
-0.01725146449027803 
0 
0 
0.0194905347883219 
0.006202247911307349 
-0.05371641237400897 
-0.03261217575882754 
0.03419507906051357 
0 
0 
0 
0 
0 
0.01849094635521853 
0 
0 
0 
-0.001609959814589444 
0 
-0.008131994891910221 
0.0195274243793181 
0 
0 
0 
0 
0 
0.006467336105786866 
0 
0 
0 
-0.03908448593137717 
0 
0 
0 
0 
0 
0.03674554035697205 
0 
0 
0 
0 
0 
2.736991813890133e-05 
-0.01159885827271399 
-0.01606354945302397 
-0.01529828475371864 
0 
0.01849094635521853 
0 
0.03536875227937721 
-0.015694383398884 
0 
0 
0.0235442467248859 
0 
0.01055745649474443 
0.007506674325477082 
0 
0 
0 
0 
0 
0 
4.065760154070867e-05 
0 
0 
0.0009987906989503009 
-0.004067452746618054 
0 
0.01868779592377936 
0.01919763987540392 
0 
0 
0 
-0.01414722819647575 
-0.01399588368545787 
0 
0 
0 
0 
0 
0 
1.012927635367957e-05 
0 
0 
0 
0 
0.02867797128885114 
0 
0 
0 
0 
0 
-0.0007820220483800306 
-0.009177254388982436 
0 
-7.070464234150149e-05 
0.00882953586203301 
0 
0.01484234766401202 
0 
0 
0 
0 
0 
-2.607464036328149e-06 
0.003566267435241527 
0 
0 
0 
-0.01788978945585521 
-0.01690484684737303 
0 
0 
-0.03813810957366907 
-0.03192807282378785 
-0.007078177223227328 
0.007525269942675443 
0 
0 
0 
0 
0.04665884802046826 
0 
0 
0 
-2.84651434915518e-05 
0 
0 
0 
0 
-0.017289872570623 
0 
0 
0 
0 
0 
0 
0 
0 
0 
0 
0 
-0.01648528467294649 
-0.009906000311605951 
0.01823754508050279 
-0.00748751748282241 
0 
-0.008297822613822422 
-0.001203164395734559 
0 
0 
0.002940368314362317 
-0.019197053418451 
0 
0 
0 
0 
-0.009408862528108429 
8.372287403399505e-05 
0 
0.000820878187621007 
0 
0.01616496939010136 
0 
0 
0 
0 
0 
0 
-0.05926979844400207 
0 
0 
0 
-0.0004003521876431268 
0.0147954039316889 
-0.003636295994809084 
0 
0 
0 
0 
0 
-0.01849094635521853 
0 
0 
0.01597854653605994 
0 
-0.01697004548162928 
0 
0.01849094635521853 
0 
0.00778710776113562 
0 
0 
0 
0.01115906606444228 
0.009098686654458871 
0.02079280945039431 
0 
0 
0 
0 
-0.005518619625976448 
0 
0 
-0.01161047289775661 
-0.002320478054909721 
0 
-0.01167597263086958 
0 
0 
0 
0 
0 
0.01642269671109978 
0 
-0.0003251985647848617 
0 
0 
0 
0 
0 
0 
0 
-3.569666807952184e-05 
-0.01246813119910786 
0.03647879550766839 
0 
0 
0 
0.04283949070670014 
-0.01562387052282713 
-0.01829128523606686 
0.01906668640937838 
0 
0.032073129668954 
0 
0 
0.04199797361940628 
0 
0.01826668231688824 
0 
0 
0 
0.06221123017988454 
0 
0 
-0.002506434181103329 
0 
0 
0 
0.006899612526920684 
0 
0 
0 
0 
-0.02384205058247541 
-0.01173119933989599 
0 
0 
0 
0 
0 
0 
0.007732640605694628 
0 
0 
0 
6.76007863552319e-05 
-0.008786896983297834 
-0.001127928588293179 
0 
0.01813432485215857 
0 
0 
-0.04707000655783668 
0 
-0.0003289335700681836 
0.01917659939224839 
0.01466931076937359 
0 
0 
0 
0 
-0.0006007722767731716 
0 
3.965231537885513e-05 
0 
0.03176128602068024 
0.04662526135538753 
0 
-0.008930513353067203 
-0.01580083570296265 
-0.03878816207483229 
0.02991624745067716 
-0.005968460862494577 
0 
0 
0 
-0.009192029521395495 
0.004645756135294222 
0.01073212019206075 
0.02414461495562597 
-0.05665380194665658 
0 
0 
0.004894264884136789 
0 
0 
0 
0 
0 
0 
0 
0 
0 
0.0213725914595083 
0 
-0.01041553334078946 
0 
0 
0 
-0.01714822481793467 
0 
0 
0 
-0.05207374624502238 
0 
0 
0 
0 
0.0004720724277351819 
0 
0 
0 
0 
0.01069756530392831 
0 
-0.01647395509553023 
-0.007096965890040224 
8.49303636520323e-05 
-5.972529637112136e-05 
0 
0 
0 
0.0166762707951791 
0.01134985144042023 
0.009008498381836785 
-0.01394465848150837 
0 
0 
0 
0 
0.01989095057684803 
0.004460106873860658 
-0.009151781308914215 
0 
0 
0 
0 
0.002323443564099036 
0 
0 
0.002506210016186249 
0 
0 
0 
-0.01221089581986039 
-0.03784819177382719 
0 
0.01811461876282469 
0 
-0.03998267756286468 
0 
0 
0.000528116112682918 
-0.02229128038849788 
0 
-0.01189536734739234 
0 
2.288269209547677e-05 
0 
0 
-0.01046507823338879 
0.005871503586844716 
0 
0 
0.01505679242586542 
0 
0 
0.01580486637428177 
0 
0 
-0.006455096266861556 
0 
0 
0 
0 
0 
0.02823936783335884 
0 
0.01699166677904428 
0 
0 
0 
0 
0 
-0.005197537874037538 
0 
0 
0 
0 
0 
-0.008140445437330312 
0 
0 
-3.791088544002417e-05 
-6.277108104485709e-05 
0 
0.01079168797817671 
0 
0 
0 
0.00978484896558951 
0 
0 
0 
0 
0.009231530911149614 
0 
-0.03222890912258929 
0.002607710626497654 
0 
0 
0 
0 
-0.005485787683900585 
0.04990177708098943 
0 
0.004438086619567762 
0 
0 
-0.0003773319937045136 
0 
0 
-0.08761466458514992 
0.009956693100057297 
0.03076179262912811 
0.01787843532571561 
-0.01352147411651619 
-0.00790183932093008 
0 
0 
0 
0 
0.03123859974933869 
0 
0 
0 
0 
0.001460607545499549 
0.0211489166851287 
0 
0 
0 
0 
0.01491944168740001 
0 
0 
0 
0 
0 
0 
0.03863417363120335 
0.0104137773904317 
0 
-0.0474949883222253 
-0.01614076344713053 
0 
0 
-0.02103288186848798 
-0.02466118077381052 
0 
0.05375336414230564 
0 
0 
-0.002319063898756653 
0 
-0.01198195064220939 
0 
0 
0 
0.02351917291644685 
0 
0 
0 
-0.008616604070706328 
0 
-0.01949138138133029 
0 
-0.01931011983176718 
0 
0 
0.01849094635521853 
0 
0 
0.03271275742888094 
0.01454615326272022 
0.01389860112747604 
0 
0 
0 
0 
0.0001913873672171088 
-0.0001536894612207488 
0 
-0.01800970027012362 
-0.02507178176984317 
0 
0 
0 
0 
0 
0.0009606111585207283 
0.01119794368160361 
0.0001388911712836749 
-0.02148790571976919 
9.325417515966485e-05 
0 
0 
0 
-0.002618219568895351 
0 
0 
0 
0 
0.02732496947547719 
0.01643337664721881 
-0.01849094635521853 
-0.01572196146482571 
0.03239799516227546 
0 
0 
0.01425876495282484 
-0.0972303877946664 
-0.01427079382893632 
-0.01193435726082397 
0 
0 
0 
0 
0 
-0.0084621472210704 
0 
0 
0 
0.03031175888317524 
0.003477372740607289 
-0.01515118401777867 
0 
-0.0003454480306276627 
0 
0 
0 
-0.009035519596105714 
0 
0 
0.0001147574309713077 
0 
-0.001287687100839405 
0 
0 
0.01849094635521853 
-0.0009120576162917034 
0 
0 
0 
0.00863488666100818 
0 
0 
0 
0 
0 
0 
-0.003693739639610186 
-0.03386589509738449 
0 
0 
-0.006698317963716975 
0 
0.004135569752885424 
-0.01802220751527125 
0 
0 
0 
0.01241117937071168 
0 
0 
-0.0004562153916771979 
-0.007660854544451279 
-0.009504755048225993 
-0.01849094635521853 
0 
0 
0 
0 
0 
0.02235699525944706 
5.730334607656468e-05 
0.03900630049017989 
0.05178453003918326 
0.009712328133598081 
0 
0.01515118401777867 
0 
0.0163858221252803 
0 
0 
0.04827882331327799 
0 
0 
0 
0 
0.03001704956314985 
0 
0 
0 
0 
-0.01849094635521853 
-0.01652267245617907 
0 
0.0549767302241993 
0 
0 
0 
0.0226049485459934 
0 
-0.0002116919184359485 
-0.07313694122345299 
0 
0 
0.002661543621600311 
0 
-0.006036067902321918 
0 
0 
0 
3.836232830010509e-05 
0 
0.02728231344249291 
-0.001139109789747008 
0 
-0.0002049341223247841 
0 
-0.02310947367568316 
0 
0 
-0.0614688201377516 
0.01468051505968438 
0.01006817360188223 
0 
0 
0 
0 
0 
-0.005014835092114684 
0 
-0.02044205151169608 
0 
0 
-0.02692723848253424 
0 
0 
0 
0 
-0.00798830502712349 
-0.006050895838642644 
-0.00758501246575912 
0 
0 
0.0004992724309352548 
0 
0 
0 
0 
1.73105158377377e-05 
0 
-0.01771302326106455 
0 
0 
0 
0 
0.005173648484416951 
0 
-0.01849094635521853 
0.001620251968853829 
0.02143287431977883 
0 
0.03847037932144338 
0 
-0.01353407004497826 
0.02093125567599835 
0 
0 
0 
-0.003368718585551032 
0.006992408828316372 
0.0118968439591293 
0 
0 
0 
0 
0 
0 
0 
0.004733306007240146 
0 
-0.02436014525026931 
0 
-0.01333335158493986 
0.0002522626053655474 
0.009213493314650082 
0 
0.01930715583705313 
0.00741281197983429 
0.006386172355597422 
0 
0 
0 
0 
-0.02239456605873844 
0.006009925926322868 
0 
0 
-0.007210066564805016 
0 
0 
0.01895279402469135 
0 
0 
0.0142226152305749 
0 
0 
0 
-0.02822299433749032 
0.01837842609023015 
-0.01849094635521853 
0 
0.01502742896264714 
8.146886485700298e-05 
0 
0 
0 
0 
0.0001015808121852096 
0 
-0.02367308226835424 
0.03704019339642817 
-0.08489882100162487 
0 
-0.01466761874710478 
0 
0.0182151901295289 
0 
0.02628076533648876 
-0.0001287322087807978 
0 
0 
0 
0 
0 
0.01849094635521853 
0 
0 
0 
0 
-0.003519344639410758 
0 
0 
0 
0.01034412863818213 
-0.009764563313005297 
0 
0 
0 
-0.01437326659622318 
-0.01492801984762811 
0.009430222616481302 
0 
0 
0 
0 
0 
0 
0 
0 
0 
0.003108393932586871 
0 
0 
-0.007330796376834365 
0 
-0.01426963433605642 
0 
0 
0 
0.000678661453793028 
0 
0 
0 
0 
0 
0 
0.009931507254782975 
0.006316108872648398 
0 
0 
-0.02517968622197566 
0 
0 
0 
0 
0.002022354716926248 
0 
0 
0 
0 
-0.0150542370218954 
0 
0 
0 
0 
0 
0.003336644553954594 
0 
0 
0 
0 
-0.005845024789662 
0 
0 
0 
0 
0 
-0.008055308060725165 
-0.0251585814910601 
-0.007096965890040224 
0 
0 
0.006870826205626452 
0 
-0.03499079807296765 
0 
0 
0 
-0.0006465444277104901 
0.04633102880716453 
0.02325780379900444 
-0.01116910985270607 
-0.011082671984662 
0 
0 
0 
0 
-0.01452323049339521 
0 
0 
0 
0 
-0.01800897332494101 
-1.953489563002217e-05 
0 
-0.009202625724590855 
-0.02427113787311983 
-0.02625571279761239 
0 
-4.176477438073119e-05 
-0.009057266510557964 
0 
0 
0 
0 
-0.00580261962440729 
0.001994673039800616 
0 
0 
0 
0 
-0.02344266432114571 
0.03194456622819495 
-3.094860844952618e-05 
-0.04087984994063405 
0.003128398666612056 
0 
0 
0.03227343695411983 
0 
0.01088698944227265 
0 
0 
0 
9.412202966795584e-05 
-0.003765114114259015 
0 
0.03074357640631731 
0 
0 
-0.02621431838620962 
-0.01524943530649032 
-0.05751529809237228 
0 
0 
0 
0 
0.0009185162553544707 
0 
0 
0.0001522502054296724 
-0.01125467127340534 
-0.02359205324124315 
0 
0 
0 
0 
-0.002332294853073657 
0 
0 
0 
0.009580684741768351 
0 
0 
0 
0 
0.02252885015322031 
0 
-0.03493936804022966 
0 
0.009739528551209395 
0 
0 
0 
0 
0 
0.0314316545951087 
0 
0 
0.009001453694203762 
0 
0 
0.005271906249694518 
0.02159342348216693 
0 
0 
0.01904204163603221 
-0.01698031535658231 
0 
0.0004216499668898341 
0 
-0.01094733937750488 
0 
0 
0 
0 
0.01251095409537569 
0 
0.0059833132216372 
0.01964929151605076 
0.009361145339381913 
0 
-0.004981334347763315 
0 
0.02151894906572755 
-0.01104236267610724 
-0.0104233295201128 
0 
-0.004765975346256305 
0 
-0.01301936285201162 
0 
0 
0.02434325297353876 
0 
0 
0 
-0.01497705991159263 
0 
0 
0.08095083806688479 
0 
0 
0.005584166386110099 
-0.001752996818474409 
0 
0 
-0.01579841569276195 
0 
-0.02578781148000408 
0 
0.02743933550598236 
-0.00617053645172304 
0 
-0.01093518293888166 
0 
0 
0 
0 
0 
0 
0 
0 
0 
0 
0.02772761002336005 
0 
-0.0153805104727994 
6.31306329760423e-05 
0 
0 
0 
0 
0 
0 
-0.0002919238775408513 
-0.05279515057057728 
0 
0.03500012172491258 
0 
0 
0 
0.04676692246903539 
0.03262895267702232 
0 
0.02072360946672329 
0 
0 
0 
0 
0 
-0.02881102906167026 
0.0009794639730695031 
-0.03102939097114737 
0 
0 
-0.01318392535057001 
0.01247185948712932 
0 
0 
0 
0 
0 
0 
-0.003751780923436583 
0 
-0.01157961027908961 
0 
-0.024627762498532 
0 
-0.0373499079479323 
0 
-0.0161692688018767 
-0.02786977191363119 
-0.02066931116234744 
0 
0 
-0.01414919275041069 
0 
0.000121203068172236 
0 
0.02626472013422953 
0 
0 
0 
-0.0002229952871161568 
-0.008596397366070917 
0 
0 
0.02654940137588761 
0 
0 
0 
0 
-0.02740125126114308 
0.0001246045431263882 
0.006531512186311676 
0.01330471588880541 
0 
0.004581539749275668 
0 
0 
0 
0.02024659381438924 
0.04211331051203219 
0 
0 
-0.0004107875225933904 
0 
0 
0 
0.04617617709716378 
0 
0.02891870480405211 
0 
0.0004372596576395376 
-0.01292656921913944 
0 
0 
-0.08314544735749702 
0 
-0.005143343007909706 
0 
0 
0 
0 
0.007967556610078219 
0 
0 
0 
0 
-0.02516887884966333 
0 
0 
0 
-0.0551648382004104 
-0.007036684516017676 
0 
-0.009769296082303853 
0 
0 
0 
0 
-0.01376325247835734 
0.02660139928527327 
-0.0001091430283488542 
0 
0 
0 
0 
0 
0 
0 
0 
0.01193415920702471 
0 
-0.01826672476552669 
0 
0.03661575518883217 
0 
-0.02547510052138525 
-0.01186530302894085 
0 
0 
0.04267300725434839 
-0.001643113212832107 
0 
-0.03690419049997279 
-0.005675963829216525 
0 
0.004805407196458777 
0.0002925467099575724 
0 
0 
-1.99746066565105e-05 
0 
0 
0 
0.002236389720538869 
-0.009848531657602105 
0.02068322466477433 
0 
0 
-0.02329631897043255 
-0.0395021354882286 
0 
0 
0 
0 
-0.01391555313228329 
0.01047781333412261 
0.01829256233910789 
0.007996453715080383 
0 
0 
0 
0.02314113085895438 
-0.03007810578403158 
0 
0.01221715792165466 
0.01472491044154207 
-0.02268844012776062 
-0.04539217244984691 
0 
0 
0.01307219636947919 
0.01889226604484251 
0 
-0.02218561324488588 
0.03184164774999321 
0.0200493358875888 
-0.01286630669941572 
0 
0 
0 
0 
-0.008599135231566751 
0 
0 
0 
0.01650497940479029 
-0.006204644499147989 
0 
0 
0 
0 
0 
0 
0 
0 
0.01240996645331903 
0 
0.003642679066309706 
0 
0 
0.01579305012033026 
0.0178677185727866 
-0.01044030419623873 
0.008329475669703304 
0 
0 
0 
0 
0.01182137665083654 
0.006821426687425554 
-0.01033557243865417 
0 
0.001475911663285898 
0 
0 
0 
0 
-0.03925655339977046 
-0.006217627358304315 
-0.009821520429643828 
0 
0 
0 
0 
0 
0 
0.019418255545089 
-0.01273882252210574 
0 
0 
0 
-0.01651830809858086 
0 
-0.0208731767624641 
0.02381362946158401 
-0.01437246464020598 
-0.01398270094692582 
0 
0 
0 
-0.04954190384518226 
0.02037058838372816 
0 
0.04065420540686274 
0 
0.02537862700160977 
-0.007217651305969328 
0 
0 
0.01974545864309959 
0 
0 
0 
-0.01990121780594924 
0.01852905620777971 
-0.02562387361160682 
0 
0 
0 
-0.01195057309401835 
0 
0 
0 
0 
0 
0 
0.00725706113979486 
0 
0 
-0.001313619735266468 
0 
0 
0 
-0.02458973080951389 
0 
0 
0 
0 
-0.01321018655829716 
0 
0 
-0.02128914498688295 
-0.01195342628226116 
0 
0 
0 
-0.0001102427525575809 
0 
0 
0 
0.05917960059202351 
-0.0190875631305316 
0 
0 
0 
0.01307265518484918 
0 
0 
0 
0 
-0.009964381778740886 
-0.004000045461897905 
0 
-0.04009772195221948 
-0.04207203571361164 
0 
0.008850291274019189 
0.01849094635521853 
0.03480619249027814 
0 
0 
0 
0.01849094635521853 
0 
0 
0.0178677185727866 
0 
0.01245360959342471 
-0.02632607486765638 
0.01029074340988835 
0 
0.01178741397397921 
-0.01849094635521853 
0.02842941381668966 
-0.006224395904216021 
0 
-0.02315257343948444 
0 
0 
0 
0.000368118941227719 
-0.02225883410381622 
0 
0.0007276840991178903 
0 
0 
-0.006744532156366602 
0 
-0.006753332191043094 
0.00257586392223259 
0 
-0.04695427586623073 
0 
0 
0.03626347637359668 
0 
0.06396440664805471 
0.008904573887766895 
0.01618721813649118 
0 
-0.01651546268781151 
0 
0.04399021070141066 
0 
0 
0 
0 
0 
0.0001042720829029476 
0 
0 
-0.009628412116187219 
0 
0.01902916537470642 
0 
0 
-0.01439115834874652 
-0.02027019970396495 
0 
0 
0 
0 
-0.01548672255740305 
0 
-0.007001888733086143 
0 
0.02771754237487611 
0 
0 
-0.0173656121339557 
0.01709060733343191 
0 
-0.008027111092158715 
0.03494268225513718 
-0.001826098641321745 
0 
0 
0 
0.02565751478879305 
0 
0 
0 
0.004206067551624482 
0.01178128529700456 
0 
-0.001623042389419197 
-0.01563364051212469 
0.01065544705892829 
-0.01226242092357825 
0 
0 
0 
0 
0 
0 
-0.01786035908452151 
0 
0 
0 
0.055069636276488 
0.004503236851758402 
-0.007494714589194711 
0 
0 
-0.01931594165178339 
-0.02517239455762114 
0 
0.01606318432866294 
0.03415842755031119 
0 
0.02362096478763581 
0 
0 
0 
0 
0 
-0.01009632159948727 
-0.01876670258090814 
-0.007582427622884632 
0.0171039619837057 
-0.007868417675387025 
0.02166798270350868 
0.007812966612594301 
0.0004405117512580849 
0.01849094635521853 
0.01849094635521853 
0 
0 
0 
0 
0 
0 
0 
-0.005653770289144166 
-0.0154549257071528 
0 
0 
0 
-0.01252092706219927 
0 
0 
0 
-0.01849094635521853 
0 
0 
-0.01193541720242158 
-0.002341264898236149 
0.00265428114815295 
0 
0 
0.04957395180743186 
0 
0 
-0.001372102324806561 
0 
0.01849094635521853 
0 
0 
0 
-0.001581180408059134 
0 
0 
0 
0.001468661434635785 
0 
0 
-0.004383459807206178 
0 
0.0960771625839671 
-0.02546760982574567 
0 
0.00790147119507564 
0 
0 
0 
0 
-0.01218639393519394 
0 
-0.02905302206238804 
0 
0 
0 
0 
0.001031529917673497 
2.788833754437184e-05 
0.03649976956905911 
0 
0 
0 
0 
0 
-0.002689498610182195 
0 
-0.00681389652069351 
0.03033089398509526 
0 
0 
0 
0 
0 
0 
0.01453897665564714 
0 
0 
0 
-0.01812125580539158 
0 
0 
-0.01876670258090814 
0 
-0.003288728808659184 
0.003044753613044953 
-0.01614393952890579 
0 
0 
-0.004170731866482835 
-0.0001603144914782305 
0.01215640988140987 
-3.32589641055425e-05 
0 
0.009949796650987977 
0 
0 
0 
0 
0 
0.002016126782123813 
0.0109413872612754 
-0.006827284593418373 
0 
0 
0 
-0.03547510922240588 
0 
0 
-0.01097407998041808 
0 
0 
0.008082977248604956 
0 
0 
-0.0104155185588691 
0 
-0.01178963857684596 
-6.763020176879197e-05 
-0.08791870411930452 
0.002774096177255834 
0 
0.002288453808739824 
0 
0.0008241224782708644 
0 
0.01928711625986512 
0 
-0.0250797316257043 
0 
0 
0 
0 
0.007953461951178345 
0.01052770813318824 
0 
0 
-0.02126539068376503 
0 
-0.01603615708005251 
-0.01421426365206054 
0.02749512694044805 
0 
-0.01465402769759719 
-0.02608824792304273 
0 
0.01085566399752549 
0 
0 
0.01908402433279789 
0 
0 
0 
-0.01665666453326383 
0 
0 
0.0100548703987369 
0 
0 
0 
0 
0 
-0.01112719060666643 
-0.02763206027853462 
-0.02946445868312764 
0 
0.02687512708160225 
0.009362370987454793 
-0.02970219577562002 
0 
-0.01574005869440801 
0.03203595319275615 
-0.004501001269985611 
0.004438702801640735 
0 
0 
0.01849094635521853 
-8.998358773370629e-06 
0 
0 
0.02820457075660452 
0 
0 
0.006024691590893127 
0 
0.0001522502054296724 
-0.01757265007936633 
0 
0 
0.02525972747069088 
0 
0 
0 
0.002638161706915601 
0 
0.001096238660464417 
0 
0 
0 
-0.008850574110132715 
0 
0 
0 
0 
0 
-4.758443609946376e-05 
0.01555105889786393 
0.00951579221793007 
-0.00841362403974868 
0 
0 
-0.01620615713020174 
0 
0 
0 
-0.004104534942061753 
0 
0 
0 
0 
-0.03329084248490745 
-0.04609574699707306 
0 
0.02221692182959763 
0 
0 
-0.05112071093871334 
-0.007879099638255867 
0.02226324950108442 
0 
0 
0 
-0.03919345645564688 
0 
0 
0.00158838052351897 
0 
0 
-0.002771007375775549 
0.01407095394173591 
-0.03748381483270265 
0 
0.01108555626537814 
0 
-0.02974926777345819 
0 
0 
0 
0 
0 
0 
0 
0 
0.02783109848225886 
0.01847464743468022 
0 
0 
0 
-0.000180302599529786 
0 
0 
0.03588790428071702 
0 
0.01127673029214776 
0 
-0.02290593321955306 
0 
0 
-0.005095626990470559 
0 
0 
0.008234246516285095 
0 
0 
0 
0 
-0.01636951146327344 
-0.04863539610062675 
0 
0 
0 
0 
0 
0.01153693055935272 
0 
0 
0 
0 
0.01233392893094983 
0 
0 
0 
0 
0.01115403901359252 
0 
0 
-0.07104318380066273 
0.009436508800932853 
-0.005572885840846929 
0 
-0.01426600855431692 
0 
-0.0001042617172454503 
0.01031197025307561 
-0.008805080575974112 
0 
-0.004390015043092171 
-0.02029148298049853 
-0.007972674432495226 
0.01849094635521853 
0 
0.04729428160550686 
0.009491337123984209 
0 
0 
0 
0 
0 
-0.02916892609784275 
0 
0 
-0.01350156123951668 
0 
0 
0 
0 
0 
0 
-0.02248494715527855 
0 
0 
-0.006580290935207236 
0.02435058838927696 
0 
0 
0 
0 
0 
0.01576520412833462 
0 
0 
0 
-0.0004630372250319279 
0 
0 
0 
0 
0.00632798553775195 
0 
-0.01731572126806835 
-0.0001237323167127723 
0 
0 
0 
0 
0 
0 
-0.01418187397801822 
-0.004170731866482835 
0 
0 
0.01687659924930687 
0 
-0.01849094635521853 
0 
0 
-0.004260036830277867 
0 
0 
0 
0 
0 
0 
0 
0 
0 
0 
0.004672221582013444 
0.02047893819337045 
-0.00948905278406913 
0.005836623536511234 
0 
0 
0 
0 
0.01270242665987258 
-0.01355016373184133 
0 
0 
0 
0 
0.00840335850562271 
0 
0 
0 
0.0001329491414317063 
0.02941109702976614 
-0.0228744694908368 
0 
0 
-0.0006825844917911189 
0 
-0.01243345170279417 
0 
0 
0 
-0.02383237182685742 
-0.02140438407664328 
-1.680458500019866e-05 
-0.0008117740951516831 
0 
0.01849094635521853 
0.02252650131849436 
0.0106525917631895 
0 
-0.02256825919263987 
0 
-0.007071154654490502 
0 
0.01701997908239443 
0 
-0.01849094635521853 
-0.01072529452922485 
0 
0.02971998462863151 
-0.004495026098738293 
0 
0 
0 
-0.02790749278478845 
-0.01849094635521853 
0 
0.008571374797091276 
0 
0 
0.007156037876983132 
-0.03212560197860941 
0.02776596952321757 
0 
0 
-0.006643171369521745 
0.01849094635521853 
0.001566101389649252 
0.02180226902766266 
0 
0 
0 
0 
0 
0 
0 
-0.01581394962155222 
0.05171618041350793 
-0.0001495898764454202 
0 
0.03387004191531611 
-0.02428789364856134 
0 
-0.01808712952104148 
0 
-0.01086157140561253 
0 
0 
0 
0 
0 
0 
0.01228865272972063 
0 
0 
0.003477372740607289 
0 
0 
0 
0.007812966612594301 
0.0365496869385168 
0 
0 
0 
0.02588972699609819 
0 
0 
0 
-0.00457833202577813 
7.985639100299472e-06 
-0.06128413282445608 
-0.02601788911243828 
-0.005757880411225199 
0 
0 
0 
0 
0 
0 
0 
0 
-0.01078464506417927 
0.00185616038174787 
0 
0 
0 
0 
0 
0 
0 
0 
-0.01563364051212469 
0 
0 
0 
-0.01773001498744442 
0 
-0.0155626473299231 
0 
0 
0.005136989673661645 
0.01713350781118382 
-0.005034504711906258 
0 
0 
-0.0005488744320728248 
0 
0 
0.01861504935449594 
0 
0 
-0.01529510613670934 
0 
0 
-0.01884382308841193 
0 
0.03194527327804991 
0.01195043616070514 
-0.01249694679463499 
0 
-0.04512627135097655 
-0.000368884838288311 
0 
0.001906089302811358 
0 
0 
0 
-0.00484593809282939 
0 
0 
0 
0 
0 
-0.01060927726984451 
0 
0.002621459982685617 
0 
-0.01112941736068984 
0 
0 
0.01056518352067339 
0 
0 
-5.97525926881991e-05 
-0.0123548205747837 
-0.002581135238021497 
-5.498542370387628e-05 
0.009491337123984209 
0 
0.00778017568061763 
0 
0 
0 
0.02035415082060817 
0.02014396072022503 
0 
0 
0 
0 
0 
-0.009274997811227006 
0 
0.002876854232745844 
0.003387693697663333 
0 
0.01849083317423257 
0 
0.04062400724136854 
0.07406036126414539 
0 
0 
0 
0.02439089375777814 
0 
0.02276270718876189 
0.003561143346807928 
0 
-0.007288322654751475 
0 
-0.02599080693891362 
-0.0001089380623950329 
0 
0 
0 
0 
0 
0.004569432899475846 
-0.01277014422263342 
0.007963359245390138 
0 
0 
-0.03929459147815496 
0 
0 
0.006345997769943474 
0.02135843693524204 
0 
0 
-0.002055224585956684 
0 
0 
0 
-0.0101376958769239 
0 
0 
0 
0 
0 
0 
0.01430404038824619 
-0.02548629689728615 
-0.003336879920350984 
-0.0270099908575724 
0 
0 
0 
0 
0.0222886602209592 
0.02706303345624739 
0.000152528759772198 
-0.007096965890040224 
-0.01849094635521853 
0 
-0.01839119538504019 
0 
0 
0 
-0.02737677046432093 
0 
0 
0 
0 
0 
0 
-0.03379860049427555 
0 
0 
-0.0005507141545923653 
-0.007091336228052038 
-0.01023467744574443 
0 
0.02154888449051429 
-0.02819863759987423 
-0.001838989914019843 
-0.03225441162145631 
0 
0 
-0.008904559121804986 
0 
0.003683489865455495 
0 
0 
0 
-2.089236316348494e-05 
0 
0 
0 
0 
0 
0 
-0.002043884503184918 
0 
0.003321762633088993 
-0.01515118401777867 
0 
0 
0 
-0.003791458842409706 
0 
-0.005051776100215841 
0 
0 
0 
0 
0 
0 
0 
0 
0 
0.0002208486949004378 
0.0167516899617434 
0.01584653431361138 
0 
0.02082495074558828 
-0.003253102705748056 
-0.003123537782371334 
0.04056839481474624 
0 
0 
0.002645875584101127 
0 
0 
0 
-0.01800777738876666 
0.01515118401777867 
-0.01041928964857449 
0 
0 
0 
0 
0 
0.01156722337544498 
0 
0 
0 
0 
0 
0 
0 
0 
0 
0 
-0.0004439105754934137 
-0.005478013379568327 
-0.0400453047093353 
0 
0 
0 
0.005461534995488649 
-0.06111230982066548 
-0.01858564178375564 
0 
0 
0.003348711740183972 
0.0178184686317103 
0 
0 
-0.0003129052154294985 
0 
0 
-0.006443033682903484 
0 
0 
0.002241458401110019 
0 
2.87613095416523e-06 
0.002273209989575663 
0 
0 
0 
-0.006809149652081499 
0 
-0.01995431787920331 
0 
0 
0.0121277115565066 
0 
0.01561953019595039 
-0.02842450084147215 
0 
-0.013475503278592 
0 
0.004251932737165219 
-0.02514069967953829 
-0.01621002789195494 
-0.0274593033923562 
0.03049034055073702 
0.01457752841431958 
0.001548962622366984 
0 
0 
0 
0 
0.02852797229611768 
0 
0 
0 
-0.0302916693064708 
0 
-0.01447304786794166 
0.01250370861799414 
-0.08878075953420393 
0 
0 
0 
0 
0.04531414081831994 
-0.01807299527837085 
0 
-0.02261870148683428 
-0.01473399821427018 
0 
-0.01849094635521853 
0.01703945630711701 
0.01145602846935302 
0 
0 
0 
0 
0.004794049449629929 
0 
-0.01300208493809171 
0 
-0.005830843799792863 
0 
0 
-0.02051789292799387 
0 
0 
0.01043310596241937 
0 
0 
0 
0 
0 
0 
0 
-0.0187757908026723 
0.0193915303728291 
-0.0128472399806396 
0 
0.00354188539544231 
-0.01849094635521853 
-3.074707407825051e-06 
-0.03992739597369831 
0.02381709627672477 
0 
-0.008364800702546358 
0 
0.001717186855665081 
0 
0.001853432536903193 
0 
-0.01726234040735949 
0 
1.460695957460946e-05 
0 
0 
-0.01571163957717484 
0.01188447509579778 
0 
0 
-0.0180945873829352 
-0.01723350488435381 
0 
0 
0 
-0.007710105773140007 
0 
0 
0 
0 
0 
0.01849094635521853 
0 
0 
-0.03297672004884031 
0 
0 
0 
0.007214002658748989 
-0.01849094635521853 
0.02858215038715133 
0 
0 
0 
0 
0 
0 
0.001524659640522139 
0 
0 
0 
0 
0 
0 
0 
-6.335008741073335e-05 
-0.0244736399153756 
-0.06361196181028853 
0 
-0.02312684529239307 
0 
0 
-0.02520899156094088 
0 
-0.007178363596484424 
0 
-0.03529913574593583 
0 
0.02183101072022356 
0 
0.008482850336001881 
0 
-0.01311076459002112 
0 
0 
-0.011841021236893 
-0.01380218588468361 
0 
-0.01567238186824627 
-0.02406521115079319 
0 
0.04749228284010432 
-0.007940292546569108 
0.05825301560220221 
0 
-0.07474874601715084 
0 
0 
-0.004719624372035849 
0 
0.0059833132216372 
-0.02128951490865362 
0 
0.009458592159876326 
0 
0.02062350855994332 
0 
-0.02156754209252718 
0 
0 
-0.01638567299762983 
1.61796027101946e-05 
-0.008175076203209364 
0.01264624194365019 
0.02643644168267348 
-0.0001211116432768264 
0 
0 
0.01479916033085642 
0 
0 
0.01549398699066785 
-0.001259833095894072 
0.0005048721951396468 
0 
0 
0 
0 
0 
0.02065757370382617 
0 
0 
0.02284716649179591 
0 
0 
-0.02063516122399009 
-0.01433159274110726 
0 
-0.01997061612423185 
0 
0.01727379841423 
0 
0.002977812788180371 
0 
0 
0 
0 
0 
-0.02474390638646978 
0.01500744255524404 
0 
0.0004386729852441928 
0 
0 
0 
0 
0.01601628361160564 
0 
-0.02774631609902544 
0 
0 
-0.0008084147163149717 
-0.007613054742029466 
0.001102906965457351 
0.007869480941488467 
0 
0.02900974926588472 
-0.01179031738259078 
0 
0 
-0.007988257407879068 
-0.04049766242253389 
0.01849094635521853 
0.005468464554041367 
0 
0 
0 
0.01127772855945246 
0.0004098144742991153 
5.856603250053744e-06 
0 
-0.01631291850914891 
0 
-0.001705920647659261 
0.02538488985263596 
0 
-0.001441509961876342 
-0.03997207588523798 
0.02981530409920375 
-0.0290985720587863 
0.02418810480007481 
0 
0.01701437666050634 
9.337161386281374e-05 
0 
0 
0 
0.02430260600877995 
0 
-0.009680424943572779 
0 
0 
0.001403931543170343 
0 
-0.01655206023773697 
-0.03673491785207553 
-0.02759924808978259 
-0.03778495962837645 
0 
0.02781732463967583 
0.03048461627033566 
-0.01407966650536337 
0 
0.01635489066367923 
0.01849094635521853 
0 
-0.003779571619386001 
-0.003432580937101089 
0 
0 
0 
0 
0 
-0.02724178861447495 
0 
0 
0 
0.000375771354984882 
0 
0 
0 
0 
0 
0 
0 
0 
0 
0 
0 
0.002946716890373562 
0.01241117937071168 
0 
0 
0 
0 
0 
0 
0 
0 
0 
0 
0 
-0.01138033571670015 
0 
0.00801964056850619 
0 
-0.01661243675223764 
-0.0054480990448605 
0 
-0.02733767569008849 
0 
-0.05772827922823355 
0 
-2.348919469310064e-05 
0 
-0.001915112692296938 
0 
0 
0 
0 
0 
0 
0 
0.04681836064995696 
0 
0 
0 
0 
0.009267790814363177 
0.01087844431076601 
-0.0001184390687791132 
0 
0.01710896790513977 
0 
0 
0 
0 
0 
0 
0 
0 
0 
0 
0 
0 
-0.02049232906570124 
-0.008448568099698742 
0.007347231719988038 
0 
0.01757185444110788 
0 
0 
4.3700642639155e-05 
-0.004184283912586928 
0.003940924053896747 
0 
0 
0.02178675940027919 
0 
0 
0.01727155173796795 
2.796520350681316e-05 
0.02016107623295639 
0.007520624542740283 
0 
0 
0 
0 
0 
0.0205821049355764 
0 
0 
0.01166428174361955 
0 
0 
0.01047905633913077 
0 
0 
0.002104457153457938 
0 
0.02062029118384191 
-0.0138619050740953 
0.01225666688323638 
-0.01769660460327545 
-7.189561441315229e-05 
0 
0 
-0.0001857758873776388 
0 
0 
0 
-0.06237094004558475 
0 
-0.02086738054190004 
0 
0 
0 
-0.00645364737587169 
-0.01602466971834722 
-0.003778757525212004 
0 
-0.006810696476397614 
0 
-0.02134177606888042 
0.01849094635521853 
0 
0 
0.003485263682095834 
0 
-0.004755680089584536 
0.02834659929072959 
-0.01714447109892608 
0 
-0.01894404258280235 
0 
0 
-8.863406420861106e-05 
0 
0 
0 
0 
-0.002346330081947155 
0.04064706567572949 
0 
-0.03232555714694255 
0 
0.005584166386110099 
-0.0083574111124148 
0 
0 
0 
0 
0 
0 
0.01119071842134651 
0 
0 
0.01309578614525411 
-0.01116655069961469 
-0.05236932711595921 
-0.01240953496304328 
0 
0.001035874687118264 
0 
0 
0.06498692642109405 
0 
-0.0006931610141981854 
0 
-0.01229747034183252 
0 
-0.004570703522449563 
0 
0 
0 
0 
-0.02494340158484116 
0 
0.00583028000483384 
-0.01129956116952656 
0 
0 
0 
0 
0 
0.003744974447734373 
0 
-0.05747900656070991 
-0.02873462728172059 
0 
-0.01760115141054063 
0 
-0.0005806476298997395 
-0.03708882348061514 
0.0109452891657193 
0 
0 
0 
0.006656250760167803 
-0.01409424852482928 
0 
0.0165610834816362 
0 
0.007725668717298015 
0 
0 
0 
0 
0.01364065448041865 
-0.01849094635521853 
0 
0.02209149304302236 
0 
0 
0 
-0.01892839428326223 
0 
-0.009810881940702896 
0 
-0.02123201180760753 
0.01150482326142538 
-0.01633051507848811 
0 
0 
0 
0 
0 
0 
0 
-0.01669134299018066 
0 
0 
0 
0.02531298228840231 
0 
0.03804456458155762 
0 
0 
0.0136027832936058 
0 
0 
0 
-0.009469846635858306 
-0.01005089703474156 
0 
0.002107049606682639 
-0.01383696989937118 
0 
0 
-0.01849094635521853 
0 
0 
0 
0 
-0.02103936541908055 
0 
0 
-0.01849094635521853 
0 
0.02545787962571827 
0.02333587384385656 
-0.007083238099361152 
0.01009649899171328 
-0.008069643974643379 
0 
0 
0 
0 
0.004200438775776652 
0.008856254129855379 
0.02042444573020852 
-0.002687388192603325 
0 
0.01178196300859067 
-0.03019133159571964 
-0.03108245111314355 
0 
0 
0 
0 
0.01970151491072651 
-0.005883180354782071 
0.01397972162762862 
-0.02674218603432442 
0 
0 
-0.002344844272506728 
0.03792889596994278 
0.009769757864617638 
0 
0 
0 
0 
-0.01121750233485971 
0 
-0.01489473280341209 
0 
0.001024356418172593 
0 
0 
0.01849094635521853 
0.01647774193659396 
0.01688385803714426 
0 
0 
-6.11750909683005e-06 
-0.0001688063154563501 
0 
0.01464964389542164 
0.01594156555491942 
0 
0 
0 
0 
0 
0 
-0.01486086573960101 
0 
-0.006434453721921259 
-0.01460938193110906 
0 
-0.01521612756160796 
0 
-1.519206306828719e-05 
0 
-0.001356730757208938 
0 
0 
0 
0 
3.244393057493212e-05 
0 
0.01778178115272359 
0 
0 
0 
0 
0 
0 
0 
0 
-0.02484948534449916 
0 
0.01466931076937359 
-0.02244291605478991 
0 
0 
-0.01464679632758967 
0 
0 
0 
0 
-0.01547811506173313 
0 
0 
0 
-0.01067703439920541 
-0.0114331620194695 
-0.03436059979144812 
0.001035874687118264 
0 
0 
0 
0 
0 
3.4111924124176e-05 
0.009728861267987336 
0 
0 
0 
0 
0 
0.03456794041584033 
0.00213987433275523 
0 
0.02474952848023321 
0.004225294496622701 
0 
0.009712350394256579 
-0.01085971584687666 
0.01245203051374588 
0 
0 
0 
0 
0 
0 
0 
-0.03524740651350385 
-0.01812262332716475 
0 
0 
0 
0.0180110794203617 
0.02148445620737007 
0 
0 
0 
-0.003391825052290062 
0 
-0.01709532946872085 
0.000140061291652455 
0 
0 
0.03333278681793646 
-0.01431124061285346 
9.881163967780825e-05 
-0.01225598074022971 
-0.01857144466858536 
-0.02067745762138193 
0 
-0.07368093978807307 
0.001500745922762815 
-0.02334642042148226 
0 
0.008900830327136299 
0 
0 
-0.0001138458033988017 
0 
0 
-0.005001801975533351 
0 
-0.02513447414786638 
0 
0 
0 
0 
0 
-0.009301258417214121 
-0.001458008833223365 
-0.01603811805023136 
-0.009977507337003495 
0 
-3.22256293340254e-05 
0 
0.00261740177158768 
0 
0 
0 
0.009709358380635644 
0 
0.0005282557166548131 
-0.0138270718914658 
0 
0 
2.882192527978113e-05 
-0.01028333779349615 
-0.01577033173878931 
0 
0 
-0.001674506691242895 
0 
0 
0 
0 
0 
0.004357184235267202 
0.004998443621856231 
-7.034391852252112e-05 
0.01165464065820547 
0 
-0.004845248839770155 
0.03646569954970433 
-0.01849094635521853 
0.005030714580441225 
0 
-0.007454467769341376 
0.01125610450075941 
0 
0 
0.06870215661582167 
-0.01849094635521853 
5.929299255823112e-05 
0.004067955457310175 
0 
0.02889376019170137 
-0.002117691610029814 
0 
0 
-0.01837338667066465 
0 
0 
0.01156161396986578 
0 
0 
0.0002083742482099204 
0 
0 
0.02618685801951646 
-0.06467430410724379 
0 
0 
0 
-0.00914957362814272 
0 
-0.02937183622747288 
0 
0.01901237588687277 
0 
0 
0 
0 
0 
-0.0001281826533742874 
-0.004695021196441001 
-0.01609187679103324 
-0.01876670258090814 
0.01554184321669363 
0 
0 
0 
0 
0 
-0.02340610418475611 
-0.005933324239784457 
-0.006881640329978997 
0 
0.01091435469945887 
0 
0 
-0.003417654212944525 
0.01739264681944742 
0 
0.01396430554827162 
0 
0.02041907650587356 
-0.001121821226298183 
0 
0 
0 
-0.01717103704216612 
0 
0 
0.002414396236875611 
-0.01104152575845005 
0 
-0.005969321907382326 
0.01869437703045576 
0 
0 
0.006072390568145652 
0 
-0.03357486259643663 
0 
0.0134072796029673 
-0.002553361616956599 
0 
-0.0144467139905572 
0.006108430910817103 
0 
0 
0.01241117937071168 
0 
0.01761935562810973 
0 
0 
0.001707967484424621 
0 
-0.006288390727544573 
-0.02810216547633095 
0.02403123240702654 
0 
-0.008905278659730294 
0 
0 
0 
0 
-0.0003960156132536273 
0 
-0.0196541863800827 
0.0003738345318685839 
-9.007980986089825e-05 
-0.008025102653370267 
0 
-0.03735138608351896 
0 
0.01520850993341703 
0 
0 
0.01961953018077844 
0 
-0.0001534571152005418 
0 
0 
0 
0 
-0.05011824710623047 
0 
-0.01329708904221639 
0 
0.0003325479366892228 
0 
0.02371273037297627 
0 
0 
-0.03370148705664212 
0 
-0.01636160152659514 
0 
0.01529544833627369 
0.01391060546810488 
0 
0 
-0.0234942438492301 
-0.01515118401777867 
0.007919710031801863 
0 
0.01263719827725896 
0 
-0.0346304736210122 
-0.0157182432503631 
0.006594196668275589 
-0.000548351709216528 
0 
0 
0 
0 
0 
0.01940302113944925 
0 
0 
0 
-0.01849094635521853 
0 
0 
-0.01165956825099437 
0.003477372740607289 
0 
0 
0 
0 
-0.005088001173390071 
-0.007523929536449796 
0.001858391109104206 
0 
0 
0.01200472356604641 
0 
0 
0 
0 
0.05233380237062191 
0 
0.0108245168633667 
0 
0 
0.02719801476874544 
0 
0 
0 
0 
0 
0 
0 
-0.02157192352424113 
0.0002758572175250902 
0.008150733052226619 
-0.004170731866482835 
0.007722354602688592 
0 
0 
0.003646124408808129 
-0.04368027163172453 
0 
-0.004381688375914137 
0 
0 
0.02100841681543002 
-0.01515118401777867 
0 
0 
0.01849094635521853 
-0.0006681375473054825 
0 
0 
0 
0 
0 
-0.01216979507623186 
0.00398295394290472 
-0.02681774805081883 
5.476636135562065e-05 
-0.0430707974166328 
-0.01771042503697574 
0 
0 
0 
0.03181586412599547 
0 
0.01391758134023975 
0 
-0.001490639020169168 
0.0439533764558102 
0 
-0.03789404682529447 
0 
0 
-0.02624448423598888 
-0.02178609270129785 
0.008258808171113564 
0 
0 
-0.04627340304296823 
0 
0 
-0.01726493918378801 
0 
-0.03895989135203457 
0.002084380477947956 
0 
0 
0.01238698595320917 
0 
0 
0.003552407192006337 
-0.0002145778680236303 
0 
0 
0 
0 
-0.0002642723648649974 
-0.007151713752377676 
0 
0.002225270707543183 
-3.59533787442128e-05 
0 
0 
0 
0 
0 
-0.01781546266143541 
0 
0 
-0.01344589842047491 
0 
0 
0 
0 
0.02246435741694709 
0.01126582168647255 
0.002807698494579545 
0.02961414136109934 
0 
0 
0 
0 
-8.870028709455672e-05 
-0.0136452668130519 
-0.02414422857953683 
-0.02279009807359191 
0 
0 
-0.008435494443921304 
0.003223378704928251 
0 
0 
0 
0 
0.03146662352666071 
0.001004885806381181 
0 
0 
0.01770515623132516 
-0.01381227960846904 
-0.01720007332684457 
0.0001316546396716402 
0 
0.006493360511376754 
-0.08370724364170223 
0 
0 
-0.0001391792946868936 
-0.0002246051195619025 
0 
0 
0 
0 
0 
0.001650313302632214 
0 
0 
0.01849129888638379 
0 
0 
0 
0 
0 
0 
0 
0 
0.01849094635521853 
0.03086495862537807 
0 
0 
0 
-0.004826344411806285 
-0.001983100284273499 
0 
0.003220102668109468 
-0.005613412623050427 
0 
0 
0.01279435425451929 
0 
-0.02446916730324439 
-0.04964964526857157 
0 
0 
0 
0 
0 
-0.06840661851055271 
-0.008520149761644924 
0 
0 
0 
0.003408757598198524 
0.00821241262669214 
0 
0.01509980895134343 
0.01200391708403009 
-0.00955379163411447 
0.01316779038793044 
0.01460428186010359 
0 
0 
0 
0.0001454800179422801 
0.01333111928384526 
0 
0 
0 
0 
0 
0.02639842037544573 
0 
1.170969101772768e-05 
0.02673987471979446 
0.01076791033878167 
-0.001990657138169906 
0.02067841270219332 
0.01159570461719078 
0 
0 
0 
0 
0 
-0.02573497571813044 
0 
0 
0 
0 
0 
0 
0 
-0.00515459360515635 
0 
0.07417666102172774 
-3.427030338502578e-05 
0 
0 
0 
-0.02337451856436133 
0 
-0.01576691364161562 
0 
0 
0 
0.01757036190848292 
0.0104481062865893 
0 
0 
0 
0 
0 
0 
0 
-0.0157551494007056 
0 
0 
0 
-0.01081057643440394 
0 
0.02973090498478942 
0 
0 
0 
0 
0 
-3.73041046511273e-05 
0 
1.610111549568684e-05 
0 
0 
0 
0 
-0.006916968335146868 
-0.0001831946793973643 
0 
0 
0 
-0.01281545981201693 
0 
0 
0 
0 
0 
0 
0 
-0.006339269498309751 
0 
-0.07357246779391688 
0.01670678780699955 
0 
0.02919797437531901 
-0.01961938048697645 
0.02259333590590609 
0 
0.002071021256733331 
0 
0 
0 
0 
0 
0 
-0.01704348247466182 
0 
0.002207807775827225 
0.01329143701966456 
0.01425290542748078 
0 
-0.01693416141903215 
0 
0 
0 
0 
9.274195526311202e-05 
0 
0 
0 
-0.02029544066812546 
0.0002391048746505414 
0 
0 
0.02442984928595508 
0 
0.02359478211466627 
0 
0 
0 
0 
0 
0 
0 
0 
-0.007355668990438217 
-0.02092249311305606 
0.01209221866638851 
0 
0.02482304653027286 
0.06048141565846341 
-0.04044066764327962 
0.01856686213795264 
0 
0 
0 
0 
0 
0 
0 
0.009541304097926397 
0 
-0.01849094635521853 
0 
0 
0.003782259927638742 
0 
-0.0001020957701182637 
0 
-0.03034648504801336 
0.01849094635521853 
0 
0 
0 
0 
-0.01849094635521853 
0 
0 
0 
0.003566197283154593 
0 
-0.03101078408879763 
0 
0 
-0.01255878532755248 
0 
-0.02489284517254694 
0 
0.001591321790283964 
0.01144322216093563 
0 
-0.02879016073824054 
0 
-0.06839961889088197 
0.005223291027273905 
-0.008480141209532409 
0 
0.02531603250845187 
0 
0 
0.02854776115671092 
0.03121685785323371 
0 
0 
0.07242340828645442 
0 
0 
-0.02581059554755244 
0 
0 
9.973173778615003e-05 
-0.01069738229825468 
-0.008469558858601938 
0 
0 
0 
0 
0 
0 
0 
0 
0 
0 
-0.0127799463270123 
0 
0 
-0.02318242109866883 
-0.01279378791036223 
0 
0 
0 
-0.02181922099282229 
0.02941870172266445 
0.009050033936740901 
-0.004559537831393935 
0 
-0.003141739581326751 
0 
0 
0 
0 
0.001334114294918047 
0 
0 
0.002697686225700038 
0 
0.04484205395006218 
0 
0 
-9.718062165928144e-05 
0 
-0.01630626823723281 
0.06299291577594118 
0 
0 
0.005366783860194613 
0 
0 
0 
0 
0.02557220007143609 
0 
-0.05146990747197022 
-0.04522458181407749 
-0.01774252391521567 
0.01175199642910048 
0 
-0.04262317771276086 
-0.01661379597691177 
-0.01849094635521853 
0 
0 
0 
0 
0 
-0.01975592771832406 
0 
0 
-0.005066523209472159 
0 
0 
0 
0 
-0.005189567251012512 
0 
0 
0.03066721955054944 
0 
0 
0 
0 
0.03118096621690734 
0 
9.904562360125318e-05 
0 
-4.140153917695901e-05 
0 
0 
0.01934178362632168 
0 
0 
-0.04018606196033898 
-0.01515062215644437 
0 
0.01268958449278074 
-0.01849094635521853 
0 
0 
0 
-9.469609932515662e-05 
-0.07152539748688191 
0 
0 
0.0178316382535211 
0.0218470398862759 
0 
0 
0.03731183534855565 
0 
-0.02053185010649435 
0 
0 
0.01628681486534179 
-0.01860169524464374 
0 
-0.006011837487702676 
0 
0.04084157576594908 
0 
0.01028483369033256 
0 
-0.0126770721006729 
0 
0.04729361516240386 
0.04261321683007228 
-0.006213726152650201 
0 
-0.02877889079358041 
-0.0178677185727866 
0 
0.005576414523391465 
0 
0 
0.0108093446180752 
-0.03259115820319879 
-0.02031897007534053 
-0.02301508597035566 
0.009621423700379899 
0 
-0.000447494889313458 
0 
0 
-0.009858721696088906 
0 
0 
0.02751680080733317 
0 
0 
0 
0 
-0.01515070379662099 
0 
0 
0.01342353672855101 
0 
0.0331213811653567 
0 
0 
0.0144497958635017 
0.02101879343003149 
-0.007256087525745877 
-0.06991496128891922 
0 
-0.0001558190620817275 
0 
0.0001629471184717673 
0.06740699676485036 
0 
0 
0.007030236616935853 
0.01046926429287156 
0.008535470268934751 
0.02183601330824302 
0 
3.990783330299962e-05 
0.02456226512383274 
0.01474775812826838 
0 
0.01849094635521853 
0 
0 
0 
0 
0 
0 
0 
0 
0 
0 
0 
0 
0 
-0.00348993418237541 
-0.005897230361967693 
0 
0 
0.004443681325001881 
0 
0 
0 
0 
-0.01552559771481042 
0 
0 
0 
0.02551732019263683 
0 
0 
0 
-0.01112770326827188 
0 
0.004827404371984947 
0.01280678531912845 
0 
0 
0 
0.003517730271214468 
-0.01849094635521853 
-0.04002346780909605 
0 
0 
0 
0 
0 
0 
0.01849094635521853 
-0.01349674689225888 
0 
0 
0.02562710747553475 
0 
0 
0 
0 
0 
0 
0 
0 
0 
0 
0 
0 
-0.02616234700244463 
0 
0.01515095615624747 
0 
-0.01913298255878337 
0 
0 
0 
0 
-0.01213001206695199 
0 
0 
0 
0 
0.0001035224979845727 
-0.03085270929767286 
-0.01510169384533789 
0.02468819747455291 
0.02102456457135649 
0 
-0.009505503427299854 
0 
0.01145153582929534 
0 
0 
0 
0 
0 
0 
0 
0.007882174091529736 
0 
0.01999842797240113 
0 
0 
0.006512335892325813 
0 
0.02802134706320138 
0 
0 
0.01659077320643839 
1.510902709135936e-05 
0 
0 
0 
0 
0 
-0.01379976505906035 
0.03922157871504477 
0.03085566968551483 
0 
0.005051946606622735 
0.01574134382543977 
0 
-0.01763749647865508 
0 
0.0001209737692950167 
0 
0 
0 
-0.02559799377397478 
0 
-0.01588160710660741 
0 
-0.02499681263577713 
0.0238527403898886 
0 
0 
0 
0.0008055186526256427 
0 
-0.0185323534987435 
-0.02902272164385789 
0 
0.01962564979814903 
0 
0.01277969189547227 
0 
-0.01834886742669808 
-0.01934917551742514 
-0.04947472759429868 
0 
-0.01682136403383088 
-0.006025604600421977 
0.02453670445407199 
0 
0 
0 
0 
0.0048417561444927 
0 
0 
0.0166233319861513 
0 
0.01912878685199861 
0 
0 
-0.0511339395007669 
0 
-0.01141760984085505 
0 
-0.006996964617985308 
0 
0 
0.02558725547481607 
0 
0 
0.02535429607606819 
-0.005741264545047161 
-0.017408259800699 
0 
0.0006524463418426866 
0 
-0.01722008948826464 
-0.05363470724455123 
0 
0 
0 
0 
-0.03555763416658009 
0.03908312066103537 
0.01181768430688505 
0.0002478334366798501 
0 
0 
0 
-0.01849094635521853 
0.04216409907652555 
0 
-0.01116488739912317 
0 
0.0001300316256950165 
0 
-0.02241993251693038 
0 
0 
0 
0.007315008059056208 
0 
0 
0 
-0.0171635067875504 
-0.02796416959001036 
-0.01173192517594891 
0.01881906524043109 
0.01109864856373997 
0.009773203974153655 
0.01761824506674962 
0 
0 
-0.01285086334543826 
0.01435263747060204 
-0.02888378348304075 
-0.004170731866482835 
0 
0.005173648484416951 
0 
0 
0 
0 
0 
0 
0 
0.00265780425616195 
0.0001240676254243232 
0 
0.009514080493550858 
0.004370272378898272 
0.02697749139101242 
0.01106036858458648 
0 
0 
-0.02219433364064514 
0 
-0.01005316144555718 
0.005136989673661645 
0.01148760003279328 
0 
0 
-0.03542793811234302 
-0.005278609871177511 
0 
0 
-0.004326200735398066 
0.0003029048882343765 
-0.008955883817205862 
0 
0.02081775515057958 
-0.01154081927346808 
0 
0 
0 
-0.003130009871116276 
0 
0 
-0.002652368561321256 
0 
0 
0 
0 
-0.01566025379466526 
0 
-0.04316807748468865 
0 
0.00022550772671478 
0 
-0.00312361377302954 
0 
0 
0 
-0.01849094635521853 
0 
0 
-0.02743531217248515 
-0.01630626823723281 
0 
0 
0 
0 
0.004972859925133085 
0 
-0.01796837658639952 
0 
-0.007577892237008211 
0.03064385709743231 
0.009765410084867173 
0 
-0.02826358807487652 
0 
0 
0 
-0.03526626898353421 
0 
0 
0 
-0.001443302419102413 
0 
0 
-0.006770609782900909 
-0.007421673976577471 
0.02019520408028988 
0 
-0.03350758527924014 
-0.04283889555144826 
-0.01243218023400491 
0 
0 
0 
-0.01849094635521853 
0 
0 
-0.01040018768141383 
0 
0.001465545072738932 
-0.02552567833165266 
0 
-0.006025568231073431 
0 
0.01849094635521853 
0 
-0.01408624139607623 
0 
-0.02520429477399944 
0 
0 
0 
0.0002537299928571822 
0 
0.01307264217560075 
0 
-0.0157551494007056 
0 
0 
0.01061559160090723 
0 
0 
0 
0 
0.01705175575111323 
0 
0 
0 
0 
-0.01429492393612011 
0 
-3.865346327051999e-05 
0 
0 
0 
0 
0 
0 
-0.09958807354830729 
0 
0 
0 
0 
0 
0 
-0.01357863560437118 
-0.003620648576449742 
0 
0.009882197954770485 
0 
0 
0 
-0.001399807445183934 
-0.01078882650235755 
-0.003549899100611709 
0 
0.02759593662338806 
0 
0 
0 
0 
-2.622800531354514e-05 
-0.02774275448719979 
0 
-0.03470097275978884 
0 
-0.01453389672554565 
-0.01126437323708102 
0 
0 
0 
0.02289495358755555 
0 
0 
-0.01227209985737112 
-0.01185793085066483 
0 
0 
-6.579987523581423e-05 
0.01510747517233735 
0 
0 
0 
0 
0 
-0.01849094635521853 
0.00692264531501169 
0 
0 
0 
0 
0 
0 
0 
-9.991718426959235e-05 
0 
0 
0 
0 
-0.007638651930270969 
0 
-0.007337972331408313 
0 
-0.01104515540440046 
-0.005669316637701308 
-0.009137880857251639 
0.001151278688010208 
-0.01054412532216637 
-0.005235548312979896 
0.007343880330103433 
0 
0 
0 
0 
0.01849094635521853 
0 
0 
0.005167766717893642 
-7.895692193747643e-05 
0.008543505125446497 
0.01596163712081983 
0.02361612893023151 
0 
0 
-5.933384928062164e-05 
0 
0 
0 
0 
0.04714684349246592 
0 
0 
0 
-0.01550726736970706 
0 
0 
0 
0 
0.01385927232722095 
-0.05864322141890738 
0 
0.006818176064174993 
0 
0 
0 
0 
-0.01425358762133033 
0 
0 
0 
0 
0 
-0.01680402188601762 
0 
0 
0 
-0.02334973460244352 
0 
0.01364627709980978 
0 
0.01090387122442141 
0 
0 
0 
0 
0 
-0.002319152663762011 
0.01962564979814903 
0 
-0.02817031407610388 
-0.01849094635521853 
0.004900044082103264 
-0.0212681564550653 
0 
0.004229153280271996 
0 
0.009676802602177627 
0 
-0.001103239533026802 
0 
0.006578155690752482 
0 
0.01296259679179287 
0 
0 
0 
0 
-0.05714143961738457 
-0.01849094635521853 
-0.01849094635521853 
0.02470508330376577 
-0.01219849103359026 
-0.0005574619228700317 
0 
-0.01305125830430109 
0 
0 
0.05343043067732661 
0.009385949276587067 
9.779143464369057e-05 
0 
0 
0 
0 
8.893574082599349e-05 
0 
0 
-0.03723449122731176 
0 
0.01983736366236426 
0 
0 
0 
0 
0 
0 
0.01082732742028255 
0.003334934997546115 
0.007045371318545048 
0 
0 
-0.02036403643490123 
0 
0.01515118401777867 
0 
0 
0.00620443540036702 
0 
0.0004117348584405156 
0 
-0.0305184174961718 
0.007309994974973845 
-0.007260261024724371 
0.04486847385230881 
0.03410887672537755 
0 
0 
0 
0 
0 
0 
0.02324503343046312 
0.009723916498136784 
0 
0.02882231124186262 
0 
4.920952579243036e-05 
0 
0 
0 
0 
0 
0 
-0.002901632113917795 
0.01881912482013622 
0.02924523711572505 
0 
-0.01382983082553654 
0 
0 
0 
0.01966368050166369 
0 
0 
-0.01197025149325166 
-0.04840303475888574 
0.005366006676889955 
0 
0 
-0.04368816701205862 
0 
0.002454340186620191 
0.02330298810572334 
0.01510469085164132 
0 
0 
0 
0.03198223369461024 
-0.0137312855382963 
0 
0 
0 
0.100440340369782 
0.0002884293828447964 
0 
0 
0 
0.01614458289135373 
0 
0 
0 
0 
-0.004533463191352316 
0 
0 
0.01392013180113119 
0 
0 
0.01901235943655739 
-0.03143465590698012 
0 
0 
-0.01273657110818526 
0 
-0.000799571378839619 
0.02514055165067276 
0 
0.07343094119137522 
0 
0 
0 
0 
0 
0 
0 
0 
-0.01649564842662742 
0 
0 
0.0240978612918766 
0 
0 
-0.02009501656384077 
0 
0 
0 
0 
0.01515118401777867 
0 
0 
0 
0 
0 
0 
0 
0.001451200486681362 
0 
0.01772428424858109 
-0.0090026193545496 
0 
-0.02137005595954072 
0 
-0.01849094635521853 
-0.04310573273244842 
0.02550484673364792 
-0.0004015619410675214 
0 
0.01663376326754424 
-0.03816733119050431 
0 
0 
0 
-0.01191343102949821 
0 
0 
-0.001699679948073231 
-0.01324576366964382 
1.815781117844848e-05 
0 
-0.01158412853432518 
0.001699664856637993 
0 
0 
0 
-0.01412472363901728 
0 
0.001201294163671458 
0.01437016238743666 
0.0009391736663026478 
0 
-0.03441528577055019 
0.01849094635521853 
0 
0 
-0.0142286669290771 
0 
0.0145584369602581 
0 
0 
-0.01849094635521853 
0 
-0.01753631516521158 
-0.02357602445312581 
0 
0 
-0.02998823198159123 
0 
8.255348310247196e-06 
-0.002810200868147455 
-0.02522702036057109 
0 
0 
0 
0.009137343613948475 
0 
0 
0 
0 
0 
0.02136306842165511 
-0.008399651980722747 
-0.01463218615767211 
-0.01150119104377687 
0 
0.02311405100696288 
-0.006005438497476144 
0.006677186992455173 
0 
0.02042347544281847 
0 
-0.01876791006899417 
0 
0 
-0.005947344487236827 
0 
0.00627495418053855 
-0.02437603786670953 
-0.02387551288991119 
0 
-0.00992225991340626 
0.007900500334940705 
0 
0.001362629182273482 
0 
0.004833637003564794 
0.01849094635521853 
0.01700080423510697 
-0.005727778164503122 
0 
-0.01849094635521853 
0.02348565582942881 
0 
0 
0.01849094635521853 
0 
0 
0 
-0.01652821881913107 
0 
0 
0.01864131910150165 
0 
0 
0 
0 
0 
0.03208911163029429 
-0.0001008230568993326 
0.007339361510154852 
0.02645614232958765 
0.004792161533822942 
-0.02353248221333967 
-0.007629413650546103 
3.077803338814787e-05 
-0.006604803148008806 
0 
0 
0 
0 
0.00297159240223778 
-0.05385107531379595 
0 
0 
0 
0 
0 
0 
0 
0 
-0.007983592571448121 
0 
0.01749251943410307 
0 
0.01150373573962313 
0 
0 
-0.01199638300778642 
-0.0001831946793973643 
0 
-0.03918477349052801 
0 
0.01183183739043243 
0.00684953290308688 
0 
0 
0 
0 
0 
0 
0.01303532457266842 
0 
0 
0 
0.01792493208233132 
0 
0.01997644811106519 
0 
0 
0 
0 
0 
0 
0 
-0.02143253199235839 
0.01821428844931207 
0.01515118401777867 
0 
0.0008329761034704799 
0 
-0.08500781196907384 
-0.00768630308299886 
0 
0 
0 
0.003755052402634106 
-0.004005864202271376 
0 
0 
-0.1030269229785481 
0 
-0.01849094635521853 
0.01787927712064159 
0 
0 
-0.0180423649314823 
0 
0 
0 
-0.06857113171385501 
-0.01849094635521853 
0 
0 
0 
-0.01712311164738858 
-0.003642511655688168 
0 
0 
-0.03335687364873749 
0.03117392764789492 
0 
0 
0 
0 
0 
0 
0 
0 
0 
0 
0.00557629706854805 
0 
0 
-0.01236442091751281 
0.0117222832367441 
0 
0 
0.01991823264433499 
0.03674662563310027 
0 
1.040871044744803e-05 
-0.007794159578501589 
0 
0 
0 
0 
0 
0 
-0.01269531902281652 
0 
0 
0.02173200971512096 
0.006584408496855071 
0 
0 
0 
0 
0 
0.02246579764394581 
0 
0.01787841335320702 
0 
0 
0 
0.003293200630091323 
-0.004399251920543517 
0.01489556062653165 
-0.008760773328620639 
0.01471423499124586 
0 
0 
0 
-0.01000227925263951 
0 
0.04039795896294986 
0.01620557044212366 
-0.03475417249898888 
-0.005504258881151253 
-0.01904884499596526 
0.005609199911360408 
0 
0 
0 
0 
-0.006951678560955086 
0 
0 
0 
0.003320339854304453 
0 
0 
-0.02066207053210764 
-0.02303708379893091 
-3.518807339642514e-06 
0 
0.002621459982685617 
-0.02464673013616221 
0.0270340087673376 
0.01605090399450209 
-0.04405134951867379 
0 
0 
-0.0004709944690064437 
0.002795036712871676 
0 
0 
0 
0 
-0.005596332902407449 
-0.01565688664269704 
1.441115039644446e-06 
0.08142776719517766 
-0.02433601754995181 
-0.01203485008244449 
0 
0.008539753573039738 
0 
-0.03846710443641189 
0 
-0.01286961680107278 
-0.01120263034748549 
0.008709985096689738 
0 
9.320421326765961e-05 
-0.004883771101077065 
0.01849094635521853 
0 
0 
-0.02196242289160144 
0.009410141476443553 
0.01092056528962241 
0 
0 
-3.195489186633489e-05 
0.0003121769129253633 
0 
0 
0 
0 
0 
0 
0.0150267430046493 
-0.0007902650199947934 
0 
0 
-0.04076543195252386 
-0.003994138846344254 
-0.008143827597250694 
0 
0 
0 
0 
0.01839823714436056 
0 
-3.473156177238283e-05 
-0.01346183627160057 
0 
-0.0429334952244038 
0 
0.0209300758520841 
0.02712593044852046 
0.01479089887230081 
0.01849094635521853 
0 
0 
-0.009982729376775757 
0 
0 
-0.003336879920350984 
0.004481898501563421 
0 
0.02551251139159822 
0 
0.01772189504575522 
0.01239374570583338 
0 
0 
0 
0 
0 
0 
-0.01001056726962866 
0 
0.03065329658886669 
0 
0.0235565763760493 
0.02799116845286656 
0.08227492023333641 
-0.01849094635521853 
-0.001474820637570938 
0.01007468626911788 
-0.0145316074370796 
0 
0 
0 
-0.02043492309248534 
0.02289385687627839 
0 
0 
0 
0 
0.001144226904374507 
-0.01520737618135942 
-0.0002659333586414405 
0 
-0.004190169748935737 
0 
0 
0 
0.01973040178427434 
0 
0 
0 
-0.0009392737940960554 
-0.0003770303326718162 
0.01603670982390575 
0 
0 
0 
0 
-0.015027592117831 
0 
-0.01323015316993169 
0 
-0.0002625828812539579 
0 
0 
0 
0 
-0.005573046857697673 
0.0009006905019338009 
0 
-0.009953038187363768 
-0.03068455412864655 
0 
0 
0 
0 
-0.02126786999110836 
0.05160680355914708 
0.03082842582822648 
0 
0.01446075987638272 
0 
0.003339083795559169 
0 
0 
0 
0.0120122567503751 
0 
-0.01262635676544195 
0 
0 
-0.02812547813949701 
0 
0 
0 
-0.01484243264144249 
0 
0.0001083414560332901 
0 
0 
0 
0 
-0.0127799463270123 
0.0008147537796674382 
0 
-0.01849094635521853 
0 
0 
0.0253370983039953 
0.007577897029836958 
0 
0 
0 
-1.753495029490209e-05 
0 
-0.008742325377514239 
0 
0 
-0.01171763166868569 
0.01700737168559684 
0 
0.003307664194339264 
-0.03367415579759164 
0 
0 
0 
0 
-0.007032016034229045 
0.01609141030744192 
-0.002695563675051045 
0 
0 
8.709444490428926e-05 
0 
-0.003229288154961068 
0.0002253597128101069 
0.01554882361958955 
-0.02581730657592933 
0.04341883889502543 
-0.01849094635521853 
0 
0 
-7.909677031395663e-05 
-0.01849094635521853 
-0.01920275595706591 
0 
0 
0 
0.0003179021581860158 
0.008260809677154587 
0 
0.009758823783190654 
0.03251699836304488 
0 
0 
0.02540512982711191 
-0.01849094635521853 
-0.02460596351673939 
0 
-0.01783644421659164 
0 
0 
0 
0 
0 
-0.01028500594775737 
0 
0.01849094635521853 
0.01849094635521853 
-0.01063553549640272 
0 
-0.01375723043305007 
0.01973237387320365 
-0.01281384693993502 
0 
-0.01185701149459396 
0.01288530159665986 
-0.01309687078197904 
0 
0 
0 
0 
0 
0 
-0.02399189918381183 
-0.01849094635521853 
0 
0 
0.0015032058273857 
0 
0 
0.02207658707218808 
0 
0 
0 
0 
0 
0 
0.0006901241100323112 
-0.01849094635521853 
0 
0 
-0.01854123859628748 
0 
0 
0.007888596457670313 
0 
-0.01104908410473943 
0 
0 
-0.00328791996101589 
-0.007974033146185746 
0 
0.01478361846275628 
0 
0 
0.008461932318242563 
0 
0.02293754953494546 
0.02843062945865347 
-0.007546779508570983 
-0.006934521293489828 
-0.00879092329566078 
0 
0 
0.01685758407034179 
0 
0.01836323536209822 
0 
0 
0 
0 
0 
0 
0.05323935170005008 
0 
0 
0.005165289160205731 
0 
0 
-0.01435223276754029 
-0.02500289810308546 
0.03328356028534163 
0 
0.003828206258335414 
0 
-0.01594207518571604 
0.02075573678420925 
0.02267576838960045 
-0.007782579769173405 
0 
0 
0 
0.01408306756572801 
0 
0 
-0.01934639134735663 
0 
-0.01460392038566643 
0 
-0.04722431026214869 
0 
-0.006467645972477855 
0.00744229209147485 
0.0002436074025913772 
0 
0.002340039074233748 
0 
-0.01188293998134281 
0 
0 
0.004817377244873798 
-0.001153894702935361 
0 
0 
0 
0.01219293015964108 
0.01039773440080238 
-0.03866926591103325 
0 
-0.0003892423909042568 
0.03577871316866924 
0.0132851398122329 
0 
-0.0312166760315812 
-0.01325222397766201 
0.04722295031787285 
0 
0 
0 
0 
0 
0.004460754456611309 
0 
0.01631201005661327 
0.0183597562692031 
-0.0001028300970812576 
-0.01968837571830028 
0.01944739440857072 
0.007535183391448647 
0 
-0.01709609601148357 
0 
0.005796558987187127 
-0.01468114067841507 
-0.02113462327505465 
0 
1.231721877576269e-05 
5.825813063995873e-05 
0 
0.00432315198627306 
5.47714661055088e-05 
0.06694266458847806 
0 
-0.03410745155613406 
0 
0 
-0.03341049797798629 
-0.02034716997315606 
0 
0.009694354559522774 
-9.040650808123086e-05 
0 
0.04946768980622177 
0 
0 
0.03507131560093171 
0 
-0.03651764834257035 
0.05576057030749174 
-0.04375059708980374 
0 
0 
0 
0 
-0.02744948424135035 
0 
-0.007907333180199481 
0.02012092917962178 
0 
-0.02658679925160162 
0 
0 
0 
0.01402945292398873 
0 
0.009928248701524421 
0 
0 
-0.001434682752020088 
0.04196510213101025 
0.01863317051319803 
0.004789588230660079 
0 
0.02091866409125867 
-0.001355829312606214 
0.02247237196592881 
1.767811318840809e-05 
-0.008643801801144574 
-0.02382564183813305 
-0.007832752166999433 
-0.01032864957786842 
0 
-0.02725885576519549 
0 
-2.098485520948578e-05 
0 
0 
0 
0.012860066919902 
-0.009054753866022155 
0.004397281601331056 
0 
0.009805000601969063 
0.01655570175816215 
0 
0 
0 
0 
-0.008205690792081943 
0 
0 
-1.160389190898025e-05 
-5.879198713602766e-05 
0.02961416463003299 
0.007745199302630845 
0 
0 
0.009863200209152968 
0.01617920837190399 
-0.0157551494007056 
0 
0 
-0.0182071651451631 
-0.02060683896254449 
0 
0 
0 
0 
0.02664776707450257 
0.001035161055706189 
0 
0.008994215183008221 
0 
0 
0 
0 
0 
-0.01863938418934838 
0.01035550114282779 
0.04115254173230853 
0 
0 
0 
0.01617646084881796 
0.01876859135551196 
0 
-0.01826877013219077 
0 
0 
0 
-0.01836207038030094 
0 
-0.0154160064392117 
0 
0.01658282624264709 
3.310140777771118e-05 
0 
0.02018827426209247 
0 
0 
-0.03500824608378635 
-0.00617053645172304 
0.01359686113204377 
-0.008751900730973511 
0 
0.0003969033583885442 
-0.01462199856676075 
0.01410411660096946 
-0.01285331477542137 
0.02349636599749906 
0 
0.01688300257635302 
0.02105740720267508 
0 
0 
-0.001892810400169748 
0 
0.01726802695676549 
-0.0001343985725753716 
0 
0 
0 
0 
0 
-0.002307376391199132 
-0.01969436997410148 
0 
0 
0 
0 
0.00912403242592991 
-0.01026329405554792 
-0.04127391977311622 
0.006576846490874706 
0.02032329059968255 
0 
0 
0 
0 
0 
0 
0.0210140363955649 
0 
-0.009699428223643244 
0 
-0.07261839189687018 
0.0668309944462621 
0.01006817360188223 
0.01320703112394509 
-0.0693219991902862 
-0.0174304835719792 
-0.01079064037440958 
0.03205518576144286 
0.01184190683527526 
0.005136989673661645 
0 
0.03725292902160374 
0.008993009004933708 
0.01459721716706091 
0.02850069742617675 
-0.003755980194461508 
0 
0 
0 
0 
0 
0.03696251722126891 
-0.01452936748902362 
0 
0 
0 
0 
0 
0 
0 
-0.009865684273102989 
0 
0 
0 
-0.0108929363903154 
0 
0 
-0.01558190599726891 
-0.01850440911336431 
0 
0 
0 
0 
0 
0 
-0.03200940573814489 
0.002888606273076515 
0 
-0.09643537395653536 
-0.02315832952165686 
0 
-0.02570993147761507 
0 
0 
0 
-0.005915525836794018 
0 
0 
0 
0 
0 
0.003200796224231954 
0 
0 
0 
0 
0 
0 
0 
-0.01904875241515046 
0 
0 
-0.01515809554966559 
-0.0008772610035679971 
0 
-0.02629360717507542 
0 
-0.009169678374842045 
0 
-0.002097430861319933 
0 
0 
0 
0 
0 
0.08215035089764257 
0 
0 
0 
-0.01897608886434903 
0 
0 
-0.01880639344705107 
0.02044329281121865 
0 
0.01092788485708169 
0 
0 
0 
0 
0 
0 
-0.01397433543032374 
-0.005458424917949372 
0 
-0.01996795756953131 
0 
0 
0.006956799421485966 
0.000678661453793028 
0 
0.01849094635521853 
0.00674626250061017 
0.0001861238519749822 
0 
0 
0 
0 
0 
0 
0 
-0.0003232052959032327 
0 
0 
0 
0 
0 
0.0208453675964446 
0 
0 
0 
0 
0 
-0.01933066869733258 
0 
0 
-3.068918189620233e-05 
0 
0.0366074330796381 
0.02064207577375934 
0 
0 
0.0001275953019556329 
0 
0 
-0.007561910582474642 
0.01242728137733687 
-0.01386600712529249 
-0.03618826621225346 
0 
0 
0 
0 
-0.0001898044396661212 
0.01849094635521853 
0.04955242906317456 
0 
0 
0 
-0.0003686929810652156 
0 
-0.009763715225920504 
0.008172772433590532 
0.01628606548085541 
0.02780828224634003 
-0.03106086339533224 
0 
-0.01309320417429336 
0 
0 
0.001581966399002867 
0 
2.748161045627599e-05 
0 
0.02499178787673833 
-0.01849094635521853 
0.007275420422831571 
-0.0408637113044949 
-0.02767141307436835 
0 
-0.02401210720774118 
-0.004849908236398888 
-0.01484561868522545 
0 
0 
-0.02629936238094148 
0 
-0.02343782162541349 
0 
0 
0 
-0.01680386739366494 
-0.002928692576370098 
-0.005676365142159579 
-0.03256932014660879 
-0.01515118401777867 
0 
5.436605619311356e-05 
0 
0 
0 
0 
0 
0 
-0.05006471167868531 
0 
0 
0 
0 
-0.004998037262738193 
0 
-0.007785110650424164 
0 
0 
-0.002311906565324526 
0.03090654336743587 
0 
0 
0.02794296561923678 
0 
0 
0.02326300760573359 
0 
-0.01515118401777867 
0.01283285889650366 
0 
0.02670812214497579 
-0.03808912219506431 
0 
0 
0 
0.0155531213326718 
0 
0.01171108259965038 
0 
0 
0 
0 
-0.03993098353475213 
0.02200388586428565 
0 
0 
0 
0.01195552908141605 
0.001405746249890154 
0 
3.371820475476257e-05 
-0.02220228374639139 
0 
-0.009200553504759939 
0 
-8.406642219038253e-05 
-0.01168137035965933 
-0.01580904711618412 
0 
0 
0 
0 
-0.001376077585897099 
-0.01153074009737075 
0 
0 
0 
0 
0 
0 
0 
0 
0 
-0.001369469818401184 
0 
0 
0 
0 
0 
0 
-0.03164831612752694 
-0.005865148545825637 
0 
0 
0 
0.07977273753633264 
-0.001000669178297987 
0.01849094635521853 
0 
0.007257318390299866 
0 
0 
0 
0.02325151111677488 
0.003058696639922584 
0.01592863950151954 
-0.003607774870042173 
0.01047905633913077 
0 
-0.03361384687857195 
0 
0 
-0.01538141311464067 
-0.01728786524704769 
0 
0 
0 
-0.02003125129618909 
0 
0 
0 
0 
-0.0001859405953754917 
0 
0.01514652297522032 
0 
0 
-0.07234056571726209 
-0.02562191672835652 
0 
-0.01036553166606194 
0.006168335849866759 
0.03298450852719066 
2.092090014115132e-05 
0 
0.01417333963804362 
0 
-0.01384139888349889 
0 
0.0005579927476048973 
-0.04524139449932247 
0.01710451040313672 
0.003661176051836397 
0 
0 
-0.00304185313665002 
-0.01401484093071202 
0 
0 
0 
0.01376501875216444 
0.02382184826952708 
0 
0.0001510950813905327 
-0.01205512999161686 
0 
0 
0 
0.009838638877609118 
0 
0 
0 
0.01549398699066785 
0 
0 
0.02184645376540939 
0 
0 
0 
0 
0 
0.00983834504722452 
-0.001272921349137708 
0 
0.005068344371976785 
0.08436636894381749 
0 
0.01063733007161505 
0 
0 
0 
0 
0 
-0.01241049384756214 
-0.01883036844182041 
0 
0.008473746882169704 
0 
0 
0 
4.242101626406158e-06 
0 
0 
0.009117684153099338 
0 
0 
0 
0.006280898721611854 
0.03064241216067868 
0 
0.008938525959046952 
0 
-0.01603567944571503 
0.007606305633496725 
-0.01581087058735314 
4.027652096690268e-05 
0 
0 
0 
7.630822666970867e-05 
0 
-0.01334936554464645 
0 
0.02481201932365147 
0 
-0.03381221756600162 
0.02981530409920375 
0 
0 
-0.01948353624760871 
0 
0 
-0.02030538380632053 
0 
0 
0 
0.01305331853927895 
0 
0 
-0.003344753898257577 
0 
0 
-0.006416913551735847 
-0.02371811473942892 
0.01613909726114659 
0 
0 
0 
0 
0.01849094635521853 
0.09993491848165172 
-0.007543590329896753 
0.04564051336362351 
0.0102378152618683 
-0.01849094635521853 
0.01117546886947542 
-5.257245903411378e-05 
9.519933075848247e-05 
-0.0154160064392117 
0 
0.03884096855513784 
0 
-0.01854586077704895 
0 
-0.02160381030561028 
-0.002698147404418492 
0.01977729497497787 
0 
-0.04872067431350972 
0 
0 
0 
0 
0 
0 
-8.36061410793817e-05 
0.005552952195550045 
0.0122082148110179 
0 
0.021824044237013 
0 
0 
0 
0 
0.01302268791258086 
0 
0 
0 
0 
0 
-9.976898224439842e-05 
0 
-0.02592881748379297 
-0.02013968211252505 
0 
-0.004527697426057516 
0 
0 
0 
0 
0 
-0.03188546589782337 
0 
0 
0 
-0.01557583519977074 
-0.003873944661795457 
0.01090387122442141 
0 
-0.0167142880483829 
0.003519481004223295 
0.01063207117315255 
0 
0 
0 
0.01867105121514683 
0 
0.004389141043565646 
0 
0 
0.0219597042120618 
0 
0 
0 
0 
0 
0 
0 
0 
0 
0 
-0.04351673711793387 
0 
0 
0 
0 
0.08017892046117495 
-0.009062484432720451 
0.01216798259770781 
0 
0 
0 
0 
0 
0 
0 
-0.02129240384582682 
0 
-0.02972348452409405 
0.0001075969591832303 
0 
0.01796869645460175 
0 
0 
0 
0 
0 
0 
0 
-0.02669796024805666 
0 
-0.001303337257799351 
-0.01317827601714657 
0 
0 
0 
-0.005153834704296334 
0.01766550369961745 
0.02153005459344079 
0 
0 
0.007804656836114156 
0 
-0.04319081634230369 
0.0193373726705404 
0 
0 
0 
-0.01429492393612011 
0 
0.01165309145738638 
-0.02260781202944169 
-0.01085896996096177 
0 
0 
0 
0 
0 
0.01390441686641438 
0 
0 
0 
0 
0 
-0.037028596187187 
-0.01615824336608992 
-0.02056271621106601 
0 
0 
0 
-4.122169396233812e-05 
0 
0 
0 
-0.01743821371358978 
0 
0 
0.0004092721844068274 
0 
-0.01698783407561167 
0 
0.001741883351215753 
-0.008314907765904316 
-0.009801330873129803 
0 
0 
-0.003506791026861414 
0 
0 
0 
0.01654732687328028 
0 
0 
9.500450227525864e-05 
0 
0 
0 
-0.002831239198399481 
0 
0 
0.01006913029759387 
-0.05425332507212991 
0 
0.01461905591531649 
0.02147253026135326 
0 
0 
0 
0.008951142702696233 
0 
0 
-0.006328419667178319 
0.01876539556028629 
-0.0001774913304908985 
0.01868495332120414 
0.02268696877431694 
-0.01630626823723281 
0 
0 
0 
0 
-0.01203256646972981 
0 
0 
0 
-0.01760779586029258 
0 
0 
0.01490765204960187 
0 
0 
0.03693416315860393 
-0.004421638264245508 
-0.01997528755622122 
-0.01047834888584542 
0 
0.0001499716843311737 
0 
-0.01036435570726993 
0 
0 
-0.0001525136446164215 
0 
0.01849094635521853 
0.0001272393388604753 
0 
-0.0039551871284918 
0 
0 
-0.01612875432189716 
0 
-0.01635289995553653 
0 
0.004003986583848569 
0 
0 
0 
0 
0.02968397915719733 
0.02165407980505283 
0 
0.0004804938091712832 
0 
-4.583522982470715e-05 
0 
-0.05810472365425755 
0 
-0.01511439798323807 
0 
0 
0 
0 
0 
0 
0 
0 
0 
-0.0116992108093127 
0 
-0.0001602004000104464 
-0.01767832735689728 
0 
0 
0.02905262723106546 
-0.01849094635521853 
0 
-0.04636190317338774 
0 
0 
0 
-0.01270648773877829 
0.01349764811726893 
0.01849094635521853 
0 
0.00887724558452937 
0 
0 
0 
0 
0 
0 
0 
0 
0.007085997988907907 
0 
0.0006498666732508121 
0 
0 
0 
0 
0 
-0.002983907378959089 
0 
0.01621735608256251 
0 
0 
0 
0.003274431252900351 
0.02395364051408853 
0 
0.01768030046687197 
0.01300133422317541 
0 
-0.001104034700661401 
0 
0 
-0.005893125084617295 
0 
0 
0 
0 
0 
0.0006661114418410475 
0 
0.04536128002748847 
0 
0 
0 
0 
0.04307636927999271 
0.02827823868551401 
-0.02640855848871792 
-0.01249177246569085 
0 
-2.084353802044778e-05 
-0.01939078066755948 
0 
-0.02740521047552955 
0 
0 
-0.03218104507047437 
0.04143239328311183 
-0.0140370101157451 
0 
0 
-0.02143171991250188 
0 
0 
-0.02196108004010124 
0 
0 
-0.001774562260849075 
0.01033553343574577 
0 
0 
0.003507053356274558 
0 
0 
0 
-0.006707694061650542 
0.0003969033583885442 
0 
0 
-0.03786389248431566 
0 
0 
0 
0.005914301735960499 
-0.008424470915023153 
-0.0001885036101360858 
0 
0 
0 
0 
0 
0 
0 
0 
0 
0.01591510825071275 
0.01849094635521853 
-0.03772911888107783 
0.01991085598360264 
0 
0.02099475813406701 
0 
0 
0 
-0.01947017762470942 
-0.004639258129623202 
-0.01849094635521853 
0 
0 
0 
0 
0 
0 
-0.02688327792448807 
0 
0 
0 
0 
0 
0 
0.02255795399662153 
0 
0 
0 
0 
0 
0.01849094635521853 
0 
-0.001656240482905457 
0.06716337011820722 
0 
0 
0 
0 
0 
0 
-0.001001351749022694 
0 
0.009324483383604022 
-0.01441356293758898 
-0.002951442930362496 
-0.0486276474604091 
0 
-0.03316459098214753 
0.02083879818731655 
0 
0 
0 
-0.08626018761062285 
0 
0.003156509035638516 
0.01073265250267903 
0.02015854634543139 
0 
0.02761178568659903 
0 
0 
0.01079839208680217 
0.006992287931093931 
0 
0 
0.0186911448578704 
0 
0 
0.003570051981217541 
-0.003354730689310077 
0 
0 
0 
0.0006050274129227987 
0.01046385974146793 
0 
0 
0 
0 
0.01004207648631918 
-0.01713696790839881 
0 
0 
0 
0 
0 
-0.01569827154078723 
0 
-0.07127348907534035 
0 
-0.003098387586714409 
0 
0.02207471307240052 
-0.02545003341141559 
0 
0.0111776964234975 
0 
0.03495853780531335 
0 
-0.004239658573281375 
0 
0 
0 
0.0004314105530651687 
0 
0.0001170239952935697 
0.02422858222741007 
0 
0 
0 
0 
-0.01176673325266298 
0 
0 
0.01229360741892128 
0 
-0.01841121856937648 
0.01849094635521853 
-0.0008182428063305384 
0.02880394192034407 
0 
-0.001654405467615988 
0 
0 
-0.02319329054701968 
0 
0.01574156574277189 
-0.01346964932746582 
0 
0.02581802150156908 
0 
0.03552657310808023 
0.000693536349321499 
0 
0 
0 
0 
0.01950141298286213 
0 
-0.01611217501877159 
0 
0.004943581661308302 
0.008004959766725269 
-0.01726230930131179 
0.003765344404242566 
-0.02613219185036752 
0 
0 
0 
-7.285071488098634e-05 
0 
0 
-0.006677732725915917 
0.03783288094262481 
-0.01307614966674037 
0.03753896861989824 
0 
0 
0 
0 
0 
0 
0.06608221232731176 
0 
-0.02271117701920184 
-0.03203086477633938 
0 
-0.02238088432663434 
-0.0003035844243872308 
0 
0 
0 
0.04002477428857717 
0 
0.005783449715620082 
0 
-0.02877729102673642 
-0.01381117920568802 
-0.0001435319033821745 
0 
-0.01725441359309697 
0.002341390396741259 
0 
0 
0 
0 
0 
0.01612207669835377 
-0.01286525040749162 
0 
-0.02712869183317112 
0.002444388273466079 
0 
-0.03054381927731068 
-0.008054787554391991 
0 
0 
0 
0 
0 
-0.03324187163175297 
0 
0.009584494854038453 
0 
0 
0 
-0.009711924442655555 
-0.01265446913691497 
-0.01500040085427677 
0.006242252500098695 
-0.01036672592501652 
0 
0 
0 
-0.0003790001959183561 
-0.005350837696273994 
0 
0 
0.02502913515174044 
0 
-0.0139083701034853 
0 
-0.02360677665942907 
-0.02282093131707688 
0 
-0.0007612682697941234 
0 
0 
-0.006441505603494243 
-0.008787775496313197 
0.01446021336488272 
0.02665008367962024 
0 
-0.01210468376676756 
0 
0 
0.005312251062412751 
0.02011222953031636 
0.005163399250560199 
-0.005831932208238945 
-0.0005689543251585589 
0.001309690733712442 
-0.0109663547765783 
0.0001574876628338853 
0 
0 
0 
0.02315601979012203 
0 
8.255348310247196e-06 
0.02364251104999368 
-0.01376692953413164 
0 
0 
-0.01382973049245371 
0.01991823264433499 
-0.002881557238341687 
0 
0.007862259619380871 
0 
-0.02836312804126777 
0 
0.08198225176088261 
0 
-0.08833525838621445 
0.01208746651390227 
0.02301649685784156 
0 
0.005573650646036798 
0.01484995715286635 
-0.03704242017705874 
-0.02050047137061047 
0 
0 
0 
0.01691884611277104 
0 
0 
0 
-0.01334458657129763 
0.02926872620858934 
0 
0 
-0.007962271463225961 
0 
0 
-0.0128084973414248 
0.07043784131343951 
0 
0.01007516702043836 
0 
0 
0.008000027356469838 
0.003914773624589994 
2.642847407689027e-06 
0 
-4.203528869205114e-05 
0.02981530409920375 
0.01584247444038806 
0 
0 
0 
-0.01079757609802034 
0.025232105167376 
-0.01033633636968307 
-0.006671805952479107 
-0.01370000084166473 
-0.00034807816931914 
0 
1.409798248351249e-05 
0.00756233350677146 
-0.001981313417107002 
0 
0 
0.01213539029733438 
0 
0 
0 
0 
0.00015702430521595 
0 
0.007930193004325648 
0 
0 
-0.01465516230961068 
0 
0 
0 
0.00912640932808623 
-0.01981143413866797 
-0.007407064832528613 
0 
0 
9.904562360125318e-05 
-0.00576955333311488 
0 
-5.358446485086241e-05 
0 
0 
0.01477319027771834 
0 
0.01617345602642388 
0 
-0.01384802117938585 
0 
-0.003973119665357221 
0 
0.001448690917378937 
0 
0.006493360511376754 
-0.03072098195602222 
-0.01550485039326165 
0 
0 
0 
-0.01385681159542568 
0.01866060652059997 
0 
0 
0.01428010145351445 
0 
-0.02004711456541007 
0 
-0.006808262651574167 
0.02071609221976106 
-0.01516327372688977 
-0.01955840531113663 
0 
0 
0 
0 
0 
0 
0 
0 
0.07741315425617606 
-0.05187096198411457 
0 
0.0256024123906556 
0 
0 
0 
-0.04081052886856161 
7.283732346392702e-05 
0.01849094635521853 
-5.959628726680596e-07 
0 
0 
0.0405992971596256 
0 
0 
0 
0 
-0.01932557789776838 
0.01849094635521853 
0 
-0.0202382905567959 
0 
0 
0 
-0.002660213325895262 
0 
-0.0299719408113527 
0 
-0.01316909966317434 
-0.02043775821374062 
0.01174497509640515 
0 
0 
0.01586484760403351 
0.004055117533377436 
0.01223427794659464 
-0.04860075881874883 
-0.00939529371558879 
-0.0122730996913158 
0 
0 
-0.004793817149222755 
0 
0 
-0.03355018474628192 
-0.01849094635521853 
0 
0 
0 
0 
0 
0.01835649011495408 
-0.02763422817797675 
0 
0 
0 
0 
0 
0.02191222564815555 
0.01312811054197476 
-0.1301551769376332 
-0.01849094635521853 
-0.02161461675401138 
0 
0 
0 
-0.003617715313185628 
0 
-0.03112575266355835 
0 
0 
0 
0 
0 
0 
0 
0 
-0.007499882934109614 
0 
0.03030720386190163 
-0.02022534307862205 
0.0001048958934970498 
0.01119019007901742 
0 
-0.04214759716331292 
0.02242219593981337 
0 
-0.02557108359171793 
0.01635041203344232 
0.03835801602219632 
0 
-0.0111808688977671 
-0.02579007085516623 
0 
-0.01823252581707556 
0 
0.01149350017938239 
-0.04547001879413567 
0.01911264362178429 
0 
0 
0.01888898682981548 
0 
0 
0 
0 
-0.05418999454712248 
-0.005644815058364235 
0 
-0.01122736872940748 
-0.02736159418220053 
0 
0 
0 
-0.0501545781397501 
0 
0 
0 
-0.01258874194924788 
-2.056290811783337e-05 
0 
0 
0 
0 
0 
0 
-0.02466858040802268 
0 
0 
0 
0 
0.01120447211472784 
0 
-0.01776099824047701 
0 
0 
0 
0.09172008694235048 
0 
0 
0 
-0.01996909273890266 
-0.0250824780324676 
0 
0 
-0.004156080380023438 
0 
0 
0 
0 
0 
0.003975832547411432 
0 
-0.01334356506292183 
0 
0 
-0.003319988905799331 
0 
-0.00984580599322572 
-0.01399361043620979 
0 
0 
0 
0.005956178280978872 
-0.004867903907668976 
-0.01857264530440198 
0 
0 
0 
0 
0.0002031388482739093 
0 
0 
0 
0 
0 
0.01540845022159241 
0.01880970166571191 
0 
-0.006018520997746836 
0 
0 
0.009206974871907147 
0 
0.03629874823266737 
0 
-0.001441384636350627 
-0.0127357436253793 
0 
0.01198885523280952 
0.0005670170072557058 
0 
-0.01301538035551495 
0 
0 
0 
0 
0 
-0.01275413375126956 
0 
0.008171577635608648 
0.02880372142465324 
0 
0 
0.0123490227614638 
0 
0 
0 
-0.02859173500452953 
0 
-0.01127408002608798 
0 
0 
0 
-0.009593447040918473 
-0.03320886603721831 
0 
0 
0.02320214952820977 
0 
0 
0.00710523337744238 
0 
0 
-0.006142402595984908 
0 
0.0003390970274798285 
0.0004108342807478853 
0 
0.02067562447320424 
0.01585696108185587 
0 
0 
0 
0 
0 
-0.006390847416666326 
0 
0 
0.005713616702369373 
-0.002700015269762986 
0.007564969553972756 
0 
0 
-0.01849094635521853 
-0.0001179375850948795 
0.02725701993864769 
0 
0.008202648811384409 
0 
-0.01731614348984691 
0 
0 
0 
0 
-0.01185559337778803 
-0.000127711089021333 
0 
0 
0.01142843885637705 
0 
0.01537277021341027 
0 
0 
0 
0.004495562038006092 
0 
0 
0.06825445874679038 
0 
0 
0 
7.856121461076969e-05 
0 
0 
-0.00390633304083741 
0 
0 
0.01650113479598828 
0.01522363362630809 
0.01001517886576599 
0 
0.001399612391896049 
-0.01372025137436224 
0.002109227417508318 
0 
0 
-0.02608621261162667 
0.01070299331355223 
-0.007476587565839839 
0.01841969015728212 
-0.0124125261632807 
0 
-3.284470774176985e-05 
0 
-0.01410170973912731 
0.01688954441165087 
-0.006226785331090496 
0.03590233633377142 
0 
-0.001234330656233632 
0.01777913675337113 
0 
0 
0.01693638965154695 
-0.021330067939916 
0 
0.03728854795757128 
0 
0 
0 
-0.0208700517790515 
0.01749833349329828 
0 
0 
0 
0 
0 
0 
0 
-0.01522694207243775 
0 
0.02867542417291837 
0.0302117364934828 
0 
0.01777767438103593 
1.591252317765799e-05 
0.02149002869288703 
0 
0 
0 
0 
-0.02756368631004097 
-2.099189970225754e-05 
0.009039220166275086 
-0.006475205533554454 
-0.01553971700883098 
0.02149000892313946 
0 
0 
-0.02414950788695846 
-0.01322853659332384 
0 
-0.0178677185727866 
0 
0 
0 
0.0008737829474492415 
0.009606936939600972 
0 
0.01801292685493002 
0 
0 
0.04355148745844622 
-0.01738417248469631 
0 
0.001915782233394284 
-0.01700825601321074 
-0.02642796334394953 
0 
0 
0 
0.02176576514882909 
0 
0 
0 
0 
0 
0 
-0.02052759465088148 
0 
0.004926393840286779 
-0.02871211388835241 
0 
0 
0.00575294368159905 
0 
0 
7.284549343268453e-05 
0 
0 
-0.002970490648212677 
-0.03393680263221786 
0 
0.01544082364582826 
0.01463664085258072 
-0.003799118456604842 
0 
0 
0.003977671852801501 
-0.0001053265488175039 
0 
0 
0.08664231590309537 
0 
0 
0 
0.03343524236285862 
0 
0 
0 
0 
0 
0 
-0.02298874770504727 
0.005599019086963829 
-0.07670594746154964 
0.03348634700657376 
0 
0.001773558740728941 
0 
-0.008272288715360364 
0.009162683937337188 
0.01845979083007465 
0.01507432662337388 
0 
0 
0 
0.02981530409920375 
-0.000165534539766173 
0 
0.05405570045607817 
-0.01824825469988444 
0 
-0.001313482699531339 
0 
0 
0.02367342958302458 
0 
0.02092590578632292 
0 
0 
0 
0.02149000892313946 
-0.02028406473959669 
0.02818397575015323 
0.0234931038130261 
0 
0 
-0.007162298731551529 
0 
-0.04485763845873009 
0 
0 
0 
-0.02672018180858403 
0 
0.01887148187052598 
-0.03162199531327463 
0.02493828632507246 
0.005666080265506079 
0.04974522623365001 
-0.02325303313133317 
0.02736334518218927 
0.002180086995634311 
0.01671348359920028 
0 
0.01710896790513977 
0 
0 
0.01376198864405435 
0.02067562447320424 
0 
0 
0 
-0.04887468314345012 
0.01018456107515723 
-0.02034089575187156 
0 
0 
0 
0.03670797094558995 
-0.05233585797423135 
0 
0 
0 
0.01344649441096124 
0.01485815652403422 
0 
0 
0 
0.01173154054374927 
-0.01416553013541652 
0 
0 
0.01727500411375306 
0.009905770440605447 
0 
0 
0 
-0.0129313342926655 
-0.006552076074391434 
0 
-0.02478710428764718 
-0.01703459258305851 
0 
-0.01383605696633046 
-0.00837159430428069 
-0.03063229762182754 
0 
0 
-0.01706872631790474 
0 
0 
0 
-4.808791482772425e-05 
0 
0.01515118401777867 
-0.002600792060536074 
0.01707091613453654 
-0.01540654578959534 
0.01159121689821888 
-0.01497705991159263 
0 
-0.03050775255144708 
0.02341470406208255 
0 
0 
0 
0 
-0.01271527820710515 
0 
0 
0.01195582201825874 
-0.006879857260317779 
0.01286112691844033 
-0.04425666676528263 
0 
0 
0 
0 
0 
0 
-0.01463133263264467 
0 
-0.02737998105797619 
0.01841531248217667 
0.02293907415268227 
-0.01932813954444047 
0 
0.0006922456352372369 
0 
0 
0.01849094635521853 
0 
0 
-0.01556330958040996 
-0.01268353517404191 
0.01515118401777867 
0 
0 
0 
0 
0 
0 
0 
0.01020147215879707 
0 
0 
0.0178677185727866 
0.009068356879989518 
0 
0 
0.04600137104861259 
0 
0 
0 
0.005860766538054448 
0 
8.281123209075982e-05 
0 
0 
0 
-0.03956526673618191 
0.02610313438054237 
-0.01849094635521853 
0 
0.007547750312348164 
0 
6.819519081127309e-05 
0 
0 
0 
0 
0 
-0.0001542108189884351 
-0.005039085876678202 
0 
0 
-0.01257201889429873 
0 
2.902947893429992e-05 
-0.02490934644420048 
0.01515118401777867 
0 
0 
-0.01777308074046584 
0 
0.006187110631220669 
-0.01650054852400814 
0 
0 
0 
0 
0 
0 
0.002444388273466079 
0.01872903610856388 
0 
0 
0 
0.05330424347889094 
0 
0 
0.00579603426273091 
0 
0.08377122104342857 
0.01228876992180114 
0 
0 
0 
-0.0149554175048046 
-0.0332344919337484 
0 
0 
0 
0.005679603033155792 
0.003323611645523283 
0 
0 
-0.005806541368770912 
-0.07283902096643921 
-0.01553971700883098 
-0.01875072299904144 
0 
0 
0 
0.009782640111107601 
0 
0 
0 
0 
0.02318408625683551 
0.01552154990403701 
0 
-0.003580998684855758 
-0.01805889667419147 
0 
0 
-0.012417987667206 
0 
0 
-0.01286525040749162 
0.04653314512901544 
0 
0 
0.01953890845744744 
0 
0 
0 
0 
0.02169991680910776 
0 
0.0177445412373218 
-0.02266959130699946 
-0.01180958446159277 
8.909157594949482e-05 
0 
0 
-0.01798600382514618 
-0.0423979812462368 
0 
0 
0 
0 
-0.000935503340672036 
0 
0 
-0.0001344366452277341 
0.01747853626306506 
0 
-0.0009198707740751279 
-0.002595367504983822 
0 
0 
0 
0.01195429427267716 
0 
0 
0 
0.02830151423873282 
0 
-0.01404924313428892 
-0.01853494566599314 
0 
-0.02512927352903715 
0 
0 
0.04835854590426929 
0 
0 
0.009468379271087624 
-0.006014351980356613 
0 
0 
0 
0 
-0.01006524270675647 
0 
0 
0 
0 
0.01562604768889757 
0 
0 
-0.06625528892437843 
0.06370715275555895 
0.001052060064739367 
0.0005036377318706152 
-0.01064286341446096 
-0.0004670235851274508 
0.006498327566046349 
-0.02090849316113872 
0 
-0.02546093918159254 
0 
-0.01849094635521853 
-1.945602755819227e-05 
-0.06235385612628876 
-0.01271034373802069 
-0.0319890970096533 
0 
-3.035109928449232e-05 
-0.01249800613683713 
0 
0 
-0.005241163707396853 
0 
0.01793243820607386 
-0.01671205756789068 
0.005204472436314799 
0.01347795389182194 
0 
0.0280186262321112 
0 
0 
-0.02726356320042414 
-0.01568274219634134 
0.02514671238479289 
-0.01580276092595562 
-0.008959380519146956 
-0.02488427119195554 
0 
0 
0 
-0.01121628874393717 
0.01123266597624948 
0 
0 
0.01754983189108835 
0 
-0.01547302890537427 
0 
0.0003710945015993285 
0 
0 
0 
0 
0 
4.889984372345615e-05 
0 
0.03821741954113637 
0.02965577967556219 
0 
0 
6.221616178427413e-05 
0 
0 
-0.005923431397003637 
0.003051877790149685 
0.007796913754074056 
0.004952826424324469 
0.03473686672251486 
0 
0.04402816869482212 
0.03654281925220324 
0.003657668859614863 
0 
-0.02643337214912714 
0 
0 
0 
0 
0 
0 
-0.009501181052421856 
0 
0.003901985754295373 
-0.01394822758824196 
-0.02628394098767676 
-0.01001806349574504 
0 
0.017881892387981 
-0.01849094635521853 
0 
0 
0 
0 
0 
0.02333540285601871 
-1.953489563002217e-05 
0.01442715884975943 
0.0300192792961897 
0.07500815644008817 
0 
0 
0.02003831958588337 
0.01126185810326746 
0 
0.005835403845030339 
0 
-9.647452271210396e-06 
-0.02236866704551895 
-0.01366591844798417 
0.03515412686741504 
-0.02350814479090947 
0 
0 
0 
0 
0 
0.0060890922511999 
0 
-0.003284598197477462 
0 
-0.01264880166572878 
0 
0.02063840225929565 
0.01998427866631519 
0 
0 
0.0009535721971851369 
-0.004685435020082705 
0 
0.02746543741220544 
0 
0 
0 
0 
0 
-0.01605944761534988 
0 
0.01592846901354806 
0.003054508088748126 
0 
0.005773757104306168 
0 
-0.02778090887092715 
0 
0 
0 
0 
0.01169147318294763 
0 
0 
-0.01849094635521853 
0.01609011985414796 
0 
-0.006107705772856794 
0 
0.003477372740607289 
0 
-0.01472174216753596 
0.01548370099769717 
0 
4.206281758316384e-05 
0 
0 
0 
-0.002292388915590771 
0 
-0.01135777525773682 
0 
0.001451200486681362 
0 
0 
-0.02283141179087398 
0 
0 
0 
0 
0 
0 
-0.006858473011002848 
-0.003570547007298575 
0 
0 
0 
0.01185944929364618 
-0.001485449966834515 
0 
-0.01504319307486548 
0 
-0.03649137643833736 
0 
0 
-0.01695589742484723 
0 
0 
0 
0 
0 
0 
0.02200101703658397 
-0.01296147289317739 
0 
0 
0 
0 
0 
0.02105740720267508 
0.05413233326066526 
-0.07223389621287896 
0 
0 
-0.01404134663271369 
0 
0 
0 
-0.00856537539577073 
0 
0 
0.003997270119120939 
0 
0 
0.003951035200665816 
-0.04263810577027485 
0 
0 
0.009823312236766713 
0 
0 
-0.1082194614495838 
-0.02656924686086548 
0.01849094635521853 
0 
0 
0 
0 
0.02031823240559386 
0 
0 
0.005595926416793097 
0 
0 
0 
-0.005749843603618628 
0.002195907372063019 
0 
-0.007454467769341376 
0 
0 
0 
0 
0 
0 
-0.008448669193157047 
0 
0 
-0.01942451028960814 
0.01122382986107776 
0 
0.009302916270924569 
-0.009405042845031072 
0 
-0.001866600084949914 
0.03886556836556894 
-0.0155212291559338 
-0.003722146962130452 
0 
0 
0 
0 
0 
-0.00425513473882873 
-0.008933826797845892 
-0.01849094635521853 
0 
-0.002988726606049679 
-0.01698303039656317 
0 
0 
0 
0.001139762853259814 
0 
0 
0 
0 
-0.001289255722917595 
0.0577344238398753 
0.01672608221920802 
0 
-0.0643648459555288 
0 
0 
-0.01269947255756628 
0 
0.02486059925520999 
0 
0 
0.01113570545646238 
0 
0 
0 
0 
0 
0 
-0.009274778040996953 
0 
0.03987122440981004 
0 
0.007318315073616776 
0 
0 
0 
-0.01696234862134064 
0 
0 
0 
0 
0.003039566896898036 
0 
0.0124863038374434 
-0.01327802265268929 
0.02459267281101408 
0 
0.005340379099377962 
0 
0.006470765601713463 
0 
0 
0 
0 
-0.0178677185727866 
0 
0 
0 
0.02461292096837425 
0 
0 
0 
0 
0.0172737291137541 
-0.0240575020467025 
0.01310051475902172 
2.635358954044127e-05 
0.03101364012950914 
0 
0 
-0.1120972173903975 
0.01810426185025518 
0 
0 
0.01519944985301616 
0 
0 
0 
-0.009444654931288604 
0 
0 
-0.01878519078338377 
-0.009049392676931587 
0.01925741513470077 
0 
0.03080966602880712 
-0.002831239198399481 
0 
0 
0 
0 
0.02960726534450106 
0 
0.03449046717679324 
0 
0.002951021145212837 
0.002496140357415477 
-0.01841269423156738 
0.0006646722501719384 
0 
0 
-0.03115284759808404 
-0.01102303917291442 
-0.01209563574822125 
0 
0 
0 
0 
0 
0 
0 
0 
0 
0 
7.136524665152033e-06 
0 
0 
-0.006108040817780009 
0 
0.02025829913020359 
0 
0 
0.003478272737427448 
0.01269710865571125 
0 
0.01507193190018402 
0 
0.04181231062086961 
0 
-0.01849094635521853 
0 
0 
0 
-0.008222857869385468 
0 
0 
0 
0 
0.003907078785554824 
-0.002225657410355276 
0.004481898501563421 
0 
0 
0 
-0.01632191102056765 
0 
0 
0 
0.04283332764358489 
0 
-0.005865399346210118 
0 
0 
-0.0235065218889019 
0 
0.02410334325113456 
0 
0.009875077899520844 
0 
0 
0 
0 
0 
0 
0.01700904685679515 
-0.01849094635521853 
-0.004789525600894037 
-0.0001563798829125216 
0 
0.01727590914642613 
-0.01453322524685704 
0 
0 
0.006466234149920392 
0.03499029733445189 
0 
0 
-0.02281701694554526 
-0.0256285719548013 
0 
0.003824067836872893 
0 
-0.009017797539652829 
0.02035172828529018 
0 
0 
0 
0.03056773851840269 
0 
-0.007044527393573933 
-0.001637745496134705 
0 
0 
0 
0.05900082184005364 
0 
0 
0 
0.02057467006762623 
0 
0 
-0.007913714232264214 
0.01555865286891576 
0.0001980912472017103 
0 
0 
0.03142293885003773 
0 
0 
0 
0 
0.01025599027448872 
0 
0.001165285746079289 
0 
0.04511539626394356 
0 
0 
0 
-0.01709245025286099 
-0.01219511402356189 
0 
0 
0 
0 
0 
0 
-0.008415409425456632 
0 
0 
-0.03720052419880772 
0 
-0.007915256943648958 
-0.0048490401859812 
0 
-0.0229640430490277 
-0.00932138917965834 
0 
-0.01305293155093634 
0 
0.09227676904792462 
0.01216780722229923 
0 
0 
0 
0 
0 
-0.02285242634134515 
0 
0 
-0.004286828618986886 
0 
0 
-0.008813501219813568 
0 
0 
-0.003578381849649526 
0 
0 
0 
0 
0 
0 
0.01159384500352442 
-0.004485607290271726 
2.640910194647403e-05 
-0.03241731953848495 
0 
0.02514711663241272 
0.01005481160024525 
-0.01464270696076672 
-0.02296464547887934 
0 
0 
-0.02404679802813823 
-7.59859092365137e-05 
0.03342835325606497 
0.007425427899065216 
0 
0.007827503296317274 
0 
0 
0 
-0.004863178060311352 
0 
0 
0.01662983668628505 
0 
0 
0.01518941729546362 
-0.004436333336393987 
0 
0.02949927215923316 
0 
0.03537371749271404 
-0.001984130838258051 
-0.003570547007298575 
0 
0.01849094635521853 
0 
0 
-0.02980249101311642 
-0.03016730864865941 
8.039453312870813e-07 
0 
0.0151619054246384 
0 
0 
-0.007136637315851278 
0.01849094635521853 
0 
-0.02925844515242797 
0 
0 
0 
0.01663478307855478 
0 
-0.006779901236028436 
0.01069590532875038 
0 
-6.683935894792709e-05 
0 
0.008010892539558896 
0 
0.0001689918337996457 
-0.003039601988367344 
-0.006518269607486116 
-0.01151373351743177 
0.01849094635521853 
-0.04698235274035849 
0 
0 
0 
0 
-0.005600087869642316 
0.0002482647692996708 
-0.002067567151177186 
-0.02278543372702375 
-0.008458084967803944 
0 
0 
-0.04514189674958759 
-0.008973540712253149 
0 
0 
-0.0125403054047714 
-0.02986033877350005 
0 
-0.02558657766694635 
0 
0.005767398141966123 
0 
-0.01529441420862655 
0 
0 
-0.0412558636720417 
0.04017306288637486 
0.02478645839404679 
-0.03730324429913471 
0 
-3.035953798866247e-05 
0 
0 
-0.01902627457808878 
0 
0 
0 
4.007488774340119e-05 
0 
0 
0 
0.02964634461948995 
0.007318315073616776 
