solver_type L2R_L2LOSS_SVC
nr_class 2
label 1 0
nr_feature 79548
bias -1
w
0.0007646150920826173 
0 
0 
-0.01855335911417912 
0 
0.01855335911417912 
-0.01539941461364543 
-0.009740824865081177 
0 
0.03989484503512409 
0 
0 
0.0294359431613626 
0.0786068814976162 
-0.01599373219340085 
0 
0.03425172831958484 
-0.02514778321296072 
-0.02071285248155985 
0.02699860389874335 
0.01319499241052226 
0 
-0.01495790894091274 
0.0469544973860256 
-0.01139744949628134 
0 
0.000192215378742294 
0 
-0.04865989667979551 
0.000235606865276195 
0 
-0.04145542851832192 
-0.002552774562282216 
-0.001545001878718714 
0.03080713605554471 
-0.02215620482425659 
0.01792906975005148 
0.01835908512713691 
-0.02757639774542994 
0.01946674254431877 
0.005453520937077262 
-0.03115167624031781 
0 
-0.01952232341459864 
0 
-0.02381125055815544 
0.009649811793654969 
0 
-0.02043653531410761 
0 
0 
0 
-0.002189136225622304 
0.01337952117884731 
0.01961509221322971 
0 
0.001138861253954212 
0 
0 
0.01235380399066706 
-0.02669629459081009 
-0.04450566568004004 
0.0006205841878989832 
0 
0.000186671217472957 
0 
-0.008022007625055536 
-0.01497366452966058 
0 
0 
-0.02428120929608919 
0.02408547638003023 
0 
0 
-0.008332819892043028 
-0.007831545859567733 
0 
0.002625209578154617 
0.01341036798923104 
0 
0.01795755343751047 
0.03375419248976876 
-0.01048160827329449 
0.01510526947800839 
0.02993732583488144 
0.03123767471934758 
0 
0 
0 
-0.01675437251858023 
0.02172960641261224 
0.01973451452338219 
0 
0.01127915795137143 
0 
0 
-0.0276037845249833 
0.0001402636420496993 
-0.006399084129851365 
0.02418272101687448 
0.001805702257673505 
0 
0.01422982974488382 
-0.03565121351416838 
0.00604210739982875 
0.009314638545718812 
0 
-0.02603421843776966 
0 
0.005217150850801666 
0.0001765233328600058 
0.00882042971835998 
0.01638248245059833 
-0.01588603927545121 
0 
0 
0 
0 
0 
0 
0.01855335911417912 
0 
0.02437561785971949 
0.04286477204574051 
-1.915441696048616e-05 
0 
0 
0 
-0.02250671033703121 
-0.001020193693172734 
0.0004376775836925212 
-0.004615795033533144 
0.01380068959649339 
0 
0.01855335911417912 
0 
0.03335080350547254 
0 
0.0001499093915386667 
0.0001965381333516959 
0.04713151670726833 
0.01632197321521012 
0.005081354748134609 
0 
0.007153175777909932 
0 
-0.00611288472959444 
0.02235100691955121 
0 
0 
0.01027359418094089 
0 
0 
-0.02188577740172736 
-4.190974800060088e-05 
-0.001391269327298158 
0 
0 
-0.01660327912932155 
0.02107461900773069 
0 
-0.01064813508310812 
-0.01168329033254228 
0 
-0.008413558101148579 
-0.007480061602004865 
0 
0.03293547473559283 
-0.00237903496557866 
0 
0.02052671546487697 
0 
-0.004646074371613754 
-0.01961238938710017 
0.0144636473313131 
0.09427102528041 
0 
0.02344985117771326 
0 
-0.01349344994388228 
0 
0 
0.09852714501820567 
0.004801354816156218 
0.01323079850055719 
0 
0 
0 
-0.01682624419032942 
0 
-0.02811610442798547 
-0.02659863189475596 
-0.0001991652830703866 
-7.05661323561721e-05 
0.02813242410318138 
2.107955020198797e-05 
-0.03388361697388532 
0 
-0.008931167150168135 
0.004315869311567631 
-0.02628292687528229 
0 
0 
-0.02725185383210887 
-0.02748694225711153 
-0.01197607674683076 
0.02262030866617374 
0.02125761114626286 
0 
0 
0.01914313802532351 
0 
0 
0.01228396635329087 
0.01855335911417912 
0.00501093080163576 
0 
0.02258040880624423 
0.01231500176865019 
3.461966547364149e-05 
-0.03293414735570038 
0 
-0.03217999135988647 
-0.02047818881685978 
-0.0135483293843142 
-0.05353437716144725 
0 
0.001741245402827576 
0 
0.00633301281148653 
0.04805510292202961 
-0.01353977289558147 
-0.01446497868083843 
-0.01922822068545274 
0 
0 
-0.01160646735985943 
0 
0 
0.01955517373170527 
0.03864689088621545 
0 
0 
0.007801094299360696 
0 
0 
-0.01519176762276091 
0 
0.01741005564548852 
0.01347106111441032 
0.007294196743547123 
0 
-0.01663007300769507 
0 
0 
-0.01501142437053431 
0 
0 
0 
0 
0.03884871237605431 
-0.02231478494088927 
0 
0.01439582132814872 
0.03515227056446692 
-1.697947281267145e-05 
0.01019804067072569 
-0.004079560551136548 
0 
0 
-0.01854541126267712 
0 
0 
0.0001888173706641025 
0 
2.977986068598279e-06 
0.01431696639896669 
-0.006174246434690822 
0 
0.0001331576116471205 
-0.0716207253209505 
0.0257831736577216 
-0.03111779820000156 
0 
0.00643422066033879 
0 
-0.008861643746306224 
0 
-0.01504035067667889 
0 
0.000305306408080774 
0 
0 
-0.02539862125112491 
0 
-0.002173818713634687 
0 
0.01817184620074572 
-0.01223677444535131 
0.02581947416903011 
0 
0 
0.0003891672359088486 
0 
0.0002425653547179632 
0 
0.04186125316767752 
0.04187239330339979 
-0.0176628226514744 
0 
9.169714606722766e-05 
-0.07057511170127238 
-0.07438030163656685 
-0.007307080233349538 
0.01776396404727064 
0.005761336432403633 
-0.02452908734384155 
0.006683953080651816 
0.0277880388366402 
0.0299547548624543 
0 
0 
0 
0 
0.03061815546288037 
0 
0 
-0.03750842196231608 
-0.022616856215926 
-0.01952844278266659 
0 
0 
0.01508013070792798 
0 
0.003809252881037205 
-0.01855335911417912 
-0.02100629388113738 
0 
0 
-0.02331398607832007 
0 
0.0006247327236111758 
0 
-0.02993415943736966 
0 
0.02409318159722471 
0 
-0.01411767243098495 
-0.003101949521904869 
0 
0.01838369932798473 
0 
-0.0132019701757482 
-0.02164259831004234 
-0.01861737319393892 
0.03028465903681703 
-0.02515052951261289 
0 
0.009940381298299298 
0.07495590182790338 
0 
-0.007579401418067374 
0.005764468707251875 
0 
0.007658695784341267 
0 
-0.0438044062267275 
0 
-0.05867418988453259 
0 
0 
0 
0.02859630627026443 
-0.02602345115230946 
-0.03380292409295853 
-0.04594316794511426 
0 
0 
0.03737423880055073 
-0.02418621738044364 
0.00928674906348438 
0 
0.009300259246131906 
-0.008240679648337681 
0 
0.008705091249326512 
0.005150562726885556 
-0.01753330551176567 
0 
0 
0 
-0.01398333820095904 
0.0127381212047154 
-0.01751311250549461 
0 
0.02638412936872983 
-0.00449896936678502 
0.009275033722034972 
0 
0 
-0.01027945120899677 
0 
0 
0 
0.008959296373617186 
0 
-0.02380775634232668 
-0.02880006826558927 
0 
-0.01561178992409156 
0 
0 
-0.03075328921960678 
0.01289467432288754 
-0.02449637630305165 
-0.009699709566599126 
-0.00232628507524536 
0 
0.01820335694037338 
-2.184530305290632e-05 
-0.00814088184067319 
0 
0.001627247057753356 
0 
0.00967794126344489 
-0.0114915134974444 
0.009660127366362507 
0 
0 
0 
0 
-0.01302429325722305 
0 
0 
-0.007053937816192703 
0 
0.0322043479807052 
-7.093453709932883e-06 
-0.01630144878399088 
0.01784341043973864 
-0.01530257065221011 
-0.01963467857512919 
0 
0 
-0.01975600609704993 
0.02463164864159068 
0.02266114580923754 
0.01556590454024224 
-0.009266834600507121 
0 
0.02733421921866009 
-0.03424010984157199 
0 
0 
0.01855335911417912 
0.02180419762169166 
-0.0004285220924319777 
0 
0.004794200765017951 
0 
0 
0.0004519565303166227 
-0.01526041776133148 
0.04912556086240546 
0.03927960023270342 
0 
0 
-0.02718650314203975 
0 
0 
-0.006053293475556758 
0 
0 
-8.101484915818216e-05 
0.008729275003217279 
0.01652439843972328 
0 
-0.01101997137324487 
0 
-0.01242233924266643 
0 
-0.01364039553623747 
0 
-0.04948160784293146 
0 
0.01791551020190564 
0.0186893367715349 
0.0005439574253665509 
0 
0 
-0.01503146030682399 
0 
-0.01151424542345018 
0 
-0.01869335377649765 
0 
0 
-0.06556994018230952 
0.005639365268702691 
-0.009389929856740985 
-0.0233417551361306 
0 
0 
0.005256685251342256 
-0.006394772926177021 
-0.007925828678574985 
0.0004880603498640655 
-0.01943393220167425 
0 
0 
-0.01269214793909433 
0.01038205740507241 
-0.0370499884059835 
-0.02987195394716616 
0 
-0.02264241979008786 
0 
0.01855335911417912 
0 
0 
0.01064093307777624 
0.01583683951458268 
0 
0.002070955336975179 
0.01775634003126129 
0.008584101518566024 
9.862990069501318e-05 
0 
0 
-0.002527906091234438 
0 
0 
0.02777830936669106 
0.01932324827647032 
0 
-0.004648066181953614 
-0.02523098552468132 
0 
-0.00063260008347037 
-0.009732203031946211 
-0.00550915675285071 
-0.004574794853992743 
0.01270432964256034 
-0.01487195246620965 
0.00188470196772864 
0.01257858773379177 
0 
0.01289297008187587 
0 
-0.005424423919113448 
0 
0 
0.03284239976037956 
-0.02018420650934125 
0 
-0.03178927372611948 
-0.04026001488314913 
0 
0.007553331466063155 
0 
-0.004467054570775111 
0.01552976937200107 
-0.02419340220457012 
-0.003453026229913552 
0 
0.01159538034015378 
0.006603455135431232 
0.0181263824145481 
0 
-0.01991163705622543 
0 
-0.04885610577956244 
0 
-0.007475024553363113 
0.006459239799529608 
-0.01753330551176567 
-0.02248302034575002 
0 
-0.0087297890596508 
-0.01195523531889284 
-0.01966674342284015 
0 
0.004768886463906664 
0 
0 
0 
-0.004789918154812707 
0 
0.02683751062767611 
-0.0007484645443055998 
0 
-0.01462237215904045 
0 
0 
0 
0 
0 
0 
-0.02044646530753135 
0 
-0.0004081356714409647 
0 
0.01086274318163379 
0.02002657706838966 
0 
0.03870927191856723 
0 
0 
0 
-0.01778103383208208 
-0.04206803291825786 
0.001776405420445348 
0 
0.01692904367534067 
-0.02191982868165434 
-0.01352006921803565 
0 
0.02490294564947992 
0 
0 
0 
-0.01896760122209085 
0.00997467089658757 
0 
0 
-0.01403526639092023 
0 
0.01855335911417912 
0 
0.002697821597411013 
0.003355500558391314 
7.905051613699025e-06 
0 
0.03041949618707404 
0.009183918147708935 
-0.02244087022819449 
0 
0 
0.008164481795782733 
-0.0006751062952881788 
-0.01948211065723125 
0 
0.04715781712317637 
-0.01846702810433554 
0.009445773816833522 
0 
0 
0.01243852896096154 
0 
-0.003188995736563094 
0.0166363930054628 
-0.02603146632873097 
0.006034139155502615 
-0.01494743760851831 
0 
0 
0 
0 
0.01389811565554518 
0 
0 
-0.02401592044654452 
0.01150877826722698 
0 
-0.03274890415057008 
0.0001079995755088587 
0 
0 
-0.05152842945199521 
0 
0 
0.02478490158698258 
0 
-0.03922294366415156 
0 
0.02724475129030706 
0.02263359669242116 
-0.01855335911417912 
0 
-2.43077307247424e-05 
0 
-2.911696292029469e-05 
0 
0 
-0.01735947618985702 
-0.02290341081992987 
0 
-0.01604052727723177 
-0.01560982445410065 
-0.06189372368319395 
-0.01631642060104119 
0 
0 
-7.689092178514727e-05 
0 
0 
-0.0285686891418016 
0 
-0.01146708384614545 
-0.04306580810640086 
0.009568133222785755 
0.01110191017861485 
-0.006889248711873589 
-0.01142186213311852 
0.01339043749003599 
-0.0593174003587469 
0.004584700438965713 
0 
0 
0.0133330154037225 
0 
-0.006154774965117014 
0 
0 
0 
-0.01497219587113002 
0 
0 
0.006191064370124157 
0.003955559845517423 
0 
0 
0 
-0.02230892548514219 
0.003269851449940751 
-0.04286699604331115 
-0.05454477259719404 
0.007160476195167998 
0.02794179723571437 
0.01540606456201878 
-0.01753330551176567 
0.001988594787270695 
0 
4.705475763128476e-05 
0 
0.002684282515140368 
0 
0 
0.01338392782733207 
-0.02634766114086482 
0.02991475453226723 
-0.005368052202842687 
0.002555760430417911 
0 
0.0006329846685568649 
0 
0 
0 
0 
0.01172710978773664 
0 
0 
0 
0 
0 
0.0003859491796279993 
-0.00587603172741118 
0.01992749130278596 
-0.02761796326348826 
-0.03075696176142525 
-0.03363546104648098 
0 
0 
-0.02415602309247693 
0.004558451494994074 
0 
-0.05402241867245049 
0 
0 
-0.03117952113393599 
0.01428579170255828 
0.01228021227889097 
0.04025153135882872 
0.0426407374048887 
0 
0.003067599635572307 
0 
0.01461245690651564 
0 
-0.0005079174627983147 
-0.01540680474884253 
0.06791122581297922 
-0.02030906259847358 
0.02323695298020304 
0.0162659800094247 
0 
0 
-0.009020032956385923 
-0.01781932134209106 
0 
0.01230926361997137 
0.02935258932201905 
0 
-0.005260573044657046 
0.02343161295050789 
0 
-0.009911395290657184 
0.03217328510492374 
0 
0 
0 
-0.005975029027628311 
0 
0 
0 
1.68931254409555e-05 
0 
0 
0.0132464693611438 
0 
0 
0.01406100896975373 
0.04777621039784029 
0.01358183124810133 
0.01534212894568113 
0 
0 
-0.003471671427854989 
0 
-0.008031618276045066 
-0.04155159347325517 
-0.01916460724743031 
0.04036774801050526 
-2.327040783414543e-05 
0 
-0.01855335911417912 
-0.01072370697255205 
0 
0.01460899238474056 
0 
-0.01855335911417912 
0 
-0.0110665918746029 
0 
0 
0.005329883586960646 
0 
0.01489100842927093 
0.01318493766246188 
0 
0.01666114069695701 
0 
0 
0.0001559078564969099 
-0.01260662434854898 
0.01097589588419701 
0.006657560180139725 
0.02208227373159726 
0 
0 
-0.006619435562282248 
0 
0 
-0.0006855588252706346 
-0.00938989305226378 
0 
-0.026781898924763 
0 
0.01259947534106247 
-0.05346245851684181 
0 
-0.0226830727402565 
0.0004762147277295285 
0 
0 
0 
0 
0 
0 
0.05801285737794654 
0 
0.01968882522276175 
0 
-0.01660562308389115 
0.0004292494653985101 
0 
0 
-0.01734889292085538 
0.02248442476835655 
0.02569799254488358 
0.02051525154300991 
-0.005618368804658901 
-0.01131436179905625 
-0.01322043202850463 
3.058697599882589e-05 
0.02991942622134737 
0 
0 
-0.01143227850748403 
0.01550300014823369 
0.02979563586799206 
0 
2.1570620973791e-05 
-0.01439769498618491 
0.05171461360588395 
0.006971584215430081 
0 
0 
0 
0.009383871263078044 
0.004374135162295898 
0 
-0.003763278173272001 
0.02130931787929273 
-0.05242252978868476 
-0.01176477492080846 
0 
0 
0.01755130828356721 
-0.002900867257086053 
0 
0 
0 
0.005347205650365528 
0.004427621300154466 
0 
0.02301446810927047 
0.01271587008319134 
-0.010640553761668 
0 
0 
-4.420486329015646e-05 
-0.05289598802452349 
-0.001825413486919192 
0.03941336089100942 
0.02109107412238896 
0 
-0.01744715707350121 
0 
0 
-0.009942673408998202 
-0.002891697725600493 
0.03140436919239307 
0 
0 
-0.1082187843296841 
0 
0.0108550397631332 
-0.005986596168778873 
-0.02416384956115308 
0 
-0.02510928381153959 
-0.01306012595826339 
0.01274052018408302 
0.004264150107841093 
0 
0.01209989847313469 
0.0001291412385753284 
-0.008113381980432325 
-0.01242878212340664 
0 
0 
0.04889508749126421 
0.07184909113779354 
0 
0.008690195897739393 
0.02578796827052405 
0.01855335911417912 
0 
0 
0.02287467697359453 
0.002428883099195056 
0 
0.005826378076408224 
-0.001884935074695973 
0.01025850866158935 
0.0003400918766464274 
0.03752629086281149 
-0.01266779461257432 
0.009685965176020448 
-0.01347826443223639 
-0.01751987965102668 
-0.05129508674157733 
-0.03313112762124989 
0.01016119470984014 
-0.006544238922404899 
0 
0.005003367780513213 
0 
0.01379501129330277 
-0.01791551020190564 
-0.01604406283925986 
-0.02406727761802422 
-0.03659473007635163 
-0.01580225020455259 
0 
0 
0.00349667538870561 
0.006244796903495486 
0.009048127879085412 
0 
0 
-0.01525640313565254 
0 
0 
0 
0 
0.03729158049712375 
0 
0 
0 
0 
-0.00306223139815324 
0 
0 
0.008524909202547691 
0 
0.08125815212566685 
0.02519668277834056 
0.04649438373370321 
0.000216516071682815 
-0.007916729192183877 
0.004325820127214694 
0.02114169584333881 
0 
-0.01115104169971744 
0 
0 
0 
0.03542063108075863 
0 
-0.01563971301750854 
0.008195234937225626 
0.01297477211811981 
0.01804800546323203 
-0.004458199743284631 
0.03123350973290224 
0.01522383378547622 
-0.003650539811389139 
0 
0 
-0.01984589342260908 
0.02626360266399644 
-0.01579695699576773 
0 
8.164274160955495e-05 
0 
-0.01858886072578031 
-0.003003854951862752 
-0.004746287596994477 
0 
0 
0.02637455742263255 
0.001510793484830289 
0.06975351367246545 
0.006524332837283256 
-0.00016207584296193 
0.01666632712811775 
-0.01051016028671668 
0.01290024614290066 
-0.004892948991124029 
-0.03518541546955994 
0 
-0.0142927738890658 
0.006297177584248286 
0 
0.004149419669436689 
0 
0 
0 
-0.01236075596134967 
0.01349627056260966 
0 
0.00752120592026812 
0 
-0.0376919918588895 
0 
-0.004174804818651189 
0 
0.0009739225921552859 
-0.005153614013247125 
-0.01861491937064371 
0.0006130078906504288 
0 
0 
0 
0 
0 
0.01365489922855428 
0.0006104166029789241 
0 
0.01988360285195477 
0 
0.01595563454830305 
-0.01287652573067882 
0.0311787091562083 
0 
0 
0.002285579266232363 
-0.001922501973374807 
0 
0 
0.0009210667011274028 
-0.02671583577106067 
0 
0.03311280955578659 
0.003590238810207896 
-0.01580280766896851 
0.03871483444356323 
-0.0002022636486624195 
0 
0.004340293288726874 
0 
0.007492260549649278 
0.001913472608658663 
0.05987713372519939 
0.00986928944951841 
-0.01855335911417912 
-0.001633343899066145 
-5.071771281101311e-05 
0.01328572286389512 
0.003039508368588327 
0.02764674776637202 
0 
0 
-0.008924958563518211 
0 
-0.01849766171722319 
0 
0 
-0.01119331834331157 
0 
0.03252980366688624 
-0.03429517280715338 
0 
-0.01695561470379274 
0 
0 
-0.000842537255581776 
2.69941030777859e-05 
0 
-0.03164361190783715 
0 
0.0168012739829871 
0 
0.02938108619413627 
0 
0 
0 
0 
0.04707626129931954 
0.01373023547423333 
0 
0 
-0.009739864105691226 
-0.009739864105691226 
0 
-0.005732142709458031 
-0.01595746010383211 
0.0175309575704236 
0.02219756000148638 
0.0004303217797258522 
0.01110675702696759 
-0.05372135497802531 
0.01855335911417912 
0 
0.01540606456201878 
0 
0.04825921116896029 
0 
0.008383876400470305 
0 
0.01379237472822041 
-0.01790506071223146 
0 
0 
-0.02463679946489915 
-0.05281010153672206 
0.03170543363976863 
0 
-0.01340088773539699 
0.0004334105524674758 
-0.007920564937850278 
0.02163910254874115 
0 
0 
0 
-0.01944340381477282 
0 
0 
0.01769362380035839 
0 
0.003704665949585573 
-0.0087011093625241 
0.02868477488724029 
0.03528925711854943 
-0.01311851464652859 
-0.0252293667606154 
-3.132043302773352e-05 
-0.02003473630458148 
3.935143221821472e-05 
-0.04484504658732674 
-0.01674468950946081 
0 
-0.06084356752511372 
0 
-0.003639855477845375 
0 
0.01787973238662461 
0 
0 
0 
0.01442002530191949 
-0.00278940436330278 
-0.02072423577775991 
0 
0 
-0.01855335911417912 
-0.007681494054460895 
0.03386787806057962 
2.24980707800461e-05 
0 
0 
0 
-0.01294055875417833 
-0.01860803890668117 
0.01064276532395332 
0.008600252896041891 
-6.263162211833637e-05 
0 
0 
-0.007260615233393817 
7.48064454673856e-05 
0 
0.02953035421901976 
0 
0.02289983073698987 
-0.01794796394709696 
-0.01323026598312507 
0.01855335911417912 
-0.01212266239739689 
-0.03141711677870049 
0.003041497926933587 
0.03112310564792618 
0 
7.310945725202004e-05 
0 
0.06478136449944968 
-0.03123259438567598 
0.01697415348290446 
-0.02058471100012762 
0.004048623700846419 
-0.03622472283305733 
-0.03409983387283215 
-0.005161351472975786 
0 
-0.009227204857898979 
0.02015130050023291 
-0.002216159603361703 
-0.00745181876122256 
0 
-0.02103052663088889 
-0.008562889623824857 
-0.01112378465102548 
0.04524998095183875 
-3.125417947097847e-06 
-0.006072233370307298 
0.009770816056065324 
0 
-0.01630281615106562 
-0.01696741685279435 
0 
-0.02667779403612826 
0 
0 
0 
-0.005013788032394486 
0.00565133153767 
0 
0 
0 
0 
0 
0.02114303056987222 
0 
0.01546509457805324 
0.04349845606722355 
0 
0 
-0.01599216398772084 
0.01603559465381133 
0 
-0.01132887690691873 
-0.01485651520424088 
0 
0.03381967959882422 
0.02951651171585919 
0.01108684932726934 
-0.01034581523812254 
-0.03230794907957246 
-0.0087960129263727 
0 
0 
0 
0 
0 
0.001834112590865586 
0.009169954766988061 
-0.01351352094560626 
0 
0.002815567246242747 
0 
0.01695365527358349 
-0.003425434014069481 
0 
-0.0006379186375699312 
0 
0 
0 
0.03146043144611368 
0 
0 
0 
-0.0493133105233064 
-0.01358137244213194 
-0.008584797352910341 
0 
0.01615749044548312 
0 
0.03112372286903804 
-0.008607041696888879 
0 
0 
-0.008233822408035734 
-0.001761893439629304 
-0.01014160933820866 
0.0003083710618467687 
-0.01678253200853989 
0.00373248904873493 
-0.00887325133316965 
0.01706576851486646 
0 
0.05991499946853188 
-0.03798177504033273 
0 
0.00991806392764721 
0.03228127750871106 
0 
0.009930646590595928 
0.02517777067269578 
0 
0 
0 
0.02459041019010499 
-0.02088866999764814 
0 
-0.002929034236068604 
0 
0.006201771510966962 
0.008186381983625911 
0 
-0.0001010652262688038 
0.04773804419557183 
0.01417816127828559 
-0.01253935686510766 
0 
0 
-0.07605628124721747 
-0.02068730819945452 
0 
-0.0009031343938899049 
0 
0 
0 
-9.693137629836532e-05 
-0.0001532099655967853 
0 
0 
0 
0 
0.01822255610888604 
0 
0 
0 
0.008872046925821751 
0 
-0.008655743734771505 
-0.01634291757837623 
0 
-0.000110723591579433 
0.01855335911417912 
0.0002923689413038758 
0.01719541931795704 
0 
0 
0.006346614065453912 
0 
0 
4.162379137760452e-05 
-0.02857926327700532 
0.01295538915306467 
0 
-0.03046107138652291 
0.006985725190003248 
-0.01717210159691422 
0 
0 
-0.04178842026396438 
-0.03222926153780102 
-0.02770540014791205 
-6.022170903887424e-06 
0 
0 
0 
-0.002987671135060821 
0.03155047424376946 
0 
0.01536039960400342 
-0.006022115283645465 
-0.000239688350292358 
0 
0 
0 
0 
-0.000819733446622661 
0 
-0.01181141640628298 
0 
0 
0 
-0.01590030809533656 
0 
0 
0 
0 
-0.02621460719176319 
-0.02151998749749414 
-0.005479901257138786 
0.01929889408008266 
-0.004951754201399155 
0 
-0.01269261274404252 
0.008822592836152034 
0 
0 
-7.757313330070885e-05 
-0.02710830410794434 
0 
0 
0 
1.953536285768781e-05 
0.0022909916281838 
-0.01713725515578366 
0 
-0.009524997182976254 
-0.002158512483146347 
0.01727312982046904 
0.02444322368762107 
0 
-0.003743255751439965 
0.01738948118054923 
0 
0 
-0.04175436220076632 
0 
0 
0 
0.009693842524616749 
0.004622736481386588 
0.02115600323204621 
-0.01387566622543064 
-0.01972904947514871 
-0.02220559792401251 
0 
0.008782917361179055 
-0.01855335911417912 
-0.02993998630745542 
0 
0.005185627610956632 
0 
-0.02055187575906386 
0.005200802765703436 
0.04054117836112966 
0 
0.007710446685288258 
0 
0 
0 
0.04405289697917521 
-0.008416282972265486 
0.02011594758406385 
0 
0.01421053485459062 
0 
0.01855335911417912 
0.0009229673720904057 
-0.009693143750565795 
0 
-0.02386250200183741 
-0.01027114287844288 
-0.01688293673254807 
-0.01373530077274247 
0 
0.01784184917133672 
0 
0 
0 
0.0248747332837086 
0 
-0.0005170318778271848 
0 
0 
0 
0 
0 
0 
0 
-0.006520870035311634 
-0.01855455440944612 
0.03589204980467345 
0 
0 
0 
0.02445967189539479 
-0.01480141706960083 
-0.01922195895902417 
0.01735136750013053 
0 
-0.0345967791975547 
0 
0.01765833644474758 
0.04393718038221642 
0 
0.04030931775209807 
0 
0 
0 
0.08898680495731247 
0 
0 
-0.008890799893685677 
0.01614541283651641 
0 
0.002074919763606386 
-0.0008943640797157346 
0 
0 
-0.00470065898284251 
0 
-0.00577094790310375 
-0.01098383540848787 
0 
0 
0 
0 
0 
0.01670075596849877 
0.005821536364012937 
0 
0 
0.001557772280084761 
0.0150613722130018 
-0.009101144959945738 
-0.00670207371323223 
0 
0.01855335911417912 
0 
0.01111175495497478 
-0.0136198527344211 
0 
0.02423330685829429 
0.01227225913102309 
0.01632234606685037 
0 
0 
0 
0 
-7.72588939977138e-05 
0 
0.01526386687842649 
-0.02100276628854498 
0.03441679519368022 
0.05013140808121226 
0 
-0.007729440600755918 
-0.02078957716128422 
-0.002255315381568753 
0.02149647464264102 
0.001465143377407247 
-0.01138070810852755 
-0.0003484882747945301 
0 
0 
0.02231150337149108 
0 
0.04502981696810479 
-0.06191443115851824 
-0.009921743197515667 
0.01975523007957266 
-0.02242454864678882 
0 
0 
0 
0 
0 
0 
0.001316854794675999 
0 
0 
0.0342145559960407 
0 
-0.01997021557897174 
0 
-0.01003170200689846 
-0.02437506238551041 
0.04850801167510978 
0 
0 
0 
-0.03440720316049381 
0 
0 
0 
0 
-0.01146573329191813 
0 
0 
0.005493381769525936 
0.01150509474234841 
-0.0145806962756667 
0 
-0.01966915909818309 
-0.004966542566365422 
-0.009225737725692483 
-0.01940157582995385 
-0.01234100631193632 
0 
3.284427226560503e-06 
0.01815230167238315 
0.02083353925400365 
0.01811635628158978 
-0.01865488120507675 
-0.01855335911417912 
0 
0 
0.009315849708830835 
0.009722324095758838 
0.01556044748863803 
0.006271089905892826 
0.0158999672706801 
0.01415719924940005 
-3.865172575383628e-05 
0 
0.0009795788130923984 
0 
0 
6.833853172224895e-05 
0 
0 
-0.01680329824237572 
-0.001076186106611459 
-0.02860594750439168 
0 
0.02190327669312934 
-0.008961850140703826 
-0.027831676242463 
0 
0.02002111843245188 
-0.01406867208786589 
-0.02560626107495574 
-0.0003521785907026403 
-0.01656135678045572 
0 
-0.008160034619034053 
6.96041559620234e-05 
-0.01167709094264549 
-0.007390725458828162 
0.002660698337735388 
0 
0 
0.01784639235352246 
0 
0.0007353211160374493 
0.02510671558435202 
0 
0 
-0.0201973122199731 
-0.00848632419092438 
-0.01536282511010427 
0 
0 
0 
0.008195725515385905 
-0.005830502939235867 
0.01292103119688359 
0.0143364443501534 
0.02340116768429392 
-0.01468988026945281 
0 
0 
-0.009737948221533684 
0 
0 
-0.03142716916653736 
0 
-0.01882434764108676 
-0.02327307390133087 
-0.0001096450653390293 
3.808838474260471e-05 
-7.968052800457018e-05 
-8.231517173859292e-05 
-0.00060674852030896 
0.02625280315075077 
0 
-1.985768685021438e-05 
0 
0.02598056959207955 
0 
-0.02559027974481377 
0 
0.002498273568318456 
0.005906967222245455 
0 
-0.03367558999879177 
0.002186862181429008 
0 
0 
0 
0 
-0.01737631846193003 
-0.002067224090640653 
0.009012554371088197 
-0.01495029097787824 
0 
0 
-0.006151146339527721 
-0.0004847224002016741 
0 
-0.08189708512025676 
-0.001116539001974373 
0.01491835165836092 
0.01372830867386299 
0.02354540578678711 
-0.01310830630939347 
0 
0.01791551020190564 
0.01362380398644794 
0 
0.03623310184386768 
0.0003155612713180214 
0.0075397214848563 
0 
0 
0.02557512761245971 
0.01984395138161848 
0 
-0.02470687899152655 
0 
0 
0.01429617146695015 
0.009608042352743052 
5.211922098378259e-06 
0.02271480811134719 
0 
0 
0 
0.04690261110744891 
0.009234869226077823 
0 
-0.0414951791385477 
-0.01417750333021297 
0.01501676617551101 
0 
0.003850135648753653 
0.005747127771459404 
0 
0.07249098138137568 
0 
2.213026327842992e-07 
-0.02061763023095964 
-0.006620742666123915 
-0.008939192733811642 
0.01720555628945655 
0 
0 
0.02706239402404839 
0 
0 
-0.02488367221103356 
-0.01120474116673372 
0 
-0.02428053407372267 
0 
-0.01759545030580543 
0.01202464130207949 
0.02867321562383075 
0.03845700227050721 
0 
0 
0.04410517503205999 
-0.004226421845141992 
0.01426087455204839 
0 
0.01025623284371281 
0 
0.008960602959314855 
-4.056675545161677e-06 
0.02925568643606795 
0.0111934849173338 
-0.01354149424246419 
-0.0234904854138919 
0.0206324446514377 
-3.349579701849439e-05 
-0.01547450672543552 
-0.00720315854857101 
0 
-0.01309577301266842 
-0.01279097642095536 
-0.01430318917314207 
-0.01856748191147828 
0.000577796538207031 
0 
0 
0 
-0.0357275536432048 
6.797033235762538e-05 
0 
-9.982625298989066e-05 
0 
0.02386819110889099 
-0.006255698865107077 
-0.01855335911417912 
-0.01212698763793942 
0.04219360275904563 
0 
0.004991380947761762 
0.03158488106358849 
-0.1029982188587228 
-0.01056646478667002 
-0.008508589786503663 
0.01439385460364899 
-0.01051402003066368 
0 
0 
-0.0005268887175254997 
0.01786833472184709 
-0.01936565399901894 
0 
0.03729058677935654 
0.029721211460741 
0.004340293288726874 
-0.01920262740127163 
0.002978933440810439 
-0.008750706725095318 
-0.01015768853628628 
-0.01111223822612698 
0 
-0.01641036972364531 
0.007513358170924498 
0 
0.01159538034015378 
0 
-0.009707681232455065 
0 
0 
0 
-0.0135023851384824 
0 
0 
0.0002991371389618865 
0.01611794154959609 
0 
0 
-0.02255949597330414 
0 
0 
0 
-0.001572206827018636 
-0.04556131443476749 
0 
0 
-0.008974380478843661 
0 
-0.03404422636058196 
0.01565295080948628 
0 
0 
0 
0.02458891622525408 
0 
0 
-0.0005652770409189218 
0.0132846238905304 
-0.01322565665294831 
0 
0 
0 
0 
0 
0 
0.02823629278871335 
-0.0314300157157623 
0.03427785914686663 
0.05720728264664446 
0.001909174547571006 
0 
0.01540606456201878 
0 
0.01530404479268806 
-0.002575740571548092 
0 
0.05470804384423756 
0 
0 
0 
0 
0.02153576267592533 
0.01250840763353107 
0 
0 
0 
0.0003709581486776618 
-0.01677401041016074 
-0.002709774209161218 
0.04573086032716273 
0 
0 
0 
0.005636334243997796 
0 
-0.004995053317911471 
-0.06321404461734259 
0 
0 
0.003771004180833174 
0 
0.01221875034244035 
0 
0 
0 
0 
1.724465356954083e-05 
0.01803184059837058 
-0.001405002123029505 
0 
-0.0002119474550161807 
0 
-0.05932635961063572 
0 
-0.01372289573276353 
-0.07625648628769624 
0.03514465714946775 
0.02658198808885493 
0 
0.01089588390606371 
0 
-0.0004451967832449049 
0 
-0.009749434878414544 
0 
-0.01754019121695663 
-0.007799291380530335 
0.03101735393437256 
-0.05410762517927811 
-0.0009026483806767942 
0 
0 
0 
0.001636425559172706 
-0.003514474493707001 
0.02534329863738977 
0 
0 
0.04769336417485526 
0.01492799701005119 
0 
-0.01551793618863378 
0.0001362565667254202 
-0.01146004944132917 
0.01754326768721758 
0.01924069467969218 
-0.0287841602345199 
0.02349710192665775 
0 
-0.01756377142872819 
0.003103848536814996 
-0.005664661988184667 
-0.01371219965265591 
-0.01751993541458063 
0.01796430729058649 
0 
0.04571285965411986 
-0.008605803234996927 
-0.01584267899968274 
-0.01467818086405312 
0 
0 
0 
-0.04173086889237768 
-0.0002875264589504047 
0.01343023448997193 
-0.005845093094000389 
0 
-9.783586514772706e-05 
0 
0 
0 
0.0004906137523733641 
0.02938430780860137 
0 
-0.01219436346323194 
0 
-0.01650350721602271 
0.0001720835843097639 
0.02242572694838583 
0 
0.01383126462125078 
0.007799260836082692 
-0.008932821312454426 
-0.02476145041018197 
0 
0 
0 
-0.04760037414714405 
0.005371744230702052 
0 
0 
-0.007113836656897637 
-0.001279331450907443 
0 
0.0354740024104903 
0 
0 
-0.001671085894283881 
0 
0 
-0.02624586654739634 
-0.0271699618566455 
-0.01292027377740429 
-0.01850838918025314 
0 
0.01016817439220704 
-1.697981092900946e-05 
-7.899961344649592e-05 
0 
0 
0.0001025644246767439 
0.0001101387194276763 
0 
-0.0343520398379694 
0.0382123030925911 
-0.1059532755030991 
0 
-0.008667997381570047 
0 
-0.01855335911417912 
0 
0.03250145734491116 
0.01986596962571547 
-0.001863000872373759 
0 
0 
-0.007380644543790132 
0 
0.008921897968373994 
0 
-0.01071839272345609 
0.02903880247829327 
0 
-0.004018312641449362 
-0.01018093508527047 
0.01705247455845705 
0 
0.01409261746763396 
-0.007322880621278489 
0 
0.01073602318360276 
0 
0.006113436575630531 
-0.01988095270900169 
-0.01305181495021633 
0 
0 
0 
-0.0001012048338307588 
0 
0.005107516472893929 
0.01688984365383445 
0 
0 
0.01943116378009329 
0 
0 
-0.01330244142875698 
0.007986786009661555 
0.00668723025786921 
0.01855335911417912 
0 
0.002509822048664417 
-0.001487346757393598 
0.01323245097566641 
0 
0 
0 
-0.03875608776453845 
0 
0.008449773879738578 
0.005215071327988704 
0.01128258005579267 
0 
0.007979186103081364 
0 
0 
0.00519978689404742 
0.01272562223874027 
0.000601258917691349 
-0.0001659366336120344 
0 
0 
0.005061113213642247 
-0.01160423192357326 
0 
0 
-0.009538426712152265 
0 
0 
0.0003707348968172776 
0 
0 
0 
0 
-0.008154777808405945 
0.02110963366876933 
0 
0 
0 
0 
-0.03112839938226674 
-0.03383836269378495 
-0.009605003211053658 
-0.007347241838409647 
0 
0.006929328763716021 
0 
-0.03865595402904726 
0.01924043927901576 
0 
0 
-0.03128309435460996 
-0.00919904315787725 
-0.01510142883975177 
-0.002537490532648854 
-0.004824713524905606 
-0.02534247460339362 
1.106751860135892e-05 
-0.001720997838268338 
0 
0.0291403751549322 
-0.007696374960472227 
0 
0 
0 
-0.03485791732288598 
6.46455109024756e-05 
0 
-0.03454427622024023 
-0.02447669649959083 
-0.004850703647621905 
-0.0004252878004797254 
-0.01958538159608969 
0.004107070667611299 
0 
0 
0 
0 
-0.0008223287370203764 
0.02206058876428221 
0 
0 
-0.01772958636150276 
0 
-0.03527951297414157 
0.0393416675714964 
-0.01855335911417912 
-0.05798056133882225 
-0.0004967083310718876 
0 
0 
0.0345103688824049 
0 
0.02612771711662709 
0 
0 
0 
0.02266140152228719 
0.01948261858012449 
0 
0.04883778102970936 
0 
0 
-0.04503980917368568 
-0.007975546652776491 
-0.06157631662795347 
0 
0 
0.001347887407100296 
-0.001630720978219175 
0.01025555676925899 
-0.0007112794012652615 
0 
6.362984529382124e-05 
-0.01672830896900936 
-0.0241239359505201 
0 
-0.004535391599487797 
0 
-0.02066360906253003 
-0.01250315614696422 
0 
0 
0 
0.008043001464449131 
0 
-0.01564694057341782 
0 
0 
0.006852393473364501 
0 
0.001281964932936611 
0.007928283490205358 
0.04381020720499237 
0 
0 
0 
0 
-0.01786672503286071 
0.03131565100503696 
3.894459181843657e-05 
0.0007670833884099853 
0.006363552711675232 
-0.01226600505760284 
0 
0.009145231376392619 
0.02863913835746341 
0.01693831007353397 
0 
0.02827356533870275 
-0.01188129997006887 
0 
-0.003233660074435648 
0 
-0.03710918687073499 
0 
0 
-0.03351812104522852 
0 
0.03372148107428972 
0 
0.01312250427535803 
0.0209762790803817 
0.01047070356323952 
0 
-0.007152079829627799 
0.01485590770561545 
0.02029312759207614 
0.0186404697865456 
-0.01537830601230973 
0 
-0.0003357107514625991 
0 
-0.01635280739824737 
0 
0.02273501005819482 
0.01204976567076386 
0 
0 
0 
-0.01571694438075339 
0 
0 
0.1012007875064683 
0 
-0.01599732963619762 
0.002064903761184994 
-0.01219763975765213 
0.01970142832459361 
0 
-0.01629040132432288 
0.01855335911417912 
-0.04098978825914552 
-0.01484944876761456 
0.02592950514695398 
-0.01147243431458815 
0 
-0.01517803388130542 
0 
0 
0 
0.01411883083347389 
0 
0 
0 
0 
0 
0 
0.03616468088984604 
-0.005735868782080397 
0.02348079175613629 
0.01015475772202065 
0.0001081642614361725 
0 
0 
-0.0054287514323823 
0.02568879705178517 
0 
0.008449264451201361 
-0.04568669043450703 
0.003231812055118793 
0.0014897545030245 
0 
0 
0 
0.044433518982872 
0.06548909702559419 
0 
0.01808935901473699 
0 
0 
0.04011283601526324 
0 
0 
-0.01754497967704577 
0.02327828332717183 
-0.0146104327494312 
0.01540606456201878 
0 
-0.05606863403380889 
0.0132341362789917 
-0.01707187528104847 
0 
0 
-2.248416717478767e-06 
0 
0 
-0.003234976417695597 
-0.01117193281906746 
-0.01614328615904923 
0 
-0.01832284586015406 
0 
-0.01650342631364356 
0 
-0.04704489044872989 
-0.0472428694419688 
-0.05026493050941932 
0.002950535212148646 
0 
-0.01003628147178117 
-0.01540606456201878 
-9.732516129629348e-05 
0 
0.001115172204702575 
0 
0 
0.0005291623174178525 
-0.04943082658193903 
-0.007922126814711812 
0 
3.461695322401628e-06 
0.0341493048519563 
-0.0259539819705953 
-0.004678917788775389 
0 
-0.01540606456201878 
-0.03008249418681392 
-0.0007294367068229578 
-0.02879801823006706 
0.01360717949799127 
-0.002947042185303724 
0.01400351985892128 
0.0515505069281347 
0 
0 
0.03100283961191342 
0.05958031906465374 
0 
-0.0001189339783680259 
-0.02465117554866144 
0 
0 
0 
0.03308751859342889 
0 
0.009355804780195518 
0 
-0.01247662514879174 
-0.01333447221386878 
0 
0 
-0.089722864790337 
0 
-0.001521051998112969 
-0.02056259478436359 
-0.0001049047303565182 
0 
0 
0.007269721697407298 
-0.01640402819976924 
0 
0 
0 
0.005098479617698508 
0 
0.006403917741621242 
0 
-0.08753509881085221 
-0.0233351717875409 
0 
-0.001817230165839198 
0 
0 
0 
0 
-0.01131324696289676 
0.02428550173914645 
0.007047618144370226 
0 
-3.875149837079295e-05 
-0.01683146760876755 
0 
0 
0.03485167869872417 
0 
0 
0.01351555826755026 
0 
-0.0329533828694608 
-0.02831038018239955 
0.04023716958915366 
0 
-0.08019093529119618 
-0.0125725761596979 
0 
0.004178899910280358 
0.04752163484590567 
-0.03316837930947469 
-0.02004688079488982 
-0.02825584623808255 
-0.003996538886904042 
0 
0.01855335911417912 
-0.005439697138602596 
-0.01133728568460178 
0 
-0.004599282085077963 
0 
0.02719445115773278 
-0.01146617607553003 
0.01499899802723448 
-0.007341079006121924 
0.02439526928000913 
0.01939322711492105 
0 
-0.03154673817163066 
-0.03435140827356183 
0.05054005940509763 
0 
0 
0 
-0.01222582328262453 
0.01071686169265515 
0.005761932464063477 
-0.00651398133083049 
0 
0 
0 
0.01196194850778291 
-0.03696080545409683 
0 
0 
0.01161725107656659 
-0.02349870218134872 
-0.008549523174664559 
0 
-0.01057741792331123 
0.02337465785899656 
0.02164389703891499 
-0.008634457638025948 
-0.01557687941866443 
0.04958670749343898 
-0.006118456567801142 
-0.0147312313018413 
-0.01463112565823269 
0 
0 
0 
-0.01358651850309443 
0 
0 
-0.02603934773784549 
0.01585321902450573 
-0.0008899856113598066 
0 
0.003315168092434031 
0 
0 
0 
0 
0 
0 
-0.02069395911123525 
-0.005914172058687366 
0.004106246352831165 
0 
0 
0.003963642096873128 
-0.000109330531609675 
-0.0187944398903833 
0.006444561417243471 
0 
0 
-0.01515996351617768 
0 
0.01582658180985259 
0.03668346613934505 
-0.01051739770278406 
0 
0.004617125017618876 
0 
0 
0 
0 
-0.02847581359438665 
0.006860848343495618 
-0.009763560114520493 
0.01855335911417912 
0 
0 
0 
0.001973618230631468 
0 
0.01886454339794323 
-0.00505280460930427 
-0.01509518461851537 
0 
0 
-0.02180897737429505 
0 
-0.007625869284097845 
0.02304508986871447 
-0.01535168788345152 
0.002410219265452884 
0 
0 
0 
-0.05964674444833409 
0.01073665502643467 
0 
0.02662620992963138 
0.0001899573750115777 
0.02427356540529019 
-0.01698110407890877 
0 
0.006534604332746445 
0.01341665969286301 
0 
0 
0 
-0.01769839916136494 
0.0217709967172118 
-0.03736928250536745 
0 
-0.004808906157148306 
0 
-0.01149797529481534 
0.03807094064165731 
0 
0 
0 
0 
0 
0.01748214294909541 
0 
0 
-0.009761138376089122 
-0.01838652801518221 
0 
0 
0.02982773537233578 
-0.01081201875547963 
0 
0 
0 
-0.01440257494298039 
0 
0 
0.01018160385305411 
-0.0403356674875914 
0 
0 
0 
-0.01224623328168394 
0.01513661549553423 
-0.01653815996735384 
0.01655325836786505 
0.0399365653701249 
0.01200961517285852 
0 
0 
-0.01047247421620566 
0.01881647521681386 
0 
0.01226410044875419 
0 
0 
-0.004603847582949612 
0.01184791732908394 
0 
-0.04356970526296038 
-0.03505701006269535 
0 
0.02520132919523502 
0.03028465903681703 
-0.02556119290665682 
-0.004969529717568406 
0 
-0.005121911238624462 
0.01855335911417912 
0 
0 
0.04183311188285073 
0 
0.02229151145254019 
-0.000374394611287581 
0.0004726535737271497 
0 
0.01152184406459476 
0.0007982917767941733 
-0.008138560759624535 
-0.005335026896730773 
0 
-0.01962302845986693 
0.01599652678002142 
0 
0 
-0.03196991537392912 
-0.02559978616812919 
0 
-0.0106542911261011 
0 
0 
0.0004877395084372854 
0 
0.01855335911417912 
-0.003557870370520543 
-0.01540606456201878 
-0.05360241284532768 
-0.01283246522486877 
0.005080762940841583 
0.01713732975163005 
0 
0.04923541510952917 
0.01540140006318197 
3.115820741533965e-05 
0 
-0.01811329632789032 
0 
0.06389909770515249 
-0.0132019701757482 
0 
0.02161599433317022 
0 
-0.01192637509255713 
0.0007023346651285479 
0 
0 
-0.005559656197682219 
0.009895053283594775 
0.01552664622314336 
-0.03290408750707317 
0 
-0.01021189598280467 
0.009738997034226629 
0 
0 
0 
-0.01660748867155898 
0.003318662833928531 
0.01834945396265428 
-0.01552351612860194 
-0.01552644850320832 
-0.008061244293424167 
0 
0 
-0.007652535975615662 
0.0002752258411791905 
0 
-0.0358944339827421 
0.04992613497796155 
-0.009951507574021549 
0 
0 
-0.0195125281764939 
0.005152556184164387 
0 
0 
-0.001952498509200713 
0.001418677217328228 
-0.003664574152703599 
0.01057881996912462 
-0.01787158129398449 
9.80734542064935e-05 
0.006412213056738986 
-0.04883654962751435 
0 
0.01929669367115854 
0 
0 
-0.01540606456201878 
0 
-0.01751959348915671 
0 
0 
0 
0.05720906576537686 
0.01483256312707006 
-0.008853417737475762 
0 
-3.537290643487232e-05 
-0.01392883877968702 
0.001282510024873985 
-0.01626798881970174 
0.01966214831319547 
-0.00124304440683462 
0 
0.01994647094816168 
-0.003969887123544354 
-0.009225029893497213 
0.0007448060894871107 
0 
0 
-0.004520224736881609 
0.01072278740278913 
-0.01524176857427068 
0.01161144324142947 
0.01032529237997662 
-0.01877885949454562 
0.01337952117884731 
0.04577289314708723 
0.01855335911417912 
0.01855335911417912 
0 
0 
0 
0 
0 
0 
0 
-0.01253014579850695 
-0.008166798086508999 
0.03944384832223142 
-0.01820631409306338 
0 
-0.02488493981960706 
0 
0 
0 
0 
0 
0 
-0.02459700580029871 
-0.01583694700076592 
0.00705559020114267 
0 
-0.02562310992726336 
0.05017282003273777 
0 
0 
0.005907855764631056 
0.002498273568318456 
0.001281744269037614 
0 
0 
0 
-0.003515125710235555 
0 
0 
0 
0.002489906146251063 
0 
0 
-0.0008415937101597018 
0 
0.05282259503063431 
-0.01892903521112466 
0 
0.02237856143910889 
0.0004643565521277458 
-0.02168543073101961 
0 
0 
-0.0260654446540003 
0.02974265738906876 
-0.02805846095141445 
0 
0 
0 
0 
-0.03397716399558338 
-0.0005502857769176328 
0.03359391416659448 
0 
0.005414045340437853 
0 
0.0001209238930337334 
6.752172447017287e-06 
-0.01232348700538559 
0 
-0.01536115264603642 
-0.0371610212387106 
0 
-0.03861019180785599 
-0.01862242701435251 
0 
0 
-0.007459064223644747 
0.01765833644474758 
-0.003461530580701571 
0 
0 
-0.01046611058603426 
0 
-0.01216863437528381 
0.01855335911417912 
0 
-0.011688063927787 
0.01206955106244702 
-0.02056812908537346 
-0.01112242795964034 
0.007288645017973912 
-0.003731960341906096 
0.01335269025416351 
0.02729493917047562 
0.05604035487533471 
0 
0.01358158647967812 
0.02075028193803195 
0 
-0.01855335911417912 
0 
0 
0.004602759249980552 
0.005164889722206545 
-0.009355197397005729 
0 
0 
0 
-0.01505391186711846 
0 
0.007921455558525423 
-0.02775647834061232 
0.01373990810960957 
0 
0.01483420942902374 
-0.0007545884734238202 
-0.01347058094502499 
-0.01157661721115452 
0 
-0.004745775459635615 
0.000163276537568556 
-0.07560337873584148 
0.002723058920047019 
-0.006457037732168847 
-0.01688629719066628 
0 
-0.01399955235913594 
0.0003767300137576949 
0.00729103011178173 
0 
-0.007645294745801444 
0 
0 
0 
0 
-0.01691587609362702 
0.02216061472146301 
0 
0 
-0.0269341747247555 
0 
-0.02243111953223447 
-0.01519578529821729 
0.03706123286431556 
-0.01943652823224902 
-0.01435600750822084 
-0.007284708737385964 
0 
-0.008441888496173137 
0 
0 
0.02405864210583742 
0 
-0.004529162987153518 
0 
-0.04195549817405971 
0 
0 
0.001455694254251012 
0.02729794050849467 
0 
0 
-0.01974318552593791 
0 
-0.0135273016880631 
-0.03003518778093507 
-0.0406939276652596 
0 
0.004382335769661448 
-0.01546707076394706 
-0.03923778607599476 
0.0001444040364738139 
-0.0118576608188988 
-0.01357310836361553 
0.002897825231282616 
-0.01449982853780541 
0 
0.0002704210919301804 
0.01855335911417912 
-0.01315126469955875 
0 
0.00635220184634473 
0.04149593764930627 
0.0009990397916443518 
-0.01102382001251192 
0.01815507156701043 
0 
6.362984529382124e-05 
-0.01002906195713753 
0.000205125890200695 
-0.0151530665346661 
0.02033406281085674 
0 
-0.01427217001491181 
0 
0.01217107868116148 
0 
-6.077218995645316e-05 
0 
0 
0 
-0.006025840722015265 
0 
0 
0 
0 
0 
0.02263178616376116 
0.01794875791950845 
0.02014411970411555 
-0.01497557095629678 
0 
0 
-0.02593065060390368 
-0.01740318455914755 
0.01292200755313585 
0 
-2.947093470585052e-05 
-0.01216928328412 
0 
0.00910746134222762 
0.001480387807085281 
-0.04575881451586054 
-0.04815204580739529 
0 
0.01553121037943045 
-0.0001358003654821763 
0 
-0.04992068276649113 
-0.01643177149213548 
-0.0296754067489409 
0 
0 
0 
-0.03811381049526084 
0.02736685412266701 
0.005344042833511762 
0.008089138658323688 
0 
-0.0009547264235208979 
0.006041946185299353 
0.01742228386328505 
-0.01685431436663322 
0 
-0.01534948803525006 
-0.01571578312696269 
-0.02153394876987465 
-0.008419924467153381 
7.487211677003248e-06 
0.02105000865636064 
0 
0 
0.0124777929873787 
-4.997420088201723e-05 
0.01509328318100319 
0.004432366025241051 
0.02634767958005465 
0 
0 
0 
0.01055546855817454 
0 
0.005263866390871636 
0.04628745914416144 
0 
0.02064627681334152 
0 
-0.04278881356854852 
5.362439840449906e-05 
0 
-0.00796759095456703 
0 
0 
0.009335740982381494 
0 
0 
-0.0003775896215991591 
-0.01315862106247686 
-0.0212082667631167 
-0.03526284984612151 
-0.01297627056194082 
-0.01701381198865257 
0 
0 
0 
0.02463665601603178 
0 
0 
0 
0 
0 
0 
0 
0 
0.001444003587267094 
0.04004013489711299 
0 
0 
-0.07474867448186324 
0 
-0.005563188905840892 
-0.02855788499099374 
-0.001611813540745555 
0 
0.003033292083993692 
0.005348619493149491 
-0.008909729073326477 
-0.005986596168778873 
0.002095287697123397 
0.0127400252966821 
-0.009237976844853113 
-6.933057758814294e-05 
0.0150438534574976 
0.04562232937320807 
0.008661980019026119 
-0.01854473248609119 
0.01115570828211199 
0 
0.0119231506636607 
0.003401522703029673 
0 
0 
0 
-0.01731443021624969 
0 
0 
0 
-0.005748977621895941 
0 
0 
-0.05716866577008058 
0 
0 
-0.009957125344995831 
0.04050781098947714 
0.03138986745295601 
0 
0 
-0.0004675612982107753 
0 
0.01322411446720214 
0 
0 
0 
0.0001060967236198013 
0 
-0.01389816046574716 
0 
0.02168160104235003 
0.005493381769525936 
0 
0.03390303351863957 
-9.504893709597883e-06 
0 
0 
0 
-0.005094466595826225 
0 
0 
-0.01020122417554398 
0.01125861527611015 
0 
0 
0.01269349910696006 
0 
-0.01791551020190564 
0 
-0.004810378682474257 
-0.02816155562609696 
0 
0 
0.001614166709793738 
0.0004305436448121954 
0 
4.246311835621104e-07 
0 
0 
-0.004112725251101281 
0 
-0.007389855938497402 
0.0184077589556028 
-0.001565458061015496 
0.006753621970797026 
0 
0.02393178907514373 
0 
0 
0.01276211887494762 
-0.02487479771977231 
0 
0 
-0.009570369444807479 
0.04260092028288317 
0.01540606456201878 
0 
0 
0 
-0.02743825050584599 
-0.01466379030737987 
-0.01403583221684809 
0.02074533872877406 
0 
7.181133399592306e-05 
0.003626397759070124 
-0.01410849684972137 
0 
0 
-0.008955379103166527 
0.02773848049729094 
-0.004499753131079431 
0.0001472166362917376 
-0.01078109062806686 
-0.02479745460838687 
0.01888735281559607 
0.05417667830545485 
0.01009747280393952 
0 
-0.01855335911417912 
0 
-0.01231457818929245 
0 
0.02183942980585241 
0.009175251261985658 
-0.01855335911417912 
-0.01203693339111584 
0 
-0.01540606456201878 
-0.009503886385346841 
0 
-0.0144733012445788 
0 
0.003551959193050098 
0.0001926670369921296 
0.005209612115951282 
0.005887198804052198 
-0.02369422367317208 
0 
-0.001191164563389683 
-0.02795372756665937 
0.0233377671768089 
0 
0 
0.0003105154184549577 
-0.02748650768784383 
0.006711786226593503 
0.01683802745843636 
0 
0 
0 
0.0002654225549073449 
0.01734142531575468 
0 
0 
-0.03028465903681703 
0.06001985366070563 
-0.0002265614419784182 
0 
0.008922776211875018 
-0.02099487413559553 
0 
-0.01572482705341699 
-0.01699054588582588 
-0.02405318261500635 
0 
-0.006930735556753276 
0 
0 
0 
4.934140129351993e-05 
0.003662583070751756 
-0.0072047415716589 
0.002492088192590457 
0.004340293288726874 
0 
0 
0 
0.01337952117884731 
0.07305722516407273 
-0.0001451058863296995 
0 
-0.004582497950200786 
0.01607276524423586 
0 
0 
0 
0.02557914540719678 
-0.0003254976625542976 
-0.05768028706986317 
-0.02698521229600016 
-0.002881420826800797 
0.001368630972421692 
0.00889735178825544 
0 
0 
0 
0 
0 
0.02578340853128305 
-0.01423752525301904 
-0.01436864416365337 
-0.003004032118438572 
0 
0 
0 
0 
0.03457052537409644 
0 
0 
0 
0.01093115564993712 
0.005277171950484274 
0 
-0.01439668191995924 
0 
0.0006688136929651712 
0 
0 
0.007380053618134147 
0.001389554751222315 
-0.01054764304949778 
0 
0 
-0.02632835679490884 
0 
-0.0008758938145147421 
-0.006161573797590364 
0 
0.01497929942225596 
-0.004796335476457159 
0.0229891900532465 
0 
0.003868954157954885 
0 
0.03352531108478009 
0.01110096121985493 
-0.01890408568058809 
0 
-0.03150515834810648 
-0.01962592081897468 
0 
0.020296592180763 
0.02313033879438217 
0 
0 
-0.007223509383354436 
0 
0 
-0.01932332333545956 
0 
0 
0.008883571368875 
-0.01855335911417912 
0.01855335911417912 
0 
0.02996270407329708 
0 
0.01257419590361412 
0.04053613254139835 
-0.01856414262089643 
0 
-0.00151435618095281 
-0.00970025807969381 
-0.001873060580390259 
-0.01855335911417912 
0.008661980019026119 
-0.01573746260629925 
-0.02430716409418087 
0 
0 
0 
0.04770648417442516 
0.01354721827357686 
0 
0 
0 
0 
0 
-0.01587495508819513 
0 
0.01664929640711462 
0.01481089749059025 
0 
0.03039307138316814 
-0.009307707522010275 
0.0452725570170979 
0.005561717520852781 
0 
0 
0.01876815718772357 
0.02129541775363038 
2.584108561338345e-05 
0.01056239225059489 
-0.005179473080539147 
-0.006877917074208052 
-0.01810872216040884 
-0.01169080758599051 
-0.01818705097520034 
-0.000146086662658556 
0 
-0.01408194651348246 
-0.0001028303326698969 
0 
0 
0.007740637543898879 
-0.02903625525468144 
0.02558966270251493 
0 
0.01280735544624433 
-0.03197609869445425 
0.009653015677776282 
0 
0.004664931161789266 
0.02202722327044105 
-0.000825969655643323 
0 
8.536997583782251e-05 
0 
0 
0 
-0.01340942926984863 
0 
0 
0 
0 
0 
0 
0.01496841229516501 
-0.03419744056654545 
0.005453540095314586 
-0.04188894208168481 
-0.0135231481545319 
-0.006571952845653855 
0 
0 
0.01477607808982915 
0.04222118640602149 
0.003858185332476639 
0.004786522999672654 
-0.01855335911417912 
0.03028465903681703 
-0.02901533979461158 
0 
-0.01092037240139009 
0 
-0.02589113289514779 
0 
0 
0.01838586781389468 
0 
-0.01269823177836013 
-0.01381875287275932 
-0.04696712124126168 
0 
-0.01286829511821683 
-0.004358946427067695 
0 
0.008286777501176477 
-0.006868057153382257 
0.03703821939979342 
-0.04160156379600172 
-0.01008722112181921 
-0.04473625785507797 
0 
0 
-0.03483135992045629 
0.007928283490205358 
0.005642715389424235 
0 
0 
0 
0 
0 
0 
0 
0.002187033498113972 
0 
0 
0.009926761712970735 
-0.01701894046401 
0 
-0.01540606456201878 
0 
0.0005437336480823102 
-3.851035179587514e-05 
-0.003844570726981131 
0 
-0.01788703826030108 
0 
0 
-0.01855335911417912 
0 
0 
0 
0.03090299023974807 
0 
0 
0.002097759146178892 
0.005008160881708803 
0.03581065561079338 
0 
-0.0006165233873776299 
-0.0009171104116319248 
-0.008311910879303688 
0.02872513845317941 
0.01805420558709902 
0 
0.01957341271659257 
0 
0 
0 
0.004083251080780587 
0 
0.001901643271282491 
0 
0 
0 
0 
0 
0.0108583855172256 
0 
0 
-0.0194726219332475 
0 
-0.0001488521181977277 
-0.001512268925435626 
0 
-0.003594299405149061 
0 
-0.01502518486834613 
-0.0001786040122224339 
0.0008882654477906779 
-0.03837329126713472 
0 
0 
0 
0.01054069100189227 
-0.05680158753919089 
-0.01149567618622385 
0 
0 
0.002615552019781302 
0.01138638855593702 
-0.01814014689000863 
0 
0 
0 
-1.442909663199569e-05 
-0.006730727150102337 
0 
0 
0.01244592960564164 
0 
-0.01228233457828201 
0.01389315410910236 
0 
0 
0 
-0.003604208956903841 
0.008786783740075297 
-0.005055191447914308 
-0.0155203196007145 
0 
0.0286824930486573 
0 
0.02072481585037235 
-0.02812559148501179 
0 
-0.0008948754481350404 
0 
-0.001121715901933237 
-0.01413766403252352 
-0.01739283832918912 
-0.03102279581960709 
0.02860323085786194 
0.01061441027508229 
0.0007155113574839438 
0 
0 
9.618551964741325e-05 
0 
0.029958424332386 
0 
0 
0.01576202507949292 
-0.05491554515893812 
0 
-0.01660942474295639 
0.005802482608335974 
-0.07413367737349748 
0 
0 
0 
0 
0.009501296759281873 
-0.01121458413799076 
-0.02136056032756696 
0.009907642182551029 
-0.02379210360019973 
0 
-0.01855335911417912 
0.0289055210180117 
0.008403351733557407 
0.01611126459981695 
0 
0 
-0.01855335911417912 
0.02428492310148037 
0.02910634761384854 
-0.01482008788946585 
-0.02067756034898344 
0.002228653763769209 
0 
0.009158900176410311 
-0.01287924587479558 
0 
-0.0249096720015122 
0.01345011225034782 
0 
0.0001085953501769052 
0 
0 
0 
-0.0221655173082876 
0 
-0.01869902064797199 
0.01588362100753227 
-0.02088019345371336 
0.01659077826378643 
0 
-0.01855335911417912 
-0.01855335911417912 
-0.02805658423522659 
0.02451377797461488 
-0.0249857161009426 
-0.01733837170740081 
-0.00167393315185955 
0.01167502683114034 
0 
0.0001182012971835416 
0 
-0.0100942106220912 
0.005989039620968393 
-0.01099547332208553 
0.01436490853183569 
0 
-0.004264218070243829 
-0.01855335911417912 
-0.007300795925667441 
0.0316093519978519 
0.001932890959238234 
-0.0191553104132185 
0 
0 
0 
-0.008406746993578736 
0 
-2.064672394539401e-05 
0 
0.02117673818362977 
-0.0001433004214979908 
0 
0 
0.005611496511043004 
-0.01795070512903906 
0 
0 
0 
0.03221761210327394 
0.01742270934777524 
0.01210590817882709 
0 
0 
0 
0.0001008718259853584 
0 
0 
0.0007107890619372824 
0 
0 
0 
-3.846890027393292e-05 
-2.998821885007469e-06 
0 
0 
1.297272478913863e-05 
0.0002050281628809942 
-0.1241746119484993 
0 
-0.01532847383724204 
0 
-0.03728711487189915 
-0.007431025537729195 
0 
-0.008071280736327294 
0 
-0.01458998116649875 
0 
0.03201878779706473 
0 
0.01679665505596286 
0 
-0.01483086737952988 
0 
0.02356633367060843 
-0.01993029016765232 
0.003557322382162123 
0.005038798935805775 
-0.02000980923946452 
-0.02053431001299702 
0.01548920849494607 
0.03570503399681663 
-0.005267948329812672 
0.01567295672942134 
0 
-0.09189592242709296 
0 
0 
-0.01095435800489291 
0 
0.01312250427535803 
-0.02136881001405118 
0 
0.007556923127182293 
0 
0.04979413836437754 
0 
-0.03983405433615467 
0 
0 
-0.0611451446477206 
4.174451906640699e-05 
-0.0333782926747717 
0.02199280255510227 
0.04490234195614204 
0.0001308399410222294 
0 
0 
0.01418745593628743 
0 
0 
0.0127644348102277 
-0.00608461750655624 
0.01209752664173978 
-7.734142572923527e-06 
0 
-0.007778681019928872 
0 
0 
0.03631628314265941 
0 
0 
0.008550036820369734 
-0.03433469836318143 
0 
-0.02021298379219357 
-0.04755111024863284 
-0.01090565474288371 
-0.01594208637812123 
0 
0.01659077826378643 
0 
0.001671693176835168 
0 
0 
0 
-2.245714190659862e-05 
-0.002467066011389627 
-0.04419624375342419 
0.01743298463136607 
0 
-0.01834466817709225 
0 
0 
0.008219703741346705 
0 
0.01755127703643979 
0 
-0.02256505522676177 
0 
0 
0.001259642138425402 
0.004217384847922901 
0.02172464106064076 
0.03029124999617242 
-0.01493650727311275 
0.02121595517547957 
-0.00961051950246327 
0 
0.002445242163098954 
0.001148319020014928 
-0.04361922915968475 
0 
0.01673706195692226 
0 
0 
0 
0.01123780289160214 
-0.01370254320256296 
-0.01049918702812072 
0.0004573864289491732 
-0.02352135284302315 
0 
0.01544932038403357 
0.02724315774476989 
0 
-0.007026050485907634 
-0.03883941698636973 
0.01637084184193388 
-0.02098877667876215 
-0.008448269035307286 
0.001469935513426438 
0.01510426184892316 
0.004014852803692844 
0 
0 
0.01318132643081361 
0.01650960797553127 
0 
-0.01855335911417912 
0 
0 
-0.01277046735602062 
-1.795688747224472e-05 
-0.009648845504081871 
0.01156375903158061 
-0.03501123590697786 
7.395866404547906e-05 
0 
0.02037033215818225 
0.03199924433383528 
-0.01336680055817607 
-1.562556658402473e-05 
0.01041686303184947 
0.02203689790330541 
0 
0.001159116671499702 
-0.03668882891793128 
0 
0.005849194700062983 
0 
0 
0 
-0.03248995686397585 
0 
0 
0 
0.0001731491594760407 
-0.005333420025377244 
0 
0 
0 
-0.02201679830725765 
0.008138371004303853 
0 
0 
-0.0204421550991328 
-0.01780553148006865 
0 
0.01227887617205975 
0.0130648565258126 
-2.639769099263029e-05 
0 
0 
0 
0 
0 
0.0003934721787149304 
0.01343269604745505 
0 
0 
0 
-0.008709283370496505 
0 
0.004534805390637809 
0 
-0.03885107351450101 
-0.01114729971141818 
0 
0.002818281785338772 
0.01855335911417912 
-0.03833289842519254 
0.01470301929007626 
-0.0001417177927751118 
0 
-0.01037685424537933 
-0.00063734691638105 
0 
7.121786070411984e-05 
0.0207834941592479 
0 
0 
0 
0.07340891942149257 
2.729278895647075e-05 
0 
0 
-0.01355428548235833 
0.01301145115424319 
0.01727112256493302 
-0.0111479100932521 
0 
0.01540606456201878 
0 
0 
-0.000118276727809192 
0 
0 
0 
-0.01262213917657635 
0 
-0.01253738584820401 
0 
0 
-0.03781581738778739 
-0.02484612516274637 
-0.01252079086505591 
0.005589800216744891 
0 
0.01523494320215557 
0 
0 
-0.0107210866194634 
-0.004161262623935727 
0.0009231955470197506 
0 
0.009462904299843351 
0.0394300901004056 
-0.02306545335835444 
0 
0.008265021845029663 
0.023707721528595 
0.01690997338737034 
0.007794848697964573 
0 
0 
0 
-0.006301152197695163 
0 
0.03809894878626983 
0 
0 
2.426017996503254e-05 
0 
-0.01673274247866217 
0.01121911275702119 
0 
0.01510909460630076 
0.01003214828829646 
0.01893487098671756 
-0.01782726973621965 
-0.01205530945480236 
0.01870058211068737 
-0.0196445995089565 
0.0001867348995408649 
-0.01141795850776627 
0.01767018999610922 
-0.0001837977793870484 
-0.01824744156554507 
-0.0001678898141246214 
0 
-0.08680670373634067 
0 
-0.02201147828981595 
0 
0.01855335911417912 
0 
-0.01157509207467434 
0.01146966857288562 
-0.01589588928705401 
0 
-0.0187975694921786 
0.0002935463602383006 
-0.01607609688239746 
-0.02883904854019754 
0 
0 
-0.0006853986848313794 
-0.0211875827804823 
-0.01755212581334284 
-0.02660802540407385 
0.01055259032214999 
0 
-0.03071464287185116 
0 
0 
-0.02156457624046686 
0 
0 
0 
0.01540606456201878 
0.01821735120804414 
0.03793959700158561 
0 
-0.02688737328244018 
0 
0.02134338207353558 
-0.005566626410708986 
0 
0 
0 
0 
0 
0 
-0.006940260354112207 
-0.01542170439985375 
0 
-0.02286615252029006 
-0.01125764912446062 
-0.04044185804315022 
-0.009980786681648859 
-8.244101654019238e-05 
0.03539205080257646 
0 
0.0001418411325127012 
0.03954417849786104 
0 
-0.02539106057357168 
0 
-0.008934117792246548 
-0.01546156136562931 
-0.01089392217741069 
0 
0 
0 
0 
-0.02409665702378459 
0 
0.02614589465456521 
7.822348204850434e-05 
-0.006020884301423585 
0.000505024176841348 
-0.01632453847059101 
0 
0 
-0.0135620223640818 
0.007620396396528568 
-0.05823060742899421 
-0.007624338271091595 
0 
-0.007240903414466464 
0 
-0.003282579692745993 
-0.03945387508154451 
0.01361141835015079 
0 
0 
0.002791032579743643 
0.01047313783058635 
-0.01012553040127465 
0.01855335911417912 
0.01635661952112406 
0 
0.01285236722912531 
0 
0 
0 
0 
-0.005922407194284557 
-0.006731019081098201 
0 
0.002046392150638954 
-0.03981094573505738 
0 
0 
-0.01855335911417912 
-0.01051555300100528 
-0.01799566943389177 
0 
-0.04685553426789365 
0.02991066301149832 
-0.02657219756431862 
-0.0002549190968724033 
0 
0 
-0.01855335911417912 
0 
-0.007176720357814284 
0 
-0.01244735664707711 
0 
-0.00395525488447177 
0 
0.02364324482811967 
0 
0.05582717599121519 
0.007337321414462655 
0 
0.01533519431356343 
0 
0 
0 
-0.009663356531436539 
-0.01904572012363781 
-0.008926646949656534 
0.01790776965183092 
-0.01920485554262231 
0 
0.006865117084764717 
-0.01456097975614228 
-0.006713999863978999 
0 
0.007530216424579005 
0 
-0.01169406699711777 
0 
-0.01891535669619336 
-0.01855335911417912 
0 
0.02981052265571036 
0.02100936099701611 
0.01855335911417912 
0.01307266487162603 
-0.003355680566613046 
0 
-0.02819716117886845 
0 
0 
0.005903915363297346 
0.005609941225684755 
-0.005550647588845611 
-0.0138937938983629 
0.01195871320890079 
0.004903751715028311 
0 
-0.02866483077648678 
0 
0 
0.02555804406472417 
0 
0.01710015373230908 
-0.02934676962675057 
0.01028809900777708 
-0.02513292506846856 
0 
0 
-0.004776423221276224 
0.02053385230954516 
0.004956411940853415 
0 
0.02048115664010616 
0 
-0.008559544269486793 
-0.01889431553693199 
0 
-0.01445436380262965 
0.003636929819236362 
0.03991056339492394 
0 
0 
0.02140264036523138 
0.0004729743211015337 
-0.01305415717755128 
0 
0 
-0.001943099656975242 
0.009354021047284455 
0 
0.01509165652267076 
0.0444646164757237 
0 
0.004054216034302453 
0 
0 
0.002554877730943345 
0 
-0.008729606520176479 
0 
-0.02754934755252907 
-0.005078560351258618 
0.0153260383112428 
-0.01753330551176567 
0 
0.02458026488025247 
0.0009739225921552859 
0.01588770718912759 
-0.01325232519038022 
0 
0 
0 
-0.001256997018226498 
3.718033409867745e-05 
0.005521824398994941 
0 
0 
0 
0.01931249314235834 
0 
0 
0 
0 
-0.02034282985173614 
0 
0.01462913146966055 
-0.01944838178361066 
0 
0 
-0.01922763253113469 
0 
0 
0.03461451642544345 
0 
-0.127778093883207 
0 
0 
0 
-0.007446339144127241 
-0.009340397457905344 
-0.06126384772196351 
0.01524725805964569 
0.0186858153733639 
0 
-0.009094401052841464 
0 
0 
-2.327040783414543e-05 
-0.02816246047842784 
0 
-0.01118254467225813 
0 
0 
-0.01056252192699819 
0.02321256193809464 
-0.0294736843981654 
0 
0.01615854065599201 
0.01497701710868291 
0 
0.02116463185023701 
0.0004321431818735384 
0.01419287538993155 
0 
0 
0.0001003117666065343 
0 
0 
0 
0 
-0.02688541292639883 
-0.01614322135721591 
-1.276808247747602e-06 
-0.009739864105691226 
0.00676006140591563 
0.02739345489322074 
0.01921616863091972 
0 
0 
0 
-0.0137685167647505 
0 
-0.01371762703145653 
0.01213108170260151 
-0.014200952350753 
0 
0.03331451718251581 
0.01062942812854096 
0.0001323951176396777 
-0.02386796756147879 
0.02383469740210012 
-0.02240175236397742 
-0.01202366637692386 
-0.06361551084013609 
0.02586964780293459 
-0.02388235165124586 
0.01671079171805756 
0.02460212720586376 
0 
0 
-0.0001039594622905581 
0.0003636594557204392 
9.819502912015207e-05 
-0.02281374188006374 
-0.011971577607001 
-0.01817121651219469 
0 
0 
0.003182931161121422 
0 
0 
-0.03787878864226709 
-0.0001001825922754842 
-0.01557019164691248 
-0.009961519011981232 
0 
-0.0001135175687447657 
0 
0.0005112471738579366 
9.818323210578501e-05 
0 
0 
0.0148663737374017 
-0.02236131636815372 
0.0078028628458016 
-0.02037703563481785 
-0.01855335911417912 
0 
0.007541083072780229 
-0.01855335911417912 
-0.0208201079530512 
0.01855335911417912 
0 
-0.04200412571481138 
0 
0 
0 
0.02477689155786416 
0 
-0.00948306736482676 
0.02049046712131109 
-3.580632265092702e-05 
0.01409167236309318 
0 
0.0009971463593711704 
0.02725249233922738 
-0.01513466436736895 
0.03288681028819376 
0 
-0.005407653701651217 
0.00967794126344489 
6.673235123926552e-05 
0.007310417100786442 
0.07348231971411447 
-0.009950232939917033 
9.568107248793896e-05 
0.0127178896905162 
0 
-0.007307210566929071 
4.329638080716695e-05 
0 
-0.01180919620614752 
-0.02572661444458075 
0 
0 
0.002592614129471568 
0 
0 
-0.01422326255309814 
0 
0 
0.008167666158322508 
-0.04389172388740093 
-0.01089658250749661 
0 
0 
0.00565874894056788 
0 
-0.02482163443095226 
0 
0.008762355581336735 
0 
0 
0 
-0.02398421395300021 
0 
-0.0001603322413922339 
-0.01137137584660732 
-0.01074166633952958 
-0.01855335911417912 
0.04079992400886873 
-0.02105667263279298 
0 
0 
0 
-0.003403191926325676 
0.002023226506326884 
0.0002853785816461851 
0.001815440489534525 
0 
-0.02221005598674923 
0 
0 
-0.006808382860030788 
0.01284834338565996 
0 
0.01822804368609363 
0.0002911478188976982 
0.01707533662086378 
-0.0009463855460484498 
-0.02923186261492377 
0 
0 
-0.01684770908086248 
0 
0.0002753684616858066 
0.0221090819177308 
-0.01071168404798468 
0 
-0.01964928020275057 
0.0131086115919813 
0 
0 
0.01635823938431524 
0.002876156775003676 
-0.03796982902155338 
-0.0003211748336470364 
0.02526015953745147 
-0.001042760278812988 
0 
-0.01276605895069391 
0.004075533029195912 
-0.0001369286403260985 
-0.0113668174284984 
0.0130648565258126 
0 
0.00851049969207711 
-0.01925853543379064 
0.01076725265819444 
-0.0002156245792925529 
0 
-0.02353567931481179 
-0.02581113820901747 
-0.03146454739796904 
0 
-0.01746654856757132 
-0.02297242543914968 
0 
0 
2.707831411039594e-05 
-0.0009438333236906162 
0.002388622621198756 
-0.01737185680370519 
-2.046431185049097e-05 
0.01855335911417912 
-0.01818636945459746 
0 
-0.03125677390182786 
0 
0.02381533301659305 
0.006747804370224047 
0 
-0.0129506085590692 
-0.01855335911417912 
-2.406824965232881e-05 
0.002840428029610827 
-0.01117305495642431 
0 
0.01113423778822148 
-0.04283598584345428 
0 
-0.02640851247608931 
0 
-0.01963396504818742 
0 
0.005835910475723946 
0.004166882217314243 
-0.01426579321230108 
-0.03437354390956854 
0 
-0.01952844278266659 
-0.007880544771184749 
0.04036553617226318 
0.01912109893689005 
0 
0 
-0.02369949972672075 
-0.01540606456201878 
-0.08327225093149927 
-0.01544630431471397 
0.03093529987853826 
0.006747690069455916 
-0.03240854650420838 
0.012114705555313 
0.01006405760635881 
0.008692679397679971 
0 
0 
0 
0.0001422682880368685 
0 
-0.004839967762738933 
0 
0 
0 
0.04552018077928303 
0.02331733107548088 
2.533850628702622e-06 
-0.0275827320234914 
0.004830456191679024 
0 
-0.005708340684213418 
0 
0.008661607188902399 
0.01938911729191244 
-0.01540606456201878 
0.00120121633244585 
0 
0 
-0.02021323004928565 
-0.003611777980213669 
0 
0.003693622904549487 
0 
0.02019223416955846 
0 
0.01115235170076015 
0 
0 
0.02016088828280339 
0 
-0.01500396324395128 
-0.02233613474797223 
0 
-0.001460527177045694 
0.02053568918001388 
0 
-0.02351637496751945 
-0.01495176240057737 
0.001520320935557495 
-0.003731960341906096 
0.009376736639598439 
0 
0 
0.01535613597725645 
0.02748572505374017 
0 
-0.0385533840238702 
-0.03583892075605265 
0 
0.03181253011612794 
-0.00691683612504896 
0 
-0.01426657340860182 
0.004330060680446416 
0.02204383503334672 
-0.02718431245647333 
0 
0 
0.009102106528128028 
-0.0001056838161429712 
-0.01816445595847893 
0.01679750161890906 
-0.03993801730900503 
5.957565296393602e-06 
-0.0315615403977185 
-0.0182052212594055 
0 
0 
0 
0.003944888399932843 
0 
0.03434916829973254 
0 
-0.0001853448951521186 
-0.01579670288450246 
0 
-0.02054070683159434 
0 
0.007147052278242239 
-0.02232879936325889 
-0.01155926624647425 
0.009960554012610302 
0 
0 
0.007106515376322445 
0.02011527971669133 
-0.01726276684673976 
-0.01578859383688923 
0 
-0.02359724691777842 
0.02427315999205594 
-0.0003523097342479637 
0 
0.02195828306601171 
0 
0 
0.005963862316994073 
0.006952995876755263 
0 
0 
0 
0 
0.009017336184750821 
-0.004912578067401656 
-0.01172464776485002 
0.02991551535025411 
-0.004728788594664029 
0 
0.01310356557215078 
0 
0 
0.0001054241667816142 
-0.01932165297870236 
-0.01402520630483143 
0 
-0.005354367284896375 
0 
0 
0 
0 
0.0351100477327818 
0.00730259188052221 
0.008828511913075749 
0.04358222354795729 
-3.004004831313212e-05 
0 
0.009471334552188121 
0 
-7.596512363701712e-05 
-0.005947645253237697 
-0.02558172231197778 
-0.02050024045512945 
0 
0 
-0.01613161343511224 
-0.02325066002015398 
-0.0007734810852750469 
0.01835561732069309 
0 
0.01100334768359483 
0.03633045318085436 
0.02799278894871044 
0.03049882168249528 
-0.02548800112970845 
0.02712622255599683 
-0.01184596328105948 
-0.008363667289762483 
-0.002969846546305643 
0 
0.001671693176835168 
-0.05580808286030057 
0.004957011371702208 
0 
-4.143726682248573e-05 
-0.0002436921553151632 
0 
-0.005056549970044458 
-0.01641464134729758 
0.0139528824006597 
-0.02724292391406181 
-0.003400575289696093 
0 
0 
0.02565582507686944 
0 
-0.001593593217373106 
0.0116988675364452 
0 
-0.00950617847365085 
0 
0 
0 
0.001199825208884007 
0.0330522643889842 
-0.01059078284399705 
0 
0.01316151006412704 
-0.01811975111636288 
-0.003033539190882866 
0 
0.005361218461486831 
-0.02258944294279497 
-0.01562179728559323 
-0.01201655215137994 
0.008731524291864162 
0 
-0.02496966789591493 
-0.02269560994015887 
-0.01771952324605611 
0 
0 
0 
0 
-0.08313495379592761 
-0.01244354973633394 
0 
0 
0.01295538915306467 
-0.02599688676698543 
0.009404602682049609 
0 
0.01222975727788991 
0.01855335911417912 
-0.008877777969307853 
0.01494622515023917 
0.01634799979429007 
-0.0002365196968672234 
0 
0 
-0.01231476510414431 
0.01377431547365665 
0 
-0.0002764226563207782 
0 
0.0004526080663609683 
0 
0.02661128366744108 
0 
-0.007097481513516781 
0.01766363545633267 
-0.03024893448877321 
-0.001276040394208185 
0.04389114090783654 
-0.01393881967164128 
0 
0 
0 
0 
0.02049757405769 
-0.02170120604718544 
0.0205531563702413 
0.0009037402504884298 
0 
0 
0 
0 
-0.01424906044704442 
-0.003668075897083109 
-0.01556088634331197 
0.09157096998862804 
0 
0 
0 
0 
-0.00732703697539169 
0.001914245550477338 
-0.01508873408165569 
0 
-0.002564997985875248 
0 
0.006926738251717526 
0.00918981612835316 
0 
0 
0.01428579170255828 
0 
0 
0 
-0.007260853424917588 
-0.01571258766195353 
0 
0 
0 
-0.0170727111129774 
0 
0.02157176765779015 
0.01116936469313485 
0 
0 
0 
0 
0.007712338654275267 
0 
0.001157818999267664 
0 
-0.01508391906390468 
-0.001348060765251373 
0 
-0.008366569041823649 
0.004537394416248457 
0 
0 
0 
-0.01710148087853728 
0 
0 
-0.01855335911417912 
0 
-0.03491464643726805 
0 
0 
-0.03266149880634649 
0 
-0.06467729280681739 
-0.003588517718817123 
0 
0.02616539263830775 
-0.02189028954840896 
0.03604675813775135 
-0.0001528013190101545 
-0.0005081588325674645 
0.01855335911417912 
0 
0 
0 
0 
0.01959473149188705 
-0.01203718972395392 
0.0001394219312952796 
-0.007985678776267414 
-0.01220581719981837 
0.07282611960933566 
0 
-0.0195852887245663 
0 
0 
0 
0 
9.800572244471724e-05 
0.02833412683787011 
-0.005858720769019191 
0 
-0.02260655240815006 
-0.02479271203288117 
0 
7.29880462814645e-07 
0.02934749536346848 
-0.01596049512596517 
-0.02247758675869769 
0 
0 
0.007090844144673988 
-4.769211922507784e-05 
0 
-0.03028465903681703 
0 
0 
-0.01560260399622042 
-0.03371115621928099 
0.01855335911417912 
0 
0.04001911841989318 
0.05266877971201706 
-0.04300636328787755 
0.0159358025366067 
0 
0 
0 
0 
0 
0 
0.02493877518095354 
0.0189344085786842 
0.02413304487373829 
-0.01791551020190564 
0 
0 
0.004147338601229057 
0.01591852988197532 
-0.0005436556049932366 
0 
-0.01956098175618981 
0 
-0.01054058278030569 
0 
0 
0 
-0.03016770705824868 
0 
0 
0.0006933238744848487 
0.01034469398976619 
0 
-0.03116083558428746 
0.0214805677770318 
0 
-0.01378827912147822 
0.01065492835218555 
-0.02024948009849975 
0 
-0.002171389479289903 
0.008871597785947441 
0.0154301038117469 
-0.03553262893905733 
0 
-0.07218227020636027 
0.005701204584126715 
-0.007154560823526174 
-0.01283246522486877 
0.02539869920751952 
0 
0 
0.02305865629445445 
0.03381746022598725 
-0.01492463121965525 
0 
0.07768449858790583 
-0.01453941153394898 
0 
-0.03370688972008522 
0.0001767124592966667 
0 
0.009320790933638688 
-0.0203209651784136 
-0.02274902630354873 
0 
-0.02659281472097529 
0 
0 
-0.005805038864198996 
0.006977682257500378 
0 
0 
0 
0 
-0.01456097975614228 
0 
-0.004326241096357517 
-0.0384516501465289 
-0.0144372312952817 
-0.004965950107601641 
0 
0 
-0.02987253165277894 
0.01850362066534535 
-0.02428060821089066 
0.01841325681775991 
0 
-0.002944538114210002 
0 
0 
0 
0 
0.003828417908257006 
0.01932786506976446 
0 
-4.201868950556018e-05 
-0.00961724795674803 
0.05178320536771674 
0 
0.01271726688112476 
0.005617489356086149 
0.01090054909329669 
-0.01726276684673976 
0.06118776304526801 
0.01564997354608672 
0 
-0.002717370504237544 
0 
0.002675519262326844 
-7.857065898854659e-05 
-0.006942928534720075 
0.04011292192823464 
0 
-0.05009231285701598 
-0.01523021297995385 
0.0008525501887673032 
0.01285871320870815 
0 
-0.04217128118130772 
-0.03686353681879051 
-0.02536892212181173 
0 
0 
0 
0 
0 
-0.01052517677042902 
0 
0.0001052404783031289 
-0.01632283357705306 
-0.01739975663975292 
0.00714385403755676 
0 
-0.01923047840458339 
0.01384003952427291 
-0.01850359806826837 
0 
0.0257034680540816 
0 
0 
0 
0 
0.03753454472268062 
-8.840778047096974e-05 
4.244829297404257e-05 
0.0004662656165310819 
-9.538063349038894e-05 
0.02309050753077672 
0.0002944090413314012 
0.03083674034240031 
0 
0 
-0.02625750072247874 
-0.007013554753911427 
-0.007029825898305191 
0.01755627324935234 
-0.01855335911417912 
0 
0 
0 
-0.0178238248994876 
-0.06821642501047231 
-0.00650799560405005 
0 
-0.000746771618523971 
0.01846959791136226 
0 
0 
0.03233161921060422 
-0.03097228888858142 
-0.0190782969065411 
0.01339049784252741 
0 
0.0131716019469323 
-0.01483427118685555 
0.005825074645087653 
-0.02497350193829202 
0 
0.06434848698844996 
0 
-0.002776961037782576 
0.01120570717461715 
-0.01054864510052469 
0 
0.03680121466846385 
0.06422494263691066 
-0.01450327601162822 
0 
-0.04771777843657562 
-0.03832680183081937 
0.0002944090413314012 
-0.02152655275733525 
0.01137536867005003 
-0.02471736382638256 
0.0303791241027194 
-0.01670709749462761 
-0.00966355772330031 
-0.01797284136184282 
0.009682435477536118 
0 
0.005321661554081111 
0 
0 
-0.0372825199995364 
0.01722780095244561 
-0.01518454337168381 
-0.001736762855865279 
0 
0.0009489259319761688 
0 
0.01258169565747688 
-0.01428970334011008 
-0.01155901316712672 
0 
0.01390747379734898 
0 
0.02392402448210603 
0 
-0.0002003111873668318 
0.01855335911417912 
0.0207391928061925 
-0.01732939775565094 
-0.06287806853090801 
-0.02992091787546543 
0.0164882018270388 
0 
-0.001073229444393131 
0 
0.01279582886328499 
-0.01711781139058297 
0 
0.009413583876233604 
-0.01072012850316871 
0.0244563017871787 
0 
0.01540606456201878 
0.03312847264950008 
0.003337361442203607 
0 
0.0182768596361246 
0 
0 
0 
0 
0 
0 
0 
0 
0 
0 
0 
0 
0 
-0.01126634011092901 
-0.006554855764782358 
0 
0 
0.003021153751461377 
0 
0 
0 
-0.01017613840307975 
-0.01762109555335858 
-0.009943437390499889 
0 
0 
0.006335654694758253 
0 
0 
0 
-0.0005554598411295373 
0 
-0.002042736218160712 
0.009621786162307983 
0 
0 
0 
0.02068497577187064 
-0.03055260843274201 
-0.02339714660589306 
-0.01753330551176567 
0.01436129468213507 
0 
0 
0 
0 
0.01855335911417912 
0 
0 
-0.01161768035106144 
0.02951130492393785 
0 
0 
0 
8.696077648282131e-05 
0 
0 
0 
0 
0 
0 
-0.01470371725298813 
0 
-0.04366526340817307 
0 
-0.0130371449900422 
0 
-0.03965526542375598 
0 
0 
0.003470971883125648 
0.0002056050547133309 
-0.01553431128996243 
-0.005938436771818001 
-5.418346683933628e-05 
0.01068850109571917 
-0.01061445710722591 
-0.01659248572910993 
-0.02953021237716879 
-0.02217074812601434 
0.04713679699176794 
0.02063681641218166 
0.03110528747453956 
-0.02680007556050723 
0 
0.0109916736757791 
0 
0 
0 
0 
-1.179061470300768e-05 
0 
-0.02110874285086508 
-0.007271960914487661 
-0.01063847713869278 
0.0117888560777996 
-0.008071711876539244 
0 
0.01200008479088843 
0 
0.02164383209060534 
0 
0 
0.01297612533162277 
-0.02060660815628192 
0 
0 
-0.02730681532559082 
0 
0 
-0.02167087624571692 
0.04367371401894689 
0.03917839548018662 
-1.828454363522979e-05 
0.0237662315176804 
0.009229652422978532 
0 
0.02812616877774655 
0 
0.00827558318263308 
0 
0 
0.02416986224540234 
-0.03141617079545621 
-0.01056281651035293 
-0.02033391381656575 
0 
-0.02260279236867835 
-0.02275604216586882 
0 
0 
0.004174386543322161 
0.01608900630374328 
0 
-0.02573861272924513 
-0.03500367969560678 
-0.019890379866705 
0.01708187687044646 
0 
0.008430143495808376 
0 
-0.0150980926278262 
-0.01875404662219415 
-0.05820194175711486 
0 
-0.02781261105417748 
-0.02430454489969253 
0.001908949647982138 
0.01222795021013096 
0 
0 
0.007353547188260928 
-0.01751503131171044 
0 
0 
0.02520796637750188 
0 
0.02382638472625991 
0 
-0.01923500725169974 
-0.08634332523048342 
-0.01632350044308043 
-0.01576746953813539 
0 
-0.0437840477757585 
-0.0132119878592857 
0 
-0.01541702189173716 
0.0001344551051742377 
0 
0.02732782516699201 
-0.01028151154358035 
-0.01446408200482358 
0 
0.01498542501463913 
0 
-0.009530038125791399 
-0.0331631058600188 
-0.01498905775556768 
0 
0 
0 
-0.05024474874948933 
0.004839379638709562 
0.03587720526179813 
0.007685768055251428 
0 
0.002063007966134348 
0 
-0.01855335911417912 
0.04856746122465962 
0 
-0.0131669833512477 
0.01617519802229141 
-0.009099173993835013 
0 
-0.02127192256494577 
0 
0.001965525222856038 
0 
0.02313259250440092 
0 
0 
0 
-0.01988238337808387 
-0.0309307407401806 
-0.02630227561322271 
0.03401288316904561 
0.009019290071738427 
0.01205694653840463 
0.01543097762593025 
0 
0 
-0.02010792247220196 
-0.0002178805265665731 
-0.03276127120307476 
-0.003731960341906096 
0 
0.003148181349757012 
0.01913318241301291 
-0.01855335911417912 
0 
0 
0.002825552816127681 
-0.01485221158328068 
0 
0.03756004181161728 
-3.057818589830152e-05 
-0.0191418240077401 
0.007484152110059271 
0.004213403425643763 
0.03796390842233193 
0.03503813173427192 
0 
0 
-0.02526075259150668 
0 
0.009940298449469281 
0.01602392984892273 
0.01773872660384205 
0 
0 
-0.04293333836137993 
0.01448360168454436 
0 
0 
-0.0002234748585912875 
0.01755858527926705 
-0.0051345795013162 
0 
0.02872755410748768 
-0.006155290762567985 
0 
0 
0 
-0.001879519720455195 
-0.005653649962545955 
0 
0.003224663111657097 
-0.02355738580969041 
0 
0 
0 
-0.0164778856058327 
0 
0.008275507058383674 
0 
-0.01364587932964721 
0 
-0.01732125973317739 
0 
0 
0 
-0.01855335911417912 
0 
0 
-0.04193394787796026 
-0.01922918419775028 
0 
0 
0 
0 
0.00438178950370921 
0 
-0.01855335911417912 
0 
-0.01721144869520339 
0.02013226342114845 
0.01019784447747631 
0 
-0.01649802576883083 
0 
-0.007093580181272699 
0.01722065049850781 
-0.014676781378504 
0 
0 
-0.005894465759255236 
0.01042949775828419 
0 
-0.01163699257149488 
-0.002235455472285537 
-0.01526654638725605 
0.03863829961904546 
0 
-0.04721259880234764 
-0.04014579679319871 
-0.01113617542027446 
0 
0 
0.01729988354276527 
-0.01855335911417912 
0 
0 
-0.01232142295452775 
0 
-0.01436203424953612 
-0.02996013636872155 
0 
-0.002091311924819502 
-6.900846620089439e-05 
0.01855335911417912 
0 
-0.02371645489346871 
0 
-0.003665327699054612 
0 
0.02911280384274866 
0.0103124145220294 
-3.04358805536441e-05 
0.01467189112839649 
0.008213235749731661 
0 
-0.01571258766195353 
0 
0 
0.01095626145336675 
0 
0 
-0.01088481363829927 
0 
0.01329983739413012 
0 
0 
0.01607378355888658 
0 
-0.01297470373062403 
-0.0005870547962868462 
0.0138231572908975 
0 
0 
0 
0 
0 
0 
-0.06565963952223053 
0 
0 
0.0168057338213427 
0 
0 
0 
-0.03984617271123635 
0.002850716108103747 
-0.003336583138767296 
0.003136304081277546 
0 
0 
0 
-0.001870468349881459 
-0.003095807368612526 
-0.002341002240956569 
0.03132484614729442 
0.02823023146663822 
-0.002183195939997164 
0.0267765271699472 
0 
-0.01371327448053308 
0.01657004733245093 
-0.04077585041180253 
0 
-0.04205756772947154 
-0.03147571540529653 
-0.01347279305971364 
-0.01056312361539397 
0 
0 
0 
0.04136878613466157 
0 
0 
-0.01603683818257369 
-0.02779287235121368 
0 
0 
-2.941162493598722e-05 
0.02705285163878105 
-0.005723611441204427 
0 
0 
0 
0.0241020891312927 
-0.01855335911417912 
0.01371637546844658 
0 
0 
0.01659689354529369 
0 
-0.0001887709762982327 
0 
-0.003997684467905461 
0 
0.01598276892358124 
0 
0 
1.463460966497224e-06 
-0.004935859800495834 
0 
-0.01078784606861151 
0.0397705967608951 
-0.04810645484152062 
0.01048505232673342 
-0.01706888905560757 
0.001948293888344619 
-0.01120706456754511 
-0.008821982625369471 
-0.0003411295504651599 
-0.01345987265127618 
0 
0 
0 
0.006720148637435692 
0 
0 
0.005357508349363264 
-0.001701908803408894 
0.01553229932416211 
0.00439002714412917 
-0.01436333085269147 
-0.01960962580984063 
0 
-0.0008827654218154304 
0 
-0.006637713761705556 
0 
0 
0.06442708893018105 
0.0125612749843808 
0 
0 
-0.01394051500875653 
0 
0 
0 
-0.007900913956174017 
0.04218441642775807 
-0.06723822051207101 
0 
0.01138778598452126 
0 
0 
0 
0 
0.0008250213290510997 
0.03135761938224133 
0 
6.290504691832626e-06 
0.02152654981012686 
-0.00818753854693751 
-0.0128929842156663 
-0.008173391642356405 
-0.01417183438723271 
0 
-0.01403999123309095 
0 
0.01330363288978584 
-0.004441564011072228 
0.009420024880828626 
0.01431168553152165 
-0.020502405747854 
0 
0 
0 
-0.01190271170527316 
0.01708187687044646 
-0.0004687749630784509 
0.002540271975851404 
-0.01855335911417912 
0.01018478084937484 
-0.05912227928980492 
0 
0.005767190824820683 
0 
0.01614390430980632 
0 
0.000236759469122185 
-0.0001656461888183441 
-0.00921510772200545 
0 
-0.004231399238050862 
0 
0 
0 
-0.000110165065981628 
-0.02584194241654836 
-0.01855335911417912 
-0.02530823794139481 
0.035852323818593 
0.001523466854724236 
0.01733764595079698 
0 
0.01959051266749368 
8.214848020864188e-05 
0 
0.06058380582847099 
0.01855335911417912 
-0.0114075304097545 
0 
0 
-0.002142133901225256 
-0.002604582082910378 
-0.002055616430035587 
0 
1.906049462488003e-05 
-0.04298200311186318 
0 
0.02000966765879297 
-0.007148945159756245 
0 
0.01059956306069034 
0 
-0.03201125059492262 
0 
0.007846837473851747 
0 
0 
0.01658379615678082 
0.01540606456201878 
-0.02263275594164978 
0 
0.01540606456201878 
0 
0 
-0.02522418807011986 
0 
0.001769794818915879 
0 
-0.0202646716213945 
-0.001751706784190478 
-0.01887258205498342 
0.02926065355114885 
0.01547145337547192 
-0.009024664965787573 
0 
0.004713392871461593 
-0.008761586492293725 
0 
-0.002554433486990224 
0.01336783123263124 
-0.01796675691846763 
0.002862963319405732 
0.02516642848610472 
0 
0.01156131946821477 
0 
0 
0 
0 
0 
0 
-0.00902214014090346 
0.01059446354675825 
0.04779727208432907 
0 
-0.03537079592891563 
0 
-0.0002250874250182533 
0 
0.02675447127616979 
-0.0003809231291034706 
0 
-0.002248010684250555 
-0.0152427925763055 
-0.004940218701099161 
0 
0 
-0.05528955550966391 
0 
-0.004169715553802005 
0.02317968300048242 
0.05376443630287216 
-0.01230347390554684 
0 
0 
0.04199250737560797 
-0.009617199042324161 
0.008002160173857294 
0.01898476438432466 
0 
0.1133883820874906 
0.005411952167342983 
0 
0 
0.00273663429345811 
0.01063584399668734 
-0.00949129711981209 
0 
0 
-0.020036555521864 
-0.005514840752993047 
0.006101340103787053 
-0.01433293281934604 
0.03052752521720491 
-0.006172752472699246 
0 
-0.03223453653701641 
-0.01967839069859104 
0 
0 
-0.01119527779909926 
0 
-0.01186710844179572 
0.0239441721940203 
0 
0.07025773127039506 
0.01855335911417912 
0 
0.02206428239808175 
0 
0 
0 
0 
-0.01765636876320688 
-0.01149068855605709 
-0.01387702250500584 
0 
0.02377558968269652 
0 
0 
-0.02161380733550828 
0.003117586662392538 
0 
-0.02027550498259598 
0 
0.01540606456201878 
-0.01361603677314427 
0 
0 
0 
0.01209824131452688 
0 
0 
0.01323580031976028 
0 
0.01965975832165779 
0.005703375146107005 
0 
-2.413597361507772e-05 
-0.001975802710116543 
-0.002996980530754156 
-0.05176888907190903 
0.02404943487567725 
0.01743928094783289 
-0.01266731945933212 
0.01334660394422692 
0.009607290436267877 
-0.002828761504299406 
0.0004168823249140622 
0 
-0.02387988919324301 
0.01189189993186807 
0 
-0.006630291547863008 
-0.01474238276351989 
-0.005365663126681877 
0 
-0.01234669002154247 
-0.00853146819793613 
0 
0 
-0.01969496428700374 
-0.01235013637803167 
0.01017997428734738 
-0.005964937361959333 
0.01660283762703416 
0.002448656415460446 
0 
-0.03414823654871761 
0.03148845551517545 
0 
-0.009524483813436888 
-0.01640728734443216 
0 
0.01275470970367491 
0 
-0.009385945505953446 
-0.01855335911417912 
-8.489486832268233e-05 
-0.01383545582922462 
0.003141128091757724 
0 
0 
-0.03329240809475958 
0 
-0.0002898696240958272 
0.03006664713202574 
-0.005753266547257591 
0 
0 
0 
0.008986383873671814 
0 
-0.01308691577321678 
0 
0.01538954973644452 
0 
0.01234652230654565 
-0.01115650133548281 
-0.02816613807747442 
0.0111553027141141 
0 
0.01552748768638808 
-0.00699235098193884 
0.004300195855129476 
0 
0.02480915324887754 
-0.02172328749871281 
-0.01628202937438612 
0 
0 
-0.05300974627353645 
0 
-0.01171677859409766 
-0.01590733321815698 
-0.03529949702704645 
0 
0.0223155837915019 
-0.01140539177008357 
0.00404496507886683 
0.0001879669784302429 
0 
-0.007301630190863388 
-0.01447431921342627 
0.01734695906789736 
-0.03495212556380227 
0 
-0.01855335911417912 
0.0178428879715748 
0 
0.01910510218287672 
0.01855335911417912 
0 
-0.001069226381755924 
-0.01439507619576842 
-0.02525560111883639 
0.02175906624118035 
0.02975562240031987 
0.03332395721204905 
0.02453943764710367 
3.824171804681656e-05 
0 
0.01577371771350042 
0 
0.04001068994569876 
-0.005877519198833033 
0.004945930440436069 
-0.003654413053503293 
-0.01281593474268995 
-0.02315435056527349 
0.01010078083225876 
-0.002098746692940398 
-0.009043862441110264 
-4.759970684448637e-05 
0.01567983093618292 
0 
0 
0.009376374697303371 
-0.05744382874245363 
-0.0280001596792343 
-3.275921804632709e-05 
0 
0.0001393577267789388 
0 
0 
0 
-0.01823576484032445 
-0.01413926496003444 
0 
0 
0 
0.02886174680194717 
0 
-0.007763746568415022 
-0.01012944391163328 
-0.01928183696010111 
0.01265414154484222 
0.00397177571996033 
0 
0.03094601628294625 
0.006041580915886026 
0 
0 
0.007949602265370188 
0 
-0.009409480133918907 
0 
-2.233124382845432e-05 
-0.003687920141836592 
0 
0 
0.03108445159833221 
0 
-0.007223527241821372 
0 
0.02380237340493397 
-0.01630329080751941 
-0.0002549190968724033 
-0.0133102590955141 
0 
-0.01791881828470102 
-0.03833023222487999 
0.02254336810640349 
-0.01540606456201878 
0 
0.02954221082013376 
0 
-0.08634469436505537 
-0.01855335911417912 
-0.001643529916957544 
-0.004339371203297099 
0 
0.006101645270110484 
0.0178737049552223 
-0.02071668386638607 
0 
-0.1148772581097605 
-0.007378967742204009 
-0.01799299914074776 
0.01900774393841172 
0 
0 
-0.005665983386141838 
0.02960675442928286 
0.01445857323287727 
-0.01270043226507147 
-0.07041362024250745 
0.02729090965037475 
-0.00691065020747901 
0 
-0.0005560694249512148 
-0.02774783616879643 
0.002762453521775047 
0 
0 
-0.01833589357392643 
0.0536569798506433 
0 
0 
0 
0.005249790654339245 
0.01188451885824749 
-0.003503559126992513 
0.01286006263875896 
0 
0.01815247370104136 
0.02132385080096989 
0.003847712275881931 
0 
0 
-0.0107537302067426 
0.01397510051361018 
0.01831751550949406 
-0.02965678149784159 
0.0311838855350915 
0.03660190939348061 
0 
0 
0.01215607251087713 
0 
0 
-2.009831278827747e-05 
0 
0 
0 
-0.01250836066840974 
0 
0 
0.03212745453824373 
0.001866576340698235 
-0.01684684341108988 
0 
0 
0 
0.0001417565284136165 
0.02257135539402901 
-2.985130600509696e-05 
0.03868921021697824 
0 
0 
0 
0.02109013804835821 
-0.006296816602552814 
0.01866148749188173 
0.0049819922594183 
0.01245457694148138 
0 
0 
-0.02341166745962298 
0 
0 
0.04164279265347445 
0.0167770865119448 
0.01080712870120924 
-0.009494618035570734 
-0.02208033127473499 
0.01482226321202196 
0 
0 
0 
-0.02200711082327302 
-0.02504342448292915 
0 
-0.009410651029732237 
0 
-0.03368300460412944 
0 
0 
-0.01840373390261785 
0.002447138284190201 
-3.623891399153121e-05 
0.01518261598416865 
0.0132805459661785 
-0.02118932827123571 
0.02207026715245197 
0.02119331986575625 
-0.04867480465290885 
0 
0 
0.01116156513170145 
0 
0.01400774718749959 
-0.02183219270356763 
0 
0.01962851131232146 
-0.004731044647124499 
-0.03087092927035137 
0.009796988372963706 
0.07382756655724398 
-0.01839550389431635 
-0.01942107121729198 
0.008328768826809999 
-0.004017515431623812 
0 
-0.06343824996071971 
0 
-0.008000181650677099 
-0.01027720467593815 
0.006318053335715027 
0.0139395810550061 
-0.01416777646871802 
-0.003120563041798592 
0.01855335911417912 
0 
0 
-0.02536517610871228 
0.01466402594832126 
0.007613583673058504 
0.02813324973647476 
0 
-0.0007052173368613814 
-0.03108159122898525 
0 
0 
0.01333448481241307 
-0.02675234626172181 
0 
0.01421658937189962 
0.008480524743186035 
0.004941001682671038 
0 
0 
-0.0002011340079247923 
-0.01354905816566212 
-0.02906129863259726 
0 
0 
0 
0.006407486339885311 
0.01309779045746229 
0 
-0.0008525305459497695 
-0.01028669795197657 
-0.01677572759472506 
-0.02911587210947214 
0 
0.02444099710967007 
0.01089912666332896 
-0.006903443615512171 
0.01855335911417912 
0 
0.009161234826953531 
-0.001462472181323481 
0 
-0.01595413191320827 
-0.001069226381755924 
-0.007736402833465857 
-0.01168429687539768 
0.02816688480635695 
-0.02492978374573375 
0.02079077677322471 
0.01271969465152907 
0 
0 
-0.002781706829512667 
-0.01855335911417912 
0.01234568008305461 
0 
-0.01691326144321238 
-0.02078549404477266 
0.02677673767497972 
0 
0.01201240732980479 
-0.003815849875626558 
0.08076941414360628 
-0.02041235165118188 
6.022695952894017e-05 
0.008908946821486984 
-0.004458372200942827 
0 
0 
-4.140800507214804e-05 
-0.0226098997142078 
-0.02025113805527599 
0 
0.01678340006659957 
0 
0 
0.01530229575930044 
0.02995990656784353 
-0.005352477086708041 
0 
-0.02814040332707274 
0 
0 
0 
0.03501357509672083 
0 
0 
0 
0.005194648741738668 
-0.0001355295534767829 
0.01984964753773251 
0 
0 
0 
0 
-0.03985879193336625 
0 
-0.01347320170719429 
0 
0.01795277504459627 
7.440528487613656e-05 
0 
0 
-0.006171740278771121 
-0.007818014670361152 
7.409590720673835e-05 
0.03196357721049328 
-0.02368602959818663 
-0.02709363814306156 
0 
0 
0 
0.0308924201649676 
-0.02159288577336517 
0.04816985614381045 
0.03973153780257008 
0 
0.03468202910499693 
0 
-0.05147868358236739 
0 
0 
0 
0.0129695191904739 
-0.01031750987831717 
0.03157252472253893 
0 
0 
-0.008068584241461566 
0 
0 
0 
-0.01035447216645674 
0 
0.002241096115998389 
0 
0 
0 
0.03055534071775989 
-0.01456097975614228 
0.001224334489512295 
-0.002526227184783244 
-0.01855335911417912 
0 
0.01298377003396397 
0.02533650916573219 
0.009108885091366465 
0 
0.01787171097665849 
0 
-0.02539150481768412 
-0.007394052043394133 
0.007511979078222339 
0.01477602147550154 
0.01160070239904143 
0.01328547023721567 
0.01716679739028503 
0 
0.003675263425813062 
-0.04635255166541474 
0 
0 
0 
0 
-0.01578922195073462 
0.03653538758926932 
-0.02553616060650937 
0 
0 
0 
-0.01578549234727959 
0.01281037774123157 
0.0001275516071799994 
0.0134760083841421 
-0.02607896412658419 
0.06877029754648241 
-0.01622486005464661 
-0.01923500725169974 
0 
0.002597156017100584 
-0.005515137303771265 
-0.01848807611964312 
0 
0.0004691143372413692 
0 
0.008130824947369596 
-0.005636952900161907 
-0.008656244394058939 
0.01021266331854443 
0.05257062363120079 
-0.009953581698185363 
-0.0003107201362453353 
0.02338302590919366 
-0.01706771549135716 
-0.03297786729122312 
0 
-0.02962071347755485 
-0.02590504855896669 
0 
0 
-9.333079300641205e-06 
0 
0.006587461172021389 
0.008794985305312636 
0.01855335911417912 
-0.01904965227615755 
-0.007531867950466519 
0 
-0.02224976349219063 
0.01754473559471022 
-0.01713820214215664 
0 
-0.004073182420038927 
0.003618892965377962 
-0.01111822741863635 
0 
0 
0.01004463481689245 
-0.01855335911417912 
-0.000411769307880138 
0 
-0.03836619669623102 
-0.01993690329120211 
0 
0.0002048199316386861 
5.125383091428819e-05 
-0.01218909024686985 
0.0004951461950948358 
0.02003976993551425 
0 
0 
-8.190973104621867e-06 
-0.02738039237749479 
0 
0.009821973098599789 
-0.003464656491025009 
-0.01952844278266659 
0 
0 
-0.02175864064965199 
0 
0 
0.006262561191508542 
0 
-0.01172830708629903 
0 
0 
0.009273897153301628 
-0.00826217543079317 
0 
0.01807815038426415 
0.01439293581678222 
0.0002087127769975414 
0.02111318098560774 
0 
0.03002475835466145 
0.01976581376357607 
0.02648271319599006 
-0.01430193464164218 
-0.01128190472338992 
0.007825886635874408 
0 
0.02264268879591127 
7.98019429641949e-06 
0.01737805945211179 
-0.007582315894697524 
0 
0 
0 
0 
0 
0.05041492669950649 
0 
0 
0.002491302926140027 
0 
0.009126471840470865 
-0.01262329948723389 
-0.01122483883644647 
0.01737010378935285 
0 
0.003402151350140814 
0 
-0.01116658808188402 
0.03420663160113105 
0.01550236670011975 
-0.009255299765098177 
0 
0 
-0.02662509991869674 
0.01202098127753313 
0 
0 
-0.01733908678266654 
0 
-0.0155859225541231 
0 
-0.04879095051110249 
0 
-0.00993063950388332 
-0.02043830043999456 
-0.002186033371120597 
0 
0 
0 
-0.0118442430149042 
0.01823179431154802 
0 
0.004262187210435996 
0.004469810528822814 
0 
0 
0 
0.003710910675754815 
0.0196341056598357 
-0.02306670553467609 
0 
-0.02134431882683235 
0.02694508056662189 
0.03127364556344984 
0 
-0.03202561321917133 
-0.03203323693318616 
0.05083755881892192 
0 
-0.001870468349881459 
0 
0 
-0.008849390947115144 
0.004433745824592049 
0 
0.03267490910564581 
0.01432916381888635 
-0.01232868967052441 
-0.01897045321392518 
0.009845235670352037 
-0.01415069405764032 
0.009444541825778792 
-0.05199163839080848 
-0.02156431188716166 
0.004736589202003062 
-0.01843774606365584 
-0.02044400146048166 
0 
-0.01527052926159938 
0.02237557638046574 
0 
4.079838724947417e-05 
0.001160644210888956 
0.04853562341386671 
-0.01310326835320433 
-0.0315601319771841 
0 
0 
0.02580026856347742 
-0.002144244896252181 
0 
0.03286841940918379 
7.170204186615148e-05 
0 
0.04855740467946321 
0 
0 
0.006104542220177016 
0 
-0.03435269678813781 
0.03630638774415539 
-0.02756742118764082 
-0.004945217341359937 
-0.02618855481341392 
8.96462133534306e-05 
0.006973118232253328 
-0.008671456322173266 
0 
0.02014643372628759 
0.02176121380139679 
0 
-0.01165488903406697 
0 
0 
0 
0.007855709339264917 
0 
0.006344651868235532 
0 
-0.01243601779063098 
0 
0.02441640911735274 
0.01666341290334948 
-0.01137786494248878 
-0.005739560554931195 
0.03261490405056979 
0.0001957124280678415 
0.02566471702353373 
0.01277177141121811 
-0.02349532978057543 
-0.01475057620337262 
-0.01058014348910628 
-0.01296069151662789 
0 
-0.02041861176426489 
-0.0196914847865225 
0.004111216317604785 
0.01630421549089933 
0 
0.005204410298565873 
0.009415266710121311 
-0.02834067058190574 
0.003910496494619275 
-0.002481094138331616 
0.005010481543230425 
0.01004961044012581 
0 
0 
0 
-0.01574657915670594 
-0.009266595811197027 
0.01408690521910821 
0 
0.005907451215272873 
-0.004127518241611484 
0.04255762500877561 
0.001961394011410779 
0 
0 
0.02343339258936021 
0.02430480454416932 
-0.02385930986373126 
0 
0 
-0.02234719185262551 
-0.02585681797986411 
0 
0.001386949496681973 
0 
0 
0.01771877051106778 
0.006489748910007417 
0 
0.01209161171186712 
0.03865186170305521 
0 
-0.005747484747654384 
0.01049803178697843 
0 
-0.01467817334553096 
0.01010769055846992 
0.0358709904745023 
-0.02226720349208239 
0.0174705023813587 
0.01139510765892861 
0.01564529612024307 
0.04868919747259744 
0.009636904381412554 
-0.03087894488319043 
0 
0 
0 
-0.01197096564172228 
0.01139442589372988 
-0.01456081345650434 
0.01232940874068273 
0.04326139577143926 
0.008226676106782269 
0 
0.003449565475991598 
0 
0 
-0.0444339558482337 
-0.01147243431458815 
0.01156556096972406 
-0.02535294616506123 
0 
0.001610416200038291 
-0.01279078223607838 
0.03612488633124611 
-0.01375543895357485 
0.02158878203972445 
0 
0.01458681585423452 
0.02774376885853845 
0 
0 
2.202191579535299e-05 
0 
0.05914202394309795 
0.0005557596353430833 
0 
0 
0 
0 
0 
-0.02230151650768964 
-0.02018170336890547 
0 
0 
0 
0 
0.0189587819638617 
-0.03173816346950081 
-0.02005387552938283 
0.01483298323575718 
0.02519532496318351 
0 
0 
0 
0 
-0.0100095176398376 
-0.01154971956868275 
0.0270396446710423 
0 
-0.008573815974342413 
0 
-0.07304237408968466 
0.08457730970180703 
0.01323598734151606 
0.03473572317787799 
-0.09515730069784185 
-0.02351640990083072 
-0.03165397323660533 
0.08756802640401937 
-0.02659161490558553 
0.008421313061463084 
-4.463857025468131e-05 
0.04019038501549695 
0.009635462799129165 
0.01710892094884666 
0.02367241256569345 
-0.0002875618251934007 
0.001269610318784628 
0.0009249303653608656 
0 
0 
0 
0.01580583940988537 
-0.009646997324677702 
0 
5.756234368838417e-06 
0 
0.0003828424097850295 
0.0008054975189964824 
0 
-0.00666695468699891 
-0.02447149504982408 
-0.0103839814614755 
0.0192907286506214 
0 
-0.008798933997103653 
0 
0 
-0.02126423332817262 
0.01710430289844734 
0.01855335911417912 
-0.01177328914609027 
-0.01542170439985375 
0 
0 
0 
-0.01717718022709385 
0.01173681229452652 
0 
-0.1056113928174746 
-0.007911792703903006 
0 
-0.02333815250912355 
0.003528875949918022 
0 
0 
-0.02694050713275247 
0 
-0.0159652722074721 
0 
0.0001769526150412413 
0.02818665911404108 
0.01719048795553027 
0 
0 
-0.01673891000856812 
0.0002869874034735275 
0 
0 
0 
-0.02303793276289237 
0 
-0.004004266102944109 
-0.01564966241135845 
-0.01855335911417912 
-0.0051920965792798 
-0.01161010221258992 
0.01194595360048818 
0.004868393351085085 
-0.01402401512888708 
-0.00218247409663826 
0 
6.811434732571146e-05 
0 
0 
0.009064972149277383 
0 
0 
0 
-0.01664453210733058 
-0.01277219095527768 
0 
0 
-0.01402695180264066 
0.003564558221087303 
0.001866712635200357 
0.04486531643170002 
0 
0 
0 
3.627325973189099e-05 
0.01957341271659257 
0 
-0.01469837068124591 
-0.02667203752876057 
0 
-0.01659718705387768 
-0.01643716824242818 
0 
-0.006146802692179733 
-0.004373289914711862 
0.0005906562711915806 
0.01855335911417912 
0.005730259099360601 
0.002395412911407539 
0.03214017566199281 
0 
0 
0 
-0.02314942353349078 
0 
-0.01319127600547595 
0.009694014844006218 
0 
0.01855335911417912 
0.01970731933001604 
0 
0 
0.02117073237156036 
0 
0 
0 
0 
-0.00517288677136704 
-0.008593754930095829 
0 
0 
0.0160020492275919 
0 
0.02863312976095297 
0.02280384110084855 
0 
0.01163516653783878 
8.506855850896075e-05 
-0.007142456418845984 
0 
0.003585142509803845 
-0.01393138270065236 
-0.01519245627830408 
0.007119093811193551 
0 
0 
0 
0 
0.003214113717612904 
0.01855335911417912 
0.0188888190847292 
0.01678738609248026 
0 
0.00170329488954201 
-0.01603353463457603 
0 
-0.01019158939753209 
0.04622665360716562 
-0.0008734488390384404 
0.01025369272221747 
-0.0407705374902316 
-0.003835351026354915 
-0.01059314635992379 
0.01927374989212969 
-0.009512343431306291 
0.02559069231834963 
5.28827975891957e-05 
0.0118204969384154 
-0.01465419379146933 
0.04093732184892233 
-0.01791551020190564 
0.005340310973294553 
-0.04299294375805923 
-0.03329432376168471 
0 
-0.004874344627768338 
-0.02223420130934093 
-0.01296351194425796 
0 
0 
-0.01721027108627383 
0 
-0.02882561198584901 
0 
0 
0.02307912939981087 
-0.02901304991185558 
0.01931368740331412 
-0.007854433423447297 
-0.05361016174537615 
-0.01540606456201878 
-0.01796917016585184 
-0.01855335911417912 
0 
0 
0 
0 
0 
0 
-0.04008363455894483 
0.001053758763729206 
-0.01029147360866392 
0 
0 
-0.02081477853466175 
0 
-0.01855335911417912 
0 
0.007413060454625407 
-0.004621558784369643 
0.01481771440265579 
-0.01154224313621763 
-0.01688053323822725 
0.005702321510018927 
0 
0 
0.05419309755984897 
0 
-0.01182620526974204 
0.01886669162708754 
0.01487668618152047 
0.04649522998213968 
-0.03894364940890745 
0 
0 
0 
-0.007071316085781303 
0.001914946902907589 
0.01373529570287538 
0 
0 
0 
0.01393754038957286 
-0.04402758982003726 
-0.01210783777185387 
-3.961928204447836e-05 
0.008936282439185135 
0 
-0.01696284313478629 
0.0008648868749149721 
0 
-0.01164063263170995 
0 
0 
0.01860383103897882 
0 
-0.00709239621931532 
-0.01341181202758701 
0.01099013813497078 
0.002328362322797092 
0 
0 
0.006143925363437211 
-0.000512691349476381 
-0.01259512618242662 
0 
0 
0 
0 
0 
0 
0 
0.01023856562418097 
0 
-0.001974881297172917 
0 
0 
0 
0.01855335911417912 
0.005036939886600951 
0 
-0.008263897553686918 
-0.005442060060230807 
0 
0 
-0.01341798470918796 
0.04836045191452411 
0.02517679878973666 
0.01855335911417912 
-0.007127208374591399 
0.0296189211224013 
0 
2.186923018065279e-05 
0 
-0.02398130070671317 
-0.012106826501831 
0.01824907258277507 
-0.009170968935001309 
0.01121911275702119 
-0.01354901045164924 
-0.02382543853167846 
0 
0 
-0.02604775775819979 
-0.01657102904834436 
0 
0 
-0.02072583559779993 
-0.03060138093903062 
0 
-0.006335789048988415 
0 
0 
0.01710440691179775 
0 
0.009929650886136461 
0 
0 
-0.08276862426973705 
0.01917360272169683 
0 
-0.02470078124347089 
-0.01164650596263937 
0.03215834508161987 
-0.01702032409634596 
0 
0.0184990759712996 
0 
-0.01630846362330664 
0 
0.002745159833693091 
-0.07336686704988238 
0.02152474502466169 
0.008289644663609146 
6.420051672846456e-05 
0 
-0.0002748581717624276 
0 
0 
-0.001527544463799013 
0 
0.01285438881469742 
0.04677381993367243 
0 
-0.002870926501013019 
-0.01381587422159348 
0 
0 
0 
-0.002446832330395284 
0 
0 
0 
0 
0 
0 
0.02519171090735543 
0 
-0.01830796984242472 
0 
0.009102106528128028 
0 
0.007903698304716029 
0.01148770430066337 
0 
0.008562828080302735 
0.1211357735341676 
0 
0.002512513080287247 
0 
0 
0 
0.02664345785481661 
-0.01547425213303445 
-0.01564185705945071 
-0.0113640522053518 
0 
-0.004171309505809336 
5.647212353797969e-05 
0 
0 
-0.007253993729875569 
0 
0 
0.01250558012826363 
0 
0 
-0.01603825806716858 
0.007174897341320719 
0.02624228926598857 
0.01304249839610092 
-0.01229681704450433 
0 
-0.03732135651982027 
0.004976012652998775 
-0.008633181246288908 
2.145902281042923e-05 
-0.0002377777744183965 
0 
0.0109916736757791 
0.0104334707170014 
0 
0.006090054994905085 
0 
-0.01855335911417912 
-0.01810601349413578 
-0.04298226555487324 
0.04045313797409335 
0 
0.01080569938105557 
-0.01874714491860844 
0.007436224131837737 
0 
-0.01404785383899936 
0 
0.01790711946753509 
-0.0001614714280849656 
0.01988187201520588 
0 
0 
-0.01291523061349287 
0 
0 
-0.01637970498116385 
0.01284879823286251 
0.01917186192097612 
0.01748712679988002 
0 
0 
0 
0.02756912276676892 
0.1051536515624319 
-0.02215471972488158 
0.0521803452675161 
0 
-0.01855335911417912 
0.0132406991516038 
-0.003829454024385632 
0.0183105672798138 
0.002870225619296336 
0 
0.03873882763012431 
0 
0.02652838401833967 
0 
-0.02633888512799402 
-0.01444035157355145 
0.003000795726110052 
0 
