solver_type L2R_L2LOSS_SVC
nr_class 2
label 1 0
nr_feature 79548
bias -1
w
1.676963620618739e-05 
0 
0 
-3.049519355805496e-05 
0 
2.14050775784981e-06 
-0.01517995726666939 
-0.01523950362872971 
0 
0.01271641379333295 
0 
0 
0.004204960445675299 
0.01605966376383817 
2.465126485764237e-05 
0 
0.021267683875081 
-0.02346274799419854 
-0.007902415732348827 
-0.01412126600750792 
-6.626270908624196e-05 
0 
2.476170380242629e-06 
0.03918169373938792 
-0.0001789420862211346 
0 
-1.243360329202093e-06 
0 
-0.003570326258825157 
3.132004476172992e-05 
0 
-0.02533014958420998 
3.49643778303143e-06 
-0.009072417682957634 
0.00575484054658701 
-0.009548232579035124 
2.43633856058323e-05 
-3.923819251216068e-05 
-0.01827749694443939 
0.0007267410067017342 
-0.0001587359165643204 
-0.02006870228502134 
0 
0.01068437206378692 
3.782382867805302e-06 
-0.03168238985887226 
1.393435425937926e-06 
0 
4.416364972920901e-05 
0 
-3.05265442144985e-05 
0 
-0.003798791950091029 
-2.548570610578542e-05 
0.009455904996760491 
0 
-0.0007109377560420242 
0 
1.626958676593233e-06 
0.01859493307013325 
-0.02720112560507524 
-0.01150217360731338 
0.01350665769160466 
8.069363001819818e-05 
-3.435012177526397e-05 
0 
-1.797291492054061e-06 
-0.0119388167784774 
0 
0 
4.831880694869928e-06 
0.006129887064738875 
0 
-0.001779395265928338 
-0.004259631754236092 
-0.01022157862908767 
0 
0.0009524045725501327 
0.008760007884479653 
0 
1.158757714764213e-06 
-0.008954715570119606 
-1.917434099283211e-07 
1.965688546891954e-05 
0.007346285554260216 
0.02831258606046002 
0 
0 
0 
-2.055707452218125e-05 
8.745352775988453e-06 
0.0001869138117434067 
-2.565024832503227e-06 
-1.885155826752267e-05 
0 
0 
-0.005129483871914481 
0.0001024008938586171 
-5.193359357071075e-05 
0.002801539703762718 
-0.001208273218263324 
0 
-6.09714897088034e-05 
-0.02430401329488677 
0.004357198605760233 
-1.298841787857517e-05 
0 
0.009051852511939596 
0 
-1.814393184868772e-05 
4.673240051201602e-06 
-4.921231467093728e-06 
1.73542183555346e-06 
1.641432713912787e-05 
0 
0 
-0.02093562895975048 
0 
0 
0 
8.147724802069381e-06 
0 
-3.337389382758124e-06 
-0.000311325575906185 
7.866128107149599e-06 
0 
0 
0 
-0.01614381958392853 
7.351956614872512e-06 
-1.750796925718848e-05 
3.552661263169653e-06 
0.004933529912440237 
0 
1.631057876844033e-08 
0 
0.02497494756672092 
-1.288498904739988e-06 
0.003469628443935982 
1.229409847363129e-06 
0.003295438930434377 
3.079734022477918e-07 
3.740310977276138e-06 
0 
-1.767471469257064e-05 
0 
-0.005579950075823026 
0.0001217307826195655 
0 
-2.584666730217148e-05 
0.0040593863203908 
0 
2.185281391409335e-05 
-0.0125970400447708 
6.106801666398224e-07 
-1.834583095551202e-05 
0 
0 
-0.01250167476919395 
-0.01097180967778775 
-8.023043467861527e-07 
-0.003056861177919334 
-2.964658868924776e-05 
-7.693848132064134e-06 
-0.0009800248600385557 
-0.01817652636848395 
0 
-0.0007444608798033193 
-0.009997922651081076 
0 
0.009857171462225161 
0 
-0.002891703591831339 
-0.01340538094401136 
0.0177475792754614 
0.05983873350998774 
0 
0.001546943534261072 
0 
-0.01549825880797821 
0 
0 
0.03478113503865077 
-0.01820881875126046 
0.001907533894182484 
4.550428344960751e-05 
0 
3.530922835345323e-07 
-0.01390008679868487 
0 
-1.355427036277898e-05 
-0.003420558952367219 
0.001596770608360239 
-2.521444375402232e-05 
0.01549281283570966 
2.996315002398496e-06 
-0.04304070767273915 
0 
-1.474085856008028e-05 
1.516800968925522e-05 
-0.006074290325817658 
0 
0 
-0.005996467904130423 
-0.01629911452514879 
0.0004252302889971177 
0.0009341213295472104 
0.01381299872076914 
0 
0 
0.01222757943585884 
0.0009503439788444579 
0.03184830288341611 
0.005171906147776189 
-2.284670592843118e-06 
-0.003313537844248381 
0 
-7.138278734582039e-05 
0.00574841050666442 
-0.01057287321776886 
-0.01131074884931422 
0 
-0.008942353145112849 
-7.093682686296578e-05 
-0.001263616983294528 
-0.05079899649705672 
0 
3.899698170768445e-05 
0 
0.001900670007905247 
0.02047940352207844 
-6.30391845477834e-06 
-0.004391596561385908 
-0.0120667922581898 
0 
-0.005750983098170163 
0.001811973536500181 
0 
0 
6.672931618829909e-05 
0.0007173665802932096 
-2.047853134708415e-05 
-7.8071493296725e-06 
0.004890316957819734 
0 
0 
-5.725430800943608e-07 
0 
0.009912947815960478 
-1.551011356550338e-05 
-5.376305822648596e-05 
0 
-0.01629772897364036 
0 
9.865436179615136e-07 
-0.02119877588999984 
0 
0 
0 
0 
0.03646252719844568 
-0.0001668315152525241 
0 
3.784823764618909e-06 
0.01975462463321083 
1.134118452497414e-05 
0.001881568139324214 
-7.637437341334943e-05 
0 
0 
8.677562129356042e-06 
0 
0 
2.823460344607059e-05 
0.01072489835433421 
-6.028620560921269e-07 
1.351935875551107e-06 
5.268285599825814e-05 
0.01979039545494084 
7.930800837350953e-06 
-0.06150163044367908 
-0.0008646852623862469 
-0.0383425233157472 
0 
1.614501185845735e-05 
6.940176612675676e-05 
-8.391443914092062e-07 
0 
-0.0003571050173356745 
-2.131869834816526e-06 
3.082174750169139e-06 
0 
0 
-0.0208832595784045 
0.004938606312342271 
-4.673887871624652e-05 
-5.952602647558091e-05 
1.993669343229838e-06 
-0.009116242992057669 
0.03554039559160853 
0 
0 
-0.005051494911938288 
0 
-0.0001555803496200961 
0 
0.02031798266676505 
0.03127100084894621 
7.945587052654365e-06 
3.860968636492264e-05 
-2.764466607618566e-05 
-0.02751463591277017 
-0.08786351930844451 
-3.4994441889378e-06 
0.0003845634772221644 
-2.857450057412182e-06 
-0.02155755563123601 
-1.202755475213848e-05 
0.003892013736611386 
-6.101569445435739e-05 
-1.54475608387661e-05 
0 
0 
0 
-9.97377789189172e-06 
0 
0 
-0.0285622273034449 
0.0004380232912984099 
-0.0183292411825898 
2.542638238978322e-05 
0 
-9.206509579814183e-06 
0 
0.003623028705876714 
-0.0177554235592365 
-4.736474554190473e-05 
0 
0 
-0.0404130309152411 
0 
0.005881136655699555 
0 
0.0001701645248489524 
-0.01070282359756808 
-0.02311059876269879 
0 
-1.379521883404009e-06 
-0.003811647925577399 
0 
0.01227397926692454 
0 
3.111773001843674e-05 
-0.01065869149984373 
-0.01357862458807054 
0.02540402581341905 
0.03228037097700118 
0 
0.01198208859795242 
0.04180746397733937 
0 
3.478628046778387e-05 
0.0001256470304160552 
0 
0.01532131229083496 
0 
-0.005156341445884335 
0 
-0.01308086596229158 
-0.0002213298873230318 
0 
0 
-2.866029247406584e-06 
-0.01652341759756649 
-0.005651948788974187 
-0.007986493823084912 
0 
0 
-0.0004873699220040743 
-0.007806577904813506 
-5.91705172265256e-05 
0 
-7.690188839324121e-06 
6.78290536042665e-06 
-8.246873822947254e-06 
0.007139592751227546 
-0.01996331429279184 
-0.001863168688061066 
0 
0 
0 
-0.01112682957802154 
3.116565926329086e-06 
-9.579690765397616e-05 
0.007289951414492798 
0.009898796567945243 
3.37500796771015e-05 
0.01464024422999882 
-6.43024341555336e-06 
5.71462222618983e-07 
-0.007322679916544178 
0 
-0.03568275730166561 
1.148043429216852e-05 
-5.967685210133225e-05 
0 
-0.01560928266195621 
-0.01328060080834865 
0 
-6.986724067165575e-07 
0 
-3.534052907243647e-06 
-0.004039438453671241 
0.0001173235078579189 
-0.0179487820960676 
1.664145841143471e-05 
0.006829408275390523 
0.02410676473963505 
1.123292695189778e-06 
3.003171040527055e-05 
1.164596917814843e-06 
3.023969219608362e-06 
0.008753453118774339 
5.538997839552468e-05 
-4.71882840263375e-06 
-0.003626865975641853 
0.004648850566321455 
0.004654953307832161 
0 
0 
0 
-0.002438514295364441 
0 
0 
-0.01761088257633557 
0 
0.004124165012252679 
-0.001084054165191 
-0.001694795997654935 
-3.110094752130677e-05 
-0.01333708025278854 
-0.006075130752958768 
0 
0 
-0.006605398230195841 
2.728899368411673e-05 
4.556692122718487e-06 
0.01222145779044083 
-0.0002685542747370678 
0 
0.001091693680165374 
-0.01736670332091676 
7.390699326047226e-05 
0 
0.01763850266459304 
0.01562978349747493 
8.858070888895572e-06 
0 
-0.007324031881583845 
0 
0 
-5.095699706054395e-06 
-0.01244208109247964 
0.02176043918465226 
0.02929338252163809 
0 
0 
-0.02838967704568923 
0 
0 
-0.007381791541887481 
0 
-1.782165160496358e-05 
2.280495840048439e-06 
-0.0001362265351565734 
2.317400782332641e-06 
0 
-0.007634324617110669 
0 
-0.04398183562935198 
1.220652281569022e-05 
-0.0120520900154101 
0 
-0.03069331530410779 
-1.812895302162655e-05 
0.004482872243424312 
-1.307668271422221e-05 
0.005026080676252623 
-6.046987648479434e-05 
0 
-0.0116159558715684 
0 
-0.000196436904113863 
-1.147849717230907e-05 
-0.005108713545731132 
0 
0 
-0.04884325390602716 
0.01470470557987431 
0.0004686648597721603 
1.242079981792592e-05 
0 
0 
0.007721571785100891 
-0.003444557136549903 
0.0001609055613926749 
-3.655571081490811e-05 
-0.003665557595625698 
0 
0 
7.338902073388226e-06 
5.573462942066787e-06 
-0.008974573790053855 
-0.00769639290520533 
0 
7.92152408187343e-05 
0 
-1.078392611438829e-05 
0 
0 
2.132409620506091e-05 
0.007477125221637081 
0 
-0.006916651181393139 
9.758775686159456e-06 
-3.184303121788394e-06 
-0.005820350110172052 
7.109334388294305e-08 
0 
-0.03240176225417559 
0 
0 
0.0100812249975926 
0.01560557501052678 
0 
-0.003279593962941735 
-0.008737309222811695 
-2.249024252025737e-05 
-0.003993942796067563 
-2.310910643514941e-06 
-0.0209142720787356 
-0.001341753811327109 
-3.651763334242491e-06 
0.0003754394208867534 
-0.01712527511080108 
-1.19501111876818e-06 
-3.09696810417265e-06 
0.01432768222943017 
0 
-3.949800535503837e-05 
-0.0127380051197751 
0 
0.03722860814232717 
-0.007039775094824925 
0 
-0.02286046110111171 
-0.03384149290683768 
-1.490752475210324e-06 
-0.01305264235791919 
0 
-0.0001324818811615352 
0.00383188537519621 
-0.01356369563721519 
-0.0001827939637954442 
0 
1.047547239702846e-05 
0.0008434572742959835 
-0.004629748713179422 
0 
-0.003496034776377065 
-3.043784170359164e-06 
-0.00830782338068263 
0 
-0.0004583406738770302 
0.003526590078209367 
-0.01568779747711662 
0.01191634007843016 
-6.52783579561651e-06 
-0.009384945875961686 
-0.01295694929626205 
4.694311806668572e-05 
0 
4.508854636884439e-05 
0 
0 
0 
-0.04032358989573404 
3.7009367262064e-06 
0.01262645319669336 
8.707044735637771e-06 
0 
-5.027723231969189e-06 
0 
0 
0 
0 
0 
0 
-4.872292093419856e-06 
0 
-0.002946234140919837 
0 
-0.000156734890770735 
-0.001424037938442988 
0 
0.0002604295294342169 
-6.833193495355559e-06 
2.101766394500544e-06 
0 
-0.01058942628676856 
-0.01567879448400519 
-0.007787301188374363 
0 
0.003280750354745099 
-0.007468590630846241 
3.304645669731137e-05 
0 
0.008500209951249017 
0 
0 
0 
9.016748326076489e-06 
-0.0005576952446435625 
0 
0 
-0.006501977386006253 
0.004832623507715308 
0.01162101324705488 
0 
-0.0004803273475564008 
-4.770222184256523e-06 
6.677444499729397e-07 
0 
-3.592831516297719e-06 
0.007128478843106867 
-2.2397386200358e-05 
0 
0 
-0.01527458853917734 
0.0003025412184195786 
-0.01382827508390111 
0 
0.02830261097340217 
1.053987158795782e-05 
0.001615643864880676 
-9.500641376341217e-05 
0 
-0.01066834745488907 
0 
-0.003996348269355047 
0.002550307146160273 
-4.091203616277158e-05 
6.142474449889461e-06 
0.004155355638834811 
0 
-1.944983376851884e-05 
0 
0 
-6.878057164682664e-05 
0 
0 
-0.001746799031468406 
-2.330011517624466e-05 
0 
-0.005539519738185598 
1.386238679068367e-05 
0 
0 
-0.01095617615867143 
0 
0 
3.557240852043764e-06 
0 
-0.04480516980524425 
0 
6.848528439105974e-05 
0.0092929955725802 
0.000634007307130687 
0 
-1.434226339507979e-05 
0 
-2.69734551650342e-05 
0 
0 
-5.199246652519178e-06 
-0.01463997514842573 
0 
7.473199556891907e-06 
5.765369297850987e-05 
-0.04659589346648944 
-0.01554813470410247 
0 
0 
-0.002795508569651519 
0 
0 
-0.02151247648804166 
0 
-0.0008180596490277837 
-0.003249285628453798 
-0.0003985124603717964 
0.002689553956563086 
-2.260213847017116e-05 
3.578332110685338e-06 
0.01878420650380625 
-0.02544013027558968 
-5.877319903903634e-05 
-0.0001653317362557214 
0 
4.159218226411929e-06 
0 
-0.01002706702321857 
0 
0 
0 
-5.133926301068877e-06 
-1.481638199873094e-06 
0 
0.02134507927004229 
-2.917291209631878e-06 
0 
0 
0 
-7.360600213090405e-05 
0.008642013563326433 
-0.03495448015737935 
-0.02515117529511499 
-0.006006018355180175 
-4.795560036574103e-05 
2.695386821975115e-05 
1.143310649360445e-05 
-7.124963123062114e-05 
0 
-1.399249203667735e-05 
0 
0.01065476417491467 
0 
-0.0001767799139268239 
0.009730577144981363 
-0.002128213555758947 
3.86322611261695e-06 
-0.001708731610649147 
-1.016374132780898e-05 
0.004822017397129627 
0.009138511671848197 
0 
0 
-6.784594770962483e-06 
0 
0.01794754810375655 
-6.642652837932648e-06 
0.0001195636390380859 
0 
0 
0 
7.2157268422081e-05 
7.116278971548036e-08 
-0.006596393495339294 
-0.002297015852075842 
-0.03663908967824127 
-0.03178285323554745 
-5.323980537229997e-06 
-8.126829087050986e-06 
-0.02498289265733086 
4.036287989384339e-06 
0 
-0.02422360575430994 
0 
0 
-0.01415589493410162 
5.051839113183729e-06 
-1.189839175940566e-05 
0.006346322679624697 
0.02380231548643754 
0 
-4.053142885125478e-05 
0 
-0.003737545696956083 
0 
-1.412138986998921e-06 
0.002340198464005234 
0.05309451072607387 
-0.003402519313934299 
1.064935344906916e-05 
0.001751543366098752 
0 
0.001649773314503687 
-0.01445270565793132 
1.28443928447785e-05 
0 
-1.53691434678761e-06 
3.087681039901436e-06 
0 
-0.008028338706909874 
0.01034807830461039 
0 
-6.271406283543675e-06 
0.01592972800027908 
0 
-0.00250297591406291 
1.165469140390323e-06 
-0.02027780330694078 
0 
0 
-4.178803073216357e-06 
-6.035394684049937e-06 
0 
0 
0.001499636768746958 
0 
0 
0.017460790355926 
0.02764590717317617 
0.005248259863616105 
0.001260087564488545 
0 
-2.145709057480857e-05 
-3.361271071512364e-05 
0 
-0.02113771847966863 
-0.01729735070303111 
-8.513593974469502e-06 
0.001041391533253115 
9.784825408484603e-05 
0 
-0.0004298378841206426 
1.853928316582277e-05 
0 
-7.040792034290007e-05 
0 
8.800206660562233e-06 
0 
-0.02843394403369108 
-5.391763732793317e-06 
0 
-3.618457297724664e-07 
-1.86832130900376e-05 
0.006447768696105306 
-0.0005168496928827173 
0 
-8.370041278811009e-05 
0 
0 
-1.527384779926291e-06 
-0.003665737439437606 
0.01123356748682398 
3.700303343421002e-06 
6.102960539377577e-06 
0 
0 
-1.276719851207825e-05 
0 
0 
-0.002042699144477722 
-0.005101920935700079 
0 
-4.614003338938467e-05 
0 
-1.383430197809409e-05 
-0.01303469170419493 
0 
-0.003823414490801148 
0.008099022937047114 
5.127782657341937e-05 
0 
0 
0 
0 
0 
0.03508769705444247 
0 
0.0001116579894977932 
-0.002651655482064921 
-0.01082638494240285 
-0.007852212893723773 
0 
0 
-0.0007378360863883936 
0.01086069426405758 
0.0271606115990625 
4.901150749395373e-06 
0.002309649633029642 
-2.549822721710266e-07 
-0.005115108633598701 
1.767919432915777e-06 
0.007857128317380958 
0 
0 
-4.960124118966771e-05 
4.511775046145539e-07 
0.01966898009062279 
3.314621966710676e-06 
-2.992003746330386e-05 
-0.003510485099279935 
0.02757792377625051 
-0.01193735472697027 
0 
0 
0 
-0.002822110395251475 
3.611477428236979e-06 
-5.672924805057278e-05 
-4.820496521342924e-05 
0.020777304777514 
-0.006541809469761706 
0.0008554623070786979 
0 
-0.001034954041968014 
-9.95533177976318e-06 
-0.0006156563324465972 
0 
0 
0 
-0.005154857354427636 
0.001818530854406497 
0 
-0.0001268841115985422 
0.005767077582552616 
1.922425773124593e-06 
0 
0 
-5.129917293692838e-05 
-0.0402850921231373 
-0.000111507335385326 
0.0095638513589399 
-0.006100263989041699 
-2.179784204861849e-05 
8.44926834664147e-07 
0 
0 
-1.533470605915731e-05 
-3.880173141646191e-06 
0.01783763279607367 
0 
0.002144407554483313 
-0.09334367140862219 
0 
-0.003965833264679439 
2.51436956800767e-06 
-0.02143888107139532 
0 
-0.01819245219045757 
-0.003861435555816303 
7.404244863309329e-06 
0.005962119210364244 
0 
0.01158464338693858 
-9.998243377094887e-06 
-0.01163929016205851 
1.986061047822821e-05 
0 
-3.532516958157249e-06 
0.008828269291454619 
0.02412816415815012 
0 
1.947952127151969e-05 
0.01322696837590284 
-4.027510005178293e-06 
0 
-7.699996472778186e-05 
0.0262205281655533 
-3.895274343563035e-06 
0 
0.01133308386290935 
0.009922912731852593 
3.1336193465628e-06 
-5.973696608558853e-06 
0.02172195198430474 
-0.0193238737392758 
0.005761796417205485 
-7.296845068079826e-05 
-0.01858153687221248 
-0.02330142607220781 
-0.007839026651688686 
0.01605498214267677 
-0.01364831366595571 
0 
-0.000194364839832246 
-0.0007323214121449321 
0.004700191819439666 
6.575700591510247e-05 
-0.009760189358248633 
-0.006586675976301657 
-0.01232899146960315 
-0.03450511094513625 
0 
0 
-0.005079598368584987 
0.003395476154418599 
-0.0004602960892307802 
0 
0 
-0.001317784281590944 
0 
0 
0 
0.01853934297912431 
-0.0002627730321244423 
0 
-2.753321701580292e-05 
0 
0 
-1.545376387988846e-05 
0 
-2.238099694535976e-05 
0.01436959843997569 
0 
0.05182443005109751 
0.030050276332318 
0.0515220978843674 
0.008971858740480905 
-2.927338937280193e-06 
0.01320458494733294 
0.005032442683553744 
0 
-2.086932792799125e-05 
0 
0 
0 
0.004916652737926163 
0 
-0.0001307708603755108 
-4.061540694888678e-05 
-0.009124303377402812 
-1.103136351185958e-06 
0.0003498260416310282 
0.004301704618729714 
0.01019653539308002 
-0.03545379631957964 
0 
0 
1.929553153814591e-05 
0.0002304203353498568 
-0.0001405727359135662 
0 
-0.001621625915833743 
0 
-0.01093304852765491 
5.460668305405362e-05 
-0.02487595088802329 
2.185987046318011e-06 
0 
0.004516186751303226 
3.057733675992355e-06 
0.04615539395456521 
0.02173557962003472 
-1.757836859610133e-06 
2.271782346972591e-06 
-6.447095794046541e-06 
0.01543798956576545 
-0.004959587964346673 
-0.02018685057808488 
0 
0.007408222195524759 
5.503926390738688e-05 
5.864730497837126e-07 
-5.329045987103075e-06 
0 
0 
0 
4.160756306404337e-06 
0.0008276668774483561 
0 
-6.255634207589393e-06 
0 
-0.01141112449784526 
0 
-0.0001268898136807104 
0 
8.595958369892412e-07 
2.947695063882632e-06 
-0.03456991537002577 
-1.121772369211793e-05 
0 
0 
0 
3.763608429295793e-05 
7.493219523440629e-06 
0.0001124424898130082 
-1.169578018470336e-05 
0 
0.01433732247954909 
-0.01412484573876536 
0.01696971403795258 
-0.007430807924169288 
0.02480310162482127 
0 
0 
-0.0005956237278801203 
8.827245139095365e-06 
0 
0 
0.01484059743445452 
-0.03737612095963017 
0 
0.005288605446164437 
0.01113676155860611 
-0.0001463857187755555 
1.012685834047283e-05 
-1.52750540406484e-07 
0 
0.004314367712775439 
0 
-8.347887368231655e-05 
-0.002214732189747147 
0.0221324280651175 
0.004678664057524083 
3.222619545316136e-06 
-0.01104118077682438 
-0.01663528378943932 
0.008452811021467997 
0.003238317488753467 
-4.673438506134968e-05 
0 
0 
0.01793073895560089 
0 
-0.01599032915738737 
0 
0 
-2.169305406873026e-05 
0 
0.001554777484735561 
-0.01797372401167258 
0 
-4.882772577470123e-06 
0 
-1.472627505454616e-06 
-0.002343720071063394 
0.01049740707983367 
0 
0.003384612400984656 
0 
-3.308154196960857e-05 
0 
-0.0001060781525457431 
0 
1.468466847350379e-05 
0 
0 
-0.01604372109658121 
8.134623198996315e-05 
0 
0 
-5.240767627082337e-06 
-4.558064930023153e-06 
0 
-9.581691188435501e-05 
-0.01322879505387232 
-0.005717880381530574 
0.01454146319997785 
8.007911717254603e-06 
-7.976536736236134e-06 
-0.02849935081055581 
0.002166924789650005 
0 
0.01511880672099763 
0 
0.01781378648063365 
0 
0.007226701387811453 
-6.441641666642114e-06 
0.02038909726369913 
-0.003280052811636592 
0 
0.02306010887152979 
-0.0213905025996113 
-0.009134908957621413 
-0.002218661321947144 
0 
-0.002254926041828558 
-7.159991514923307e-06 
-7.636126882066841e-06 
9.12096440034984e-05 
5.689709403849566e-07 
0 
0 
6.594286320297165e-05 
0 
0 
0.01187127284743561 
0 
0.00287916804351974 
-0.003283966437184863 
0.02662651678473705 
-5.679648593977606e-06 
0.01404124914683649 
-0.01403720281553267 
1.210372151030057e-05 
-0.008831266227975107 
-0.0001633221282801815 
-0.02987336659213068 
-0.002184690713186956 
0 
-0.02983204596838314 
0 
2.756619892847686e-06 
0 
-1.963782284231284e-05 
0 
0 
0.001088366802711327 
-3.908478939752342e-05 
-0.0009582839801554246 
-0.006673930674360369 
0 
-3.191983970428418e-05 
-3.669349371597014e-06 
4.603448056767577e-05 
0.01125997413158933 
1.488228833621233e-05 
-2.206445740186119e-07 
0 
-1.358795029591979e-05 
-2.625549943632927e-06 
-0.05844503455650026 
0.009452405086583716 
3.560990840265795e-05 
-0.004075376334421441 
0 
0 
-0.00500826171060067 
2.56278740849057e-06 
-3.774040716321065e-06 
0.008442333033299007 
0 
0.002641405289536887 
0.0003073006760447185 
0.0002783185998872732 
0.01839068012527329 
-0.00871199025837519 
-0.002778768387810398 
1.461929330894065e-05 
-0.001078513913632625 
0 
0.003916265937115562 
0.001549817594724593 
0.005013176712284301 
-6.818988704818094e-05 
0.00423976884072676 
-0.01560530056666354 
0.009385312415022627 
0.0002341852191804516 
0.002522978148010978 
-0.01154086751244257 
0 
3.596584638029533e-05 
-0.0009625532944227788 
0.02170099971446044 
-0.007713475351208886 
0 
-0.001259388372801281 
-0.01198825405059376 
2.279706693472284e-05 
-0.007386921707045794 
1.555486740201083e-05 
-0.004191342198949966 
-7.229363284354522e-05 
0 
0.02848811953546686 
-0.01597777095348039 
0 
-0.002855480715417007 
0 
0 
0 
-0.008073275199353627 
0.01208399045098049 
0 
0 
7.436754669917184e-07 
0 
0 
-1.380929042369183e-06 
0 
1.375360900783605e-06 
0.008525734044624556 
0 
0 
-0.004182405461592806 
-0.0009153367863652952 
0 
3.574308845387704e-05 
-4.147481374610289e-05 
0 
0.02377582708639043 
0.0002242166154592882 
0.003912002579278257 
-0.03579077710074801 
-0.0329044338776351 
-2.715844122649862e-06 
-5.970052670709332e-06 
0 
0 
0 
0 
-4.563382843837902e-05 
7.51128073346369e-05 
-3.976519606938026e-05 
0 
-0.007363280686108204 
0 
6.470483140286209e-05 
0.01399822090659125 
0 
-0.0005771480000394039 
0 
0 
0 
0.00925707391781576 
0 
0 
0 
-0.07680965317338979 
-0.005994723390185396 
-0.00743587717537098 
0 
-1.559903545871024e-05 
2.520180601316093e-06 
-4.436046928843159e-06 
0.0185280415070895 
0 
-2.175665587195929e-06 
0.0006786273262222428 
3.072634518035551e-05 
2.305034322642511e-05 
2.738223786737463e-05 
0.0001080916026370099 
0.0160577136065437 
-1.498965055114461e-05 
7.225933940522671e-07 
0 
0.05359866669353448 
-0.02490056865128282 
0 
-7.156283305092402e-06 
0.02153904405453215 
0 
-3.258490905341091e-05 
0.01177019124874789 
0 
0 
0 
0.004104616811758307 
-0.01836978903111212 
0 
-0.0063974845447782 
0 
0.006962750301096035 
-5.548902022415513e-06 
-0.0007734130286702898 
0.0008806292518644824 
0.003242458692078566 
0.002216987441684135 
-3.011703210431062e-06 
0 
-0.01688424607588645 
-0.02640488311136117 
-0.01515940661779931 
0 
2.073700192158281e-05 
0 
0 
0 
-2.689404060664338e-05 
0.001476168041019506 
0 
0 
0 
0 
5.218387765959382e-05 
0 
0 
0 
-3.558249763431517e-05 
0 
4.499777734978367e-06 
3.475103061352294e-06 
0 
-2.359444821277155e-05 
3.34413600893433e-06 
0.008710896349670601 
-0.0002711619621851046 
0 
0 
-7.790687846473859e-06 
0 
0 
0.0001457845836486238 
-0.01086387705500889 
-1.220687726822835e-05 
0 
-3.639033886404565e-06 
-0.0001537753103863035 
-0.01512323397419099 
0 
0 
-0.05342204197554586 
-0.001650296945741662 
0.008984190134488753 
0.008351520739226568 
0 
-5.429878552923447e-05 
0 
-3.09716498186512e-05 
0.01281726254449783 
0 
-2.420387969765231e-05 
5.388047970983692e-06 
0.01146148024134116 
0 
0 
0 
0 
-0.01786478884047969 
0 
-9.235827057063909e-06 
-3.315044960540907e-06 
0 
0 
-2.304745627432767e-05 
0 
0 
0 
0 
-0.02350807008910604 
5.721787315697248e-05 
-0.009711873980606179 
-0.0003197458733145634 
1.284612643893885e-06 
0 
0.000398911345961555 
-0.00264672839048743 
0 
0 
8.445361416247425e-06 
-0.01641603055563596 
0 
0 
0 
1.10683979762363e-05 
-0.0008830722118821235 
0.002829914142465926 
0 
0.0004512207443215447 
-5.194058996199297e-06 
0.01889837874798173 
-2.270945082717525e-05 
0 
-2.026842435925638e-05 
-0.0004909564261713426 
0.003179838058384941 
0 
-0.02106529221841246 
-6.232362178756843e-05 
0 
0 
-0.004391073629568071 
0.001941797991045829 
-0.008918241221220197 
0.0008549580337441521 
-0.00680231152966111 
-0.01533056588680194 
-7.353200166073194e-07 
-1.920103800762248e-05 
1.428391663822411e-05 
-2.986443407239243e-05 
0 
-2.444661513621496e-07 
6.799034714495662e-07 
-0.0155303960954363 
-7.891233113690559e-05 
-2.987159985642109e-05 
0 
0.008297645770230889 
0 
0 
0 
0.06615925242222929 
-0.004128068920327949 
3.256226996822124e-06 
0 
-8.066377012064499e-06 
0 
1.829069922843995e-05 
0.007038555928471961 
0.0001878385307466359 
-0.01795535413947163 
-0.01412278648729736 
-0.0001998154602092145 
-0.01802497389603935 
7.295177898278577e-06 
0 
1.314749722872351e-06 
0 
0 
-1.850486007610291e-05 
0.01191122829650535 
0 
5.313282870828123e-05 
-1.672167492157069e-05 
0 
0 
0 
-5.601933529709863e-06 
0 
0 
-3.998062763949147e-05 
-9.112971396944203e-06 
-0.008431138918013354 
0 
0 
0 
0.00359472501287194 
-0.006733487718489153 
1.365584271732254e-05 
2.378538693488533e-06 
0 
0.008236604977565898 
0 
-1.602043937849951e-05 
2.229209035147685e-05 
0 
0.02300427237262461 
0 
0 
0 
0.05070585317514288 
2.86972443325337e-05 
0 
0.01094263475091805 
0.006876052597332953 
0 
4.106428050427947e-06 
-3.241622769751743e-05 
0 
0 
7.264707000291483e-05 
0 
-0.01174308973793026 
-0.01041289597150738 
0 
0 
0 
0 
0 
-2.166482866586131e-06 
0.002824483685903261 
-9.339889270354843e-06 
0 
-4.176929040755965e-05 
5.540966705606994e-06 
-3.976519606938026e-05 
-0.002692296167054864 
0 
-2.47366004051076e-07 
-0.006582837312988263 
2.294273965048979e-05 
-0.008330801999246677 
0 
3.063235311056579e-06 
-0.005902769122583783 
-5.896056592036053e-05 
0 
0 
0 
0 
-4.30769712536719e-07 
0 
-0.0002978200470069554 
-1.765061430568484e-05 
-0.0006017752792163748 
0.02335636348474824 
2.699345924335548e-05 
-0.009061993331313422 
-0.01883629985320263 
-0.01400633582335436 
0.0222309017083119 
-0.02076699278505945 
2.477299849189001e-06 
-4.911944474634774e-05 
0 
0.0002109627556600807 
0.01976614123520436 
0.005939690162913518 
0.01863950225232735 
-0.04419929639133586 
-3.100337473331262e-05 
0.012170391186644 
-0.01032647816291409 
0 
0 
0 
0 
0 
0 
4.270311482267054e-05 
0 
0 
0.02237016027750854 
0 
-0.03794556634820421 
0 
2.746441172328342e-05 
-6.579833427065075e-06 
0.02640823940975714 
2.325520256896238e-06 
0 
0 
-0.04625951229783297 
6.85927778563893e-06 
0 
0 
0 
7.626504870588988e-06 
0 
0 
1.019968588936813e-06 
1.676924461517503e-06 
-0.0249634825356652 
-0.004760164204213995 
2.55482781165765e-05 
-0.005038573180015603 
-7.323591106263672e-06 
-0.0187346000435061 
1.372181689219289e-05 
0.00356867426823667 
9.416942162027949e-06 
0.0003350316835715567 
-0.0001235987062281586 
0.01230387055188759 
5.619367630074567e-06 
-0.009440549605161786 
-0.01297845302195735 
-4.086533679572954e-05 
-2.947794182516223e-06 
-0.005975242300021739 
0.000366776950685265 
-0.0005560346401479576 
-5.436994663123547e-05 
-2.076591553411416e-06 
-3.398342179930249e-05 
0 
-0.0002429741826212084 
0 
-2.611679294565325e-05 
-4.665738241039049e-05 
0 
0.002244173198857934 
2.517567802669607e-06 
3.206253200866422e-05 
-0.01258132360019286 
9.503702539924022e-07 
0.01011348710262496 
-0.01508459946902647 
-0.03235988825894576 
0 
2.611303176986762e-06 
0.003744388943653454 
-0.003916392900880126 
-2.364919915422196e-07 
-0.008119297019561527 
0 
-0.0004954874943533682 
-4.640843810226847e-05 
0.0005681712336784754 
-0.0163384823077684 
-0.007266486859451201 
0 
0 
0.005196362898269863 
1.573697776380325e-06 
1.80418400445954e-06 
-0.001432607149602892 
2.003910846234999e-06 
0 
-0.0001947448514981001 
-0.001795550961989717 
-0.002776580329683136 
-0.01108283473350878 
0 
0 
-0.01221801204147378 
-0.008159405082121289 
4.997459303310766e-06 
0.0006414402999026256 
-3.244765886919191e-06 
0.0001773945251729398 
0 
0 
-1.979150902761102e-05 
0 
0 
-0.02212835246633674 
0 
-0.02606679782304079 
-0.004694393223862803 
-0.0008169670101158101 
-2.295313677635434e-05 
-3.088197375179852e-05 
-0.0006333287652559204 
-3.026749563235786e-05 
0.00119622413714188 
0 
-3.396430177054261e-05 
0 
-8.65692359524042e-05 
0 
-0.02495872704477757 
0 
5.380492188244131e-06 
1.658001312183813e-06 
0 
-0.02160721601214582 
-1.366054939744124e-06 
0 
0 
0 
-4.600459080764964e-05 
-0.001792922098411445 
-0.005595349173060079 
0.005491253658496311 
-0.01058803135119168 
0 
0 
-0.0004554409012952311 
0.0001135263032873013 
0 
-0.06683982659945621 
-0.01004678931595277 
0.01493734150945168 
0.01466001622212481 
0.01215176579979525 
-6.008999647720325e-06 
0 
0.01555448318514061 
2.056214769587489e-07 
0 
0.005168102705712262 
-7.943007531286897e-05 
-2.383882644027143e-05 
0 
0 
-7.431973494298065e-05 
0.008833126858408659 
0 
1.13661269394485e-06 
0 
0 
0.008441887708879445 
1.761346541721239e-05 
0.02708488493615461 
-5.455883133241603e-06 
0 
0 
0 
0.009095834138375974 
0.003522571001389495 
0 
-0.01731466734593082 
0.0002036586806588084 
2.488672587145737e-06 
0 
-0.009003487807909627 
7.053088867885855e-05 
-0.006972314205932283 
0.04125013508847036 
0 
4.366994819790498e-06 
-0.02117858379041297 
8.049332549020332e-07 
5.95679355268309e-06 
0.01539959240536505 
-0.001178392972279885 
0 
0.03049954727102645 
2.117109979305853e-05 
-3.149377396335857e-06 
-0.01189851870042995 
-2.817119589482467e-05 
-0.001487689393195401 
-0.004629593717584814 
0 
-0.01130690841688476 
-2.423308095883009e-05 
1.397466945948519e-05 
0.005353930006796827 
0 
0 
0.005457321530705116 
-0.008201181220316585 
0.008126224433969579 
0 
-3.520528359478694e-06 
0.001833486186080705 
0.01675416033518383 
8.249192877999198e-07 
-1.324785156848794e-05 
-1.227441456718895e-05 
-0.003340982786587976 
-0.006963869102326836 
-1.418286004015698e-05 
-1.234832092295914e-05 
-0.01390670054148349 
-0.00923468268178794 
0 
0.001217623269502929 
0.02565589497447783 
4.326116409006009e-05 
-0.006421550144210782 
-1.804630635115115e-05 
0 
0 
0 
-0.009337536889210421 
-5.041415992308847e-06 
0 
-6.971562920567715e-06 
0 
0.0004504553938561394 
-0.02047350429437069 
-3.897781016055176e-06 
4.817924334977923e-06 
0.008881623900108238 
0 
-3.692218272441897e-07 
0.0247600089187505 
-0.05499743450055524 
-0.009820264073613874 
-0.01145434772055804 
0.0005431361616141459 
-1.122322836391649e-06 
0 
0 
-4.496920752489581e-07 
-0.004247204495163768 
-0.01117027630118867 
0 
0.02141853750643382 
4.476430477556997e-06 
0.004570820037656843 
-0.004720454222071323 
-0.0006403985713021047 
0.02150089595394595 
0.001824185069800043 
-1.852863000489176e-05 
-2.01225826162418e-06 
-0.03377493851228017 
0.01581957155129645 
0 
1.204458090660003e-05 
0 
0.0112513917762094 
0 
0 
0.00921393120631899 
-0.01306639865187853 
-1.486932831108371e-06 
0 
3.685962439642498e-06 
0.01417437372046862 
0 
0 
0.001307092269101437 
0 
0 
0 
-2.711799809739537e-05 
-0.0004834482391891074 
0 
0 
-0.008152411086461874 
0 
-0.03019081429610281 
-0.006393147930165474 
0 
-2.583796976754017e-05 
0 
0.01250192562464931 
0 
0 
-8.680966679150989e-05 
0.003421378401172907 
-3.578019081485902e-06 
-0.02988601773802126 
-6.568251918972746e-05 
0 
-0.03281382538897565 
0 
0 
-0.005618079740311982 
-0.009513094789552187 
0.01548119595614112 
0.04502022705813429 
0.007476078253446019 
0 
-6.119849797926342e-05 
0 
-2.599909195337893e-05 
0.02882831076894568 
-6.182674783076822e-05 
0.01269649413604534 
0 
0 
0 
0 
0.0002133930846576601 
1.476048887356355e-06 
0 
5.466260788357216e-06 
0 
-0.0028993053965091 
-0.008599829332346605 
-0.004008756724205 
0.007534612159705775 
0 
2.646095663792105e-06 
0 
0.007235948092761019 
-2.035242823807941e-05 
0.0009239814303106031 
-0.06427166818110432 
0 
0 
0.002166924789650005 
0 
0.01594833264114871 
0 
0 
0 
-7.355612681404339e-06 
3.260956056916158e-06 
0.0004777613372770807 
3.520522126261005e-05 
0 
4.237607196211985e-06 
0 
-0.05016212897919811 
2.145914880506092e-06 
-1.909753517752984e-05 
-0.06521464242387258 
-0.0001111682768633087 
-0.0009287293128190804 
0 
3.753759156937883e-05 
0 
0.0007691386983620566 
0 
-0.0057111377917445 
-8.446177610279409e-06 
0.005734904493087614 
-3.311922274864077e-05 
-0.0005703500868484734 
-0.0411228871611428 
0.0003277954676672695 
0 
0 
0 
0.006395254409317843 
0.0205222197647672 
0.004724523663119867 
0 
0 
0.0001017948999250162 
-4.745548817252518e-05 
0 
-3.754885610994515e-06 
-6.119265654307749e-06 
-0.004020639088256509 
0.005212473960186159 
0.01568379690758659 
-0.006644282271611999 
-0.02205748286020896 
0 
5.842520128421096e-06 
-0.02768036130565399 
-4.291220825782468e-06 
-0.01449051749916183 
-0.02567403111116293 
0.009115757348033661 
0 
0.006309549849044109 
-4.294266105629365e-06 
5.374297099315883e-05 
-0.003103192108628528 
-2.131869834816526e-06 
0 
0 
-0.01257790485357117 
-0.0002229823778943778 
-8.022530777883683e-05 
-1.837889946668892e-06 
0.000648267418573585 
-3.862045668615567e-05 
0 
0 
0 
-1.910529596894045e-05 
-0.0003007684465495054 
0 
-0.002455030292437964 
-6.157941367936878e-06 
-0.006920818050299692 
8.631615200451341e-06 
0.01241656875378401 
0 
0.003684593991097579 
-6.619180091063588e-05 
-0.008198740377635468 
1.095856151098988e-05 
0 
0 
0 
-0.0283905422666639 
3.086844263843339e-06 
-3.141365924670999e-06 
0 
-0.0009685505304135176 
-6.524396506513448e-06 
5.157665705624951e-06 
0.008381188212898077 
-0.001224030734327778 
0 
-0.02857134081849965 
0 
0 
-0.009120934375331811 
-2.168696046225192e-05 
-0.01217395370125248 
-0.01562635853443314 
0 
-0.007248894004220489 
-0.01352686647445598 
1.667985603737548e-06 
0 
0 
1.002138259178679e-05 
4.233024534520294e-06 
0 
-0.01991421193567182 
0.03636524075128909 
-0.1070601706768459 
0 
-0.01340032236960065 
0 
3.523812661740153e-05 
0 
-0.0001347786791257823 
0.004188770395668768 
-0.009832331248225089 
0 
0 
1.026516492692454e-06 
-2.815379665435631e-05 
0.01762895116565406 
0 
-0.007258269668470337 
-0.001051946625616219 
0 
-0.002974958303525327 
-4.052209241365548e-05 
3.466334077492988e-06 
0 
0.002622557286767884 
2.980355020997911e-05 
0 
-1.913310212014244e-05 
0 
-2.874194226692297e-06 
-1.67732847780179e-05 
-0.02047531991159772 
0 
0 
0 
-4.450392647055727e-05 
0 
0.01128961217904511 
-0.000187256091812504 
-7.624645182182467e-05 
0 
-0.004016371518475084 
0 
0 
2.859638675654303e-05 
-0.0005132603603084603 
-0.02304181218046649 
3.409172752315871e-06 
0 
-5.299024355357139e-07 
-0.008836461900513907 
0.0228082765052614 
0 
0 
0 
-0.01812527302168534 
0 
-4.00067451014714e-06 
-0.001041017074056627 
0.01199890380260729 
0 
-0.0142378540053849 
0 
0 
-3.136613019915991e-05 
4.873020280776423e-06 
-0.01654012869274219 
-1.012984983596965e-05 
0 
0 
-4.432381495944046e-05 
-0.001856051454843555 
0 
0 
-0.002282189597253466 
0 
0.01393909921367608 
4.002179735708493e-06 
0 
-4.847815533896936e-06 
0 
0 
0.009031937893253322 
-0.0002391676935422794 
0 
1.231225841126734e-05 
0 
0 
0.01776728856956147 
-0.01259391771637585 
-0.01491991181743845 
-0.007311700911634448 
0 
0.004395748014134998 
0 
-0.01183114254796386 
-8.137711730762348e-05 
0 
0 
-0.0038494815369933 
-0.02134417638781422 
-5.30597445904685e-07 
-8.601647020760999e-07 
-5.980752325781719e-05 
-0.01258200154527939 
-1.748311190068623e-05 
-5.945364661870322e-05 
0 
-0.001235759610907546 
-0.003160870351955295 
0 
0 
0 
-0.02295344437133656 
-4.127047359637575e-06 
0 
-0.03405032897639525 
-0.02989289631199834 
-0.01344694240631979 
-3.188589441231228e-06 
-0.002196877881069693 
0.001011915635221575 
0 
0 
0 
0 
-0.002199869575232461 
-3.772450334896915e-05 
0 
0 
-0.004847846620141903 
5.409790682757134e-06 
-0.01468438747289438 
0.02397458925055634 
-0.004948739827073913 
-0.03046268820281557 
0.008156948330235232 
0 
0 
0.01817330623923215 
0 
0.008480385213082664 
7.868482781947564e-07 
0 
0 
1.487979533085622e-05 
0.01074003008850775 
0 
0.02038842340522517 
7.175846182651963e-05 
0 
-0.005107475563879996 
-0.001254765093822916 
-0.003183479624054068 
5.511596839808823e-05 
0 
1.525622777031956e-05 
-6.850498401431912e-06 
-0.0006376735963267834 
-4.860841642374271e-06 
0 
0.0005028661642829725 
-0.01326619956977441 
-0.005159504215830401 
0 
-0.0003111133420609477 
0 
-0.01445499877594343 
-0.002128020930561604 
-5.627494445722362e-05 
0 
0 
0.005757088008982051 
0 
-0.01037152899594103 
0 
0.0001679298117006051 
-0.01000824220090668 
0 
-0.01628102267424223 
-1.309218065364983e-05 
0.001685106323204535 
0 
0 
0 
0 
-3.694432214214608e-06 
-0.0004941738124424092 
0.003243192937226155 
1.864762734856509e-06 
-1.057311149813897e-07 
-1.815779479495736e-07 
0 
2.116256767651936e-06 
0.003220105502348592 
-4.386070225458973e-05 
0 
0.003201434669316865 
1.360566005520981e-05 
0 
-0.003248132053161082 
0 
-0.007891259990671718 
-3.563931180215912e-06 
0 
-4.195830137458304e-05 
0 
0.01204725495324286 
0 
0.01067539166914318 
-0.009342722990042842 
-1.103136351185958e-06 
0 
0.01808971830560915 
0.009591579028460044 
2.072423062184331e-05 
0.01292656882929094 
-0.005267051279931993 
0 
-0.007046470349049878 
0 
-0.01219846241128207 
0 
0.00187549307633644 
-0.002273257555924945 
0 
0 
0 
-0.01307864730740006 
3.802559881152152e-06 
0 
0.08360173728905243 
0 
-0.005160125785131349 
0.002462922893163895 
-0.01813705370322636 
-2.694441951159772e-05 
0 
0.01312143823943553 
-1.328372828446693e-05 
-0.01211024361532636 
2.347723180860074e-07 
-2.358043287255014e-05 
-0.003100850801495214 
-2.222314197243098e-05 
-0.007442557663082973 
0 
0 
0 
0.005116219650288103 
0 
0 
0 
0 
0 
-5.298378493805988e-05 
0.01287723374689389 
-7.55575435148793e-06 
-0.0110035397540329 
-0.008694801754725845 
8.833713997172114e-06 
0 
0 
-0.003775465100917809 
1.982457090516701e-05 
0.001330187033960206 
-0.0001008779976077366 
-0.02745193664994794 
1.958866192912593e-05 
0.02144134329833822 
-0.004465834728223041 
5.554901588817497e-06 
-0.01832097842688112 
0.004470765755599482 
0.00953816311110894 
0 
0.005727743527940873 
0 
0 
0.01302198850310144 
-6.515986113651477e-06 
3.824368072909026e-07 
-0.03436433529739959 
0.02322284005898907 
-0.02208005203448989 
1.511078602786114e-05 
0 
-0.01949443958673925 
-1.041768130640926e-06 
3.520522126261005e-05 
0 
-0.0002136192094964137 
1.79097366557397e-05 
0 
0 
5.762489581779076e-05 
7.605257722861172e-06 
-0.001952693464640376 
0 
-0.01076854473365317 
0 
-0.0159419005444165 
0 
-0.02656338789772046 
-0.01848122591176097 
-0.03096068663052935 
2.082555819517372e-05 
0 
-0.01385994861546653 
-0.01123725282099127 
-0.000835518327690957 
0 
-0.01043964067701023 
0 
0 
8.762495752610392e-06 
-0.01906265966215626 
-5.29076741309105e-05 
0 
3.713465042692318e-05 
0.02943263528361307 
-8.976755731071981e-07 
3.935880809614841e-05 
0 
-3.158577734315245e-06 
-0.02131913165230462 
3.591951807183771e-05 
-0.0002084588895001484 
0.01298530233235322 
-0.0002947658902448531 
-0.0004546018480938378 
0.02589856451056581 
-0.002336290102394978 
2.911269806552862e-06 
0.00149947867362895 
0.01334060964195668 
0 
-2.269358218019732e-06 
-0.01004080328739591 
9.659206829509103e-06 
0 
0 
-0.002298600176897532 
0 
-0.008573276933987919 
1.098517948330809e-05 
1.170128827621619e-05 
-0.005747779442307437 
0 
0 
-0.08511352617298228 
0 
-8.22750816792472e-06 
-0.01507892251988562 
-0.0005089559478620371 
-4.012368909438551e-05 
0 
0.007938905020456756 
-3.161038062945346e-06 
0 
0 
1.318158338718914e-05 
-0.01154955946459049 
0 
-4.613665295066437e-06 
0 
-0.05034523435692596 
-0.04321189324447672 
0 
0.0007898845490475139 
7.49839465187684e-06 
0.0003712706861717892 
0 
0 
-0.02146238666024246 
-0.01059990473315708 
-0.0004402373037762871 
-4.617331435456765e-05 
-4.532696846846763e-05 
-6.876338235619267e-05 
3.375205019065469e-07 
0 
-0.0007804734010262223 
0 
0 
2.337330119652699e-06 
0 
-0.024986068343593 
-0.006959048782637288 
0.01757409630154366 
0 
-0.04215900122052462 
-0.01586051104883802 
0 
-2.714950613207131e-05 
0.04315246325660886 
-0.0003438072466244702 
-0.003723498126171077 
-0.0628968190379228 
-8.70708361221349e-06 
0 
0.001453563643628188 
7.34851473408638e-06 
0.0007340836723623994 
0 
-0.00543308085345501 
-1.156727945312657e-05 
0.02138608515214779 
-0.0209117243236368 
1.065688646028583e-06 
-0.00462441376578934 
0.01893976546657259 
0.01093421181559438 
0 
0.0008220258553102841 
-0.01027919498476164 
-0.0001674772849357094 
0 
0 
0 
-1.153128789167811e-06 
0.003726748416652793 
-9.500187239843875e-05 
-0.007330422301267564 
0 
0 
0 
0.01075996618492871 
-0.02020949395066707 
0 
5.742503750358159e-06 
0.01127366068897482 
-9.998243377094887e-06 
-0.01723787379360472 
0 
-0.004950659540190717 
0.01529022891803472 
-0.0008307924761735887 
1.914672226308596e-05 
-7.986828219263428e-05 
0.003192251197252355 
-0.04200223007669541 
-9.538977941711286e-05 
3.168905540796072e-05 
2.406248053573736e-06 
0 
0 
-0.009199502779117893 
0 
0 
-0.01375823044951076 
0.01287912271444914 
-3.41190947903248e-06 
0 
1.804528875727974e-06 
0 
0 
0 
0 
0 
0 
-0.01864503356673576 
-5.678708364538937e-06 
-9.2570387384745e-07 
0 
6.1225019234129e-05 
0.001192347042158661 
-0.0004859996708424659 
-0.01205499899093187 
2.719776151700783e-06 
-7.36057198427381e-07 
0 
-3.34649746061833e-05 
0 
0.01466681968744211 
-0.006643098409124834 
-0.00318750916996933 
0 
5.004943831461705e-07 
0 
-1.356049101634168e-05 
0 
-1.16336611970277e-05 
-0.01785772595371297 
0.01090533387261747 
-0.01263818454993536 
-4.138918623736827e-05 
0 
0 
0 
-4.632794359316478e-06 
-6.618564748152164e-06 
1.302227160973062e-05 
-0.004010427978938362 
0.01305335487311071 
0 
0 
-0.01780906794868534 
0 
-0.01297106374158279 
4.503668765684177e-05 
1.49010501493113e-05 
0.01282850826741055 
0 
0 
-8.373643003942869e-06 
-0.02321681503169781 
-0.008090409836626714 
0 
0.006764116259698717 
2.579602221218716e-05 
0.01730248256917187 
-5.18339031711679e-06 
0 
1.293459984735924e-06 
6.734585728095533e-05 
0 
0 
0 
0.001332011506830291 
0.004554672384136862 
-0.001530942570539953 
0 
-1.241605967494979e-05 
0 
-0.007420485945170428 
0.001804309744769241 
0 
-3.446773531733042e-05 
0 
0 
0 
-0.0003294985671537838 
0 
0 
-0.001497497069124331 
-9.724136282546301e-07 
9.053838166572982e-06 
0 
0.01382621271246004 
4.31684224463841e-06 
1.142544434849118e-06 
0 
0 
-0.01576071154074324 
-5.360556182083898e-05 
0 
0.0005070945822564204 
-0.001252689098142836 
0 
0 
0 
4.261818906359867e-05 
-3.626264677048686e-05 
0.002549373516178486 
1.668806034707087e-06 
0.02724317982014962 
-0.008904123235445651 
0 
0 
2.769754701874222e-06 
0.01784201870600513 
0 
0.002127612574782638 
0 
0 
-0.004975604867701374 
-0.00877213656491284 
0 
-9.922426864804654e-05 
-0.008260094886630464 
0 
0.002555520489121901 
0.008703504086325401 
0.0004038260758035257 
-0.01402203843839787 
0 
1.888087830241156e-05 
0.0001371999237220168 
-3.074873818891467e-05 
0 
-6.135675704408324e-06 
0 
0.004623352382646708 
0.0127227672683405 
-0.0005485699212495615 
0 
-5.089869075486437e-06 
2.62446635278376e-05 
-0.008195723450015688 
-0.0003952968324302342 
0 
3.374604857429891e-05 
0.0145759186917451 
0 
0 
-0.01366643810622169 
-0.007324022052548792 
-5.599728875672229e-06 
-1.860103128969175e-05 
0 
0 
-0.01001251462369269 
0 
-5.553143535194223e-05 
-1.329932760563486e-06 
-0.006086762433372 
0.005756297235132303 
-2.654403229876815e-05 
2.955883577913306e-07 
0.006974003041560958 
0 
0.03027112851007678 
1.821687198120841e-05 
-3.430271253179785e-07 
0 
-0.0378258234610998 
0 
0.03201644670959301 
3.377139648002076e-05 
0 
0.01163883662514814 
0 
-0.002637548797761183 
-5.454366760232232e-05 
0 
0 
1.03878013941035e-08 
-0.0001517498434520225 
0.009834366549854794 
1.066006555449884e-05 
0 
-0.01228098366514238 
-1.66999157418551e-05 
0 
0 
0 
-2.109382998504269e-06 
0.00190644857764918 
0.007102013406335486 
-5.019918414105822e-06 
-2.277490681948172e-05 
-0.0002796989375612022 
0 
0 
-0.001279925560956437 
0.01228398582204266 
0 
-0.007821501960975316 
0.01249519193605652 
0.002401917861766013 
0 
0 
-0.007628575468826428 
0.0144471297869718 
0 
0 
0.000536851287066096 
1.195854753015079e-05 
0.005522239923715341 
-0.0003363930304686716 
-0.0007485636312843625 
6.48194408664225e-05 
-1.260225102239759e-05 
-0.02254950800677185 
0 
8.447373412448263e-06 
0 
0 
-0.01123725282099127 
0 
-0.01090117484155627 
-0.0001094302385463635 
0 
0 
0.03681116141910501 
-0.006877459551723749 
-0.008524849731719707 
0 
0.003058949651895288 
-0.01291560636113957 
-0.004824152433434922 
-0.0131257704451548 
-1.372569133063566e-05 
-0.01850947868558589 
-2.798402690958748e-05 
0.001318856739914822 
-3.367822218745149e-05 
2.036577673158662e-05 
1.77660330334019e-06 
0 
0 
-0.02040690420383011 
-1.757446991581112e-06 
-0.01517034455021024 
0.007051067823508612 
-0.01518805877061465 
-0.01460909201063467 
-1.885519503018954e-06 
0.004272924499377732 
0.01839068012527329 
0.005912247137857228 
0 
0 
0 
0 
0 
0 
0 
4.394258221844572e-05 
-0.02763028918823326 
-0.0002870781604017128 
-2.402151705823207e-05 
0 
-0.01171580922871152 
0 
0 
0 
-0.02800701244598935 
0 
0 
6.761926385393592e-05 
-0.01545246567643561 
-0.0001274388913593437 
0 
-0.0001755039861582216 
0.01562357176558538 
0 
0 
-0.0003369112880381319 
5.700316510727247e-06 
-0.01658035455615497 
0 
0 
0 
0.009189114498617357 
0 
0 
0 
-6.113200890148846e-06 
0 
0 
-0.006121256167596026 
0 
0.04795175261705927 
-0.02114085091155347 
0 
0.001086542627095771 
0.01647133531798639 
-0.01536817444432417 
0 
0 
0.00230569384323387 
1.695400441871155e-07 
2.306680277964689e-05 
-5.272358627767503e-07 
0 
0 
0 
-0.02005431569182288 
-0.0001748943017264084 
0.00883030333238273 
0 
-1.674919122809542e-05 
0 
3.081909820067109e-06 
-2.450893010231276e-05 
-2.36946517256657e-05 
0 
-0.02904741183223877 
-0.006549277003554121 
0 
-0.007949660283069872 
-2.573858189911827e-06 
0 
-0.02328744337323783 
2.483018167950008e-05 
-0.0007326420119120685 
-0.008925273862776448 
0 
0 
8.185180241575754e-06 
0 
-0.00176043007274528 
-0.004626435667259643 
0 
0.0002173559387106114 
0.009502581098560064 
-0.009242960587162029 
-0.02112786149760891 
-0.0001114066119207544 
2.141759900932241e-05 
3.659671232764343e-05 
0.01130571916405517 
0.02634573250224042 
0 
-8.843360244740993e-06 
6.048560166248182e-06 
0 
-0.004532702855298516 
-1.582909817067869e-05 
0 
-0.01256848680945216 
4.493804524581867e-06 
-0.003264914492233626 
0.0001726190136083268 
0 
-1.184571456325007e-06 
-0.005840329531418839 
0 
-3.045379865384259e-05 
-0.0002305984101665902 
-8.917012932459858e-07 
0 
-3.468991463942395e-07 
-2.832653085493873e-05 
1.586290699516211e-05 
-0.009387751114465232 
0 
-0.006798938150775743 
2.931084772462311e-07 
-0.07078093870191648 
0.001257705014293325 
-7.84764046289585e-06 
0.003799058826121336 
-3.256774873196258e-05 
-0.009439304528114553 
1.275565419578877e-05 
0.01173007071457475 
0 
-0.01346568698069956 
0 
0 
0 
0 
-0.01554334681233088 
0.005996854194336634 
0 
0 
-0.0102524298748211 
0 
-0.0002213245763316741 
-0.003259130447224112 
0.02624196431976435 
-0.01544274486872247 
-2.636566784870517e-06 
-0.01339163904280654 
0 
-0.01009115753688666 
-7.39070899511764e-07 
4.048694662402439e-06 
-6.278661946125226e-06 
-1.875770814336537e-06 
-0.001861623431370119 
0 
-0.02526056398772561 
0 
0 
0.0107738349852679 
0.03801419531622466 
0 
0 
1.361942994245683e-05 
0 
-0.01273715334829972 
-0.01293677386183586 
-0.02182225655361799 
0 
2.48071481092759e-05 
0.0004069954081993819 
-0.03620669666561901 
-0.0009470537497512197 
6.588824587451392e-07 
0.01695788266353508 
0.006173423131084181 
-0.008896162111015737 
0 
-3.940014664867267e-05 
6.247835910085228e-05 
5.303646467371055e-05 
0 
-3.076846414149115e-05 
0.003559844154207168 
-0.00215390806949225 
-0.007043796507795676 
-0.0001982812461351584 
0 
0.0005519491010520746 
0.00842417640262234 
-3.365094373845441e-06 
-0.003860486044555304 
0.02456778550290532 
0 
4.730661513918122e-06 
0 
0.008139526836683862 
0 
-1.756213260079936e-05 
-0.0001337560202676462 
-0.01417513518655166 
0 
0.01130973806607951 
0 
0 
0 
0 
0 
-2.140207440977051e-06 
0.007664818027705769 
-7.189265527757558e-05 
-4.285910600347294e-05 
-8.674491707660864e-06 
0 
-1.602377900949865e-05 
-7.181309499254821e-08 
-7.939155689536709e-06 
0 
-0.009477388421157716 
8.675177738973097e-06 
0 
-0.0001002581916016872 
-3.280383579359683e-05 
-0.003884195293534741 
-0.01009397152039499 
-5.875739342321564e-06 
0.007967050815393187 
-3.279366853248753e-06 
9.121278219677273e-06 
-0.02635973812812386 
-0.01308656202729049 
-0.0008857242875076087 
-6.175236077742324e-06 
0 
-1.475979818914815e-06 
-0.03463674380395718 
-8.656381837091637e-05 
-3.924979873354266e-05 
-3.359092734286727e-05 
0 
1.977854000004388e-05 
-0.002340977939252405 
-1.571425976083891e-06 
-0.01522795380576978 
0 
-0.003795819757550747 
0.01226552247074754 
-0.0001144339890715083 
-0.01808244741667575 
4.058012842199014e-06 
6.891411994519754e-06 
0 
0 
0.02982981924255856 
-2.373462280209845e-06 
0.0008863011873545144 
0.002055845825696958 
0.001440460607520777 
0 
0 
0 
-4.754145048271237e-05 
-2.8150531320225e-06 
-0.007016916687615915 
0.02504014147141367 
-3.050823970885723e-05 
-0.0007308027392859592 
0.0001267128739775328 
-0.04595364024772611 
-2.037617278985329e-05 
0 
-1.576041211281544e-05 
1.753315600082089e-06 
0 
0.00240626987057804 
0 
0 
-7.248370551084325e-05 
-0.00296770351625212 
-0.01177163491031345 
-0.03059149472904036 
-1.372837220424982e-05 
-0.00321324499161889 
7.235530993968901e-05 
-2.027212205355197e-05 
0 
0.03399570704343972 
0 
0 
0 
0 
-0.0003320460079362388 
0 
0 
0 
1.006220251912286e-05 
0.01329142235564084 
0 
0 
-0.06427165856579252 
0.007869055599044774 
-0.002577765153415085 
-1.629557946430517e-06 
-0.01013145595306821 
0 
0.0002665608650723732 
1.733752410398067e-07 
-1.201789718952079e-05 
-1.841009514795134e-06 
0.002087334748773777 
-0.01840932415441229 
-2.184117976275173e-06 
-0.0001126717129751864 
-0.0001165847105686666 
0.00453476923864473 
0.0003904071497670553 
-0.009247790399248888 
0.01953295725432366 
0 
-4.470449744486837e-06 
9.058961740132416e-07 
5.532231173220533e-05 
0 
0 
-0.002617625467636259 
0 
0 
0 
-0.009435689089702179 
0 
-3.792051461016843e-05 
-0.005499274686408042 
0 
0 
-5.987307625592534e-07 
0.0005199298562980567 
0.000799048329660665 
0 
0 
-0.0008375269904566537 
0 
-1.507860049348977e-06 
0 
0 
0 
8.212728769479961e-05 
0 
1.259199650983243e-07 
0 
-0.001211903997189244 
-1.032395909337078e-08 
0 
-0.0003521451508255008 
0.001586170036460226 
0 
0 
0 
-9.526853868863077e-06 
0 
0 
-0.01851850969170742 
-1.815157931941852e-05 
0 
0 
0.006274273246958027 
0 
4.003289320032864e-07 
0 
1.1482058737092e-06 
-0.01699258748669443 
0 
0 
0.03268740960166376 
2.776837361282844e-06 
0 
4.144010494798865e-05 
0 
0.009239012186457602 
4.328336573263767e-07 
0 
-0.01992445902552358 
1.859168551614593e-06 
4.06082522945123e-05 
-8.58899307967369e-05 
0 
9.796076814014722e-07 
0 
0 
-1.840887699522793e-06 
0.0006456886692009431 
0 
0 
0.000268186808213727 
0.007738366393668436 
0.005503151728762468 
0 
0 
0 
-2.36882736665704e-05 
-0.009126963039297484 
-0.01154576057379829 
0.001644953917052965 
0 
1.645552397948594e-05 
-9.845610030334991e-06 
-0.0008410308937560947 
0 
0 
-0.005015916926708072 
0.01549677813275103 
-0.007350453437871393 
0.0001068295276176984 
-0.01169916058544504 
1.699918504759226e-06 
1.045701516156684e-05 
0.003099028933121853 
7.254592913597051e-07 
0 
-2.160403136589318e-05 
0 
0.005009440933023506 
-0.000333656216381033 
0.02391427300782517 
0.0197653179192239 
2.937252081680897e-06 
-0.002789872023956749 
0 
-1.781747515387634e-05 
-4.543179161749959e-06 
0 
1.039552316746173e-05 
0 
-0.01344992204233319 
4.022564180510632e-06 
-0.0001186626022317008 
-6.285020149133828e-06 
1.912303188772722e-05 
0 
0.0008284473388429367 
0.004216955484649531 
1.993380805682224e-06 
0 
0 
-0.01077892317557992 
-0.02343450317106227 
9.057339216400301e-06 
0.002899268128920864 
0 
0 
0 
0.0006809947739459901 
0.02229849475274696 
0 
1.26591183365509e-05 
-0.002188656750421187 
0.0466936846553125 
7.224182981394124e-05 
0 
-0.0141669660710418 
-0.02127745247513154 
0 
-0.01515352355717194 
2.665146476533124e-06 
0.0001887973252534403 
0 
-3.656219503815948e-06 
0 
0 
0 
-1.167983374122362e-05 
0.0007151407141645643 
-6.631489795435412e-05 
-4.169806415391642e-06 
0.004570820037656843 
-0.002184690713186956 
1.783525092941197e-06 
0 
-1.967777107309629e-05 
0.009424473955522254 
-4.108624148777081e-05 
0 
-1.505967272043839e-06 
0.003002569669279516 
0 
0 
0 
-0.0084055672396787 
-4.627841262422024e-06 
-0.01959125843218874 
-0.0039172294989564 
0.006448526486889544 
-2.521068217683733e-05 
4.36938881121984e-06 
1.848493863067412e-05 
0 
0 
0 
0 
0.00390570031058392 
-0.001073737480060322 
-0.02145813042643855 
-1.699458544735315e-05 
0 
-2.010432436372616e-05 
0 
0 
0.04279550829146352 
0 
0 
-0.002202926009095057 
-4.048006400646764e-06 
4.750391968014832e-06 
0 
-0.008147948133617827 
0 
-0.009967434038789308 
0 
0 
0.0007163391594728858 
0.005020446466640725 
4.549100807508543e-07 
0 
0 
0.004568695727860239 
0 
3.547301415078123e-05 
-0.01698441690465501 
1.387232046939492e-05 
0.02289876838135426 
5.96334430671279e-06 
0.009930540154232408 
0 
-0.01814601120611559 
0 
-4.134846843149742e-06 
0.005754426976524077 
0.0002360417075717535 
0 
-0.02134176922119683 
-0.03054384155601766 
0 
0.01550328991209802 
-2.604872545584338e-05 
0 
0 
-0.004099343141926422 
-2.486525230655834e-05 
0 
-0.004566155248819213 
0 
0 
0.01289749078513274 
1.053206486859071e-05 
0.003422544799421705 
0 
-0.002720280594729606 
0 
-2.978717792836855e-05 
-0.0257067907880746 
-0.01026912314566344 
0 
-7.52445911636753e-05 
-0.007881945716352248 
0.005378594029513545 
-3.005493095939212e-06 
0.0003904071497670553 
1.054803324563452e-05 
-0.03529458617464931 
0 
0 
0 
0.009652913349127084 
-0.0003878190620462133 
0 
0 
1.362255420602056e-05 
0 
0 
-0.02896390864960918 
0.008368840910537157 
-0.000527876393113496 
0.001020942465452901 
0 
-0.007694206234867824 
-5.03905708342697e-05 
0.01934937750391325 
-0.006782335262184139 
0 
0 
-5.262498829957095e-05 
0.005755765526583662 
-5.443680780276946e-06 
0.01746815693998292 
-0.01903028748238386 
1.319253954548756e-06 
-0.001273644119135198 
-0.01434365709663695 
-0.003921733601522657 
-0.0007101097482680068 
0 
3.551993738590624e-06 
-0.0001150105399220859 
0 
-0.006944997669811263 
0.001315567389119144 
7.628334330034357e-05 
-8.432405169388679e-05 
0 
2.978121077233791e-06 
-0.01412786284520936 
-1.92176844657196e-06 
0 
-0.0004952790800382108 
-3.480344035540324e-05 
-3.510428426012589e-05 
0 
5.096847247648914e-06 
0 
0 
0 
-0.001963069170631072 
0 
0 
0 
0 
2.514791279356627e-05 
0 
1.765484240209547e-06 
-6.743315870609897e-06 
0.009713023057262266 
-0.03439460038727501 
-5.159888967406841e-06 
-2.79165894817358e-06 
0 
0 
0.02198302100475998 
0.0102394483903332 
-0.001904735196804633 
-1.533695377297954e-05 
-0.01839068012527329 
0.002729929395353663 
-0.03302397125511539 
0 
6.223091798703088e-05 
0 
-0.01622479220151168 
0 
0 
-5.762109000608422e-06 
0 
0.003364004595030383 
-0.0002494130882180624 
-0.002332051284633515 
0 
-1.508233300729676e-07 
0.0202098779141898 
-0.001126979232675374 
-0.0022211789466749 
-1.600328883921182e-06 
-0.00627517284804466 
-0.01066190666900824 
0.01021701069521942 
-0.003723218462745894 
0 
0 
-0.01088884353296984 
-1.309218065364983e-05 
1.419964237685169e-05 
0 
0 
0 
-3.096773154705383e-05 
0 
0 
0 
0.009772679771355373 
0 
0 
-0.008597814445168377 
-0.008952703556775882 
-3.222797555300074e-05 
3.831167815009701e-06 
0 
-2.393213817516556e-05 
-7.784171299663811e-06 
-0.006590774847776757 
0 
-0.002173846236599878 
0 
0 
-0.0154015459028302 
0 
0 
0 
1.635961671990871e-05 
0 
0 
0.002534486258220232 
0.01029215398225352 
0.02607824679272898 
0 
-0.006334595713690583 
-8.557459485394807e-06 
0.01276546786165133 
0.02013611686542548 
-5.891233495785496e-05 
0 
0.01054428905272353 
0.000878340709526059 
0 
0 
0.001832374404188318 
-4.173534416803919e-05 
2.56065587034701e-05 
0 
0 
0 
-3.652136362817835e-06 
0 
0.01917164676542497 
0 
0 
-0.003698782422623236 
0 
-4.652728218530753e-06 
-0.02117756136673193 
0 
-0.009873716581275192 
0 
-1.446390260237976e-05 
3.070645796606995e-05 
0.01459927228617666 
-0.03825268876466728 
0 
0 
3.497048894510813e-05 
0.02704304552601577 
-0.05281193569227046 
-0.001627710730384398 
0 
0 
-8.785762179568877e-06 
0.006203588308884929 
-0.0001361252498176293 
0 
-0.01618292671400448 
0 
-2.907118862649848e-06 
0.008563725936480452 
0 
0 
0.0117341613543189 
0 
-9.88878270571209e-05 
0.008698633462860395 
0 
0 
0 
-1.44174782391543e-06 
-2.900412211974526e-05 
-0.002821053903065605 
-0.01645973629835147 
0 
0.008674972965460456 
0 
-0.0001806065757734207 
-0.0001331011182131903 
0 
2.118184989708918e-05 
4.784346588059297e-06 
0.004491207531740876 
-0.004277633993932982 
3.091740442730556e-05 
-0.001750272337960146 
0.01657529939300639 
7.307860789358101e-05 
1.351056825505838e-05 
2.651697664001419e-06 
-7.673436585876054e-05 
3.341293579722895e-06 
0 
0.01585695136881825 
0 
0 
-9.331323618693918e-05 
-0.02228345331174605 
-2.709391187907792e-06 
-0.00262743132763441 
-0.02868893464333823 
-0.07889428843251968 
0 
0 
6.860909370775928e-06 
-2.49018857276592e-05 
-0.001245216737954005 
-0.001983567280629846 
-0.002848020768265691 
0.01625381079942479 
-0.000169411754037212 
0 
-0.01839068012527329 
0.00473523290259522 
0.001551222362904883 
-5.767129740121842e-05 
0 
-9.647694748777016e-06 
-0.004617315296956108 
-0.01672388784429817 
0.008685228263798009 
-0.01366924154906871 
-0.002873494240160224 
-4.840933486371993e-06 
0 
0.005489544546788724 
-0.006365712593251168 
-0.00884952305797059 
-0.006038465700798488 
0.01346304228627549 
0 
5.442275479735094e-05 
0 
0 
0 
-3.955132291034564e-06 
0 
3.24042210562364e-05 
-0.001789761338580619 
-1.534857085008337e-05 
-2.368059489760948e-06 
0.008791949440565237 
-7.298455529122077e-06 
-0.003631328114033661 
-0.01751188184614081 
0.02209313538115136 
-4.443799880247239e-06 
-9.790057306593776e-06 
-2.302043775900574e-06 
0.00387168348461343 
0 
2.113292505096854e-05 
0.005325889896187505 
-0.007792006660062519 
-3.053248166887357e-05 
-1.890086053936128e-05 
-2.245165181376067e-05 
0 
-0.006091653444484268 
0.001022279955102822 
-9.933724088123124e-06 
0.007088115365499454 
-0.02378030098897273 
-0.008691732616333237 
0.004578576620598852 
0 
0 
4.309111579277397e-05 
0 
3.229447869773292e-06 
0 
0.01236719784894018 
-3.66001361402933e-05 
0.005991386270597115 
2.304894943050612e-06 
0.0001820027474174382 
0.001251486773888484 
0 
0 
0 
-4.871456962393954e-05 
0.007764186528010291 
0.01554457026585667 
0 
0 
0 
-0.01004797025832292 
0 
0 
-3.747688056949313e-06 
0 
3.468216819471359e-05 
0 
-0.0004864989889844769 
9.902166583503771e-06 
-8.239870639356251e-06 
0 
-4.160445853932004e-05 
-0.008319291692096288 
-0.1177358133370795 
0 
-0.0008000472305970605 
0 
-0.005803286511704999 
-0.01406564848621046 
0 
7.387507938766316e-06 
0 
-0.009220469329891434 
0 
0.02344520915164644 
0 
-3.742982744821961e-06 
0 
-5.689812061705964e-06 
0.003358549982821764 
-3.99964803394464e-05 
-0.003244356318299405 
-0.00645285680420047 
-0.0006588688338963623 
-0.001530936665829676 
-0.01572435596392404 
-1.516266228160169e-06 
0.01101802629088967 
3.161836831037984e-05 
-0.0310419953096497 
0 
-0.1021530192454125 
0 
0 
0.005716346859706991 
-1.4200033932275e-05 
0.008100926778232176 
-0.0008983795134549595 
-5.324562446019302e-06 
-0.0001552857374098359 
0 
0.04746899179050791 
0 
-0.03198449787623873 
0 
0 
-0.03686656777750262 
-1.036770914858229e-05 
-0.0009622839354890785 
-8.281598138488202e-05 
0.1093482831838321 
2.59384580932868e-05 
0 
0 
0.004103072637446456 
4.438226335116865e-06 
-0.005415249025657546 
-6.590400351916295e-05 
-0.00893141052145276 
-2.436850912585411e-06 
-3.97609627811548e-06 
0 
3.946883164706688e-06 
0 
0 
0.01633923573173188 
0 
0 
0.01089870556502995 
-0.008960890732500207 
-0.0130720448764703 
-0.02167178161137316 
-0.00634001321858831 
-8.176948377662893e-05 
-2.463838515059027e-05 
0 
-1.172709794904257e-05 
0 
0.001215190415865065 
0 
-1.586165814289463e-05 
0 
-2.927609893793038e-07 
-1.915452579350287e-06 
-0.007691537201149137 
0.0006448831396220332 
0 
0.004953129046499521 
1.759804945524521e-05 
0 
-1.364733817936065e-05 
0 
-0.001277778923977559 
-0.0003535914114198143 
-0.005208946074594223 
-7.852178333122767e-05 
0 
-4.691007898795419e-05 
-0.02539943884013127 
0.00490600185768952 
-0.01700501983495856 
1.565761069060102e-07 
0.01052813978721359 
-0.007495735699424604 
0 
2.762344166743177e-06 
3.097670489490063e-06 
-0.01053021425458088 
3.860517567628378e-05 
0.006095891218558348 
1.343068682715963e-06 
0 
0.001299134923904838 
-0.007490118424923938 
3.158090109411155e-05 
0.0003515977618756053 
-3.343323489364234e-06 
-0.006919650754162985 
-7.667595800688455e-06 
-0.002185364421505801 
0.003631804030461956 
0 
-4.994808801734465e-05 
-0.01810365661942374 
0.01368244070853589 
-0.009286758980912623 
1.761331169292424e-05 
0.01533332948919148 
-7.830367551515759e-05 
-1.543974292690325e-06 
0 
0 
8.578765975788573e-06 
-0.01612969842311473 
0 
0.0003042178522400255 
0 
0 
-0.003533313722157039 
2.994820774478106e-06 
-0.003432920889225237 
0.0003738190380701595 
-0.008998272788599854 
-4.97702028454339e-06 
0 
-3.879694888915136e-05 
0.002549631667580174 
-2.143042134345615e-05 
-2.54177224319938e-05 
-0.002312076655731562 
0.04148030722607546 
0 
0.00372092156080619 
-0.02181892406421768 
0 
0.003737984781316712 
3.125859740325663e-07 
0 
0 
-0.007919341766115391 
0 
0 
-4.678322520186405e-06 
-0.003492235595377266 
-0.003989991087051454 
0 
0 
0.0005186245877337918 
-0.01476470725301584 
-2.256680277885351e-05 
0 
0 
-1.471282121151386e-05 
-6.571700653468534e-06 
0 
0.02256218698899098 
-6.708641576477334e-07 
-0.001099357738565569 
0 
0.02914742327851657 
0 
-0.008449935874008198 
0 
4.782203051284617e-05 
0.0005821583175560868 
0 
0 
0 
-0.001454079983659633 
0 
1.713789854014753e-06 
0 
-0.02271731310687756 
-0.01588303582272147 
0 
0.01192812475626832 
4.260057595723568e-06 
-0.0425182557102541 
-3.134416655692554e-05 
0.0007107641650248549 
0 
1.486945824200366e-05 
0.0004250375977752092 
2.647717157122815e-06 
-2.45088111198157e-06 
2.973304681456121e-06 
0 
0 
0 
0.0245657965567099 
7.853881489839398e-06 
0 
-3.197186699013576e-06 
6.092620715318689e-07 
0.003116603005384823 
0.0097476542194244 
-1.993787341046945e-06 
0 
0.002381153061259226 
-1.525362454372243e-05 
0.0006629498093568002 
-1.975283881564957e-06 
0 
-0.02378209807034509 
0 
-2.338536389377189e-05 
0 
-0.01337227839701001 
0 
0 
-0.0005083239886426968 
-0.01983603483951592 
-0.001743490315541913 
0.01619582482772801 
0 
0.001817356232166096 
0 
0.01270231311700959 
5.918378115450057e-05 
0.0415827892499904 
0.002234176704800375 
0 
2.547979196669939e-06 
0.007969851196664459 
-0.009267224188189989 
0 
0.01263369411547059 
0.003013904133406349 
6.036044548280318e-06 
2.097453782282965e-05 
0 
0 
0 
-2.334853120253283e-05 
0 
-0.006482897385834813 
0 
0 
-5.394602785482104e-05 
-1.02896067540802e-05 
-3.047009265134105e-06 
0.002899281493047402 
0 
-2.158663895238029e-05 
0.02351796744383372 
0.004923787039984447 
-0.01086125107321253 
-0.0008217922638223213 
-3.046358608248451e-05 
-0.01929931442427422 
-3.265450377663335e-06 
8.235664146635584e-05 
-9.021427772375613e-07 
0.0001083500116369021 
-0.01096605955999305 
-5.181440788432705e-05 
-4.45999529626021e-05 
-0.07919255945369161 
0 
-1.771759886428756e-05 
0 
-2.515985009562524e-06 
0 
-0.02716736080932105 
-6.10282603499267e-05 
-0.01217381116701784 
0 
-1.919493890606136e-06 
-9.044556396749359e-07 
-0.003377651546804594 
-2.26529481713411e-05 
0 
0 
-0.006421395180627254 
-0.00440471951795093 
-0.008625310552783634 
0.02771997066911334 
-0.00319633302893187 
0 
-0.005095542257607956 
0 
0 
-0.01137377782588798 
-0.0001283128318121122 
0 
0 
0.009213608828497257 
-0.01286945706976095 
0.0150327336351524 
0 
-0.01455192787965385 
-0.0264285850319763 
0.002822424297379287 
-0.007120200938063955 
0 
0 
0 
0 
0 
0 
0.000153177289289522 
-0.0001517174806011391 
0 
-0.00578357765434194 
-0.0006776464675153481 
-0.02910832791812275 
-0.008485781678558839 
4.349020079295823e-06 
0.01423323278362351 
0 
-0.0107959487559117 
0.009849579842722873 
0 
-0.004283269542425122 
0 
-0.008392139570190979 
1.120675822441565e-05 
-0.0118483184518878 
0 
0 
0 
0 
-0.01644960269999877 
0 
0.009117056717177861 
5.127782657341937e-05 
-6.268748745521711e-05 
-0.0007577252329119132 
-1.090685577470548e-06 
0 
0 
-0.008890596625886938 
-6.341757828408879e-05 
-0.04839354114089277 
0.0005495312651175922 
0 
-0.0006479972785090246 
0 
-0.0062466191835104 
-0.04159181119227095 
0.003150651942694911 
0 
-1.796443738316459e-05 
-1.665381638615927e-05 
0.01361807240052102 
-0.002414548612884783 
-1.350063236531062e-06 
0.01766900843658377 
0 
0.008777246181871132 
2.060753391344613e-07 
0 
2.646919705291837e-06 
0 
-0.0312599624074236 
-0.01821916509442099 
0 
0.01633208446629964 
-0.03191393777437751 
0 
0 
-6.285454154955052e-06 
-0.01253566376019823 
-0.0178502884010249 
0 
-0.02233168005272276 
7.555562760171771e-05 
-0.008558338212850092 
0.003942137008268614 
0 
-1.772526362219216e-06 
-0.002319199590618486 
0 
-2.400105671011401e-05 
5.004936758469156e-07 
-9.22410646673089e-06 
0 
-0.00677575231227693 
0 
2.479756830842487e-06 
-0.01566115909697674 
0.03668925378067745 
0.0008158694182009603 
0 
-4.064230712315579e-06 
0 
0 
0 
-0.01097679390895989 
-0.01345192132559987 
-2.618487450954759e-05 
0.002478595095719799 
-0.01047314906350061 
0 
-5.861924182262195e-05 
-0.001356331574766975 
-4.204914222266058e-06 
0 
1.307505483795334e-06 
0 
-0.0001281579364187893 
0 
-5.88189402386504e-06 
-0.005886345653505506 
0 
0.007205444437293369 
-0.02775149328340269 
-0.007395713629421027 
-0.006927299944623671 
-1.915840044590203e-06 
0 
-0.003251819568544673 
0 
0 
0.001108164773170894 
0.02664274710748493 
-0.00226052467273449 
9.235802524965402e-06 
1.813340403016196e-06 
0.003685357426009347 
-3.46045243850157e-05 
-0.02038988796133689 
0 
0 
0.004746333334847645 
0.01260207603258544 
-0.001265185624705881 
-0.02544543476073458 
1.934642556868441e-06 
0.01588166733909937 
0 
0 
-0.006833281255661246 
0.01091660916596727 
-0.02227413155491458 
0 
-0.009702311185259875 
0 
-5.423593651636606e-05 
-0.01240087387345098 
0 
-1.390216523301122e-05 
-2.077800837007197e-06 
-5.798532535951356e-05 
0 
0 
0.01712276449624566 
-0.0001032324965495494 
0.01526245749440522 
0 
0 
0.0144210300867921 
-0.0001919509660219103 
-6.571001468797369e-06 
0.003323328595876978 
0.02238369646803949 
0 
1.497842353146551e-05 
0 
-0.0002490869293115359 
2.325117021762771e-05 
0 
-0.007768658734390027 
0 
-0.01854415208512438 
0.007746380513114728 
1.371273415894743e-06 
-0.01568779747711662 
0 
-1.07003449420081e-05 
8.595958369892412e-07 
-9.7542347828025e-05 
-5.076697934811953e-06 
0 
0 
-6.63180101485153e-05 
2.794928427804789e-05 
-4.683464086680907e-06 
-5.960138701535271e-05 
0 
0 
0 
1.992057600169903e-07 
0 
0 
5.016574361125502e-06 
0 
0.01343167686843 
0 
-0.0005580749713463727 
2.921760409818432e-05 
0 
0 
-0.02259683848577728 
0 
0 
0.003221004988440352 
0 
-0.1499168161880252 
0 
0 
0 
-4.244583381566459e-05 
-4.428470108874892e-06 
-0.0005271659779776974 
0.008076526755060199 
-0.01825672049620729 
9.137490691394579e-07 
6.947259002241103e-07 
0 
0.002594635991167454 
9.784825408484603e-05 
-0.001223207368208586 
0 
-2.375052004101127e-05 
0 
-1.834032799112371e-06 
8.174323881135151e-06 
0.004768370132251478 
0.01214090661353353 
0 
0.02054859377412149 
-2.777791577932026e-05 
0 
1.326651813257758e-06 
-0.000162331829365444 
1.912163855579088e-06 
0 
0 
-3.059962250386795e-06 
0 
0 
0 
0 
-0.005328997240582637 
-0.001998453490606967 
3.434992560288896e-07 
-2.82627154935144e-06 
7.112986667353935e-05 
0.01294177042612205 
0.03071512891397887 
0 
0 
-3.558666230456227e-06 
-4.900436511475913e-05 
0 
-0.0009356921261277468 
-1.220812953373278e-05 
-3.245093858251843e-05 
0 
0.02966702868561627 
0.00916558439390389 
0.002820483945587201 
-0.02261952711218009 
0.007158983550628505 
-0.007610497407526911 
-1.971621278131005e-06 
-0.04090872397501764 
7.356685086647346e-06 
-0.008216582251936607 
3.935043169455183e-06 
0.0009338912162237759 
0 
0 
-9.640078704512064e-06 
-1.692818907840147e-05 
-2.581721597805799e-05 
-0.006072504167805144 
-0.0008960682957458136 
-0.008377112411350963 
0 
0 
-9.400947816234875e-07 
0 
0 
-0.01478582533310607 
1.038063964412292e-05 
0.01274303160437357 
-0.0007669811795493508 
0 
3.611301306020285e-05 
-0.007349283143314036 
0.005606181015069183 
3.131196094581424e-06 
0 
0 
0.009767420725181299 
-0.006081185671593197 
0.01164494886905425 
-0.007090943107964882 
-2.464921642855565e-05 
0 
0.0001003373653066249 
-4.390596588344105e-06 
-0.00717123731817463 
-1.911634152512501e-05 
0 
-0.01528428574436172 
0 
0 
0 
0.004870138963233808 
0 
-0.002095946861478134 
-0.007832394868174278 
-2.628092264949338e-06 
1.252117013085141e-05 
0 
2.556295427039745e-05 
0.01351095845349599 
-0.01645009220582585 
0.008177085388503029 
0 
-0.008039742170994485 
-5.04563968331972e-06 
0.0002936743188172526 
0.03869944208337749 
0.03846434734038569 
-0.01520125319453061 
-6.718738019017709e-08 
-0.004235328764915797 
0 
-0.008247960237077643 
-1.425495417811393e-06 
-3.312933756341591e-06 
-0.0131237712400405 
0.003337113631825366 
0 
0 
-4.830571438669269e-06 
0 
-2.988813303924364e-06 
2.164031246740105e-05 
0 
0.01178332503613914 
-0.01247685969530424 
-0.0656427372555128 
-0.0167279630131662 
0 
-0.0001160418462771411 
-0.02031714256896886 
0 
-0.03705594993945113 
0 
0.002641405289536887 
0 
0 
0 
-4.170283165909787e-07 
0 
2.276720163931113e-06 
-1.067497558524925e-05 
-8.331818750943065e-07 
3.645881614199838e-06 
0.01127095840969426 
-4.752462091950314e-05 
0 
0 
0 
1.087754146275795e-06 
5.678596081337605e-05 
-2.656065550362488e-05 
0.006123444167635885 
-8.836230958328405e-06 
0.0003053830260678569 
1.914078265738075e-05 
0 
-0.01302748590185337 
-2.134256790111413e-05 
0 
-0.00384998702105507 
-1.532326520764827e-05 
0.008916332230692695 
-0.005359884245796108 
-0.01768495489679636 
0 
0 
-0.006163369611487429 
2.895030808676884e-06 
8.040383539792477e-05 
0.01558883178682955 
-0.01259579448637132 
0 
-2.668413394253014e-06 
-4.307926324637923e-05 
0 
0 
-0.01095273184427295 
-9.372211689972773e-07 
-0.04935305714066045 
3.912092073186927e-06 
-9.818062767015967e-05 
-4.30769712536719e-07 
0 
-3.00539903003443e-06 
0.005056559210151347 
8.25197038301696e-07 
2.438700210471794e-05 
2.405338741417109e-06 
0 
-0.0003720025882104293 
3.184082405769673e-07 
4.249911410978851e-06 
-2.012396535647746e-05 
0 
-0.00720374861191447 
0.0004599730634261337 
-0.01709810426354527 
1.320700143668349e-05 
-0.003560369720735412 
-0.01623204851184722 
0 
0 
-2.668887110958773e-05 
1.624679940954508e-05 
-1.519597306450518e-06 
0.007425549689335724 
-8.144062720333135e-07 
-1.532928373672141e-09 
2.588595262391627e-07 
-2.941829422898645e-05 
-0.01404688811364507 
-1.38628867800561e-05 
-4.517385519454162e-06 
7.433074502693123e-06 
0 
0.009241925474057026 
2.669562795895608e-06 
9.200287977933298e-05 
3.120087041118007e-06 
-0.02761004975644426 
0 
0.0173020515917733 
-0.02268267713197342 
0 
-0.02233342994121697 
0 
-0.006042845871056487 
0 
0.007168899735684343 
-0.0001050488187763503 
-1.974173546454202e-05 
-0.007533479688167159 
0 
-0.00204475981282163 
-6.013766987456058e-06 
0.00550577955844531 
0.03075697438659746 
0 
6.360345081424075e-06 
-0.005026621734237145 
-0.002977923910772638 
-0.06366780997434199 
-1.053720085270334e-05 
0.005475980583608406 
-2.129624196687633e-06 
-0.01782781299001162 
-8.459019764371216e-06 
-0.003406035235213776 
0.01300535142315138 
4.100998267977607e-06 
0 
0 
8.084837011345322e-07 
0 
-0.01394433709918503 
0 
0 
1.166221800466921e-06 
0.02097570182185259 
0.02142560086848268 
-0.002469023622459278 
-0.001240929268532054 
0.004164352719450109 
0 
1.592355945509553e-05 
0 
4.816409401085948e-06 
0.00488511122696998 
2.303964394439277e-05 
-6.068329817549709e-05 
0 
-0.01466137892111011 
5.291478496843701e-06 
-0.003193057105070775 
2.010541336505013e-06 
-2.57262245678426e-05 
0 
-0.002232201862654492 
0 
0.01389627218224436 
0 
0 
0.0001395502374833256 
0.002933194718140248 
-0.01101273520658086 
-1.621083557055216e-06 
0 
-3.084401138743562e-05 
-4.266107403557851e-05 
0 
-0.0002129122250521848 
-0.001430699837611803 
0.002400843301918321 
2.141759900932241e-05 
-2.332619975755604e-05 
0 
0 
-1.39031481069204e-05 
0.00150552529705088 
0 
0.0004574017265049901 
-0.01241851525241037 
0 
0.006542332747964432 
-0.01531515295073922 
0 
-0.02567249748689328 
0.0001353523840764006 
3.39590540149494e-06 
-0.01159713334983138 
1.667294931354308e-05 
0 
3.929255989563276e-06 
0.01251077574799461 
-0.0032042693717422 
0.005455722168878246 
-0.04335296706700963 
-2.059059700990615e-06 
-0.02632551247398837 
-0.00760555045206361 
0 
-4.609961508297804e-06 
4.119359334922173e-06 
-4.464085146604251e-05 
0 
0.0005956139340869448 
0 
0.01052917964454091 
-0.02972221014296138 
0 
-0.03092938356820149 
0 
1.943506424953647e-06 
-0.04354903425976884 
3.325407478867604e-05 
0.004325376570338825 
0 
0 
-0.01762557710548985 
0.005769327145598141 
3.981154042394972e-05 
-0.0008873940797044257 
0 
-0.01207620831729766 
0.01568799126122539 
-0.0004141745588281246 
0 
0.01667358494510606 
0 
0 
0.002620617504764322 
-7.082798650553468e-05 
0 
0 
0 
0 
-0.004259207011737278 
-6.879120127529188e-05 
-0.01033850747977127 
-1.452264880007783e-05 
-5.254472337585015e-05 
0 
4.504571603381458e-05 
0 
0 
6.72079721504126e-07 
-0.0184867668670427 
4.03306995308662e-05 
0 
-2.522221005849551e-05 
0 
0 
0 
0 
0.01132089340578892 
3.461600679632832e-05 
0.002898564949221614 
0.01061675096904081 
2.46648751733135e-06 
0 
0.0002310176528329251 
-0.001277748288836014 
6.737331420676043e-05 
0.008927462749979952 
0.0009385065551184341 
-0.009830146468432431 
-0.006745006692978439 
-2.004685386330064e-06 
-0.009749349400823976 
-0.01389778408156742 
-3.316135567771654e-06 
-5.834131666229329e-05 
0 
-5.080661408827584e-06 
0.005246082061588635 
-0.0108908895691369 
0.01666125492511614 
0.0001550794559654098 
-0.008790850031704964 
2.57409944971268e-05 
-0.01149998136195584 
2.355862279837617e-06 
0 
0.001215190415865065 
-0.05486059483717792 
-0.0003855109957459836 
0 
0.001530706211461541 
6.43948315765406e-07 
0 
1.370345004991111e-05 
1.409014657092754e-05 
0.008690501116558731 
-0.03528053382587884 
0.01366785934520422 
1.74389412496206e-06 
0 
0.002260901132853292 
0 
-1.973524611982829e-06 
-3.269677144746978e-06 
0 
-0.01049101809414044 
-3.665075875161863e-05 
0 
0 
-0.0006300393919021472 
0.02650961080624302 
2.594450712360851e-05 
0 
-1.460709883214167e-06 
0.0004060343863871876 
-7.958776430636365e-06 
0 
-3.061142720883509e-05 
-0.01111263568023215 
-8.210703268287974e-07 
-6.954869570127e-07 
0.004019314053732063 
0 
-0.002223327336532784 
-0.02592819725677807 
8.467332603161974e-06 
0 
0 
0 
0 
-0.133729230830491 
1.48316905680808e-06 
3.308462738273957e-06 
0 
-1.339834614734643e-05 
-0.0005869694339292551 
4.682396573684895e-06 
0 
0.01447036011998576 
0.01040949650864978 
7.993870129341908e-07 
0.001948800027080227 
0.004391324946848569 
-3.807470828033204e-06 
0.0001145695378976389 
0 
5.313762383065242e-05 
2.855950044509153e-05 
0 
-5.334295602976775e-05 
0 
-1.110893290224587e-05 
0 
0.02194625305419984 
0 
-3.735915513957102e-06 
0.01211998661966644 
-0.007705941181301995 
-0.0006020309704724693 
7.898544392699793e-07 
0.005413586306544372 
0 
-1.099231277206226e-05 
0 
0 
6.087414674066862e-05 
-0.01104895630377315 
0.007204836879056572 
0.01717455887112997 
-1.088407457522467e-06 
0 
0 
0 
1.1496681319234e-05 
7.264763554820072e-05 
0.0001889751949149524 
0.08168795393292955 
1.612675776133848e-06 
0 
0 
0 
-0.02031367857193099 
-2.591541423850779e-05 
1.284563725667338e-05 
6.751934546099424e-07 
-0.01405500047636872 
0 
0.008460376608741566 
-9.057295499915839e-05 
0 
0 
7.180763052510357e-06 
0 
0 
0 
-0.005262782784539516 
-0.01604151939616148 
0 
0.0002129306589296356 
0 
-0.001802278112363746 
0 
0.02253635146654614 
0.004912295954292196 
-1.007865541673904e-05 
0 
0 
-0.002696860704506464 
-4.006693959883903e-06 
0 
6.790428206706196e-05 
0 
-0.003770339929488139 
-3.058405857529195e-06 
0 
2.369457186326733e-05 
-2.76539093310455e-06 
0 
0 
-2.993342474191985e-06 
-0.008330875352543437 
0.008538239934381244 
0 
-6.028173067413667e-05 
0 
-0.0131453116928941 
0 
0 
-0.001535875425128606 
0 
-0.03624643165775322 
-0.01080005306325901 
0 
0.001093570503041166 
2.813032718735141e-05 
0.01052015370361419 
-1.520029703022717e-05 
-3.057462587495784e-06 
-4.672258548065638e-05 
0 
0 
0 
2.808595849226363e-05 
4.081398932392704e-07 
-0.01677740422420378 
-3.05934554863244e-06 
-0.04055707404071777 
-0.009991041271288607 
0.007651884380683885 
0 
-0.003141504795006993 
0 
0 
0 
3.348782715402257e-06 
-1.033586358284253e-05 
0.02715283861739937 
-0.007935934226245283 
0 
-0.001212715715084105 
-1.29597297950331e-05 
-4.799267357034456e-06 
9.119007712589711e-07 
0.01027424440540568 
8.80345311293881e-07 
6.305003335624503e-05 
0 
0 
-1.058083953615006e-06 
1.457268374612011e-05 
6.157174794045088e-06 
-0.0001295101601409087 
-0.0009211064536997216 
0.00944997850003413 
-0.02744480806507893 
-5.421250651848952e-05 
-1.037561462152384e-06 
0 
0.006534550210486097 
0.02412520144405476 
-0.03967113066655116 
0.01893424376996752 
0 
0 
-0.00343372994526848 
0 
0 
-2.075185315377945e-05 
2.505271926407386e-06 
-1.852516245380058e-06 
-3.378123859652421e-06 
-0.001260260895086168 
0 
0 
-1.202517052925948e-06 
-2.83685718387581e-05 
0.000119457084691462 
0 
-0.02254381487406367 
-4.641854968605096e-05 
0.0002406382668002158 
0 
0.00160401912601531 
-4.414093957912465e-05 
-0.00833511477818836 
0 
0 
1.837758418995809e-06 
-1.221412992942874e-06 
-3.31804976485004e-05 
-0.01645964026033504 
-1.331284742135943e-06 
0 
-0.01681242426673361 
-1.442829889894646e-05 
-0.002177997110122296 
0 
-0.001082382025256435 
0.005522366932355451 
2.295162584481055e-05 
-0.01290014582575842 
0.01153781760958049 
-0.06124150350227815 
-5.458215452861946e-06 
0.01497063239964203 
-2.654403229876815e-05 
0.01442097959181818 
-5.509127826089283e-06 
2.140949289825388e-06 
-0.01390387555692455 
0.01991734430888911 
-0.005792338935800587 
0 
0.03728655931569677 
-0.002063626893032354 
0 
-0.02523043988279105 
-1.526535967629718e-05 
0 
-1.885755907733561e-05 
6.886067736905032e-05 
-0.01462083244939668 
4.506940820695734e-06 
3.041030196505083e-05 
0 
0 
0.007208698211278282 
4.314371153079438e-06 
0 
0 
0 
0 
-0.01218376620728379 
0 
-0.006733710563112047 
-0.02229517546302165 
-0.004986543326915272 
9.585165589251062e-06 
0 
0 
-0.01172709219053524 
0.02110818868233227 
0.0005536297326956801 
-0.009587333914617942 
0 
7.221834034495649e-06 
0 
0 
0 
0 
-0.007110827989025162 
0.01117681529099057 
0 
-0.0002767288769333166 
4.514421953176902e-06 
0.05040007357063406 
0 
-0.001655287152502704 
-0.0001044897356410289 
0.001500732091139054 
-0.01570802453284022 
0.0484056291888785 
2.364165822925296e-06 
-6.003950604637853e-06 
0.006260845149328755 
0 
1.485599465898298e-06 
4.55862740297713e-06 
3.306832401224775e-05 
0.01046373298907083 
0 
-0.03108733103474818 
-0.01471275665197975 
0.0009205003938204919 
0.01211278185435522 
0 
-0.02796357344872612 
-0.02947659259194221 
5.154351992223426e-05 
0 
0 
0 
0 
0 
4.994035118530897e-05 
0 
0.0001194784572840274 
-0.004117678729810792 
-2.141686613523414e-05 
-2.638136262358317e-06 
0 
-0.004665849109446868 
0.004774170207389254 
-0.00151199500014842 
0.002215363613568897 
-0.006369954523487159 
0 
0 
0 
0 
0.01345527503997746 
3.862511240116152e-05 
2.426471439177943e-06 
-4.966758541974038e-06 
-1.411384888433583e-06 
9.706303935786617e-07 
-3.394197555342388e-05 
-0.00366952509836205 
0 
0 
-0.009745565227370452 
0.004095455986528949 
-7.370997214261764e-05 
0.01353108601017632 
-3.167176937518883e-05 
0 
0 
0 
-0.0005341994347685907 
-0.03962321846920695 
1.178200165255159e-07 
0 
0.01552249348879521 
-8.21089540948358e-05 
0 
0 
0.01597152883984933 
-1.31018676759255e-05 
-0.003106168430369114 
1.065688646028583e-06 
0 
-0.001905298101569995 
-0.003931904856385224 
-8.917923494190786e-06 
-0.004574268414440874 
0 
0.04111120786020783 
7.65771740727093e-06 
-0.004438299815355195 
0.02057869057985158 
0.000502806780769116 
0 
0.01681859740556639 
0.01599038362171606 
0.002319663987053271 
-2.644485946626622e-06 
-0.01804362782647256 
4.524724693555227e-05 
-3.394197555342388e-05 
-0.009212389715369822 
-4.467833510596658e-05 
-0.001899282456081436 
0.04409041786514264 
-0.02638821379939542 
1.047164631074127e-05 
-0.01336832558559372 
-2.405642785787337e-05 
0 
0.002257562652634294 
-6.431506735373955e-06 
0 
-0.02481436518626018 
-8.854451392251479e-06 
-0.0006865731378655358 
0.01579387524189299 
0 
1.197833548188975e-06 
0 
2.35085746378073e-05 
-0.01192740102981502 
-3.224013660454326e-06 
1.018001298564203e-05 
-9.124849601747451e-06 
0 
0.01197727894580477 
0 
-0.0002018782703829864 
-2.324460354187235e-05 
-0.001806336540076215 
-0.01294255318828775 
-0.03682187248112734 
1.452803560602267e-06 
-2.413370453792803e-05 
0 
-0.004553048817115681 
0.04049395921251564 
0.01216242958533544 
-2.160406225620993e-06 
-1.003342148414883e-05 
-0.007773705809109596 
0.0003425924205647111 
0.008638752733107113 
0 
2.973304681456121e-06 
-0.0003337141978071094 
0.01507177568715573 
0 
0.00423809539954305 
0 
0 
0 
0.001930866777952872 
0 
0 
0 
4.546617554975672e-06 
0 
-1.22749273621542e-06 
0 
-0.002807530455964841 
0 
-0.0034441909635006 
2.219621414387128e-06 
0 
0 
1.346480121918785e-06 
0 
-6.59906198224478e-05 
0 
-3.372228261507312e-06 
-0.009295330086631455 
3.681463615354484e-05 
0 
0 
-0.004913464165731099 
0 
0 
0 
2.844022965954078e-05 
0 
0.00640371760929723 
4.72424307801807e-05 
0 
0 
0 
0.01834347926628981 
-0.00706033491664337 
0.04267367190221007 
2.361064769721518e-05 
0.01487711818347808 
0 
0.008894154957215822 
0 
-1.553727354452677e-06 
0.001651196803412821 
-2.052319619392711e-05 
0 
-7.711936097624056e-06 
0.02976162123116199 
-1.311106072854361e-06 
0 
0 
5.665880089660659e-05 
0 
0 
0 
0 
0 
0 
-0.000125008149926465 
0 
-0.0077535252381041 
0 
-0.02627935053311634 
0 
-0.01323684931505908 
0 
0 
-0.0008582285534316043 
-1.193990768105082e-05 
-0.01146137319004927 
-1.013946408986191e-05 
3.953326154751574e-06 
-1.337627071674025e-06 
-6.727481353453236e-06 
-1.352453872475309e-06 
-0.01204050425498466 
-0.02308328129646921 
0.02348156521202945 
-0.0006208559002357729 
0.0003646297357285432 
2.828055406918033e-05 
0 
1.985184396162553e-06 
0 
0 
0 
0 
-3.281725815540845e-07 
0 
1.474722794399531e-05 
-0.01271696760274821 
-3.385110707317839e-06 
0.01433835643201221 
3.139505964808735e-05 
0 
0.02780511930485183 
1.89201178858547e-05 
0.01741210565697988 
0 
0 
0.001394011575624074 
-6.978581926654572e-06 
0 
-0.03471935535484624 
0.000111239901460457 
0 
4.831479266218752e-07 
-0.005198975123636152 
0.0497658957317273 
-0.01440590512672395 
-0.00724655393964399 
-4.577048472898895e-05 
0.01705167985114243 
0 
0.0003449109791700379 
0 
7.025351357215284e-05 
0 
0 
0.01681397972618416 
-0.01095329993120133 
-0.0001502256440123078 
1.094883295739771e-07 
-2.165998291182998e-05 
1.185328956152576e-05 
-0.00105727768511587 
0.007177458397840691 
0 
1.067348318774126e-05 
0.00269858122613342 
0 
-0.01501803197994036 
-0.001991472034976571 
5.024065399398143e-05 
-5.484869532169372e-05 
0 
-3.24282230698314e-05 
0 
-0.003101887588870168 
1.479794097736636e-05 
-0.0491466811645784 
0 
-0.02547951909264864 
-0.00519938256547806 
0.002172177911296669 
-1.647210517441577e-05 
0 
0 
0.01301807185106175 
0.01314223341918486 
5.878222054144983e-06 
0 
-2.529500864225104e-05 
0 
0.01249247168373667 
0 
-8.482821193333821e-05 
-0.04047158018160886 
2.996530462083293e-05 
-0.0006784757441069556 
0 
-0.03030096300238047 
-1.831433757675496e-06 
-1.963665206538584e-07 
-0.01922126872471027 
0.001392408179729013 
0 
0.01787584633988929 
0.008617669740984948 
-0.005744368003645283 
0 
-7.173516697721542e-06 
0 
-9.889549993477163e-06 
-0.009021777218700889 
1.265462519194301e-06 
0 
7.568504491712128e-06 
0 
-0.003762733270998418 
-0.02914390682977699 
0.02631732147013724 
-8.766025638310223e-05 
0 
-3.585128668267127e-05 
0 
3.458015641841148e-05 
0.01879286649543195 
0 
-0.01540309205388729 
-5.76883192432343e-05 
-0.002009301476124401 
0 
-0.01046624697472933 
0 
-0.0001044097831411461 
0 
2.839943368956832e-06 
0 
0.008854912662677393 
0 
-0.005327742918188074 
1.180182786803188e-05 
-0.01148564580296614 
0.09012658553336636 
0.01724701147866704 
0.0002058608737187338 
2.732241782672944e-05 
0 
0 
-0.006363659435158478 
0.004748888052324502 
-0.0219677371479445 
2.141759900932241e-05 
0 
-0.02219374251616469 
0.006122972591284846 
-2.286886025191202e-05 
0 
0 
-4.097515546033378e-06 
-0.004468341010057645 
8.774725794659653e-07 
0.01140787313843371 
5.562546669794094e-06 
-5.197889180256914e-06 
0.00504706190658828 
-2.306320697666076e-05 
-5.21170056600307e-05 
0.01266124917782982 
0 
0 
-0.02796946766753006 
0 
-0.0003278086003643306 
0.00105945740860367 
0.03379490770439415 
0 
-0.005200330784331035 
-0.02394472620533671 
-0.01070528912510378 
0 
0 
-0.002655940486235295 
0.00859505356674751 
-1.363678217220658e-05 
0 
0.001417621489073239 
-0.02256036545935298 
0 
0 
0 
0.0001762309101202582 
-0.002047983904030401 
0 
-0.01083253152789648 
-0.004847020911708806 
0 
7.49712703517697e-06 
0 
3.304162608862736e-05 
0 
-0.0282351585773667 
0 
1.192591392584174e-05 
0 
-1.032667327301125e-06 
0 
0 
0 
-3.047125846468833e-05 
0 
-1.289542806715466e-05 
-0.02562092708301871 
-0.006349620696713514 
0.001444591792374863 
0 
0 
0 
0.002433931786459202 
-0.0004558215929074602 
-0.01014104119099913 
0 
-0.01165274438176577 
0.01123223127780512 
1.344196801560797e-05 
0 
-0.02545584615689796 
0 
-5.3813522887081e-06 
-9.597295781818885e-06 
-0.01686006559244906 
0 
0 
-6.786990203400081e-07 
0.004376234472957197 
-0.0003240774533169855 
-0.004506417482602585 
-0.005940896659502977 
-0.004056085093805852 
-0.00107519902667499 
0 
-0.0403068070063951 
-0.002082661277043471 
-0.007140598964477326 
0 
0 
0.008085859687759264 
-0.00154371111468271 
0 
2.296741838615979e-07 
-5.544281026654956e-07 
0 
-0.007012991802511206 
-0.01093186866973453 
0 
1.189880991490198e-05 
-3.056404260295413e-07 
-0.000138981840955155 
0 
-0.002890614417143497 
-2.786019554227095e-05 
0.003672101248166784 
0 
0.03474016928805074 
-6.679607158812998e-06 
-4.027854966913424e-06 
-6.422624422358553e-06 
-0.001154408789827969 
0 
-6.051439381395706e-07 
0.01239802274669119 
0 
0.008107059788827949 
0 
0 
-0.001539367446791884 
0 
0.007742406800119341 
0 
0 
0.002306256971100499 
0 
-5.410143395740121e-05 
-0.009950810754616218 
0.005113345565511202 
0 
0 
0 
0 
0 
0 
-0.08369548870633511 
0 
5.529828511553831e-05 
0.0003503372437238701 
0 
-0.008663093581509278 
-2.013453582954108e-07 
-0.01002254595437306 
-0.0009046804325684032 
-0.007570424008793408 
-6.541249410642628e-06 
0 
0 
0 
-0.002556354104682392 
0.002227670272028397 
0.01170469483228376 
0.003070940237832055 
4.504571603381458e-05 
2.321642145238923e-05 
9.441544677721362e-05 
0 
3.464284124354707e-06 
-0.0002389810977486074 
-0.04559892429232252 
0 
-0.03229928967803951 
2.337402516575464e-05 
-0.00561961493940524 
0.00900630952308689 
-3.441514623928204e-05 
0 
2.475302441715566e-05 
0.003121205625093895 
0 
0 
-0.01398195706924093 
0.0004014869278126739 
0 
0 
-4.489012367758876e-07 
0.0001101808886918206 
-2.747400527343795e-05 
0 
-4.739772577104303e-06 
0 
-7.825093144243434e-06 
-0.01839068012527329 
-0.01396770918862294 
0 
-1.519969423316345e-05 
0.001003964722253086 
0 
-3.46418657807991e-05 
0 
-0.00013088758089278 
-3.218642562642438e-05 
0.006250743720857127 
0 
0 
-1.750060348064298e-05 
0.01111372593549011 
0 
8.677562129356042e-06 
0.01782452510321644 
-0.0227949725651175 
0.0001026017854005763 
-0.01221589619539825 
7.042270520355118e-06 
3.778185171099686e-05 
-0.005123491956225749 
0.01432380174313346 
6.382893464636323e-08 
0 
0 
0 
0.006346029655668445 
0 
0 
0.002033494580620983 
4.550348955453729e-06 
0.01873897099003214 
1.993038514591823e-06 
-2.677547304612444e-06 
2.810263970942205e-05 
0 
-2.669106841982069e-05 
0 
-3.78555947732874e-06 
-2.287056721483201e-06 
0 
0.01714410348372478 
0.01031716976011296 
0 
0 
-4.665737927380785e-06 
0 
0 
-0.006388967819101815 
4.853853037015739e-05 
0.02010668007761751 
-0.06589214088478537 
0 
0.02298356179781832 
0 
0 
0 
0 
0.004407204160482745 
0.004431740135335104 
0 
3.15436383196707e-05 
3.821672555014916e-05 
1.786343779535959e-07 
-0.001208842141563424 
-7.469769338875227e-05 
1.949148060552921e-05 
0 
-0.01335504350490187 
0 
0.01588580229795712 
-0.006455600397266994 
-0.01114450580751914 
1.627847398363527e-06 
4.186914064416282e-06 
0 
-0.02705081539529321 
0 
9.862721226500614e-07 
1.186479829870972e-06 
-6.785408518576537e-05 
-0.004905990411217505 
-0.0174828864229178 
0.01625088070920291 
-0.02316437799411806 
0 
-0.00464916688448105 
0 
0.004525224451197327 
0.001979172868403653 
-1.115917352614663e-05 
1.597929400188109e-05 
0.005475066984647291 
1.645418397407806e-05 
-0.0007182694516999345 
0 
7.248704380741081e-06 
0 
-0.000549239814681212 
-0.01329267144515361 
2.855371530463934e-05 
-0.01232951763151061 
0.01824873227029875 
-0.01466575155666544 
-0.02057680698414457 
0 
0.003421635045794302 
4.941738790048083e-06 
1.313280664943931e-06 
0.01834900035789905 
0.003661340399342822 
1.168963721762325e-05 
0 
0 
-0.003527296437796017 
1.22846190218828e-05 
0.003370072313358206 
0 
-6.001868766606322e-07 
-0.04411198145681368 
-1.242485568396274e-06 
-8.190216970372079e-05 
-0.0004715068596618979 
0 
-4.936221963136725e-06 
0 
-0.03247531176699218 
0 
-3.533338588760781e-05 
-2.458677986232315e-05 
5.583134132386805e-06 
-1.488841293462908e-06 
-8.134298863103878e-06 
0.001673568094070758 
0 
2.581659762151305e-05 
0 
-8.08513789604516e-06 
5.919471088822035e-05 
0 
6.572162197381784e-06 
0 
-6.912216174176203e-06 
-7.283905562789693e-05 
-1.22415918705131e-05 
0.03153701492602209 
0.00789267593029911 
-5.54356505382355e-05 
9.008742486736859e-07 
5.564275017822868e-05 
-0.005385375557243702 
0 
-0.00272946872005116 
-0.02379289041229208 
-2.481133869853568e-05 
-3.325443416927515e-05 
-0.0007109454321094009 
0 
0.0002040749276783647 
-0.0005944209399909688 
0 
0 
0 
0 
0 
-4.46081931726025e-05 
0.005012158563165414 
0.02254233425597488 
0 
-0.0208112410973555 
0 
-1.437502926316567e-05 
0 
0.02216704040013531 
-0.0001404028083088335 
0 
1.310666100915864e-05 
-0.005392372530024188 
0.01374726378335744 
0 
0.01247336498440491 
-0.03167095327640062 
0 
-0.01182173699894715 
0.009197992283902242 
0.004290654544152445 
-0.009637140357881199 
0.01576632065836763 
0 
-0.002233322725259056 
-0.0004473033445081213 
7.271147348277709e-06 
0.01547893727812884 
-2.191596331427852e-05 
0.07045098079489871 
-1.924134296348175e-05 
0 
0 
-0.0002160750185208257 
-2.914869681571827e-06 
-0.02286834858247972 
-7.035246540879614e-07 
0 
-0.004642151515941783 
-0.008462674838611075 
0.007565068215510032 
-2.379737488342038e-06 
0.01710535362701587 
-0.005390873268275451 
0 
0.01738958131188379 
-0.03217738648820331 
3.86974241126129e-06 
0 
-0.008633608437947199 
-2.597192316175125e-05 
-6.768931663755936e-06 
-2.18579873590265e-06 
0 
0.02770558550644898 
-5.798237064733136e-05 
0 
0.01823240637504514 
0 
0 
0 
0 
-0.002187435207461541 
-0.02152365783256512 
-4.410572420691405e-06 
-1.518960262191956e-05 
0.02107502010482483 
0 
0 
0.0009768932705670036 
5.038427594187013e-05 
0 
-0.02516176483951456 
-2.830250258268103e-05 
0.008952128361165395 
-4.338322899040634e-06 
0 
0.0002150624760403735 
-0.003661130698207558 
-1.731710398206789e-05 
0 
0 
0.003419753554573568 
1.021181456696338e-06 
0.008534510391006604 
0.01519522528489397 
0 
-0.007014267713853014 
-0.004227641039492983 
-0.0007805661176514015 
-0.009132371339880652 
0.007948778590817298 
1.897446004249712e-06 
-2.207546818794668e-05 
-0.002123124616457988 
-0.02538748885338683 
-0.00834981248343669 
6.047649227933259e-06 
0 
-0.02243659192724626 
8.744887314870986e-06 
0 
-0.001372777765932769 
7.243631613862349e-05 
-0.001501416542233367 
0 
-0.009705353785002355 
0.005493218127712529 
0 
0 
-1.876736809171447e-06 
4.171349776988942e-05 
8.346148739828954e-05 
5.599218957129785e-05 
0.01235006711168641 
0.005650982695556603 
0 
-0.008450304539563924 
0.01356083776216814 
0 
0.0003567111287638269 
-0.01070741090155654 
0 
0.01052598113668178 
0 
-0.001257075174380575 
-0.001965053370383949 
-1.669472623469714e-06 
-0.01077238056193302 
-0.02354294171165473 
0 
0 
-2.905849106555951e-06 
0 
1.139259448147945e-05 
0.02500220620207251 
-0.02587239601881241 
0 
0 
0 
0.002104568919827381 
1.573697776380325e-06 
-0.01515311933474483 
0 
-7.856038819602375e-05 
0 
0.007012955779304328 
-0.006967876671363967 
-6.313549741710672e-06 
-0.02931194293073352 
0 
0.007253261528077014 
-0.003607926683074545 
-0.00715642458700328 
0.008897041504146086 
-4.63361698524585e-05 
0.000273828671403877 
-4.962244268296607e-06 
0 
0 
-0.004086827036858484 
0 
-0.005259189137203966 
-0.001697312742333462 
1.746391399216645e-05 
0 
0.02219946848443266 
1.750844678431389e-05 
-4.594225494071219e-05 
-2.926144962259189e-06 
0 
-7.681023574436909e-05 
-0.01454392208250318 
0.01110517212667867 
-0.0313059770409521 
0 
-0.019637370999605 
2.932198630488629e-06 
0 
4.198846889338325e-06 
0.005606181015069183 
2.522390891937728e-06 
3.138767662227445e-06 
-0.009797622423273509 
-0.01606278028762087 
3.554548065722692e-06 
0.01555448318514061 
3.903782484200371e-05 
-4.224341673440363e-05 
-4.247798088119038e-05 
0.0003505829660717871 
-0.0001326532161869434 
-3.063371505868816e-06 
0.02326257810460167 
-3.773138821905796e-05 
0.01685327692480914 
8.184625167829775e-05 
-0.008790921931067328 
-0.0009034951845483382 
-0.003228965471573838 
-1.391743563169148e-05 
-0.007420222460968533 
-8.76245530150997e-06 
2.779444602422338e-07 
0 
0 
0.0001848154601223714 
-0.05033290507852797 
-0.005321413224195543 
2.366253837661182e-05 
0.02539733066614881 
7.826388989293203e-07 
-3.51096463978746e-05 
0 
0 
5.519414361883292e-07 
0.002707493621365382 
-8.51625568126933e-06 
1.086242365825376e-05 
0 
0.02913184718301168 
0.007376281435045604 
3.724435175590594e-05 
-0.009055325384485467 
-0.005831021525162019 
-8.450980749618281e-07 
-0.005583766164940139 
0 
-0.01635198578585515 
0.002326638391437939 
0 
-3.669428052722879e-06 
-5.986894113258384e-05 
0 
-0.0006270706154397059 
3.638759509669884e-05 
-5.625546260342294e-05 
-2.988158201842804e-06 
0 
0 
0.001348065885416324 
0 
-6.711070753661994e-06 
6.852752966099514e-07 
-3.654399980141136e-06 
-2.302043775900574e-06 
0.003722327382680196 
-2.734729966457864e-05 
0 
2.20768605413191e-06 
-0.01591360624757636 
0.005651958758924004 
-0.002862300690318603 
0 
-0.005852600687612761 
0 
-0.06975142563956355 
4.452370313218497e-06 
-0.002433850822736923 
6.484660784600822e-05 
0 
8.493490057555382e-05 
0.005418778001739442 
-0.001202935579917229 
0 
-0.1207082251708705 
-0.02043827819294601 
-0.01453688375084525 
0.02054352569280977 
0 
-5.922117486606945e-06 
-0.001929186984087321 
0.008420892510138793 
-4.405125377354253e-06 
5.183363000877848e-05 
-0.04469813556691953 
-0.02085885026392928 
-2.695045376753348e-06 
0 
-2.213645835751304e-06 
-0.0004709450237052324 
0.01335349033720292 
0 
0 
-0.0002633847640909735 
1.491421912417867e-05 
0 
0 
-0.0007536758459918928 
-3.134416655692554e-05 
-5.49688984832791e-06 
-2.019449643766419e-06 
1.783335130555e-06 
0 
0.03854703356313831 
0.009732458238771495 
0.007491382466232681 
0 
1.293212370793658e-05 
-0.006475845472879643 
-0.0001045668261908908 
0.001986142299940067 
6.71150674659953e-05 
-4.920523885844781e-05 
0.02252001633718004 
0 
-2.523557691867358e-05 
0.0066717424627488 
0 
0 
1.657084768952753e-05 
-5.246714933216046e-06 
-2.885553039876051e-06 
0 
-0.02408953216446143 
0 
0 
0.00883092616754828 
-0.009394356123771468 
-0.0003607633060888211 
0 
0 
0 
1.543003829892299e-05 
-0.001654755772630571 
0.02984549514287028 
0.01032009035495957 
0 
3.034397900080467e-06 
0 
-7.420041109305447e-05 
4.293705631603669e-06 
0.007972422088341464 
0.008800211638154375 
0.007311960158894056 
0 
-1.356049101634168e-05 
-0.01905111093988889 
1.61608380675728e-05 
0 
-0.006046360135463415 
0.001538165965063489 
0.01860673520855591 
-0.01344793119274279 
-0.004699513407842392 
7.774630659562209e-07 
-5.265916046925473e-07 
0 
0 
-0.006363637330666052 
-5.555795782263856e-06 
0 
-0.0003880288497730638 
0 
-6.844607418395897e-06 
0 
0 
-0.0251844881181455 
-1.562961350212196e-05 
5.133679078775259e-06 
1.443702743588784e-05 
0.003422544799421705 
-0.0208068518892367 
0.01799915995020826 
0.0002187509050971034 
-0.02003990127820446 
0 
0 
0.003745840040481696 
0.002854643528183194 
0.02747868288991931 
-0.01245170756010806 
0 
0.005518687199690214 
-0.004951617528728377 
-0.02061125141572846 
0.003702585095207097 
0.08182706075317778 
-0.003976924316421753 
0.000318156260356541 
-1.898898640330739e-05 
-0.003809217871234876 
0 
-0.002265104145371649 
0 
-0.01244750616885662 
-0.005912265600996751 
0.01002953958733839 
-2.164279788541056e-06 
0.007289746350763521 
-0.01489727926610086 
0.01839068012527329 
0 
-5.712510810483057e-07 
-0.006363659435158478 
0.01454993098654592 
3.986676701530483e-06 
1.692260503015262e-05 
2.229383397548498e-05 
-1.290061479031931e-05 
-0.02831195197856104 
0 
-6.060424581015223e-06 
-7.657610525667085e-06 
-0.02663465289223954 
0 
2.740426461910779e-05 
0.004465827145371659 
0.009517236476617199 
0 
0 
-0.02334565434191996 
-0.02289917273632695 
-0.008421954352185179 
0 
0 
0 
8.150246110386929e-05 
0.005983547257875533 
0 
7.210256013090615e-07 
-0.01852456044127484 
0.000165307825621011 
-0.01928222088123069 
-0.004127239449850405 
-0.0008845912315968012 
-0.01059921570506347 
-0.00627009522601208 
0.01763850266459304 
0 
-1.541719755750782e-06 
7.684275455906408e-05 
0 
-0.01558860240846467 
1.369277301404988e-07 
-0.003451859904976531 
2.16046583918633e-06 
1.372097427152321e-05 
-0.01536111457119307 
-0.00780827242924774 
-6.657580441537495e-05 
0 
0 
-3.044092671806635e-05 
2.00342317545487e-06 
-2.174977877576073e-05 
-1.736097067028504e-06 
-0.007035377466221005 
0.0005510305615546317 
0.004128036178935164 
0 
0.05046648460962876 
0.004501998987935176 
0.03849757663567053 
-0.01654188355893773 
-0.005637455401254729 
0.006026431581200144 
-1.112008786639667e-07 
0 
0 
3.70952930184209e-05 
-0.01293280221060413 
-7.869044492742629e-06 
0 
0.003775257710580432 
0 
-2.48685508014015e-05 
0.001916980064194136 
0.01322785949108942 
-0.004514435454166307 
0 
-3.233167103507494e-05 
-6.677186448012792e-05 
0 
0 
0.0108078680400262 
0 
0 
0 
0.0006741244225818866 
-0.000935447361094638 
-0.0004466119710874524 
0 
0 
0 
0 
-0.005385483296884652 
0 
3.981047759428139e-06 
0 
0.006430768940737658 
-6.572361964898237e-07 
0 
-6.116989983113067e-05 
-0.006255177825559094 
3.593260060038207e-05 
0.0003065555806631465 
0.02488251621152861 
-0.01922990271708926 
-0.02062458172087282 
0 
0 
0 
0.007006719554654187 
-0.0262351254173492 
0.007699510466682578 
-0.002916310940743979 
0 
0.001303164268857369 
0 
-0.03198177842838984 
-1.560539704114209e-05 
0 
0.00582849222825735 
-0.005713672357241097 
