solver_type L2R_L2LOSS_SVC
nr_class 2
label 1 0
nr_feature 79548
bias -1
w
0 
0 
0 
-6.964761741782606e-05 
0 
0.1934375389878674 
-0.2439723285874071 
-0.06276448050243751 
0 
0.1058901072849536 
0 
0 
0.01208495019621672 
0.4463747448733162 
-0.1186335755350112 
0 
0.0007725364206952251 
-0.1265218658000981 
-0.2648686397873663 
0.09034497066205396 
0.1507452414230336 
0 
0 
0.5800496062527287 
-0.1310789484588165 
0 
-1.90003460328969e-05 
0 
-0.2708248452339839 
-0.0512072926665524 
0 
-0.5894259438032236 
6.300291327418405e-05 
-0.1060542227692805 
0.1292081292913996 
-0.09662710094677995 
0.000252767473150528 
-0.0001340590856344793 
-0.2299702731259875 
0.1160982783097056 
0.2007152135050757 
-0.2683581586139781 
0 
-0.2500464866620927 
0 
0.2846902765850635 
0.003167463341440359 
0 
0 
0 
0 
0 
-0.2352168639787103 
0 
-0.06570660418011462 
0 
0 
0 
0 
0.1699636827271758 
-0.3332001410853539 
-0.3018833645432688 
0.1639128060391622 
0 
0.001836726495325253 
0 
0 
0 
0 
0 
-0.1971471737809537 
0 
0 
0 
-0.0003172041986253037 
-0.07873601737624344 
0 
0 
0.1967533035290825 
0 
0.1868492582863421 
0.1659428543913606 
0 
0 
0.1763346956325618 
0.2420942015896922 
0 
0 
0 
-0.1623028720620486 
0.2260279196551779 
0.2161938341803304 
0 
0 
0 
0 
-0.3057902589470889 
0.0005134210432466923 
0 
0 
-0.3543982905502402 
0 
0.1739399201399245 
-0.06327448605258298 
-0.01259677696307112 
0 
0 
-0.03111046909454582 
0 
0.0856523453920796 
0 
0 
0 
0 
0 
0 
-0.1480790004066681 
0 
0 
0 
0.1967533035290825 
0 
0.2493042080657337 
0.006339966513629298 
0 
0 
0 
0 
0 
0 
0.02790286908445645 
0 
-0.1139712823981993 
0 
0 
0 
0 
0 
0.0006433977790659879 
0 
0.3213450979362681 
0.1884779892235381 
0 
0 
0 
0 
0 
0 
0 
0 
0 
0 
0.1967533035290825 
-0.2248748784578801 
0 
0 
0 
0 
-0.1313846308250665 
0.1888040522747793 
0 
0.3103446396919786 
0 
0 
-0.08839948307638407 
-0.2911804000960583 
0 
0 
0.1355191109419101 
0 
0.04546002012132815 
0 
-0.08017215258736109 
-0.1187934645421533 
0.0408819430656284 
0.6320780679277672 
0 
0 
0 
0.06989135147143957 
0 
0 
0.3964352065483441 
-0.1482868156087043 
0.05587636771987289 
0 
0 
0 
-0.2434548822843681 
0 
-0.08876211627297738 
0.1713430754021477 
0.1775817280676577 
0 
0.2928896455972847 
0 
-0.4354859887692371 
0 
-0.04590708269953683 
0.0548867930338764 
-0.3311211401476414 
0 
0 
-0.1699900058994182 
-0.269243354442984 
0 
0.0003529534643371363 
0.2095685978780974 
0 
0 
0.08162238253930613 
0 
0 
0.1967533035290825 
0 
0.1657072399853963 
0 
0.06981859470065979 
0.03129448712748033 
0 
-0.3246377485295306 
0 
-0.2206119801916473 
-0.0003577371900225204 
-0.007207447812352779 
-0.2527637298490135 
0 
0 
0 
0 
0.1839906370459277 
-0.1191021171914367 
0 
-0.1310388848770288 
0 
0 
0.2347207547387275 
0 
0 
0 
0.2232976814591596 
0.009272516263744446 
0 
0 
0 
0 
0 
0 
0 
0.04193752415639157 
0 
0 
-0.1461875751258724 
0 
0 
-0.2688534767267417 
0 
0 
0 
0 
0.1189339510839245 
-0.2249115610881834 
0 
0 
0.08876319379294983 
0 
0 
0 
0 
0 
-0.1673163114518498 
0 
0 
0 
0 
0 
0.0906264285800694 
0 
0 
0.0003194143920162004 
-0.4065138756346175 
0.2014534549222221 
-0.2700639898795028 
0 
0.1444802004638769 
0 
0 
0 
-0.05068264228309044 
0 
0.0002328675880163978 
0 
0 
-0.2256398654197809 
0 
0.0001206589219812104 
0 
0 
-0.1967533035290825 
0.03599554676360672 
0 
0 
-0.02538943149380376 
0 
0 
0 
0.241843796343002 
0.0007870395666362004 
-0.2433319929192374 
0 
0 
-0.4735037010605834 
-0.5875690731650302 
0 
-0.1124115778843736 
0 
-0.3239303158933316 
0.07105234832442414 
0 
0 
0.1967533035290825 
0 
0 
0 
0.3540404821776673 
0 
0 
-0.3317275938742356 
0.1581935917254265 
-0.1967533035290825 
0 
0 
0 
0 
0.01726387579804461 
-0.1967533035290825 
0 
0 
0 
-0.3585705489935507 
0 
0 
0 
-0.158375724479 
0 
0.1144660649808942 
0 
0 
-0.001869018504511457 
0 
0.2508558075732384 
0 
0 
0.0004864554157929836 
-0.2162054345904639 
0.1555359495337263 
-0.1580487498785845 
0 
0.00979763761189208 
0.6432985904175949 
0 
0 
0.09636656879676103 
0 
0 
0 
-0.08642090920311427 
0 
-0.1718808408580342 
0.08135861928852846 
0 
0 
0 
-0.5597572781767406 
-0.2737985178643073 
0 
0 
0 
-0.1314191848237125 
0 
0 
0 
0 
-0.1615950399468924 
0 
0.02332937949733033 
0.1650275098292099 
-0.1618498539159086 
0 
0 
0 
-0.1454326395378714 
0.1478929825536253 
-0.1171198236810352 
0 
0.1744081460158448 
-0.01316364314529856 
0.1967533035290825 
0 
0 
0 
0 
0 
0 
0.1064674424012313 
0 
0 
-0.3207358312181725 
0 
0 
0 
0 
-0.0007950144339301524 
0 
-0.3455306902006891 
0 
0.1145779197248894 
0 
-0.0007528221259951772 
0 
-0.05351321223693695 
0 
0.05555159933688839 
0 
0.0565057549445445 
-0.07186703321285978 
0 
0 
0 
0 
0 
-0.2449194625589356 
0 
0 
-0.198438811702175 
0 
0 
0 
-0.01215732362249622 
0 
-0.2684884562799779 
-0.01689164797225631 
0 
0 
-0.1884353017338777 
0.306834325501774 
0.1935990316836423 
0.0175318210446761 
0 
0 
0.08340196257591811 
0 
0 
0 
0.1967533035290825 
0.2677646753427796 
0 
0 
0.1967533035290825 
0 
0 
0 
-0.2983409605733889 
0.582634968191678 
0.2983335999604309 
0 
0 
-0.5072924690420928 
0 
0 
0 
0 
0 
-0.04059553848678348 
0 
0.1921939260348025 
0 
0 
0 
-0.1776290383192997 
0 
-0.131875326303403 
0 
-0.4785679970531752 
0 
0.1967533035290825 
0.190905098091342 
-0.06433578637969932 
0 
0 
0 
0 
0 
0 
0 
0 
0 
-0.575343820449942 
0.04728488391549886 
-0.09433354251883673 
0 
0 
0 
-0.0239302073397589 
0 
-0.02866359503079209 
0 
-0.1803522598605971 
0 
0 
0.02997388572491346 
0 
-0.0844563510600877 
-0.2568832404533052 
0 
-0.002887111489355118 
0 
0.0003048566447640162 
0 
0 
-0.2306432257076935 
0.0002174462439255593 
0 
0.3043992182780207 
0.2264344190719945 
0.165991609061512 
-0.1714827073445152 
0 
0 
-0.4004351239220879 
0 
0 
-0.02065947237726134 
0.01234610232989645 
0 
0 
-0.1972979728563809 
0 
0 
-0.09419398076920492 
-0.1937315164167945 
0.1164384739096454 
0.1266427812182779 
0 
0.07599059230179529 
0.1542030803090527 
0 
-0.04074648196616148 
0 
-0.1742772658586761 
0 
0 
0.2146389060197901 
0.1231865115243741 
0 
-0.3537146639385353 
-0.3459851332085492 
0 
0.03923235269021885 
0 
-0.213992049181206 
0 
-0.1327534999794525 
0 
0 
0.0007038114921982517 
-0.0002491470752765628 
0 
0 
-0.2500439320679904 
0 
-0.554642306070919 
0 
0.1644104470527767 
-0.008522643468918872 
-0.1618498539159086 
-0.2477175414360892 
0 
-0.03743253210150368 
-0.1720799415156322 
0 
0 
0 
0 
0 
0 
0.0861982050065187 
0 
-0.02735930249326392 
0 
0 
-0.1896064780515627 
0 
0 
0 
0 
0 
0 
-0.04710818379600997 
0 
0.2776326033363918 
0 
0.0001933384896708514 
0.193329139834671 
0 
0.1494861443025791 
0 
0 
0 
-0.1529191645821335 
-0.4558795215630611 
0.04745774528141889 
0 
-0.2663361776476716 
0 
0 
0 
0.09184518243426669 
0 
0 
0 
0 
-0.0001234060886814704 
0 
0 
-0.1967533035290825 
0 
0.1967533035290825 
0 
0 
0 
-0.0001780326085462047 
0 
0.1992942995108528 
0 
-0.1036703519892413 
0 
0 
-0.2393101583157347 
0.1743683194074288 
0.1897394711135505 
0 
0.2273837686966416 
0 
-0.1097824340115297 
0 
0 
0 
0 
0.2013739096744114 
0.2178823825422105 
-0.2651469365138877 
0.104205554183433 
0.1321638143066689 
0 
0 
0 
0 
0 
0 
0 
-0.4521521480405542 
0.1399480078021492 
0 
-0.2458424042235496 
9.825933584284356e-05 
0 
0 
-0.2623698435200686 
0 
0 
0 
0 
-0.5000722029876218 
0 
0 
0.4667182152822142 
0 
0 
-0.0001448407490561417 
0 
-0.0001036145616820174 
0 
0 
0.1793377939535105 
-0.09933397843730224 
0 
0 
0.1967395098885594 
-0.4091560640473365 
-0.09154170871712328 
0 
0 
0 
0 
0 
-0.285030779818613 
0 
-0.117078794296119 
-0.4433265100155524 
0.4613025200429071 
0.07642645846079391 
-0.1519348527230213 
-0.1356274076999697 
-0.05646724053017806 
-0.5901093396588935 
0 
0 
0 
-0.2191040888384982 
0 
-0.2029484976286807 
0 
0 
0 
0 
0 
0 
-0.1152916324218705 
0.09115201401007633 
0 
0 
0 
0 
0.2533220663023254 
0 
-0.077690735874727 
-0.1908442390100741 
0.1053185449383914 
0.1664466936244419 
0 
0.2664740555711645 
0 
0.0001436794666947854 
0 
0.1225161280033131 
0 
0 
0.1274972163559671 
0 
0.1967533035290825 
0.0003382675887050296 
0 
0 
0.0009531110441642235 
0 
0 
0 
0 
0 
0 
0 
0 
0 
0 
7.985287253755772e-05 
0 
0.2851296908906899 
-0.04568284542323114 
-0.1967533035290825 
-0.4722536276650003 
0 
0 
-0.3011151911926114 
0.0001742809600505396 
0 
-0.5503111503520414 
0 
0 
-0.2652306835571017 
0 
0 
0.2438962370573847 
0.3608664483253742 
0 
0.03863806873634107 
0 
0.1748398580443492 
0 
0.001063267647636659 
0.009606599338624643 
0.5150620709135798 
-0.1433914073427841 
0 
0.1707690301485104 
0 
-0.09341021085781667 
-0.1517659342735438 
0 
0 
0 
0.267836999231377 
0 
-0.2922137760615721 
0.2476338955587603 
0 
0 
0.2689221203456664 
0 
0 
0 
-0.006640972426935724 
0 
0 
0 
0 
0 
0 
0.1258080841041932 
0 
0 
0 
0.02439432853167858 
-0.1422216024464512 
0.1847900489469043 
0 
0 
0 
0 
-0.2859798668618903 
-0.08555532319660072 
-0.1627867853277985 
0.2747260534788366 
-9.104867922292769e-07 
0 
0 
0 
0 
0.1459054209183414 
0 
-0.1967533035290825 
0 
-0.106437345410925 
0 
0 
0 
0 
0.1419359033471877 
0 
0 
0 
0 
0 
-0.0001624481567175513 
-0.1416386580703761 
0.006953240722539956 
0 
0 
0 
0 
-0.1296603410215509 
0 
0 
0.03142351733786291 
0 
0 
0 
0 
0 
-0.3208975256292975 
0 
0 
0 
0 
0 
0 
0 
0 
0 
0.4462598010092874 
0 
0 
0 
0 
-0.03747600540202239 
0 
0 
0 
0.2542951125880371 
0.07858003278164162 
0 
0 
-0.0742801125428368 
-0.1467916639308855 
0 
0.2191188815521924 
0 
0 
0.2299509610109479 
0 
0.2334584886465902 
0 
0 
-0.2524138152169307 
0.4719314086683665 
0.1929700890172385 
0 
0 
0 
0.06519604996744975 
0.04109566552697461 
0 
0.003986092652902732 
0.1477672345812263 
-0.5500966348088583 
0 
0 
0 
0.09928049435206489 
0.1965801709904543 
0 
0 
0 
-0.2625579212488152 
0 
0 
0.145605201972465 
-2.847275871087694e-05 
0 
0 
0 
0 
-0.3446811685318205 
0 
0.4747458073033926 
0.1658078051216262 
0 
0 
0 
0 
0.06837423967175163 
-0.08766515087332397 
0.1061363466325923 
0 
0 
-0.5957916493320219 
0 
0.01961980892815218 
0 
-0.2217296012064541 
0 
-0.1967533035290825 
-0.04648359056337356 
0.1134168573003389 
-0.03211925290760521 
0 
-9.863295055492847e-05 
0 
-0.1967533035290825 
0 
0 
0 
0.2015030668425548 
0.5021867748248761 
0 
0 
0 
0 
0 
0 
0 
0 
0 
0.2298153774304178 
0 
0.08769628916596033 
0 
0 
0.02198317466109242 
0.2518752679669074 
0.1532147793462748 
-0.1903805199346726 
-0.5076206348639671 
-0.3416270815416046 
0.1189607201462333 
-0.272263150517328 
0 
0.1325106470326548 
0 
0 
0 
0.1967533035290825 
-0.372516831619667 
-0.212857163761554 
0.1069772899649583 
0 
0 
-0.1672313854073202 
0 
0.08539035101012796 
0 
0 
0 
0 
0 
0 
0 
0.2326939403509452 
0 
0 
0 
0 
0 
0 
0 
0.4691641364575086 
0 
0.8100224450578376 
0.3844109562993379 
0.1780255838364011 
0 
-0.06008268338714867 
0.2004357319729127 
-0.04216940421167774 
0 
-0.09347374179979832 
0 
0 
0 
-0.2980065069276746 
0 
-0.001262118529040523 
-0.0005181980041101236 
-0.221991378054766 
0.1470739763589596 
0.01382803137396333 
0.2022226964229274 
0.03389190472246797 
-0.3328933872488838 
0 
0 
0 
0.1168392333961586 
0 
0 
-0.1223190129083877 
0 
-0.2152697161822171 
0 
0.06463284613581174 
0 
0 
0.1556245161263222 
0 
0.4216015320226363 
0.3105480744637314 
-0.0001339403379679512 
0.1117090629079665 
0 
-0.2123268333225523 
0.264593749331922 
-0.0768586752951668 
0 
-0.02620135124428351 
-0.001565023655166667 
0 
0 
0 
0 
0 
0 
0 
0 
0 
0 
-0.2036228057849254 
0 
0 
0 
0 
0 
-0.2852109245144183 
0 
0 
0 
0 
0 
0 
0.0007541902458866627 
0.02077367753519254 
0 
0.2083233761428638 
0 
0.1629121366264366 
-0.2441701851416664 
0.08058166332000745 
0 
0 
-0.0005284463454228246 
0 
0 
0 
0.4051087254964095 
0.01979480866880652 
0 
0.2333700912973459 
0.08998165367765638 
-0.1664466936244419 
0.2440598686276473 
-0.004450426511980203 
0 
0.04171316062038025 
0 
0 
0.1914996255580665 
0.2060064815531986 
0 
-0.1967533035290825 
-0.1728763677750533 
0 
-0.01877675575303833 
-0.08774959001046359 
0.2433749312249059 
0 
0 
0.008037046605637657 
0 
-0.2962466563144021 
0 
0 
0 
0 
0.03182827273815856 
-0.2303060028266927 
0 
-0.1704059386302872 
0 
0 
-0.08999444239496998 
0.02526572554784542 
0 
-0.1957670300155615 
0 
0.1869864047018542 
0 
0 
0 
0 
0 
0 
0.5290180978395246 
0 
0 
0 
0 
0 
0 
-0.04303603258123759 
-0.1265873130068101 
0.1865771154054399 
0 
0 
0 
-0.5939094637893831 
0.02184494364882664 
0 
0.1664466936244419 
0 
0 
0 
0 
0 
0.01930744862211878 
0.0001322260879826076 
0 
0.5416124053768799 
-0.09807558499654101 
-0.4757072663437236 
0.318282867655376 
0 
-0.1428607023754267 
0 
-0.09883845217896338 
0.0004292070259921241 
0 
0 
0 
-0.2119092043031512 
0 
0 
-0.1097436882209502 
0 
-0.0541410494157311 
-0.02835525446533856 
0.306365135649062 
0 
0.1307200263610012 
-0.3972206524591194 
0 
-0.1203538283549776 
0 
-0.4783611518063079 
0 
0 
-0.4729537432008833 
0 
-0.001986179267976286 
0 
0 
0 
0 
0 
0 
-0.08205362359279179 
-0.2392872480766608 
0 
0 
0.1833022289050641 
0 
0.2706796732246337 
0 
0 
0 
0 
0 
-0.1186560775687319 
0.08218751507781814 
0.0577641557827893 
-0.1636912296277472 
0 
0 
-0.1316906160559544 
0 
0 
0.3783398535592652 
0 
0.0786648428932915 
-0.1480684793921889 
0 
0.1967533035290825 
-0.07996510743330658 
-0.228111280727609 
0 
0 
0 
1.210780370975538e-05 
0 
0.6102462502760745 
-0.1486410698866894 
0.220443403383496 
-0.2481435265802024 
0.2505031504169901 
0 
-0.2981088879273873 
-0.1967533035290825 
0 
-0.1267505785163728 
-0.1141101402703134 
-0.008689203970513527 
-0.1143286751855804 
0 
-0.150729489513059 
0 
0 
0.40831329649616 
0 
0 
2.910446657861373e-05 
0 
-0.1545655052554409 
-0.1567527458144933 
0 
-0.2594680907064924 
0 
0 
0 
-0.1978893859533924 
0 
0 
0 
0 
0 
0 
0.05154161141894964 
0 
0.09518392970798653 
0 
0 
0 
-0.0008129055394448903 
0.2004111204876822 
0 
-0.07127416853817901 
-0.1841614626868207 
0 
0 
0.2147070666846401 
0.06267676215474673 
-0.5479414214229701 
-0.3359145632268616 
0.3743513663907956 
0 
0 
0 
0 
0 
0.1967533035290825 
0 
0 
0 
-0.01769748090588876 
0 
-0.08919183371954904 
0.2080984911676817 
0 
0 
0 
0 
0 
0.0651068043848592 
0 
0 
0 
-0.390382013299412 
0 
0 
0 
0 
0 
0.4042021508710714 
0 
0 
0 
0 
0 
-1.263872129923744e-05 
-0.1217623596600169 
-0.178603210111603 
-0.1711255928224073 
0 
0.1967533035290825 
0 
0.3835168180808861 
-0.1485944800481607 
0 
0 
0.2686926792961959 
0 
0.1099335815812418 
0.07974713677506835 
0 
0 
0 
0 
0 
0 
0.01355096262344534 
0 
0 
0.002905054501390879 
-0.03294012930135055 
0 
0.2037913314926651 
0.2250046701310857 
0 
0 
0 
-0.1545025881899468 
-0.1555696745639265 
0 
0 
0 
0 
0 
0 
0.0002158949180046825 
0 
0 
0 
0 
0.307157565914807 
0 
0 
0 
0 
0 
-0.007385270067996511 
-0.09756953216648898 
0 
-0.0001976083207282992 
0.0810583914619377 
0 
0.1633651007884463 
0 
0 
0 
0 
0 
0.0002584894098054184 
0.04840685486665219 
0 
0 
0 
-0.1967240175203538 
-0.1317330804376895 
0 
0 
-0.3558419296045202 
-0.3757534697763689 
-0.07895903058123099 
0.08839441345612893 
0 
0 
0 
0 
0.434413545685742 
0 
0 
0 
0.000131637671516891 
0 
0 
0 
0 
-0.184378894993722 
0 
0 
0 
0 
0 
0 
0 
0 
0 
0 
0 
-0.1835933329354383 
-0.1002494584773696 
0.1953257421259709 
-0.06821813581749425 
0 
-0.08208575962262195 
-0.01089576101127373 
0 
0 
0.02293085074121142 
-0.2002935205417553 
0 
0 
0 
0 
-0.09771096798619301 
0.0008562095819937558 
0 
-0.00148735854442816 
0 
0.1854132059618603 
0 
0 
0 
0 
0 
0 
-0.5076798968082332 
0 
0 
0 
-0.003054846074645953 
0.152744415070799 
-0.05933827101454828 
0 
0 
0 
0 
0 
-0.1967533035290825 
0 
0 
0.1654421762440928 
0 
-0.2016001364458453 
0 
0.1967533035290825 
0 
0.07707407005504997 
0 
0 
0 
0.1258101844357933 
0.0950828727148821 
0.2199389124771794 
0 
0 
0 
0 
-0.06184201807183337 
0 
0 
-0.1347578287425296 
-0.02085011886437271 
0 
-0.1186753680296725 
0 
0 
0 
0 
0 
0.1879871586842194 
0 
-0.0001411278901294326 
0 
0 
0 
0 
0 
0 
0 
-0.0001290282939877441 
-0.1139639703266368 
0.4149630295712585 
0 
0 
0 
0.3556018345355655 
-0.1658138322159366 
-0.2106013032941436 
0.2040277787886994 
0 
0.3565272478009466 
0 
0 
0.4768179530088831 
0 
0.200207805524322 
0 
0 
0 
0.559588166911884 
0 
0 
-0.05160936767127494 
0 
0 
0 
0.08412507232755523 
0 
0 
0 
0 
-0.2839657298317686 
-0.1326193051572471 
0 
0 
0 
0 
0 
0 
0.07989944553846692 
0 
0 
0 
0.0004858441621931893 
-0.0963572001538346 
-0.009857137438570165 
0 
0.1893924011559449 
0 
0 
-0.4935959705778774 
0 
0.0009209021478522829 
0.1927444812411609 
0.1571167340177227 
0 
0 
0 
0 
0.0003671679565062109 
0 
-1.275028376415303e-06 
0 
0.3601145819357209 
0.4131724234393886 
0 
-0.09614207287547327 
-0.1669138720549956 
-0.3851215637815629 
0.3282576367970557 
-0.06237566860282877 
0 
0 
0 
-0.09059779244656663 
0.05125254034922452 
0.1032878433588472 
0.2670012358155106 
-0.6118460461115076 
0 
0 
0.06073041610504451 
0 
0 
0 
0 
0 
0 
0 
0 
0 
0.2462986863865933 
0 
-0.08243974953905256 
0 
0 
0 
-0.1799621479132195 
0 
0 
0 
-0.5509091942342929 
0 
0 
0 
0 
0.0007117430798135021 
0 
0 
0 
0 
0.1365178823543121 
0 
-0.1808837994804314 
-0.07354198952614897 
-9.00455167451815e-05 
-0.000290754427151271 
0 
0 
0 
0.1762273879207159 
0.1188158259003716 
0.09638206485065644 
-0.1548016175580597 
0 
0 
0 
0 
0.2173819737275421 
0.03844954115365026 
-0.09668384160904354 
0 
0 
0 
0 
0.005070613560290317 
0 
0 
0.007676558176985437 
0 
0 
0 
-0.126520389253604 
-0.4323972166247309 
0 
0.1940788635682094 
0 
-0.3411831875837102 
0 
0 
-0.01111037591860654 
-0.2398942769420913 
0 
-0.1278995642732858 
0 
-1.985846582970253e-05 
0 
0 
-0.1088845813670092 
0.06098642459383195 
0 
0 
0.1535375732207752 
0 
0 
0.1767316786974506 
0 
0 
-0.07502433062238852 
0 
0 
0 
0 
0 
0.3175893898031724 
0 
0.1828379107071277 
0 
0 
0 
0 
0 
-0.05682475690745015 
0 
0 
0 
0 
0 
-0.09618556678208345 
0 
0 
-0.0002901541526620746 
-0.000869520409531672 
0 
0.1106149892264777 
0 
0 
0 
0.09589506164537641 
0 
0 
0 
0 
0.08918652834255876 
0 
-0.3535283684574869 
0.0222480215712156 
0 
0 
0 
0 
-0.05353865869808595 
0.5335790977710426 
0 
0.06017939454790811 
0 
0 
-0.00088272279194203 
0 
0 
-0.7986466390297801 
0.1031525714967853 
0.3520059354995962 
0.1917690957326293 
-0.1417412753281095 
-0.08955371075578313 
0 
0 
0 
0 
0.3432171817857001 
0 
0 
0 
0 
0.01124497259591544 
0.2255853222217855 
0 
0 
0 
0 
0.1663785609695199 
0 
0 
0 
0 
0 
0 
0.4187511020184068 
0.1135578553633021 
0 
-0.5491287166228926 
-0.1693156125633921 
0 
0 
-0.2358376653719227 
-0.2663904318796825 
0 
0.4115753520155649 
0 
0 
-0.02488598401482978 
0 
-0.120855329452058 
0 
0 
0 
0.2861202489976395 
0 
0 
0 
-0.107034241137374 
0 
-0.2166685957076642 
0 
-0.1971472625772072 
0 
0 
0.1967533035290825 
0 
0 
0.365102998415346 
0.1516463540629945 
0.1418628441209093 
0 
0 
0 
0 
0.0003295276735031368 
0.0002971108931038844 
0 
-0.1802078675830323 
-0.2636471193872942 
0 
0 
0 
0 
0 
-0.0003102110704185524 
0.1188670061643807 
-9.538134456906088e-06 
-0.2287576900279723 
0.001010806306906275 
0 
0 
0 
-0.01803733382026645 
0 
0 
0 
0 
0.3104233016915683 
0.1793959258008617 
-0.1967533035290825 
-0.1664222812023984 
0.3753131526118449 
0 
0 
0.1567671863085775 
-0.7678627646507509 
-0.1475165885905283 
-0.1231491860035074 
0 
0 
0 
0 
0 
-0.09065850601280566 
0 
0 
0 
0.3286459234344623 
0.04171316062038025 
-0.1664466936244419 
0 
-0.0009333901202269218 
0 
0 
0 
-0.06458368766306424 
0 
0 
0.0007038114921982517 
0 
-0.01794394222700095 
0 
0 
0.1967533035290825 
-0.0004409958398920886 
0 
0 
0 
0.09028844850021812 
0 
0 
0 
0 
0 
0 
-0.02045997832318789 
-0.3680993661531555 
0 
0 
-0.05794520425471172 
0 
0.0443925262661454 
-0.2184845590113243 
0 
0 
0 
0.1330646884955999 
0 
0 
-0.0007330205428069301 
-0.08363808602179276 
-0.09862814571222212 
-0.1967533035290825 
0 
0 
0 
0 
0 
0.2451335873290774 
0.0007870395666362004 
0.3968289767198173 
0.581126872235425 
0.1254628139928834 
0 
0.1664466936244419 
0 
0.1726826212825921 
0 
0 
0.5478164520239452 
0 
0 
0 
0 
0.3283915542571043 
0 
0 
0 
0 
-0.1967533035290825 
-0.1831086372895743 
0 
0.6071424145694135 
0 
0 
0 
0.2561450433934532 
0 
-0.001241054186370271 
-0.7862388874248925 
0 
0 
0.02184494364882664 
0 
-0.06904690231316582 
0 
0 
0 
-2.461044420453836e-05 
0 
0.3120890440077585 
-0.01045970236331807 
0 
-0.0001389598749235685 
0 
-0.2181217820665558 
0 
0 
-0.5892097036618907 
0.1591061838318778 
0.1065458016358662 
0 
0 
0 
0 
0 
-0.05000159528168075 
0 
-0.2004183188568419 
0 
0 
-0.29863479255674 
0 
0 
0 
0 
-0.08256575257484577 
-0.05760850006908918 
-0.07455394106765441 
0 
0 
-0.001506382760338622 
0 
0 
0 
0 
-0.0003172041986253037 
0 
-0.186753471498761 
0 
0 
0 
0 
0.05342230324455859 
0 
-0.1967533035290825 
0.02959015979296745 
0.2395359134995809 
0 
0.4367341330586021 
0 
-0.1479256916211733 
0.2288436961526998 
0 
0 
0 
-0.03965987280146244 
0.07019765746603689 
0.1331287099461559 
0 
0 
0 
0 
0 
0 
0 
0.03960806610690941 
0 
-0.2643068641166986 
0 
-0.1378691597857707 
0.0002788156573713576 
0.1094478910677405 
0 
0.213640327828717 
0.07394531901582463 
0.07859899577135676 
0 
0 
0 
0 
-0.2408549080900458 
0.04921720869063984 
0 
0 
-0.07160130472383987 
0 
0 
0.2035428078222328 
0 
0 
0.149961901052769 
0 
0 
0 
-0.3037050420080605 
0.1965575030712449 
-0.1967533035290825 
0 
0.1655160716404515 
0.0001619525868969938 
0 
0 
0 
0 
-0.001743142965650621 
0 
-0.2617751173747123 
0.3974798220371416 
-0.7542903339434051 
0 
-0.1553964702954769 
0 
0.1934375389878674 
0 
0.2895844458620557 
-0.0001965331174102634 
0 
0 
0 
0 
0 
0.1967533035290825 
0 
0 
0 
0 
-0.03313826732474962 
0 
0 
0 
0.1212567396878051 
-0.0942264788248853 
0 
0 
0 
-0.1513654134834234 
-0.1630956777594191 
0.1212187479456507 
0 
0 
0 
0 
0 
0 
0 
0 
0 
0.03518488963246226 
0 
0 
-0.06092714376511039 
0 
-0.1444533690988145 
0 
0 
0 
-0.002056760021088237 
0 
0 
0 
0 
0 
0 
0.1025424585983743 
0.06511528990828329 
0 
0 
-0.2776189344463082 
0 
0 
0 
0 
0.03226013340830992 
0 
0 
0 
0 
-0.1670168317480238 
0 
0 
0 
0 
0 
0.0227410258290255 
0 
0 
0 
0 
-0.06258219813054262 
0 
0 
0 
0 
0 
-0.08162434423850756 
-0.2822617084183042 
-0.07354198952614897 
0 
0 
0.06814503117457561 
0 
-0.3693409586601836 
0 
0 
0 
0.009160985007729897 
0.4849829187152971 
0.2730893817645067 
-0.1183666835797037 
-0.1240874914081046 
0 
0 
0 
0 
-0.1651665320152431 
0 
0 
0 
0 
-0.2033963634176768 
4.977600990296234e-05 
0 
-0.09917715944106767 
-0.2566260288365171 
-0.3048863380031714 
0 
-0.0002089518839299936 
-0.09432374546398306 
0 
0 
0 
0 
-0.06064392919526466 
0.02395788137764527 
0 
0 
0 
0 
-0.2496201770486467 
0.3475171485324445 
-0.0001779530063012629 
-0.4076345021758326 
0.02469857773257165 
0 
0 
0.3643097140199579 
0 
0.1169080440621409 
0 
0 
0 
0.0003849696629213901 
-0.04644541674185674 
0 
0.3473425804552767 
0 
0 
-0.3018123917974381 
-0.1654332774864971 
-0.5858026770054421 
0 
0 
0 
0 
0.003190340249990592 
0 
0 
0.00113641445675261 
-0.1145679948288486 
-0.2641700397648152 
0 
0 
0 
0 
-0.02659154609178237 
0 
0 
0 
0.10511218715501 
0 
0 
0 
0 
0.252772448791122 
0 
-0.3947575228541617 
0 
0.09683695693541813 
0 
0 
0 
0 
0 
0.3596145668200173 
0 
0 
0.08013356689442373 
0 
0 
0.05860329451575585 
0.2478205173921212 
0 
0 
0.202124007442278 
-0.1905957021276181 
0 
-0.0003053198514999893 
0 
-0.08690009264264748 
0 
0 
0 
0 
0.1394989503149254 
0 
0.06148444825895102 
0.2214963068681433 
0.09764451737623349 
0 
-0.03857472196154251 
0 
0.2275138228157103 
-0.1154707398813288 
-0.1226097970654354 
0 
-0.05085139515724485 
0 
-0.1423352483854244 
0 
0 
0.2679679337182013 
0 
0 
0 
-0.1684311826075043 
0 
0 
0.5937789823772933 
0 
0 
0.01257503639596658 
-0.01251843118703749 
0 
0 
-0.1618153579924616 
0 
-0.2801719949061365 
0 
0.2951430944436642 
-0.07186703321285978 
0 
-0.1232355083123678 
0 
0 
0 
0 
0 
0 
0 
0 
0 
0 
0.3140035385034785 
0 
-0.164171323926178 
-0.005834230811011346 
0 
0 
0 
0 
0 
0 
-0.0002031296443970069 
-0.5948435613446611 
0 
0.3195438250650764 
0 
0 
0 
0.5338184998268302 
0.3675880977980508 
0 
0.2379886993458498 
0 
0 
0 
0 
0 
-0.3220885198602677 
0.005188451716880176 
-0.1480018176032767 
0 
0 
-0.136246688734892 
0.1336295718696803 
0 
0 
0 
0 
0 
0 
-0.037182765271542 
0 
-0.1186323104428516 
0 
-0.2549134536352038 
0 
-0.3997592306889828 
0 
-0.1220779363919457 
-0.316523406244501 
-0.2291187896617151 
0 
0 
-0.1568670034706985 
0 
0.0003947164856013985 
0 
0.2748781433845544 
0 
0 
0 
-0.002837279085029223 
-0.07517932364845545 
0 
0 
0.3032537284330709 
0 
0 
0 
0 
-0.3095998432194117 
5.161832351833183e-06 
0.07030432445206757 
0.1356188409210452 
0 
0.03477901510862334 
0 
0 
0 
0.2161000125798413 
0.4274063706884242 
0 
0 
-0.01014770094948852 
0 
0 
0 
0.513594308535951 
0 
0.3225241368613185 
0 
0.0007405894658989659 
-0.1456826871905745 
0 
0 
-0.7601540449746028 
0 
-0.04663934892438226 
0 
0 
0 
0 
0.07949867320894846 
0 
0 
0 
0 
-0.2914647351933113 
0 
0 
0 
-0.4788662304914562 
-0.05493120859754165 
0 
-0.1068151839176163 
0 
0 
0 
0 
-0.1581176424013911 
0.2797070403471401 
-9.959795079176941e-05 
0 
0 
0 
0 
0 
0 
0 
0 
0.1336099443047551 
0 
-0.195350106910372 
0 
0.4331316971112669 
0 
-0.2885047569354061 
-0.1159238001024293 
0 
0 
0.4979042148416747 
-0.002882285780365786 
0 
-0.4106525284024103 
-0.0608875104908221 
0 
0.04820266172702656 
-0.001379344221456776 
0 
0 
0.0002546135121774527 
0 
0 
0 
0.0229856858696407 
-0.1084132471584012 
0.2144955448240903 
0 
0 
-0.2578244771441187 
-0.4563994449736595 
0 
0 
0 
0 
-0.1457520390646079 
0.1024228600744365 
0.2007152135050757 
0.09328010387095099 
0 
0 
0 
0.2469215425643599 
-0.3211031184829881 
0 
0.1300716742338022 
0.1580496854236299 
-0.2423994611505897 
-0.5218524510152255 
0 
0 
0.1381552739650515 
0.2114697589834015 
0 
-0.2394990456228133 
0.3683164123866876 
0.217271575257309 
-0.1358404650494033 
0 
0 
0 
0 
-0.08923382341570145 
0 
0 
0 
0.1712045081432162 
-0.0651207893410822 
0 
0 
0 
0 
0 
0 
0 
0 
0.1311244789135965 
0 
0.03506791997037863 
0 
0 
0.1780225205695246 
0.1967533035290825 
-0.1102326391019661 
0.08626974586597873 
0 
0 
0 
0 
0.1251018395255838 
0.07381273176162387 
-0.1253136520297954 
0 
0.002434215515454443 
0 
0 
0 
0 
-0.3925307653544269 
-0.05550173172218712 
-0.1086860183965944 
0 
0 
0 
0 
0 
0 
0.2110506313823433 
-0.1249292841679067 
0 
0 
0 
-0.1750869278053307 
0 
-0.2303465432949731 
0.2549865433885212 
-0.1649125959472066 
-0.1420425372294083 
0 
0 
0 
-0.5052104806148425 
0.2324280946097538 
0 
0.4435245000987171 
0 
0.2823856773821969 
-0.06912189524182373 
0 
0 
0.2115197197699207 
0 
0 
0 
-0.2261976246351436 
0.2022226964229274 
-0.2897696854296659 
0 
0 
0 
-0.1251689046941051 
0 
0 
0 
0 
0 
0 
0.07739460260813326 
0 
0 
-0.01971855847074555 
0 
0 
0 
-0.2781081946717715 
0 
0 
0 
0 
-0.1435130441628475 
0 
0 
-0.2341035416979466 
-0.124193912463082 
0 
0 
0 
-0.0008261300408060304 
0 
0 
0 
0.4280839514589454 
-0.2062686048260687 
0 
0 
0 
0.1362112155507904 
0 
0 
0 
0 
-0.1022146411204369 
-0.04057724994570325 
0 
-0.4574858631366127 
-0.4694249602397139 
0 
0.0788997449537403 
0.1967533035290825 
0.3829793245853043 
0 
0 
0 
0.1967533035290825 
0 
0 
0.1967533035290825 
0 
0.1285899213081938 
-0.3185562805155613 
0.09987006110247942 
0 
0.1169813845434576 
-0.1967533035290825 
0.317003984478464 
-0.06236794186022548 
0 
-0.24530102598846 
0 
0 
0 
0.000111580128724633 
-0.2392790791369592 
0 
-0.0005477160828667497 
0 
0 
-0.07128162474091691 
0 
-0.0700372153666063 
0.02800860482703589 
0 
-0.4842593390823374 
0 
0 
0.4053335565204419 
0 
0.7178777604911366 
0.09099803872808596 
0.1721417030665403 
0 
-0.1925707197184325 
0 
0.3163806936199812 
0 
0 
0 
0 
0 
0.002535554255785189 
0 
0 
-0.1003659605473922 
0 
0.2189267822108653 
0 
0 
-0.1686709537861444 
-0.2221160590401693 
0 
0 
0 
0 
-0.1703390490498494 
0 
-0.07335886794707205 
0 
0.2981688228911012 
0 
0 
-0.1704943852752229 
0.1818809261078009 
0 
-0.08318523155937611 
0.3981346293466986 
-0.02596483220795115 
0 
0 
0 
0.2972258052071392 
0 
0 
0 
0.04021355106590439 
0.1436194242375673 
0 
-0.02830681799798527 
-0.1655599299462584 
0.109015495295593 
-0.1549901965841075 
0 
0 
0 
0 
0 
0 
-0.1967571173423383 
0 
0 
0 
0.5349362241360941 
0.02947159199932512 
-0.07295601690677228 
0 
0 
-0.2077844563009932 
-0.2830612256794598 
0 
0.1696747226824607 
0.3763126799306867 
0 
0.2586343278698823 
0 
0 
0 
0 
0 
-0.1021346748200785 
-0.2000690680702976 
-0.08917577948418802 
0.2023608886477749 
-0.06528119632640784 
0.2267467660621384 
0.08135861928852846 
0.003399024882248341 
0.1967533035290825 
0.1967533035290825 
0 
0 
0 
0 
0 
0 
0 
-0.05956092446930478 
-0.1593659922853176 
0 
0 
0 
-0.1069886001659539 
0 
0 
0 
-0.1967533035290825 
0 
0 
-0.1274003919304829 
-0.02092106693302719 
0.02600047379816218 
0 
0 
0.5419671831672669 
0 
0 
-0.001635146309772202 
0 
0.1967533035290825 
0 
0 
0 
-0.009094614256423208 
0 
0 
0 
0.006726605462052889 
0 
0 
-0.05472934871437624 
0 
0.7243018830388331 
-0.2871555193399171 
0 
0.1200341648681497 
0 
0 
0 
0 
-0.1430923828790181 
0 
-0.3164972930784892 
0 
0 
0 
0 
0.01218451702962759 
-0.001829126881951523 
0.3948707860851811 
0 
0 
0 
0 
0 
-0.008785689725497474 
0 
-0.03693631810175156 
0.3526576368584309 
0 
0 
0 
0 
0 
0 
0.1549709117452701 
0 
0 
0 
-0.1915903430212505 
0 
0 
-0.2000690680702976 
0 
-0.0403691842071281 
0.04807085387418183 
-0.173078248953597 
0 
0 
-0.04757331581053989 
-0.0001213928432645278 
0.1290825199377814 
7.296436362349686e-05 
0 
0.1003519456268811 
0 
0 
0 
0 
0 
0.02149376918249863 
0.1123487687500899 
-0.06272682164381183 
0 
0 
0 
-0.3998104388826401 
0 
0 
-0.1231522642410046 
0 
0 
0.07968109049023209 
0 
0 
-0.09147260144665777 
0 
-0.1284604374708867 
-0.0007309845507827311 
-0.8446226736740436 
0.007980247475756763 
0 
0.02250259306256006 
0 
0.01596086578492707 
0 
0.2206193741738574 
0 
-0.2785381618419242 
0 
0 
0 
0 
0.09334245574954533 
0.1145823820175764 
0 
0 
-0.2324783014575985 
0 
-0.1754028404741885 
-0.1528644941001195 
0.3012581969291832 
0 
-0.1667143019659482 
-0.2884013310242298 
0 
0.1250477966088536 
0 
0 
0.1999542832623725 
0 
0 
0 
-0.180402732787566 
0 
0 
0.1008783263152733 
0 
0 
0 
0 
0 
-0.1116538541025348 
-0.3119837090872201 
-0.3264237057150827 
0 
0.2866914231405487 
0.1046318577856347 
-0.2507270749435986 
0 
-0.1656877632102716 
0.3532187762250774 
-0.03180426759147031 
0.04754589439310718 
0 
0 
0.1967533035290825 
-0.001765322134873679 
0 
0 
0.317603430431961 
0 
0 
0.05687566508187641 
0 
0.00113641445675261 
-0.1899599645200938 
0 
0 
0.2951732724243027 
0 
0 
0 
0.02640492120625434 
0 
0.008171936305656132 
0 
0 
0 
-0.1070582154718714 
0 
0 
0 
0 
0 
-5.672111102310266e-05 
0.1682361837778279 
0.1000902737505726 
-0.08183615050387628 
0 
0 
-0.16719153480775 
0 
0 
0 
-0.04099041681525502 
0 
0 
0 
0 
-0.3791359521177933 
-0.4451016610712429 
0 
0.2359892884888753 
0 
0 
-0.5168783063653593 
-0.08884384659457382 
0.2390614068032673 
0 
0 
0 
-0.4378946913241893 
0 
0 
0.008574524008853173 
0 
0 
-0.02263840281847541 
0.1538527716406655 
-0.4275351334363972 
0 
0.1231773520562942 
0 
-0.3198453314806486 
0 
0 
0 
0 
0 
0 
0 
0 
0.3216070403444756 
0.1957165511028837 
0 
0 
0 
-0.0002921240372796837 
0 
0 
0.3216115232713566 
0 
0.1263731917075273 
0 
-0.2289237186650198 
0 
0 
-0.03561707494694612 
0 
0 
0.08342382462838902 
0 
0 
0 
0 
-0.2196583108931427 
-0.514702443040539 
0 
0 
0 
0 
0 
0.06983440507165169 
0 
0 
0 
0 
0.1272165044596869 
0 
0 
0 
0 
0.1271047855026651 
0 
0 
-0.6429968375274276 
0.09871020453319085 
-0.05574928237274194 
0 
-0.153710601700849 
0 
0.0002093822362659055 
0.1059677464097729 
-0.09182863880912762 
0 
-0.03460308222260422 
-0.192468950398902 
-0.07197110839367916 
0.1967533035290825 
0 
0.4308534120786305 
0.09597537256740822 
0 
0 
0 
0 
0 
-0.3121479877696366 
0 
0 
-0.1550615460863149 
0 
0 
0 
0 
0 
0 
-0.2535713322872951 
0 
0 
-0.06902878116455624 
0.280834268887972 
0 
0 
0 
0 
0 
0.1645809434874774 
0 
0 
0 
-0.0003956360413694072 
0 
0 
0 
0 
0.06543460227941525 
0 
-0.1880505785591836 
-0.0001453799445837104 
0 
0 
0 
0 
0 
0 
-0.1479284133622352 
-0.04757331581053989 
0 
0 
0.1889326943372075 
0 
-0.1967533035290825 
0 
0 
-0.008559187231757408 
0 
0 
0 
0 
0 
0 
0 
0 
0 
0 
0.05627629507281656 
0.2189015050778914 
-0.09600716781207247 
0.06277439693610107 
0 
0 
0 
0 
0.1290645170592533 
-0.1514700455445837 
0 
0 
0 
0 
0.0943541764482812 
0 
0 
0 
8.999026784287095e-05 
0.3411925939553 
-0.252623461220077 
0 
0 
-0.002736555587507268 
0 
-0.1295874498296947 
0 
0 
0 
-0.2726700887821956 
-0.2450211655346918 
0.0001046719229450599 
-0.01565516873880912 
0 
0.1967533035290825 
0.2514117214917115 
0.1143605948558434 
0 
-0.2433944124103217 
0 
-0.04975841424094169 
0 
0.1498668828389228 
0 
-0.1967533035290825 
-0.1083031283890911 
0 
0.327797035268737 
-0.0365850170675598 
0 
0 
0 
-0.3100437798749209 
-0.1967533035290825 
0 
0.08367425006782184 
0 
0 
0.06453864108481011 
-0.375395771432348 
0.2981978321791414 
0 
0 
-0.06958476448508402 
0.1967533035290825 
0.001530614646108556 
0.2329066839627015 
0 
0 
0 
0 
0 
0 
0 
-0.1773753465086231 
0.5548204547696352 
-0.000955096370935429 
0 
0.3902877161336142 
-0.2670728140089475 
0 
-0.1942448254526101 
0 
-0.1241355044383544 
0 
0 
0 
0 
0 
0 
0.1330369646034522 
0 
0 
0.04171316062038025 
0 
0 
0 
0.08135861928852846 
0.3914677797774072 
0 
0 
0 
0.2892511988627781 
0 
0 
0 
-0.06297943545404208 
-0.0001169836793394398 
-0.6821770951955122 
-0.2953947606308089 
-0.04387052001292035 
0 
0 
0 
0 
0 
0 
0 
0 
-0.1154277490606018 
0.01456512159051914 
0 
0 
0 
0 
0 
0 
0 
0 
-0.1655599299462584 
0 
0 
0 
-0.1879189732367 
0 
-0.1597450862505893 
0 
0 
0.05963072374446571 
0.1959525028629062 
-0.04666807407288209 
0 
0 
-0.02024583446745883 
0 
0 
0.196483798097789 
0 
0 
-0.1610195958418299 
0 
0 
-0.1973738026026383 
0 
0.3483684303432673 
0.121134857920654 
-0.130072371977057 
0 
-0.5132109277223401 
0.0008721702851444226 
0 
0.02044401825731165 
0 
0 
0 
-0.04727439234621615 
0 
0 
0 
0 
0 
-0.1076536863343181 
0 
0.02597093680376618 
0 
-0.129185399752743 
0 
0 
0.116550694117758 
0 
0 
-0.0003159834318807174 
-0.1399293331815539 
-0.02474272352848621 
-0.0002399473900499209 
0.09597537256740822 
0 
0.09269513515283365 
0 
0 
0 
0.2367641792456183 
0.2092836977455779 
0 
0 
0 
0 
0 
-0.05989289654697841 
0 
0.0225386630175174 
0.02939845884843319 
0 
0.1926374925164872 
0 
0.4665014219284169 
0.8495600050462403 
0 
0 
0 
0.2609280007317595 
0 
0.2464553136872366 
0.01253496175334694 
0 
-0.08318971336135077 
0 
-0.2413559111147057 
-0.0006238233596956178 
0 
0 
0 
0 
0 
0.04643801550659568 
-0.1392990990961485 
0.08284068855385757 
0 
0 
-0.4458894775958308 
0 
0 
0.07594196464415574 
0.2387525254951307 
0 
0 
-0.01936540279145382 
0 
0 
0 
-0.107965613558959 
0 
0 
0 
0 
0 
0 
0.1563056864314649 
-0.2704184014792083 
-0.03465044716725513 
-0.2979068365414639 
0 
0 
0 
0 
0.2651421960035408 
0.2903831574490793 
-0.0001306464338247444 
-0.07354198952614897 
-0.1967533035290825 
0 
-0.166921677669468 
0 
0 
0 
-0.2937914538943748 
0 
0 
0 
0 
0 
0 
-0.390825009874013 
0 
0 
0.01562830917745949 
-0.07392148063328506 
-0.1170183318608202 
0 
0.2562699209986264 
-0.2706939703809841 
-0.02619825588125625 
-0.364295829861299 
0 
0 
-0.09106011305912892 
0 
0.03823521633353964 
0 
0 
0 
0.0001273559986421 
0 
0 
0 
0 
0 
0 
-0.01628544873535249 
0 
0.03470445438536462 
-0.1664466936244419 
0 
0 
0 
-0.04111108146134657 
0 
-0.04584185567394617 
0 
0 
0 
0 
0 
0 
0 
0 
0 
0.0002108861649759132 
0.1471378826210459 
0.170879183406131 
0 
0.2230113784469679 
-0.03008373043070923 
-0.03171909204139346 
0.3471289607519545 
0 
0 
0.02771158206290625 
0 
0 
0 
-0.1802853856042952 
0.1664466936244419 
-0.09643038362849307 
0 
0 
0 
0 
0 
0.1140619858526222 
0 
0 
0 
0 
0 
0 
0 
0 
0 
0 
-0.002043421582596925 
-0.0666545000578871 
-0.3442867860068148 
0 
0 
0 
0.05749125963077462 
-0.6367831919005073 
-0.2110614709567065 
0 
0 
0.0298120850753666 
0.1838287981325134 
0 
0 
-0.001346648322868267 
0 
0 
-0.07042724420701377 
0 
0 
0.02872967200750794 
0 
-0.001474469668332952 
0.01937821379393715 
0 
0 
0 
-0.0673659419022053 
0 
-0.2123065665097873 
0 
0 
0.1309943510474793 
0 
0.1654474733503833 
-0.3050140531433088 
0 
-0.1409179742457312 
0 
0.02407181822210016 
-0.2705629743259445 
-0.1727894889920803 
-0.3550929760599311 
0.2069239380689797 
0.155175311611005 
0.004657010734435809 
0 
0 
0 
0 
0.3192237887087135 
0 
0 
0 
-0.3303251064722131 
0 
-0.152676287371516 
0.1231338083400874 
-0.9352308277121231 
0 
0 
0 
0 
0.467352999453827 
-0.1977189408201562 
0 
-0.2668385661101665 
-0.1562797996473448 
0 
-0.1967533035290825 
0.1961992902405524 
0.12392472306238 
0 
0 
0 
0 
0.02627973718616938 
0 
-0.1467228161608471 
0 
-0.05855989459631755 
0 
0 
-0.2782073199773062 
0 
0 
0.1099929612888137 
0 
0 
0 
0 
0 
0 
0 
-0.1986928196584392 
0.220993236366588 
-0.1334950714180072 
0 
0.03221013409867533 
-0.1967533035290825 
-0.0001436471205521478 
-0.3990664161502364 
0.2539658430346923 
0 
-0.0865559328399664 
0 
0.02740691965731325 
0 
0.02442914874261831 
0 
-0.1767374947142559 
0 
-0.001147142770323387 
0 
0 
-0.1633043139353443 
0.1257538325888788 
0 
0 
-0.2017947375017007 
-0.1842419689980451 
0 
0 
0 
-0.07806962089557939 
0 
0 
0 
0 
0 
0.1967533035290825 
0 
0 
-0.3735102658424594 
0 
0 
0 
0.08112963619608629 
-0.1967533035290825 
0.2588674450403142 
0 
0 
0 
0 
0 
0 
0.01523832319778923 
0 
0 
0 
0 
0 
0 
0 
-0.0003028741702212495 
-0.2958995899485812 
-0.6788668568180487 
0 
-0.2482706180384757 
0 
0 
-0.3030885431477955 
0 
-0.06187706852385627 
0 
-0.3746279831401544 
0 
0.2454724512214848 
0 
0.09548775440158794 
0 
-0.1431121754132564 
0 
0 
-0.1220209127343348 
-0.1605035534838602 
0 
-0.1673317324821285 
-0.236837431275257 
0 
0.5461916389525148 
-0.0842982146665384 
0.657759056843179 
0 
-0.6008118510803047 
0 
0 
-0.07025472291023441 
0 
0.06148444825895102 
-0.2240858090237478 
0 
0.09231131504816184 
0 
0.2297564637500509 
0 
-0.2367659777181917 
0 
0 
-0.1785946899828038 
2.8210466624603e-06 
-0.09407915348419937 
0.1483430934890706 
0.2720658578271621 
-0.0001369594019843219 
0 
0 
0.1601876125739969 
0 
0 
0.1647489170301927 
-0.01317903670288094 
0.00565011986960787 
0 
0 
0 
0 
0 
0.2242983686327504 
0 
0 
0.2635399321205923 
0 
0 
-0.1812436965238631 
-0.1448319005696549 
0 
-0.2125484670182011 
0 
0.1828761857211361 
0 
0.03452749837567794 
0 
0 
0 
0 
0 
-0.2679186919404896 
0.1652130035517645 
0 
-0.01043960305815191 
0 
0 
0 
0 
0.1656295931858826 
0 
-0.3065949673203905 
0 
0 
0.0001035425960761674 
-0.08287230307007219 
0.00514883349456308 
0.09886745330592267 
0 
0.3259312535471866 
-0.1309008842846313 
0 
0 
-0.09640484603974595 
-0.4097552910239842 
0.1967533035290825 
0.02338114621359562 
0 
0 
0 
0.1300400962137561 
-0.0003588473622416532 
0.0002755319962845231 
0 
-0.1626655426981141 
0 
-0.008026353560773568 
0.2760806354187904 
0 
-0.02786637033954095 
-0.418785681533125 
0.3328933872488838 
-0.3111279544811346 
0.2597235066523262 
0 
0.1920155699625798 
0.0004680862964283187 
0 
0 
0 
0.2853116825257783 
0 
-0.1031372304826447 
0 
0 
0.002033513074114182 
0 
-0.1500921356400151 
-0.4174898263111596 
-0.3126273708003354 
-0.4036013571355744 
0 
0.2926199545211094 
0.3403126638665218 
-0.155416286518389 
0 
0.1876956470268908 
0.1967533035290825 
0 
-0.04208575531818722 
-0.02683590385117456 
0 
0 
0 
0 
0 
-0.3070596774452322 
0 
0 
0 
-0.001157438613955419 
0 
0 
0 
0 
0 
0 
0 
0 
0 
0 
0 
0.03396191092595581 
0.1330646884955999 
0 
0 
0 
0 
0 
0 
0 
0 
0 
0 
0 
-0.1194230064866329 
0 
0.08084610284856331 
0 
-0.1649334790777413 
-0.05387233558207205 
0 
-0.3043637063506802 
0 
-0.5096847085172157 
0 
0.001470843418085244 
0 
-0.01062381579104043 
0 
0 
0 
0 
0 
0 
0 
0.5104546210037632 
0 
0 
0 
0 
0.06428815107007024 
0.1178332331998657 
-0.0007197306673780773 
0 
0.1905004730230224 
0 
0 
0 
0 
0 
0 
0 
0 
0 
0 
0 
0 
-0.2312991778053743 
-0.08343417877384487 
0.08279569846385938 
0 
0.1915581224136036 
0 
0 
-0.001029240917675675 
-0.04515290345501698 
0.0292761629149921 
0 
0 
0.2454178980561708 
0 
0 
0.1832706763359345 
-0.0001173721836411049 
0.2105590294807924 
0.06892592227477878 
0 
0 
0 
0 
0 
0.2261361488824317 
0 
0 
0.1223949279262093 
0 
0 
0.1134602594620577 
0 
0 
0.006863418360124916 
0 
0.220443403383496 
-0.1452144530252488 
0.1312453338262716 
-0.1905597100140574 
-0.0002818682864118403 
0 
0 
-0.001367436922825061 
0 
0 
0 
-0.5262547163729214 
0 
-0.2189380811162648 
0 
0 
0 
-0.07646719669055152 
-0.1743093247196382 
-0.03544015223696818 
0 
-0.07163493057898263 
0 
-0.2287902529214785 
0.1967533035290825 
0 
0 
0.03068856195111473 
0 
-0.04737162502381158 
0.321147399488708 
-0.1953007639185707 
0 
-0.2197694590153506 
0 
0 
-0.0005021338374601298 
0 
0 
0 
0 
-0.03154922240042673 
0.4587808207265989 
0 
-0.3573761335703233 
0 
0.01257503639596658 
-0.09402183443979939 
0 
0 
0 
0 
0 
0 
0.1222992626268502 
0 
0 
0.1456238487566713 
-0.122515817033281 
-0.4360606047203461 
-0.1369025904948465 
0 
0.007161943679686713 
0 
0 
0.6167842846817699 
0 
-0.00871453137553049 
0 
-0.1264218914662775 
0 
-0.02466129597540557 
0 
0 
0 
0 
-0.2757636860342219 
0 
0.08108917650628508 
-0.1112532479586978 
0 
0 
0 
0 
0 
0.06066211452417816 
0 
-0.5075808559340284 
-0.3375518520389504 
0 
-0.1933312740939409 
0 
-0.002293350757674102 
-0.3329564219716614 
0.1217213579799885 
0 
0 
0 
0.08082282943824155 
-0.1517587860305235 
0 
0.174240358958071 
0 
0.07692703128316987 
0 
0 
0 
0 
0.1504204998577061 
-0.1967533035290825 
0 
0.2355388611379073 
0 
0 
0 
-0.20390569486505 
0 
-0.1050129906940331 
0 
-0.2242262326496836 
0.1202345802949296 
-0.1759788924717794 
0 
0 
0 
0 
0 
0 
0 
-0.1790055221514825 
0 
0 
0 
0.2918470070344508 
0 
0.3345898448575665 
0 
0 
0.1435000782206778 
0 
0 
0 
-0.1042820561209991 
-0.08634085345612759 
0 
0.01866648549209645 
-0.142486054242097 
0 
0 
-0.1967533035290825 
0 
0 
0 
0 
-0.2466295035329395 
0 
0 
-0.1967533035290825 
0 
0.2836066721317494 
0.2516575660335337 
-0.06564346812508769 
0.1107826876901667 
-0.08025936604176359 
0 
0 
0 
0 
0.03635165407121198 
0.08815311354493939 
0.224801157066082 
-0.03090700214205907 
0 
0.1218583967193343 
-0.3259690521656259 
-0.3228493717029619 
0 
0 
0 
0 
0.2102478852093571 
-0.04600946678585662 
0.1480472323524417 
-0.2701384969653515 
0 
0 
-0.01854114640800201 
0.3221460737556513 
0.09181220628807607 
0 
0 
0 
0 
-0.11587330587495 
0 
-0.1636205500358938 
0 
0.01493011130668051 
0 
0 
0.1967533035290825 
0.1670946287671073 
0.1764037356342055 
0 
0 
0.01150300671007816 
-2.251661253247541e-05 
0 
0.1549233192233694 
0.1438370546772571 
0 
0 
0 
0 
0 
0 
-0.1693909602916299 
0 
-0.06355809121235324 
-0.169770773192878 
0 
-0.1618498539159086 
0 
0.0001000664994766676 
0 
-0.001002136992074916 
0 
0 
0 
0 
6.587276964381626e-05 
0 
0.1942930641799602 
0 
0 
0 
0 
0 
0 
0 
0 
-0.2753887969434618 
0 
0.1571167340177227 
-0.2385356953128949 
0 
0 
-0.1566557648668933 
0 
0 
0 
0 
-0.1803585135248944 
0 
0 
0 
-0.108745465652487 
-0.1238884955502507 
-0.3661836039852212 
0.007161943679686713 
0 
0 
0 
0 
0 
-9.104867922292769e-07 
0.1026103671945929 
0 
0 
0 
0 
0 
0.214885056117379 
0.02617295505541341 
0 
0.2751318064938892 
0.04458170822518139 
0 
0.1007661435987436 
-0.1122301021092758 
0.1300792574939311 
0 
0 
0 
0 
0 
0 
0 
-0.4108241608570578 
-0.1921618018553294 
0 
0 
0 
0.1980305294171948 
0.2122110567068874 
0 
0 
0 
-0.02833392481416216 
0 
-0.1945067026786849 
0.0008777568835434944 
0 
0 
0.3573560330467289 
-0.1682376886808365 
0.0005292107102922033 
-0.1366860234729337 
-0.2021184101719298 
-0.2204411502010754 
0 
-0.8045352089628184 
0.006680867718949307 
-0.2342457359356469 
0 
0.08692702229000027 
0 
0 
-0.0001621847388544518 
0 
0 
-0.04429712876154997 
0 
-0.2818388162247602 
0 
0 
0 
0 
0 
-0.1056094612107042 
-0.007320972706516746 
-0.1813709945133576 
-0.09979129392300148 
0 
-0.0004291385742995135 
0 
0.02609265596626401 
0 
0 
0 
0.1008665600707485 
0 
0.008213115113760662 
-0.1512175837797727 
0 
0 
0.0002493303912117199 
-0.09737010018104539 
-0.1499669975058888 
0 
0 
-0.02010358845274975 
0 
0 
0 
0 
0 
0.04850663101884816 
0.0489135309708251 
-0.0003694472000354818 
0.1212348551817163 
0 
-0.04770291475143461 
0.3957310573912853 
-0.1967533035290825 
0.06116600609904664 
0 
-0.08301345540855379 
0.1158487034440497 
0 
0 
0.7694723818861624 
-0.1967533035290825 
2.633360173434247e-05 
0.06573816623302541 
0 
0.3309047963202322 
-0.02728961061226484 
0 
0 
-0.2189572993054626 
0 
0 
0.1301829764379985 
0 
0 
-6.929838802037478e-05 
0 
0 
0.2957999798127385 
-0.6768802406039125 
0 
0 
0 
-0.07625959633565917 
0 
-0.3233179698211887 
0 
0.2037660885264007 
0 
0 
0 
0 
0 
-3.080223089907633e-05 
-0.04783086569132276 
-0.1703947602117084 
-0.2000690680702976 
0.1790907425776179 
0 
0 
0 
0 
0 
-0.2551417578267529 
-0.04226909077359069 
-0.05345059134712198 
0 
0.111522910718539 
0 
0 
-0.03863860676130346 
0.1859555565051801 
0 
0.1448547016904111 
0 
0.2394877903995041 
-0.004779914344192253 
0 
0 
0 
-0.1777784274754343 
0 
0 
0.02540710163761108 
-0.1196984260338395 
0 
-0.06059654417738177 
0.2081662050709708 
0 
0 
0.06368914411225891 
0 
-0.3253906073888111 
0 
0.1197526356672856 
-0.02516653726839655 
0 
-0.1626372331469434 
0.05201293015387067 
0 
0 
0.1330646884955999 
0 
0.1979955486992439 
0 
0 
0.004892326134058061 
0 
-0.07162074660627699 
-0.314106783934518 
0.2737588628240548 
0 
-0.09421323736171219 
0 
0 
0 
0 
-0.001492147762883394 
0 
-0.2111526918987799 
0.0005117704934603092 
-0.003321946951173835 
-0.07056961766168679 
0 
-0.3510561383262656 
0 
0.1649406424792441 
0 
0 
0.2073587397539967 
0 
-0.000122333653338655 
0 
0 
0 
0 
-0.450256978436635 
0 
-0.1455552168551701 
0 
0.0005952725965689084 
0 
0.2672669981693149 
0 
0 
-0.3837388842891034 
0 
-0.173063203674669 
0 
0.1763723541654712 
0.1562407620401509 
0 
0 
-0.2581519669822466 
-0.1664466936244419 
0.09192673868121697 
0 
0.14217189003679 
0 
-0.3871233879290806 
-0.179602391309707 
0.05734546093064076 
7.879304927653236e-05 
0 
0 
0 
0 
0 
0.2120774664248967 
0 
0 
0 
-0.1967533035290825 
0 
0 
-0.136117444038432 
0.04171316062038025 
0 
0 
0 
0 
-0.05536457614322862 
-0.07845631624550406 
0.01915119140465985 
0 
0 
0.1245875240196326 
0 
0 
0 
0 
0.5347069076229255 
0 
0.1131977803569382 
0 
0 
0.2936688775485357 
0 
0 
0 
0 
0 
0 
0 
-0.2429041831521254 
0.000109351517426652 
0.09231509850133569 
-0.04757331581053989 
0.07778737558089666 
0 
0 
0.02773132305934463 
-0.4808580380439942 
0 
-0.04509787062012081 
0 
0 
0.226058427640528 
-0.1664466936244419 
0 
0 
0.1967533035290825 
0.001059597776173933 
0 
0 
0 
0 
0 
-0.1238855069935754 
0.037782075378139 
-0.2795959703428264 
0.0001005128839925035 
-0.4859436497141747 
-0.188239887001315 
0 
0 
0 
0.3442478078073086 
0 
0.144886941570142 
0 
-0.01605251779724406 
0.5016817084259937 
0 
-0.4285821071262801 
0 
0 
-0.2954647169770227 
-0.2470823635504328 
0.0977856469676385 
0 
0 
-0.548590771003762 
0 
0 
-0.1803640837519461 
0 
-0.2900825087768335 
0.01949345106782494 
0 
0 
0.1084702012717237 
0 
0 
0.03738590449292992 
-0.004033133345860317 
0 
0 
0 
0 
0.01162532318602475 
-0.07117095369223148 
0 
0.01178501304852857 
-4.97570022982386e-05 
0 
0 
0 
0 
0 
-0.2007537448958261 
0 
0 
-0.1326836849209534 
0 
0 
0 
0 
0.2100078700931348 
0.1150330981967678 
0.03241618127046204 
0.3184013669461793 
0 
0 
0 
0 
8.215885812330823e-05 
-0.1551694732842495 
-0.2505255947562598 
-0.2410411801261246 
0 
0 
-0.07012839747060252 
0.02599441444181006 
0 
0 
0 
0 
0.3575556474971458 
0.01024912068602272 
0 
0 
0.2014346324904856 
-0.1451233933087842 
-0.1856762605961308 
0.0001924550006288592 
0 
0.07539387162293242 
-0.903091696901747 
0 
0 
-2.288933903878589e-05 
-0.0001789973110542643 
0 
0 
0 
0 
0 
-0.01523400446684376 
0 
0 
0.2100887439510723 
0 
0 
0 
0 
0 
0 
0 
0 
0.1967533035290825 
0.3359284871895629 
0 
0 
0 
-0.04786231652607367 
-0.01774757985604556 
0 
0.01291324425856317 
-0.07675686156670802 
0 
0 
0.1025466961715705 
0 
-0.2688205305809788 
-0.4025159859558402 
0 
0 
0 
0 
0 
-0.5699630187305302 
-0.08071954158453007 
0 
0 
0 
0.03158310986990685 
0.08087096219125849 
0 
0.1647024178925148 
0.1184987761312582 
-0.09907311566650574 
0.1366322928597452 
0.1524156891775597 
0 
0 
0 
-0.0006517169681084537 
0.1368563526942881 
0 
0 
0 
0 
0 
0.2828630955526416 
0 
-0.0001358960960490949 
0.3072639008789035 
0.1071228850565308 
-0.01651934715042413 
0.2206302392831117 
0.1415880769060382 
0 
0 
0 
0 
0 
-0.2542705725230274 
0 
0 
0 
0 
0 
0 
0 
-0.05444152952608163 
0 
0.6611619195781759 
-6.017970367027718e-05 
0 
0 
0 
-0.2486872736304576 
0 
-0.1842020346856526 
0 
0 
0 
0.2056259144820924 
0.110452948664251 
0 
0 
0 
0 
0 
0 
0 
-0.1681281437376806 
0 
0 
0 
-0.1142424697791794 
0 
0.3338872654988798 
0 
0 
0 
0 
0 
7.081799633006704e-05 
0 
-0.0001764194694761504 
0 
0 
0 
0 
-0.08854376589472809 
-8.124743132828852e-05 
0 
0 
0 
-0.1438466629553704 
0 
0 
0 
0 
0 
0 
0 
-0.07775091317245526 
0 
-0.6044751391688408 
0.1863824891166793 
0 
0.3278694724533227 
-0.204433942495114 
0.2395450067325964 
0 
0.00536814164478101 
0 
0 
0 
0 
0 
0 
-0.1883855122488356 
0 
0.006821869640793242 
0.1562513911464215 
0.1562597049280749 
0 
-0.1828702254811062 
0 
0 
0 
0 
0.0001164450696644147 
0 
0 
0 
-0.2166882312285541 
-0.002086727716891571 
0 
0 
0.2674421334135533 
0 
0.2481376763665826 
0 
0 
0 
0 
0 
0 
0 
0 
-0.07650970037714615 
-0.223111151412643 
0.1215609380085077 
0 
0.2762654136165223 
0.6199653286739054 
-0.3953447414420961 
0.199180438457559 
0 
0 
0 
0 
0 
0 
0 
0.1005614886627347 
0 
-0.1967533035290825 
0 
0 
0.03594091397294822 
0 
-0.0006625913645873843 
0 
-0.3601006954015718 
0.1967533035290825 
0 
0 
0 
0 
-0.1967533035290825 
0 
0 
0 
0.03410926664817771 
0 
-0.3589881164213556 
0 
0 
-0.1335341390450573 
0 
-0.266704948419713 
0 
0.008655670819360955 
0.1165432655253241 
0 
-0.3255107502707139 
0 
-0.6854026293453038 
0.05010415281971025 
-0.08856993260409753 
0 
0.268452548222951 
0 
0 
0.3274983365009891 
0.3596703594145855 
0 
0 
0.8068158231450946 
0 
0 
-0.2872619541360631 
0 
0 
-0.0008468891899148317 
-0.1054869168471371 
-0.09207662432834446 
0 
0 
0 
0 
0 
0 
0 
0 
0 
0 
-0.136153640485911 
0 
0 
-0.2546345920384836 
-0.1337831004058387 
0 
0 
0 
-0.2437622898616325 
0.3129052032474715 
0.07565255311521164 
-0.05404876663810219 
0 
-0.03148714346106674 
0 
0 
0 
0 
-0.004696149999807775 
0 
0 
0.0331085781034578 
0 
0.5009369181644565 
0 
0 
0.0009365102160019405 
0 
-0.1734502286346476 
0.6668392253718363 
0 
0 
0.06359800080207191 
0 
0 
0 
0 
0.2051997286457154 
0 
-0.5359236991335565 
-0.472107668226145 
-0.1870098236636356 
0.1384169410757262 
0 
-0.4820346915511506 
-0.1994159756322139 
-0.1967533035290825 
0 
0 
0 
0 
0 
-0.2108662780965086 
0 
0 
-0.04678421139372643 
0 
0 
0 
0 
-0.04317654341655574 
0 
0 
0.3121295236542831 
0 
0 
0 
0 
0.3493011497315546 
0 
0.0004819594625481496 
0 
-8.79440624038622e-05 
0 
0 
0.209261833462113 
0 
0 
-0.4461672952905076 
-0.1630805590348995 
0 
0.1309400802441275 
-0.1967533035290825 
0 
0 
0 
-0.0004449498575104464 
-0.7482583681571408 
0 
0 
0.2099782092222952 
0.2489038428303738 
0 
0 
0.4079950782680993 
0 
-0.218461213233867 
0 
0 
0.1771346716571917 
-0.1977541300674324 
0 
-0.0652944781744812 
0 
0.4342980537963761 
0 
0.1035835037905404 
0 
-0.1419783842350892 
0 
0.3292956821281775 
0.4756636042661369 
-0.06358426462608573 
0 
-0.2621736228246677 
-0.1967533035290825 
0 
0.06077545305284968 
0 
0 
0.1226275493997089 
-0.3119127623501163 
-0.2136571537074452 
-0.2562274543861274 
0.1134971684641565 
0 
-0.009568835743973615 
0 
0 
-0.1047002895917487 
0 
0 
0.3071603916171889 
0 
0 
0 
0 
-0.1639752311333604 
0 
0 
0.136348238437712 
0 
0.3597614415809481 
0 
0 
0.1671491836809158 
0.2419926374216793 
-0.07039884800946783 
-0.7810739421475026 
0 
-0.000158215322756837 
0 
8.015439854205356e-05 
0.6523480802213572 
0 
0 
0.07735761841793382 
0.102367397188233 
0.1134599828293093 
0.2383497593288072 
0 
0.0001216165996509982 
0.2517248021390766 
0.1589142578429064 
0 
0.1967533035290825 
0 
0 
0 
0 
0 
0 
0 
0 
0 
0 
0 
0 
0 
-0.03072450239058613 
-0.0579470203889535 
0 
0 
0.0342333187270491 
0 
0 
0 
0 
-0.1639953987254043 
0 
0 
0 
0.2923435525558079 
0 
0 
0 
-0.1205771288807292 
0 
0.04809354373686595 
0.1384323866218315 
0 
0 
0 
0.03797094853886553 
-0.1967533035290825 
-0.4406408442137729 
0 
0 
0 
0 
0 
0 
0.1967533035290825 
-0.1362930718111735 
0 
0 
0.2750286939011025 
0 
0 
0 
0 
0 
0 
0 
0 
0 
0 
0 
0 
-0.2915884584751217 
0 
0.1595562880756195 
0 
-0.2134308620281735 
0 
0 
0 
0 
-0.1264598069188327 
0 
0 
0 
0 
0.0002810215174838801 
-0.3386219044955158 
-0.1593452200719854 
0.277383088771917 
0.2237380539326925 
0 
-0.1106797667013361 
0 
0.118959980464977 
0 
0 
0 
0 
0 
0 
0 
0.08099043169234996 
0 
0.2236430012390567 
0 
0 
0.07384408677860789 
0 
0.3225708483370536 
0 
0 
0.1791567616383216 
-0.0001157137694205034 
0 
0 
0 
0 
0 
-0.1516102088968317 
0.4175779346767236 
0.3216023237228524 
0 
0.0477205702666932 
0.1757403617555691 
0 
-0.2032459236865917 
0 
0.0007436673652459948 
0 
0 
0 
-0.2711647384182162 
0 
-0.1695287933049102 
0 
-0.2738114863167502 
0.2632896662636363 
0 
0 
0 
0.01881011523169503 
0 
-0.1915333889992461 
-0.3169166464445108 
0 
0.2097317586947534 
0 
0.1368512445289305 
0 
-0.1968327372700624 
-0.2213342047185058 
-0.4328542893689702 
0 
-0.1838332041418249 
-0.04318993200321165 
0.2657301909375484 
0 
0 
0 
0 
0.04480588824907197 
0 
0 
0.1899224382191318 
0 
0.1924486565172533 
0 
0 
-0.5482111043173118 
0 
-0.1145697346273342 
0 
-0.05493226464507017 
0 
0 
0.2962468335170914 
0 
0 
0.2895736334812964 
-0.05859640599867935 
-0.1858532595127289 
0 
-0.004838373481026207 
0 
-0.1819982963791121 
-0.5828937667832057 
0 
0 
0 
0 
-0.3950556510844201 
0.4411842015990129 
0.07758961902882687 
0.001881173277799533 
0 
0 
0 
-0.1967533035290825 
0.3766512456061345 
0 
-0.11032627974032 
0 
9.158713379558964e-05 
0 
-0.2388990743537964 
0 
0 
0 
0.07776493709812661 
0 
0 
0 
-0.1881627432936316 
-0.2992523865331608 
-0.1238003116653079 
0.1884261896211426 
0.1242319192876924 
0.1031957453334614 
0.1901084435322241 
0 
0 
-0.1306607073806929 
0.1510584107778184 
-0.2641892810170097 
-0.04757331581053989 
0 
0.05342230324455859 
0 
0 
0 
0 
0 
0 
0 
0.02548627037810947 
6.144747192557444e-06 
0 
0.1095727511851322 
0.0442101905367415 
0.3005299534027664 
0.128728447889229 
0 
0 
-0.1120505346125459 
0 
-0.1156873841301064 
0.05963072374446571 
0.1203719557140094 
0 
0 
-0.3725362546522503 
-0.05602686701754339 
0 
0 
-0.03979565490692589 
0.002845951128045475 
-0.09284502104415697 
0 
0.2340578603028786 
-0.1186217664235805 
0 
0 
0 
-0.03165072853261659 
0 
0 
-0.0236724790018677 
0 
0 
0 
0 
-0.1654148146992577 
0 
-0.4748014513385248 
0 
0.0002030037149876781 
0 
-0.03301964087179473 
0 
0 
0 
-0.1967533035290825 
0 
0 
-0.3019124368681034 
-0.1734502286346476 
0 
0 
0 
0 
0.04550637925587288 
0 
-0.1921459548931432 
0 
-0.08119858170942307 
0.3440747388456581 
0.1069387010478532 
0 
-0.3081545254515187 
0 
0 
0 
-0.3888106885189091 
0 
0 
0 
-0.04275310769880106 
0 
0 
-0.07268355831235694 
-0.06801427629544493 
0.2219012697422795 
0 
-0.3768529349805014 
-0.4572550305786462 
-0.1226218271561527 
0 
0 
0 
-0.1967533035290825 
0 
0 
-0.1027748113251806 
0 
0.01834890545112809 
-0.2914473813709595 
0 
-0.06752804603101775 
0 
0.1967533035290825 
0 
-0.1419645957778984 
0 
-0.2893448383890362 
0 
0 
0 
-0.0007619042100926107 
0 
0.1548281488717102 
0 
-0.1681281437376806 
0 
0 
0.1100841705032275 
0 
0 
0 
0 
0.1906140273431743 
0 
0 
0 
0 
-0.1532701799876191 
0 
0.0003351535054533755 
0 
0 
0 
0 
0 
0 
-0.6061208535146889 
0 
0 
0 
0 
0 
0 
-0.1364008912917656 
-0.02430998076311811 
0 
0.10924283552098 
0 
0 
0 
-0.0105717864029052 
-0.1242014767056064 
-0.04325884865139022 
0 
0.2891215936461349 
0 
0 
0 
0 
0.0001041929411365469 
-0.2674329216732556 
0 
-0.2761902546806503 
0 
-0.1548799415942671 
-0.1366896594590369 
0 
0 
0 
0.243323776203804 
0 
0 
-0.1272767851564236 
-0.1318094659135978 
0 
0 
-0.0001210429365749247 
0.1654689620412679 
0 
0 
0 
0 
0 
-0.1967533035290825 
0.05789722607815215 
0 
0 
0 
0 
0 
0 
0 
0.006367998634944385 
0 
0 
0 
0 
-0.0741605576844885 
0 
-0.07330700808598331 
0 
-0.1176413929235825 
-0.04964198732915741 
-0.1070620406915381 
-0.0002208182379582905 
-0.1106990408363877 
-0.04712647164228533 
0.05886185437364898 
0 
0 
0 
0 
0.1967533035290825 
0 
0 
0.05809181321179897 
-0.0003164398603844195 
0.09008265098265462 
0.1763923764048235 
0.2518606995948039 
0 
0 
-0.0002355773736729114 
0 
0 
0 
0 
0.5230445796221894 
0 
0 
0 
-0.1656525135519571 
0 
0 
0 
0 
0.1468806147911969 
-0.4423581570479556 
0 
0.07822254249568242 
0 
0 
0 
0 
-0.1541588349472985 
0 
0 
0 
0 
0 
-0.1834645261748922 
0 
0 
0 
-0.2534719938031201 
0 
0.1438537254313388 
0 
0.1175413190043195 
0 
0 
0 
0 
0 
-0.01624506770174928 
0.2097317586947534 
0 
-0.3176908529119112 
-0.1967533035290825 
0.04875153323526552 
-0.2307815519751143 
0 
0.04270154361912288 
0 
0.1276316271655279 
0 
0.000137579476740205 
0 
0.07179632008488095 
0 
0.1278754694870511 
0 
0 
0 
0 
-0.5648739592123478 
-0.1967533035290825 
-0.1967533035290825 
0.2987273009044472 
-0.1312301340306951 
-0.0005181980041101236 
0 
-0.1362077799515299 
0 
0 
0.547027707594622 
0.0954343368057969 
0.0001482641299723107 
0 
0 
0 
0 
0.00123495207715027 
0 
0 
-0.313940281461054 
0 
0.2124199517296663 
0 
0 
0 
0 
0 
0 
0.1228542008982537 
0.03594518778977188 
0.06867943286301699 
0 
0 
-0.2266125151993589 
0 
0.1664466936244419 
0 
0 
0.06483978126043009 
0 
0.001279504856888136 
0 
-0.3425334958047667 
0.07636234848056538 
-0.07680321844503679 
0.5075715668012012 
0.3525886179015597 
0 
0 
0 
0 
0 
0 
0.2187358726073318 
0.1097832868194979 
0 
0.315259062198654 
0 
-5.396171692664481e-05 
0 
0 
0 
0 
0 
0 
-0.02557299944012275 
0.2006918466172452 
0.3044657279673086 
0 
-0.1539776903091602 
0 
0 
0 
0.2206893549526188 
0 
0 
-0.1295038823021703 
-0.5617989473169224 
0.06670437600487983 
0 
0 
-0.4278518851989592 
0 
0.03237349550548604 
0.2494976118600279 
0.1576244246198911 
0 
0 
0 
0.3233062938402234 
-0.1524615236067955 
0 
0 
0 
0.6129442780948583 
0.00657876340633104 
0 
0 
0 
0.1702026507819346 
0 
0 
0 
0 
-0.05040291013550044 
0 
0 
0.1430865848021352 
0 
0 
0.1316927248689326 
-0.3232579892137294 
0 
0 
-0.1366733967492542 
0 
-0.000242891937523172 
0.2702615848863379 
0 
0.7708722912666481 
0 
0 
0 
0 
0 
0 
0 
0 
-0.1745752785215018 
0 
0 
0.2568338357238553 
0 
0 
-0.2386948660400156 
0 
0 
0 
0 
0.1664466936244419 
0 
0 
0 
0 
0 
0 
0 
0.01726387579804461 
0 
0.1937506526653337 
-0.09502772625660857 
0 
-0.2335141736887897 
0 
-0.1967533035290825 
-0.4981173109134276 
0.2848891517767512 
0.0004733772480061671 
0 
0.178213156193118 
-0.4073848030599214 
0 
0 
0 
-0.1316245712434702 
0 
0 
-0.01070354669392999 
-0.1400059659506999 
0.0001058015276401853 
0 
-0.0900950462068726 
0.01572848250681247 
0 
0 
0 
-0.1477285787592792 
0 
-0.0005982296878432123 
0.1566295390566191 
-8.877779664806165e-05 
0 
-0.3845243795432111 
0.1967533035290825 
0 
0 
-0.1541356132897515 
0 
0.159041806910808 
0 
0 
-0.1967533035290825 
0 
-0.193001414111039 
-0.2629198688116066 
0 
0 
-0.3336543716836998 
0 
-0.0002780561998790049 
-0.03076567049184448 
-0.2675051761438121 
0 
0 
0 
0.1022359335786908 
0 
0 
0 
0 
0 
0.2587954194433224 
-0.08614870289728797 
-0.158128442642584 
-0.1335061743284812 
0 
0.2490398591013131 
-0.06014826794596086 
0.06647336152461815 
0 
0.2207779720640517 
0 
-0.1977017129758264 
0 
0 
-0.05988944244555609 
0 
0.07021710404390637 
-0.2511334786086427 
-0.2680948983294176 
0 
-0.1154882689120202 
0.08665594308353082 
0 
0.008541502451663375 
0 
0.05909588154719029 
0.1967533035290825 
0.1666416252295871 
-0.05404094677453099 
0 
-0.1967533035290825 
0.2517103206835917 
0 
0 
0.1967533035290825 
0 
0 
0 
-0.1555740437480521 
0 
0 
0.2072693918658575 
0 
0 
0 
0 
0 
0.3583056487288846 
-0.0006123930569340587 
0.07215231549302187 
0.293454780202164 
0.05688171184998973 
-0.268422686451182 
-0.0635697510769927 
-0.0001239716424272094 
-0.06877651254315609 
0 
0 
0 
0 
0.03917843924865894 
-0.4707084154915163 
0 
0 
0 
0 
0 
0 
0 
0 
-0.09280132248275055 
0 
0.1831916700344428 
0 
0.1216972557520736 
0 
0 
-0.1240705317899752 
-8.124743132828852e-05 
0 
-0.4386997962650696 
0 
0.09888433236056611 
0.07953346633780632 
0 
0 
0 
0 
0 
0 
0.1326601938770375 
0 
0 
0 
0.2003073004563341 
0 
0.2226036151907921 
0 
0 
0 
0 
0 
0 
0 
-0.2361961205473938 
0.1963686018212122 
0.1664466936244419 
0 
0.006695172045461012 
0 
-0.7370254217706484 
-0.07986627288649148 
0 
0 
0 
0.03894102174066041 
-0.05142079064879397 
0 
0 
-0.4524172496068606 
0 
-0.1967533035290825 
0.1882939002269675 
0 
0 
-0.1401863653338456 
0 
0 
0 
-0.7576781978580576 
-0.1967533035290825 
0 
0 
0 
-0.1946766902733212 
-0.03740629693942286 
0 
0 
-0.3768675898421391 
0.3497967300837363 
0 
0 
0 
0 
0 
0 
0 
0 
0 
0 
0.05879671774826423 
0 
0 
-0.1250652598356838 
0.1415526648107704 
0 
0 
0.2214383630248979 
0.4013781527294307 
0 
0.0002510936491465048 
-0.07876478364786901 
0 
0 
0 
0 
0 
0 
-0.1410749035679967 
0 
0 
0.231886948077671 
0.08221549504267883 
0 
0 
0 
0 
0 
0.239433713762259 
0 
0.1967860026270276 
0 
0 
0 
0.02745183953610665 
-0.04389152436018137 
0.1665180898453577 
-0.1019461581270657 
0.1530537193195051 
0 
0 
0 
-0.09648605137014613 
0 
0.4632725834483852 
0.1660823270018117 
-0.3665038435886301 
-0.05595651984373481 
-0.2062354055980649 
0.06117904309628967 
0 
0 
0 
0 
-0.08420439917010894 
0 
0 
0 
0.03191512426810315 
0 
0 
-0.1946522101819835 
-0.2450242315406357 
-0.0001250174761010295 
0 
0.02597093680376618 
-0.2736295354290877 
0.3111195416210185 
0.17708186963294 
-0.4802002218310863 
0 
0 
0.0008545503126358494 
0.01105535930942163 
0 
0 
0 
0 
-0.04774985273470217 
-0.1637251560751318 
8.769475110813427e-05 
0.7412096774739734 
-0.2601061989338073 
-0.1389026347879358 
0 
0.0906738085907753 
0 
-0.4433301501633248 
0 
-0.1319786189028526 
-0.1265032274778034 
0.08998165367765638 
0 
0.0005229759154337333 
-0.0328848467721238 
0.1967533035290825 
0 
0 
-0.2334585329265488 
0.1189373124431243 
0.1150810934179387 
0 
0 
-0.0001524889584013637 
-0.0005470424066059141 
0 
0 
0 
0 
0 
0 
0.1567664716182331 
-0.006544437766717976 
0 
0 
-0.458920277927032 
-0.02576105014199057 
-0.0703778040377004 
0 
0 
0 
0 
0.1744309973647086 
0 
-0.000241166718129713 
-0.1525230798232828 
0 
-0.4108046931312289 
0 
0.2478968219907317 
0.3127590849609197 
0.1717957103915956 
0.1967533035290825 
0 
0 
-0.1102350346114165 
0 
0 
-0.03465044716725513 
0.05419917921715273 
0 
0.272221085185097 
0 
0.1727163176292688 
0.1269074071558672 
0 
0 
0 
0 
0 
0 
-0.1022930972213544 
0 
0.3293866934789846 
0 
0.218926180775098 
0.26044962579909 
0.7736058493392002 
-0.1967533035290825 
-0.01757858720340814 
0.1068643657242697 
-0.1664078261605849 
0 
0 
0 
-0.2264985193866262 
0.2450674492081658 
0 
0 
0 
0 
0.01125129653128003 
-0.1843999490882575 
-0.0004116778127821919 
0 
-0.0400693128918751 
0 
0 
0 
0.2075425370279068 
0 
0 
0 
0.02193382495574667 
-0.001503493504110972 
0.1775224644176512 
0 
0 
0 
0 
-0.165914224482867 
0 
-0.1429422875605872 
0 
-0.0001535892789704847 
0 
0 
0 
0 
-0.05565674859549999 
-0.001955710476498221 
0 
-0.1126899174118082 
-0.3401738236403923 
0 
0 
0 
0 
-0.2003647186177181 
0.5720317562955227 
0.3260712445020179 
0 
0.1596728455388249 
0 
0.03199846306091365 
0 
0 
0 
0.1340536754324076 
0 
-0.1435850627591818 
0 
0 
-0.344827037977718 
0 
0 
0 
-0.1664031351104278 
0 
0.0005724323443283639 
0 
0 
0 
0 
-0.136153640485911 
0.001213213797579705 
0 
-0.1967533035290825 
0 
0 
0.2876470798293379 
0.07114483416902379 
0 
0 
0 
0.0002884536340582666 
0 
-0.1071044648423041 
0 
0 
-0.1220055566945886 
0.1813230844056518 
0 
0.03369616103738924 
-0.2125071427197825 
0 
0 
0 
0 
-0.06707027477945697 
0.1689506770897604 
-0.01367016934038217 
0 
0 
0.0001325879308792928 
0 
-0.03059144302924303 
0.0001800678197412325 
0.1648908747611918 
-0.2802515485975261 
0.3808441238745075 
-0.1967533035290825 
0 
0 
-0.0001643977211119007 
-0.1967533035290825 
-0.2046575922175601 
0 
0 
0 
0.00165973644843668 
0.08691012609062254 
0 
0.1036103683960328 
0.3259773562322489 
0 
0 
0.2735901427163703 
-0.1967533035290825 
-0.2698890473058077 
0 
-0.1728225616882659 
0 
0 
0 
0 
0 
-0.1177573849715273 
0 
0.1967533035290825 
0.1967533035290825 
-0.1126792885624478 
0 
-0.147277567107615 
0.2296559451796965 
-0.1440294172141565 
0 
-0.1240042817467184 
0.1452127107527579 
-0.1408993657422243 
0 
0 
0 
0 
0 
0 
-0.2722830559275248 
-0.1967533035290825 
0 
0 
0.004039260075193521 
0 
0 
0.2499624792071999 
0 
0 
0 
0 
0 
0 
0.01643861613718687 
-0.1967533035290825 
0 
0 
-0.2076291884817407 
0 
0 
0.07930266547788563 
0 
-0.1116649417545046 
0 
0 
-0.04861391929085877 
-0.08421326773272886 
0 
0.1582968520994322 
0 
0 
0.1007127309135509 
0 
0.2540459932951305 
0.3100210154544183 
-0.09535812184163157 
-0.07033332033395104 
-0.08762802947528926 
0 
0 
0.1833124666507633 
0 
0.2103899256923825 
0 
0 
0 
0 
0 
0 
0.5481838612191531 
0 
0 
0.04931372817377258 
0 
0 
-0.1504376584172213 
-0.2808269769570437 
0.3839804734854347 
0 
0.03753140085605099 
0 
-0.1631174830777374 
0.2352050653505256 
0.2564056249273722 
-0.08765951494472821 
0 
0 
0 
0.1588196369127482 
0 
0 
-0.2085283734879245 
0 
-0.1544082006700023 
0 
-0.4406880313510371 
0 
-0.05740962851336316 
0.08901660343620779 
-0.0004675655733681612 
0 
0.01865553008318782 
0 
-0.126446268109025 
0 
0 
0.04836779926952298 
0.00714561317684794 
0 
0 
0 
0.1278620500682001 
0.1067006521023926 
-0.4066656739953683 
0 
0.000217843509049969 
0.3847969650675799 
0.1502953523785432 
0 
-0.346481782323609 
-0.1489694473301133 
0.5270019610810548 
0 
0 
0 
0 
0 
0.03846352632663667 
0 
0.1711741882372283 
0.196665847796955 
-0.0006857956159733529 
-0.2111102233586456 
0.221274393082809 
0.07629144476920618 
0 
-0.1374651623114549 
0 
0.0593548802530345 
-0.1548507298447375 
-0.2216691758422578 
0 
-0.001552310811965656 
0.00113424397047151 
0 
0.04193752415639157 
-0.0001565422704547803 
0.6849544270733551 
0 
-0.3655716528372782 
0 
0 
-0.4064473066090765 
-0.1949910305954032 
0 
0.1197756953170668 
0.0002075181044987212 
0 
0.3201822659745185 
0 
0 
0.406641521229587 
0 
-0.410161240382869 
0.4732271137101402 
-0.3797686115380461 
0 
0 
0 
0 
-0.2566641340993823 
0 
-0.09380446472383776 
0.2225693092825583 
0 
-0.3089416704779448 
0 
0 
0 
0.1474818799069356 
0 
0.1047109875808508 
0 
0 
2.819054217985593e-05 
0.4450098103478822 
0.1952250228439965 
0.05306066312750327 
0 
0.2377852464918357 
0.0006987514594667095 
0.2430082782401415 
9.927020929305564e-05 
-0.1015323123043567 
-0.2502732100270316 
-0.06606675383945033 
-0.1097558824518979 
0 
-0.3095980964164957 
0 
0.0009183340245514783 
0 
0 
0 
0.1346883843383326 
-0.09143253278566194 
0.0408809067849908 
0 
0.08968176046317454 
0.1894598420659457 
0 
0 
0 
0 
-0.1000525066522422 
0 
0 
-0.0004220636361837588 
-0.0002748354786492696 
0.3276494863440567 
0.0925205909356505 
0 
0 
0.1298110644049472 
0.1901397135647224 
-0.1681281437376806 
0 
0 
-0.201626796496552 
-0.2261668164147911 
0 
0 
0 
0 
0.2825080471356302 
0.00169629652041516 
0 
0.1021204944265909 
0 
0 
0 
0 
0 
-0.205896912824467 
0.1237915038201599 
0.3114356262894586 
0 
0 
0 
0.1759874568473334 
0.2048994731743239 
0 
-0.159520096754768 
0 
0 
0 
-0.2049531204334127 
0 
-0.1636912296277472 
0 
0.1753328336502465 
0.0001147862964592658 
0 
0.2368421521047963 
0 
0 
-0.3861469894182682 
-0.07186703321285978 
0.1396258006063751 
-0.09054239593793058 
0 
0.0005456710215033568 
-0.1576900532828722 
0.1522458664507497 
-0.1327455336384229 
0.2503080910162515 
0 
0.1684038972047597 
0.233000701650614 
0 
0 
-0.01748758057527293 
0 
0.186162808458308 
0.003017734168258502 
0 
0 
0 
0 
0 
-0.01329363874639944 
-0.2179135146391528 
0 
0 
0 
0 
0.09383517795310176 
-0.1144308058696422 
-0.4647852452893199 
0.06092699753896565 
0.2186174483933236 
0 
0 
0 
0 
0 
0 
0.2367886638900757 
0 
-0.09977461691627884 
0 
-0.7526938297553228 
0.5714875314016706 
0.1065458016358662 
0.1335915327384099 
-0.6008611859096078 
-0.1858149146409518 
-0.1256947118678167 
0.1606819196771623 
0.1135819301270668 
0.05963072374446571 
0 
0.3798601158003845 
0.0953821613962206 
0.1539822997931687 
0.3084740883932785 
-0.03580632404347921 
0 
0 
0 
0 
0 
0.4152427131164082 
-0.1643830625733398 
0 
0 
0 
0 
0 
0 
0 
-0.1152517409429408 
0 
0 
0 
-0.1153925633037232 
0 
0 
-0.1582020960226889 
-0.1941749353652754 
0 
0 
0 
0 
0 
0 
-0.3657765367436694 
0.03275152029556785 
0 
-0.7748030074904978 
-0.2349252138754725 
0 
-0.2794416678348045 
0 
0 
0 
-0.07316141973876503 
0 
0 
0 
0 
0 
0.03040671516566712 
0 
0 
0 
0 
0 
0 
0 
-0.204314712765003 
0 
0 
-0.1647580750551392 
-0.0005799594659647396 
0 
-0.2982557812178544 
0 
-0.08970169759862345 
0 
-0.01725195133469217 
0 
0 
0 
0 
0 
0.6273444738050418 
0 
0 
0 
-0.218747901781482 
0 
0 
-0.1992015339111982 
0.2186960816402323 
0 
0.1212934193039912 
0 
0 
0 
0 
0 
0 
-0.1519358616263895 
-0.04296362786465388 
0 
-0.2200928925854027 
0 
0 
0.06491544117545771 
-0.002056760021088237 
0 
0.1967533035290825 
0.0659400513757788 
-0.0009516260649720621 
0 
0 
0 
0 
0 
0 
0 
-0.00884438325391799 
0 
0 
0 
0 
0 
0.2382167995611415 
0 
0 
0 
0 
0 
-0.2221782146103737 
0 
0 
0.00106369157346489 
0 
0.3707580837273543 
0.2277165385723072 
0 
0 
7.009968914043461e-05 
0 
0 
-0.09684765753691467 
0.1371157591594836 
-0.1477067760944223 
-0.4096902323779703 
0 
0 
0 
0 
-0.0002972820414522643 
0.1967533035290825 
0.5500069100374063 
0 
0 
0 
-0.01774517388702598 
0 
-0.09399597308726776 
0.07513170201880137 
0.1730541973451634 
0.3142909582745337 
-0.2970770016934124 
0 
-0.1477046069459633 
0 
0 
0.01121379774665938 
0 
0.0004070098404168954 
0 
0.2800605346392848 
-0.1967533035290825 
0.07752205361742651 
-0.443174082320237 
-0.285186459888268 
0 
-0.2684333076030946 
-0.06699685554646388 
-0.169718450211288 
0 
0 
-0.2909589168918592 
0 
-0.2506508193062861 
0 
0 
0 
-0.1818652512052454 
-0.03588439446129645 
-0.05009653953487165 
-0.3682619383311876 
-0.1664466936244419 
0 
2.742550348672157e-05 
0 
0 
0 
0 
0 
0 
-0.5658023603233259 
0 
0 
0 
0 
-0.04316236919534056 
0 
-0.07702357806982446 
0 
0 
-0.02626307530639261 
0.2359540690927323 
0 
0 
0.3140443010472187 
0 
0 
0.2575359835388605 
0 
-0.1664466936244419 
0.145158760936973 
0 
0.2904009624389488 
-0.4332753622853138 
0 
0 
0 
0.213244046803021 
0 
0.1315616914026095 
0 
0 
0 
0 
-0.459718442379737 
0.2523590923545775 
0 
0 
0 
0.1191621061739417 
0.01140992953913076 
0 
0.0006060642203437893 
-0.2393641051528793 
0 
-0.1113324068922487 
0 
-0.0003009285843188329 
-0.1233931946624698 
-0.1825644217645564 
0 
0 
0 
0 
-0.002209758247900458 
-0.1184279057138179 
0 
0 
0 
0 
0 
0 
0 
0 
0 
-0.01020749761252758 
0 
0 
0 
0 
0 
0 
-0.3521491593878712 
-0.05950105400607206 
0 
0 
0 
0.3547903919730327 
-0.009145373334462657 
0.1967533035290825 
0 
0.07048621950248188 
0 
0 
0 
0.2536480389857794 
0.02683105647347468 
0.1691996581048893 
-0.03044472400235517 
0.1134602594620577 
0 
-0.3815792010174132 
0 
0 
-0.1578152082042098 
-0.1838571955665 
0 
0 
0 
-0.222260515318122 
0 
0 
0 
0 
-0.006650275256866311 
0 
0.1595024930110258 
0 
0 
-0.6436293118851504 
-0.3095302722956844 
0 
-0.106679963811951 
0.05954959572927173 
0.3908510894560465 
6.814220729690104e-05 
0 
0.1544767249949645 
0 
-0.1468030477164148 
0 
-0.0001925328510074095 
-0.4271017771172544 
0.1950546862847266 
0.03014060977613762 
0 
0 
-0.03403703667319387 
-0.1464733171459094 
0 
0 
0 
0.1441243297902404 
0.2664689357595321 
0 
0.006752388764098737 
-0.1154982053064639 
0 
0 
0 
0.08335490726196824 
0 
0 
0 
0.1647489170301927 
0 
0 
0.2505105451258924 
0 
0 
0 
0 
0 
0.109698270385489 
0.0001983181154671317 
0 
0.04912278465454162 
0.8897212785414889 
0 
0.1082384287662839 
0 
0 
0 
0 
0 
-0.1314267843801586 
-0.2077572282475847 
0 
0.08459521916312392 
0 
0 
0 
0.0003288688140350526 
0 
0 
0.09816729645353131 
0 
0 
0 
0.07855496308349688 
0.3399799233858905 
0 
0.08561661209150798 
0 
-0.1769059040566393 
0.08114774665853186 
-0.1646409377590101 
-1.086301163977804e-05 
0 
0 
0 
0.0003729892597054201 
0 
-0.165108984299195 
0 
0.2641139911273681 
0 
-0.3656366574054391 
0.3328933872488838 
0 
0 
-0.2079603858570246 
0 
0 
-0.2334922275270802 
0 
0 
0 
0.1261054750364765 
0 
0 
-0.02259980278620835 
0 
0 
-0.07146994318268515 
-0.2614934506851466 
0.1700056029163304 
0 
0 
0 
0 
0.1967533035290825 
0.8537615893153753 
-0.07424216615455838 
0.3338774327910279 
0.10918073162122 
-0.1967533035290825 
0.1326008735759542 
-0.0001050326458035079 
0.0005240676942612397 
-0.1636912296277472 
0 
0.4344468550032913 
0 
-0.2055811550377062 
0 
-0.2227095089749023 
-0.02014826528973672 
0.189513510930122 
0 
-0.5246799561298414 
0 
0 
0 
0 
0 
0 
-0.000131239309458421 
0.05588846065883148 
0.1341271727137311 
0 
0.2428092046170551 
0 
0 
0 
0 
0.1247892481653015 
0 
0 
0 
0 
0 
-9.679255861850037e-05 
0 
-0.2919593619929679 
-0.2320437087748459 
0 
-0.04261006885687568 
0 
0 
0 
0 
0 
-0.3562669600593904 
0 
0 
0 
-0.1727362287700411 
-0.03420190616455118 
0.1175413190043195 
0 
-0.1417117655009621 
0.02881573658925709 
0.1092614283559797 
0 
0 
0 
0.2090297031737791 
0 
0.04942703985717956 
0 
0 
0.2330083499276009 
0 
0 
0 
0 
0 
0 
0 
0 
0 
0 
-0.2337248416015191 
0 
0 
0 
0 
0.7531893226705253 
-0.1017020701060648 
0.1358122879983779 
0 
0 
0 
0 
0 
0 
0 
-0.2331736316785905 
0 
-0.3344331080233202 
0.01725377274796832 
0 
0.1981888627851723 
0 
0 
0 
0 
0 
0 
0 
-0.289730339124566 
0 
-0.0177351713658024 
-0.1445643198289054 
0 
0 
0 
-0.0550902710952138 
0.1926416975565876 
0.2336182442261683 
0 
0 
0.08079520135876944 
0 
-0.4649949190372914 
0.2177372607607177 
0 
0 
0 
-0.1532701799876191 
0 
0.1180544067201508 
-0.2400444603380123 
-0.1169096041440574 
0 
0 
0 
0 
0 
0.1471502104572371 
0 
0 
0 
0 
0 
-0.411469295203499 
-0.1918624436107408 
-0.2207829046605591 
0 
0 
0 
2.953164781936297e-05 
0 
0 
0 
-0.2054896557806053 
0 
0 
0.0009205012967040175 
0 
-0.1883837190760103 
0 
0.02159347336959798 
-0.09499163044002551 
-0.1021006223143428 
0 
0 
-0.02913391217074103 
0 
0 
0 
0.1812939529644927 
0 
0 
0.0006433977790659879 
0 
0 
0 
-0.03613161729696558 
0 
0 
0.08622323053333251 
-0.6076437628032313 
0 
0.1667471623346588 
0.2440447444615739 
0 
0 
0 
0.0884406382238988 
0 
0 
-0.06540154239134394 
0.1999686089494853 
-0.0008836874229873029 
0.1943048247199996 
0.2402364270705459 
-0.1734502286346476 
0 
0 
0 
0 
-0.1280910209577261 
0 
0 
0 
-0.1833989927254756 
0 
0 
0.1664466936244419 
0 
0 
0.3983927756405491 
-0.05586619734502728 
-0.2138564418057272 
-0.110239442892608 
0 
0.0009036545479335278 
0 
-0.1084223912621763 
0 
0 
-0.001169294735298163 
0 
0.1967533035290825 
-0.002219800162079149 
0 
-0.02966278673883008 
0 
0 
-0.1684853232823902 
0 
-0.1722705482414256 
0 
0.03208479724609135 
0 
0 
0 
0 
0.3387057343860944 
0.2451906298413085 
0 
-0.0002370515650852146 
0 
-3.09314734182748e-05 
0 
-0.663674734525301 
0 
-0.1499498245805136 
0 
0 
0 
0 
0 
0 
0 
0 
0 
-0.1157272835542478 
0 
0.001686593436159472 
-0.1823087573512933 
0 
0 
0.2544562562401361 
-0.1967533035290825 
0 
-0.5295590356925274 
0 
0 
0 
-0.1495931961160066 
0.1557631610656772 
0.1967533035290825 
0 
0.09116123199907045 
0 
0 
0 
0 
0 
0 
0 
0 
0.07399331192963798 
0 
0.01200189506594757 
0 
0 
0 
0 
0 
-0.02267943755587284 
0 
0.169801752520771 
0 
0 
0 
0.02798018302544191 
0.259849912793961 
0 
0.1955701664349936 
0.1416924208074748 
0 
-0.01913092255953977 
0 
0 
-0.06683929826948391 
0 
0 
0 
0 
0 
0.01049542989528725 
0 
0.4395307855866745 
0 
0 
0 
0 
0.487107274477896 
0.3185487452223781 
-0.2914694380057991 
-0.1240390986975194 
0 
-0.0002487751007076815 
-0.2094574517146537 
0 
-0.3018671282067901 
0 
0 
-0.3573439658866014 
0.470904408824403 
-0.1501217294318792 
0 
0 
-0.2306308120808195 
0 
0 
-0.2339297105330579 
0 
0 
-0.02040720025159944 
0.1161836264235979 
0 
0 
0.03714818610073284 
0 
0 
0 
-0.06860234394060424 
0.0005456710215033568 
0 
0 
-0.4399041150594921 
0 
0 
0 
0.05756385372234644 
-0.08803999114731767 
-0.006092601451439736 
0 
0 
0 
0 
0 
0 
0 
0 
0 
0.1619572839839196 
0.1967533035290825 
-0.3821029768146011 
0.2090286472068742 
0 
0.2244405515808701 
0 
0 
0 
-0.2114270273248883 
-0.04043453774713198 
-0.1967533035290825 
0 
0 
0 
0 
0 
0 
-0.2946568180461636 
0 
0 
0 
0 
0 
0 
0.2405008038904636 
0 
0 
0 
0 
0 
0.1967533035290825 
0 
-0.0009802041428433029 
0.516838157169244 
0 
0 
0 
0 
0 
0 
-0.004563531320236162 
0 
0.1064731464853358 
-0.1604542403853209 
-0.02702495945716305 
-0.4920560648606058 
0 
-0.3749739275066103 
0.236959511607664 
0 
0 
0 
-0.8620510458976236 
0 
0.03101506597631902 
0.07505068106265841 
0.2119032381393429 
0 
0.297187961036431 
0 
0 
0.1166738337904429 
0.05192982927488628 
0 
0 
0.1974275631741835 
0 
0 
0.05058986672826541 
-0.04042178290777645 
0 
0 
0 
0.002043181878863003 
0.1029423114996854 
0 
0 
0 
0 
0.1081026076879684 
-0.2050116942037409 
0 
0 
0 
0 
0 
-0.1948994822015694 
0 
-0.6969512185914623 
0 
-0.02210553075469156 
0 
0.2377523619689871 
-0.2673148761436804 
0 
0.1171623080107378 
0 
0.3919928370579208 
0 
-0.04456873871216402 
0 
0 
0 
-0.0002933804426689002 
0 
-0.001162322302087594 
0.270078212614873 
0 
0 
0 
0 
-0.1223488390553407 
0 
0 
0.1426008839656431 
0 
-0.2003904370002935 
0.1967533035290825 
0.0006141960242299668 
0.1994151802872708 
0 
-0.01482587540022411 
0 
0 
-0.2649573224053948 
0 
0.1707703228367144 
-0.1409288721636749 
0 
0.2763430636673652 
0 
0.3845789267692065 
-0.0008071155118212522 
0 
0 
0 
0 
0.214675586193282 
0 
-0.1720852396086205 
0 
0.04091580008713394 
0.08484812309975052 
-0.1838578863385044 
0.03865350111079568 
-0.2923198104213176 
0 
0 
0 
-0.0004953056985480214 
0 
0 
-0.06710307641755919 
0.4162648100472868 
-0.1370040719275168 
0.4276291129602008 
0 
0 
0 
0 
0 
0 
0.7403041979924396 
0 
-0.2520600384207887 
-0.2639106505042414 
0 
-0.2472398279414679 
-0.0003966219361356625 
0 
0 
0 
0.4604667221082751 
0 
0.04572061050231994 
0 
-0.3258798914144755 
-0.1472493589554598 
-0.00120975355331336 
0 
-0.1861271856704979 
0.02571165077013176 
0 
0 
0 
0 
0 
0.1725346420516214 
-0.1483618327781527 
0 
-0.2918659523365977 
0.03030282374124633 
0 
-0.3267360322590321 
-0.08967075331895072 
0 
0 
0 
0 
0 
-0.332201336868054 
0 
0.1053533788401749 
0 
0 
0 
-0.1002022044287668 
-0.1388494870232701 
-0.1834252865421109 
0.04887966222747628 
-0.1057296604994523 
0 
0 
0 
0.001700634312885753 
-0.05805789385183126 
0 
0 
0.2633627403581522 
0 
-0.1779060097307927 
0 
-0.2526155352806092 
-0.2441948382015313 
0 
-0.00690777156884978 
0 
0 
-0.09329309753573534 
-0.08441747858606274 
0.1783309082309949 
0.3105835282656582 
0 
-0.1275378491941282 
0 
0 
0.06493838070011339 
0.2126947850917203 
0.04910283279514225 
-0.05898935874139921 
0.00185963757453797 
0.002091196306430173 
-0.1138882279943073 
0.001358758851131084 
0 
0 
0 
0.2354004284110593 
0 
-0.0002780561998790049 
0.2696696897840679 
-0.1486686294773441 
0 
0 
-0.1547499011461277 
0.2214383630248979 
-0.1008455212567727 
0 
0.079502023215962 
0 
-0.3266966094998872 
0 
0.7452551508214699 
0 
-0.8741854141709944 
0.1231671993009051 
0.2437744489463371 
0 
0.05419033416491822 
0.1740526846232915 
-0.382040784423713 
-0.2308022711720187 
0 
0 
0 
0.1979339764670703 
0 
0 
0 
-0.1475115070499849 
0.3295491212198282 
0 
0 
-0.07460518545338796 
0 
0 
-0.1395829044519395 
0.5559745863374668 
0 
0.1043637759355429 
0 
0 
0.07247522886963535 
0.04100378550520543 
-0.0001350392481082559 
0 
1.233423702102831e-06 
0.3328933872488838 
0.1606297880125396 
0 
0 
0 
-0.1113568056613481 
0.2791955395538078 
-0.1081920839999809 
-0.06962094695739306 
-0.1433071866373828 
-0.0001330910738083075 
0 
0.0001429214930172012 
0.07542849173166166 
-0.01392494262044621 
0 
0 
0.1253190302862806 
0 
0 
0 
0 
0.00027990822628158 
0 
0.07344840913795883 
0 
0 
-0.1505200672922717 
0 
0 
0 
0.09979388143887023 
-0.2282517042329967 
-0.07642960305073257 
0 
0 
0.0004819594625481496 
-0.06287736248141496 
0 
-0.0002972891900393979 
0 
0 
0.1562342681984636 
0 
0.1755509153890906 
0 
-0.145158831274405 
0 
-0.03532211004828787 
0 
-0.0002544577548235229 
0 
0.07539387162293242 
-0.3451932774096815 
-0.1677362443969242 
0 
0 
0 
-0.1468220561147252 
0.188892801242968 
0 
0 
0.09722272559711642 
0 
-0.2211842608245852 
0 
-0.06919794617263847 
0.2319263935225413 
-0.162281133549793 
-0.2049006230586157 
0 
0 
0 
0 
0 
0 
0 
0 
0.782545316960047 
-0.5853421126148014 
0 
0.2734735105378547 
0 
0 
0 
-0.3411055690370761 
8.23432621289485e-07 
0.1967533035290825 
0.0002536051972043263 
0 
0 
0.4412087246341971 
0 
0 
0 
0 
-0.17080356315153 
0.1967533035290825 
0 
-0.2312775623631909 
0 
0 
0 
-0.02415800801251299 
0 
-0.3430786607005197 
0 
-0.1398184307572375 
-0.2259431097166413 
0.1366981121884182 
0 
0 
0.1675077034047536 
0.05237711752404477 
0.1270793244628519 
-0.5486410053499406 
-0.1054885670364962 
-0.1389494756282668 
0 
0 
-0.05610090522931835 
0 
0 
-0.2566602898718062 
-0.1967533035290825 
0 
0 
0 
0 
0 
0.1495003741005633 
-0.3225821182065282 
0 
0 
0 
0 
0 
0.2028741169722741 
0.1615852812617808 
-1.283236272245218 
-0.1967533035290825 
-0.2442199925994589 
0 
0 
0 
-0.03005991403553268 
0 
-0.3415779520253843 
0 
0 
0 
0 
0 
0 
0 
0 
-0.07323806345663662 
0 
0.3219909327307931 
-0.2375384825684358 
0.0001163706632339876 
0.1254539953590103 
0 
-0.2609349855266943 
0.2658853192948121 
0 
-0.2880943982593681 
0.1755098724108013 
0.4353260841684585 
0 
-0.1294923201156369 
-0.2794182960028468 
0 
-0.2092582427648183 
0 
0.1140019276245742 
-0.4882732910091913 
0.2050219711223669 
0 
0 
0.201095450897764 
0 
0 
0 
0 
-0.6047458220114224 
-0.05646458985610558 
0 
-0.1220338799903272 
-0.3011328874697443 
0 
0 
0 
-0.5581666239343008 
0 
0 
0 
-0.1471743851776504 
1.677617540860184e-05 
0 
0 
0 
0 
0 
0 
-0.2686281348582369 
0 
0 
0 
0 
0.1116993006890603 
0 
-0.1539981395375576 
0 
0 
0 
0.6628438436096266 
0 
0 
0 
-0.2210561588374424 
-0.2823446228133974 
0 
0 
-0.03349751067887631 
0 
0 
0 
0 
0 
0.03584162073612481 
0 
-0.1427599756941738 
0 
0 
-0.03812956629432995 
0 
-0.1167618464688605 
-0.1649755542912008 
0 
0 
0 
0.07436708172163158 
-0.04693233532959899 
-0.1985629442312933 
0 
0 
0 
0 
2.051043620647711e-05 
0 
0 
0 
0 
0 
0.1655103278985617 
0.2002942887401864 
0 
-0.05126792906304799 
0 
0 
0.0914390958130557 
0 
0.2356199737496824 
0 
-0.01297844565178108 
-0.1444508806749945 
0 
0.1270222179683674 
-0.0002087731744887269 
0 
-0.1393762254996013 
0 
0 
0 
0 
0 
-0.1394820316925363 
0 
0.08533099301529619 
0.3157210792914917 
0 
0 
0.1247852908052269 
0 
0 
0 
-0.3178791315401064 
0 
-0.1180922474799139 
0 
0 
0 
-0.10649203132437 
-0.3704349370074737 
0 
0 
0.2520976457177985 
0 
0 
0.1094982783134383 
0 
0 
-0.07832867584597644 
0 
0.004800223393964567 
0.0001679701247604495 
0 
0.2200563784235174 
0.1645603402496418 
0 
0 
0 
0 
0 
-0.06689476328691345 
0 
0 
0.06534625419645224 
-0.01483429313954836 
0.09322133497751894 
0 
0 
-0.1967533035290825 
-4.614768896888072e-05 
0.3051183969329928 
0 
0.08917725692287047 
0 
-0.1971845044405579 
0 
0 
0 
0 
-0.1155226655030995 
0.0002686294287549066 
0 
0 
0.1186132200132648 
0 
0.1620803879273746 
0 
0 
0 
0.02942508225451528 
0 
0 
0.5372925298909841 
0 
0 
0 
-2.581716072575512e-05 
0 
0 
-0.03092136009667154 
0 
0 
0.101317718969357 
0.1547592178592511 
0.08280489626510483 
0 
0.008565992811011135 
-0.1053185024073833 
0.01524225623977658 
0 
0 
-0.2860437833490491 
0.1146167378178581 
-0.06876569344659754 
0.2049587011770272 
-0.1202407142607001 
0 
-0.0001560112492358959 
0 
-0.1597441532102679 
0.1822735310678517 
-0.05714120381837619 
0.4094012864831518 
0 
-0.01611863535997438 
0.1888490148406049 
0 
0 
0.1943100615956759 
-0.2358034265950398 
0 
0.3907752008681015 
0 
0 
0 
-0.2345867638181595 
0.18467342430966 
0 
0 
0 
0 
0 
0 
0 
-0.1866289143094705 
0 
0.3213493463664254 
0.3030710737801021 
0 
0.1903202781738906 
0.007122176003503827 
0.2434480057480351 
0 
0 
0 
0 
-0.3065339022240693 
1.33747352992618e-05 
0.07514865417750508 
-0.06704505675725082 
-0.1638448695072756 
0.2283409886010414 
0 
0 
-0.2594776120412655 
-0.1448569597377762 
0 
-0.1967533035290825 
0 
0 
0 
0.0003771034790610395 
0.08938118496087362 
0 
0.1921159537302842 
0 
0 
0.4815030910044485 
-0.1935955383182504 
0 
0.01233155412260427 
-0.190912413021977 
-0.2482963959542929 
0 
0 
0 
0.2316567531422564 
0 
0 
0 
0 
0 
0 
-0.2174803107623856 
0 
0.05121975919009833 
-0.3106460983696296 
0 
0 
0.05810885767826911 
0 
0 
0.0003512809457783951 
0 
0 
-0.02434215981480565 
-0.3905359025686635 
0 
0.1683689692797469 
0.1341370077164855 
-0.04505046820195258 
0 
0 
0.04973032548212482 
-6.645755433708774e-06 
0 
0 
0.7118176718284446 
0 
0 
0 
0.3726718274261916 
0 
0 
0 
0 
0 
0 
-0.2447417694505412 
0.05047150627437043 
-0.6706260230232631 
0.3754075727932951 
0 
0.003580266535071097 
0 
-0.09241819112051146 
0.1096510922812159 
0.1971905325328654 
0.1620930681871375 
0 
0 
0 
0.3328933872488838 
-0.001014384227830431 
0 
0.344626720157754 
-0.1968741224315778 
0 
-0.007566605274513329 
0 
0 
0.2468884561915113 
0 
0.2421881576609562 
0 
0 
0 
0.2283409886010414 
-0.220269717302836 
0.3168452094998563 
0.2496771292217064 
0 
0 
-0.07966437286906836 
0 
-0.510725833308428 
0 
0 
0 
-0.3040188533035689 
0 
0.2104845311615716 
-0.3535414979481007 
0.2656469240562173 
0.05387101247099792 
0.5230991980737986 
-0.2658126782047484 
0.3061410327263399 
0.01725544624087418 
0.1747837832889453 
0 
0.1905004730230224 
0 
0 
0.1515752717583129 
0.2200563784235174 
0 
0 
0 
-0.544147866689397 
0.1126736716073709 
-0.2132815104026157 
0 
0 
0 
0.4138690564813017 
-0.5065486528351064 
0 
0 
0 
0.1461872977164884 
0.1738473733131524 
0 
0 
0 
0.1312220855383393 
-0.1548477941585608 
0 
0 
0.1907235088791011 
0.1066117211325986 
0 
0 
0 
-0.1379367767568272 
-0.07017995755450547 
0 
-0.2836552744095828 
-0.1770568835659306 
0 
-0.1501110437365724 
-0.09125918227046471 
-0.3277012507503413 
0 
0 
-0.1847756630318204 
0 
0 
0 
7.985287253755772e-05 
0 
0.1664466936244419 
-0.02371629244574682 
0.1846629808779219 
-0.1588670688948762 
0.1163290401402997 
-0.1684311826075043 
0 
-0.3596628276621159 
0.2749243609227485 
0 
0 
0 
0 
-0.1428607023754267 
0 
0 
0.1360057638359861 
-0.0745588893645401 
0.1315325614938178 
-0.4791499980810079 
0 
0 
0 
0 
0 
0 
-0.1559720662090422 
0 
-0.2982825223516885 
0.1995683521957968 
0.2585054721742152 
-0.2094541208442788 
0 
0.00165419252966391 
0 
0 
0.1967533035290825 
0 
0 
-0.1643553387291382 
-0.1365778558929399 
0.1664466936244419 
0 
0 
0 
0 
0 
0 
0 
0.1158375499952141 
0 
0 
0.1967533035290825 
0.09515354185423909 
0 
0 
0.4931138276704189 
0 
0 
0 
0.05604663263512616 
0 
-7.968571711621592e-06 
0 
0 
0 
-0.3830130766522709 
0.2816704791722252 
-0.1967533035290825 
0 
0.07445906686537032 
0 
0.000332835593463444 
0 
0 
0 
0 
0 
-0.0001297393068804384 
-0.04443825589404335 
0 
0 
-0.1293500574003643 
0 
-0.0001661881777224886 
-0.2633797599768666 
0.1664466936244419 
0 
0 
-0.1801579460536975 
0 
0.06687016336577359 
-0.1945920053627764 
0 
0 
0 
0 
0 
0 
0.03030282374124633 
0.1998033614179295 
0 
0 
0 
0.5037854353415174 
0 
0 
0.06364160093023422 
0 
0.7701127950135419 
0.1332442609391275 
0 
0 
0 
-0.1656820876936181 
-0.3717830515217727 
0 
0 
0 
0.07301029723658181 
0.02749979594498123 
0 
0 
-0.06225421487002553 
-0.5171374305905606 
-0.1638448695072756 
-0.1975796592663403 
0 
0 
0 
0.1086334754328478 
0 
0 
0 
0 
0.2631233664487677 
0.1699044440515507 
0 
-0.04987013676305944 
-0.1936562792130448 
0 
0 
-0.1253461572100571 
0 
0 
-0.1483618327781527 
0.5297662523989854 
0 
0 
0.2078444372540191 
0 
0 
0 
0 
0.2301829484344919 
0 
0.1830777755471041 
-0.2160846434206107 
-0.1360338502858327 
0.0002369234992232946 
0 
0 
-0.1917394508129824 
-0.475156150703423 
0 
0 
0 
0 
0.0006204574307659434 
0 
0 
-0.0008616555041907441 
0.1586437105508193 
0 
0.0001901627025671861 
-0.02513990238856812 
0 
0 
0 
0.1304189359506522 
0 
0 
0 
0.2392247010714479 
0 
-0.1525272793217631 
-0.1973195566225251 
0 
-0.2688389850579906 
0 
0 
0.4276590341095312 
0 
0 
0.09928342018142426 
-0.05500450426284943 
0 
0 
0 
0 
-0.1046715350956331 
0 
0 
0 
0 
0.1653379785912106 
0 
0 
-0.6994088725494521 
0.3970162619528421 
0.002002083813281739 
-0.0007487526804527671 
-0.1176517736041859 
-0.005338584154967697 
0.06763917937066496 
-0.2202496530177123 
0 
-0.2890876410609911 
0 
-0.1967533035290825 
-0.0005074215435982147 
-0.5370827598696005 
-0.133962873977936 
-0.357837785171394 
0 
0.0001255492717761771 
-0.1453728198227438 
0 
0 
-0.06250110612640354 
0 
0.1968799027823133 
-0.1836204808714748 
0.05181174610015439 
0.1616893191990763 
0 
0.3403238091628182 
0 
0 
-0.3007848623547531 
-0.1660989296704236 
0.1429303137892297 
-0.160497684121417 
-0.09507979994625061 
-0.2811335571711572 
0 
0 
0 
-0.1250762684597108 
0.1255237292174018 
0 
0 
0.1832578805572102 
0 
-0.1708079547688663 
0 
0.001028900444335823 
0 
0 
0 
0 
0 
0.0003024266331861973 
0 
0.4532400406921857 
0.3356614839530076 
0 
0 
0.000116904056597676 
0 
0 
-0.0582893951870416 
0.02947093873661249 
0.08065480662849749 
0.06797943623874146 
0.3842024461932265 
0 
0.4551245822982001 
0.2547098436758453 
0.03647017361566006 
0 
-0.2751628251992976 
0 
0 
0 
0 
0 
0 
-0.09522670048160216 
0 
0.04277274675440178 
-0.1445559030909856 
-0.3041800881518567 
-0.0906627280114268 
0 
0.1960315545727022 
-0.1967533035290825 
0 
0 
0 
0 
0 
0.2681537391602465 
4.977600990296234e-05 
0.1580496854236299 
0.3038510866065697 
0.718604691495223 
0 
0 
0.2201246309747263 
0.1163579453816754 
0 
0.03351145000393946 
0 
0.0002152426827251678 
-0.1482840217332238 
-0.1432586966744308 
0.3905146938120884 
-0.2541246547674489 
0 
0 
0 
0 
0 
0.06922314741373557 
0 
-0.02973923222120142 
0 
-0.1645897480296231 
0 
0.2153472168845858 
0.2242376947179049 
0 
0 
-0.002403401915789985 
-0.04635207741104533 
0 
0.1570799766364271 
0 
0 
0 
0 
0 
-0.1683357802495549 
0 
0.1683396718299157 
0.01527625286295964 
0 
0.0648086379912431 
0 
-0.2997430578700427 
0 
0 
0 
0 
0.1258423018940535 
0 
0 
-0.1967533035290825 
0.1670602419716466 
0 
-0.0699058178478561 
0 
0.04171316062038025 
0 
-0.1619289465290013 
0.1728771393574276 
0 
8.070721203231712e-05 
0 
0 
0 
-0.01526298645692205 
0 
-0.134514103232772 
0 
0.01726387579804461 
0 
0 
-0.2620973988695032 
0 
0 
0 
0 
0 
0 
-0.06221844780878192 
-0.03968156671948968 
0 
0 
0 
0.1219445535595275 
-0.01831323916415138 
0 
-0.1743909189254431 
0 
-0.3617715484949874 
0 
0 
-0.1967533035290825 
0 
0 
0 
0 
0 
0 
0.2352378018016318 
-0.1395033491547136 
0 
0 
0 
0 
0 
0.233000701650614 
0.5403832548197198 
-0.3843692885920915 
0 
0 
-0.1489758672618441 
0 
0 
0 
-0.06366064168266752 
0 
0 
0.03655120517297504 
0 
0 
0.05091309439154631 
-0.3299534134610969 
0 
0 
0.1033236243932935 
0 
0 
-0.8610309568528451 
-0.3057040432415307 
0.1967533035290825 
0 
0 
0 
0 
0.2273442976822486 
0 
0 
0.05126013574073744 
0 
0 
0 
-0.05064490035532266 
0.01516445509009425 
0 
-0.08301345540855379 
0 
0 
0 
0 
0 
0 
-0.09724799124929139 
0 
0 
-0.2047244469076762 
0.1202741298348276 
0 
0.0940478622243202 
-0.1104711578825336 
0 
-0.01411994185772659 
0.434677043555091 
-0.161719231508852 
-0.0338477264085254 
0 
0 
0 
0 
0 
-0.04249852297292226 
-0.1022822017765698 
-0.1967533035290825 
0 
-0.0282222373572712 
-0.1809178721710815 
0 
0 
0 
0.001525261732532727 
0 
0 
0 
0 
-0.006861081622174733 
0.6813776064739437 
0.1962904113021959 
0 
-0.6956844357964829 
0 
0 
-0.1412688208525809 
0 
0.2614671971632067 
0 
0 
0.1083117657960947 
0 
0 
0 
0 
0 
0 
-0.1077867881654647 
0 
0.3291799196030341 
0 
0.07600663268923569 
0 
0 
0 
-0.1822091959665767 
0 
0 
0 
0 
0.03672821892629263 
0 
0.1334437401947377 
-0.1378799729968667 
0.2729257758349675 
0 
0.04690848856446131 
0 
0.06943427311229994 
0 
0 
0 
0 
-0.1967533035290825 
0 
0 
0 
0.263053029796949 
0 
0 
0 
0 
0.1935244359237123 
-0.2702976680076413 
0.1434778954996947 
-0.001718090171153264 
0.3581219975299456 
0 
0 
-0.6846928471493449 
0.2018089427034588 
0 
0 
0.1586867783535244 
0 
0 
0 
-0.1125046833877751 
0 
0 
-0.2151188709360195 
-0.09180120685268829 
0.2211951473096672 
0 
0.3485205459686162 
-0.03613161729696558 
0 
0 
0 
0 
0.3164276957405188 
0 
0.390412633916574 
0 
0.02259460726326585 
0.02329413582108539 
-0.2108725929815318 
0.01065501981551081 
0 
0 
-0.3455241194816367 
-0.1249762149098687 
-0.1235602014378671 
0 
0 
0 
0 
0 
0 
0 
0 
0 
0 
-8.650677329174273e-05 
0 
0 
-0.07136071776529586 
0 
0.2087135471156218 
0 
0 
0.03279343722622308 
0.145831985444595 
0 
0.1588805138885592 
0 
0.4157681908911101 
0 
-0.1967533035290825 
0 
0 
0 
-0.08222366174675386 
0 
0 
0 
0 
0.01495814500301735 
-0.007049830631292435 
0.05419917921715273 
0 
0 
0 
-0.1904293353377932 
0 
0 
0 
0.4816097812323712 
0 
-0.06034576503566894 
0 
0 
-0.257385034851071 
0 
0.245091473397981 
0 
0.1110114495163188 
0 
0 
0 
0 
0 
0 
0.1799028366097937 
-0.1967533035290825 
-0.04056469590569847 
-0.00178215888146117 
0 
0.1823810737132835 
-0.1597665185379145 
0 
0 
0.05288540754614961 
0.3849562622672412 
0 
0 
-0.2602256380754371 
-0.2769801137481495 
0 
0.033363679218185 
0 
-0.09382794443465069 
0.2561385811698639 
0 
0 
0 
0.3399130353220661 
0 
-0.07566663499516049 
-0.01889086311621989 
0 
0 
0 
0.6690758730514429 
0 
0 
0 
0.2249409588095084 
0 
0 
-0.07930653826582634 
0.1728241560502549 
0.0009639189250962993 
0 
0 
0.3437014577507175 
0 
0 
0 
0 
0.1112829491230335 
0 
-0.01900607199285554 
0 
0.4849608280252483 
0 
0 
0 
-0.1800549500682967 
-0.1206150876043282 
0 
0 
0 
0 
0 
0 
-0.08118060393222021 
0 
0 
-0.4124937552043826 
0 
-0.08394057988560265 
-0.04566144670938641 
0 
-0.2556069515797346 
-0.1152410695307798 
0 
-0.1655272471603198 
0 
0.8328880724626205 
0.08977863846304038 
0 
0 
0 
0 
0 
-0.1730444086244065 
0 
0 
-0.03769979224740566 
0 
0 
-0.09905285986318231 
0 
0 
-0.02510119502176607 
0 
0 
0 
0 
0 
0 
0.1179749972744422 
-0.04503881758163718 
0.000237716542825635 
-0.3635747869563253 
0 
0.2698083600112167 
0.1264065026992425 
-0.1555816854386377 
-0.2563402118592821 
0 
0 
-0.2665027496970774 
0.0004242488542715024 
0.2778017131046365 
0.1015662360414132 
0 
0.0703879674475297 
0 
0 
0 
-0.05475840036770185 
0 
0 
0.1745666718587171 
0 
0 
0.1588786142501585 
-0.05658742481550489 
0 
0.3261686065831332 
0 
0.3988771948931951 
-0.02492155400391641 
-0.03968156671948968 
0 
0.1967533035290825 
0 
0 
-0.3350937967873893 
-0.334505912572834 
0.0001437346569278518 
0 
0.1766219997856068 
0 
0 
-0.08734049376609054 
0.1967533035290825 
0 
-0.323371219583531 
0 
0 
0 
0.1955727123961345 
0 
-0.06673460432864169 
0.07598632051955086 
0 
-7.363342790689666e-05 
0 
0.08216403911294487 
0 
0.0003323141359348868 
-0.0289828551233994 
-0.06924367716662563 
-0.1272523260655019 
0.1967533035290825 
-0.5294991201070687 
0 
0 
0 
0 
-0.059896510678794 
0.0003526798655282739 
-0.01035344078073852 
-0.2440647040138407 
-0.0938700564143234 
0 
0 
-0.4752772842873459 
-0.1000590420264167 
0 
0 
-0.1346637378137104 
-0.3405187907240256 
0 
-0.2178277465547739 
0 
0.06045296755855477 
0 
-0.176883775093265 
0 
0 
-0.2956828064845882 
0.2928365601181344 
0.2682167769084008 
-0.4212474180302065 
0 
-0.005003119469012611 
0 
0 
-0.2105346468983594 
0 
0 
0 
-0.0001346137889815968 
0 
0 
0 
0.345207713893834 
0.07600663268923569 
0.144339021814083 
0 
0 
0 
0 
0 
0 
-0.5759663280962929 
0 
0.438889094079598 
0.2623042044889669 
0 
0 
0 
0 
0 
0 
0 
0 
0 
0 
0 
0 
0 
-0.4448334604374309 
0 
0 
0.006064853089560517 
0 
0 
0 
-0.0222513253093895 
0 
0 
0 
0.0005070785094116921 
0 
0 
-0.1186968720163096 
0 
0 
0 
0 
0.1143024771027615 
0 
0 
0 
-0.1331334008393171 
0.2545783698092791 
0.0006142484672431447 
0 
0 
0.2702977903775028 
0 
-0.1000525066522422 
-0.04949326760967543 
0 
0 
0 
0 
-0.06353193658013266 
0.5003413749525008 
0 
0 
0 
0 
0 
0 
0 
-0.002994733893276752 
0.2332651222380459 
0 
0 
-0.0005011462377159377 
-0.000159346436622863 
-0.1804752326334663 
0 
0 
-0.0002033776956932785 
0 
0 
-0.5355662120243415 
-0.262420944097472 
-0.09872236441343327 
0 
0.1327330383445418 
-0.5245540614540347 
0.3233978848833506 
0.0572884059107891 
0 
0 
0 
0 
-0.244890710473005 
0 
0 
-0.06730768078032537 
-0.2411710603225473 
0.1928784670662257 
-0.04053253844941931 
0 
-7.654388264268929e-06 
0 
4.906574264342627e-05 
-0.1030673297507479 
0.2018191996089337 
0 
0.2146125833012562 
0 
0 
-0.1967533035290825 
-0.1333629323876112 
0 
0 
0 
0.2552228369587748 
0.036118936279181 
0.04278800262662759 
0 
0 
5.670330987333691e-05 
0 
0 
-0.0923098460705525 
0 
0 
0.2168343928512108 
0.1479461142452394 
0.564958972062075 
0 
0.006291725335511216 
-0.1085241195827397 
0 
0.1664466936244419 
0.08928533774075689 
0 
-0.1063028785058504 
0 
0.3883809262419004 
0.1457636560680077 
0 
-0.1318456978564959 
0 
0 
0.0002179579489651704 
0 
0 
-0.000251682130994673 
0.02456746633811358 
0 
0 
-0.1901153715877199 
0 
0 
-0.0001330910738083075 
0 
0 
0 
-0.4976106650584211 
0.1191636313767375 
0 
0 
-0.1714952511872049 
0 
0 
0 
0 
0 
0 
0 
0 
0 
0 
0 
0 
0 
0.2439517990695457 
-0.3566049803402774 
0 
-5.306970909122995e-05 
0.1672891803017244 
-0.1979279125900851 
-0.0002696989638697291 
0.256289790637107 
0.1664466936244419 
0.198996123495456 
0.2220410683456558 
-0.2936556954503553 
0.1967533035290825 
0.2481969448428284 
0 
0 
0 
0 
0 
0 
0 
0 
0.1238454647326797 
-0.09066894998407898 
-0.02868362382916066 
0 
0.1353578377456822 
0.1976454678291096 
0.05095461658892065 
-0.0895771905691255 
0 
0 
0.1967533035290825 
0 
0 
0 
0 
0 
0 
0 
0 
0 
0.1967533035290825 
0 
-0.04880913534309049 
0.08279122121233716 
0.02030407925346163 
0 
0 
-0.0002547131053370291 
0 
0 
0 
0 
0.2166875407764219 
-0.2686665761377841 
0 
0 
-0.1260608392667472 
0 
-0.0844567931260822 
0 
0 
-0.004640402008635258 
0 
-0.1968074118382898 
0 
-0.001002136992074916 
0.09268877142934802 
-0.4487039570256092 
0 
0 
0.1934375389878674 
0 
0 
0 
0 
-0.1728954072638658 
0 
-0.52257894576014 
-0.1876885762418447 
0 
0 
0 
0 
0.191073447385394 
-0.4446551116252479 
0.6931255151788526 
0 
0 
0 
0.1107826876901667 
0 
0 
0 
0.001139740214935146 
0 
0 
0 
0 
0.09421012928947656 
0 
0.1251085529750686 
0 
0 
0 
0 
-0.191553666146573 
0 
0.3930162143976829 
-0.1967533035290825 
0 
0 
0.3258310552150426 
-0.0001286880263720269 
-0.3576309271749553 
0 
-0.1699124738940465 
0 
-0.07354198952614897 
0.1812000405483778 
0 
0 
0 
0.01142169215167975 
0 
0 
0.1513173662572265 
0 
-0.4401060563597118 
-0.04061911197738223 
0 
0 
0 
-0.2330511731711701 
0.1307009498978085 
-0.1402557150608714 
-0.1487414920053378 
0 
0 
0 
0 
0 
-0.09007654243061022 
0 
-0.1611751124378213 
0 
0.1406462200367033 
0.1832116718250457 
-0.1081114653927216 
0 
0.06083701299997224 
0 
0 
0 
0 
0 
-0.03246149631724213 
0.2124604869956386 
0 
0 
0.07086347369391049 
0 
0.1967533035290825 
-0.1967533035290825 
0 
