solver_type L2R_L2LOSS_SVC
nr_class 2
label 1 0
nr_feature 79548
bias -1
w
0.0005392571853794028 
0 
0 
-0.000119217348980663 
0 
0.1051072813901341 
-0.125275550785957 
-0.09355747774005996 
0 
0.2033834665964035 
0 
0 
0.0646131449189413 
0.3885099107844916 
-0.07323259410166823 
0 
0.1216385389736381 
-0.1687703801649423 
-0.1299409872307606 
0.04195060734679108 
0.06165261454422205 
0 
5.835899984395925e-06 
0.4497451303584977 
-0.07765168055141855 
0 
0.0004133894162592819 
0 
-0.203251507436532 
-0.00936980298943697 
0 
-0.3920151632912088 
-4.826249548896017e-05 
0.0624256174266542 
0.07912420743707409 
-0.221201687653321 
0.0003637171168366033 
0.00231960558336487 
-0.1472260910928888 
0.07818933273708466 
0.1141888198037389 
-0.2570341909098317 
0 
-0.1751279586229121 
0 
-0.02985963083191686 
0.01328733472983551 
0 
-0.02486965290927663 
0 
0 
0 
0.01940734564679968 
0 
-0.04520653266497816 
0 
0 
0 
0 
0.07374268048820089 
-0.266205733788025 
-0.1819020469715971 
0.3066083085529915 
0 
0.005230494722873456 
0 
-0.06570255951010301 
-0.06543319625015312 
0 
0 
-0.1259450413997106 
0 
0 
0 
-0.0004902416008407693 
-0.05625992827769476 
0 
0 
0.1055672925125757 
0 
0.09922455341196028 
0.1192426123195202 
-0.0887988630440571 
0 
0.107482548530519 
0.2082102424063232 
0 
0 
0 
-0.09193677688607821 
0.1212533714764678 
0.1202337933377144 
0 
0.0002879573190297711 
0 
0 
-0.09421427823092866 
0.0006190483256047607 
-0.05960052158565702 
0.1382365218028622 
-0.08422648583193425 
0 
0.09826530486232084 
-0.1856910137398857 
0.01745140071116093 
0 
0 
-0.0067011104502466 
0 
0.04420826708725049 
1.826328293419793e-05 
0 
0 
0 
0 
0 
-0.08453810210900894 
0 
0 
0 
0.1055672925125757 
0 
0.1447378267182461 
0.0192488053342008 
3.529059073496853e-05 
0 
0 
0 
0 
0 
0.01699448793263189 
-0.05672969865366446 
0.05677982782866581 
0 
0 
0 
0.194408598106436 
-0.02965271262336915 
0.001004946910077728 
5.888441963786963e-05 
0.2456398431797224 
0.09882758530330803 
0 
0 
0.0239135383559598 
0 
0 
0.0002771115324313406 
0 
0 
0.09250521943123256 
0 
0.1055672925125757 
-0.1157927140151458 
0 
-0.06745549497117202 
0 
0 
-0.06492481085841134 
0.1958723232756273 
0 
0.09911886148512764 
0 
0 
-0.06035802301607322 
-0.03665887291648356 
0 
0.1637580141164961 
-0.007465994674143429 
0 
0.008161572035849489 
0 
-0.1108033065487693 
-0.07676096083986529 
0.02018236662393439 
0.5874974759411945 
0 
0.004694189428671464 
0 
0.09210403009864562 
0 
0 
0.3058599294825624 
-0.09931907267984638 
0.04083933219709206 
0 
0 
0 
-0.1132220762938951 
0 
-0.1009891278183109 
0.1017104215316309 
0.07775313468659595 
0 
0.1410866732930569 
0 
-0.3661102997343205 
0 
-0.03075772649079598 
0.03769056449901797 
-0.152836618171742 
0 
0 
-0.1262224849593982 
-0.1384320646001378 
-0.0593086649628381 
0.03334517712287277 
0.1315088548284223 
0 
0 
0.1167705602499736 
0 
0 
0.1055672925125757 
0 
0.06327118677808921 
0 
0.09296355552194477 
0.06958028786404613 
-0.01701816757355299 
-0.1907968603965919 
0 
-0.1608325254340001 
-0.0005216621451135839 
-0.0007237712648265698 
-0.2208348135831048 
0 
0.01992536561949836 
0 
0.09787234588036878 
0.1377055998407532 
-0.07612668757112158 
-0.04515488919199476 
-0.1028142315805981 
0 
0 
0.1632559511424595 
0 
0 
0 
0.243610741056214 
0.01445091555483831 
0 
0.0004992749809930547 
0 
0 
-7.253021349135135e-05 
0 
0.0318410725558467 
0.02768085746641411 
0 
0 
-0.1546940367739967 
0 
0 
-0.1628336222192243 
0 
0 
0 
0 
0.2265551132306904 
-0.1258020060355109 
0 
0 
0.05376806759622526 
0.0007929449571625209 
0 
-3.988961174358486e-05 
0 
0 
-0.09966557836776485 
0 
0 
0 
0.125125312385981 
3.970647281524407e-05 
0.07794383056871174 
-0.03159625939919243 
0 
-1.863301712389511e-05 
-0.4446394221828313 
0.2317866470907033 
-0.2834256598664017 
0 
0.08031977015275507 
0 
-0.06328273739019925 
0 
-0.01487445514764905 
0 
0.0004489666932582335 
0 
0 
-0.1988909371599752 
0 
-0.01149192666239927 
0 
0 
-0.1055672925125757 
0.2097361846164355 
0 
0 
-0.02158639343780943 
0 
7.633231416029503e-05 
0 
0.1277158578172971 
0.1015231847033685 
-0.1094528728998444 
0 
0 
-0.374496444241664 
-0.5497943564771728 
0 
-0.04003860993001134 
0.04275687502700448 
-0.2403108626712225 
0.05080404708043459 
0.0001589623199649334 
0 
0.1055672925125757 
0 
0 
0 
0.2034297899949538 
0 
0 
-0.2679694623184339 
0.0143792238329634 
-0.1055672925125757 
0 
0 
0.0885859916997048 
0 
0.02940284614719247 
-0.1055672925125757 
-0.1823934825341823 
0 
0 
-0.279959527131323 
0 
0 
0 
-0.1085098349214205 
0 
0.09188105777770358 
0 
-0.1022165986569464 
-0.02788288899800182 
0 
0.1596202880871601 
0 
-0.01746019937991859 
0.1348309257678227 
-0.1145334634276328 
0.1012300823755675 
-0.1023278811522955 
0 
0.02961073677664384 
0.5632668778899833 
0 
-0.01111744199133415 
0.04267180380630688 
0 
5.924668437898145e-06 
0 
-0.1098465103356173 
0 
-0.0143438746647502 
0.05478623277690356 
0 
0 
0.03863601290832816 
-0.440096099204385 
-0.1672519865597114 
-0.1219019546829333 
0 
0 
-0.06806813741083928 
0.2485529713512909 
0 
0 
0.04215591609309655 
-0.08943187832385656 
0 
0.07767032064378568 
0.07019632053936789 
-0.0911257690070304 
0 
0 
0 
-0.102516304351716 
0.08802347718129908 
-0.07574254935787725 
0 
0.1599097638962156 
-0.02094101472690444 
0.1055672925125757 
0 
0 
-0.05849481900780604 
0 
0 
0 
0.05378167765243239 
0 
-0.2091232617937807 
-0.1900172509345928 
0 
-0.1172063423797975 
0 
0 
-0.09722861787894055 
0 
-0.1531054035688856 
-0.0002237556284029911 
0.07910424855614107 
0 
0.007235724624544177 
9.2146775852449e-05 
-0.01459109207859442 
0 
0.03761284991471649 
0 
0.02299809480240701 
-0.05929712134291891 
0 
0 
0 
0 
0 
-0.1137991976502308 
0 
0 
-0.04754299084416257 
0 
0 
0.0001888682002231248 
-0.06429305037869926 
0 
-0.1767873484490264 
-0.1013160806744377 
0 
0 
-0.1127410075865038 
0.1613804118718963 
0.1123765761482159 
0.07192345296227318 
-0.04507338522205846 
0 
0.2363661442476693 
0 
0 
0 
0.1055672925125757 
0.2010396979609992 
-0.01544520089906285 
0 
0.1055672925125757 
0 
0 
-0.0003425043748809665 
-0.08697277652194246 
0.3886744170459214 
0.2931511982973444 
0 
0 
-0.373628400330294 
0 
0 
0 
0 
0 
-0.01380053079558749 
0 
0.1061122727703283 
0 
0.0001487798781785813 
0 
0.06497127474134713 
0 
-0.07377547062623595 
0 
-0.4471524659595852 
0 
0.1055672925125757 
0.1297471260230703 
0.2768821318227376 
0 
0 
0 
0 
0 
0 
0 
0 
0 
-0.5137984050771913 
-0.05438895236049848 
-0.09888900017607105 
5.100925983739506e-05 
0 
0 
-0.03067256298934487 
0 
-0.04515535948749175 
0.02235476136500865 
-0.0990935767224172 
0 
0 
-0.03957229729423038 
8.887578005301347e-07 
-0.07442694068784073 
-0.2357391231604367 
0 
-0.01792709166375979 
0 
0.0004102938339469407 
0 
0 
0.0008910419065393204 
0.1444813650472404 
0 
0.2601564801778996 
0.1179110705833092 
0.09654907805216537 
-0.1231486076924664 
0 
0 
-0.1057986956010895 
0 
0 
0.1537052990239373 
-0.0114332064949051 
0 
0 
-0.2569741939088223 
0 
-0.1028249910896529 
-0.05703231123590606 
-0.163456835528202 
0.09425270025834047 
0.1166822004617326 
-0.09923187634803432 
-0.05818706364666614 
0.084027756830981 
0 
-0.02909424766090719 
0 
-0.114109101393584 
0 
0 
0.2772000072770308 
0.09179219070830469 
0 
-0.3108635351920684 
-0.2525106334119982 
0 
-0.03052468254189876 
0 
-0.1425713303228756 
0.1013201052278781 
-0.1471114414818684 
-0.05201623260403365 
0 
0.002461488804934242 
0.002780809869643883 
0.08965228165265127 
0 
-0.1811362162661271 
0 
-0.4674927039735355 
0 
0.1284577749384205 
0.03626236257090189 
-0.0911257690070304 
-0.1393060210672226 
0 
-0.03188087658985507 
-0.09818220850880113 
0 
0 
0 
0 
0 
0 
0.04364771258224037 
0 
0.04465046103996714 
-0.02003965157684507 
0 
-0.09634278927218612 
0 
0 
0 
0 
0 
0 
-0.148636033638331 
0 
0.07122262475002292 
0 
0.000346372640058687 
0.1293996038080095 
0 
0.205878427377593 
0 
0 
0 
-0.09488028225482879 
-0.2309757843339 
0.08099948135711144 
0 
-0.1093811513303249 
0.000423543985671586 
0 
0 
0.05371654589140732 
0 
0 
0 
-0.1094715766945778 
-6.997574285222511e-05 
0 
0 
-0.1055233747782644 
0 
0.1055672925125757 
0 
-0.2433173316331497 
0 
-0.0003109243802163991 
0 
0.1082962239389849 
0 
-0.07001326907670848 
0 
0 
-0.03943887950996174 
0.1025334775236122 
0.07004793405957403 
0 
0.2598212241347101 
0 
-0.06724057620615259 
0 
0 
-0.1048718722665235 
0 
0.1297018582963951 
0.1121294626637845 
-0.1749135869732258 
0.06219001482000015 
0.07708913792530306 
0 
-0.08721043898975044 
0 
0 
0 
0 
0 
-0.2876699577596236 
0.08178711569127789 
0 
-0.188793964860153 
-0.006073153661386917 
0 
0 
-0.1186736827726702 
0 
0 
0 
0 
-0.4484123469047871 
0 
0.0002951728978639958 
0.3325293088749736 
-0.07952917387580161 
0 
-0.000181371032570167 
0 
0.001113207045863335 
0 
0 
0.1019215439218075 
-0.0815557654158082 
0 
7.75780559126626e-05 
0.1046025335524776 
-0.2709928328258061 
-0.09648583040152317 
0 
0 
-0.06508551787230127 
0 
0 
-0.1936143623160027 
0 
-0.1190427071379558 
-0.2816698520620887 
0.2014157927107527 
0.07239151325627451 
-0.103179114888727 
-0.07478499538662865 
0.1328537651612687 
-0.4870775410607296 
0.01781008704625608 
0 
0 
-0.1165050036709928 
0 
-0.1065613421975483 
0 
0 
0 
5.198840912177391e-05 
0 
0 
-0.1347552523089088 
0.03499197142131155 
0 
0 
0 
-0.01477336399623033 
-0.02576721429472047 
-0.236801420616525 
-0.1811675647607559 
0.1485316558998971 
0.07837928510002587 
0.09796286683276959 
-0.03220747702975776 
0.1956049276317896 
0 
0.0002457331567137001 
0 
0.098845174436981 
0 
0 
0.06689932981203213 
-0.07575428749069098 
0.1055672925125757 
-0.0003928447775349885 
0.04390961673858094 
0 
0.0003327709424438496 
0 
0 
0 
0 
0 
0 
0 
0 
0 
0 
0.0001489048379420399 
-0.05008514133908086 
0.08832905476410988 
-0.07531130516231148 
-0.002450845739399259 
-0.275513617428381 
0 
0 
-0.2199027245716776 
0.0001777611942699746 
0 
-0.4156909454036178 
0 
0 
-0.1798801691120235 
0 
0 
0.196900292580683 
0.2162921545520387 
0 
0.03832443015882712 
0 
0.07650309120076956 
0 
0.01360569138549525 
-0.00755056960622197 
0.5278005148796375 
0.0743032858970952 
0 
0.08975784184956842 
0 
-0.07460373942329573 
-0.081315319815208 
-0.0937596078679431 
0 
-1.244795841437021e-05 
0.1489514689674124 
0 
-0.139827798631165 
0.2387418836147184 
0 
0.0003886644615838616 
0.163386023003354 
0 
0 
0 
-0.1118485232747219 
0 
0 
0 
-7.52902894228237e-05 
0 
0 
0.1133048864684099 
0 
0 
-0.1283525300874283 
-0.007569813911425458 
0.1211171479803453 
0.2118216998205647 
0 
0 
-0.0001029164156808961 
0 
-0.2548711227241249 
-0.1401277160939527 
-0.09939187568871466 
0.2065433321813192 
-0.0007888371623428767 
0 
-0.01139303759855452 
-0.07232578135581762 
0 
0.1003677695657101 
0 
-0.1055672925125757 
0 
-0.1278273705215778 
0 
0 
0 
0 
0.06509023372983251 
0 
0 
0 
0 
0 
0.001224380663835819 
-0.09982123700150072 
0.08211437348463788 
0.03485218050141331 
0 
0 
0 
-0.1188825375924989 
0 
0 
0.003672290936661878 
-0.0001341809951286167 
0 
-0.02208767213630442 
0 
0 
-0.205632977109654 
0 
0 
0 
0 
0 
0 
0 
0 
0 
0.4172551043229727 
0 
0 
0 
0 
-0.03646903219034795 
0 
0 
0.005154756261604092 
0.1511521678638342 
0.1200218557499341 
0 
-0.03065175538227655 
-0.06171648586479361 
-0.08437081920646862 
0.0002581277259219319 
0.08556966786718607 
0 
0 
0.1180148612087914 
0.000703632017340763 
0.2248789788958963 
0 
-1.207416216595482e-05 
-0.136608916154217 
0.2469280695945516 
0.02308603676799937 
0 
0 
0 
0.05830194340750035 
0.02579643175933367 
0 
-0.008332295653083653 
0.08338689805121945 
-0.3786657884085405 
2.645207778015827e-05 
0 
0 
0.06198601048863434 
0.136020382752935 
0 
0 
0 
-0.0846123396885862 
0.000629660966495665 
0 
0.1048038041023288 
6.329714255159621e-05 
-0.05527967845321663 
0 
0 
0 
-0.4369653542648608 
-0.03163578536001814 
0.2951607596098121 
0.09827109905685148 
0 
0.0002273945289767722 
0 
0 
0.04512369214499748 
-0.04013239983394448 
0.2032930772968247 
0 
0 
-0.5674970170354656 
0 
-0.09159496071876311 
0 
-0.1912752487919829 
0 
-0.1055672925125757 
0.01073692485674706 
0.1305022940272258 
0.06607862356494344 
0 
0.005483513019310089 
-1.780581349582054e-06 
-0.1055672925125757 
-0.07363786253922389 
0 
0 
0.1104484307458366 
0.4507511044715129 
0 
0 
0.1417988310271557 
0 
0 
0 
0.1332668698582955 
0 
0 
0.118803701237049 
-0.08710373311530289 
0.06749951058670575 
-6.926436103367413e-05 
0.5284992640879711 
-0.02377062077312443 
0.1511033518727089 
0.17693347396233 
-0.105361019181978 
-0.240724524191741 
-0.2039054427073854 
0.1620099326898579 
-0.1398018642973476 
0 
0.009696895771267868 
0 
0.03946024624738272 
-0.06533569226880895 
-0.1293122240943928 
-0.2875769460599146 
-0.1835408908445419 
-0.1724369929094853 
0 
0 
-0.08666276617050089 
0.06690941813194996 
0.06466961379324554 
0 
0 
-0.07088840794825042 
0 
0 
0 
0 
0.0607692207808091 
0 
0 
0 
0 
0 
0 
0 
0.2509007124874338 
0 
0.7201434186122055 
0.2188157383387829 
0.1512985585367728 
-0.07433698755399373 
-0.05185377546556843 
0.1033472500523404 
-0.02274018880244609 
0 
-0.06748812701650418 
0 
0 
0 
0.06999250969811452 
0 
0.009741222558452937 
-2.937537864494853e-05 
-0.1010058839898055 
0.1030182336209798 
-0.1328058074319537 
0.1058789858692725 
0.003344353955649736 
-0.1959257336655392 
0 
0 
-0.0638648061140001 
0.07403439158741762 
0 
0 
0.1830345262050305 
0 
-0.06822228942772943 
0.0002061390406022212 
0.1011417569168177 
-0.05276810044439061 
0 
0.1377518546613387 
0 
0.4223754041294374 
0.1506355797981087 
3.157737333249491e-05 
0.07193469831942823 
0 
-0.06773854027362193 
0.03421962179936308 
-0.2425165556448804 
0 
-0.03716090221801679 
0.01023388359024629 
0 
0 
0 
0 
0 
-0.0006452212905401892 
0.07690349706090902 
0 
0 
0 
-0.1406509176768769 
0 
-0.02952383097455403 
0 
0 
0.0002920508663425019 
-0.278646916684969 
0 
0 
0 
0 
0 
0 
0.002495238268155252 
0.02923532229880796 
0 
0.1316077051470307 
0 
0.08375376033109 
-0.1563021690813209 
0.2811493687401085 
0 
0 
-4.263929282665452e-05 
0 
0 
0 
0.2178384123432161 
-0.1682950377903 
0 
0.2214029538643282 
0.03887859441815465 
-0.09794211331913047 
0.1942160898453797 
-0.02531496526009013 
0 
0.04706338941707255 
0 
0.0001151738155335862 
0.1217766291807373 
0.006378553685121528 
0 
-0.1055672925125757 
-0.09583852143665804 
-0.01568718851625335 
0.03307448495273772 
-0.02397758481115031 
0.1411337541702563 
0 
0 
0.01044287649654638 
0 
-0.2282199856993993 
0 
0 
-0.05798055552604118 
0 
0.05089400809463752 
-0.1663616480974965 
0 
-0.107792662108893 
0 
0 
-0.06979574171036097 
0.0162699532965528 
0 
-0.04765085791070996 
0 
0.09582347944007621 
0 
0 
0 
0 
0 
0 
0.2632888968582852 
0 
0 
0 
-0.06508551787230127 
6.509644749847904e-06 
0 
-0.0423833951178913 
-0.07422687240820576 
0.09351999663547515 
0.1390686751939692 
0.0001089021369309841 
0.08260470834529794 
-0.3710220471147753 
0.03622878217135084 
0 
0.09796286683276959 
0 
0.2650770523503939 
0 
0.06677769934753479 
0 
0.1592053775445016 
-0.03210205342487282 
0 
0.4121694894700962 
-0.2160834011055881 
-0.416796349286184 
0.1784914495040767 
0 
-0.09103264701772257 
0 
-0.04876446959830583 
0.1177052076249996 
0 
0 
0 
-0.09746967153809397 
0 
0 
0.006307929496120458 
0 
-0.0185863994221373 
-0.02514321153017959 
0.185802804868944 
0.06130721418384953 
-0.1367616402889947 
-0.2756685790819723 
4.155010295494452e-05 
-0.05961530002552732 
0.1285230289313395 
-0.4326320678435702 
0 
0 
-0.3102461247098614 
0 
-0.0004081447996935935 
0 
0 
0 
0 
0 
0 
-0.04787416852690418 
-0.1235584882096841 
0 
0 
0.1026263877789872 
-0.04073067321676788 
0.1575367238780996 
0 
0 
0 
0 
0.0001019951345397474 
-0.1163019184687815 
0.05629298060868264 
0.05808283670737407 
-0.09233088378810235 
0 
0 
0.005159466510781326 
0.0001824557649560991 
0 
0.2044789330009728 
0 
0.04509721883281948 
-0.1259904604772417 
-6.574239919148342e-06 
0.1055672925125757 
-0.07119390830955774 
-0.1724170771941223 
0.001283813139064103 
0 
0 
8.824514680143253e-05 
0 
0.4814686989143959 
-0.08577940610118635 
0.1151668777270253 
-0.1156850946767083 
0.1014025153604931 
-0.02464427312871545 
-0.2063966367457587 
-0.1055672925125757 
0 
-0.08017837858941872 
0.01917607644077548 
0.1415135200234637 
0.001133946572313036 
0 
-0.1278300566113604 
-0.06508551787230127 
-0.06288583278378002 
0.2668646517468559 
0 
0.1455890560304085 
7.238747583781249e-05 
0 
-0.1598266570082163 
-0.1513341353380851 
0 
-0.1750359645664832 
0 
0 
0 
-0.1047216298249298 
-0.01387428077048762 
0 
0 
0 
0 
0 
0.02559135816027383 
0 
0.08041167609207352 
0.2425279692349137 
0 
0 
-0.001585106453636676 
0.09593097192127276 
0 
-0.05127629102798402 
-0.09334250827605031 
0 
0.1705631151189512 
0.124966369386466 
0.05281776065266652 
-0.2279786177006261 
-0.2044340382530536 
0.1786358416023571 
0 
0 
0 
0 
0 
0.1055672925125757 
0.02340875735224907 
-0.1176902821856801 
0 
-0.0009632210559119506 
0 
-0.04222423048201112 
0.1168403153683901 
0 
-0.06697289223673687 
0 
0 
0 
0.05409792154470597 
0 
0 
0 
-0.3276123534049798 
-0.1299606713879258 
0.119421350005405 
0 
0.1131546068273891 
0 
0.1849924498598643 
0 
0 
0 
-0.0527110827644667 
0.0001322779720137362 
9.241032267273322e-05 
-0.07131530676844075 
-0.1095257289098008 
-0.1224691320467168 
-0.0198020819055552 
0.1055672925125757 
0 
0.4996177553800899 
-0.2222013334807769 
0 
0 
0.06275340102225715 
0 
0.08987738935882468 
0.05179360687969151 
0 
0 
0 
0.1677103780716472 
-0.1720230632210118 
0 
-0.04669348913846136 
0 
0.08225235683808886 
0.03556207086006848 
-0.02593740605352653 
0 
0.1251127513263016 
0.1338423700074224 
0.0004408090277893484 
0 
0 
-0.636538761331062 
-0.1021674123260568 
0 
5.758032490212154e-05 
0 
0 
0 
-9.529683705221848e-05 
0.0003041154887870338 
0 
0 
0 
0 
0.1499995787341664 
0 
0 
0 
0.1249024475980925 
0 
-0.01888729833980135 
-0.07139115615518814 
0 
-0.0005332846551557228 
0.04577017049854098 
0.2804282075352748 
0.08640970520196958 
0 
0 
0 
0 
0 
0.0003823773232365646 
-0.1312887307264323 
0 
0 
-0.08192237622653531 
-0.1054827458504026 
-0.09029977117955171 
0 
0 
-0.3991092608214534 
-0.2581182439566161 
-0.04730271237665414 
0.0597910055689548 
0 
0 
0 
-0.0001567284979755609 
0.2313944642560194 
0 
0.0003553759281672288 
0 
0.02396488109588896 
0 
0 
0 
0 
-0.09431624014464143 
0 
0 
0 
0 
0 
0 
0 
0 
0 
0 
-0.1272885576030924 
-0.1224397341208174 
-0.0663569856703132 
0.1099573350716579 
-0.0297270774540162 
0 
-0.06946552201867466 
0.0876005849688082 
0 
0 
0.01703059450014693 
-0.1430659328513036 
0 
0 
0 
2.843689197569456e-05 
0.149161113563623 
0.08766468956559234 
0 
-0.001687343038633149 
-0.0005540932019882237 
0.09334187159407503 
0.1392328750474428 
0 
-0.0001701921573837112 
0.003410413845016229 
0 
0 
-0.3832807678413039 
0 
0 
0 
-0.03357157267878512 
0.07683683532217017 
-0.02987179584049209 
-0.01547511554470823 
-0.1596505452556781 
-0.1191255697124561 
0 
0.08114061609730697 
-0.1055672925125757 
-0.1986394418967662 
0 
0.09843924644224963 
0 
-0.1060211555067066 
0.02594132331273296 
0.1055672925125757 
0 
-0.06785376467779958 
0 
0 
0 
0.01139360356615116 
-0.04647758154051978 
0.1204852331572407 
0 
0.1717131844601961 
0 
0 
-0.0432616022152047 
-0.05878149249503194 
0 
-0.1748130802286805 
-0.04711234509535561 
0 
-0.06817949093058456 
0 
0.1062005190562619 
0 
0 
0 
0.1169639512380934 
0 
0.01081784778787317 
0 
0 
0 
0 
0 
0 
0 
0.001599608547669119 
-0.08866587577388045 
0.2077556417692576 
0 
0 
0 
0.3217020055991283 
-0.09449624873982695 
-0.1442958915995194 
0.115486941796823 
0 
0.2326339447791309 
0 
0 
0.3089904251580424 
0 
0.1853514397540724 
0 
0 
0 
0.5426190940164325 
0 
0 
-0.004962188664764338 
0 
0 
-5.803387463051309e-05 
-0.0004540228945518468 
0 
0 
-0.004238773372562984 
0 
-0.164485023810573 
-0.07498851452594282 
0 
0 
0 
0 
0 
0 
0.04841520504602868 
0 
0 
0 
0.0008025958207571672 
-0.07181568598239452 
0.009902946102298638 
0 
0.1070437389879572 
0 
0.09959526036868652 
-0.4426037600738975 
0 
0.001730310712838296 
0.07888033205012937 
0.02744501085336245 
0 
0 
0 
0 
-0.01229865662614755 
0 
-0.01461478474049554 
0 
0.2955041118174826 
0.3369341114717416 
0 
-0.07612194146205925 
-0.09375984868699719 
-0.2259334137950642 
0.1993345723594551 
0.2363594153351835 
0.0004262221455394169 
0.001113607736027826 
0 
-0.06156384318936643 
-0.02679010121071804 
0.0600118417516682 
0.2049687453499701 
-0.4527262743429088 
-0.07194433890450344 
0 
0.05525862814692708 
0 
0 
0 
0 
0 
0 
-0.0001017203969615049 
0 
0 
0.1557327442219124 
0 
-0.08490761763174139 
0 
0 
0 
0.006532324238480514 
0 
0 
0 
-0.265443983827971 
0 
0 
0 
0 
-0.003733086304962504 
0 
0 
0 
0 
0.1813959705845926 
0 
-0.1171310605099711 
-0.04459915257500321 
-7.396215269892914e-05 
-0.001113810653116115 
-0.09122529513971898 
0 
0 
0.09942155082730889 
0.08996344758140121 
0.1330888498306273 
-0.08848401377339614 
0 
0 
0 
0.05458087349982324 
0.2073302128649249 
0.01371335903408306 
-0.01293322264157735 
0.03208225922727554 
0 
0 
0 
0.01670289778312403 
0 
0 
0.01367819526034344 
0 
0 
-0.09797928794883436 
-0.05471163740548167 
-0.2362404513751361 
0 
0.1008213661235514 
0 
-0.2632965418040233 
0 
0.1280644652316257 
-0.003564811195281318 
-0.2235005903704275 
0.02551188636412871 
-0.06439997297287385 
0 
-5.423921216551336e-05 
0 
-0.09224714755735601 
-0.06660042720795301 
0.05686588278084074 
0 
0 
0.09786915690979857 
0 
0.0001371933411712223 
0.1292535762469518 
0 
0 
-0.09960284174910009 
-0.06438346993774678 
0 
0 
0 
0 
0.1174855151388537 
-0.06609778947442595 
0.08194505377263142 
0.1472703139913259 
0.1232927730703016 
0 
0 
0 
-0.0334677859242768 
0 
0 
-0.212337388435488 
0 
0 
-0.09804915666609909 
0 
0 
-0.0007234083651270215 
-1.561795702294353e-05 
0 
0.09752219446847653 
0 
-0.0001025516554912767 
0 
0.05380134425838413 
0 
0 
0 
0 
0.0768658076884723 
0 
-0.2912963124816761 
0.03872596484887222 
0 
0 
0 
0 
-0.01779498053408845 
0.2716313683282421 
0.1487252612733319 
0.02300561849507092 
0 
0 
-0.002028831066040198 
0 
0 
-0.6350066350357321 
0.01754733216863486 
0.2217213845344292 
0.08848496242795661 
-0.07068654624503121 
-0.04041333160124579 
0 
0.08319280313753556 
0.08009626460300832 
0 
0.1696597447641408 
-0.004441561427992268 
0 
0 
0 
0.004008909545091971 
0.1194350584726884 
0 
0 
0 
0 
0.09790740211097941 
0 
-0.002900694357850388 
0 
0 
0 
0 
0.3441989522406201 
0.07545808593068531 
0 
-0.2253838895173819 
-0.1516920437766224 
0 
0 
0.1236543918729054 
-0.1916093122956403 
0 
0.3723950516374646 
0 
0.0001548231036422644 
-0.1077754714974352 
0.0003419269176421931 
-0.06592341175410456 
0.0005273223236560111 
0 
0 
0.205978152195124 
0 
0 
-0.08857934947481008 
-0.07507714242687183 
0.1865624985459752 
-0.1379455320996939 
0 
-0.1461168104465126 
0 
-0.007641341360645932 
0.1055672925125757 
0 
0 
0.2544100075557467 
0.2113043218875702 
0.09049876986301174 
0 
0.03869765754178202 
0 
0 
8.153354511193428e-05 
0.09159945326486697 
0 
-0.102273156549047 
-0.2627322749367805 
0 
0 
-0.100245943735238 
-0.05658704781342062 
0 
-0.001413485787214681 
0.07730355328221745 
3.156971571225236e-05 
-0.1189944234401692 
0.002252819672318863 
0 
0 
0 
-0.05050452042753744 
0 
0 
-0.0004165890788398034 
0 
0.1993738434304017 
0.09860240036577209 
-0.1055672925125757 
-0.08866858536925612 
0.2837263913113542 
0 
0 
0.1442874477961003 
-0.636917712022678 
-0.08294145313320152 
-0.07489948266805065 
0.08957083430256824 
-0.05314677662281269 
0 
0 
-5.066051625106572e-05 
-0.04774562070864596 
-0.1619910982637482 
0 
0 
0.16208775787931 
0.04706338941707255 
-0.1483039746567366 
0.0005882060610616262 
0.02764465717907443 
-6.976636934061773e-06 
-3.140090412895614e-05 
0 
-0.118615084891946 
0 
0 
0.002461488804934242 
0 
-0.05655492637156741 
0 
0 
0.1055672925125757 
-0.0002025004593464074 
0 
0 
-5.397353527569963e-05 
0.05739164025254146 
0 
0 
-0.04340657557540677 
0 
0 
0 
-0.02606017941367794 
-0.3108532180787272 
0 
0 
-0.03869442777632316 
0 
0.004599628422527314 
-0.08591491898349585 
0 
0 
0 
0.2534668691807341 
0 
0 
-0.0002366176182975008 
-0.03833750032594702 
-0.08046174757467842 
-0.1055672925125757 
0 
0 
0 
0 
0 
0.1151568464782971 
-0.1401613910876124 
0.3565567171467193 
0.4261441964381577 
0.07037312056934569 
0 
0.09796286683276959 
0 
0.09693153080205177 
0.05586523363963712 
0 
0.3709671033456111 
0 
0 
0 
0 
0.1062832068729198 
0 
0 
0.02280701177377028 
0 
-0.1055672925125757 
-0.1185642505362486 
-0.02214830161462785 
0.4142518362448995 
0 
0 
0 
0.2398038423580816 
0 
-0.01234224938251643 
-0.6399052209076113 
0 
0 
0.03622878217135084 
0 
0.04562581625547769 
0 
0 
0 
0.0004168920364040856 
0 
0.1412395783374617 
-0.01544105188507021 
0 
-3.703233401873858e-05 
0 
-0.3159444624996893 
0 
-4.08325891995713e-05 
-0.380472112432079 
0.1196799708074301 
0.2322644488442736 
0 
1.198835207478348e-05 
0 
-0.05630694056645458 
0 
-0.05190178120255528 
0 
-0.1104343835033218 
-0.07898521608217982 
0 
-0.2582658651863644 
7.743612111980544e-05 
0 
0 
0 
-0.05003079690642849 
-0.004768528746323011 
-0.03921518272719126 
0 
0 
0.2141639773394288 
0 
0 
2.947156319064109e-05 
0 
-0.0004902416008407693 
0 
-0.1001243619092575 
-0.112438461591285 
0.1135923037729628 
0 
0 
-0.0243970409553277 
-0.0006363539452388261 
-0.1055672925125757 
0.1097590496604222 
0.1165623255845081 
0 
0.3358555685232202 
-0.0007066345359393071 
-0.09911926961630288 
0.1398701463864225 
0 
0 
0 
-0.2788190317609295 
0.04545500282549132 
0.08178946408820963 
-0.02992544311988091 
0 
0 
0 
0 
0 
0 
0.162755021551324 
0 
0.001362140706072268 
0 
-0.08933377506505567 
-2.214439115528759e-07 
0.07756270501058839 
0 
0.0691125907617724 
0.04607772353942267 
0.03274290566165803 
-0.1238439585930173 
0 
0 
0 
-0.2132150766004722 
0.04185541514911369 
0 
0 
-0.06394196222441607 
-0.01556671666963883 
0 
0.1236893956135298 
0 
0 
-0.2013687648292054 
0 
0 
-0.08601155777492846 
-0.1544516721852104 
0.06994346895069171 
-0.1055672925125757 
0 
0.02910086407840589 
-0.08718993201514251 
-0.05614874326681091 
0 
0 
-0.06508551787230127 
0.003363873130738478 
0 
-0.171577706532162 
0.2151853386988846 
-0.608989895490745 
0 
-0.08879033926624463 
0 
0.1051072813901341 
0 
0.2163816319913783 
0.1041463042199602 
-0.1039991072109199 
0 
0 
-0.0002901456240820214 
0 
0.1055672925125757 
0 
0 
-0.0001718021513192794 
0 
-0.002955842168493893 
-0.0004930006952154147 
0 
0 
0.05515084247736444 
-0.0482616372201889 
0 
0 
0 
-0.08819277086472282 
-0.2905613786638785 
0.04213484491462478 
0 
0 
0 
7.907181951360227e-05 
0 
0.0005578773193482909 
0.07746212290966781 
0 
0 
0.05069865177137969 
0 
0 
-0.04958125241619074 
0.0431616524774215 
-0.1888453001288163 
0 
0 
6.871012185201371e-05 
-0.002263258494095845 
0 
0 
0 
0 
-0.3247627484923608 
0 
0.0660964447493911 
0.05311308163136793 
-5.723310009524333e-05 
0 
-0.3436774177563279 
0 
0 
0.01731417780517096 
0 
-0.0212275743328054 
0 
0 
0 
-4.859200004653772e-05 
-0.1022508867645796 
0 
0 
-0.1129187099141114 
0 
0 
0.009594272488631404 
0 
0 
0 
0 
-0.08204698061867312 
0 
0 
0 
0 
0 
-0.1781133784427212 
-0.2598814632419089 
-0.04459915257500321 
0 
0 
0.05383721904067834 
0 
-0.2527874236940044 
0 
0 
0 
-0.07031282045793324 
0.2704783090393271 
0.1333648257642458 
-0.1085889309398431 
0.02333522086487643 
0 
0 
-0.04037380858874998 
0 
-0.06780057558200835 
-0.02784043192800387 
0 
0 
0 
-0.1832051486787688 
6.263703474563984e-05 
0 
-0.08588195283285567 
-0.1253985470626438 
-0.03416198375887991 
0 
-0.0003820805645467211 
-0.06185241215969384 
0 
0 
0 
0 
-0.05161036364119716 
0.04662078486612936 
0 
0 
0 
0 
-0.3195620746460717 
0.1842412940465797 
-0.0003455826960411411 
-0.1428099487421897 
0.006197360247980116 
0 
0 
0.2498439238466455 
0 
0.05329224267635599 
0 
0 
0 
-0.2468292991153515 
0.01312885501583074 
0 
0.331189340599286 
0 
0 
-0.3508232032497293 
0.208449228087748 
-0.4195878922670907 
0 
0 
0.01122243073640406 
0 
0.03667752050160241 
0 
0 
-0.002602710096194069 
-0.07447007138507106 
-0.2093745093771528 
0 
-0.02450728184925731 
0 
-0.2031698527049314 
0.01571621152568344 
0 
0 
0 
0.07714842256154415 
0 
-0.05399139349371802 
0 
0 
0.2270655439277263 
0 
-0.07343096541470992 
0.0479588264330473 
0.1855580727229125 
0 
0 
0 
0 
-0.1046530431821944 
0.2802058677873062 
0 
0.007879203930456036 
0.04576369698650198 
0 
0 
0.04284919965016183 
0.1689939400799347 
0 
0 
0.1812489988167512 
-0.09931501957601793 
0 
-0.0007659677976327504 
0 
0.02429482067752686 
0 
0 
0 
0 
0.09192956781274972 
0 
0.04346726137650599 
0.1375444539198682 
0.06443523722516001 
0 
-0.1330545078171815 
0 
0.1117940082323929 
-0.06566596641223417 
-0.1251774232646283 
0 
0.1044035875426859 
0 
-0.08052418162464578 
0 
0.21249210940291 
0.3011817053888119 
0 
0 
0 
-0.1089680419007852 
0 
0 
0.5341292975327336 
0 
-0.05573611836862163 
0.04580567052064266 
-0.195559809684644 
0 
0 
-0.1439000686577573 
0 
-0.1722099388398191 
-0.009956667133986897 
0.151112993701844 
-0.05929712134291891 
0 
-0.05778833531173162 
0 
0 
0 
0.01716737221587024 
0 
0 
0 
0 
0 
0 
0.2144427965210927 
0 
0.1142062499873238 
-0.0009827778258562261 
-0.0001313658118501212 
0 
0 
-0.07920768559929059 
0 
0 
3.996139654645746e-05 
-0.3356035620612402 
0.02283621732146311 
0.2410611534239762 
0 
0 
0 
0.2569872991856765 
0.2640494139194273 
0 
0.1226327008627716 
0 
0 
0.1426104095387885 
0.0865987914813053 
0 
-0.1020986048774061 
0.05522816046179393 
-0.128257256008235 
0.0008780605651936158 
0 
-0.3671241526596396 
0.06971031544554332 
-0.08560407436496748 
0 
0 
2.955887948196469e-05 
0 
0 
-0.04263612027720008 
0.0001231316431585033 
-0.1994082782931668 
0 
-0.1361456778263491 
0 
-0.195867375650997 
0 
-0.09558705459836944 
-0.2101400744749353 
-0.199006930949695 
0 
0 
-0.1400190694153869 
-0.1442289348749343 
0.03497988723389205 
0 
0.1223720770389404 
0 
0 
2.532022979783806e-05 
-0.1341670710291869 
-0.05396308039277542 
0 
0 
0.2080009661557172 
-0.03315868768433049 
-8.669621496526638e-05 
0 
-1.884179925815889e-05 
-0.2286901766183385 
-8.243574308031864e-05 
0.07335401298583652 
0.07063167792991425 
-0.001080463543093657 
0.01372305681438943 
6.111846067759664e-05 
0 
0 
0.161799361953861 
0.3934886231200398 
0 
-0.0002305946995163924 
-0.03061018307174468 
0 
0 
0 
0.3796645040801498 
0 
0.2638242703754102 
0 
0.0002196219691069652 
-0.06907140910828707 
0 
0 
-0.7126382247850995 
0 
-0.01992536754950863 
-0.170461656938963 
0 
0 
0 
0.09550415473475529 
-0.0001006954392219095 
0 
0 
0 
-0.1370078588920176 
0 
0 
0 
-0.3135978530107701 
-0.1914529396354862 
0 
-0.06557450851305811 
0 
0 
0 
0 
-0.1151530529674083 
0.08926734644817562 
0.02972927938279599 
0 
0 
-0.04467561688577446 
8.523974623121986e-05 
0 
0.08324342764755037 
0 
0 
0.06493292004607842 
0 
-0.1754367724730652 
0 
0.2171590143000879 
0 
-0.253144065375481 
-0.07190448314053616 
0 
0 
0.3166158920007943 
-0.2488698212579288 
0 
-0.2864261294102252 
-0.03711524506232276 
0 
0.0250248145527905 
-0.03076119161810766 
-0.08488959126943088 
0 
-0.0002296088184189416 
0 
0.1303708807367555 
0.01830694958499303 
0.02498125992917636 
-0.07195708269016693 
0.229338445142221 
0 
0 
-0.1648149127095333 
-0.3709663820192295 
0.07031973572346495 
0 
0 
0 
-0.07354453234035976 
0.108624511565993 
0.1141888198037389 
-0.02141468932152465 
0 
0 
0 
0.07916992047116532 
-0.325740945749679 
0 
0.07299071282456507 
0.08685296072886756 
-0.1192843505833157 
-0.2991698268303813 
0 
-0.08925555160842448 
0.07956262809760606 
0.1680913596622673 
-0.02667537151766192 
-0.1471467578536592 
0.2531943163014928 
0.1146055233087173 
-0.1133632110655772 
-0.08877125367966568 
0 
0 
0 
-0.05848649359205958 
0 
0 
-0.2107366934843086 
0.09514518167010155 
-0.03101169804313094 
0 
0 
0 
0 
0 
0 
0 
0 
0.1091976626812043 
-0.04575693735286633 
0.04314019927585463 
0 
0 
0.03388404869863984 
0.09513322073544531 
-0.06487458951509587 
0.04733274789279609 
0 
0 
0.1588085416372235 
0 
0.07138868009857927 
0.1134984138716554 
-0.09876134665743348 
0 
0.02602911635751468 
0 
0 
0 
0 
-0.2912706462292102 
-0.02250052361957566 
-0.05992273374433957 
0 
0 
0 
0 
0 
0 
0.1153104257798808 
-0.06863057912055341 
-0.04440895979115786 
0 
0 
-0.08677083842882975 
0 
-0.1258464858413396 
0.1335942444548684 
-0.1051089922921717 
-0.06908073300510217 
0 
0 
0 
-0.3465662711091165 
-0.05891850299987859 
0 
0.3472816487627484 
-5.271573437773316e-05 
0.1735481837797623 
-0.06197755987066286 
0 
0.03516743445918009 
0.09411874523646444 
0 
0 
0 
-0.2660197793341615 
0.1058789858692725 
-0.2208486176146802 
0 
-0.04035535925845625 
0 
-0.0871397231071477 
0 
0 
0 
0 
0 
0 
0.06521294697883992 
0 
0 
-0.0096453037478046 
0 
0.0004861809203742331 
0 
-0.01546345862827454 
0 
0.03248475839101454 
0 
0 
-0.2026371195034393 
0 
0 
-0.1208955375934367 
-0.08244971830789992 
0 
0 
0 
-0.07521633849380267 
0 
-0.0001886255089426494 
0 
0.3901861208107598 
-0.07910141258506273 
0 
0 
-0.07562167626515522 
0.09762786733422445 
0 
0 
0 
0 
-0.07449133574298174 
-0.04562301292887576 
0 
-0.3093173104492513 
-0.3607698859189973 
0 
0.1641265770343768 
0.1055672925125757 
0.176976051510727 
-0.08444587098254198 
0 
0 
0.1055672925125757 
0 
0 
0.1661237682601282 
0 
0.1554451591619129 
0.1266232154922226 
0.07067505268534509 
0 
0.07552584548273505 
-0.1055201934909715 
0.1656988137965611 
-0.009571349359593534 
0 
-0.1153558237951563 
0.1567642765166475 
0 
0 
-0.00262502038281151 
-0.1535083251354559 
0 
-0.02134065319727391 
0 
0 
-0.03816150607455677 
0 
-0.0459166283940181 
0.05402047924062137 
-0.03357643801185508 
-0.396863340630024 
0 
0 
0.1100544351710047 
0 
0.4669953364127161 
0.1233768397346316 
0.09165025637807458 
0 
-0.1130893256341677 
0 
0.2521928960191643 
-0.01746019937991859 
0 
0 
0 
-0.118104037390752 
0.004819493086189952 
0 
0 
-0.04740998651667892 
0.05377446969741828 
0.002314866905252756 
-0.055134299665229 
0 
-0.1184596633580485 
-0.1067918731281597 
0 
0 
0 
-0.0003099199545373132 
-0.04012237008038172 
0.1458942867459932 
-0.05625353430894021 
0 
0.1676651611093574 
0 
0 
-0.151924022322792 
0.111978151909038 
0 
-0.1575754606939528 
0.2813378170773519 
-0.1426085350452803 
0 
0 
0 
0.1832374733196289 
0 
0 
-0.0643633654760933 
0.0158108272213262 
0.04695065548469818 
0.05025657514255075 
0.01852511428335694 
-0.09448720059992749 
0.06155048696426291 
-0.3020382675229976 
0 
0.05938770393997576 
0 
0 
-0.1442289348749343 
0 
-0.1056229749457862 
0 
0 
0 
0.3309584188825314 
-0.01440746075434184 
-0.04312274189908262 
0 
0 
-0.1039079480736205 
-0.1436395543259206 
-0.09634775575079921 
0.09012004823464066 
0.06069396389720935 
0 
0.1242091642676053 
-0.1561302746671135 
0.0003369498565212582 
0 
0 
0 
-0.1322806782429448 
-0.1060273036350172 
-0.06716477761052153 
0.1483416150834544 
-0.05076811022989714 
0.1556957480264444 
0.05478623277690356 
0.05828842675887125 
0.1055672925125757 
0.1055672925125757 
0 
0 
0 
0 
0 
0 
0 
-0.03648752659138609 
-0.006035010549008717 
0 
-0.1536993409419719 
0 
-0.09543532169804975 
0 
0 
0 
-0.1055672925125757 
0 
0 
-0.1001328184805112 
-0.03700029905554435 
0.02109455124694013 
0 
-0.1429554475555473 
0.3839162809637469 
0 
0 
-0.04546161634329668 
0 
0.001638766777399982 
0 
0 
0 
-0.04814275554639894 
0 
0 
0 
0.01603564891407462 
0 
0 
-0.0220319050269323 
0 
0.5882202288597131 
-0.1989026516065044 
0 
0.08906207091594426 
-0.07803300512642204 
-0.1224470793050764 
0 
0 
-0.0741894926430656 
0.1382534727274038 
-0.146218479423861 
0 
0 
0 
0 
-0.05261026641625315 
-0.0153074010865984 
0.4068799874661215 
0 
0.05812535748443406 
0 
0 
0 
-0.0694733086862432 
0 
-0.09999621348467136 
0.1057088261337147 
0 
-0.1197439219293986 
-0.0001687561402425178 
0 
0 
-0.0003774539131846254 
0.101235176442129 
-0.03503596284957154 
0 
0 
-0.08844743618280743 
0 
0 
-0.1060273036350172 
0 
-0.06917307732886015 
0.0484050802238492 
-0.09749852468878217 
8.848133114170098e-05 
0.02430163888954307 
-0.03924044236590703 
0.0002896893975643262 
0.1209911722509647 
0.06211547991542721 
0 
0.08821614776217351 
0 
0 
0.0001342207462744684 
0 
0 
-0.0111911097604075 
0.04785332018974631 
-0.06837046042922203 
0 
0 
0 
-0.1428491228581196 
0 
0 
-0.1228414650612648 
0 
0 
0.08096795512125514 
6.234634856006131e-05 
-0.0629948321941437 
-0.061118995031175 
0 
-0.05436010249495925 
-0.001021137559530177 
-0.5626492559015491 
0.03084753771749401 
0 
-0.09805883439378774 
0 
-0.09169444403207878 
0 
0.1450169260600412 
0 
-0.1669901487610249 
0 
0 
0 
0 
-0.07880509529877072 
0.09754525865447823 
0 
0 
-0.1694090527721204 
0 
-0.104289475695031 
-0.09116742021320318 
0.2566332338638878 
-0.06711484612236986 
-0.09830417785302999 
-0.1970240454813281 
0 
0.08921382719101711 
0 
0 
0.1216043159384974 
0 
-0.0002661914411238671 
0 
-0.2354730666538226 
0 
0 
-0.08250803538621453 
0.1523900332307061 
0 
0 
-0.05772268528995121 
0 
-0.0688902119496398 
-0.3120825677156533 
-0.156708435144104 
0 
0.1454325793053259 
0.06742352016484834 
-0.2856441203102975 
0.0004126720449233847 
-0.07334976614005775 
0.1517728465551594 
-0.07353681972562413 
-0.08267305359465654 
0 
-0.06227223616895371 
0.1055672925125757 
-0.001950535659875753 
0 
0.05055458030154823 
0.3027125081955282 
-0.01405989233323277 
-8.207543888344979e-05 
0.05970632738808274 
0 
-0.002602710096194069 
-0.2362411353019321 
3.246790430752554e-05 
-0.1393647209486822 
0.1713943222976206 
0 
-0.02089698340053979 
0 
0.08298141389163692 
0 
0.01886751988655846 
0 
0 
0 
0.08489831049758721 
0 
0 
0 
0 
0 
3.34690168772673e-05 
0.08985964284851002 
0.06545194861656828 
-0.05119175132083361 
0 
0 
-0.09352185257337134 
0.000138870442257897 
0 
0 
-0.05691737554123443 
0.0003130428158923469 
0 
0 
-0.02836095737036263 
-0.4028697775949237 
-0.2720269226424841 
0 
-0.01169281196873521 
-6.611819980917506e-05 
0 
-0.4491813986290162 
-0.1357603502830336 
-0.008381201713532503 
0 
0 
0 
-0.340959987043004 
0 
0 
0.01862988179877394 
0 
-0.0002538797482469453 
-0.02721709997056573 
0.09170299289532391 
-0.175357647223957 
0 
0.06833916122389801 
-0.03212305721348399 
-0.1546429681207119 
0 
5.027997411474018e-05 
0 
0 
0 
-6.834031698038905e-05 
-0.0005578225814686665 
0 
0.1533868025680147 
0.1020096673859464 
0 
0 
0 
9.105014186960157e-07 
0 
-0.06168684836860774 
0.2988299727084686 
0 
0.1279584760156284 
0.06913929279132326 
-0.3145797986779958 
0.0003640818312556965 
0 
-0.06196157102059326 
0 
0 
0.05045446642708622 
0 
0 
0 
0.02703751289670014 
-0.06390025436565794 
-0.4084506400719027 
-1.847879835113694e-05 
-0.0003115252687952478 
0 
0 
0 
0.1031257287504574 
0 
0 
0 
0 
0.0797290694981909 
0 
0 
0 
0.0001155062477051905 
0.06479675976665317 
0 
0 
-0.5612804012714196 
0.1051958098509899 
-0.03926445263455262 
-0.04598733721037293 
-0.05844691093686204 
0 
0.0003677526443348314 
0.04715752866276629 
-0.07703932275234412 
2.077616184499141e-05 
-0.05484910028419578 
-0.09821738154650489 
-0.05127377182682247 
0.1055672925125757 
0 
0.5112802912644624 
0.07152960003819939 
-0.1047302038666939 
0 
0 
0.08203223894181573 
-0.0001504302825842241 
-0.1563483522482478 
0 
0 
-0.1527083106994502 
0 
0 
0 
-0.04532334164544197 
0 
0 
-0.203124788426456 
0 
0 
-0.05244152349927399 
0.1952793875400222 
0.07923733654118537 
0 
0 
-0.02536551429813636 
0 
0.09536141838141797 
0 
0 
0 
0.0001229512586094564 
0 
0 
0 
0 
0.04225856807889122 
0 
-0.1861894344908514 
-4.251414185694043e-05 
0 
0 
0 
-4.731374092944925e-05 
0 
0 
-0.07020917512276395 
-0.03924044236590703 
0 
0 
0.1168357183105621 
0 
-0.1055672925125757 
0 
-4.030063649074672e-05 
-0.1022717659398712 
0 
0 
0.09446365943384771 
-6.910281283364027e-05 
0 
0 
0 
0 
0.000166993998392828 
0 
-0.06123592864461218 
0.118151781277575 
-0.04410949206045192 
0.02503193928327136 
0 
0 
0 
0 
0.07231666379244027 
-0.1705540544082342 
0 
0 
-0.0001818584167868965 
0.1496164565276114 
0.07191244422351301 
0 
0 
0 
0.00385164259732788 
0.09001477809726011 
-0.1296064869997285 
0 
0 
-0.002645342631307554 
0.02178329040449908 
-0.08395793832967283 
0 
0 
-0.05450288583352154 
0.1064661271901277 
-0.083279021515669 
0.0001179913075112708 
-0.09181319582606319 
0.1115825114277998 
0.1055672925125757 
0.3022486265622371 
0.06205623714481047 
0 
-0.1141929110719919 
0 
-0.134386650966984 
0 
0.1467411856972379 
0.05058361684787033 
-0.1055672925125757 
-0.07490767259055189 
0 
0.1807266034025777 
-0.002378754618317373 
0 
-0.04678884901003685 
0 
-0.1616677075605789 
-0.1055672925125757 
0 
0.05440222425592797 
-0.1261149671788465 
0 
0.07659123546138417 
-0.2212126448002512 
0.1538591947662252 
0 
0 
0.002656836450333351 
-0.04121563417042887 
0.01913446739239298 
0.1238328404510824 
0 
0 
0 
-0.01969523764357327 
0.1255552160430556 
0 
0 
-0.0893586504791367 
0.4237107616967686 
-0.001472326718676461 
0 
0.2458082382886768 
-0.1841182980010481 
0 
-0.1023644037486983 
0.001698706354309464 
-0.07882286990831361 
0 
-0.009684732612392511 
0 
0 
0 
0 
0.08248153340248031 
0 
0 
0.04706338941707255 
0 
0 
0 
0.05478623277690356 
0.4030303502979044 
-5.442026810388218e-05 
0 
-0.03198716530585275 
0.2057177799399376 
0 
0 
0 
-0.1878598328955416 
0.001702005049504222 
-0.5577418377095894 
-0.1987185622946289 
-0.07792766577802811 
0 
0.0365564571105548 
0 
0 
0 
0 
0 
0 
-0.1020288371505418 
-0.06718341866127187 
-0.06435344180586398 
0 
0 
0 
0 
0.05699766880627466 
0 
0 
-0.09448720059992749 
0 
0 
0 
-0.1635998756682825 
0 
-0.1121531710319747 
0 
0 
0.05465292475775837 
0.1900410196617147 
-0.06188609439317962 
0 
0 
-0.2256261551326657 
0 
-4.45095632441053e-05 
0.1132821689519695 
0 
0.1238319819465004 
-0.06695900803799218 
0.1482527826498062 
0 
-0.11655118981005 
0 
0.1781421484979701 
0.1057135579363816 
-0.0867375820335346 
0 
-0.3336472103892021 
0.00276525958586768 
0 
0.1664428679221891 
0.1306052722583503 
0 
0 
-0.05019957569910145 
0 
0 
-0.0001831212381834503 
0 
0 
0.07992816796454305 
0.0003885267291364389 
0.04054844035064489 
0 
0.1462211360103084 
0 
0 
0.05371431340959162 
0.0003009450173494623 
0 
-0.0002346593125638298 
-0.08145083533222164 
-0.03002377018317499 
-7.730104498674794e-05 
0.07152960003819939 
0.0001068567704215837 
0.04053060430730948 
0 
0 
0 
0.2967788776841357 
0.1181564997265648 
0 
0 
0 
0 
0 
-0.03299526093587687 
0 
0.04860409857953462 
0.02535058690175018 
0 
0.176965937534556 
0 
0.3417925996323702 
0.3877203091431711 
0 
0 
0 
0.1353109569947556 
0 
0.1942070355266963 
0.008393651962430936 
0 
-0.05781018799059331 
0 
-0.1526798690996223 
-0.001023456338781439 
0 
-4.856022255405365e-05 
0 
0 
0 
0.05970076851731805 
-0.08773349924387776 
0.1026082207753188 
0 
0 
-0.2484971990773356 
0 
0 
0.05813547868969808 
0.1429851457166962 
0.0121061937170579 
0 
-0.0006251162153388915 
0 
0 
0 
-0.05394451803422477 
0 
0 
0 
0 
0 
0 
0.09500747336158774 
-0.1406821593844387 
-0.09489966291792465 
-0.33976376007859 
0 
0 
0 
0 
0.2958510136066245 
0.2700441442057293 
-0.08239668920846381 
-0.04488049005047801 
-0.1055672925125757 
0 
-0.1801759392348566 
0 
-0.1359250693572329 
0 
-0.1439245717655755 
0 
0 
0 
0 
-0.1486418511313451 
-0.08555439038305322 
-0.3182556541341261 
0 
-0.08585357119433096 
-0.04591421244334874 
-0.08264090339278161 
-0.05894598113401139 
0 
0.2384349670989512 
-0.3801467704315833 
0.01063207364715466 
-0.1991032502170366 
0 
0 
-0.1683307811115638 
0.0479588264330473 
0.09376393316273586 
0 
0 
0 
6.286451954091126e-05 
0 
0 
0 
0 
0 
0 
-0.01728391988111062 
0 
0.02455681599479601 
-0.09796286683276959 
0 
0 
0 
-0.2840988302895376 
0 
-0.1282882407293269 
0 
0 
0 
0 
0 
0 
0.023611060255764 
0 
0 
0.0418791279362782 
0.1151557138918487 
0.1519883127674264 
0 
0.06416756835730836 
-0.03600758297573974 
-0.1317755066164 
0.3542499172548021 
0 
0 
0.0390749035619788 
0 
0 
0 
-0.0289177968264944 
0.09796286683276959 
-0.0555714465172755 
0 
0 
0 
0 
0 
0.06358733765514302 
0 
0 
-0.1567185871266181 
0 
0 
0.09153328156529611 
0 
0 
0 
-0.1088991637443286 
-0.01807445142122466 
0.09702223802980128 
-0.3539311180311508 
0 
0 
0 
0.1022566403610417 
-0.5461601001093803 
-0.1704478720027723 
0 
0 
0.02974479524422341 
0.09521494642040998 
0 
0 
-0.01058771892425049 
0 
0 
-0.0007918417188497191 
0 
0 
-0.01048929362308632 
0 
-0.01583619619422985 
0.05334781812490311 
0 
0 
0 
-0.03473864507202545 
-2.069251137567657e-05 
-0.1118664459703871 
-0.0988998475621935 
0 
0.0822144033330352 
0 
0.1299306129210661 
-0.1582952155525846 
0 
-0.07975662290238558 
0 
-0.01470357903371053 
-0.1871969150165752 
-0.09675871215573562 
-0.1444309108645335 
0.1190783228083253 
0.07658405030718954 
0.03026408163377747 
0 
0 
0 
0 
0.2234329622980976 
0 
0 
0 
-0.3453739081677108 
0 
-0.09741722429529392 
0.08093467999977477 
-0.7193504193578437 
0 
0 
0 
0 
0.3218844936618322 
-0.1483965881412276 
-0.1154469955112252 
-0.0565773818937861 
-0.09109932035141692 
0 
-0.1055672925125757 
0.130342740029074 
0.09127863588104326 
0.0783796500655725 
0 
0 
0 
0.01603398642719377 
0 
-0.09027734285126028 
-0.1215587333458433 
-0.03462182236459303 
0 
0.0246264249817244 
-0.1838021642803853 
0 
-0.09191424430264632 
0.07397129717325311 
0 
-0.02603158102908281 
0 
0 
0 
-0.06305419686262402 
0 
-0.1058997219610538 
0.1543973529586239 
-0.07557893756592028 
0 
0.03181464780788491 
-0.1055672925125757 
0.001097359507024444 
-0.3047085653774714 
0.1735250318112037 
-0.1229340678833648 
-0.04124363622018154 
0 
0.1035607951293187 
0 
0.003110164893225563 
0 
-0.1072211025414657 
0 
-0.002536807635148476 
0 
0 
-0.02270064592861432 
0.03152677733654616 
0 
0.04696361662370675 
-0.06676423678351601 
-0.09281815608920166 
0 
0 
0 
-0.05262362975432636 
0 
0 
0 
0 
-8.236999496591526e-05 
0.1055672925125757 
0 
0.03202376542943439 
-0.2855372310177005 
0 
0 
0 
0.206625038247069 
0.09522530932650554 
0.06978227599337165 
0 
0 
0 
-4.084447118358822e-05 
0 
0 
0.04344327791285728 
0 
0 
0 
3.86627808963067e-05 
-0.0445075223215523 
0 
0 
-0.0001608264387208745 
-0.1926066096402572 
-0.7677727535625953 
0 
-0.1177879833214092 
0 
-0.1006236777067004 
-0.1514345167317971 
0 
-0.04448511653928569 
0 
-0.1711387495356139 
0 
0.1031499908252521 
0 
0.0535133448374696 
0 
-0.0705808069909746 
0 
0 
-0.09171190034107543 
-0.09563350677032696 
0.009240360774494732 
-0.1432064259260861 
-0.03523821933605671 
0 
0.2739718931613375 
-0.04558172126829892 
0.4541739218920158 
0 
-0.545465998160396 
0 
0 
-0.04428325899692814 
0 
0.04346726137650599 
-0.1113434965527703 
0 
0.07286923269959739 
0 
0.5110197261940506 
0 
-0.230492901442147 
0 
0 
-0.168065629109528 
4.698342897257934e-05 
-0.1824390818084434 
0.1359660350609945 
0.2450795872317836 
4.368146383179809e-05 
0 
0 
0.09084399053282505 
0 
0 
0.09214016158498206 
-0.005977111003673074 
0.0003792817666151348 
0 
0 
0.0003561758652883735 
0 
0 
0.1972250433613446 
0 
0 
0.2044262926901598 
-0.150473366748955 
0 
-0.1542299400919806 
-0.07559284498497264 
0 
-0.1127393002289244 
0 
0.09377446927739598 
0 
0.03046995720023409 
0 
0 
0 
3.197929167728705e-05 
0 
-0.2548371707510649 
0.08490934538887415 
0 
0.02385244109063841 
0 
0 
0 
0 
0.1184848722215013 
0 
-0.1763473586198975 
0 
0 
0.0001935077955231797 
-0.02162212886443284 
0.1416586894570308 
0.006552122423392392 
0 
0.1485564052820724 
-0.07299581223054893 
0 
0 
-0.02268225470949707 
-0.2786282754779817 
0.1055672925125757 
0.06537611716482877 
0 
0 
0 
0.07943640032002761 
-0.00139112760725756 
0.0001187791458989255 
5.307269993318802e-05 
-0.1529028081602992 
0 
-0.01370579661816974 
0.09150781357434612 
0 
-0.0524798656041496 
-0.2565964522495153 
0.1959257336655392 
-0.1572963895808791 
0.1340065078473227 
0.1409206922369844 
0.12649830726471 
0.04800443495519402 
0 
0 
0 
0.1740130570124933 
0 
-0.06627279736677461 
0 
0 
-0.1028670781770085 
3.200583734075605e-05 
-0.100338829784545 
-0.05574005937336903 
-0.2053479271858363 
-0.2100634661499226 
0 
0.124332182678779 
0.2024871851468424 
-0.08414683512702828 
0 
-0.2393917119835045 
0.1055672925125757 
0 
-0.01643526067846101 
-0.1375095274660857 
0 
-0.01934034241140258 
0 
0 
0 
-0.2660341898551898 
0 
0 
0 
-0.0009779198300789473 
-0.0373700152308193 
0 
0 
0 
-0.1149768818016003 
0 
0 
0 
0 
-0.01892136289199107 
0 
0.1394980926591922 
0.07135711160905742 
0 
0 
0 
0 
0 
0 
6.329294387100398e-05 
0.01684060576174794 
0 
0 
0 
-0.07298219793169672 
0 
0.04618021347188084 
0 
-0.2636548379518623 
-0.04121717300089506 
0 
-0.138947503393567 
0 
-0.1909206218153814 
0 
-0.01356216480773843 
0 
-0.02548213316134828 
0 
0 
0 
0 
0 
0 
0 
0.4772744030612709 
-0.02698420168911593 
0 
0 
-0.04904664263352958 
0.1178674148709372 
0.08421320895835237 
-0.001033128326720896 
0 
0.1193329272768689 
0 
0 
-8.694310305554172e-05 
0 
0 
0 
-0.02662979867347161 
0 
-0.07466196879996671 
0 
0 
-0.04774642314522619 
-0.2092526275719695 
-0.09409899968841268 
0.06742774840768186 
0 
0.08021361570605691 
0 
0 
-0.00119557883953078 
0.01255263860989056 
0.0632225328327459 
0 
0.08068112641780628 
0.2507791503594362 
-0.03109346223337081 
0 
0.10204291508918 
0.09965997826089157 
0.1078929904554068 
0.07421347401629495 
0 
0 
0 
0.07696733477885778 
0 
0.1460842309715621 
0 
0 
0.09159482492958521 
0 
0 
0.07080924171030155 
0 
0 
0.1159044973395834 
0.1243686680513541 
-0.01110340472647562 
-0.06844758181944682 
0.100095414897184 
-0.1020991892082032 
-0.0003977219444238648 
0 
0 
-0.001364816597770018 
0 
-0.0002926119198042138 
0 
-0.5088375454065555 
0 
-0.1208881833495734 
0 
0 
0 
-0.04666571658722184 
-0.0998713589925473 
-0.07683319714102591 
0 
-0.02835575546318832 
0 
-0.1073997438430647 
0.1056389559667226 
0 
0 
-0.00204074819679918 
-0.05527951032232603 
-0.03520863208718097 
0.2762292898795878 
0.05902453287353719 
0 
-0.129741548082083 
0 
0 
-0.07974057798656042 
0 
0 
0 
0 
-0.02872856173377008 
0.3142583222395952 
0 
-0.2498246843493871 
0 
0.0458916346041352 
-0.03348142916277922 
0 
0 
0 
0 
0 
0 
-0.01262404031338104 
0.0005405615589525454 
0 
0.07580999814151657 
-0.1425070833495906 
-0.3396134552520497 
-0.1975043567869296 
-0.0004912230384986034 
0.1443039260428411 
0 
0 
0.4729904135108673 
0 
-0.07622031916317609 
0 
-0.07832349734812113 
-0.0001530191478219315 
-0.08108567567963187 
0 
0 
0 
0 
-0.1680945624886963 
0 
0.08767602630570107 
-0.06251774357208612 
-0.0150921259388212 
0.0005069314804147631 
-0.05261195477843239 
0 
0 
-0.2281397523654403 
0 
-0.4711514109517727 
-0.08235122107882954 
0 
0.03896680008470844 
0 
-0.03146674707081665 
-0.2931772684691779 
0.0633560745679245 
0 
0 
0 
0.04162796997244163 
-0.0868310004392826 
0 
0.08378490691813188 
0 
0.06240974238640173 
0 
0 
0 
0 
0.02838046128095352 
-0.1055672925125757 
0 
0.1196809616735987 
-5.812004093937422e-05 
0 
0 
-0.1194880211104501 
-0.08807490905228141 
-0.1169892343209005 
0 
-0.1284150657220434 
0.06402638750790733 
-0.08269416876286766 
-0.0001212229474402378 
0 
0 
8.142247204250528e-05 
0 
-6.593641643046943e-05 
0 
-0.08853693405048031 
0 
-0.05447883686089863 
0 
0.182798353258878 
0 
0.3751237127574883 
0.01076389981850343 
0 
0.0906669258154755 
0 
0 
0 
-0.06081518641758639 
-0.07767553606447902 
-1.357440980700904e-05 
0.05734796922588657 
-0.1114985466306427 
0 
9.115077082140905e-06 
-0.1055672925125757 
0 
0 
0 
0 
-0.1665668253038028 
0 
0 
-0.1055672925125757 
0 
0.1673438699875715 
0.1185697034593856 
-0.03374342991475981 
0.07709192674347809 
-0.02869034220965176 
0 
0 
0 
0 
-0.02761025236666206 
0.002111236510956987 
0.1301131381545034 
-0.04820243461802028 
0 
0.04279495251487143 
-0.1640609427183793 
-0.2499908103783449 
0 
0 
-0.0002534315407091803 
0 
0.09366628414890513 
-0.1146337395040583 
0.08287551434853924 
-0.1520770984455621 
0 
0 
-0.009721797657827099 
0.2822734356495299 
0.03637099865736487 
0 
0.128190148635625 
0 
-0.04335592777173602 
-0.1656555758007776 
0 
-0.09520191195670728 
0.002609014864677874 
0.01817048867398106 
0 
0 
0.1055672925125757 
0.08472040104616745 
0.08625537315869741 
0 
0 
-0.03560438831155529 
0.0002283876694015427 
0 
0.08739628450120376 
0.1906390518470301 
0 
0.01284728058272643 
0 
0 
0.05824678363939626 
0 
-0.08834063765907624 
0 
0.0301828419817458 
-0.05200991605695039 
0.08382171151992215 
-0.0911257690070304 
0 
0.0002944579044754482 
0 
2.499889658986876e-05 
0 
0 
0 
0 
2.095056791813683e-05 
0.01370020746844106 
0.1134231010299142 
0 
0 
0 
0.1098751905762613 
0 
0 
0 
0 
-0.2542657868030674 
0 
0.08267340953800358 
-0.1098994085830223 
0 
0 
-0.2298314393242911 
0 
0 
0 
0 
-0.6433257084998374 
0 
0 
0 
-0.05945978872752165 
-0.06789475611769299 
-0.2827784950433453 
0.01546139674056342 
-0.000364688736864681 
0 
0.000177964406264447 
0 
0 
-0.0007888371623428767 
-0.01775360742528841 
0 
0 
0 
0 
0.0001316929694907933 
0.1277286545402621 
-0.05569946712434413 
0 
0.1577886960138988 
0.05025689321716369 
0 
0.06169745488025826 
-0.06318947469332269 
0.09257657139273312 
0 
0 
-0.0001411945062398354 
0 
0 
0 
0 
-0.2438206504822817 
-0.1036919572725985 
7.221682849892317e-05 
2.963108848872244e-05 
0.000292000915163708 
0.1055084188208481 
0.2142738755380977 
0 
0 
0 
-0.01623122860726753 
0 
-0.1348913400620328 
0.001240012616377175 
-0.0003245287374030231 
0 
0.1823048705925839 
-0.07690956836041206 
0.0008454528636269083 
-0.1362720798807628 
-0.1299011551849742 
-0.1264931374189321 
2.5958071531973e-05 
-0.5904910033168234 
0.03468430749615075 
-0.2871268468996489 
0 
0.1143939179672845 
0 
0 
5.418032862896082e-05 
-0.0008736601761204798 
0 
-0.05135389748287027 
-0.0470739533734434 
-0.1905750340202616 
0 
0 
0 
0 
0 
-0.248594989540794 
-0.01508633372828821 
-0.1381365495022241 
-0.05960365172290468 
0 
-0.0007328939801883746 
0 
0.02842989488661341 
0 
0 
0 
0.0610046807705053 
-0.01787659932026667 
-0.00210368776369654 
-0.1634029751560788 
-0.0221226928572426 
0 
0.000383824275936262 
-0.06657332981282087 
-0.09785156248728262 
0 
0 
-0.1659824478525384 
0 
0 
0 
0 
0 
-0.01554287611346016 
0.09231509776520934 
-0.000420176039072912 
0.06259217231438723 
0 
-0.0215392056810763 
0.3249735640888827 
-0.1055672925125757 
0.2388825903371769 
0 
-0.0664953903453829 
0.0661955288951987 
0.0006871915192078037 
0 
0.5681821723457134 
-0.1055672925125757 
0.0004698202435040799 
0.03169631314746765 
0 
0.06981702689037919 
-0.007903144754337267 
0 
0 
-0.1590755144927921 
0 
0 
0.0318510652608909 
0 
0 
-0.01019282878261098 
0 
0 
-0.09249897214519326 
-0.5613763513549158 
-0.05679237747725843 
0 
0 
-0.2335186328625949 
0 
-0.222522130353859 
0 
0.1162862871410015 
0 
0 
0 
0 
0 
-0.0002661600038985686 
-0.05232161902465185 
-0.07174030823829253 
-0.1060273036350172 
0.1979597889256764 
0 
0 
0 
0 
-0.0333174621886639 
-0.1744106669174682 
-0.04867378082938997 
-0.01531519574954568 
0 
0.0598807442995741 
0 
0 
0.04950435315515724 
0.09237417554641066 
0 
0.1636783489743016 
0.0001793730349398013 
0.2361407906753955 
-0.01394047723263334 
0 
0 
0 
-0.1362803474468341 
0 
0 
0.2058359691338768 
-0.06627199070463782 
0 
-0.03099256790876904 
0.1203966998442833 
0 
0 
0.08403679549816834 
0.03168099672519553 
-0.3130537172256927 
0 
0.1005408183609146 
-0.01821726198959975 
0 
-0.1055428360148834 
0.05534871203809623 
0 
-0.0002692335134997954 
0.07135711160905742 
0 
0.1588461684454503 
-0.1453081966739189 
0 
0.006846696805392337 
0 
-0.1686227538178425 
-0.1802231454395672 
0.148316365288226 
0 
-0.2076621468607096 
0 
0 
0 
0 
-0.01066934578539859 
-0.02555556414799911 
-0.09159890935264804 
0.0001679577607114597 
0.01551703311850299 
-0.05725746942240773 
0 
-0.3066060613248809 
0 
0.1377015656074797 
0 
0 
0.1122770047533084 
0 
-0.0001372108986660156 
0 
0 
0 
0.05911445988335437 
-0.2818271239559891 
0 
-0.1767512734289802 
0 
-0.1275155110257225 
0 
0.06095256917423302 
0 
-2.307135710510467e-05 
-0.2324300018234465 
0 
-0.09596770729812601 
-0.0001083320251819001 
0.2198634900431915 
0.2540070987563287 
0 
0 
-0.1479940045810151 
-0.09796286683276959 
-0.4236340069005913 
-0.05806313147775166 
0.2829640426129211 
0 
-0.2232685679533856 
-0.1000842573140292 
-0.09079455690280248 
0.01290224334976384 
0 
0 
0 
0.0002815396911175826 
0 
0.0441012089435466 
0 
0 
0 
-0.1057375315135202 
0.1264488196702517 
-0.0001590180113031677 
-0.01254575313784194 
0.04706338941707255 
0 
-0.02027179616104752 
0 
0.07890917376950854 
0.1032518335955209 
-0.05735473295780524 
0.01825766253698458 
0 
0 
0.08929235838565361 
-0.01461461983097201 
0 
0 
0 
0.335651848882651 
0 
0.07073439068297145 
0 
0 
0.1388267319000916 
0 
-0.02807984352862327 
0.09177896386486842 
0 
-0.01608566867686901 
0 
0 
0.01067039396865157 
0.0009075830828680562 
0.0817212842499332 
-0.03924044236590703 
0.06389536835692489 
0 
0 
0.02824830714980889 
-0.2250961441760169 
0 
-0.04207329874438135 
-0.1160677830841033 
0 
0.2590602058169705 
-0.09794166572579105 
0 
0.1322597724500768 
0.1055672925125757 
0.001347353295958525 
-0.06437891529439867 
0 
0 
0 
0.08662662731690335 
-0.1138413375357611 
0.01427395079807561 
-0.238024688110994 
6.567170666024822e-05 
-0.3276906370057445 
-0.09730255935309678 
0 
0 
0 
0.3210224387278787 
0 
0.1162761741613884 
0 
-0.01035074208386723 
0.1608124852045088 
0 
-0.188810740269323 
0 
0 
-0.1907938574961842 
-0.1275401695209021 
0.06688819446270652 
0 
0 
-0.1718379189590099 
0 
-0.1143411352575642 
-0.09714337489300276 
0 
-0.2677932274685605 
0.1341956785621021 
0 
0 
0.07393255856193857 
0 
0 
0.01022856635945308 
0.01948705893280991 
0 
0 
0 
0 
-0.006238212766655937 
-0.03833694078687548 
0 
0.02233587120081589 
-0.0003247388352031707 
0 
0 
0 
0 
3.576714334589529e-05 
-0.1584446216204778 
0 
0 
-0.07335950002139731 
0 
0 
0 
0 
0.2847220988085241 
0.06749174815692194 
0.02926535747067482 
0.247132607935963 
-1.288212402004428e-05 
0 
-2.642845698681721e-06 
0 
0.0001249871763081603 
-0.1047521032464779 
-0.2424813147303841 
0.02110995532734588 
0 
0 
-0.06312074448011185 
-0.1535883671990848 
-0.01309879724447414 
0 
0 
0.06021278773741173 
0.2029991810266933 
0.3053111262847744 
0.04679343859810376 
-0.01861350905623625 
0.09162446290907683 
-0.08710466585820613 
-0.04848825261852979 
4.490557923698802e-05 
0 
0.04848102511840573 
-0.6723842671746424 
0 
0 
-0.0002065778532388897 
4.917222356148144e-05 
0 
0 
-0.02776365175231765 
0.02661744771345963 
-0.171232160392063 
0.01459425778172056 
0 
0 
0.0813484496505613 
0 
0.0001360246186958292 
0 
0 
0 
0 
0 
0 
0.1055672925125757 
0.1755040036774914 
-0.07673494560502105 
0 
0.07266686615458323 
-0.09386252655505303 
-0.0149173442095366 
0 
0.02933939999736051 
-0.09585878655772603 
-0.0322139654760454 
-0.07660449452621172 
-0.0002914099062173766 
0 
-0.195276753966626 
-0.2613780098450547 
-9.808465762480207e-05 
0 
0 
0 
0 
-0.5238210326730716 
-0.04698084620734242 
0 
0 
0 
0.04131096587976937 
0.0539861551142989 
0 
0.06867217830579768 
0.05537821627322832 
-0.06693941404049093 
0.07328863550467977 
0.08567400122284557 
0 
0 
0 
-0.004062421429920179 
0.09808939310552772 
0 
0.00487305537040458 
0 
-5.154461923119748e-05 
0 
0.1480277473225616 
0 
-9.723613379706799e-05 
0.1239172704410966 
0.06501734107004771 
-0.02387617757930493 
0.2912611531553853 
0.1411017389112712 
0 
0 
0 
0 
0 
-0.1761672363621317 
0 
0.05675515996880923 
0 
0 
0 
0 
-0.1001481925837303 
-0.03948340906486792 
-0.0938376824696982 
0.6576041249426523 
6.056173727713132e-05 
0 
0 
0 
-0.1884910574555178 
0.02566876062904123 
-0.1310087058670961 
-0.0002308081510686743 
-0.15393466380499 
0 
0.1509824599803918 
0.05899915796248363 
0 
0 
0.08009626460300832 
0 
0 
0 
-0.0391279292100483 
-0.09175729408352394 
0 
0 
0 
-0.07170683861229341 
0 
0.2400671900086903 
0.06828427093747376 
-5.269457349266698e-05 
0 
0 
0 
0.0001173155844454028 
0 
0.0004795816598110237 
0 
-0.06111462472473136 
0 
0 
-0.01797923574733122 
-0.0001470344328366121 
0 
0 
0 
-0.05952431755449245 
0 
0 
0 
0 
-0.335489302364094 
0 
0 
0.118037795543383 
0 
-0.5028251930081491 
-0.04509057142690004 
0 
0.2551893273301164 
-0.1010200157683001 
0.1908408731691488 
0 
0.002252424132743644 
0 
0 
0 
0 
0 
0 
-0.108038274982406 
8.451528781211129e-05 
-0.09511646319557965 
0.0548458335674117 
0.6786357294382229 
0 
-0.106489459338369 
0 
0 
0 
0 
-4.166372912780763e-05 
0 
-0.04514778138299024 
0 
-0.1232022967323755 
-0.1459931408376292 
0 
0.0002031595370475772 
0.12861839146042 
0.0003084100558920951 
0.1335829281231232 
0 
0 
8.1853107462798e-05 
-0.02921909102388703 
0.02280701177377028 
-0.08090672021947164 
0 
0 
-0.0594133737384086 
-0.1206469841637838 
0.07673410724495923 
0 
0.2179652684591928 
0.5512967346514891 
-0.3084417271312251 
0.1157942719908643 
0 
0 
0 
0 
0 
0 
0 
0.06600921313055627 
0 
-0.1055672925125757 
0 
0 
0.02799857345615397 
0 
-0.02484807533639309 
0 
-0.3211771780148365 
0.1055672925125757 
0.1407771495008666 
0 
0 
0 
-0.2001965297551423 
0 
0 
2.79133050001944e-05 
0.03688009080718991 
0 
-0.3651250006305218 
0 
0 
-0.09091495644621372 
0.01894148210871965 
-0.1258175317837558 
0 
-0.01850951714716374 
0.06615603653455189 
0 
-0.1981133973342958 
0 
-0.6051189213160167 
0.04130713991874999 
-0.02813802873993566 
0 
0.1443233461003089 
0 
0 
0.2340238060605676 
0.2124377215376818 
-0.03744720284165648 
0 
0.6434567132930231 
-0.007763118529502891 
0 
-0.1737365332003249 
-0.01915377882706259 
0 
0.02047708503628681 
-0.1629980798127366 
-0.267004046822875 
0 
-0.1470209871227947 
0 
0 
0.04245131106338965 
0 
0 
0 
0 
0 
-0.07814702336923109 
0 
-0.03351867107694755 
-0.2530476633543115 
-0.07712807717782856 
4.019599951434353e-05 
0 
0 
-0.141009228579705 
0.157441727416108 
-0.0498889169920943 
0.1050879278809066 
0 
-0.03917873250339014 
0 
0 
0 
0 
0.03816737904388549 
0.1533625073731059 
0 
0.03585841804821168 
0 
0.3757378219609955 
0 
0 
0.02498313939385145 
0.01044066361545038 
-0.09326481152271775 
0.6119134791784739 
0 
0 
0.00858932105958264 
0 
0 
0.0002268840718437069 
-0.06091703553685887 
0.133697187040011 
0 
-0.5077921023155672 
-0.328761896394181 
-0.07913239859324847 
0.254008191888129 
0 
-0.3622063109905505 
-0.1627622937382089 
-0.1523731385502945 
0 
0 
0 
0 
0 
-0.1007053746819886 
0 
0 
-0.0493442285449284 
-0.1340754857553654 
0 
0 
-0.08180582741924552 
-0.03943884964663075 
-0.09652941873173475 
0 
0.249380588823224 
0 
0 
0 
0 
0.2550175908990245 
0 
0.0008335585198907796 
0 
-0.0006348198526807442 
0 
-0.02012909446069032 
0.1489982847413368 
0 
0 
-0.302962037079703 
-0.1761714198431264 
-0.0001869296721418659 
0.1114761141709192 
-0.1055672925125757 
0 
0 
0 
-0.0005857852083246788 
-0.4983634207111248 
-0.1063536988693972 
0 
0.2344412684013222 
0.1332205081153052 
0 
0 
0.1641667192357646 
-0.09557639617062368 
-0.09882764972995695 
0.08277271163236963 
0 
0.1000328699716491 
-0.100572601143788 
0 
-0.11034165931673 
0 
0.4111188687241717 
0 
-0.008373887682976986 
0 
-0.1333675474514338 
0 
0.2398485697626273 
0.4005377051565887 
-0.1538135728352863 
0 
-0.2627769478356095 
-0.1055212415923031 
-0.02012909446069032 
0.03675832267066312 
0 
-0.1262653045498718 
0.2157733727022437 
-0.1202891027762283 
-0.1088622002008948 
-0.1885387242554384 
0.06173981886623321 
0 
0.002000992945280767 
0 
0 
-0.3604682953479209 
0 
0 
0.3746695417785186 
0 
0.03138519943486393 
0 
0.0802628182562013 
-0.1071939536994706 
6.129150237229095e-05 
0 
0.1089431714368827 
0 
0.1706058483760714 
0 
-0.00355665930614809 
0.08963806228056964 
0.193403469163756 
-0.1437169255201724 
-0.5792742990379964 
-0.1536738974102127 
5.975240127840465e-05 
0 
-0.02231121846843291 
0.5795180098310457 
0.05243629597800058 
0 
0.0363042082130041 
0.06539798005580133 
-0.03913861282853483 
0.2500119918213222 
0 
0.000377903104190702 
0.1139653627699783 
0.1799876712578464 
0 
0.1055672925125757 
0 
0 
0 
0.03248475839101454 
0 
0 
0 
0 
0 
0 
0 
0 
0 
-0.05210960246348077 
-0.04841178440677003 
0 
0 
0.0259111417858841 
0 
0 
0 
0 
-0.08689750588632587 
-0.04372961132192528 
0 
0 
0.1827277884142694 
0 
0 
0 
-0.02053662375194899 
0 
0.04569033019449166 
0.06923862745062155 
0 
0 
0 
0.1159267703955681 
-0.05306403565552104 
-0.166104196043812 
9.343411197420648e-05 
0.07701966118993042 
0 
0 
0 
0 
0.1055672925125757 
-0.07840698876514789 
0 
-0.02127239836893255 
0.1612820583910771 
0 
0 
0 
-2.283054050533185e-06 
0 
0 
0 
0 
0 
0 
0 
0 
-0.2317394719731225 
0 
0.01277589044383841 
0 
-0.2568358164259381 
0 
0 
0.0003532532764661204 
-1.847879835113694e-05 
-0.1088689243179643 
0 
-3.732568364358681e-06 
0 
-0.005346140551096654 
0.0001257025477924422 
-0.3276347913184903 
-0.09744568993653061 
0.4033807230661287 
0.1181564267330825 
0.003109719533987953 
-0.09617032383273133 
0 
0.07378307937720921 
0 
0 
0 
0 
0.0001475825701620615 
0 
-0.1156189336913359 
0.08241531469407834 
-0.0006507891543758378 
0.1398647050164532 
-0.06048029140389755 
0 
0.1923702278499402 
0 
0.1419310210547114 
0 
0 
0.1165364957546349 
-6.599505604094251e-05 
0 
0 
0 
0 
0 
-0.09680528449838474 
0.4257009042897259 
0.1833906671434168 
-0.1388608637286405 
0.02465045573215875 
0.1122600774255293 
0 
-0.1018787141147808 
0 
0.01046349074403671 
0 
0 
0.1296536574855415 
-0.2299192203318179 
0.3178148943420561 
-0.09768022348908607 
0 
-0.1915044315996725 
-0.003271709695316504 
0 
0 
0 
0.05844415956092615 
0 
-0.1673995022487402 
-0.2306333489534105 
0 
0.1010635859545199 
0 
0.08090268661897888 
0 
-0.1028528893207834 
-0.1448170726313975 
-0.3693364220773215 
0 
-0.1753134701219249 
-0.1582700263748772 
0.03542869467837037 
0.001520965274983849 
0 
0 
0.08601492865061094 
-0.06037160657526386 
0 
0 
0.1019041037612821 
0 
0.1794966893254431 
0 
0 
-0.4980292999234194 
-0.04093121397040303 
-0.07451982809059252 
0 
-0.2150777186064274 
0 
0 
0.2083793981132786 
0.0004555529447291006 
0 
0.1754891776299011 
-0.03258603074897129 
-0.0920070546290235 
0 
0.02039764521101359 
0 
-0.06779747587131109 
-0.2838304692847498 
0.0004598633458068706 
0 
0 
0 
-0.2997738768718204 
0.1736597422081279 
0.1811805279378653 
0.003671917205484028 
0 
-0.0001558704458816618 
0 
-0.1055672925125757 
0.3486917312946754 
0 
-0.07107027191339182 
0 
0.0001880544175973228 
0 
-0.1296338283852641 
0 
0 
0 
0.07448152365606735 
0 
0 
0 
-0.1384425065810498 
-0.1654520784677245 
-0.06816238177942786 
0.2143179516632251 
0.1225270473499283 
0.07001807140269325 
0.09144189788610205 
0 
0 
-0.1140023165338525 
0.08181626802719602 
-0.2244429213803618 
-0.03924044236590703 
0 
-0.0243970409553277 
0 
0 
0 
0 
0.02682815439202756 
0 
0 
0.06537982047483386 
0.0001664334032553954 
0 
0.03462757810814439 
0.03199261686200586 
0.2581403401129437 
0.1250820665629318 
0 
0 
-0.1181293474189461 
0 
-0.05568087248957791 
0.08052437186358118 
0.07686911757597691 
0 
0 
-0.3684919948473036 
-0.1021547506216561 
0 
0 
-0.04605576868380742 
0.04486299868273257 
-0.08809300672471315 
0 
0.1493120159108618 
-0.02524835436112082 
0 
0 
0 
-0.0171199812445971 
-0.07278455415555622 
0 
-0.0607492200546535 
0 
0 
0 
0 
-0.08906636305739102 
0 
-0.3142108647523626 
0 
-1.862530537719049e-05 
0 
-0.02632136996711664 
0 
0 
0 
-0.1055672925125757 
0 
0 
-0.2661046328975181 
-0.1022729623134623 
0 
0 
0 
0 
0.01771471224040719 
0 
-0.1003235012000181 
0 
-0.06365682255928097 
0.2180246598156933 
0.07738431370112618 
0 
-0.1423796575716017 
0 
-0.03104992505307918 
0 
-0.1938802812251648 
0 
0 
7.889590316691067e-05 
-0.1079932655033492 
0 
-0.09005486076359159 
-0.1182004220471868 
-0.04263614343369057 
0.1619369198475893 
0 
-0.3615730266218606 
-0.3971823576771406 
-0.08061159032807953 
0 
0 
0 
-0.1055672925125757 
0 
0 
-0.06484847903936837 
0 
-0.009689943405938536 
-0.2395043079847418 
0 
-0.03187310633451831 
0.0004772899961907086 
0.1055672925125757 
0 
-0.1136472614755889 
0 
-0.1640065055490114 
0 
0.09734872940797343 
0 
-0.00110262132077622 
0 
0.04857400925991417 
0 
-0.09175729408352394 
0 
0 
0.07855138606746175 
0 
0 
-0.0003495319706140212 
0 
0.1231158055595389 
0 
0 
0.1127363987316732 
0 
-0.07483922341264011 
-0.0595499161976672 
0.0004808064405624002 
0 
0 
0 
0 
0 
0 
-0.4977656685871369 
0 
0 
-0.0002377562857606621 
0 
0 
0 
-0.1573109244848279 
-0.04951443839049849 
-0.07029849117481997 
0.06069350559411774 
0 
0 
0 
-0.01615993724025614 
-0.1006480712726226 
-0.008901214303653236 
0.0009348690699597646 
0.1395191518173177 
-0.05187103620375594 
0 
0 
0 
0.05359071530578254 
-0.4174125477317628 
0 
-0.2017854944679208 
-0.03448969997584941 
-0.1274041805314115 
-0.08652039927203525 
0 
0 
0 
0.2362067666059465 
0 
0 
-0.08268852908047605 
-0.09837352681326639 
0 
0 
-1.933289207449553e-05 
0.1775725870109368 
-0.0179045136032497 
0 
0 
0 
-0.05106549265999431 
-0.1055672925125757 
0.06131150613573152 
0 
0 
0.07114228362693242 
0 
0 
0 
0 
-0.01135493286152277 
0.01897423887263061 
0 
0 
0 
-0.04993324026041764 
0 
-0.05762755564170723 
0.2968609086481487 
-0.2617009768257604 
-0.1129873000601074 
-0.1577960017504674 
0.0121109719721049 
-0.06692514913661203 
-0.0352416050468611 
0.05471316006159482 
-6.225925934622966e-05 
0 
0 
0 
0.1055672925125757 
0 
0 
0.0501015549341575 
-0.007055977948497752 
0.1236967134234423 
0.08638224417304273 
0.1319881413458603 
-0.1154643335395201 
0 
-0.0005514063608150167 
0 
4.270991656894681e-05 
0.0001679770382631517 
0 
0.449845047278998 
0 
0 
0 
-0.08875687394565127 
0 
0 
0 
-0.06087540242568981 
0.1697549644204021 
-0.366754139374128 
0 
0.07865122434526717 
0 
0 
0 
0 
-0.08121799485638193 
0.0001737371027587327 
0 
-1.568450976386297e-07 
0.1306928417040141 
-0.000252468572824991 
-0.09283702835190695 
-0.03083912691482441 
0.1353281860000604 
0 
-0.1514079756225415 
0 
0.07653419387808144 
-0.002045263206164973 
0.0874370973450747 
0 
-0.0836670639809329 
0 
0 
0 
-0.0462336717483007 
0.1010635859545199 
0 
-0.2010891202398213 
-0.1055672925125757 
0.04218831068500183 
-0.2661622904913379 
0 
0.1354957647196805 
0 
0.07493968515724797 
0 
0.0003330756377560792 
-0.0007531277602362495 
0.03695717374475592 
0 
0.06167953049764566 
0 
0 
0 
0 
-0.3712018817882622 
-0.1055672925125757 
-0.1055672925125757 
0.1680866534010316 
-0.08099920395352463 
0.00486236365203092 
0 
-0.00794325092009285 
-5.680987744506171e-05 
0 
0.4897223855313376 
0.06871313232558858 
1.239299848034637e-05 
0 
0 
-0.04253715435633205 
-0.08120552085736504 
-0.006065538780439713 
0 
0.0002180348043689447 
-0.241667436872705 
0 
0.1422556550175856 
0 
0 
0.07557440882581078 
0 
-0.1878827464705934 
0 
0.1052540323294812 
0.07185944464813548 
0.003326407448178284 
0 
0 
-0.1426082954891185 
0 
0.09796286683276959 
0 
0 
0.0579504202262367 
0 
0.002115302237206707 
0 
-0.1889072518251799 
-0.1094826406436722 
-0.05400397182155839 
0.2471935685224761 
0.2032362464238877 
-0.08843057664123501 
0 
0 
0 
0 
-0.01690581410182386 
0.1403310131237061 
0.05715266611354977 
0.1953954288950157 
0.1641212638380473 
0 
0.0004357271159406238 
0 
0 
0 
0 
0 
0 
-0.02304471436332309 
0.09475083217468086 
0.3264379293461554 
0 
-0.2221104056330171 
0 
0.0001190434583868237 
0 
0.2450790625159903 
0 
0 
-0.02899650604318144 
-0.3269844869962278 
0.04051031929193197 
0 
0 
-0.3460180942982866 
0 
0.004762568976512291 
0.1188109375137186 
0.08721461037978855 
-0.02563425332371895 
0 
0 
0.2489708700377134 
-0.1157162169710669 
0 
0.1003199388317764 
0 
0.5901474403179633 
0.017046272062892 
0 
0 
0 
0.07984811846037851 
-0.1228059286839956 
0 
0 
-0.05182330690143261 
-0.0588732449932281 
0 
-0.106017113526258 
0.1549627085872241 
-0.008343948145673373 
0 
0.1078166886649727 
-0.2733530419579993 
0 
0 
-0.0805538108733517 
0 
-0.01108093262556531 
0.1397836255235623 
0 
0.4818163509451222 
0 
0 
0.1236949050290729 
0 
0 
0 
0 
0 
-0.1112766993967684 
-0.06988708666198541 
0 
0.1762856688510411 
0 
0 
-0.1397004971234804 
0 
0 
0 
-0.0005096646626310676 
0.09796286683276959 
0 
0 
0 
0 
0 
0 
0 
0.02940284614719247 
0 
0.1213255790484072 
0.006691747450361106 
0 
-0.1222868344120302 
-0.009301855219896935 
-0.1055672925125757 
-0.4288690154003312 
0.1654583647138169 
0.02044759672447885 
0 
-0.04317402049265069 
-0.2088128456691245 
0 
0.0001110074352239811 
0 
-0.2763879690293662 
0.06714171973251025 
0 
-0.02153525351489462 
-0.08731763659422072 
0.0003322549228539 
0 
-0.1111064805465755 
0.01369168518304223 
0 
0 
0 
-0.08377283570833373 
0.0233397909463059 
-0.0009014659602004055 
0.0896152744001861 
-0.05521294749085098 
0 
-0.2797115063343875 
0.1055672925125757 
0 
-0.09925990609170998 
-0.101630864405294 
0 
0.09615888692862147 
0 
0 
-0.1055672925125757 
-0.01827633539514108 
-0.08653335260280433 
-0.03622984598706251 
0 
0 
-0.1656676128205828 
0 
-0.0004168855870640246 
-0.01161210439455011 
-0.1341874556452725 
0 
0 
0 
0.06571529922911741 
0 
-0.2138935670150701 
0 
0 
0 
0.01220878831031316 
-0.06494108695583087 
-0.0635113200088108 
-0.05388045086939856 
0 
0.1483399445404974 
-0.06199295192098551 
0.04330224822764599 
0 
0.1160264877653342 
-0.02019652291121141 
-0.1058240489988846 
0 
0 
-0.2902210927567708 
0 
0.05755368411608451 
-0.1337356726338322 
-0.2045564882910725 
0 
-0.0481048829432064 
0.06208954458987334 
0.07745660499427499 
0.01857887885855674 
0 
-0.02354838270786177 
0.1055672925125757 
0.09889770308227966 
8.805356791607467e-05 
0 
-0.1055672925125757 
0.1272370921483235 
0 
0 
0.1055672925125757 
0 
0 
0.1162712557505721 
-0.01992985060818828 
0.04751005384599692 
0.08319280313753556 
0.1422072726477915 
0.1466620269081805 
-5.779237029958489e-05 
-0.01014486673797844 
0.04730498580569351 
0 
0.208068400039111 
-0.000829819034380742 
0.06538803663295215 
0.2004096181324314 
0.05756096730282007 
-0.1624376463348128 
-0.0172733794294379 
0.0004843136486791366 
-0.05129053351349144 
-0.0005115267890872543 
0 
0 
0 
0.02622607261115837 
-0.3990073704262168 
-0.001493289188242534 
6.150956922663426e-05 
0 
0 
0 
0 
0 
-0.02746905007762745 
-0.131765312811216 
0 
0.1049491415020642 
0 
0.2508249876108671 
0 
0 
-0.06941869279296856 
-0.09206127873548293 
0 
-0.1489152697982003 
0 
0.05757552674850733 
-0.04922782501696349 
0 
0 
0 
0 
-0.06887581195263125 
0 
0.07353119674216604 
0 
0 
0 
0.1618687561906468 
0 
0.1281816849441717 
0 
0 
0 
-0.0001212229474402378 
0 
0 
0.1178466844026688 
-0.19032332908263 
0.1307020457572027 
0.09796286683276959 
0 
-0.1387279696609565 
0 
-0.6241987235910249 
-0.05157454706365827 
-0.02760124404450283 
-0.084511371864883 
0 
0.05144138612079113 
0.02895061115872886 
-0.03792657410905592 
0 
-0.4102177764496349 
0 
-0.1055672925125757 
0.1813462651104424 
0 
0 
-0.01054179016455987 
0.09540524529244983 
0 
-5.66817684395108e-05 
-0.5619055891933203 
0.06830911548787749 
0 
0 
-0.0003326538453430866 
-0.08960885609307206 
-0.03526809364037579 
0 
0 
-0.2234950738673389 
0.1414260225064094 
0 
0 
0 
0 
0 
-0.01588192602995687 
0 
0 
-0.07904610383359111 
0.1029843928451435 
0.03701843990666256 
0 
0 
-0.09367971106533748 
0.122240483476896 
0 
-0.0365512164717209 
0.2823797404929559 
0.2005989206366285 
0 
0.0003495352459958391 
-0.058073697702605 
0 
0 
0 
0 
0 
0 
-0.1348001598485093 
0 
0 
0.1587400475028437 
0.06367512534715622 
-0.008929482490225009 
0 
0 
0 
0.0006028876711670454 
0.07236981896010017 
0.006492395130200358 
0.1950698671027957 
0 
0 
0 
0.2148870729031669 
-0.03063898758873052 
0.0980515344780036 
0.04914851828926708 
0.07504779036350831 
0 
0 
0 
-0.05381600335098109 
0 
0.2535823588491051 
0.09874715583104318 
0.008289978365624758 
-0.05068927697063706 
-0.1028122902881924 
0.05765731605906295 
0 
0 
0 
0 
-0.08256216408068018 
0 
0 
0 
0.02954245235812339 
0 
0 
-0.1579223394624341 
-0.1293259981762652 
-0.0002160431566576392 
0 
0.04054844035064489 
-0.1418051113061028 
0.1822289897941362 
0.0906759672927074 
-0.3730338066374483 
0 
0 
0.0149687063128602 
0.02038821588744887 
0.08963715903442113 
-0.1097927264163498 
0 
0.1165568029977617 
-0.02612850339296087 
-0.2133460496101615 
0.0001191281146578769 
0.7484902070245714 
-0.1517502200837132 
-0.1007989770208742 
0.04206304685431108 
0.151354418644818 
0 
-0.3922217632097945 
0 
-0.05998453998842315 
-0.06536486760025773 
0.03886255865525074 
0.0545262798480568 
0.1124872246433322 
0.002263854981760983 
0.1055672925125757 
0 
0 
-0.1334818493834039 
0.05600509331369974 
0.06054719192650114 
0.1551012211921153 
0 
-0.0002382042207585077 
-0.006150349947004955 
0 
0 
0.08108400121497319 
-0.2091192205768428 
0 
0.07459445223579661 
0.1360746782055733 
-0.03517639495567597 
0 
0 
-0.1191471030233872 
-0.03171069593618487 
0.05503062423864462 
0 
0 
0 
0.02927731831606905 
0.2278649538567402 
0 
-0.0002743902403087727 
-0.1109109132477945 
1.752091546495685e-05 
-0.3014378415887918 
0 
0.129846366841209 
0.05420731878110927 
0.2221625655749422 
0.1055672925125757 
0 
0 
-0.0346507431335739 
0 
0 
-0.02140320898322479 
0.02895840940759663 
-0.05948357783823784 
0.1558315982781536 
-0.06638254563167846 
0.2032927960405454 
0.08540751990317987 
0 
0 
-0.05093701775542662 
0 
0 
0 
-0.1024978808257453 
-0.03687138006534964 
0.1632828129601906 
0 
0.2366308563774202 
0.2591812176885763 
0.7396162735481112 
-0.1055672925125757 
-0.01881448742263972 
0.06029025415198427 
-0.09027554564131351 
0 
0 
0 
-0.1260557272311773 
0.1051490271007282 
0 
0 
0 
0 
0.0004328972053926231 
-0.009472843075504025 
-0.02901251729220464 
0 
-0.06965550143794756 
0 
0 
0 
0.07173586438155165 
0 
0 
0 
-0.01579679859205098 
0.000337274838180501 
0.133779315983743 
0 
0 
0 
0 
-0.1864366820585363 
0 
-0.07226239779641731 
0 
0.1140226711215927 
-0.008353324461124858 
0 
0 
0.07089476367968699 
-0.06741408642310846 
-0.009378310912901892 
0.1441187808806642 
-0.05789698356502335 
-0.3078278200168549 
0 
0 
0 
0.1340681739292518 
-0.1910018426040593 
0.1610253599688872 
0.1946857794948584 
0 
0.1930458665413786 
0 
0.04427106436001724 
0 
0 
0 
0.2794999032575956 
-0.1189857869390476 
-0.01897244502659664 
0 
0 
-0.2115804026518912 
0 
0 
0 
-0.1122001473233942 
0 
0.006332380845592183 
0 
0 
0 
0.1605278531122578 
-0.07814702336923109 
0.001166258411183004 
0.1644634721164731 
-0.1055672925125757 
0 
0 
0.1900502120154849 
0.06268873656023702 
0 
0 
0 
-0.0001525996579218685 
0.0002370933776942084 
-0.04683642161805904 
0 
0 
-0.07335558998214167 
0.1020405545713494 
0 
0.04584277602651957 
-0.2203381843138353 
0 
0 
0 
0 
-0.03792967612779592 
0.2877993821785945 
-0.04674832913763813 
0 
0 
0.0001279798077175972 
-0.123887830426575 
-0.007597700565386145 
-2.29647919089054e-05 
0.07925863422718726 
-0.145451341369833 
0.4724232589295552 
-0.1055672925125757 
-0.133838135801107 
0 
0.04526962667877944 
-0.1055672925125757 
-0.1039928690780215 
0 
0.0001326642366427934 
0 
0.005171961808845424 
0.04554554314145652 
-0.08721534654300815 
0.0587157445003335 
0.4199832961539094 
0 
0 
0.1493531402376445 
-0.1055672925125757 
-0.1233124116775542 
0 
-0.1919721648376295 
0 
0 
0 
-8.055166157496055e-05 
0 
0.04759463235038489 
0 
0.1055672925125757 
0.1055672925125757 
-0.06123663939229191 
0 
-0.09974292280700872 
0.1145579117898284 
-0.0869407753131281 
0 
-0.08217493290904257 
0.09117462249566073 
-0.06290678598541494 
0 
0 
0 
0 
0 
0 
-0.16189002971901 
-0.1055672925125757 
0 
-2.234030325797065e-05 
0.01252581153922356 
9.318987726279683e-05 
7.712974233756415e-06 
0.1550953742378682 
0 
0 
0 
-0.06383733003250763 
0 
0 
0.01376444909198138 
-0.1055672925125757 
0 
0 
-0.1293554003344321 
0 
0 
0.0613416021885661 
0 
-0.07327420746238171 
0 
0 
0.1169910200937993 
-0.06678056694545262 
0 
0.09555510314651458 
0.09838704491110678 
-5.390706968180821e-05 
0.1050950879718967 
0 
0.1944084148262304 
0.1397766881199493 
0.127636849972005 
0.01687010098321816 
-0.03791965280423111 
0.07828793367340045 
0 
0.1119845528330085 
0.0002581277259219319 
0.1175119605368398 
-0.02878640972792225 
0 
0 
0 
0 
0 
0.4308683972620614 
0 
0 
0.05057874969777044 
0 
0.08298086008735003 
-0.0910468258248178 
-0.2344386202855724 
0.1140614031181553 
0 
0.03082644709798828 
0 
-0.07107800273846149 
0.1487697216815686 
0.1657641019965664 
-0.09858033487401043 
0 
0 
-0.2031698527049314 
0.09513770175361361 
0 
0 
-0.108984050290129 
0 
-0.09155540501134549 
0 
-0.419514442486694 
0 
-0.04777186636533873 
0.05683584643182909 
-5.263664569146157e-06 
0 
0.03318934636800492 
0 
-0.07518212204213366 
0 
0 
0.03872636117787598 
0.02829875653901638 
0 
0 
0 
0.07583365938021507 
0.05560886709867627 
-0.2268624777092352 
0 
0.002477953331064485 
0.2309467928720139 
0.1209291369817695 
0 
-0.2007478840120185 
-0.1752548907112584 
0.5106862304454248 
0 
-1.99142957301954e-05 
0 
0 
0.0001003231310997965 
-0.02800627837799438 
0 
0.040742945952876 
0.09724906200713604 
-0.00101548860006829 
-0.1107509767741933 
0.07106963612469538 
-0.1026174437043042 
0 
-0.01916957532201518 
-0.001080463543093657 
0.04810074117251735 
-0.1150662907235574 
-0.1234279772648351 
0 
-0.003256208604518829 
0.006477890572769832 
0 
0.02768085746641411 
0.001450675103880265 
0.553922462465684 
0 
-0.1561468641585775 
0 
0 
-0.1997830235263773 
-0.03269619410092903 
0 
0.002898102924520196 
-0.06330418671981408 
0 
0.1902421074522497 
0 
0 
0.1368499026912157 
0 
-0.2401672214146149 
0.3883182778569891 
-0.2359845017813579 
6.661658458886275e-05 
0.1084859768555803 
2.954816528401364e-05 
0 
-0.1922112944850001 
0 
0.1123770248063581 
0.136527726527763 
0 
-0.1622162014651795 
0 
0 
0 
0.07328256144284134 
0 
-0.02738638477861018 
0 
0 
-0.001729302686392803 
0.3587901133004007 
0.1062856121434246 
0.03265471800108386 
-0.01495360564086614 
0.3259877458675866 
0.003045080164686345 
0.1141999395282051 
0.005120525858046905 
-0.05823728555670662 
-0.3881371094409094 
-0.05707560593115059 
-0.08948994135622759 
0 
-0.2477057045543039 
0 
0.001388768996225294 
0.0604219957090479 
0 
-0.04777849113363693 
0.07365156194645464 
-0.1806711851760746 
0.0340284213619512 
-0.02259340964981075 
0.1330106793032765 
0.1110103266302315 
0 
0 
0 
-0.03106904460591498 
-0.07635530438040755 
0.10840618363733 
0 
-0.0005283915182593035 
-0.0002391496862027419 
0.192755391371255 
0.05675831361228224 
0 
0 
0.04449470681788917 
0.1497815333398568 
-0.1689761195904066 
0 
0 
-0.0002692291314946912 
-0.1391901155062162 
0 
0 
0 
0 
0.1469751578486796 
0.02016796877981063 
0 
0.07518247681770454 
0.1350109533664802 
0 
-0.06508551787230127 
0 
0 
-0.1038600490626986 
0.05042482160052406 
0.3377799170159368 
-0.0527898575031644 
-0.0003565829036481292 
0 
0.1042895682527876 
0.2426424883112234 
0 
-0.08688869401725183 
0 
0 
0 
-0.08725479143637499 
0 
-0.09229500895462144 
0 
0.2255868922476787 
0.0006568218920113755 
0 
0.1993955127898198 
0 
0 
-0.2796845113868817 
-0.05929712134291891 
0.09832292031153905 
-0.04879797001550257 
0 
0.0001218745081563716 
-0.07627983883210646 
0.07945256989861597 
-0.2384920843783969 
0.1313872117865262 
0 
0.2503437146461189 
0.1209305431887191 
0 
0 
-0.01608860860149927 
0 
0.3757280162991596 
0.006217929384074335 
0 
0 
0 
0 
0 
-0.03952914541435124 
-0.1251000396889678 
0 
0 
0 
0 
0.1089698327278235 
-0.05479850331295293 
-0.2774314956542924 
0.1486323213731909 
0.1333570644384514 
0 
0 
0 
0 
0.001267272707249597 
-0.04465034551532292 
0.2206888094620279 
0 
-0.1133690202123652 
0 
-0.5854403136207732 
0.5599740758494096 
0.06467037056493664 
0.09255196161928225 
-0.5663673680007186 
-0.2107850905254007 
-0.180456242966374 
0.3374154226027871 
0.08680374444298986 
0.05465292475775837 
0 
0.3539725327466395 
0.06832893424648723 
0.08140614336194205 
0.145846835100529 
-0.01469006098033514 
0.0518176681378093 
0.02886644715371127 
0 
0 
0 
0.2265660463179021 
-0.100185572110195 
0 
-2.844060445347054e-05 
0 
0.0002989129896264957 
0 
0 
0 
-0.04178385248940024 
-0.08285652858929141 
0 
0 
-0.05797436942017133 
0 
0 
-0.09575900300752804 
-0.1012659766104532 
0 
-0.0001340657942907941 
0.0005405615589525454 
0 
0 
0 
-0.2491832416127316 
0.01073029393797512 
0 
-0.6651746519926612 
-0.2490734463303438 
0 
-0.04745671414512312 
0.04610952420392736 
0 
0 
-0.0253459692479789 
0 
0 
0 
7.488169775050592e-06 
0.1499856982622071 
-0.07349341507090625 
0 
0 
-0.0539651206168775 
0 
0 
0 
0 
-0.1573488140269725 
0 
0 
-0.09652327900205329 
-0.0007128272649163567 
0.04019365106258023 
-0.197719470894804 
0.07203459764522493 
0.04059661982913236 
-0.09554003275847416 
-0.0214132740055274 
0 
0 
0 
0 
0 
0.5960797363752692 
0 
0 
-0.02888651500986144 
-0.1634839172559167 
0 
0 
-0.09515630473925633 
0.1353965655740245 
0 
0.2981947286289819 
0 
0 
0 
-0.002139072786695607 
0 
0 
-0.08960958379260209 
-0.1031780570813273 
0 
-0.1058841993630541 
-2.73574894191288e-05 
0 
0.038005356555649 
-0.03507063368235094 
0 
0.1055672925125757 
0.06919040312083247 
0.01791095808176754 
0.1172506713145966 
0 
0 
0 
0 
0 
0.1276195607532368 
-0.01610078598637433 
0 
0.01464038534484378 
0.09371939479755989 
0 
0 
0.1663815175369463 
0 
0 
0 
0 
-0.03420285657967147 
0.01348798198369015 
0 
0 
0.1591682355494289 
0 
0.2901384891732269 
0.1594488495760039 
0 
0.05482853752247536 
-5.252401077530497e-05 
-0.05860708408197709 
0 
0.000669248642607867 
0.1385805652212586 
-0.07774541384911611 
0.09097635827571895 
0 
0 
0 
0 
1.996916207882634e-05 
0.1055672925125757 
0.3943951507102859 
0 
0 
-0.1942652854673354 
-0.08386122415637542 
0 
-0.06528027381623625 
0.3342728759448633 
0.05133590957213859 
0.06827900577166333 
-0.3175299378788722 
-0.04023053099135129 
-0.08925941443053081 
0 
-0.07147939638739256 
0.1273773397960332 
1.427996444440017e-05 
0.0006818274270106138 
-0.0001760119661647773 
0.1697058029194891 
-0.1055672925125757 
0.02718801439200311 
-0.1926021440710456 
-0.2852890187865168 
0 
-0.1150908356522827 
-0.08182626484094811 
-0.1064146288753592 
0 
0 
-0.1322159228626309 
0 
-0.1501973344073673 
0 
0 
0 
-0.1067169254638118 
0.0276018871141271 
-0.07215171541563953 
-0.3672408501153253 
-0.09796286683276959 
-0.06376316029071888 
0.0001117056348737233 
0 
0 
0 
0 
0 
0 
-0.371145781293689 
7.038814278401931e-05 
0 
0 
0 
-0.1800531603805285 
0 
-0.07772630185194096 
0 
0.05017213063432132 
-0.04020040523381287 
0.1709096642352383 
0 
-0.07633448285318327 
0.1827674834582894 
0 
0 
0.3381855451227376 
0 
-0.09796286683276959 
0.07830828013735659 
0 
0.2321230290854524 
-0.3049240586875303 
0 
0 
0 
0.1077432022033804 
0 
0.08560661896824173 
0 
0 
0 
0.02332700588757271 
-0.2310820009434055 
-0.04666218939655494 
1.257564636666469e-05 
-0.2128070648031297 
0 
0.01089944435218702 
0.0229051282161985 
0 
0.0001410265699968202 
-0.1271095289162431 
0 
-0.120826299161307 
0 
-0.05578521184548531 
-0.1713388173128561 
0.01846515336329771 
0.01577408986403583 
0 
0 
0 
-0.0212971777246242 
-0.06249840577070975 
0 
0 
0 
0 
0 
0 
0 
0 
0 
-0.132847198550609 
0 
0 
0 
0 
0.000532682431130976 
0 
-0.3051902095593393 
-0.04937777746965948 
0 
0 
0.0001535984736839888 
0.3322388413754359 
-0.009786973212928584 
0.1055672925125757 
-0.07970455936357604 
0.07068148703241875 
0 
0 
0 
0.1399364263672014 
-0.01178739693934334 
0.09431800245296551 
-0.02741803254354141 
0.07080924171030155 
-0.09949939046793044 
-0.1992380091135723 
0 
0 
-0.01197545273007156 
-0.09678655072384254 
0 
0 
-0.0619495681582274 
-0.271509567069941 
0 
-0.03679673348384177 
0 
0 
-0.02768192845984365 
0 
0.04551257227816596 
0 
0 
-0.6010594999782912 
0.01823890896924004 
0 
-0.2183463849886302 
-0.09302042896978538 
0.2271117605462206 
-0.006395315039092754 
0 
0.09057493026932921 
0 
-0.0808115695828045 
0 
0.02156690643162658 
-0.3783342348864241 
0.1058201388245803 
-0.006718578292685014 
0 
0 
-0.03617747432307252 
-0.0822732287425324 
0 
-0.06069796743095553 
0 
0.08965704909541139 
0.2566303492999569 
0 
0.03678146520584927 
-0.06244592987927016 
0 
0 
0 
0.01665785943325706 
0.08327481657567604 
0 
0 
0.09214016158498206 
0 
0 
0.2204888717744953 
0 
0 
0 
0 
0 
0.06864210562579777 
0.05172751089418583 
0 
0.04688590903402243 
1.04615656838292 
0 
0.07847992496471035 
0 
0 
0 
0.1690077814472364 
-0.12236914580565 
-0.07926921193189362 
0.007473288712876818 
0 
-0.1192393373757556 
9.321946147236182e-06 
0 
-4.497633252113575e-05 
-0.0002061948857143948 
0 
0 
0.06296817569898104 
0 
0 
-0.0001584379182371253 
0.07658184490855317 
0.2190962980441261 
0.09353775416840079 
0.25421965864545 
0 
-0.06570532609266599 
0.04035173887328582 
-0.08787236511788885 
0.0003666282610231923 
0 
0 
0 
0.000484636259432924 
0 
-0.08543418711342339 
0 
0.1329486824213801 
0.002404356653004548 
-0.244904088201873 
0.479606099968882 
0 
0 
-0.1109748799323292 
0.03523567135674689 
0 
-0.1229881980527284 
0 
0 
4.876384498407466e-05 
0.07698107102525972 
0 
0 
-0.05427568740227025 
0 
0 
-0.05926675084756805 
-0.1073057026482972 
0.1036483894164241 
0.1241001572427259 
0 
0 
0 
0.1512133892339108 
0.7911280612841969 
-0.0512481715299746 
0.3493581511704352 
0.0843126711225053 
-0.1055672925125757 
0.07870269208756905 
-0.0002787842330022358 
0.002089251740402261 
-0.09233088378810235 
0 
0.3441534519088092 
0 
-0.1398007118338358 
0 
-0.1290442121022468 
-0.1258353068348278 
0.1821954756872879 
0 
-0.4265735118734821 
0 
0 
0 
0 
0 
-0.07305845273485101 
9.991819327561519e-06 
0.04573263714203388 
0.105544271878479 
0 
0.197564768735489 
0 
-0.03929435254998455 
0 
0 
0.2476693732751849 
0 
0 
0 
0 
0 
3.323145273989968e-05 
0 
-0.2127290303150604 
-0.1347446661297336 
0 
0.01617248601378339 
0 
0 
0 
0 
0.04458269411971027 
-0.2057441701056909 
0 
0.1519489487720405 
0 
-0.0749056022903296 
-0.03975377138649171 
0.0874370973450747 
0 
-0.03586645462796934 
0.02439406016076314 
0.06261533417114305 
-0.1183755740891786 
0 
0 
0.1070234679177973 
0 
-0.1515988833035959 
-0.01552071003090554 
-9.002943111271572e-05 
0.1141151300815884 
0 
0 
0 
0 
0 
0.1648956653330297 
0 
0.04666674286536328 
0.03235622525725766 
0 
-0.180846013054359 
0 
0 
0 
0 
0.6287628649290897 
-0.04732826301763731 
0.07385480686602797 
0 
0 
0 
0 
0 
0 
0 
-0.0089950269240024 
0 
-0.1537886738084863 
-0.01187081512797729 
0 
0.206309767444069 
0 
0 
-0.145439722887658 
-0.05676757748896383 
0 
0 
0.0003845897442768572 
-0.2651059797952248 
0 
0.224751796625611 
-0.1713500698328472 
0 
0 
-0.2038795793101323 
-0.03932398330762257 
-0.1216476771981423 
0.1313576032796818 
0 
0 
0.04215192809034222 
-0.03363209862312341 
-0.2874140713149005 
0.1380151155617038 
-0.0003885016439131009 
0 
0 
-0.1912792518388292 
0 
0.07380654065451389 
-0.1343807109442166 
-0.04957668869620866 
0 
-2.561585861609004e-07 
0.1095319423299217 
0 
0 
0.09508488429250286 
0 
-0.01582885034905318 
0 
0 
0 
-0.3276826008280423 
-0.3440593137518379 
-0.1750809102141334 
0 
-0.03342487742841011 
0 
0.04113385118373893 
0 
0 
-0.04516277035594635 
-0.1177649630290473 
0 
0.02417532960955508 
0.01290509630670331 
0 
-0.2239998851286859 
0 
0.04428448932081409 
-0.04811292284981475 
-0.06393933059275608 
0 
0 
-0.0472345357475102 
0 
0 
0 
0.1600078716771481 
0 
0 
0.001004946910077728 
0 
0 
0 
-0.03167912977752632 
-8.644617988489063e-05 
0 
0.06041749678811124 
-0.4896483308531384 
0 
0.03462451143328892 
0.1466054052502709 
0 
0 
-0.01128326345169851 
0.05657545343244666 
0 
-0.009894554686607644 
-0.03908191930787474 
0.09823063445848421 
-0.01387704955473238 
0.08173605955713328 
0.1362953616125112 
-0.09326481152271775 
0 
0 
0 
-0.07926355931596225 
-0.07581914656567534 
0 
0 
0 
-0.1404470424040247 
0.07465598445692953 
0 
0.09796286683276959 
-0.09772197052663366 
0 
0.3965786481288999 
-0.03498394206982282 
-0.1409523629800477 
-0.06465813104987765 
0 
-0.08622123631394236 
0 
-0.07198015949096565 
0.05938242581697079 
0 
-0.001495670964573871 
0 
0.1055672925125757 
0.00117231343038991 
0 
-0.02106673661634432 
0 
0 
-0.07022264872239256 
0 
-0.09882613819734554 
0 
0.03539295235481556 
0 
0 
0 
0 
0.1827049038661372 
0.1819446846122127 
0 
-0.0001783489118561367 
0 
-1.31820100583565e-05 
0.13736263561919 
-0.4508900571021081 
-0.0006308663320510571 
-0.1174547203281249 
0 
0.08065719522972599 
0 
0 
0 
0 
0 
0 
0 
-0.08587363410035465 
0 
-0.001570657107211524 
-0.1096149849921271 
0 
0 
0.1460366316321249 
-0.1055672925125757 
0 
-0.3503628453807068 
-0.1243881654974617 
0.1427993197231406 
0 
-0.03846251979968733 
0.03079641167703973 
0.1055672925125757 
0 
0.1676282286143548 
0.01736760159714571 
0 
0 
-0.04341516647701449 
0 
-0.01544804878606062 
0 
0.0001546582501243247 
-0.06409097413241251 
-0.06681555503099186 
-0.008887627175861449 
0 
0 
-0.114761594497377 
0 
0.1012924069388594 
-0.03796154202749515 
0 
0.0775537533988859 
0 
0 
0 
0.03462614105958171 
0.1227936334092967 
0 
0.1185433554620462 
0.08094313031144999 
0 
0.01289897017924569 
-0.05750307410015624 
0 
-0.03524418413512964 
0 
0 
0 
0 
0 
-0.01083517160418998 
0 
0.3849166391267647 
0 
0 
0 
0 
0.3295276404655222 
0.07604758542976274 
-0.2829929361863072 
-0.0876219956977627 
0 
-0.004280747594266131 
-0.1089290385662498 
0 
-0.1909883819050816 
0 
0 
-0.2959414811796631 
0.2948750417176969 
-0.1284052393024298 
0 
0 
-0.1312220349144908 
0 
0.09604843227425158 
-0.1275585219680958 
0 
0 
0.1195339120744054 
0.100203109868315 
0 
0 
0.1084652201597636 
0 
0 
0 
-0.06479482723897002 
0.0001218745081563716 
0 
0.07719393814644748 
-0.4035096052513347 
0 
0.0002144648433864806 
0 
0.03551145824148742 
-0.02664145834782067 
-0.006074733530300512 
0 
0 
0 
-0.0001023140893196349 
0 
0 
-0.03873008825104485 
0 
0 
0.09945757871068292 
0.1055672925125757 
-0.3372458352417821 
0.03864445369520121 
0 
0.1803778216297483 
0 
0 
0 
-0.1765173796820271 
-0.07269651725531226 
-0.1055672925125757 
0 
0 
0 
0 
0 
0 
-0.1355257595383825 
0 
0 
0 
0 
-0.02464573830148421 
0 
0.3603657965946635 
0 
-0.02887035286109664 
0 
-0.04672156576179654 
0 
0.1055212971227858 
0 
-0.01801991546150831 
0.5970179407223727 
0 
0 
-8.615224511817769e-05 
-0.0116460380539639 
-0.0785930855848736 
0 
-0.01383620512561958 
0 
0.06200301728374571 
-0.01098014297760099 
-0.04961971792879359 
-0.4570026412137714 
0 
-0.2165416861036913 
0.141455420956922 
0 
2.865737401673953e-05 
0 
-0.6697646653159157 
0 
0.05020649665810047 
0.06530057017067235 
0.1190242156537203 
0 
0.1621044235453613 
0 
0.1609878642346994 
0.2265877042603586 
0.0412119730533582 
0 
0 
0.1114927150794014 
0 
0 
0.1074378347100536 
-0.02170237962264918 
0 
-0.04529462631665902 
0 
-0.0001966256671611105 
0.04379991332379374 
0 
0 
0 
1.58243688055713e-05 
0.07533712478699507 
-0.1146053980693201 
-0.05714863790380251 
0 
0 
0 
0 
-0.1036896268053621 
0 
-0.609581546629277 
0 
-0.2315608563777849 
0 
0.1227610975077154 
-0.04055925936345378 
0.03157618699986278 
0.05892352144661891 
0 
0.2052025700216465 
-0.05510631124372785 
-0.05327388650077284 
-0.0002631433881243388 
0 
0 
-0.001859726166308681 
0 
-0.001297001204512649 
0.02020918544145805 
0 
0 
0 
0 
-0.07758141827383794 
0 
0 
0.06064372475921809 
0 
-0.1580994023324906 
0.1055672925125757 
0.008737882200939002 
0.2342495911023891 
0 
-0.003190066063952241 
0 
0 
-0.07971678210199032 
-0.0007530770696849982 
0.09700442096786918 
-0.1190124857662198 
-3.466630226788762e-05 
0.1382925197279843 
0 
0.3891121280940413 
-0.1238852658872409 
0 
0 
-0.09868312762970807 
0.04953432986793558 
0.1100709381481888 
0 
-0.1560256593449752 
0 
0.05750502078098704 
0.05655249455635274 
-0.09862421881386982 
0.1662407204799334 
0.04392450499682995 
0 
0 
0 
-0.000547293022616357 
0.08310208709782996 
-0.05259202388721034 
-0.04410547936962887 
0.2902196430967628 
-0.07838085409830135 
0.3293988441906282 
0 
0 
0 
0 
0 
0 
0.370684805224422 
0 
-0.1373023962386529 
-0.2480618301226066 
0 
-0.1948745390775344 
-7.460855092919776e-05 
0 
0 
0 
0.2245394870065459 
0 
0.09320369577351571 
0 
-0.2462088956552255 
-0.09020400671791091 
-0.006561093611393148 
0 
-0.1398664820770945 
-0.07331690190063912 
0 
0 
0 
0.04402821328816442 
0.1130156561260164 
0.09142301474972803 
-0.1062728177921205 
0.100608264097206 
-0.136528133915182 
0.02584054368768493 
0 
-0.2589699312145369 
-0.06023146309067774 
0.01617084295296478 
-0.03086503731099732 
0 
0 
0 
-0.2261567883827562 
0 
0.06449268821210732 
0 
-0.08426789749685236 
0 
-0.05686859635187971 
-0.08141727506367782 
-0.1814393410375115 
0.04022127131369251 
-0.1066148267704656 
0.004073422704586108 
0 
0 
-0.05030543408183799 
-0.1900499461585898 
0 
0 
0.1329499998763229 
-0.1678655992969091 
0.01206182810628736 
0.02566508295968756 
-0.1510876268679415 
-0.123650275595143 
0 
-0.02905131636854167 
0 
0 
0.2131027141100342 
-0.02244331764989769 
0.02208490853968154 
0.2015117375929264 
0 
-0.07406533584959568 
0 
0 
0.04138981527978481 
0.09243192414844766 
-0.0158601515177765 
-0.05437588661239291 
-0.02539454147142277 
0.04582698796638464 
-0.06296301019508244 
0.001094288763729856 
0 
0 
0 
0.166129197216734 
0 
-0.0004168855870640246 
0.1522436461706242 
-0.08398498712206778 
0 
0 
-0.01848233408582992 
0.1449268761731359 
0.001541949500185654 
0 
0.03568948070452845 
0 
-0.2255029577737363 
0 
0.7115440292642561 
0 
-0.5632044945174743 
0.08853823600871813 
0.09765711089614865 
0 
0.05147377534908228 
0.1284487035754895 
-0.3190157093915849 
-0.1472316805732767 
0 
0 
0 
0.2927097797842343 
0 
0 
0 
-0.1038680433445044 
0.2386093220590742 
0 
0 
-0.04037729373221597 
0 
0 
-0.08112612817077058 
0.3568402909379687 
0 
0.06917419902690894 
0 
0 
0.04228026288430591 
0.01838741229651786 
0.0006867670262567208 
0 
-0.0002838980925900785 
0.1959257336655392 
0.08951469946055408 
0 
0 
0 
-0.0680700208101318 
0.1445523389160828 
-0.06545786256564676 
-0.04272069370413627 
-0.3278633144221953 
0.007587873176131546 
0 
0.0002563309386866067 
0.04869671725374905 
0.0707456339220781 
0.08563636195014104 
0 
0.02046482809168824 
0 
0.1081069135549437 
0 
0 
-0.07291972866661928 
0 
0.0319042695797383 
-0.05993230178379599 
0 
-0.09486745428140997 
0 
0 
-0.1781099613635632 
0.05118421160773733 
-0.1324881821119156 
-0.03221257181730906 
0 
-0.1878827464705934 
-0.07152458186720435 
-0.06977533205356265 
0 
-0.0002806498259343125 
6.585242835838818e-05 
0 
0.08995617962732853 
0 
0.09591114188577581 
0 
-0.07943153423859473 
0 
-0.02224960632837244 
0 
-0.0002020892186534611 
0.09215041231594037 
0.1921886130201157 
-0.2188707908372549 
-0.1077666224859758 
0 
-0.08204979988496207 
0 
-0.0880755427927918 
0.2742233218834422 
0 
0 
0.006526635765811816 
6.633083131693388e-05 
-0.1526814281739748 
0 
-0.31659571646933 
0.1161363967198851 
-0.08505202113125546 
-0.1091380071538827 
-0.01978445845396162 
0 
-5.543158876994368e-05 
0 
-8.459140930355346e-06 
0 
0 
0.0002518398815656647 
0.6457259631479357 
-0.2993746926634687 
0 
0.1432352391955141 
0 
0 
0 
-0.2712727262698387 
0.0001114467699932045 
0.1055672925125757 
0.0004037279416248549 
0 
-8.604680404376592e-05 
0.3369703227862681 
0 
0 
0 
0 
-0.2762999578492319 
0.1055672925125757 
0 
-0.02926275137746493 
0 
0 
0 
-0.02032127383287702 
-0.000227083120203519 
-0.08722522431365207 
0 
-0.07676167585619494 
-0.1535489590171476 
0.08726897935904591 
-0.001312332652566577 
0 
0.08777638900866602 
-0.1974169502714011 
0.0717922155033438 
-0.3440583884178794 
-0.09898410695224824 
-0.03046476960648044 
-0.09225998369355387 
-2.082337113766723e-05 
-0.03279203784480193 
0 
0 
-0.2419209918827665 
-0.106150496133387 
0 
0 
0 
0 
0 
0.1060968562245999 
-0.2031688351970423 
0 
0 
0 
0 
-0.2247921254611175 
0.2129829512746982 
-0.07129115069372284 
-1.001953454886032 
-0.1055672925125757 
-0.1007197517391564 
0 
0 
0 
-0.02739311017579866 
0 
-0.2248735234190314 
0 
0 
0 
0 
0 
0 
0 
0 
-0.0266042792521901 
0 
0.1612309590104453 
-0.1492601755007649 
5.018684369831905e-05 
0.1148461445536142 
0 
-0.2620908051250896 
